{"learner":{"attributes":{"best_iteration":"0","best_score":"9.588128512221928"},"feature_names":[],"feature_types":[],"gradient_booster":{"model":{"cats":{"enc":[],"feature_segments":[],"sorted_idx":[]},"gbtree_model_param":{"num_parallel_tree":"1","num_trees":"31"},"iteration_indptr":[0,1,2,3,4,5,6,7,8,9,10,11,12,13,14,15,16,17,18,19,20,21,22,23,24,25,26,27,28,29,30,31],"tree_info":[0,0,0,0,0,0,0,0,0,0,0,0,0,0,0,0,0,0,0,0,0,0,0,0,0,0,0,0,0,0,0],"trees":[{"base_weights":[4.9251613E-1,5.5011272E0,-1.07009535E1,1.548769E0,9.260557E0,-1.453811E1,-3.3171196E0,3.9820235E0,-6.9978166E0,1.0509905E1,2.540134E0,-1.14043884E-1,-1.6485945E1,-6.7654114E0,9.768486E-1,5.6813407E0,1.2903786E0,-1.8386863E-1,-5.1234376E-1,1.4085601E-1,1.1265419E1,4.560562E-1,-2.2744416E-1,-5.018263E-1,-9.541686E-1,-1.3075943E-1,-4.2023292E-1,1.433651E-1,-3.654419E-2,3.5427448E-1,2.6100159E-2,1.6872583E-2,2.0323983E-1,3.1217363E-1,6.217746E-1],"categories":[],"categories_nodes":[],"categories_segments":[],"categories_sizes":[],"default_left":[0,0,0,0,0,0,0,0,0,0,0,0,0,0,0,0,0,0,0,0,0,0,0,0,0,0,0,0,0,0,0,0,0,0,0],"id":0,"left_children":[1,3,5,7,9,11,13,15,17,19,21,-1,23,25,27,29,31,-1,-1,-1,33,-1,-1,-1,-1,-1,-1,-1,-1,-1,-1,-1,-1,-1,-1],"loss_changes":[7.7956626E3,1.4120845E3,1.1700918E3,1.0260742E3,3.8471387E2,6.309004E2,2.4351846E2,1.6647937E2,8.098993E1,2.0655566E2,4.6136575E2,0E0,2.1051465E2,3.924939E1,2.7922771E1,1.6292444E2,4.0929405E1,0E0,0E0,0E0,1.3977344E2,0E0,0E0,0E0,0E0,0E0,0E0,0E0,0E0,0E0,0E0,0E0,0E0,0E0,0E0],"parents":[2147483647,0,0,1,1,2,2,3,3,4,4,5,5,6,6,7,7,8,8,9,9,10,10,12,12,13,13,14,14,15,15,16,16,20,20],"right_children":[2,4,6,8,10,12,14,16,18,20,22,-1,24,26,28,30,32,-1,-1,-1,34,-1,-1,-1,-1,-1,-1,-1,-1,-1,-1,-1,-1,-1,-1],"split_conditions":[5.0019E2,4.8585E2,5.2141E2,4.9378E2,5.0085E2,4.8973E2,5.3592E2,4.5959E6,4.2947E6,4.8502E2,3.7673E6,-1.14043884E-1,3.8735E6,5.1822E2,5.2545E2,5.2976E6,4.6636E6,-1.8386863E-1,-5.1234376E-1,1.4085601E-1,3.4415E6,4.560562E-1,-2.2744416E-1,-5.018263E-1,-9.541686E-1,-1.3075943E-1,-4.2023292E-1,1.433651E-1,-3.654419E-2,3.5427448E-1,2.6100159E-2,1.6872583E-2,2.0323983E-1,3.1217363E-1,6.217746E-1],"split_indices":[2,2,71,94,0,70,57,4,81,56,39,0,88,59,7,32,32,0,0,0,95,0,0,0,0,0,0,0,0,0,0,0,0,0,0],"split_type":[0,0,0,0,0,0,0,0,0,0,0,0,0,0,0,0,0,0,0,0,0,0,0,0,0,0,0,0,0,0,0,0,0,0,0],"sum_hessian":[1.37E2,9.5E1,4.2E1,4.7E1,4.8E1,2.7E1,1.5E1,3.7E1,1E1,4E1,8E0,4E0,2.3E1,8E0,7E0,2.2E1,1.5E1,6E0,4E0,4E0,3.6E1,4E0,4E0,8E0,1.5E1,3E0,5E0,3E0,4E0,1.7E1,5E0,1.2E1,3E0,8E0,2.8E1],"tree_param":{"num_deleted":"0","num_feature":"98","num_nodes":"35","size_leaf_vector":"1"}},{"base_weights":[1.1381465E-1,5.5313263E0,-9.748333E0,1.2122552E0,9.54892E0,-1.3025182E1,-1.2340068E0,3.5012555E0,-7.149371E0,5.53683E-2,1.0527501E1,-1.462641E1,-1.2906545E-1,-3.0915272E0,2.3235284E-1,4.5618744E0,6.76042E-1,-1.6223882E-1,-5.2025056E-1,1.1183413E1,7.502403E-2,-1.0098343E-1,-1.5905001E1,-4.565666E0,-5.7299803E-3,3.081239E-1,6.92331E-2,-2.2177124E-2,1.3731003E-1,3.4077808E-1,6.045372E-1,-5.508453E-1,-9.0042794E-1,-2.846927E-1,-1.0070076E-1],"categories":[],"categories_nodes":[],"categories_segments":[],"categories_sizes":[],"default_left":[0,0,0,0,0,0,0,0,0,0,0,0,0,0,0,0,0,0,0,0,0,0,0,0,0,0,0,0,0,0,0,0,0,0,0],"id":1,"left_children":[1,3,5,7,9,11,13,15,17,-1,19,21,-1,23,-1,25,27,-1,-1,29,-1,-1,31,33,-1,-1,-1,-1,-1,-1,-1,-1,-1,-1,-1],"loss_changes":[7.533884E3,1.5674812E3,1.378935E3,8.863212E2,3.7659668E2,5.6427295E2,1.7822943E2,1.0478909E2,9.3357635E1,0E0,2.3189844E2,4.675625E2,0E0,5.2137634E1,0E0,1.23688965E2,2.6712948E1,0E0,0E0,7.215527E1,0E0,0E0,8.95083E1,1.1562424E1,0E0,0E0,0E0,0E0,0E0,0E0,0E0,0E0,0E0,0E0,0E0],"parents":[2147483647,0,0,1,1,2,2,3,3,4,4,5,5,6,6,7,7,8,8,10,10,11,11,13,13,15,15,16,16,19,19,22,22,23,23],"right_children":[2,4,6,8,10,12,14,16,18,-1,20,22,-1,24,-1,26,28,-1,-1,30,-1,-1,32,34,-1,-1,-1,-1,-1,-1,-1,-1,-1,-1,-1],"split_conditions":[5.0311E2,4.8585E2,5.2141E2,4.9378E2,4.8343E2,5.2468E2,5.3641E2,5.0607E6,4.2947E6,5.53683E-2,5.5738E6,4.9808E2,-1.2906545E-1,5.2762E2,2.3235284E-1,4.5959E6,7.1393E6,-1.6223882E-1,-5.2025056E-1,3.4415E6,7.502403E-2,-1.0098343E-1,3.9483E6,5.1821E2,-5.7299803E-3,3.081239E-1,6.92331E-2,-2.2177124E-2,1.3731003E-1,3.4077808E-1,6.045372E-1,-5.508453E-1,-9.0042794E-1,-2.846927E-1,-1.0070076E-1],"split_indices":[3,2,92,94,72,72,64,11,81,0,11,23,0,49,0,4,11,0,0,95,0,0,95,38,0,0,0,0,0,0,0,0,0,0,0],"split_type":[0,0,0,0,0,0,0,0,0,0,0,0,0,0,0,0,0,0,0,0,0,0,0,0,0,0,0,0,0,0,0,0,0,0,0],"sum_hessian":[1.39E2,9E1,4.9E1,4.4E1,4.6E1,3.5E1,1.4E1,3.5E1,9E0,5E0,4.1E1,3E1,5E0,1.1E1,3E0,2.5E1,1E1,5E0,4E0,3.8E1,3E0,3E0,2.7E1,7E0,4E0,1.6E1,9E0,7E0,3E0,8E0,3E1,1E1,1.7E1,4E0,3E0],"tree_param":{"num_deleted":"0","num_feature":"98","num_nodes":"35","size_leaf_vector":"1"}},{"base_weights":[-7.077267E-1,4.824266E0,-9.949566E0,9.7540766E-1,8.563481E0,-1.454297E1,-3.525579E0,3.1582704E0,-6.762152E0,1.9383545E0,9.764496E0,-1.6979599E1,-9.473058E0,-5.1296268E0,9.370804E-2,4.3831176E-1,4.0829363E0,-1.5547918E-1,-4.896402E-1,1.97789E-1,-5.3400803E-2,1.11398945E1,3.3861885E0,-4.4982177E-1,-9.2543405E-1,-2.1625976E-1,-5.75317E-1,-7.287267E0,-6.980111E-1,-6.7939E-2,7.0130266E-2,2.8817883E-1,4.0877685E-2,4.6584114E-1,7.49437E-1,-1.5741577E-2,3.5829583E-1,-4.9080583E-1,-2.039322E-1,6.9840245E-2,-1.3091622E-1],"categories":[],"categories_nodes":[],"categories_segments":[],"categories_sizes":[],"default_left":[0,0,0,0,0,0,0,0,0,0,0,0,0,0,0,0,0,0,0,0,0,0,0,0,0,0,0,0,0,0,0,0,0,0,0,0,0,0,0,0,0],"id":2,"left_children":[1,3,5,7,9,11,13,15,17,19,21,23,25,27,-1,29,31,-1,-1,-1,-1,33,35,-1,-1,-1,-1,37,39,-1,-1,-1,-1,-1,-1,-1,-1,-1,-1,-1,-1],"loss_changes":[7.1033574E3,1.2437262E3,1.4831421E3,7.64518E2,3.311753E2,2.0975635E2,2.0882684E2,8.6237274E1,8.024515E1,5.2745865E1,2.868689E2,6.5418945E1,7.5837524E1,1.670264E2,0E0,1.9235073E1,1.379743E2,0E0,0E0,0E0,0E0,7.085425E1,1.1416684E2,0E0,0E0,0E0,0E0,5.7333008E1,3.1816204E1,0E0,0E0,0E0,0E0,0E0,0E0,0E0,0E0,0E0,0E0,0E0,0E0],"parents":[2147483647,0,0,1,1,2,2,3,3,4,4,5,5,6,6,7,7,8,8,9,9,10,10,11,11,12,12,13,13,15,15,16,16,21,21,22,22,27,27,28,28],"right_children":[2,4,6,8,10,12,14,16,18,20,22,24,26,28,-1,30,32,-1,-1,-1,-1,34,36,-1,-1,-1,-1,38,40,-1,-1,-1,-1,-1,-1,-1,-1,-1,-1,-1,-1],"split_conditions":[5.0311E2,4.8585E2,5.16E2,4.9378E2,4.8343E2,5.0044E6,6.4515E6,3.9563E6,4.2947E6,4.906E2,5.021E2,3.9483E6,5.017E2,5.3572E2,9.370804E-2,4.001E6,4.9084E6,-1.5547918E-1,-4.896402E-1,1.97789E-1,-5.3400803E-2,4.9298E2,4.9496E2,-4.4982177E-1,-9.2543405E-1,-2.1625976E-1,-5.75317E-1,4.776E6,5.2681E2,-6.7939E-2,7.0130266E-2,2.8817883E-1,4.0877685E-2,4.6584114E-1,7.49437E-1,-1.5741577E-2,3.5829583E-1,-4.9080583E-1,-2.039322E-1,6.9840245E-2,-1.3091622E-1],"split_indices":[3,2,92,94,72,18,88,25,81,2,71,88,91,92,0,18,11,0,0,0,0,79,3,0,0,0,0,46,14,0,0,0,0,0,0,0,0,0,0,0,0],"split_type":[0,0,0,0,0,0,0,0,0,0,0,0,0,0,0,0,0,0,0,0,0,0,0,0,0,0,0,0,0,0,0,0,0,0,0,0,0,0,0,0,0],"sum_hessian":[1.37E2,8.6E1,5.1E1,4.3E1,4.3E1,2.9E1,2.2E1,3.4E1,9E0,7E0,3.6E1,1.8E1,1.1E1,1.7E1,5E0,9E0,2.5E1,5E0,4E0,4E0,3E0,2.9E1,7E0,4E0,1.4E1,4E0,7E0,1.1E1,6E0,3E0,6E0,1.6E1,9E0,2.2E1,7E0,4E0,3E0,5E0,6E0,3E0,3E0],"tree_param":{"num_deleted":"0","num_feature":"98","num_nodes":"41","size_leaf_vector":"1"}},{"base_weights":[5.779256E-1,4.991163E0,-8.359463E0,8.1595486E-1,8.55326E0,-1.3233178E1,-2.6627073E0,2.9074123E0,-4.3487987E-1,2.919108E-2,9.445609E0,-1.609543E1,-5.496746E0,1.16741434E-1,-4.2699137E0,4.323635E0,3.730883E-1,9.5904924E-2,9.94962E0,-3.695221E-1,-8.716448E-1,9.567108E-2,-5.1627654E-1,-6.126459E0,-7.42497E-1,2.9993767E-1,5.2568395E-2,-2.7707327E-2,1.414856E-1,5.435957E-1,2.3930855E-1,-4.2561623E-1,-1.359759E-1,-1.0241013E-1,3.7441637E-2],"categories":[],"categories_nodes":[],"categories_segments":[],"categories_sizes":[],"default_left":[0,0,0,0,0,0,0,0,0,0,0,0,0,0,0,0,0,0,0,0,0,0,0,0,0,0,0,0,0,0,0,0,0,0,0],"id":3,"left_children":[1,3,5,7,9,11,13,15,-1,-1,17,19,21,-1,23,25,27,-1,29,-1,-1,-1,-1,31,33,-1,-1,-1,-1,-1,-1,-1,-1,-1,-1],"loss_changes":[5.3665034E3,1.346418E3,1.2141609E3,8.808666E2,3.429502E2,4.429746E2,1.866751E2,1.27596924E2,0E0,0E0,1.4784888E2,6.908838E1,3.0601392E2,0E0,1.0678088E2,1.1976611E2,3.3458214E1,0E0,1.4321582E2,0E0,0E0,0E0,0E0,6.626413E1,1.5164424E1,0E0,0E0,0E0,0E0,0E0,0E0,0E0,0E0,0E0,0E0],"parents":[2147483647,0,0,1,1,2,2,3,3,4,4,5,5,6,6,7,7,10,10,11,11,12,12,14,14,15,15,16,16,18,18,23,23,24,24],"right_children":[2,4,6,8,10,12,14,16,-1,-1,18,20,22,-1,24,26,28,-1,30,-1,-1,-1,-1,32,34,-1,-1,-1,-1,-1,-1,-1,-1,-1,-1],"split_conditions":[5.0311E2,4.8453E2,5.16E2,5.0014E2,4.8343E2,5.0448E6,4.3856E6,4.5571E6,-4.3487987E-1,2.919108E-2,4.838E2,3.9483E6,4.1162E6,1.16741434E-1,5.3572E2,4.5959E6,4.5041E6,9.5904924E-2,4.9762E2,-3.695221E-1,-8.716448E-1,9.567108E-2,-5.1627654E-1,5.3434E6,5.3652E2,2.9993767E-1,5.2568395E-2,-2.7707327E-2,1.414856E-1,5.435957E-1,2.3930855E-1,-4.2561623E-1,-1.359759E-1,-1.0241013E-1,3.7441637E-2],"split_indices":[3,2,92,92,72,18,95,39,0,0,58,88,74,0,43,4,81,0,72,0,0,0,0,32,29,0,0,0,0,0,0,0,0,0,0],"split_type":[0,0,0,0,0,0,0,0,0,0,0,0,0,0,0,0,0,0,0,0,0,0,0,0,0,0,0,0,0,0,0,0,0,0,0],"sum_hessian":[1.34E2,9E1,4.4E1,4.2E1,4.8E1,2.3E1,2.1E1,3.5E1,7E0,5E0,4.3E1,1.6E1,7E0,5E0,1.6E1,2.2E1,1.3E1,3E0,4E1,3E0,1.3E1,3E0,4E0,1E1,6E0,1.4E1,8E0,1E1,3E0,3.3E1,7E0,5E0,5E0,3E0,3E0],"tree_param":{"num_deleted":"0","num_feature":"98","num_nodes":"35","size_leaf_vector":"1"}},{"base_weights":[3.030912E-2,5.216117E0,-8.6486E0,-2.035403E0,6.3682594E0,-1.2597138E1,-2.7840183E0,1.880934E-1,-3.2647094E-1,3.5883484E0,8.4329815E0,-3.8394164E-2,-1.3932519E1,-4.30395E0,2.3758392E-1,6.456528E-2,-7.568741E-2,5.2556496E0,-6.0527956E-1,1.0466292E1,3.4048533E0,-8.751198E-1,-1.0147782E1,-6.8654976E0,-2.0497382E0,1.4754212E-1,3.2632688E-1,-8.852801E-2,7.926407E-2,2.7692983E-1,5.7792276E-1,-2.9910026E-2,2.9907686E-1,-6.125979E-1,-3.3875677E-1,-4.38284E-1,-1.3869476E-1,-1.6555743E-1,6.309204E-3],"categories":[],"categories_nodes":[],"categories_segments":[],"categories_sizes":[],"default_left":[0,0,0,0,0,0,0,0,0,0,0,0,0,0,0,0,0,0,0,0,0,0,0,0,0,0,0,0,0,0,0,0,0,0,0,0,0,0,0],"id":4,"left_children":[1,3,5,7,9,11,13,15,-1,17,19,-1,21,23,-1,-1,-1,25,27,29,31,-1,33,35,37,-1,-1,-1,-1,-1,-1,-1,-1,-1,-1,-1,-1,-1,-1],"loss_changes":[5.8960415E3,6.980542E2,1.0995989E3,1.2113727E2,3.7726147E2,4.4740137E2,2.609796E2,1.8852142E1,0E0,2.2692648E2,3.7331372E2,0E0,1.7367725E2,8.986441E1,0E0,0E0,0E0,4.8111694E1,2.8333017E1,8.667432E1,1.3766798E2,0E0,2.3440796E1,3.788327E1,3.0609856E1,0E0,0E0,0E0,0E0,0E0,0E0,0E0,0E0,0E0,0E0,0E0,0E0,0E0,0E0],"parents":[2147483647,0,0,1,1,2,2,3,3,4,4,5,5,6,6,7,7,9,9,10,10,12,12,13,13,17,17,18,18,19,19,20,20,22,22,23,23,24,24],"right_children":[2,4,6,8,10,12,14,16,-1,18,20,-1,22,24,-1,-1,-1,26,28,30,32,-1,34,36,38,-1,-1,-1,-1,-1,-1,-1,-1,-1,-1,-1,-1,-1,-1],"split_conditions":[5.0311E2,4.7304E2,5.21E2,4.79E2,4.9109E2,4.8973E2,5.3738E2,4.3859E6,-3.2647094E-1,4.6788E6,5.0211E2,-3.8394164E-2,5.1575E2,4.9778E6,2.3758392E-1,6.456528E-2,-7.568741E-2,4.1306E6,5.3214E6,3.4415E6,4.9659E2,-8.751198E-1,4.776E6,5.3434E6,5.2588E2,1.4754212E-1,3.2632688E-1,-8.852801E-2,7.926407E-2,2.7692983E-1,5.7792276E-1,-2.9910026E-2,2.9907686E-1,-6.125979E-1,-3.3875677E-1,-4.38284E-1,-1.3869476E-1,-1.6555743E-1,6.309204E-3],"split_indices":[10,7,78,15,71,77,64,39,0,4,64,0,15,53,0,0,0,60,25,95,51,0,4,18,44,0,0,0,0,0,0,0,0,0,0,0,0,0,0],"split_type":[0,0,0,0,0,0,0,0,0,0,0,0,0,0,0,0,0,0,0,0,0,0,0,0,0,0,0,0,0,0,0,0,0,0,0,0,0,0,0],"sum_hessian":[1.29E2,8.1E1,4.8E1,1.1E1,7E1,2.8E1,2E1,8E0,3E0,3.1E1,3.9E1,3E0,2.5E1,1.7E1,3E0,5E0,3E0,2.2E1,9E0,2.7E1,1.2E1,1.1E1,1.4E1,7E0,1E1,9E0,1.3E1,6E0,3E0,6E0,2.1E1,5E0,7E0,7E0,7E0,4E0,3E0,6E0,4E0],"tree_param":{"num_deleted":"0","num_feature":"98","num_nodes":"39","size_leaf_vector":"1"}},{"base_weights":[-3.396652E-1,4.140465E0,-8.835837E0,1.144303E0,7.4510927E0,-1.2996169E1,-3.1392405E0,3.4872303E0,-6.5655694E0,2.803028E0,9.758608E0,-1.3780587E1,-2.4222565E-1,1.3638489E-1,-4.5945435E0,2.499241E0,3.2514176E-1,-4.7809297E-1,-1.5296915E-1,3.210155E-1,-9.371948E-3,3.7919354E0,1.1150265E1,-2.5933114E-1,-1.4716736E1,-6.499308E0,-6.72869E-1,1.9029753E-1,3.203343E-2,1.1175263E-1,-9.390818E-2,2.7638704E-1,5.5407334E-2,2.7395973E-1,5.8634824E-1,-3.3195877E-1,-7.821355E-1,-1.5843938E-1,-4.212784E-1,-9.2344664E-2,3.346863E-2],"categories":[],"categories_nodes":[],"categories_segments":[],"categories_sizes":[],"default_left":[0,0,0,0,0,0,0,0,0,0,0,0,0,0,0,0,0,0,0,0,0,0,0,0,0,0,0,0,0,0,0,0,0,0,0,0,0,0,0,0,0],"id":5,"left_children":[1,3,5,7,9,11,13,15,17,19,21,23,-1,-1,25,27,-1,-1,-1,-1,29,31,33,-1,35,37,39,-1,-1,-1,-1,-1,-1,-1,-1,-1,-1,-1,-1,-1,-1],"loss_changes":[5.403602E3,9.139573E2,1.120489E3,9.260792E2,4.4456738E2,1.1228076E2,2.0037236E2,9.994388E1,9.681329E1,1.6283209E2,1.9852222E2,1.2480029E2,0E0,0E0,1.3008444E2,7.284871E1,0E0,0E0,0E0,0E0,4.6141415E1,2.6484184E1,1.0967285E1,0E0,6.069629E1,5.028656E1,1.2267029E1,0E0,0E0,0E0,0E0,0E0,0E0,0E0,0E0,0E0,0E0,0E0,0E0,0E0,0E0],"parents":[2147483647,0,0,1,1,2,2,3,3,4,4,5,5,6,6,7,7,8,8,9,9,10,10,11,11,14,14,15,15,20,20,21,21,22,22,24,24,25,25,26,26],"right_children":[2,4,6,8,10,12,14,16,18,20,22,24,-1,-1,26,28,-1,-1,-1,-1,30,32,34,-1,36,38,40,-1,-1,-1,-1,-1,-1,-1,-1,-1,-1,-1,-1,-1,-1],"split_conditions":[5.0311E2,4.8585E2,5.16E2,4.9774E2,4.8961E2,6.3843E6,4.2947E6,5.2516E6,4.8314E2,4.9057E2,3.6139E6,3.5662E6,-2.4222565E-1,1.3638489E-1,6.1293E6,4.5304E6,3.2514176E-1,-4.7809297E-1,-1.5296915E-1,3.210155E-1,3.7969E6,4.9473E2,3.0574E6,-2.5933114E-1,5.0025E2,5.1821E2,5.3652E2,1.9029753E-1,3.203343E-2,1.1175263E-1,-9.390818E-2,2.7638704E-1,5.5407334E-2,2.7395973E-1,5.8634824E-1,-3.3195877E-1,-7.821355E-1,-1.5843938E-1,-4.212784E-1,-9.2344664E-2,3.346863E-2],"split_indices":[3,9,92,92,94,18,95,81,8,14,4,88,0,0,88,39,0,0,0,0,25,23,95,0,30,31,29,0,0,0,0,0,0,0,0,0,0,0,0,0,0],"split_type":[0,0,0,0,0,0,0,0,0,0,0,0,0,0,0,0,0,0,0,0,0,0,0,0,0,0,0,0,0,0,0,0,0,0,0,0,0,0,0,0,0],"sum_hessian":[1.4E2,9.2E1,4.8E1,4.9E1,4.3E1,2.7E1,2.1E1,3.8E1,1.1E1,1.5E1,2.8E1,2.4E1,3E0,4E0,1.7E1,3E1,8E0,5E0,6E0,6E0,9E0,6E0,2.2E1,3E0,2.1E1,1.1E1,6E0,1.7E1,1.3E1,4E0,5E0,3E0,3E0,3E0,1.9E1,3E0,1.8E1,5E0,6E0,3E0,3E0],"tree_param":{"num_deleted":"0","num_feature":"98","num_nodes":"41","size_leaf_vector":"1"}},{"base_weights":[-4.892453E-1,3.4731922E0,-7.6609707E0,4.4160447E0,-5.1888666E0,-1.126794E1,-2.88601E0,2.2320116E0,7.097914E0,-4.4451728E-1,8.302841E-2,-4.424386E0,-1.3012556E1,-6.6966476E0,-6.612691E-1,3.4663928E0,-4.992317E-3,7.962663E0,1.5844421E-2,-3.4577295E-1,-4.1360855E-2,-8.476467E-1,-4.9157214E-1,-4.072824E-1,-1.6056176E-1,-3.1257293E0,1.7781882E-1,2.3444389E-1,-1.6436959E-2,4.277602E-2,-1.1206634E-1,2.7753428E-1,4.8112437E-1,-2.0772064E-1,-8.7376915E-2],"categories":[],"categories_nodes":[],"categories_segments":[],"categories_sizes":[],"default_left":[0,0,0,0,0,0,0,0,0,0,0,0,0,0,0,0,0,0,0,0,0,0,0,0,0,0,0,0,0,0,0,0,0,0,0],"id":6,"left_children":[1,3,5,7,9,11,13,15,17,-1,-1,19,21,23,25,27,29,31,-1,-1,-1,-1,-1,-1,-1,33,-1,-1,-1,-1,-1,-1,-1,-1,-1],"loss_changes":[3.8345547E3,7.334469E2,7.941914E2,4.4688354E2,2.4294038E2,2.6479028E2,1.8208069E2,1.24276535E2,2.0271265E2,0E0,0E0,5.700508E1,9.655859E1,1.4245331E1,1.6702956E2,1.3608667E2,3.4632206E1,7.06958E1,0E0,0E0,0E0,0E0,0E0,0E0,0E0,6.9172287E0,0E0,0E0,0E0,0E0,0E0,0E0,0E0,0E0,0E0],"parents":[2147483647,0,0,1,1,2,2,3,3,4,4,5,5,6,6,7,7,8,8,11,11,12,12,13,13,14,14,15,15,16,16,17,17,25,25],"right_children":[2,4,6,8,10,12,14,16,18,-1,-1,20,22,24,26,28,30,32,-1,-1,-1,-1,-1,-1,-1,34,-1,-1,-1,-1,-1,-1,-1,-1,-1],"split_conditions":[5.0281E2,5.0114E2,5.21E2,4.9298E2,4.8257E2,4.8888E2,4.776E6,4.6788E6,4.9802E2,-4.4451728E-1,8.302841E-2,5.0672E2,3.8735E6,5.2141E2,5.2008E2,5.0607E6,4.9044E2,4.945E2,1.5844421E-2,-3.4577295E-1,-4.1360855E-2,-8.476467E-1,-4.9157214E-1,-4.072824E-1,-1.6056176E-1,5.1821E2,1.7781882E-1,2.3444389E-1,-1.6436959E-2,4.277602E-2,-1.1206634E-1,2.7753428E-1,4.8112437E-1,-2.0772064E-1,-8.7376915E-2],"split_indices":[10,94,71,36,0,79,46,4,72,0,0,8,32,10,49,32,43,85,0,0,0,0,0,0,0,38,0,0,0,0,0,0,0,0,0],"split_type":[0,0,0,0,0,0,0,0,0,0,0,0,0,0,0,0,0,0,0,0,0,0,0,0,0,0,0,0,0,0,0,0,0,0,0],"sum_hessian":[1.33E2,8.6E1,4.7E1,7.8E1,8E0,2.6E1,2.1E1,4.4E1,3.4E1,5E0,3E0,6E0,2E1,7E0,1.4E1,2.8E1,1.6E1,3E1,4E0,3E0,3E0,7E0,1.3E1,4E0,3E0,9E0,5E0,2.1E1,7E0,1.2E1,4E0,1.4E1,1.6E1,4E0,5E0],"tree_param":{"num_deleted":"0","num_feature":"98","num_nodes":"35","size_leaf_vector":"1"}},{"base_weights":[3.1846586E-1,4.5788E0,-7.6762958E0,1.4395328E0,7.686078E0,-1.0629569E1,-1.1054001E0,2.741021E0,-6.2031903E0,2.53257E0,8.568762E0,-1.1844585E1,-7.282807E-2,-2.597912E0,2.0108071E-1,1.8346786E0,2.829507E-1,-3.9879534E-1,-1.4398384E-1,2.5470337E-1,-6.5122224E-2,3.386421E-2,9.225823E0,-4.8995208E-2,-1.3060514E1,-3.753852E0,1.1810303E-4,1.877601E-1,3.9551128E-2,2.6737434E-1,5.0884527E-1,-7.612429E-1,-4.8625135E-1,-2.3424256E-1,-1.0360413E-1],"categories":[],"categories_nodes":[],"categories_segments":[],"categories_sizes":[],"default_left":[0,0,0,0,0,0,0,0,0,0,0,0,0,0,0,0,0,0,0,0,0,0,0,0,0,0,0,0,0,0,0,0,0,0,0],"id":7,"left_children":[1,3,5,7,9,11,13,15,17,19,21,23,-1,25,-1,27,-1,-1,-1,-1,-1,-1,29,-1,31,33,-1,-1,-1,-1,-1,-1,-1,-1,-1],"loss_changes":[4.7014175E3,8.6684766E2,9.1972144E2,4.745612E2,1.8300049E2,3.5054443E2,1.3288188E2,9.540555E1,1.8273499E1,8.522177E1,1.9078857E2,3.7031177E2,0E0,3.9083763E1,0E0,6.116926E1,0E0,0E0,0E0,0E0,0E0,0E0,7.4680664E1,0E0,3.9635742E1,4.38414E0,0E0,0E0,0E0,0E0,0E0,0E0,0E0,0E0,0E0],"parents":[2147483647,0,0,1,1,2,2,3,3,4,4,5,5,6,6,7,7,8,8,9,9,10,10,11,11,13,13,15,15,22,22,24,24,25,25],"right_children":[2,4,6,8,10,12,14,16,18,20,22,24,-1,26,-1,28,-1,-1,-1,-1,-1,-1,30,-1,32,34,-1,-1,-1,-1,-1,-1,-1,-1,-1],"split_conditions":[5.0311E2,4.8627E2,5.2141E2,5.0014E2,4.8654E2,5.3572E2,5.3738E2,5.1546E6,4.7731E2,4.8995E2,4.8583E2,4.915E2,-7.282807E-2,5.2762E2,2.0108071E-1,3.8158E6,2.829507E-1,-3.9879534E-1,-1.4398384E-1,2.5470337E-1,-6.5122224E-2,3.386421E-2,3.4415E6,-4.8995208E-2,5.0963E2,5.2388E2,1.1810303E-4,1.877601E-1,3.9551128E-2,2.6737434E-1,5.0884527E-1,-7.612429E-1,-4.8625135E-1,-2.3424256E-1,-1.0360413E-1],"split_indices":[3,2,92,92,56,64,64,95,3,2,16,56,0,49,0,46,0,0,0,0,0,0,95,0,49,36,0,0,0,0,0,0,0,0,0],"split_type":[0,0,0,0,0,0,0,0,0,0,0,0,0,0,0,0,0,0,0,0,0,0,0,0,0,0,0,0,0,0,0,0,0,0,0],"sum_hessian":[1.36E2,8.9E1,4.7E1,4.5E1,4.4E1,3.2E1,1.5E1,3.9E1,6E0,7E0,3.7E1,2.8E1,4E0,1.2E1,3E0,3.1E1,8E0,3E0,3E0,4E0,3E0,3E0,3.4E1,3E0,2.5E1,8E0,4E0,1E1,2.1E1,8E0,2.6E1,1.3E1,1.2E1,4E0,4E0],"tree_param":{"num_deleted":"0","num_feature":"98","num_nodes":"35","size_leaf_vector":"1"}},{"base_weights":[1.5614901E-2,3.4542732E0,-8.008293E0,5.417316E-1,6.355759E0,-1.2122181E1,-2.3903134E0,2.4278495E0,-6.3661275E0,7.0344577E0,-1.5191078E-1,-3.7288818E-1,-1.3604132E1,1.977543E-1,-3.8272686E0,3.7587059E0,7.590766E-1,-3.8897464E-1,-1.5570953E-1,5.107495E0,5.1641476E-1,-2.8124467E-1,-7.456095E-1,-5.3688383E0,-1.8158978E-2,1.1473837E-1,3.2839465E-1,5.106449E-3,1.5985489E-1,1.3761215E-1,3.571764E-1,-1.5665436E-1,-3.712561E-1],"categories":[],"categories_nodes":[],"categories_segments":[],"categories_sizes":[],"default_left":[0,0,0,0,0,0,0,0,0,0,0,0,0,0,0,0,0,0,0,0,0,0,0,0,0,0,0,0,0,0,0,0,0],"id":8,"left_children":[1,3,5,7,9,11,13,15,17,19,-1,-1,21,-1,23,25,27,-1,-1,29,-1,-1,-1,31,-1,-1,-1,-1,-1,-1,-1,-1,-1],"loss_changes":[3.862878E3,8.247252E2,9.4171704E2,6.669079E2,3.3378052E2,6.444238E1,1.883802E2,8.598276E1,2.6331116E1,2.3921509E2,0E0,0E0,9.355469E1,0E0,8.3492294E1,7.540271E1,3.0104877E1,0E0,0E0,1.2899573E2,0E0,0E0,0E0,2.730719E1,0E0,0E0,0E0,0E0,0E0,0E0,0E0,0E0,0E0],"parents":[2147483647,0,0,1,1,2,2,3,3,4,4,5,5,6,6,7,7,8,8,9,9,12,12,14,14,15,15,16,16,19,19,23,23],"right_children":[2,4,6,8,10,12,14,16,18,20,-1,-1,22,-1,24,26,28,-1,-1,30,-1,-1,-1,32,-1,-1,-1,-1,-1,-1,-1,-1,-1],"split_conditions":[4.9947E2,4.8627E2,5.16E2,4.9408E2,5.0643E2,3.7487E6,5.15E2,4.5304E6,4.8314E2,4.9163E2,-1.5191078E-1,-3.7288818E-1,5.0025E2,1.977543E-1,5.3572E2,4.2229E6,4.9044E2,-3.8897464E-1,-1.5570953E-1,4.9572E2,5.1641476E-1,-2.8124467E-1,-7.456095E-1,5.2389E2,-1.8158978E-2,1.1473837E-1,3.2839465E-1,5.106449E-3,1.5985489E-1,1.3761215E-1,3.571764E-1,-1.5665436E-1,-3.712561E-1],"split_indices":[9,2,92,94,0,95,0,11,8,93,0,0,23,0,43,11,29,0,0,17,0,0,0,51,0,0,0,0,0,0,0,0,0],"split_type":[0,0,0,0,0,0,0,0,0,0,0,0,0,0,0,0,0,0,0,0,0,0,0,0,0,0,0,0,0,0,0,0,0],"sum_hessian":[1.38E2,9.7E1,4.1E1,4.9E1,4.8E1,2.3E1,1.8E1,3.9E1,1E1,4.5E1,3E0,7E0,1.6E1,3E0,1.5E1,2.1E1,1.8E1,6E0,4E0,3E1,1.5E1,3E0,1.3E1,1E1,5E0,1.5E1,6E0,1.5E1,3E0,1.5E1,1.5E1,6E0,4E0],"tree_param":{"num_deleted":"0","num_feature":"98","num_nodes":"33","size_leaf_vector":"1"}},{"base_weights":[-3.6193392E-1,3.2651823E0,-7.238666E0,6.1541617E-1,5.736517E0,-9.0616255E0,-1.1738725E-1,2.0651283E0,-3.878285E-1,6.816701E0,1.4834706E0,-1.1229318E1,-3.2485402E0,-2.717987E-1,2.5565796E0,2.5164099E0,-7.985627E-2,7.381617E-2,7.581112E0,2.7556336E-1,-1.6054513E0,-6.3191395E0,-6.438716E-1,2.1800995E-3,-4.3507657E0,2.5785524E-1,-1.7578126E-3,1.6888452E-1,1.2594605E-2,1.4233965E-1,4.263873E-1,1.6257478E-2,-1.5673447E-1,-3.9131775E-1,-1.7740479E-1,-1.1452675E-1,-2.4995625E-1],"categories":[],"categories_nodes":[],"categories_segments":[],"categories_sizes":[],"default_left":[0,0,0,0,0,0,0,0,0,0,0,0,0,0,0,0,0,0,0,0,0,0,0,0,0,0,0,0,0,0,0,0,0,0,0,0,0],"id":9,"left_children":[1,3,5,7,9,11,13,15,-1,17,19,21,23,-1,25,27,-1,-1,29,-1,31,33,-1,-1,35,-1,-1,-1,-1,-1,-1,-1,-1,-1,-1,-1,-1],"loss_changes":[3.5405574E3,6.054764E2,6.350447E2,5.74319E2,2.104032E2,4.5495972E2,1.7033647E2,7.0127335E1,0E0,1.4393286E2,1.4570511E2,1.452168E2,4.3733894E1,0E0,5.410029E1,6.936302E1,0E0,0E0,1.23618286E2,0E0,2.1685678E1,9.820374E0,0E0,0E0,5.7125854E-1,0E0,0E0,0E0,0E0,0E0,0E0,0E0,0E0,0E0,0E0,0E0,0E0],"parents":[2147483647,0,0,1,1,2,2,3,3,4,4,5,5,6,6,7,7,9,9,10,10,11,11,12,12,14,14,15,15,18,18,20,20,21,21,24,24],"right_children":[2,4,6,8,10,12,14,16,-1,18,20,22,24,-1,26,28,-1,-1,30,-1,32,34,-1,-1,36,-1,-1,-1,-1,-1,-1,-1,-1,-1,-1,-1,-1],"split_conditions":[5.0311E2,4.8585E2,6.3843E6,4.9984E2,5.1546E6,5.2141E2,3.9875E6,4.9774E2,-3.878285E-1,4.8344E2,4.0654E6,3.8735E6,4.3856E6,-2.717987E-1,5.273E2,4.9084E6,-7.985627E-2,7.381617E-2,3.1734E6,2.7556336E-1,4.9266E2,4.9778E6,-6.438716E-1,2.1800995E-3,5.13E2,2.5785524E-1,-1.7578126E-3,1.6888452E-1,1.2594605E-2,1.4233965E-1,4.263873E-1,1.6257478E-2,-1.5673447E-1,-3.9131775E-1,-1.7740479E-1,-1.1452675E-1,-2.4995625E-1],"split_indices":[10,2,88,94,18,78,39,85,0,65,11,88,25,0,1,11,0,0,88,0,14,11,0,0,86,0,0,0,0,0,0,0,0,0,0,0,0],"split_type":[0,0,0,0,0,0,0,0,0,0,0,0,0,0,0,0,0,0,0,0,0,0,0,0,0,0,0,0,0,0,0,0,0,0,0,0,0],"sum_hessian":[1.4E2,9.2E1,4.8E1,4.5E1,4.7E1,3.8E1,1E1,3.9E1,6E0,3.7E1,1E1,2.7E1,1.1E1,3E0,7E0,3.5E1,4E0,5E0,3.2E1,4E0,6E0,8E0,1.9E1,3E0,8E0,3E0,4E0,2.5E1,1E1,6E0,2.6E1,3E0,3E0,4E0,4E0,3E0,5E0],"tree_param":{"num_deleted":"0","num_feature":"98","num_nodes":"37","size_leaf_vector":"1"}},{"base_weights":[3.1167287E-2,3.5983117E0,-6.417732E0,8.354077E-1,6.2286906E0,-8.850679E0,-8.880938E-1,2.351251E0,-5.0083375E0,3.3077984E0,7.5857677E0,-9.971106E0,-7.9334766E-2,-2.1389444E0,1.8559532E-1,3.7466056E0,4.0718886E-1,-1.1608938E-1,-3.615265E-1,4.6455426E0,-1.1006279E-1,8.795189E0,2.8581047E0,-1.1942291E-1,-1.1337443E1,-2.993213E0,-1.3092042E-4,4.758606E-2,2.4937184E-1,1.02789305E-1,-3.3946782E-2,2.894443E-1,7.148743E-2,2.7769503E-1,5.1356477E-1,-5.9136044E-2,3.5973054E-1,-2.5657424E-1,-5.961904E-1,-1.9430411E-1,-3.4119416E-2],"categories":[],"categories_nodes":[],"categories_segments":[],"categories_sizes":[],"default_left":[0,0,0,0,0,0,0,0,0,0,0,0,0,0,0,0,0,0,0,0,0,0,0,0,0,0,0,0,0,0,0,0,0,0,0,0,0,0,0,0,0],"id":10,"left_children":[1,3,5,7,9,11,13,15,17,19,21,23,-1,25,-1,27,29,-1,-1,31,-1,33,35,-1,37,39,-1,-1,-1,-1,-1,-1,-1,-1,-1,-1,-1,-1,-1,-1,-1],"loss_changes":[3.3586956E3,6.7794006E2,6.9171216E2,4.2811133E2,1.6517383E2,2.7717432E2,1.0575608E2,1.0155534E2,4.2912537E1,1.3551103E2,1.5783008E2,2.940952E2,0E0,2.5542099E1,0E0,7.154892E1,3.1835642E1,0E0,0E0,4.3197937E1,0E0,6.2566406E1,1.4869373E2,0E0,3.342627E1,1.7980835E1,0E0,0E0,0E0,0E0,0E0,0E0,0E0,0E0,0E0,0E0,0E0,0E0,0E0,0E0,0E0],"parents":[2147483647,0,0,1,1,2,2,3,3,4,4,5,5,6,6,7,7,8,8,9,9,10,10,11,11,13,13,15,15,16,16,19,19,21,21,22,22,24,24,25,25],"right_children":[2,4,6,8,10,12,14,16,18,20,22,24,-1,26,-1,28,30,-1,-1,32,-1,34,36,-1,38,40,-1,-1,-1,-1,-1,-1,-1,-1,-1,-1,-1,-1,-1,-1,-1],"split_conditions":[5.0311E2,4.8627E2,5.2141E2,4.9378E2,4.8964E2,5.3592E2,5.3738E2,4.5304E6,4.2947E6,4.7685E6,4.9762E2,3.6139E6,-7.9334766E-2,5.2762E2,1.8559532E-1,3.803E6,4.1932E6,-1.1608938E-1,-3.615265E-1,4.9314E2,-1.1006279E-1,3.5829E6,4.9496E2,-1.1942291E-1,5.0085E2,5.13E2,-1.3092042E-4,4.758606E-2,2.4937184E-1,1.02789305E-1,-3.3946782E-2,2.894443E-1,7.148743E-2,2.7769503E-1,5.1356477E-1,-5.9136044E-2,3.5973054E-1,-2.5657424E-1,-5.961904E-1,-1.9430411E-1,-3.4119416E-2],"split_indices":[3,2,92,94,91,71,64,4,81,11,79,88,0,49,0,60,67,0,0,78,0,53,3,0,2,37,0,0,0,0,0,0,0,0,0,0,0,0,0,0,0],"split_type":[0,0,0,0,0,0,0,0,0,0,0,0,0,0,0,0,0,0,0,0,0,0,0,0,0,0,0,0,0,0,0,0,0,0,0,0,0,0,0,0,0],"sum_hessian":[1.44E2,9.3E1,5.1E1,4.6E1,4.7E1,3.5E1,1.6E1,3.7E1,9E0,1.6E1,3.1E1,3E1,5E0,1.3E1,3E0,2.1E1,1.6E1,5E0,4E0,1.3E1,3E0,2.4E1,7E0,5E0,2.5E1,9E0,4E0,7E0,1.4E1,6E0,1E1,9E0,4E0,9E0,1.5E1,4E0,3E0,3E0,2.2E1,6E0,3E0],"tree_param":{"num_deleted":"0","num_feature":"98","num_nodes":"41","size_leaf_vector":"1"}},{"base_weights":[-1.5050651E-1,3.0303416E0,-6.7120337E0,8.350553E-1,5.6556854E0,-1.2835069E1,-4.2459908E0,2.012007E0,-6.183918E0,-7.956513E-2,6.420167E0,-7.362552E-1,-3.4329957E-1,-6.5170135E0,-1.7390798E0,3.1796436E0,-4.4901657E-1,-1.7849E-1,-3.9527932E-1,3.6971955E0,8.081431E0,-1.5565872E-2,-7.737398E0,-2.7607138E0,7.346558E-2,2.0439868E-1,-1.271466E-1,1.02850115E-2,-1.232296E-1,2.4144255E-1,-5.9394836E-2,2.2591858E-1,4.7902814E-1,-1.5881386E-1,-4.3064943E-1,-1.893198E-1,-5.9705894E-2],"categories":[],"categories_nodes":[],"categories_segments":[],"categories_sizes":[],"default_left":[0,0,0,0,0,0,0,0,0,0,0,0,0,0,0,0,0,0,0,0,0,0,0,0,0,0,0,0,0,0,0,0,0,0,0,0,0],"id":11,"left_children":[1,3,5,7,9,11,13,15,17,-1,19,-1,-1,21,23,25,27,-1,-1,29,31,-1,33,35,-1,-1,-1,-1,-1,-1,-1,-1,-1,-1,-1,-1,-1],"loss_changes":[3.0049246E3,5.543253E2,6.5518677E2,4.5853568E2,2.5398462E2,4.5560547E1,1.8793018E2,1.3648602E2,7.7838135E0,0E0,1.5106433E2,0E0,0E0,1.3391132E2,6.305678E1,1.7673102E2,2.1621063E1,0E0,0E0,9.971629E1,8.490723E1,0E0,3.254779E1,1.7974205E1,0E0,0E0,0E0,0E0,0E0,0E0,0E0,0E0,0E0,0E0,0E0,0E0,0E0],"parents":[2147483647,0,0,1,1,2,2,3,3,4,4,5,5,6,6,7,7,8,8,10,10,13,13,14,14,15,15,16,16,19,19,20,20,22,22,23,23],"right_children":[2,4,6,8,10,12,14,16,18,-1,20,-1,-1,22,24,26,28,-1,-1,30,32,-1,34,36,-1,-1,-1,-1,-1,-1,-1,-1,-1,-1,-1,-1,-1],"split_conditions":[5.091E2,4.9345E2,5.1575E2,4.9572E2,4.9109E2,4.9456E6,5.2141E2,4.6788E6,4.2129E6,-7.956513E-2,3.7673E6,-7.362552E-1,-3.4329957E-1,5.0085E2,5.2736E2,5.5738E6,4.8964E2,-1.7849E-1,-3.9527932E-1,5.0378E2,4.8657E2,-1.5565872E-2,5.1433E2,5.13E2,7.346558E-2,2.0439868E-1,-1.271466E-1,1.02850115E-2,-1.232296E-1,2.4144255E-1,-5.9394836E-2,2.2591858E-1,4.7902814E-1,-1.5881386E-1,-4.3064943E-1,-1.893198E-1,-5.9705894E-2],"split_indices":[1,36,29,87,64,39,92,4,25,0,95,0,0,93,58,11,0,0,0,71,93,0,57,37,0,0,0,0,0,0,0,0,0,0,0,0,0],"split_type":[0,0,0,0,0,0,0,0,0,0,0,0,0,0,0,0,0,0,0,0,0,0,0,0,0,0,0,0,0,0,0,0,0,0,0,0,0],"sum_hessian":[1.42E2,9.6E1,4.6E1,5.3E1,4.3E1,1.2E1,3.4E1,4.6E1,7E0,4E0,3.9E1,8E0,4E0,1.7E1,1.7E1,3.1E1,1.5E1,4E0,3E0,1.6E1,2.3E1,3E0,1.4E1,1.3E1,4E0,2.7E1,4E0,1.2E1,3E0,1.3E1,3E0,8E0,1.5E1,3E0,1.1E1,7E0,6E0],"tree_param":{"num_deleted":"0","num_feature":"98","num_nodes":"37","size_leaf_vector":"1"}},{"base_weights":[-5.5505197E-2,3.1322863E0,-5.9199314E0,6.781247E-1,5.6804523E0,-8.573961E0,-1.5101898E0,2.5526512E0,-5.158175E0,1.0961914E-1,6.703774E0,-1.1193931E1,-5.033065E0,-2.697901E0,1.9575654E-1,3.607339E0,3.2804754E-1,-3.7056097E-1,-1.2450562E-1,1.284977E-1,-9.402863E-2,3.1635742E0,7.693368E0,-6.6694546E-1,-3.1120583E-1,-6.8058953E0,7.718468E-2,-2.8394726E-1,-9.8255414E-1,2.1573298E-1,-4.2437743E-3,-2.5887808E-2,4.606972E-2,2.2442997E-1,2.6943206E-3,2.0263305E-1,4.5645267E-1,-1.1675339E-1,-4.0183598E-1,-1.10182405E-1,3.0290732E-2],"categories":[],"categories_nodes":[],"categories_segments":[],"categories_sizes":[],"default_left":[0,0,0,0,0,0,0,0,0,0,0,0,0,0,0,0,0,0,0,0,0,0,0,0,0,0,0,0,0,0,0,0,0,0,0,0,0,0,0,0,0],"id":12,"left_children":[1,3,5,7,9,11,13,15,17,19,21,23,25,27,-1,29,31,-1,-1,-1,-1,33,35,-1,-1,37,-1,-1,39,-1,-1,-1,-1,-1,-1,-1,-1,-1,-1,-1,-1],"loss_changes":[2.6544773E3,5.714802E2,5.7223096E2,5.3830133E2,2.5579907E2,2.3124854E2,1.3943692E2,8.5628296E1,5.368042E1,4.4005287E1,1.08789185E2,9.819971E1,1.8539847E2,8.135004E1,0E0,6.565567E1,7.001172E0,0E0,0E0,0E0,0E0,4.096228E1,1.1458325E2,0E0,0E0,4.7267334E1,0E0,0E0,2.4609575E1,0E0,0E0,0E0,0E0,0E0,0E0,0E0,0E0,0E0,0E0,0E0,0E0],"parents":[2147483647,0,0,1,1,2,2,3,3,4,4,5,5,6,6,7,7,8,8,9,9,10,10,11,11,12,12,13,13,15,15,16,16,21,21,22,22,25,25,28,28],"right_children":[2,4,6,8,10,12,14,16,18,20,22,24,26,28,-1,30,32,-1,-1,-1,-1,34,36,-1,-1,38,-1,-1,40,-1,-1,-1,-1,-1,-1,-1,-1,-1,-1,-1,-1],"split_conditions":[5.0311E2,4.8585E2,5.2141E2,4.9774E2,4.838E2,5.0044E6,5.3738E2,4.6294E6,4.8048E2,4.9154E2,3.4415E6,5.0963E2,6.3843E6,4.2947E6,1.9575654E-1,5.0607E6,4.1306E6,-3.7056097E-1,-1.2450562E-1,1.284977E-1,-9.402863E-2,4.9607E2,4.9016E2,-6.6694546E-1,-3.1120583E-1,4.5215E6,7.718468E-2,-2.8394726E-1,5.1165E2,2.1573298E-1,-4.2437743E-3,-2.5887808E-2,4.606972E-2,2.2442997E-1,2.6943206E-3,2.0263305E-1,4.5645267E-1,-1.1675339E-1,-4.0183598E-1,-1.10182405E-1,3.0290732E-2],"split_indices":[3,9,71,92,58,32,64,4,10,10,95,49,81,53,0,11,32,0,0,0,0,30,94,0,0,39,0,0,51,0,0,0,0,0,0,0,0,0,0,0,0],"split_type":[0,0,0,0,0,0,0,0,0,0,0,0,0,0,0,0,0,0,0,0,0,0,0,0,0,0,0,0,0,0,0,0,0,0,0,0,0,0,0,0,0],"sum_hessian":[1.4E2,9.1E1,4.9E1,4.7E1,4.4E1,3E1,1.9E1,3.6E1,1.1E1,7E0,3.7E1,1.6E1,1.4E1,1.6E1,3E0,2.4E1,1.2E1,5E0,6E0,3E0,4E0,9E0,2.8E1,1E1,6E0,1.1E1,3E0,5E0,1.1E1,2E1,4E0,5E0,7E0,6E0,3E0,9E0,1.9E1,3E0,8E0,6E0,5E0],"tree_param":{"num_deleted":"0","num_feature":"98","num_nodes":"41","size_leaf_vector":"1"}},{"base_weights":[-1.9872178E-1,2.741871E0,-6.690759E0,2.6018488E-1,4.621296E0,-1.2332306E1,-4.607493E0,1.9272877E0,-5.267273E0,6.2042913E0,-3.447113E-1,-3.1322977E-1,-6.912312E-1,1.3698469E-1,-5.666895E0,1.3109043E-1,3.0882614E0,-3.7795168E-1,-1.239797E-1,1.1304845E0,7.041787E0,2.614484E-1,-4.0221963E0,6.286087E-2,-5.087471E-2,-6.535826E0,-2.6821597E-2,-7.58551E-2,4.710388E-2,2.0414968E-1,4.3360395E-3,-2.3440553E-2,1.2235794E-1,2.0455042E-1,4.2017275E-1,-2.8659287E-1,-1.1060282E-1,-1.5221559E-1,-3.5553277E-1],"categories":[],"categories_nodes":[],"categories_segments":[],"categories_sizes":[],"default_left":[0,0,0,0,0,0,0,0,0,0,0,0,0,0,0,0,0,0,0,0,0,0,0,0,0,0,0,0,0,0,0,0,0,0,0,0,0,0,0],"id":13,"left_children":[1,3,5,7,9,11,13,15,17,19,21,-1,-1,23,25,27,29,-1,-1,31,33,-1,35,-1,-1,37,-1,-1,-1,-1,-1,-1,-1,-1,-1,-1,-1,-1,-1],"loss_changes":[2.6337354E3,4.4189124E2,4.485515E2,3.9717487E2,4.266416E2,1.2998779E1,1.6664447E2,6.841131E1,4.5143585E1,1.6626025E2,3.0799167E2,0E0,0E0,1.0332207E1,1.16860535E2,2.0142511E1,5.9360504E1,0E0,0E0,1.5887515E1,1.0625073E2,0E0,1.5173325E1,0E0,0E0,2.4514526E1,0E0,0E0,0E0,0E0,0E0,0E0,0E0,0E0,0E0,0E0,0E0,0E0,0E0],"parents":[2147483647,0,0,1,1,2,2,3,3,4,4,5,5,6,6,7,7,8,8,9,9,10,10,13,13,14,14,15,15,16,16,19,19,20,20,22,22,25,25],"right_children":[2,4,6,8,10,12,14,16,18,20,22,-1,-1,24,26,28,30,-1,-1,32,34,-1,36,-1,-1,38,-1,-1,-1,-1,-1,-1,-1,-1,-1,-1,-1,-1,-1],"split_conditions":[5.0162E2,4.8583E2,5.1575E2,4.9763E2,5.01E2,5.0978E2,4.9947E2,4.1932E6,4.8314E2,4.8344E2,3.7673E6,-3.1322977E-1,-6.912312E-1,4.07E6,5.3738E2,3.7913E6,4.5959E6,-3.7795168E-1,-1.239797E-1,4.8859E2,3.5829E6,2.614484E-1,4.914E6,6.286087E-2,-5.087471E-2,5.0264E2,-2.6821597E-2,-7.58551E-2,4.710388E-2,2.0414968E-1,4.3360395E-3,-2.3440553E-2,1.2235794E-1,2.0455042E-1,4.2017275E-1,-2.8659287E-1,-1.1060282E-1,-1.5221559E-1,-3.5553277E-1],"split_indices":[2,2,8,85,0,1,86,81,8,65,39,0,0,4,1,18,4,0,0,38,53,0,4,0,0,51,0,0,0,0,0,0,0,0,0,0,0,0,0],"split_type":[0,0,0,0,0,0,0,0,0,0,0,0,0,0,0,0,0,0,0,0,0,0,0,0,0,0,0,0,0,0,0,0,0,0,0,0,0,0,0],"sum_hessian":[1.36E2,9.4E1,4.2E1,4.1E1,5.3E1,1E1,3.2E1,3.2E1,9E0,4E1,1.3E1,3E0,7E0,6E0,2.6E1,1.3E1,1.9E1,4E0,5E0,6E0,3.4E1,5E0,8E0,3E0,3E0,2.2E1,4E0,4E0,9E0,1.4E1,5E0,3E0,3E0,1.2E1,2.2E1,3E0,5E0,4E0,1.8E1],"tree_param":{"num_deleted":"0","num_feature":"98","num_nodes":"39","size_leaf_vector":"1"}},{"base_weights":[6.4480253E-3,2.8619196E0,-5.228718E0,7.8906524E-1,4.916841E0,-7.0105343E0,-1.2269268E0,1.8013643E0,-4.1179886E0,5.624877E0,3.7081036E-1,-8.00085E0,-6.103185E-2,-2.2615635E0,7.5079344E-2,3.0470555E0,-1.0190201E-1,-9.43264E-2,-2.5397798E-1,6.4370756E0,2.2925618E0,-1.11952975E-1,1.4439888E-1,-7.1716614E-2,-9.035506E0,-1.6215603E-1,-3.6974337E-2,2.0063739E-1,-1.789322E-2,1.7581765E-2,-7.752114E-2,2.2798303E-1,4.632685E-1,-6.5714517E-4,2.5889894E-1,-5.039448E-1,-2.844431E-1],"categories":[],"categories_nodes":[],"categories_segments":[],"categories_sizes":[],"default_left":[0,0,0,0,0,0,0,0,0,0,0,0,0,0,0,0,0,0,0,0,0,0,0,0,0,0,0,0,0,0,0,0,0,0,0,0,0],"id":14,"left_children":[1,3,5,7,9,11,13,15,17,19,21,23,-1,25,-1,27,29,-1,-1,31,33,-1,-1,-1,35,-1,-1,-1,-1,-1,-1,-1,-1,-1,-1,-1,-1],"loss_changes":[2.0330614E3,3.70961E2,3.336604E2,2.3095128E2,1.3953943E2,1.7945032E2,4.8564266E1,9.0404015E1,7.5829315E0,8.808984E1,5.2452705E1,1.7727454E2,0E0,1.5529812E1,0E0,7.706244E1,1.1056514E1,0E0,0E0,1.1704956E2,5.994433E1,0E0,0E0,0E0,2.6467163E1,0E0,0E0,0E0,0E0,0E0,0E0,0E0,0E0,0E0,0E0,0E0,0E0],"parents":[2147483647,0,0,1,1,2,2,3,3,4,4,5,5,6,6,7,7,8,8,9,9,10,10,11,11,13,13,15,15,16,16,19,19,20,20,24,24],"right_children":[2,4,6,8,10,12,14,16,18,20,22,24,-1,26,-1,28,30,-1,-1,32,34,-1,-1,-1,36,-1,-1,-1,-1,-1,-1,-1,-1,-1,-1,-1,-1],"split_conditions":[5.0311E2,4.8585E2,5.2141E2,4.9408E2,5.1546E6,5.3592E2,5.2736E2,4.5959E6,3.9376E6,4.9961E2,4.9187E2,3.6139E6,-6.103185E-2,5.13E2,7.5079344E-2,4.9084E6,4.894E2,-9.43264E-2,-2.5397798E-1,4.9353E2,4.939E2,-1.11952975E-1,1.4439888E-1,-7.1716614E-2,5.2875E6,-1.6215603E-1,-3.6974337E-2,2.0063739E-1,-1.789322E-2,1.7581765E-2,-7.752114E-2,2.2798303E-1,4.632685E-1,-6.5714517E-4,2.5889894E-1,-5.039448E-1,-2.844431E-1],"split_indices":[3,2,92,94,11,64,58,4,81,57,21,88,0,37,0,11,8,0,0,73,0,0,0,0,11,0,0,0,0,0,0,0,0,0,0,0,0],"split_type":[0,0,0,0,0,0,0,0,0,0,0,0,0,0,0,0,0,0,0,0,0,0,0,0,0,0,0,0,0,0,0,0,0,0,0,0,0],"sum_hessian":[1.34E2,8.7E1,4.7E1,4.4E1,4.3E1,3.2E1,1.5E1,3.7E1,7E0,3.7E1,6E0,2.7E1,5E0,1.1E1,4E0,2.2E1,1.5E1,3E0,4E0,2.9E1,8E0,3E0,3E0,4E0,2.3E1,6E0,5E0,1.7E1,5E0,1.2E1,3E0,1.9E1,1E1,5E0,3E0,1.6E1,7E0],"tree_param":{"num_deleted":"0","num_feature":"98","num_nodes":"37","size_leaf_vector":"1"}},{"base_weights":[-1.8468149E-2,2.4066153E0,-5.364255E0,8.1043243E-1,4.863572E0,-1.1584699E1,-3.433721E0,1.7231078E0,-3.172991E-1,5.7895803E0,-1.2029999E-1,-6.766207E-1,-2.640011E-1,-4.6664357E0,1.14709474E-1,2.661296E0,-1.147522E0,7.267343E0,2.4747365E0,-6.4758506E0,-2.0157979E0,1.053006E-1,-7.819138E-2,1.6883731E-1,5.286255E-3,2.1954129E-2,-1.19618036E-1,3.8806558E-1,1.4903335E-1,-3.9837394E-2,2.462666E-1,-1.3130836E-1,-3.6097118E-1,-1.2365723E-3,-1.50412E-1],"categories":[],"categories_nodes":[],"categories_segments":[],"categories_sizes":[],"default_left":[0,0,0,0,0,0,0,0,0,0,0,0,0,0,0,0,0,0,0,0,0,0,0,0,0,0,0,0,0,0,0,0,0,0,0],"id":15,"left_children":[1,3,5,7,9,11,13,15,-1,17,-1,-1,-1,19,21,23,25,27,29,31,33,-1,-1,-1,-1,-1,-1,-1,-1,-1,-1,-1,-1,-1,-1],"loss_changes":[1.8278668E3,3.7646832E2,4.8860754E2,4.0282382E2,2.6973376E2,5.1345825E1,1.5363239E2,1.4848618E2,0E0,1.4856604E2,0E0,0E0,0E0,1.11644714E2,3.6718185E1,7.460672E1,2.870138E1,2.5568237E1,1.0012927E2,2.3978516E1,2.3637814E1,0E0,0E0,0E0,0E0,0E0,0E0,0E0,0E0,0E0,0E0,0E0,0E0,0E0,0E0],"parents":[2147483647,0,0,1,1,2,2,3,3,4,4,5,5,6,6,7,7,9,9,13,13,14,14,15,15,16,16,17,17,18,18,19,19,20,20],"right_children":[2,4,6,8,10,12,14,16,-1,18,-1,-1,-1,20,22,24,26,28,30,32,34,-1,-1,-1,-1,-1,-1,-1,-1,-1,-1,-1,-1,-1,-1],"split_conditions":[5.091E2,4.9471E2,5.0672E2,4.9377E2,5.2298E6,4.9456E6,5.3592E2,5.1546E6,-3.172991E-1,5.0211E2,-1.2029999E-1,-6.766207E-1,-2.640011E-1,5.2126E2,4.8936E6,4.6744E6,4.7891E2,5.0114E2,4.0589E6,5.2126E2,5.1165E2,1.053006E-1,-7.819138E-2,1.6883731E-1,5.286255E-3,2.1954129E-2,-1.19618036E-1,3.8806558E-1,1.4903335E-1,-3.9837394E-2,2.462666E-1,-1.3130836E-1,-3.6097118E-1,-1.2365723E-3,-1.50412E-1],"split_indices":[1,50,71,91,53,39,64,11,0,71,0,0,0,92,25,4,80,45,25,1,79,0,0,0,0,0,0,0,0,0,0,0,0,0,0],"split_type":[0,0,0,0,0,0,0,0,0,0,0,0,0,0,0,0,0,0,0,0,0,0,0,0,0,0,0,0,0,0,0,0,0,0,0],"sum_hessian":[1.39E2,9.6E1,4.3E1,5.9E1,3.7E1,9E0,3.4E1,5.3E1,6E0,3.3E1,4E0,6E0,3E0,2.5E1,9E0,4E1,1.3E1,2.2E1,1.1E1,1.4E1,1.1E1,4E0,5E0,3.1E1,9E0,6E0,7E0,1.9E1,3E0,5E0,6E0,3E0,1.1E1,4E0,7E0],"tree_param":{"num_deleted":"0","num_feature":"98","num_nodes":"35","size_leaf_vector":"1"}},{"base_weights":[-5.852613E-1,2.2269104E0,-5.4515743E0,-1.0207704E-1,4.5041094E0,-1.0441403E1,-3.9044025E0,1.5404024E0,-4.473516E0,1.515214E0,6.2191873E0,-6.175842E-1,-2.8393647E-1,1.0204544E-1,-4.4565372E0,4.165039E-1,2.9556644E0,-3.204206E-1,-1.08798005E-1,1.9201756E-1,-4.9641722E-1,2.8715072E0,8.019499E0,-6.334981E0,-1.984454E0,5.7901558E-2,-2.6804268E-2,1.8826677E-2,1.8124168E-1,6.780167E-2,-7.420219E-2,2.0641194E-1,-1.7991638E-2,4.4996428E-1,2.3616715E-1,-1.0619583E-1,-3.476587E-1,-1.6185455E-1,1.3373457E-2],"categories":[],"categories_nodes":[],"categories_segments":[],"categories_sizes":[],"default_left":[0,0,0,0,0,0,0,0,0,0,0,0,0,0,0,0,0,0,0,0,0,0,0,0,0,0,0,0,0,0,0,0,0,0,0,0,0,0,0],"id":16,"left_children":[1,3,5,7,9,11,13,15,17,19,21,-1,-1,-1,23,25,27,-1,-1,-1,29,31,33,35,37,-1,-1,-1,-1,-1,-1,-1,-1,-1,-1,-1,-1,-1,-1],"loss_changes":[1.8322327E3,4.5126303E2,3.3751855E2,3.1563095E2,2.1100262E2,2.9936768E1,1.3711725E2,4.966851E1,3.9401917E1,8.142083E1,1.3969739E2,0E0,0E0,0E0,1.5460059E2,1.404185E1,2.279737E1,0E0,0E0,0E0,2.0307705E1,4.6155663E1,1.2395264E1,3.7296997E1,4.8820145E1,0E0,0E0,0E0,0E0,0E0,0E0,0E0,0E0,0E0,0E0,0E0,0E0,0E0,0E0],"parents":[2147483647,0,0,1,1,2,2,3,3,4,4,5,5,6,6,7,7,8,8,9,9,10,10,14,14,15,15,16,16,20,20,21,21,22,22,23,23,24,24],"right_children":[2,4,6,8,10,12,14,16,18,20,22,-1,-1,-1,24,26,28,-1,-1,-1,30,32,34,36,38,-1,-1,-1,-1,-1,-1,-1,-1,-1,-1,-1,-1,-1,-1],"split_conditions":[5.0311E2,4.8585E2,3.8735E6,4.9774E2,4.8961E2,5.1423E2,4.9351E2,4.8025E2,4.8314E2,3.9648E6,3.4415E6,-6.175842E-1,-2.8393647E-1,1.0204544E-1,5.21E2,4.7347E2,3.4614E6,-3.204206E-1,-1.08798005E-1,1.9201756E-1,3.5662E6,4.9607E2,5.0211E2,4.8425E2,5.3327E2,5.7901558E-2,-2.6804268E-2,1.8826677E-2,1.8124168E-1,6.780167E-2,-7.420219E-2,2.0641194E-1,-1.7991638E-2,4.4996428E-1,2.3616715E-1,-1.0619583E-1,-3.476587E-1,-1.6185455E-1,1.3373457E-2],"split_indices":[3,9,32,92,94,0,16,49,8,18,95,0,0,0,78,42,67,0,0,0,25,30,1,86,43,0,0,0,0,0,0,0,0,0,0,0,0,0,0],"split_type":[0,0,0,0,0,0,0,0,0,0,0,0,0,0,0,0,0,0,0,0,0,0,0,0,0,0,0,0,0,0,0,0,0,0,0,0,0,0,0],"sum_hessian":[1.32E2,8.4E1,4.8E1,4.2E1,4.2E1,1E1,3.8E1,3.1E1,1.1E1,1.6E1,2.6E1,6E0,4E0,3E0,3.5E1,1.8E1,1.3E1,5E0,6E0,7E0,9E0,1E1,1.6E1,1.9E1,1.6E1,1E1,8E0,3E0,1E1,3E0,6E0,7E0,3E0,1.1E1,5E0,3E0,1.6E1,1E1,6E0],"tree_param":{"num_deleted":"0","num_feature":"98","num_nodes":"39","size_leaf_vector":"1"}},{"base_weights":[1.9420551E-1,2.4289243E0,-4.482802E0,4.504932E-1,4.313582E0,-5.8422403E0,1.2662576E-1,1.8257991E0,-4.683188E0,4.840434E0,-1.2800942E-1,-1.3032303E0,-6.9707527E0,1.0230682E-1,-1.2625427E0,2.7471697E0,2.9131064E-1,-9.983581E-2,-3.0706915E-1,6.6807556E-1,5.611743E0,-1.6253297E-1,7.284317E-2,-7.5734916E0,-8.0581665E-2,8.031464E-3,-1.1850395E-1,1.6601433E-1,-4.0260315E-2,-7.20102E-2,5.2593995E-2,1.2193184E-1,-4.4099428E-2,1.3116251E-1,3.172849E-1,-5.4002446E-1,-3.1940338E-1],"categories":[],"categories_nodes":[],"categories_segments":[],"categories_sizes":[],"default_left":[0,0,0,0,0,0,0,0,0,0,0,0,0,0,0,0,0,0,0,0,0,0,0,0,0,0,0,0,0,0,0,0,0,0,0,0,0],"id":17,"left_children":[1,3,5,7,9,11,13,15,17,19,-1,21,23,-1,25,27,29,-1,-1,31,33,-1,-1,35,-1,-1,-1,-1,-1,-1,-1,-1,-1,-1,-1,-1,-1],"loss_changes":[1.4218809E3,3.4109393E2,2.7645404E2,3.3332812E2,1.8260107E2,1.6507483E2,3.1915098E1,5.1511536E1,2.6911407E1,1.3785071E2,0E0,4.7736454E1,7.500842E1,0E0,1.14142065E1,4.9499832E1,2.1268972E1,0E0,0E0,2.4106716E1,6.451013E1,0E0,0E0,2.2814331E1,0E0,0E0,0E0,0E0,0E0,0E0,0E0,0E0,0E0,0E0,0E0,0E0,0E0],"parents":[2147483647,0,0,1,1,2,2,3,3,4,4,5,5,6,6,7,7,8,8,9,9,11,11,12,12,14,14,15,15,16,16,19,19,20,20,23,23],"right_children":[2,4,6,8,10,12,14,16,18,20,-1,22,24,-1,26,28,30,-1,-1,32,34,-1,-1,36,-1,-1,-1,-1,-1,-1,-1,-1,-1,-1,-1,-1,-1],"split_conditions":[4.9947E2,4.8585E2,5.3592E2,4.9378E2,5.0643E2,4.8782E2,4.8936E6,4.5959E6,3.9376E6,4.8343E2,-1.2800942E-1,5.5616E6,5.3738E2,1.0230682E-1,5.2838E2,5.2976E6,4.001E6,-9.983581E-2,-3.0706915E-1,3.4614E6,3.2062E6,-1.6253297E-1,7.284317E-2,3.6214E6,-8.0581665E-2,8.031464E-3,-1.1850395E-1,1.6601433E-1,-4.0260315E-2,-7.20102E-2,5.2593995E-2,1.2193184E-1,-4.4099428E-2,1.3116251E-1,3.172849E-1,-5.4002446E-1,-3.1940338E-1],"split_indices":[2,2,57,94,0,58,25,4,81,72,0,81,15,0,8,32,18,0,0,53,88,0,0,25,0,0,0,0,0,0,0,0,0,0,0,0,0],"split_type":[0,0,0,0,0,0,0,0,0,0,0,0,0,0,0,0,0,0,0,0,0,0,0,0,0,0,0,0,0,0,0,0,0,0,0,0,0],"sum_hessian":[1.34E2,9.1E1,4.3E1,4.5E1,4.6E1,3.3E1,1E1,3.6E1,9E0,4.3E1,3E0,7E0,2.6E1,4E0,6E0,2.2E1,1.4E1,4E0,5E0,7E0,3.6E1,4E0,3E0,2.3E1,3E0,3E0,3E0,1.9E1,3E0,4E0,1E1,3E0,4E0,8E0,2.8E1,4E0,1.9E1],"tree_param":{"num_deleted":"0","num_feature":"98","num_nodes":"37","size_leaf_vector":"1"}},{"base_weights":[-7.337391E-2,2.2328062E0,-4.946132E0,2.567696E-1,4.079991E0,-9.363062E0,-3.3716512E0,1.4210012E0,-4.687405E0,4.5892706E0,4.4145855E-1,-5.7269984E-1,-2.2815704E-1,-4.5528145E0,1.036232E0,-8.321953E-1,1.9566325E0,-2.9427466E-1,-8.59211E-2,3.2033966E0,7.1322045E0,1.4070664E-1,-1.0207901E-1,-6.2975507E0,-2.1894414E0,1.5069771E-1,-3.7659608E-2,-8.2000735E-4,-8.219452E-2,6.26826E-2,1.9104977E-1,1.8766104E-1,-5.8565523E-2,1.81324E-1,3.8793156E-1,-3.5784802E-1,-1.5736695E-1,-1.5645158E-1,-3.0145263E-3],"categories":[],"categories_nodes":[],"categories_segments":[],"categories_sizes":[],"default_left":[0,0,0,0,0,0,0,0,0,0,0,0,0,0,0,0,0,0,0,0,0,0,0,0,0,0,0,0,0,0,0,0,0,0,0,0,0,0,0],"id":18,"left_children":[1,3,5,7,9,11,13,15,17,19,21,-1,-1,23,25,27,29,-1,-1,31,33,-1,-1,35,37,-1,-1,-1,-1,-1,-1,-1,-1,-1,-1,-1,-1,-1,-1],"loss_changes":[1.5393381E3,3.3841217E2,2.7442346E2,2.7144437E2,8.6919495E1,5.8133423E1,1.8173639E2,4.7489838E1,2.1900162E1,1.2516864E2,4.698537E1,0E0,0E0,9.754541E1,3.0581955E1,5.2704554E0,3.583873E1,0E0,0E0,7.415048E1,2.6085815E0,0E0,0E0,1.8084412E1,2.581823E1,0E0,0E0,0E0,0E0,0E0,0E0,0E0,0E0,0E0,0E0,0E0,0E0,0E0,0E0],"parents":[2147483647,0,0,1,1,2,2,3,3,4,4,5,5,6,6,7,7,8,8,9,9,10,10,13,13,14,14,15,15,16,16,19,19,20,20,23,23,24,24],"right_children":[2,4,6,8,10,12,14,16,18,20,22,-1,-1,24,26,28,30,-1,-1,32,34,-1,-1,36,38,-1,-1,-1,-1,-1,-1,-1,-1,-1,-1,-1,-1,-1,-1],"split_conditions":[4.9947E2,4.8585E2,3.8735E6,5.0014E2,5.0085E2,5.1423E2,6.3843E6,3.7913E6,4.8314E2,4.9473E2,3.5195E6,-5.7269984E-1,-2.2815704E-1,5.1431E2,5.3013E2,3.803E6,4.867E2,-2.9427466E-1,-8.59211E-2,5.021E2,3.5195E6,1.4070664E-1,-1.0207901E-1,4.776E6,5.3682E2,1.5069771E-1,-3.7659608E-2,-8.2000735E-4,-8.219452E-2,6.26826E-2,1.9104977E-1,1.8766104E-1,-5.8565523E-2,1.81324E-1,3.8793156E-1,-3.5784802E-1,-1.5736695E-1,-1.5645158E-1,-3.0145263E-3],"split_indices":[2,2,32,92,0,0,81,18,8,93,11,0,0,73,15,74,71,0,0,71,88,0,0,4,1,0,0,0,0,0,0,0,0,0,0,0,0,0,0],"split_type":[0,0,0,0,0,0,0,0,0,0,0,0,0,0,0,0,0,0,0,0,0,0,0,0,0,0,0,0,0,0,0,0,0,0,0,0,0,0,0],"sum_hessian":[1.35E2,9.2E1,4.3E1,4.5E1,4.7E1,1E1,3.3E1,3.7E1,8E0,4.1E1,6E0,6E0,4E0,2.6E1,7E0,7E0,3E1,5E0,3E0,2.8E1,1.3E1,3E0,3E0,1.4E1,1.2E1,3E0,4E0,4E0,3E0,2.3E1,7E0,2.5E1,3E0,3E0,1E1,1E1,4E0,8E0,4E0],"tree_param":{"num_deleted":"0","num_feature":"98","num_nodes":"39","size_leaf_vector":"1"}},{"base_weights":[2.4326134E-1,2.1507297E0,-4.000963E0,5.981987E-1,4.194824E0,-5.177842E0,-3.3305869E-1,1.3946387E0,-2.7018344E-1,1.0687478E0,5.1097336E0,-6.4423656E0,-2.3226852E0,-1.6017036E-1,9.7965837E-1,2.1938205E0,-3.7978408E-1,1.7155324E-1,-1.9615364E-1,-1.504771E-3,6.0286355E0,-3.5721774E0,-3.8674936E-1,-1.4516416E-1,-2.1783447E-2,1.07185975E-1,-1.9016724E-2,6.885224E-2,1.9624718E-1,1.211677E-2,-9.606689E-2,1.1282501E-1,3.5892805E-1,-2.3405671E-1,-8.743927E-2],"categories":[],"categories_nodes":[],"categories_segments":[],"categories_sizes":[],"default_left":[0,0,0,0,0,0,0,0,0,0,0,0,0,0,0,0,0,0,0,0,0,0,0,0,0,0,0,0,0,0,0,0,0,0,0],"id":19,"left_children":[1,3,5,7,9,11,13,15,-1,17,19,21,23,-1,25,27,29,-1,-1,-1,31,33,-1,-1,-1,-1,-1,-1,-1,-1,-1,-1,-1,-1,-1],"loss_changes":[1.1743892E3,3.1484268E2,1.92526E2,2.8478357E2,1.1752228E2,1.0779047E2,4.8353706E1,7.457367E1,0E0,1.431752E2,1.5604028E2,5.7700867E1,1.1882301E1,0E0,1.5063365E1,4.5496994E1,1.6769129E1,0E0,0E0,0E0,1.0525659E2,1.0012268E1,0E0,0E0,0E0,0E0,0E0,0E0,0E0,0E0,0E0,0E0,0E0,0E0,0E0],"parents":[2147483647,0,0,1,1,2,2,3,3,4,4,5,5,6,6,7,7,9,9,10,10,11,11,12,12,14,14,15,15,16,16,20,20,21,21],"right_children":[2,4,6,8,10,12,14,16,-1,18,20,22,24,-1,26,28,30,-1,-1,-1,32,34,-1,-1,-1,-1,-1,-1,-1,-1,-1,-1,-1,-1,-1],"split_conditions":[5.091E2,4.9442E2,5.3592E2,4.9377E2,4.9038E2,5.2126E2,5.3329E2,4.6788E6,-2.7018344E-1,5.021E2,4.8585E2,3.8735E6,5.3023E2,-1.6017036E-1,5.2736E2,4.9084E6,4.8964E2,1.7155324E-1,-1.9615364E-1,-1.504771E-3,3.4415E6,4.9456E6,-3.8674936E-1,-1.4516416E-1,-2.1783447E-2,1.07185975E-1,-1.9016724E-2,6.885224E-2,1.9624718E-1,1.211677E-2,-9.606689E-2,1.1282501E-1,3.5892805E-1,-2.3405671E-1,-8.743927E-2],"split_indices":[1,50,57,91,94,85,50,4,0,22,9,88,31,0,51,60,0,0,0,0,95,4,0,0,0,0,0,0,0,0,0,0,0,0,0],"split_type":[0,0,0,0,0,0,0,0,0,0,0,0,0,0,0,0,0,0,0,0,0,0,0,0,0,0,0,0,0,0,0,0,0,0,0],"sum_hessian":[1.43E2,9.9E1,4.4E1,5.7E1,4.2E1,3.3E1,1.1E1,5.1E1,6E0,1E1,3.2E1,2.2E1,1.1E1,3E0,8E0,3.5E1,1.6E1,7E0,3E0,5E0,2.7E1,8E0,1.4E1,8E0,3E0,4E0,4E0,2.5E1,1E1,1.2E1,4E0,7E0,2E1,4E0,4E0],"tree_param":{"num_deleted":"0","num_feature":"98","num_nodes":"35","size_leaf_vector":"1"}},{"base_weights":[-2.3638079E-1,1.8665997E0,-4.526801E0,5.0797397E-1,3.6013095E0,-8.558707E0,-2.733463E0,1.1209615E0,-2.923047E-1,4.750457E0,1.2161479E0,-5.2381116E-1,-2.1279907E-1,-4.1096025E0,-7.163798E-1,-7.118022E-1,1.8336775E0,2.4897003E0,5.6903043E0,-9.746277E-1,2.3323746E-1,-1.3544972E-2,-5.37111E0,9.372602E-1,-1.9229465E0,-7.586531E-2,6.0133364E-2,6.573078E-2,1.9352134E-1,1.7044918E-1,1.29264835E-2,8.910751E-2,3.1558496E-1,1.01805724E-1,-1.6605708E-1,-1.2186165E-1,-2.9507384E-1,7.284546E-2,9.16481E-3,-1.2870078E-1,-2.3280336E-2],"categories":[],"categories_nodes":[],"categories_segments":[],"categories_sizes":[],"default_left":[0,0,0,0,0,0,0,0,0,0,0,0,0,0,0,0,0,0,0,0,0,0,0,0,0,0,0,0,0,0,0,0,0,0,0,0,0,0,0,0,0],"id":20,"left_children":[1,3,5,7,9,11,13,15,-1,17,19,-1,-1,21,23,25,27,29,31,33,-1,-1,35,37,39,-1,-1,-1,-1,-1,-1,-1,-1,-1,-1,-1,-1,-1,-1,-1,-1],"loss_changes":[1.2896688E3,2.2442554E2,3.1644183E2,2.2077629E2,1.0934064E2,7.092102E1,9.1432755E1,6.792346E1,0E0,4.5326355E1,1.1787307E2,0E0,0E0,9.539606E1,3.1730707E1,2.495651E1,3.402825E1,1.9629456E1,3.489319E1,7.7409706E1,0E0,0E0,8.957214E0,2.4755301E0,7.3409767E0,0E0,0E0,0E0,0E0,0E0,0E0,0E0,0E0,0E0,0E0,0E0,0E0,0E0,0E0,0E0,0E0],"parents":[2147483647,0,0,1,1,2,2,3,3,4,4,5,5,6,6,7,7,9,9,10,10,13,13,14,14,15,15,16,16,17,17,18,18,19,19,22,22,23,23,24,24],"right_children":[2,4,6,8,10,12,14,16,-1,18,20,-1,-1,22,24,26,28,30,32,34,-1,-1,36,38,40,-1,-1,-1,-1,-1,-1,-1,-1,-1,-1,-1,-1,-1,-1,-1,-1],"split_conditions":[5.091E2,4.9345E2,5.1575E2,5.0114E2,4.2945E6,4.9456E6,5.2079E2,4.0158E6,-2.923047E-1,3.5829E6,4.7685E6,-5.2381116E-1,-2.1279907E-1,5.028E2,5.3222E6,5.1619E6,5.8893E6,3.5829E6,4.8968E2,4.4823E6,2.3323746E-1,-1.3544972E-2,5.1215E2,5.2569E2,5.3016E2,-7.586531E-2,6.0133364E-2,6.573078E-2,1.9352134E-1,1.7044918E-1,1.29264835E-2,8.910751E-2,3.1558496E-1,1.01805724E-1,-1.6605708E-1,-1.2186165E-1,-2.9507384E-1,7.284546E-2,9.16481E-3,-1.2870078E-1,-2.3280336E-2],"split_indices":[1,36,29,94,46,39,94,60,0,74,95,0,0,86,25,39,74,32,78,60,0,0,45,0,3,0,0,0,0,0,0,0,0,0,0,0,0,0,0,0,0],"split_type":[0,0,0,0,0,0,0,0,0,0,0,0,0,0,0,0,0,0,0,0,0,0,0,0,0,0,0,0,0,0,0,0,0,0,0,0,0,0,0,0,0],"sum_hessian":[1.41E2,9.5E1,4.6E1,5.4E1,4.1E1,1.3E1,3.3E1,5E1,4E0,2.7E1,1.4E1,8E0,5E0,1.9E1,1.4E1,1.4E1,3.6E1,9E0,1.8E1,9E0,5E0,5E0,1.4E1,6E0,8E0,1E1,4E0,3E1,6E0,6E0,3E0,3E0,1.5E1,4E0,5E0,3E0,1.1E1,3E0,3E0,5E0,3E0],"tree_param":{"num_deleted":"0","num_feature":"98","num_nodes":"41","size_leaf_vector":"1"}},{"base_weights":[-3.2461804E-1,1.6635047E0,-4.5771523E0,1.6243048E-1,3.1609693E0,-7.756014E0,-2.7107205E0,1.1742578E0,-4.127777E0,3.8736386E0,-1.6575561E-1,-4.8600426E-1,-2.4112205E-1,-3.511953E0,1.9468471E-1,6.955853E-1,1.8056235E-1,-9.088715E-2,-2.806128E-1,2.1533237E0,5.0024734E0,-4.2873363E0,-9.091186E-4,-3.876877E-2,5.5803683E-2,8.515442E-2,-6.8210806E-3,1.381952E-1,-3.373413E-2,1.0318688E-1,3.1714287E-1,-7.408752E-2,-2.4915467E-1],"categories":[],"categories_nodes":[],"categories_segments":[],"categories_sizes":[],"default_left":[0,0,0,0,0,0,0,0,0,0,0,0,0,0,0,0,0,0,0,0,0,0,0,0,0,0,0,0,0,0,0,0,0],"id":21,"left_children":[1,3,5,7,9,11,13,15,17,19,-1,-1,-1,21,23,25,-1,-1,-1,27,29,31,-1,-1,-1,-1,-1,-1,-1,-1,-1,-1,-1],"loss_changes":[1.1151615E3,2.017891E2,2.2816705E2,2.0453073E2,2.2053021E2,3.9551636E1,6.586508E1,4.181581E1,2.0661148E1,6.884808E1,0E0,0E0,0E0,5.9520294E1,7.121994E0,2.7894575E1,0E0,0E0,0E0,3.29458E1,8.144684E1,2.7752441E1,0E0,0E0,0E0,0E0,0E0,0E0,0E0,0E0,0E0,0E0,0E0],"parents":[2147483647,0,0,1,1,2,2,3,3,4,4,5,5,6,6,7,7,8,8,9,9,13,13,14,14,15,15,19,19,20,20,21,21],"right_children":[2,4,6,8,10,12,14,16,18,20,-1,-1,-1,22,24,26,-1,-1,-1,28,30,32,-1,-1,-1,-1,-1,-1,-1,-1,-1,-1,-1],"split_conditions":[5.012E2,4.872E2,5.1575E2,4.9266E2,5.0741E2,4.9456E6,5.3592E2,5.1463E6,5.0002E2,4.921E2,-1.6575561E-1,-4.8600426E-1,-2.4112205E-1,5.2079E2,5.24E2,4.79E2,1.8056235E-1,-9.088715E-2,-2.806128E-1,5.01E2,3.1734E6,5.16E2,-9.091186E-4,-3.876877E-2,5.5803683E-2,8.515442E-2,-6.8210806E-3,1.381952E-1,-3.373413E-2,1.0318688E-1,3.1714287E-1,-7.408752E-2,-2.4915467E-1],"split_indices":[2,30,29,91,14,39,64,81,94,94,0,0,0,94,44,22,0,0,0,0,95,36,0,0,0,0,0,0,0,0,0,0,0],"split_type":[0,0,0,0,0,0,0,0,0,0,0,0,0,0,0,0,0,0,0,0,0,0,0,0,0,0,0,0,0,0,0,0,0],"sum_hessian":[1.3E2,8.9E1,4.1E1,4.5E1,4.4E1,1.4E1,2.7E1,3.7E1,8E0,4E1,4E0,7E0,7E0,2.1E1,6E0,3.2E1,5E0,4E0,4E0,1.7E1,2.3E1,1.7E1,4E0,3E0,3E0,1.4E1,1.8E1,1.4E1,3E0,8E0,1.5E1,4E0,1.3E1],"tree_param":{"num_deleted":"0","num_feature":"98","num_nodes":"33","size_leaf_vector":"1"}},{"base_weights":[-5.431133E-2,1.9671754E0,-3.7727606E0,2.3517755E-1,3.6940606E0,-4.4162425E-1,-2.7436779E0,1.2561442E0,-4.2151423E0,2.670271E0,6.087506E0,-3.6446764E0,2.08743E-1,2.2017765E0,1.4485891E-1,-2.5026932E-1,-9.879952E-2,1.5001436E0,4.980524E0,1.5607789E-1,3.5294327E-1,3.8455505E-2,-4.2799954E0,7.868907E-2,-5.955429E-2,4.8152875E-2,2.2708173E-1,-1.588049E-2,9.792595E-2,1.3145384E-1,-5.4317858E-2,1.2507273E-1,3.3147535E-1,-5.3958435E-2,-2.3744805E-1],"categories":[],"categories_nodes":[],"categories_segments":[],"categories_sizes":[],"default_left":[0,0,0,0,0,0,0,0,0,0,0,0,0,0,0,0,0,0,0,0,0,0,0,0,0,0,0,0,0,0,0,0,0,0,0],"id":22,"left_children":[1,3,5,7,9,-1,11,13,15,17,19,21,23,25,27,-1,-1,29,31,-1,-1,-1,33,-1,-1,-1,-1,-1,-1,-1,-1,-1,-1,-1,-1],"loss_changes":[1.0672899E3,2.7429968E2,2.3611023E2,2.1884534E2,9.64624E1,0E0,1.1514627E2,4.066488E1,6.0346985E0,8.4440384E1,1.54183655E1,9.582919E1,2.289353E1,5.6493126E1,1.6558504E1,0E0,0E0,7.293579E1,2.8383942E1,0E0,0E0,0E0,3.840631E1,0E0,0E0,0E0,0E0,0E0,0E0,0E0,0E0,0E0,0E0,0E0,0E0],"parents":[2147483647,0,0,1,1,2,2,3,3,4,4,6,6,7,7,8,8,9,9,10,10,11,11,12,12,13,13,14,14,17,17,18,18,22,22],"right_children":[2,4,6,8,10,-1,12,14,16,18,20,22,24,26,28,-1,-1,30,32,-1,-1,-1,34,-1,-1,-1,-1,-1,-1,-1,-1,-1,-1,-1,-1],"split_conditions":[5.04E2,4.8585E2,3.6214E6,4.9408E2,4.9473E2,-4.4162425E-1,5.3592E2,4.5304E6,4.8578E6,4.959E2,3.9351E6,4.9057E2,5.2569E2,4.2229E6,4.9044E2,-2.5026932E-1,-9.879952E-2,4.906E2,3.9113E6,1.5607789E-1,3.5294327E-1,3.8455505E-2,3.3306E6,7.868907E-2,-5.955429E-2,4.8152875E-2,2.2708173E-1,-1.588049E-2,9.792595E-2,1.3145384E-1,-5.4317858E-2,1.2507273E-1,3.3147535E-1,-5.3958435E-2,-2.3744805E-1],"split_indices":[0,2,25,94,93,0,57,11,39,9,39,63,7,11,29,0,0,16,11,0,0,0,88,0,0,0,0,0,0,0,0,0,0,0,0],"split_type":[0,0,0,0,0,0,0,0,0,0,0,0,0,0,0,0,0,0,0,0,0,0,0,0,0,0,0,0,0,0,0,0,0,0,0],"sum_hessian":[1.4E2,9.1E1,4.9E1,4.6E1,4.5E1,7E0,4.2E1,3.8E1,8E0,3.3E1,1.2E1,3.2E1,1E1,2E1,1.8E1,5E0,3E0,2.3E1,1E1,4E0,8E0,4E0,2.8E1,5E0,5E0,1.4E1,6E0,1.5E1,3E0,1.6E1,7E0,5E0,5E0,4E0,2.4E1],"tree_param":{"num_deleted":"0","num_feature":"98","num_nodes":"35","size_leaf_vector":"1"}},{"base_weights":[-2.0571245E-1,1.8802536E0,-3.6653218E0,9.481066E-2,3.6635416E0,9.4285583E-1,-4.387063E0,9.631694E-1,-3.4856431E0,2.562555E0,5.839759E0,1.5587845E-1,-4.927429E-2,-7.371688E0,-2.5495403E0,1.6187693E-1,5.066261E-1,-2.1225078E-1,-7.37587E-2,3.001952E0,-5.76931E-2,3.6284027E-1,3.869873E0,-2.152609E-1,-9.087695E0,-3.5015397E0,6.085205E-2,1.4337611E-3,1.2864839E-1,1.4871216E-2,1.8630157E-1,9.7766496E-2,2.3137665E-1,-5.147411E-1,-2.3516503E-1,1.3779602E-2,-2.1781066E-1,-6.1598588E-2,4.562963E-2],"categories":[],"categories_nodes":[],"categories_segments":[],"categories_sizes":[],"default_left":[0,0,0,0,0,0,0,0,0,0,0,0,0,0,0,0,0,0,0,0,0,0,0,0,0,0,0,0,0,0,0,0,0,0,0,0,0,0,0],"id":23,"left_children":[1,3,5,7,9,11,13,15,17,19,21,-1,-1,23,25,-1,27,-1,-1,29,-1,-1,31,-1,33,35,37,-1,-1,-1,-1,-1,-1,-1,-1,-1,-1,-1,-1],"loss_changes":[1.0172196E3,2.7984106E2,1.8040973E2,1.432676E2,9.045874E1,3.662104E1,2.3348413E2,3.6778652E1,7.478119E0,5.4086304E1,1.0996979E1,0E0,0E0,5.0331055E1,7.4765854E1,0E0,3.1529736E1,0E0,0E0,5.3723984E1,0E0,0E0,2.5562286E0,0E0,4.505554E0,7.222125E1,1.1034641E1,0E0,0E0,0E0,0E0,0E0,0E0,0E0,0E0,0E0,0E0,0E0,0E0],"parents":[2147483647,0,0,1,1,2,2,3,3,4,4,5,5,6,6,7,7,8,8,9,9,10,10,13,13,14,14,16,16,19,19,22,22,24,24,25,25,26,26],"right_children":[2,4,6,8,10,12,14,16,18,20,22,-1,-1,24,26,-1,28,-1,-1,30,-1,-1,32,-1,34,36,38,-1,-1,-1,-1,-1,-1,-1,-1,-1,-1,-1,-1],"split_conditions":[5.01E2,4.8585E2,5.023E2,4.9408E2,4.9473E2,4.2387E6,5.1575E2,4.635E2,4.7747E2,5.021E2,5.0211E2,1.5587845E-1,-4.927429E-2,5.025E2,5.2079E2,1.6187693E-1,4.929E2,-2.1225078E-1,-7.37587E-2,4.8344E2,-5.76931E-2,3.6284027E-1,4.1932E6,-2.152609E-1,5.1423E2,5.0085E2,5.1821E2,1.4337611E-3,1.2864839E-1,1.4871216E-2,1.8630157E-1,9.7766496E-2,2.3137665E-1,-5.147411E-1,-2.3516503E-1,1.3779602E-2,-2.1781066E-1,-6.1598588E-2,4.562963E-2],"split_indices":[0,2,10,94,93,11,29,86,3,71,71,0,0,35,94,0,29,0,0,65,0,0,18,0,0,93,17,0,0,0,0,0,0,0,0,0,0,0,0],"split_type":[0,0,0,0,0,0,0,0,0,0,0,0,0,0,0,0,0,0,0,0,0,0,0,0,0,0,0,0,0,0,0,0,0,0,0,0,0,0,0],"sum_hessian":[1.39E2,8.7E1,5.2E1,4.4E1,4.3E1,7E0,4.5E1,3.6E1,8E0,3E1,1.3E1,3E0,4E0,1.6E1,2.9E1,5E0,3.1E1,5E0,3E0,2.7E1,3E0,6E0,7E0,7E0,9E0,2.1E1,8E0,2.6E1,5E0,6E0,2.1E1,3E0,4E0,6E0,3E0,4E0,1.7E1,3E0,5E0],"tree_param":{"num_deleted":"0","num_feature":"98","num_nodes":"39","size_leaf_vector":"1"}},{"base_weights":[9.4632395E-2,1.8453923E0,-3.19444E0,3.5374358E-1,3.4646058E0,-5.0207057E0,-9.1167414E-1,1.6443795E0,-2.9903018E0,1.0686178E0,4.795577E0,-5.8430862E0,5.843773E-2,-1.7597114E0,8.921916E-2,2.5530608E0,3.4090314E-2,-3.5169374E-2,-3.834729E0,2.6994085E0,-6.809082E-1,1.7839491E0,5.911031E0,-4.018838E0,-7.633667E0,3.2657776E-2,-2.495756E0,2.0687297E-1,5.080132E-2,-4.5854952E-2,1.8843912E-2,-2.1989615E-1,-9.4522856E-2,1.808548E-1,6.2091984E-2,-8.64154E-2,2.5133668E-2,1.7896332E-1,-1.8407898E-2,3.225362E-1,1.5009034E-1,-2.2183672E-1,-9.32457E-2,-4.3203735E-1,-1.855545E-1,-6.2568665E-2,-1.9731852E-1],"categories":[],"categories_nodes":[],"categories_segments":[],"categories_sizes":[],"default_left":[0,0,0,0,0,0,0,0,0,0,0,0,0,0,0,0,0,0,0,0,0,0,0,0,0,0,0,0,0,0,0,0,0,0,0,0,0,0,0,0,0,0,0,0,0,0,0],"id":24,"left_children":[1,3,5,7,9,11,13,15,17,19,21,23,-1,25,-1,27,29,-1,31,33,35,37,39,41,43,-1,45,-1,-1,-1,-1,-1,-1,-1,-1,-1,-1,-1,-1,-1,-1,-1,-1,-1,-1,-1,-1],"loss_changes":[8.120677E2,2.2098184E2,1.9970062E2,2.1639851E2,1.3519092E2,1.442616E2,5.5726204E1,5.2589592E1,2.4338554E1,5.034094E1,8.35163E1,4.7716675E1,0E0,3.3597713E1,0E0,5.180757E1,4.9104214E0,0E0,2.6359406E0,7.546486E0,1.2025923E1,3.6091175E1,1.2037903E1,4.3275146E0,1.1387268E1,0E0,2.033329E1,0E0,0E0,0E0,0E0,0E0,0E0,0E0,0E0,0E0,0E0,0E0,0E0,0E0,0E0,0E0,0E0,0E0,0E0,0E0,0E0],"parents":[2147483647,0,0,1,1,2,2,3,3,4,4,5,5,6,6,7,7,8,8,9,9,10,10,11,11,13,13,15,15,16,16,18,18,19,19,20,20,21,21,22,22,23,23,24,24,26,26],"right_children":[2,4,6,8,10,12,14,16,18,20,22,24,-1,26,-1,28,30,-1,32,34,36,38,40,42,44,-1,46,-1,-1,-1,-1,-1,-1,-1,-1,-1,-1,-1,-1,-1,-1,-1,-1,-1,-1,-1,-1],"split_conditions":[5.0281E2,4.8585E2,5.1431E2,4.9699E2,4.9023E2,6.3843E6,5.3572E2,4.6294E6,3.7673E6,3.9648E6,3.2062E6,4.6053E6,5.843773E-2,4.9311E2,8.921916E-2,4.2229E6,4.7347E2,-3.5169374E-2,4.8578E6,4.8419E2,4.9496E2,4.9965E2,5.0211E2,5.0409E6,5.2718E2,3.2657776E-2,5.3023E2,2.0687297E-1,5.080132E-2,-4.5854952E-2,1.8843912E-2,-2.1989615E-1,-9.4522856E-2,1.808548E-1,6.2091984E-2,-8.64154E-2,2.5133668E-2,1.7896332E-1,-1.8407898E-2,3.225362E-1,1.5009034E-1,-2.2183672E-1,-9.32457E-2,-4.3203735E-1,-1.855545E-1,-6.2568665E-2,-1.9731852E-1],"split_indices":[3,9,59,92,94,81,92,4,81,18,95,74,0,93,0,32,91,0,39,86,3,36,1,4,0,0,59,0,0,0,0,0,0,0,0,0,0,0,0,0,0,0,0,0,0,0,0],"split_type":[0,0,0,0,0,0,0,0,0,0,0,0,0,0,0,0,0,0,0,0,0,0,0,0,0,0,0,0,0,0,0,0,0,0,0,0,0,0,0,0,0,0,0,0,0,0,0],"sum_hessian":[1.39E2,9.1E1,4.8E1,4.8E1,4.3E1,2.6E1,2.2E1,3.5E1,1.3E1,1.6E1,2.7E1,2.3E1,3E0,1.7E1,5E0,2.2E1,1.3E1,4E0,9E0,8E0,8E0,8E0,1.9E1,1.3E1,1E1,4E0,1.3E1,1E1,1.2E1,3E0,1E1,6E0,3E0,4E0,4E0,4E0,4E0,4E0,4E0,1.5E1,4E0,1E1,3E0,7E0,3E0,8E0,5E0],"tree_param":{"num_deleted":"0","num_feature":"98","num_nodes":"47","size_leaf_vector":"1"}},{"base_weights":[-1.0625387E-2,1.5500034E0,-4.199402E0,8.544604E-2,2.7999806E0,-7.2967224E0,-2.2969263E0,9.9225247E-1,-3.4596436E0,3.601021E0,-6.499775E-2,-1.2370377E-1,-8.3870735E0,-3.3222752E0,8.142962E-1,1.6418586E0,-2.8503418E-1,-7.837799E-2,-2.2298864E-1,1.1954193E0,4.2026386E0,1.7418747E-1,-2.7184334E0,-4.6891138E-1,-2.1539994E-1,-1.4378357E-2,-3.87331E0,-3.2343674E-2,1.0359459E-1,1.4074434E-1,1.2615028E-2,-8.023987E-2,1.1039595E-2,1.2526245E-1,-6.978188E-2,3.0108246E-1,1.3141243E-1,-1.8938752E-1,-6.596466E-2,-4.9943544E-2,-2.229903E-1],"categories":[],"categories_nodes":[],"categories_segments":[],"categories_sizes":[],"default_left":[0,0,0,0,0,0,0,0,0,0,0,0,0,0,0,0,0,0,0,0,0,0,0,0,0,0,0,0,0,0,0,0,0,0,0,0,0,0,0,0,0],"id":25,"left_children":[1,3,5,7,9,11,13,15,17,19,21,-1,23,25,27,29,31,-1,-1,33,35,-1,37,-1,-1,-1,39,-1,-1,-1,-1,-1,-1,-1,-1,-1,-1,-1,-1,-1,-1],"loss_changes":[9.151695E2,1.8648843E2,2.071579E2,1.5773892E2,1.2645703E2,5.2867126E1,8.2457535E1,3.2827583E1,1.193232E1,5.7207947E1,1.318832E2,0E0,4.071533E0,3.0658539E1,1.4203175E1,4.166957E1,9.700315E0,0E0,0E0,3.7434853E1,8.1543945E1,0E0,6.97184E0,0E0,0E0,0E0,2.2518768E1,0E0,0E0,0E0,0E0,0E0,0E0,0E0,0E0,0E0,0E0,0E0,0E0,0E0,0E0],"parents":[2147483647,0,0,1,1,2,2,3,3,4,4,5,5,6,6,7,7,8,8,9,9,10,10,12,12,13,13,14,14,15,15,16,16,19,19,20,20,22,22,26,26],"right_children":[2,4,6,8,10,12,14,16,18,20,22,-1,24,26,28,30,32,-1,-1,34,36,-1,38,-1,-1,-1,40,-1,-1,-1,-1,-1,-1,-1,-1,-1,-1,-1,-1,-1,-1],"split_conditions":[5.0162E2,4.8585E2,5.0963E2,4.9408E2,5.01E2,4.9311E2,5.3188E2,4.5733E6,4.2947E6,4.89E2,3.7673E6,-1.2370377E-1,4.9456E6,5.0264E2,5.2073E2,4.792E2,4.6955E2,-7.837799E-2,-2.2298864E-1,4.906E2,4.9496E2,1.7418747E-1,4.9283E6,-4.6891138E-1,-2.1539994E-1,-1.4378357E-2,5.0085E2,-3.2343674E-2,1.0359459E-1,1.4074434E-1,1.2615028E-2,-8.023987E-2,1.1039595E-2,1.2526245E-1,-6.978188E-2,3.0108246E-1,1.3141243E-1,-1.8938752E-1,-6.596466E-2,-4.9943544E-2,-2.229903E-1],"split_indices":[2,2,56,94,0,51,63,46,81,73,39,0,25,65,16,93,50,0,0,2,52,0,18,0,0,0,93,0,0,0,0,0,0,0,0,0,0,0,0,0,0],"split_type":[0,0,0,0,0,0,0,0,0,0,0,0,0,0,0,0,0,0,0,0,0,0,0,0,0,0,0,0,0,0,0,0,0,0,0,0,0,0,0,0,0],"sum_hessian":[1.38E2,1.01E2,3.7E1,4.7E1,5.4E1,1.3E1,2.4E1,3.8E1,9E0,4.2E1,1.2E1,3E0,1E1,1.8E1,6E0,2.5E1,1.3E1,4E0,5E0,9E0,3.3E1,5E0,7E0,7E0,3E0,3E0,1.5E1,3E0,3E0,1.3E1,1.2E1,3E0,1E1,6E0,3E0,1.4E1,1.9E1,3E0,4E0,3E0,1.2E1],"tree_param":{"num_deleted":"0","num_feature":"98","num_nodes":"41","size_leaf_vector":"1"}},{"base_weights":[-5.7713352E-2,1.5676789E0,-3.3779125E0,1.2627469E-1,2.5435197E0,-7.9324136E0,-2.2103224E0,1.3279198E0,-3.0531783E0,1.0261699E0,3.9208395E0,-1.6608468E-1,-4.8420793E-1,-3.0775213E0,-7.4930824E-2,2.2857952E0,-2.683434E-2,-6.406581E-2,-2.1580887E-1,2.3663764E0,-1.6228393E0,1.3038839E0,4.855685E0,-7.9367065E-1,-3.6922565E0,-1.148655E-1,9.2111886E-1,1.5610848E-1,1.1604055E-2,-3.943939E-2,2.7399255E-2,1.4272417E-2,1.6524236E-1,5.3182602E-2,-1.4630716E-1,1.2919159E-1,-1.1842041E-2,4.882431E-3,2.8216335E-1,1.6162873E-3,-7.106247E-2,-2.2208135E-1,-1.09979086E-1,9.8152466E-2,-1.5251771E-2],"categories":[],"categories_nodes":[],"categories_segments":[],"categories_sizes":[],"default_left":[0,0,0,0,0,0,0,0,0,0,0,0,0,0,0,0,0,0,0,0,0,0,0,0,0,0,0,0,0,0,0,0,0,0,0,0,0,0,0,0,0,0,0,0,0],"id":26,"left_children":[1,3,5,7,9,11,13,15,17,19,21,-1,-1,23,25,27,29,-1,-1,31,33,35,37,39,41,-1,43,-1,-1,-1,-1,-1,-1,-1,-1,-1,-1,-1,-1,-1,-1,-1,-1,-1,-1],"loss_changes":[7.5542645E2,1.3189745E2,2.270852E2,1.5305676E2,1.1300961E2,4.0523438E1,7.013815E1,3.7694225E1,1.9086082E1,1.0324638E2,6.4615814E1,0E0,0E0,3.4976562E1,2.8679295E1,2.847586E1,6.1260576E0,0E0,0E0,3.6161545E1,3.812554E1,1.8360382E1,7.81431E1,3.6745877E0,1.3720184E1,0E0,1.2096907E1,0E0,0E0,0E0,0E0,0E0,0E0,0E0,0E0,0E0,0E0,0E0,0E0,0E0,0E0,0E0,0E0,0E0,0E0],"parents":[2147483647,0,0,1,1,2,2,3,3,4,4,5,5,6,6,7,7,8,8,9,9,10,10,13,13,14,14,15,15,16,16,19,19,20,20,21,21,22,22,23,23,24,24,26,26],"right_children":[2,4,6,8,10,12,14,16,18,20,22,-1,-1,24,26,28,30,-1,-1,32,34,36,38,40,42,-1,44,-1,-1,-1,-1,-1,-1,-1,-1,-1,-1,-1,-1,-1,-1,-1,-1,-1,-1],"split_conditions":[5.091E2,4.8624E2,5.1575E2,4.9225E2,4.9038E2,5.017E2,5.3592E2,4.5959E6,5.0002E2,4.906E2,3.4415E6,-1.6608468E-1,-4.8420793E-1,5.0283E2,5.3329E2,4.7852E2,4.1306E6,-6.406581E-2,-2.1580887E-1,4.8502E2,3.5195E6,4.8925E2,4.9113E2,4.3856E6,5.1431E2,-1.148655E-1,5.2736E2,1.5610848E-1,1.1604055E-2,-3.943939E-2,2.7399255E-2,1.4272417E-2,1.6524236E-1,5.3182602E-2,-1.4630716E-1,1.2919159E-1,-1.1842041E-2,4.882431E-3,2.8216335E-1,1.6162873E-3,-7.106247E-2,-2.2208135E-1,-1.09979086E-1,9.8152466E-2,-1.5251771E-2],"split_indices":[1,0,1,85,94,35,57,4,94,9,95,0,0,44,50,3,32,0,0,56,25,79,3,25,73,0,51,0,0,0,0,0,0,0,0,0,0,0,0,0,0,0,0,0,0],"split_type":[0,0,0,0,0,0,0,0,0,0,0,0,0,0,0,0,0,0,0,0,0,0,0,0,0,0,0,0,0,0,0,0,0,0,0,0,0,0,0,0,0,0,0,0,0],"sum_hessian":[1.38E2,9.3E1,4.5E1,3.8E1,5.5E1,8E0,3.7E1,2.8E1,1E1,2.7E1,2.8E1,3E0,5E0,2.6E1,1.1E1,1.6E1,1.2E1,5E0,5E0,1.8E1,9E0,8E0,2E1,6E0,2E1,3E0,8E0,1.1E1,5E0,5E0,7E0,6E0,1.2E1,3E0,6E0,4E0,4E0,3E0,1.7E1,3E0,3E0,1.2E1,8E0,4E0,4E0],"tree_param":{"num_deleted":"0","num_feature":"98","num_nodes":"45","size_leaf_vector":"1"}},{"base_weights":[-7.598791E-2,1.3326042E0,-3.4950452E0,1.6055363E-1,2.292493E0,-4.1139928E-1,-2.313372E0,1.11195E0,-3.0541937E0,3.0517273E0,-4.5356867E-1,-3.3437366E0,2.3867244E-1,1.809639E0,-1.6351318E-1,-7.3998265E-2,-2.059695E-1,2.3612468E0,2.7372846E-1,1.3265024E-1,-2.7268028E0,-1.948204E-2,-3.7288568E0,8.40387E-2,-8.2549614E-1,4.5135498E-2,1.9416112E-1,3.638255E-2,-3.6972728E-2,1.547482E-1,7.2042844E-3,-6.5992735E-2,-1.6535003E-1,-7.651581E-2,-2.066202E-1,8.244324E-3,-8.047523E-2],"categories":[],"categories_nodes":[],"categories_segments":[],"categories_sizes":[],"default_left":[0,0,0,0,0,0,0,0,0,0,0,0,0,0,0,0,0,0,0,0,0,0,0,0,0,0,0,0,0,0,0,0,0,0,0,0,0],"id":27,"left_children":[1,3,5,7,9,-1,11,13,15,17,19,21,23,25,27,-1,-1,29,-1,-1,31,-1,33,-1,35,-1,-1,-1,-1,-1,-1,-1,-1,-1,-1,-1,-1],"loss_changes":[6.933537E2,1.14385864E2,2.158628E2,1.4714557E2,1.18138824E2,0E0,9.283182E1,3.3221336E1,1.2348938E1,6.0681885E1,9.9039825E1,2.6989166E1,1.8268501E1,4.1628815E1,7.72368E0,0E0,0E0,5.8117767E1,0E0,0E0,2.1657104E0,0E0,1.3194885E1,0E0,5.700665E0,0E0,0E0,0E0,0E0,0E0,0E0,0E0,0E0,0E0,0E0,0E0,0E0],"parents":[2147483647,0,0,1,1,2,2,3,3,4,4,6,6,7,7,8,8,9,9,10,10,11,11,12,12,13,13,14,14,17,17,20,20,22,22,24,24],"right_children":[2,4,6,8,10,-1,12,14,16,18,20,22,24,26,28,-1,-1,30,-1,-1,32,-1,34,-1,36,-1,-1,-1,-1,-1,-1,-1,-1,-1,-1,-1,-1],"split_conditions":[5.0162E2,4.8585E2,5.035E2,4.9378E2,5.01E2,-4.1139928E-1,5.3592E2,4.5304E6,4.2947E6,5.0114E2,3.9351E6,5.0346E2,5.2545E2,4.2229E6,3.737E6,-7.3998265E-2,-2.059695E-1,4.9965E2,2.7372846E-1,1.3265024E-1,5.0298E2,-1.948204E-2,5.0264E2,8.40387E-2,5.3013E2,4.5135498E-2,1.9416112E-1,3.638255E-2,-3.6972728E-2,1.547482E-1,7.2042844E-3,-6.5992735E-2,-1.6535003E-1,-7.651581E-2,-2.066202E-1,8.244324E-3,-8.047523E-2],"split_indices":[2,2,85,94,0,0,57,11,81,17,88,59,7,11,95,0,0,36,0,0,3,0,51,0,8,0,0,0,0,0,0,0,0,0,0,0,0],"split_type":[0,0,0,0,0,0,0,0,0,0,0,0,0,0,0,0,0,0,0,0,0,0,0,0,0,0,0,0,0,0,0,0,0,0,0,0,0],"sum_hessian":[1.42E2,1.01E2,4.1E1,4.6E1,5.5E1,7E0,3.4E1,3.6E1,1E1,4.3E1,1.2E1,2.4E1,1E1,2.3E1,1.3E1,5E0,5E0,3.5E1,8E0,5E0,7E0,3E0,2.1E1,4E0,6E0,1.7E1,6E0,5E0,8E0,2.6E1,9E0,3E0,4E0,4E0,1.7E1,3E0,3E0],"tree_param":{"num_deleted":"0","num_feature":"98","num_nodes":"37","size_leaf_vector":"1"}},{"base_weights":[2.1883821E-1,1.6722425E0,-3.1084392E0,5.723889E-1,2.9060235E0,-7.497921E0,-2.0163164E0,1.0755291E0,-1.732137E-1,7.0370716E-1,3.6855414E0,-1.8895875E-1,-4.4866666E-1,-2.811831E0,2.5365296E-1,1.580743E0,-7.21602E-1,2.2557373E0,-1.6761474E-1,-6.7248023E-3,4.372494E0,1.3565826E-2,-3.225777E0,1.01228714E-1,-7.945382E-1,2.9022396E-2,1.157616E-1,-4.2582923E-3,-7.341462E-2,1.646552E-1,-6.179428E-3,8.711243E-2,2.5053206E-1,-1.969332E-1,-9.525787E-2,7.935333E-3,-7.745743E-2],"categories":[],"categories_nodes":[],"categories_segments":[],"categories_sizes":[],"default_left":[0,0,0,0,0,0,0,0,0,0,0,0,0,0,0,0,0,0,0,0,0,0,0,0,0,0,0,0,0,0,0,0,0,0,0,0,0],"id":28,"left_children":[1,3,5,7,9,11,13,15,-1,17,19,-1,-1,21,23,25,27,29,-1,-1,31,-1,33,-1,35,-1,-1,-1,-1,-1,-1,-1,-1,-1,-1,-1,-1],"loss_changes":[6.677135E2,1.286066E2,1.8622366E2,1.093383E2,7.465997E1,9.98172E0,6.3916E1,4.381363E1,0E0,8.9397385E1,8.718622E1,0E0,0E0,3.4057877E1,2.0171242E1,2.5840248E1,5.102379E0,2.5089325E1,0E0,0E0,3.82677E1,0E0,1.4149643E1,0E0,5.2811594E0,0E0,0E0,0E0,0E0,0E0,0E0,0E0,0E0,0E0,0E0,0E0,0E0],"parents":[2147483647,0,0,1,1,2,2,3,3,4,4,5,5,6,6,7,7,9,9,10,10,13,13,14,14,15,15,16,16,17,17,20,20,22,22,24,24],"right_children":[2,4,6,8,10,12,14,16,-1,18,20,-1,-1,22,24,26,28,30,-1,-1,32,-1,34,-1,36,-1,-1,-1,-1,-1,-1,-1,-1,-1,-1,-1,-1],"split_conditions":[5.091E2,4.9442E2,5.1433E2,4.9721E2,4.9038E2,5.0975E2,5.3592E2,5.0607E6,-1.732137E-1,5.021E2,4.8585E2,-1.8895875E-1,-4.4866666E-1,5.025E2,5.2545E2,4.8314E2,4.792E2,4.9955E2,-1.6761474E-1,-6.7248023E-3,3.5195E6,1.3565826E-2,5.3434E6,1.01228714E-1,5.3013E2,2.9022396E-2,1.157616E-1,-4.2582923E-3,-7.341462E-2,1.646552E-1,-6.179428E-3,8.711243E-2,2.5053206E-1,-1.969332E-1,-9.525787E-2,7.935333E-3,-7.745743E-2],"split_indices":[1,43,1,85,94,8,57,11,0,22,9,0,0,63,7,43,65,0,0,0,60,0,4,0,8,0,0,0,0,0,0,0,0,0,0,0,0],"split_type":[0,0,0,0,0,0,0,0,0,0,0,0,0,0,0,0,0,0,0,0,0,0,0,0,0,0,0,0,0,0,0,0,0,0,0,0,0],"sum_hessian":[1.36E2,9.5E1,4.1E1,5.1E1,4.4E1,7E0,3.4E1,4.6E1,5E0,1.2E1,3.2E1,3E0,4E0,2.5E1,9E0,3.6E1,1E1,9E0,3E0,5E0,2.7E1,3E0,2.2E1,3E0,6E0,1.6E1,2E1,6E0,4E0,6E0,3E0,6E0,2.1E1,1.3E1,9E0,3E0,3E0],"tree_param":{"num_deleted":"0","num_feature":"98","num_nodes":"37","size_leaf_vector":"1"}},{"base_weights":[4.0443696E-2,1.4767495E0,-2.8954952E0,3.241577E-1,2.6224444E0,-6.958069E0,-1.8571094E0,8.32618E-1,-2.1075623E-1,5.9605306E-1,3.4640632E0,-1.3724327E-1,-4.3035966E-1,-2.7053692E0,-3.760864E-1,1.5950688E0,-4.721608E-1,1.5919212E-1,-1.4829E0,1.5896301E0,5.3562965E0,-2.1381227E-2,-3.139537E0,8.1710815E-1,-1.2623392E0,1.0344603E-1,-2.4360402E-2,-6.0003992E-2,1.09679796E-1,4.5601275E-2,-1.4161836E-1,1.3433048E-1,-5.87101E-3,2.9977456E-1,1.3754852E-1,-1.724306E-1,-5.2054215E-2,6.785011E-2,3.6468506E-3,-8.878454E-2,-8.836365E-3],"categories":[],"categories_nodes":[],"categories_segments":[],"categories_sizes":[],"default_left":[0,0,0,0,0,0,0,0,0,0,0,0,0,0,0,0,0,0,0,0,0,0,0,0,0,0,0,0,0,0,0,0,0,0,0,0,0,0,0,0,0],"id":29,"left_children":[1,3,5,7,9,11,13,15,-1,17,19,-1,-1,21,23,25,27,-1,29,31,33,-1,35,37,39,-1,-1,-1,-1,-1,-1,-1,-1,-1,-1,-1,-1,-1,-1,-1,-1],"loss_changes":[5.9042584E2,1.23278656E2,1.8113E2,1.1429574E2,7.809137E1,3.8907288E1,4.672165E1,4.4525635E1,0E0,8.541971E1,1.0853198E2,0E0,0E0,2.2391617E1,1.6893549E1,2.8635338E1,3.5620224E1,0E0,3.1670044E1,3.4022243E1,1.015155E1,0E0,9.381287E0,2.7134395E0,4.70189E0,0E0,0E0,0E0,0E0,0E0,0E0,0E0,0E0,0E0,0E0,0E0,0E0,0E0,0E0,0E0,0E0],"parents":[2147483647,0,0,1,1,2,2,3,3,4,4,5,5,6,6,7,7,9,9,10,10,13,13,14,14,15,15,16,16,18,18,19,19,20,20,22,22,23,23,24,24],"right_children":[2,4,6,8,10,12,14,16,-1,18,20,-1,-1,22,24,26,28,-1,30,32,34,-1,36,38,40,-1,-1,-1,-1,-1,-1,-1,-1,-1,-1,-1,-1,-1,-1,-1,-1],"split_conditions":[5.091E2,4.9345E2,5.1575E2,5.0114E2,4.9038E2,5.017E2,5.2079E2,4.6294E6,-2.1075623E-1,4.9625E2,3.7969E6,-1.3724327E-1,-4.3035966E-1,4.9947E2,5.3222E6,4.8419E2,4.6744E6,1.5919212E-1,3.5195E6,4.9998E2,5.1042E6,-2.1381227E-2,5.9231E6,5.2838E2,5.3016E2,1.0344603E-1,-2.4360402E-2,-6.0003992E-2,1.09679796E-1,4.5601275E-2,-1.4161836E-1,1.3433048E-1,-5.87101E-3,2.9977456E-1,1.3754852E-1,-1.724306E-1,-5.2054215E-2,6.785011E-2,3.6468506E-3,-8.878454E-2,-8.836365E-3],"split_indices":[1,36,1,94,94,35,94,11,0,10,95,0,0,93,25,93,60,0,25,35,25,0,4,43,3,0,0,0,0,0,0,0,0,0,0,0,0,0,0,0,0],"split_type":[0,0,0,0,0,0,0,0,0,0,0,0,0,0,0,0,0,0,0,0,0,0,0,0,0,0,0,0,0,0,0,0,0,0,0,0,0,0,0,0,0],"sum_hessian":[1.38E2,9.3E1,4.5E1,4.7E1,4.6E1,8E0,3.7E1,4.3E1,4E0,1.4E1,3.2E1,3E0,5E0,2.3E1,1.4E1,2.7E1,1.6E1,6E0,8E0,1.7E1,1.5E1,4E0,1.9E1,6E0,8E0,2.2E1,5E0,1.3E1,3E0,3E0,5E0,1E1,7E0,1.1E1,4E0,1.6E1,3E0,3E0,3E0,5E0,3E0],"tree_param":{"num_deleted":"0","num_feature":"98","num_nodes":"41","size_leaf_vector":"1"}},{"base_weights":[7.898432E-2,1.4580935E0,-2.7409124E0,3.0654463E-1,2.60312E0,-4.112736E0,-5.7501864E-1,1.0334251E0,-2.958096E0,3.1280565E0,3.4804994E-1,-4.7119775E0,-2.0691529E-2,1.2442627E-1,-1.5578654E0,1.6788391E0,-3.962326E-2,-5.314026E-2,-1.8643036E-1,1.8694305E-1,3.7861485E0,1.0566292E-1,-7.10362E-1,-2.547519E0,-5.8408184E0,-9.754563E-3,-1.8823013E0,4.6294235E-2,1.5815659E-1,7.750016E-2,-2.6284555E-2,-5.931702E-2,6.2409054E-2,9.6173376E-2,2.290773E-1,8.773041E-3,-7.092972E-2,-1.6578762E-1,-2.831154E-2,-3.346164E-1,-1.724083E-1,-1.15582846E-1,-4.0943604E-2],"categories":[],"categories_nodes":[],"categories_segments":[],"categories_sizes":[],"default_left":[0,0,0,0,0,0,0,0,0,0,0,0,0,0,0,0,0,0,0,0,0,0,0,0,0,0,0,0,0,0,0,0,0,0,0,0,0,0,0,0,0,0,0],"id":30,"left_children":[1,3,5,7,9,11,13,15,17,19,21,23,-1,-1,25,27,29,-1,-1,31,33,-1,35,37,39,-1,41,-1,-1,-1,-1,-1,-1,-1,-1,-1,-1,-1,-1,-1,-1,-1,-1],"loss_changes":[5.4456E2,1.2314607E2,1.3431146E2,1.16961136E2,5.45484E1,6.0113068E1,6.1085686E1,2.776894E1,9.1803055E0,7.284207E1,2.0184355E1,4.3760376E1,0E0,0E0,6.2647743E0,2.5011429E1,1.3177483E1,0E0,0E0,1.3139812E1,3.7116272E1,0E0,4.6404862E0,1.3343437E1,7.4842224E0,0E0,3.5861168E0,0E0,0E0,0E0,0E0,0E0,0E0,0E0,0E0,0E0,0E0,0E0,0E0,0E0,0E0,0E0,0E0],"parents":[2147483647,0,0,1,1,2,2,3,3,4,4,5,5,6,6,7,7,8,8,9,9,10,10,11,11,14,14,15,15,16,16,19,19,20,20,22,22,23,23,24,24,26,26],"right_children":[2,4,6,8,10,12,14,16,18,20,22,24,-1,-1,26,28,30,-1,-1,32,34,-1,36,38,40,-1,42,-1,-1,-1,-1,-1,-1,-1,-1,-1,-1,-1,-1,-1,-1,-1,-1],"split_conditions":[5.0311E2,4.8585E2,5.2141E2,4.9408E2,5.1546E6,6.3843E6,4.1162E6,4.6788E6,4.8542E2,3.4415E6,3.656E6,3.9483E6,-2.0691529E-2,1.2442627E-1,4.1162E6,4.8589E6,3.737E6,-5.314026E-2,-1.8643036E-1,4.9928E2,3.5352E6,1.0566292E-1,4.9266E2,5.1239E2,4.9778E6,-9.754563E-3,5.3592E2,4.6294235E-2,1.5815659E-1,7.750016E-2,-2.6284555E-2,-5.931702E-2,6.2409054E-2,9.6173376E-2,2.290773E-1,8.773041E-3,-7.092972E-2,-1.6578762E-1,-2.831154E-2,-3.346164E-1,-1.724083E-1,-1.15582846E-1,-4.0943604E-2],"split_indices":[10,2,71,94,18,88,32,4,42,88,39,95,0,0,88,74,46,0,0,15,60,0,14,24,39,0,64,0,0,0,0,0,0,0,0,0,0,0,0,0,0,0,0],"split_type":[0,0,0,0,0,0,0,0,0,0,0,0,0,0,0,0,0,0,0,0,0,0,0,0,0,0,0,0,0,0,0,0,0,0,0,0,0,0,0,0,0,0,0],"sum_hessian":[1.38E2,9.3E1,4.5E1,4.7E1,4.6E1,2.7E1,1.8E1,3.9E1,8E0,3.7E1,9E0,2.3E1,4E0,4E0,1.4E1,2.4E1,1.5E1,3E0,5E0,7E0,3E1,3E0,6E0,9E0,1.4E1,3E0,1.1E1,1.7E1,7E0,3E0,1.2E1,3E0,4E0,1E1,2E1,3E0,3E0,6E0,3E0,9E0,5E0,7E0,4E0],"tree_param":{"num_deleted":"0","num_feature":"98","num_nodes":"43","size_leaf_vector":"1"}}]},"name":"gbtree"},"learner_model_param":{"base_score":"[4.911236E2]","boost_from_average":"1","num_class":"0","num_feature":"98","num_target":"1"},"objective":{"name":"reg:squarederror","reg_loss_param":{"scale_pos_weight":"1"}}},"version":[3,2,0]}