{"learner":{"attributes":{"best_iteration":"0","best_score":"8.8231512924089"},"feature_names":[],"feature_types":[],"gradient_booster":{"model":{"cats":{"enc":[],"feature_segments":[],"sorted_idx":[]},"gbtree_model_param":{"num_parallel_tree":"1","num_trees":"31"},"iteration_indptr":[0,1,2,3,4,5,6,7,8,9,10,11,12,13,14,15,16,17,18,19,20,21,22,23,24,25,26,27,28,29,30,31],"tree_info":[0,0,0,0,0,0,0,0,0,0,0,0,0,0,0,0,0,0,0,0,0,0,0,0,0,0,0,0,0,0,0],"trees":[{"base_weights":[7.696104E-1,-4.0774274E0,2.1206377E1,-8.779322E0,-8.8373774E-1,1.5036908E1,2.8813158E1,-8.1163406E-1,-1.6711721E1,-1.7630209E0,6.922684E-1,9.351873E-1,4.8496518E-1,5.2951777E-1,1.7161458E0,3.191456E-1,-4.1495595E0,-1.9313763E1,-1.7408112E-1,3.7199209E0,-3.8966224E0,-1.1465683E-1,-4.804825E-1,-4.1498223E-1,-1.0430092E0,-1.1690848E-1,3.347911E-1,1.9757657E-1,-2.782521E-1],"categories":[],"categories_nodes":[],"categories_segments":[],"categories_sizes":[],"default_left":[0,0,0,0,0,0,0,0,0,0,0,0,0,0,0,0,0,0,0,0,0,0,0,0,0,0,0,0,0],"id":0,"left_children":[1,3,5,7,9,11,13,15,17,19,-1,-1,-1,-1,-1,-1,21,23,-1,25,27,-1,-1,-1,-1,-1,-1,-1,-1],"loss_changes":[1.3954557E4,1.70411E3,8.3384375E2,2.8937688E3,9.180323E2,1.5131299E2,7.409424E2,6.0284283E2,7.245381E2,7.865904E2,0E0,0E0,0E0,0E0,0E0,0E0,1.5027979E2,1.5048438E2,0E0,3.5819327E2,6.5050287E2,0E0,0E0,0E0,0E0,0E0,0E0,0E0,0E0],"parents":[2147483647,0,0,1,1,2,2,3,3,4,4,5,5,6,6,7,7,8,8,9,9,16,16,17,17,19,19,20,20],"right_children":[2,4,6,8,10,12,14,16,18,20,-1,-1,-1,-1,-1,-1,22,24,-1,26,28,-1,-1,-1,-1,-1,-1,-1,-1],"split_conditions":[5.2141E2,4.923E2,5.36E2,4.841E2,5.2141E2,5.3061E2,5.3329E2,4.7685E2,4.9471E2,4.9266E2,6.922684E-1,9.351873E-1,4.8496518E-1,5.2951777E-1,1.7161458E0,3.191456E-1,4.77E2,4.8172E2,-1.7408112E-1,4.915E2,4.8667E2,-1.1465683E-1,-4.804825E-1,-4.1498223E-1,-1.0430092E0,-1.1690848E-1,3.347911E-1,1.9757657E-1,-2.782521E-1],"split_indices":[64,64,64,0,85,57,57,78,50,63,0,0,0,0,0,0,7,2,0,49,2,0,0,0,0,0,0,0,0],"split_type":[0,0,0,0,0,0,0,0,0,0,0,0,0,0,0,0,0,0,0,0,0,0,0,0,0,0,0,0,0],"sum_hessian":[1.39E2,1.13E2,2.6E1,4.5E1,6.8E1,1.6E1,1E1,2.3E1,2.2E1,6.5E1,3E0,8E0,8E0,3E0,7E0,7E0,1.6E1,1.8E1,4E0,1.8E1,4.7E1,1.3E1,3E0,3E0,1.5E1,6E0,1.2E1,8E0,3.9E1],"tree_param":{"num_deleted":"0","num_feature":"98","num_nodes":"29","size_leaf_vector":"1"}},{"base_weights":[3.9157328E-1,-4.388428E0,1.8179455E1,-8.943685E0,-7.3202217E-1,1.3221624E1,1.5936203E0,-8.557258E-1,-1.7697739E1,3.3434312E0,-4.2912984E0,-9.47979E-2,1.5584059E1,6.103653E0,-3.7409523E0,-8.887251E0,-1.0142273E0,6.0081816E0,-5.8898096E0,2.508708E-1,-6.1327624E0,4.5855933E-1,8.8386744E-1,1.6129914E-1,3.5925293E-1,-1.0650282E-1,-4.624649E-1,-1.1198044E-1,-6.65654E-1,-7.954987E-2,3.8458726E-1,-6.085545E-1,9.319611E-2,-3.7943122E-1,-3.405435E-2],"categories":[],"categories_nodes":[],"categories_segments":[],"categories_sizes":[],"default_left":[0,0,0,0,0,0,0,0,0,0,0,0,0,0,0,0,0,0,0,0,0,0,0,0,0,0,0,0,0,0,0,0,0,0,0],"id":1,"left_children":[1,3,5,7,9,11,-1,13,15,17,19,-1,21,23,25,27,-1,29,31,-1,33,-1,-1,-1,-1,-1,-1,-1,-1,-1,-1,-1,-1,-1,-1],"loss_changes":[1.1643328E4,1.7922869E3,1.5473281E3,3.3833726E3,8.9919324E2,8.5097534E2,0E0,5.4489746E2,3.4391943E2,7.489112E2,5.964455E2,0E0,1.063584E2,1.7165833E0,1.4889255E2,1.7613324E2,0E0,3.0649274E2,3.6360947E2,0E0,2.1706445E2,0E0,0E0,0E0,0E0,0E0,0E0,0E0,0E0,0E0,0E0,0E0,0E0,0E0,0E0],"parents":[2147483647,0,0,1,1,2,2,3,3,4,4,5,5,7,7,8,8,9,9,10,10,12,12,13,13,14,14,15,15,17,17,18,18,20,20],"right_children":[2,4,6,8,10,12,-1,14,16,18,20,-1,22,24,26,28,-1,30,32,-1,34,-1,-1,-1,-1,-1,-1,-1,-1,-1,-1,-1,-1,-1,-1],"split_conditions":[5.16E2,4.9222E2,6.3841E6,4.841E2,4.9163E2,3.1835E6,1.5936203E0,4.7685E2,3.8158E6,5.04E2,4.8911E2,-9.47979E-2,4.7264E6,4.04E6,4.7747E2,4.6744E6,-1.0142273E0,4.9192E2,5.035E2,2.508708E-1,5.0839E2,4.5855933E-1,8.8386744E-1,1.6129914E-1,3.5925293E-1,-1.0650282E-1,-4.624649E-1,-1.1198044E-1,-6.65654E-1,-7.954987E-2,3.8458726E-1,-6.085545E-1,9.319611E-2,-3.7943122E-1,-3.405435E-2],"split_indices":[71,50,95,0,72,11,0,78,18,0,0,0,67,11,10,4,0,15,22,0,77,0,0,0,0,0,0,0,0,0,0,0,0,0,0],"split_type":[0,0,0,0,0,0,0,0,0,0,0,0,0,0,0,0,0,0,0,0,0,0,0,0,0,0,0,0,0,0,0,0,0,0,0],"sum_hessian":[1.35E2,1.07E2,2.8E1,4.7E1,6E1,2.2E1,6E0,2.5E1,2.2E1,2.8E1,3.2E1,3E0,1.9E1,7E0,1.8E1,6E0,1.6E1,2.2E1,6E0,5E0,2.7E1,6E0,1.3E1,3E0,4E0,1.5E1,3E0,3E0,3E0,4E0,1.8E1,3E0,3E0,2.1E1,6E0],"tree_param":{"num_deleted":"0","num_feature":"98","num_nodes":"35","size_leaf_vector":"1"}},{"base_weights":[-7.28007E-2,-5.1649623E0,1.7177193E1,-1.0481575E1,-1.1581997E0,1.2791781E1,2.6475777E1,-7.565252E-1,-1.895947E1,4.9488897E0,-3.6302316E0,7.176148E-2,1.5107096E1,6.898571E-1,1.5257785E0,5.8635445E0,-4.236794E0,-9.961893E-1,-4.578476E-1,7.488019E0,-2.9050332E-1,3.7695098E0,-5.6407228E0,1.6800709E1,4.318741E-1,1.5525094E-1,3.4488282E-1,-5.870548E-2,-3.7846375E-1,6.626832E-2,4.804248E-1,2.2623138E-1,7.528382E-2,1.3558547E-1,-3.73116E-1,4.5416746E-1,9.4896597E-1],"categories":[],"categories_nodes":[],"categories_segments":[],"categories_sizes":[],"default_left":[0,0,0,0,0,0,0,0,0,0,0,0,0,0,0,0,0,0,0,0,0,0,0,0,0,0,0,0,0,0,0,0,0,0,0,0,0],"id":2,"left_children":[1,3,5,7,9,11,13,15,17,19,21,-1,23,-1,-1,25,27,-1,-1,29,-1,31,33,35,-1,-1,-1,-1,-1,-1,-1,-1,-1,-1,-1,-1,-1],"loss_changes":[1.1947085E4,2.2246128E3,9.254502E2,3.6958154E3,9.388778E2,5.830791E2,3.9944336E1,5.317143E2,4.4424805E1,5.352367E2,6.758558E2,0E0,6.306787E1,0E0,0E0,1.403656E0,1.4420792E2,0E0,0E0,1.8328162E2,0E0,1.0281982E1,5.527522E2,6.2987793E1,0E0,0E0,0E0,0E0,0E0,0E0,0E0,0E0,0E0,0E0,0E0,0E0,0E0],"parents":[2147483647,0,0,1,1,2,2,3,3,4,4,5,5,6,6,7,7,8,8,9,9,10,10,12,12,15,15,16,16,19,19,21,21,22,22,23,23],"right_children":[2,4,6,8,10,12,14,16,18,20,22,-1,24,-1,-1,26,28,-1,-1,30,-1,32,34,36,-1,-1,-1,-1,-1,-1,-1,-1,-1,-1,-1,-1,-1],"split_conditions":[5.1591E2,4.923E2,6.3843E6,4.841E2,4.9285E2,5.21E2,5.3572E2,4.7813E2,4.9471E2,4.6294E6,4.8667E2,7.176148E-2,5.2952E2,6.898571E-1,1.5257785E0,4.04E6,4.753E2,-9.961893E-1,-4.578476E-1,4.8906E2,-2.9050332E-1,4.6744E6,3.2062E6,4.2543E6,4.318741E-1,1.5525094E-1,3.4488282E-1,-5.870548E-2,-3.7846375E-1,6.626832E-2,4.804248E-1,2.2623138E-1,7.528382E-2,1.3558547E-1,-3.73116E-1,4.5416746E-1,9.4896597E-1],"split_indices":[64,64,95,0,66,78,64,71,50,46,9,0,59,0,0,11,0,0,0,30,0,60,32,81,0,0,0,0,0,0,0,0,0,0,0,0,0],"split_type":[0,0,0,0,0,0,0,0,0,0,0,0,0,0,0,0,0,0,0,0,0,0,0,0,0,0,0,0,0,0,0,0,0,0,0,0,0],"sum_hessian":[1.34E2,1.04E2,3E1,4.4E1,6E1,2.2E1,8E0,2.1E1,2.3E1,1.7E1,4.3E1,4E0,1.8E1,3E0,5E0,7E0,1.4E1,2E1,3E0,1.4E1,3E0,9E0,3.4E1,1.3E1,5E0,3E0,4E0,8E0,6E0,4E0,1E1,6E0,3E0,6E0,2.8E1,4E0,9E0],"tree_param":{"num_deleted":"0","num_feature":"98","num_nodes":"37","size_leaf_vector":"1"}},{"base_weights":[2.0519932E-1,-4.901916E0,1.6121347E1,-9.643102E0,-1.8823626E0,1.1706742E1,2.4287636E1,-2.1489203E0,-1.7404547E1,1.1994246E0,-7.325466E0,-9.3112946E-2,1.37338505E1,6.627744E-1,1.434904E0,4.979248E0,-5.1331863E0,-9.607404E-1,-2.679901E-1,5.082681E0,-3.5204544E0,-5.791326E-1,-4.4729576E0,7.3946786E-1,2.7753028E-1,1.00414656E-1,3.3526954E-1,-1.3793297E-1,-4.902707E-1,-2.4743195E-1,3.3756882E-1,9.271879E-2,-4.540361E-1,-1.9833375E-2,-2.6915637E-1],"categories":[],"categories_nodes":[],"categories_segments":[],"categories_sizes":[],"default_left":[0,0,0,0,0,0,0,0,0,0,0,0,0,0,0,0,0,0,0,0,0,0,0,0,0,0,0,0,0,0,0,0,0,0,0],"id":3,"left_children":[1,3,5,7,9,11,13,15,17,19,21,-1,23,-1,-1,25,27,-1,-1,29,31,-1,33,-1,-1,-1,-1,-1,-1,-1,-1,-1,-1,-1,-1],"loss_changes":[1.1377725E4,1.4993723E3,9.4140234E2,2.3473918E3,1.1159025E3,6.857158E2,1.548169E2,4.9355115E2,3.330952E2,8.0601886E2,2.3963904E2,0E0,9.929712E1,0E0,0E0,2.2431656E1,1.5045947E2,0E0,0E0,4.351513E2,6.1454895E2,0E0,5.7226562E1,0E0,0E0,0E0,0E0,0E0,0E0,0E0,0E0,0E0,0E0,0E0,0E0],"parents":[2147483647,0,0,1,1,2,2,3,3,4,4,5,5,6,6,7,7,8,8,9,9,10,10,12,12,15,15,16,16,19,19,20,20,22,22],"right_children":[2,4,6,8,10,12,14,16,18,20,22,-1,24,-1,-1,26,28,-1,-1,30,32,-1,34,-1,-1,-1,-1,-1,-1,-1,-1,-1,-1,-1,-1],"split_conditions":[5.16E2,4.9245E2,5.36E2,4.8172E2,4.9947E2,5.16E2,5.36E2,4.7685E2,4.9298E2,4.9774E2,4.9471E2,-9.3112946E-2,5.2736E2,6.627744E-1,1.434904E0,4.2051E6,4.77E2,-9.607404E-1,-2.679901E-1,4.9192E2,4.9242E2,-5.791326E-1,5.1E2,7.3946786E-1,2.7753028E-1,1.00414656E-1,3.3526954E-1,-1.3793297E-1,-4.902707E-1,-2.4743195E-1,3.3756882E-1,9.271879E-2,-4.540361E-1,-1.9833375E-2,-2.6915637E-1],"split_indices":[57,50,71,2,2,85,78,78,71,78,92,0,65,0,0,11,7,0,0,8,24,0,22,0,0,0,0,0,0,0,0,0,0,0,0],"split_type":[0,0,0,0,0,0,0,0,0,0,0,0,0,0,0,0,0,0,0,0,0,0,0,0,0,0,0,0,0,0,0,0,0,0,0],"sum_hessian":[1.38E2,1.05E2,3.3E1,4E1,6.5E1,2.3E1,1E1,2.1E1,1.9E1,4.2E1,2.3E1,3E0,2E1,4E0,6E0,6E0,1.5E1,1.6E1,3E0,2.3E1,1.9E1,8E0,1.5E1,1.7E1,3E0,3E0,3E0,1.1E1,4E0,3E0,2E1,1E1,9E0,3E0,1.2E1],"tree_param":{"num_deleted":"0","num_feature":"98","num_nodes":"35","size_leaf_vector":"1"}},{"base_weights":[6.090749E-1,-3.524785E0,1.5746259E1,5.9641547E0,-4.6393557E0,-8.903962E-2,1.7759665E1,4.7270748E-1,4.4923402E-2,6.8063736E0,-5.5842085E0,1.34084425E1,2.497228E1,1.5661888E-1,4.192148E-1,-9.836868E0,-2.5444763E0,8.073086E-1,3.812897E-1,6.625805E-1,1.4312007E0,-6.0775947E-2,-7.70332E-1,1.5272664E-1,-2.0890132E-1],"categories":[],"categories_nodes":[],"categories_segments":[],"categories_sizes":[],"default_left":[0,0,0,0,0,0,0,0,0,0,0,0,0,0,0,0,0,0,0,0,0,0,0,0,0],"id":4,"left_children":[1,3,5,7,9,-1,11,-1,-1,13,15,17,19,-1,-1,21,23,-1,-1,-1,-1,-1,-1,-1,-1],"loss_changes":[8.753427E3,1.1910402E3,1.0902979E3,2.036564E2,1.108647E3,0E0,5.125205E2,0E0,0E0,2.0115479E1,1.1642495E3,1.7766821E2,5.8930664E0,0E0,0E0,1.8059922E3,5.158062E2,0E0,0E0,0E0,0E0,0E0,0E0,0E0,0E0],"parents":[2147483647,0,0,1,1,2,2,3,3,4,4,6,6,9,9,10,10,11,11,12,12,15,15,16,16],"right_children":[2,4,6,8,10,-1,12,-1,-1,14,16,18,20,-1,-1,22,24,-1,-1,-1,-1,-1,-1,-1,-1],"split_conditions":[5.16E2,3.2448E6,3.1835E6,4.9221E2,4.6506E2,-8.903962E-2,5.36E2,4.7270748E-1,4.4923402E-2,5.8893E6,4.9192E2,5.3061E2,5.7557E6,1.5661888E-1,4.192148E-1,4.77E2,4.9057E2,8.073086E-1,3.812897E-1,6.625805E-1,1.4312007E0,-6.0775947E-2,-7.70332E-1,1.5272664E-1,-2.0890132E-1],"split_indices":[71,32,11,94,72,0,64,0,0,60,64,57,88,0,0,7,0,0,0,0,0,0,0,0,0],"split_type":[0,0,0,0,0,0,0,0,0,0,0,0,0,0,0,0,0,0,0,0,0,0,0,0,0],"sum_hessian":[1.38E2,1.09E2,2.9E1,1.1E1,9.8E1,3E0,2.6E1,6E0,5E0,7E0,9.1E1,1.8E1,8E0,3E0,4E0,3.7E1,5.4E1,1.1E1,7E0,3E0,5E0,1.5E1,2.2E1,1.2E1,4.2E1],"tree_param":{"num_deleted":"0","num_feature":"98","num_nodes":"25","size_leaf_vector":"1"}},{"base_weights":[8.0857086E-1,-3.5787992E0,1.5844923E1,6.1930175E0,-4.580282E0,1.2520429E1,1.2489814E0,8.744659E0,8.969498E-3,-7.8867965E0,-1.8736048E0,4.6474304E0,1.4886571E1,5.326458E-1,2.3251191E-1,-5.747223E-1,-1.3902218E1,2.6616848E0,-5.178058E0,9.819718E-2,3.08453E-1,3.7896678E-1,8.557011E-1,-1.505831E-1,2.1906303E-1,-1.7993256E-1,-7.9409933E-1,3.2461664E-1,2.9000282E-2,-5.461125E-1,-1.6812812E-1],"categories":[],"categories_nodes":[],"categories_segments":[],"categories_sizes":[],"default_left":[0,0,0,0,0,0,0,0,0,0,0,0,0,0,0,0,0,0,0,0,0,0,0,0,0,0,0,0,0,0,0],"id":5,"left_children":[1,3,5,7,9,11,-1,13,-1,15,17,19,21,-1,-1,23,25,27,29,-1,-1,-1,-1,-1,-1,-1,-1,-1,-1,-1,-1],"loss_changes":[8.764752E3,1.0363552E3,5.98292E2,1.5187756E2,8.2649194E2,3.7790308E2,0E0,5.1538086E0,0E0,1.8393884E3,8.0807495E2,1.6467224E1,1.6326416E2,0E0,0E0,2.547435E2,4.120161E2,1.7964052E2,2.8655847E2,0E0,0E0,0E0,0E0,0E0,0E0,0E0,0E0,0E0,0E0,0E0,0E0],"parents":[2147483647,0,0,1,1,2,2,3,3,4,4,5,5,7,7,9,9,10,10,11,11,12,12,15,15,16,16,17,17,18,18],"right_children":[2,4,6,8,10,12,-1,14,-1,16,18,20,22,-1,-1,24,26,28,30,-1,-1,-1,-1,-1,-1,-1,-1,-1,-1,-1,-1],"split_conditions":[5.1575E2,3.2448E6,6.3841E6,5E2,4.923E2,5.2141E2,1.2489814E0,3.7969E6,8.969498E-3,4.8267E2,4.9473E2,4.8589E6,4.2543E6,5.326458E-1,2.3251191E-1,4.735E2,3.6298E6,4.945E2,4.9725E2,9.819718E-2,3.08453E-1,3.7896678E-1,8.557011E-1,-1.505831E-1,2.1906303E-1,-1.7993256E-1,-7.9409933E-1,3.2461664E-1,2.9000282E-2,-5.461125E-1,-1.6812812E-1],"split_indices":[92,32,95,28,64,85,0,53,0,0,23,11,81,0,0,23,4,71,56,0,0,0,0,0,0,0,0,0,0,0,0],"split_type":[0,0,0,0,0,0,0,0,0,0,0,0,0,0,0,0,0,0,0,0,0,0,0,0,0,0,0,0,0,0,0],"sum_hessian":[1.31E2,1.02E2,2.9E1,9E0,9.3E1,2.3E1,6E0,6E0,3E0,4.1E1,5.2E1,6E0,1.7E1,3E0,3E0,1.9E1,2.2E1,2.2E1,3E1,3E0,3E0,5E0,1.2E1,1.3E1,6E0,4E0,1.8E1,7E0,1.5E1,6E0,2.4E1],"tree_param":{"num_deleted":"0","num_feature":"98","num_nodes":"31","size_leaf_vector":"1"}},{"base_weights":[-3.3946714E-1,-4.194465E0,1.4063842E1,-8.010068E0,-1.4137416E0,8.430822E0,1.8465807E1,-1.3864923E0,-1.5473835E1,2.469425E0,-3.6914897E0,5.444269E-1,6.688415E-2,4.635236E-1,2.0758379E1,4.7608676E0,-4.383145E0,-8.494064E-1,-2.2062416E-1,-2.9831275E-1,3.8909385E0,2.756656E-1,-4.8055034E0,5.016274E-1,2.321893E1,9.02668E-2,2.9688722E-1,-5.6717057E-2,-4.1511783E-1,3.6795074E-1,1.9381206E-2,3.0804291E-2,-3.254655E-1,1.329242E0,6.182667E-1],"categories":[],"categories_nodes":[],"categories_segments":[],"categories_sizes":[],"default_left":[0,0,0,0,0,0,0,0,0,0,0,0,0,0,0,0,0,0,0,0,0,0,0,0,0,0,0,0,0,0,0,0,0,0,0],"id":6,"left_children":[1,3,5,7,9,11,13,15,17,19,21,-1,-1,-1,23,25,27,-1,-1,-1,29,-1,31,-1,33,-1,-1,-1,-1,-1,-1,-1,-1,-1,-1],"loss_changes":[7.887978E3,1.1770109E3,5.882085E2,2.3020767E3,5.928776E2,2.4692847E2,1.4485547E2,4.998266E2,2.9354297E2,3.2300015E2,4.5717377E2,0E0,0E0,0E0,8.375244E1,2.0585037E1,2.1977185E2,0E0,0E0,0E0,2.6444223E2,0E0,3.5502917E2,0E0,5.9570312E-2,0E0,0E0,0E0,0E0,0E0,0E0,0E0,0E0,0E0,0E0],"parents":[2147483647,0,0,1,1,2,2,3,3,4,4,5,5,6,6,7,7,8,8,9,9,10,10,14,14,15,15,16,16,20,20,22,22,24,24],"right_children":[2,4,6,8,10,12,14,16,18,20,22,-1,-1,-1,24,26,28,-1,-1,-1,30,-1,32,-1,34,-1,-1,-1,-1,-1,-1,-1,-1,-1,-1],"split_conditions":[5.16E2,4.9192E2,5.0291E6,4.8172E2,4.9088E2,5.3016E2,5.231E2,4.7685E2,4.9348E2,4.8531E2,4.9057E2,5.444269E-1,6.688415E-2,4.635236E-1,4.2543E6,4.7625E2,4.74E2,-8.494064E-1,-2.2062416E-1,-2.9831275E-1,4.9408E2,2.756656E-1,3.3306E6,5.016274E-1,5.2316E2,9.02668E-2,2.9688722E-1,-5.6717057E-2,-4.1511783E-1,3.6795074E-1,1.9381206E-2,3.0804291E-2,-3.254655E-1,1.329242E0,6.182667E-1],"split_indices":[71,64,81,2,37,45,28,78,45,45,70,0,0,0,46,21,21,0,0,0,94,0,60,0,2,0,0,0,0,0,0,0,0,0,0],"split_type":[0,0,0,0,0,0,0,0,0,0,0,0,0,0,0,0,0,0,0,0,0,0,0,0,0,0,0,0,0,0,0,0,0,0,0],"sum_hessian":[1.4E2,1.11E2,2.9E1,4.6E1,6.5E1,1.4E1,1.5E1,2.5E1,2.1E1,2.4E1,4.1E1,1E1,4E0,4E0,1.1E1,8E0,1.7E1,1.8E1,3E0,3E0,2.1E1,4E0,3.7E1,3E0,8E0,3E0,5E0,1E1,7E0,1E1,1.1E1,9E0,2.8E1,5E0,3E0],"tree_param":{"num_deleted":"0","num_feature":"98","num_nodes":"35","size_leaf_vector":"1"}},{"base_weights":[2.8924653E-1,-3.2508082E0,1.5853917E1,-6.79789E0,-4.9666923E-1,1.0389601E1,2.3011433E1,-4.8277718E-1,-1.4894332E1,5.4267555E-1,-1.6622624E0,7.0416415E-1,3.3825317E-1,5.691082E-1,1.318469E0,-2.3817403E0,2.7771804E-1,-1.6452522E1,-2.0794487E-1,3.1914043E0,-3.4296207E0,-5.9951942E-2,-3.7020683E-1,-9.070999E-1,-5.0249505E-1,2.5531185E-1,-1.02123715E-1,1.518666E-1,-2.280203E-1],"categories":[],"categories_nodes":[],"categories_segments":[],"categories_sizes":[],"default_left":[0,0,0,0,0,0,0,0,0,0,0,0,0,0,0,0,0,0,0,0,0,0,0,0,0,0,0,0,0],"id":7,"left_children":[1,3,5,7,9,11,13,15,17,-1,19,-1,-1,-1,-1,21,-1,23,-1,25,27,-1,-1,-1,-1,-1,-1,-1,-1],"loss_changes":[7.434909E3,1.071231E3,7.3869385E2,2.4470464E3,8.515121E2,1.1893201E2,9.036426E1,3.342295E2,2.8286035E2,0E0,5.0847906E2,0E0,0E0,0E0,0E0,1.2180205E2,0E0,1.2381836E1,0E0,1.7078139E2,3.2829898E2,0E0,0E0,0E0,0E0,0E0,0E0,0E0,0E0],"parents":[2147483647,0,0,1,1,2,2,3,3,4,4,5,5,6,6,7,7,8,8,10,10,15,15,17,17,19,19,20,20],"right_children":[2,4,6,8,10,12,14,16,18,-1,20,-1,-1,-1,-1,22,-1,24,-1,26,28,-1,-1,-1,-1,-1,-1,-1,-1],"split_conditions":[5.2141E2,4.9245E2,5.36E2,4.8172E2,4.8583E2,5.3061E2,4.2947E6,4.8E2,4.9192E2,5.4267555E-1,4.9266E2,7.0416415E-1,3.3825317E-1,5.691082E-1,1.318469E0,4.7731E2,2.7771804E-1,4.7798E6,-2.0794487E-1,4.7685E6,4.8667E2,-5.9951942E-2,-3.7020683E-1,-9.070999E-1,-5.0249505E-1,2.5531185E-1,-1.02123715E-1,1.518666E-1,-2.280203E-1],"split_indices":[57,50,64,2,58,57,46,15,71,0,56,0,0,0,0,10,0,60,0,4,2,0,0,0,0,0,0,0,0],"split_type":[0,0,0,0,0,0,0,0,0,0,0,0,0,0,0,0,0,0,0,0,0,0,0,0,0,0,0,0,0],"sum_hessian":[1.33E2,1.09E2,2.4E1,4.7E1,6.2E1,1.5E1,9E0,2.7E1,2E1,5E0,5.7E1,6E0,9E0,3E0,6E0,2.1E1,6E0,1.7E1,3E0,1.5E1,4.2E1,1.8E1,3E0,1.2E1,5E0,1.1E1,4E0,6E0,3.6E1],"tree_param":{"num_deleted":"0","num_feature":"98","num_nodes":"29","size_leaf_vector":"1"}},{"base_weights":[3.6439845E-1,-3.5594783E0,1.3473474E1,4.7651825E0,-4.7614546E0,9.045761E0,2.1104036E1,5.268903E-1,1.4023529E0,4.6929386E-1,-6.8763723E0,2.3018608E0,1.2039457E1,5.4776615E-1,1.1770195E0,3.0544827E0,-9.197312E-2,-1.8026184E0,2.732922E-1,-1.3972976E1,-3.0964112E0,-5.8271408E-2,2.3076598E-1,3.181145E-1,7.120906E-1,2.003872E-1,6.688004E-2,-1.7948096E-1,1.7167207E-2,-9.797687E-1,-5.661284E-1,5.51019E-2,-2.2435729E-1],"categories":[],"categories_nodes":[],"categories_segments":[],"categories_sizes":[],"default_left":[0,0,0,0,0,0,0,0,0,0,0,0,0,0,0,0,0,0,0,0,0,0,0,0,0,0,0,0,0,0,0,0,0],"id":8,"left_children":[1,3,5,7,9,11,13,-1,15,17,19,21,23,-1,-1,25,-1,27,-1,29,31,-1,-1,-1,-1,-1,-1,-1,-1,-1,-1,-1,-1],"loss_changes":[7.1464565E3,1.0933359E3,8.9024854E2,2.569952E2,1.043112E3,4.1644897E2,1.4091797E1,0E0,5.9177597E1,3.277011E2,1.7540017E3,6.955027E1,9.693652E1,0E0,0E0,6.0956955E0,0E0,7.79292E1,0E0,1.20868164E2,2.6769684E2,0E0,0E0,0E0,0E0,0E0,0E0,0E0,0E0,0E0,0E0,0E0,0E0],"parents":[2147483647,0,0,1,1,2,2,3,3,4,4,5,5,6,6,8,8,9,9,10,10,11,11,12,12,15,15,17,17,19,19,20,20],"right_children":[2,4,6,8,10,12,14,-1,16,18,20,22,24,-1,-1,26,-1,28,-1,30,32,-1,-1,-1,-1,-1,-1,-1,-1,-1,-1,-1,-1],"split_conditions":[5.16E2,3.2448E6,5.3592E2,4.9314E2,4.8442E2,5.2126E2,4.2947E6,5.268903E-1,4.9709E2,4.8E2,4.9192E2,3.1835E6,4.776E6,5.4776615E-1,1.1770195E0,5.0045E2,-9.197312E-2,4.5041E6,2.732922E-1,4.7358E2,3.4415E6,-5.8271408E-2,2.3076598E-1,3.181145E-1,7.120906E-1,2.003872E-1,6.688004E-2,-1.7948096E-1,1.7167207E-2,-9.797687E-1,-5.661284E-1,5.51019E-2,-2.2435729E-1],"split_indices":[64,46,64,92,0,92,46,0,80,15,78,4,60,0,0,1,0,25,0,93,60,0,0,0,0,0,0,0,0,0,0,0,0],"split_type":[0,0,0,0,0,0,0,0,0,0,0,0,0,0,0,0,0,0,0,0,0,0,0,0,0,0,0,0,0,0,0,0,0],"sum_hessian":[1.37E2,1.06E2,3.1E1,1.3E1,9.3E1,2.1E1,1E1,4E0,9E0,2.7E1,6.6E1,7E0,1.4E1,3E0,7E0,6E0,3E0,1.9E1,8E0,2.2E1,4.4E1,3E0,4E0,5E0,9E0,3E0,3E0,1E1,9E0,5E0,1.7E1,1.1E1,3.3E1],"tree_param":{"num_deleted":"0","num_feature":"98","num_nodes":"33","size_leaf_vector":"1"}},{"base_weights":[3.666731E-1,-3.0254858E0,1.2679295E1,4.7848864E0,-4.041046E0,9.096245E0,1.0697826E0,8.692069E0,1.9414847E-1,3.298503E-1,-4.6909075E0,1.4354248E0,1.1715627E1,5.441982E-1,2.1635781E-1,-9.544144E-2,1.1242943E-1,-7.633503E0,-1.8344975E0,2.0524292E-1,-7.964325E-2,3.6757508E-1,7.017682E-1,-4.6354838E-2,-6.035052E-1,1.8247929E-1,-2.2189282E-1],"categories":[],"categories_nodes":[],"categories_segments":[],"categories_sizes":[],"default_left":[0,0,0,0,0,0,0,0,0,0,0,0,0,0,0,0,0,0,0,0,0,0,0,0,0,0,0],"id":9,"left_children":[1,3,5,7,9,11,-1,13,15,-1,17,19,21,-1,-1,-1,-1,23,25,-1,-1,-1,-1,-1,-1,-1,-1],"loss_changes":[5.8021196E3,8.839136E2,7.4231445E2,2.3149152E2,7.0153235E2,4.447152E2,0E0,1.9875427E1,3.4535255E1,0E0,7.592803E2,6.3125214E1,6.8920654E1,0E0,0E0,0E0,0E0,1.3277236E3,7.01494E2,0E0,0E0,0E0,0E0,0E0,0E0,0E0,0E0],"parents":[2147483647,0,0,1,1,2,2,3,3,4,4,5,5,7,7,8,8,10,10,11,11,12,12,17,17,18,18],"right_children":[2,4,6,8,10,12,-1,14,16,-1,18,20,22,-1,-1,-1,-1,24,26,-1,-1,-1,-1,-1,-1,-1,-1],"split_conditions":[5.16E2,3.2448E6,6.3841E6,4.945E2,4.63E2,5.21E2,1.0697826E0,4.9221E2,3.8735E6,3.298503E-1,4.9129E2,5.3023E2,4.914E6,5.441982E-1,2.1635781E-1,-9.544144E-2,1.1242943E-1,4.77E2,4.9716E2,2.0524292E-1,-7.964325E-2,3.6757508E-1,7.017682E-1,-4.6354838E-2,-6.035052E-1,1.8247929E-1,-2.2189282E-1],"split_indices":[71,46,95,71,72,85,0,38,32,0,59,10,60,0,0,0,0,7,29,0,0,0,0,0,0,0,0],"split_type":[0,0,0,0,0,0,0,0,0,0,0,0,0,0,0,0,0,0,0,0,0,0,0,0,0,0,0],"sum_hessian":[1.37E2,1.08E2,2.9E1,1.2E1,9.6E1,2.2E1,7E0,6E0,6E0,5E0,9.1E1,6E0,1.6E1,3E0,3E0,3E0,3E0,4.4E1,4.7E1,3E0,3E0,7E0,9E0,1.8E1,2.6E1,1.5E1,3.2E1],"tree_param":{"num_deleted":"0","num_feature":"98","num_nodes":"27","size_leaf_vector":"1"}},{"base_weights":[2.007163E-1,-3.275634E0,1.2940643E1,-7.0317554E0,-5.670612E-1,8.734279E0,2.0479944E1,-9.069964E-1,-1.311708E1,3.216858E0,-2.8604982E0,2.585205E0,1.1021562E1,5.066925E-1,1.1733146E0,4.002716E0,-2.7659404E0,-1.4380838E1,-1.75951E-1,4.8215985E-1,6.799509E-1,2.4355862E0,-3.8379865E0,-1.4888001E-2,2.4109344E-1,2.8954366E-1,6.528909E-1,9.1026686E-2,2.5921097E-1,-5.83429E-2,-4.035507E-1,-7.883659E-1,-4.2589164E-1,-7.286502E-2,1.6082984E-1,-9.329148E-2,3.0640528E-1,1.11064754E-1,-2.345742E-1],"categories":[],"categories_nodes":[],"categories_segments":[],"categories_sizes":[],"default_left":[0,0,0,0,0,0,0,0,0,0,0,0,0,0,0,0,0,0,0,0,0,0,0,0,0,0,0,0,0,0,0,0,0,0,0,0,0,0,0],"id":10,"left_children":[1,3,5,7,9,11,13,15,17,19,21,23,25,-1,-1,27,29,31,-1,-1,33,35,37,-1,-1,-1,-1,-1,-1,-1,-1,-1,-1,-1,-1,-1,-1,-1,-1],"loss_changes":[6.198483E3,1.1151229E3,7.725132E2,1.7025754E3,5.732835E2,2.66865E2,7.116699E1,2.3011641E2,2.28375E2,4.010187E2,2.2159903E2,4.6573326E1,8.414929E1,0E0,0E0,8.609741E0,1.4328079E2,2.8275879E1,0E0,0E0,1.0769509E2,1.2261541E2,1.9142651E2,0E0,0E0,0E0,0E0,0E0,0E0,0E0,0E0,0E0,0E0,0E0,0E0,0E0,0E0,0E0,0E0],"parents":[2147483647,0,0,1,1,2,2,3,3,4,4,5,5,6,6,7,7,8,8,9,9,10,10,11,11,12,12,15,15,16,16,17,17,20,20,21,21,22,22],"right_children":[2,4,6,8,10,12,14,16,18,20,22,24,26,-1,-1,28,30,32,-1,-1,34,36,38,-1,-1,-1,-1,-1,-1,-1,-1,-1,-1,-1,-1,-1,-1,-1,-1],"split_conditions":[5.16E2,4.9192E2,5.36E2,4.8348E2,4.9163E2,5.2388E2,4.2947E6,4.7685E2,4.9471E2,3.5829E6,4.9057E2,4.7798E6,4.776E6,5.066925E-1,1.1733146E0,4.0561E6,4.7949E2,4.6788E6,-1.75951E-1,4.8215985E-1,4.8925E2,5.0287E2,4.938E2,-1.4888001E-2,2.4109344E-1,2.8954366E-1,6.528909E-1,9.1026686E-2,2.5921097E-1,-5.83429E-2,-4.035507E-1,-7.883659E-1,-4.2589164E-1,-7.286502E-2,1.6082984E-1,-9.329148E-2,3.0640528E-1,1.11064754E-1,-2.345742E-1],"split_indices":[71,57,64,3,44,92,46,78,71,46,70,81,60,0,0,4,8,74,0,0,51,22,8,0,0,0,0,0,0,0,0,0,0,0,0,0,0,0,0],"split_type":[0,0,0,0,0,0,0,0,0,0,0,0,0,0,0,0,0,0,0,0,0,0,0,0,0,0,0,0,0,0,0,0,0,0,0,0,0,0,0],"sum_hessian":[1.38E2,1.09E2,2.9E1,4.5E1,6.4E1,2E1,9E0,2.3E1,2.2E1,2.4E1,4E1,6E0,1.4E1,3E0,6E0,6E0,1.7E1,1.9E1,3E0,6E0,1.8E1,6E0,3.4E1,3E0,3E0,5E0,9E0,3E0,3E0,1.4E1,3E0,1.4E1,5E0,1E1,8E0,3E0,3E0,4E0,3E1],"tree_param":{"num_deleted":"0","num_feature":"98","num_nodes":"39","size_leaf_vector":"1"}},{"base_weights":[-2.746552E-1,-3.0861044E0,1.238743E1,-6.6758947E0,-4.92107E-1,8.643918E0,9.8649216E-1,-1.394668E0,-1.258534E1,2.4357736E0,-2.4323106E0,1.0600586E-1,1.0242257E1,4.1699715E0,-3.5507903E0,-1.3666979E1,-2.0154038E-1,-3.41523E-1,3.82094E0,2.8590422E0,-4.1752033E0,2.5444826E-1,5.826774E-1,8.761292E-2,2.635074E-1,-9.574671E-2,-4.0376863E-1,-8.4380114E-1,-5.320438E-1,2.528894E-1,-1.9684792E-1,1.851654E-2,1.8730088E-1,-3.3277944E-1,-9.381299E-2],"categories":[],"categories_nodes":[],"categories_segments":[],"categories_sizes":[],"default_left":[0,0,0,0,0,0,0,0,0,0,0,0,0,0,0,0,0,0,0,0,0,0,0,0,0,0,0,0,0,0,0,0,0,0,0],"id":11,"left_children":[1,3,5,7,9,11,-1,13,15,17,19,-1,21,23,25,27,-1,-1,29,31,33,-1,-1,-1,-1,-1,-1,-1,-1,-1,-1,-1,-1,-1,-1],"loss_changes":[5.0932603E3,1.0862078E3,5.4410376E2,1.5116943E3,3.9789178E2,1.7640295E2,0E0,3.3875388E2,1.5772852E2,3.854865E2,3.9927203E2,0E0,4.9787354E1,1.2044632E1,1.3256752E2,1.4642334E1,0E0,0E0,2.5979578E2,2.2894417E1,1.6998492E2,0E0,0E0,0E0,0E0,0E0,0E0,0E0,0E0,0E0,0E0,0E0,0E0,0E0,0E0],"parents":[2147483647,0,0,1,1,2,2,3,3,4,4,5,5,7,7,8,8,9,9,10,10,12,12,13,13,14,14,15,15,18,18,19,19,20,20],"right_children":[2,4,6,8,10,12,-1,14,16,18,20,-1,22,24,26,28,-1,-1,30,32,34,-1,-1,-1,-1,-1,-1,-1,-1,-1,-1,-1,-1,-1,-1],"split_conditions":[5.21E2,4.923E2,6.1293E6,4.8485E2,4.906E2,5.21E2,9.8649216E-1,4.7685E2,4.9298E2,4.9108E2,4.938E2,1.0600586E-1,4.2543E6,4.772E2,4.7949E2,4.7871E2,-2.0154038E-1,-3.41523E-1,5.0186E6,3.7673E6,4.0589E6,2.5444826E-1,5.826774E-1,8.761292E-2,2.635074E-1,-9.574671E-2,-4.0376863E-1,-8.4380114E-1,-5.320438E-1,2.528894E-1,-1.9684792E-1,1.851654E-2,1.8730088E-1,-3.3277944E-1,-9.381299E-2],"split_indices":[71,57,95,3,72,85,0,78,78,43,8,0,81,10,8,85,0,0,11,4,25,0,0,0,0,0,0,0,0,0,0,0,0,0,0],"split_type":[0,0,0,0,0,0,0,0,0,0,0,0,0,0,0,0,0,0,0,0,0,0,0,0,0,0,0,0,0,0,0,0,0,0,0],"sum_hessian":[1.41E2,1.16E2,2.5E1,4.8E1,6.8E1,1.8E1,7E0,2.6E1,2.2E1,2.7E1,4.1E1,4E0,1.4E1,7E0,1.9E1,1.9E1,3E0,3E0,2.4E1,1E1,3.1E1,4E0,1E1,3E0,4E0,1.5E1,4E0,7E0,1.2E1,2.1E1,3E0,3E0,7E0,1.4E1,1.7E1],"tree_param":{"num_deleted":"0","num_feature":"98","num_nodes":"35","size_leaf_vector":"1"}},{"base_weights":[-3.9470196E-1,-2.7361526E0,1.1011204E1,4.3761067E0,-3.8538704E0,2.6542228E-1,1.2817961E1,5.0051117E-1,2.1333923E0,2.2370072E-1,-4.377887E0,3.7473187E-1,7.631246E-1,8.468831E-1,2.247345E-1,-7.732769E0,-2.2243614E0,1.2061279E-1,-4.4393312E-2,-7.311567E-2,-5.3340524E-1,6.900836E-2,-2.0076089E-1],"categories":[],"categories_nodes":[],"categories_segments":[],"categories_sizes":[],"default_left":[0,0,0,0,0,0,0,0,0,0,0,0,0,0,0,0,0,0,0,0,0,0,0],"id":12,"left_children":[1,3,5,7,9,-1,11,-1,13,-1,15,-1,-1,17,-1,19,21,-1,-1,-1,-1,-1,-1],"loss_changes":[3.4485435E3,8.6746124E2,1.5863354E2,1.6818E2,4.2543396E2,0E0,9.382153E1,0E0,3.26475E1,0E0,6.185841E2,0E0,0E0,2.6581524E1,0E0,6.102002E2,3.6057724E2,0E0,0E0,0E0,0E0,0E0,0E0],"parents":[2147483647,0,0,1,1,2,2,3,3,4,4,6,6,8,8,10,10,13,13,15,15,16,16],"right_children":[2,4,6,8,10,-1,12,-1,14,-1,16,-1,-1,18,-1,20,22,-1,-1,-1,-1,-1,-1],"split_conditions":[5.21E2,3.2448E6,4.776E6,4.9314E2,4.7007E2,2.6542228E-1,4.914E6,5.0051117E-1,3.1734E6,2.2370072E-1,4.8807E2,3.7473187E-1,7.631246E-1,4.9378E2,2.247345E-1,4.7949E2,4.9298E2,1.2061279E-1,-4.4393312E-2,-7.311567E-2,-5.3340524E-1,6.900836E-2,-2.0076089E-1],"split_indices":[85,53,60,92,77,0,95,0,53,0,87,0,0,94,0,8,37,0,0,0,0,0,0],"split_type":[0,0,0,0,0,0,0,0,0,0,0,0,0,0,0,0,0,0,0,0,0,0,0],"sum_hessian":[1.27E2,1.06E2,2.1E1,1.4E1,9.2E1,6E0,1.5E1,3E0,1.1E1,5E0,8.7E1,6E0,9E0,8E0,3E0,3.3E1,5.4E1,4E0,4E0,1.1E1,2.2E1,1.8E1,3.6E1],"tree_param":{"num_deleted":"0","num_feature":"98","num_nodes":"23","size_leaf_vector":"1"}},{"base_weights":[4.60094E-1,-2.5301802E0,1.20843725E1,-5.9450474E0,-1.2711558E-1,8.015976E0,1.764317E1,-1.4281298E-1,-1.1488801E1,3.132829E0,-2.2429016E0,5.4054034E-1,5.254647E0,2.5262758E-1,1.0866541E0,2.9294636E0,-1.9766581E0,-1.2722671E1,-2.2511688E-1,-2.3065948E-1,4.343753E0,3.91411E0,-3.9044704E0,3.091036E-1,1.4526612E-1,1.83034E-1,5.5013657E-2,-1.6363542E-1,-1.3963972E-3,-7.835474E-1,-4.848465E-1,4.8183593E-1,1.1690555E-1,8.757134E-2,2.3517735E-1,-3.4212485E-1,-6.1960008E-2],"categories":[],"categories_nodes":[],"categories_segments":[],"categories_sizes":[],"default_left":[0,0,0,0,0,0,0,0,0,0,0,0,0,0,0,0,0,0,0,0,0,0,0,0,0,0,0,0,0,0,0,0,0,0,0,0,0],"id":13,"left_children":[1,3,5,7,9,11,13,15,17,19,21,-1,23,-1,-1,25,27,29,-1,-1,31,33,35,-1,-1,-1,-1,-1,-1,-1,-1,-1,-1,-1,-1,-1,-1],"loss_changes":[4.757906E3,8.9371436E2,4.918037E2,1.4458364E3,4.5535406E2,8.2107056E1,4.5663232E2,1.3537437E2,1.4098706E2,2.639143E2,4.2449445E2,0E0,6.0061646E0,0E0,0E0,8.010063E0,3.7793396E1,1.7533691E1,0E0,0E0,2.2163156E2,7.127823E0,2.421011E2,0E0,0E0,0E0,0E0,0E0,0E0,0E0,0E0,0E0,0E0,0E0,0E0,0E0,0E0],"parents":[2147483647,0,0,1,1,2,2,3,3,4,4,5,5,6,6,7,7,8,8,9,9,10,10,12,12,15,15,16,16,17,17,20,20,21,21,22,22],"right_children":[2,4,6,8,10,12,14,16,18,20,22,-1,24,-1,-1,26,28,30,-1,-1,32,34,36,-1,-1,-1,-1,-1,-1,-1,-1,-1,-1,-1,-1,-1,-1],"split_conditions":[5.2141E2,4.917E2,5.36E2,4.859E2,4.906E2,5.3061E2,5.3329E2,4.7922E2,5.1619E6,4.8881E2,4.8657E2,5.4054034E-1,5.275E2,2.5262758E-1,1.0866541E0,4.772E2,4.8542E2,4.7871E2,-2.2511688E-1,-2.3065948E-1,4.856E2,3.9376E6,4.0589E6,3.091036E-1,1.4526612E-1,1.83034E-1,5.5013657E-2,-1.6363542E-1,-1.3963972E-3,-7.835474E-1,-4.848465E-1,4.8183593E-1,1.1690555E-1,8.757134E-2,2.3517735E-1,-3.4212485E-1,-6.1960008E-2],"split_indices":[57,57,64,1,72,57,57,85,60,45,9,0,7,0,0,45,91,92,0,0,72,25,25,0,0,0,0,0,0,0,0,0,0,0,0,0,0],"split_type":[0,0,0,0,0,0,0,0,0,0,0,0,0,0,0,0,0,0,0,0,0,0,0,0,0,0,0,0,0,0,0,0,0,0,0,0,0],"sum_hessian":[1.35E2,1.08E2,2.7E1,4.4E1,6.4E1,1.7E1,1E1,2.2E1,2.2E1,2.5E1,3.9E1,7E0,1E1,3E0,7E0,8E0,1.4E1,1.8E1,4E0,3E0,2.2E1,8E0,3.1E1,6E0,4E0,5E0,3E0,8E0,6E0,7E0,1.1E1,5E0,1.7E1,3E0,5E0,1.4E1,1.7E1],"tree_param":{"num_deleted":"0","num_feature":"98","num_nodes":"37","size_leaf_vector":"1"}},{"base_weights":[2.7551356E-1,-2.8592439E0,1.0431378E1,3.2484088E0,-3.7384768E0,6.89239E0,1.6882774E1,3.1857225E-1,8.0545044E-1,2.2964829E-1,-5.1795316E0,1.3633554E0,8.763617E0,2.4315415E-1,1.0391136E0,1.099295E-1,-3.7438966E-2,-3.1185114E0,3.3222504E0,-1.03462E1,-2.7035682E0,1.5240823E-1,-3.3114623E-2,2.668976E-1,5.3138936E-1,-8.0609135E-2,-3.052353E-1,3.7659965E-2,2.332906E-1,-3.4017417E-1,-6.3657534E-1,1.7663397E-1,-1.7554343E-1],"categories":[],"categories_nodes":[],"categories_segments":[],"categories_sizes":[],"default_left":[0,0,0,0,0,0,0,0,0,0,0,0,0,0,0,0,0,0,0,0,0,0,0,0,0,0,0,0,0,0,0,0,0],"id":14,"left_children":[1,3,5,7,9,11,13,-1,15,17,19,21,23,-1,-1,-1,-1,25,27,29,31,-1,-1,-1,-1,-1,-1,-1,-1,-1,-1,-1,-1],"loss_changes":[4.4550537E3,5.867393E2,6.37074E2,1.01680374E2,5.387084E2,2.2601172E2,4.1451245E2,0E0,2.113359E1,2.795782E2,8.547097E2,2.590858E1,5.1831787E1,0E0,0E0,0E0,0E0,4.8634583E1,4.480922E1,9.929175E1,2.5405994E2,0E0,0E0,0E0,0E0,0E0,0E0,0E0,0E0,0E0,0E0,0E0,0E0],"parents":[2147483647,0,0,1,1,2,2,3,3,4,4,5,5,6,6,8,8,9,9,10,10,11,11,12,12,17,17,18,18,19,19,20,20],"right_children":[2,4,6,8,10,12,14,-1,16,18,20,22,24,-1,-1,-1,-1,26,28,30,32,-1,-1,-1,-1,-1,-1,-1,-1,-1,-1,-1,-1],"split_conditions":[5.16E2,3.2448E6,5.36E2,4.945E2,4.8655E2,5.1581E2,5.3329E2,3.1857225E-1,4.9378E2,4.79E2,4.9008E2,5.3313E2,5.2314E2,2.4315415E-1,1.0391136E0,1.099295E-1,-3.7438966E-2,4.7685E2,4.8314E2,4.2051E6,3.0574E6,1.5240823E-1,-3.3114623E-2,2.668976E-1,5.3138936E-1,-8.0609135E-2,-3.052353E-1,3.7659965E-2,2.332906E-1,-3.4017417E-1,-6.3657534E-1,1.7663397E-1,-1.7554343E-1],"split_indices":[64,53,64,85,1,94,57,0,94,22,66,1,38,0,0,0,0,22,15,11,46,0,0,0,0,0,0,0,0,0,0,0,0],"split_type":[0,0,0,0,0,0,0,0,0,0,0,0,0,0,0,0,0,0,0,0,0,0,0,0,0,0,0,0,0,0,0,0,0],"sum_hessian":[1.38E2,1.06E2,3.2E1,1.3E1,9.3E1,2.2E1,1E1,5E0,8E0,2.5E1,6.8E1,6E0,1.6E1,3E0,7E0,4E0,4E0,1.2E1,1.3E1,2.1E1,4.7E1,3E0,3E0,7E0,9E0,9E0,3E0,5E0,8E0,1E1,1.1E1,5E0,4.2E1],"tree_param":{"num_deleted":"0","num_feature":"98","num_nodes":"33","size_leaf_vector":"1"}},{"base_weights":[-9.4866194E-2,-2.5583231E0,1.07100935E1,5.1581974E0,-3.3498943E0,7.777855E0,8.778953E-1,4.327646E-1,1.9233878E0,-5.5479817E0,-7.694291E-1,6.3101196E-1,5.3223777E0,6.2774657E-3,1.6201897E-1,-8.167584E-1,-9.337137E0,2.451143E0,-2.5569563E0,2.9558742E-1,1.1118355E-1,1.829822E-1,-1.5047921E-1,1.6100617E-1,-5.3987813E-1,5.911509E-4,3.1413358E-1,1.9266027E-1,-1.9433673E-1],"categories":[],"categories_nodes":[],"categories_segments":[],"categories_sizes":[],"default_left":[0,0,0,0,0,0,0,0,0,0,0,0,0,0,0,0,0,0,0,0,0,0,0,0,0,0,0,0,0],"id":15,"left_children":[1,3,5,7,9,11,-1,-1,13,15,17,-1,19,-1,-1,21,23,25,27,-1,-1,-1,-1,-1,-1,-1,-1,-1,-1],"loss_changes":[3.7272397E3,7.1361145E2,3.8550244E2,1.0778931E2,5.856284E2,1.706377E2,0E0,0E0,1.6167337E1,9.963048E2,2.8835364E2,0E0,1.4248535E1,0E0,0E0,2.6622925E2,6.0327686E2,1.6815955E2,2.8774738E2,0E0,0E0,0E0,0E0,0E0,0E0,0E0,0E0,0E0,0E0],"parents":[2147483647,0,0,1,1,2,2,3,3,4,4,5,5,8,8,9,9,10,10,12,12,15,15,16,16,17,17,18,18],"right_children":[2,4,6,8,10,12,-1,-1,14,16,18,-1,20,-1,-1,22,24,26,28,-1,-1,-1,-1,-1,-1,-1,-1,-1,-1],"split_conditions":[5.1431E2,3.2448E6,6.3843E6,4.99E2,4.9034E2,5.1591E2,8.778953E-1,4.327646E-1,3.6139E6,4.8485E2,4.9311E2,6.3101196E-1,5.3327E2,6.2774657E-3,1.6201897E-1,4.7685E2,3.0822E6,4.9408E2,4.8667E2,2.9558742E-1,1.1118355E-1,1.829822E-1,-1.5047921E-1,1.6100617E-1,-5.3987813E-1,5.911509E-4,3.1413358E-1,1.9266027E-1,-1.9433673E-1],"split_indices":[59,46,95,36,94,1,0,0,32,3,58,0,36,0,0,78,67,38,2,0,0,0,0,0,0,0,0,0,0],"split_type":[0,0,0,0,0,0,0,0,0,0,0,0,0,0,0,0,0,0,0,0,0,0,0,0,0,0,0,0,0],"sum_hessian":[1.38E2,1.13E2,2.5E1,1E1,1.03E2,1.9E1,6E0,4E0,6E0,5.5E1,4.8E1,5E0,1.4E1,3E0,3E0,2.5E1,3E1,1.7E1,3.1E1,1.1E1,3E0,8E0,1.7E1,3E0,2.7E1,1.1E1,6E0,5E0,2.6E1],"tree_param":{"num_deleted":"0","num_feature":"98","num_nodes":"29","size_leaf_vector":"1"}},{"base_weights":[-8.6893715E-2,-2.4817567E0,1.004856E1,4.6489377E0,-3.402341E0,6.527943E0,1.5028753E1,3.9029592E-1,1.7000847E0,8.123561E-2,-4.7282257E0,4.396421E0,5.3821564E-1,4.0251493E-1,9.1696703E-1,1.2302551E-2,1.5463029E-1,-1.7402557E0,2.059984E-1,-9.951352E0,-2.484816E0,3.792114E-2,2.7059892E-1,-1.9071335E-1,1.5170704E-2,-3.0385742E-1,-6.175288E-1,1.1228509E-1,-1.998971E-1],"categories":[],"categories_nodes":[],"categories_segments":[],"categories_sizes":[],"default_left":[0,0,0,0,0,0,0,0,0,0,0,0,0,0,0,0,0,0,0,0,0,0,0,0,0,0,0,0,0],"id":16,"left_children":[1,3,5,7,9,11,13,-1,15,17,19,21,-1,-1,-1,-1,-1,23,-1,25,27,-1,-1,-1,-1,-1,-1,-1,-1],"loss_changes":[3.3017964E3,7.379018E2,3.577605E2,1.0775244E2,4.5302844E2,1.06184204E2,8.339087E1,0E0,1.5437237E1,2.1315225E2,8.0722327E2,4.392517E1,0E0,0E0,0E0,0E0,0E0,8.592919E1,0E0,1.2014038E2,3.7402954E2,0E0,0E0,0E0,0E0,0E0,0E0,0E0,0E0],"parents":[2147483647,0,0,1,1,2,2,3,3,4,4,5,5,6,6,8,8,9,9,10,10,11,11,17,17,19,19,20,20],"right_children":[2,4,6,8,10,12,14,-1,16,18,20,22,-1,-1,-1,-1,-1,24,-1,26,28,-1,-1,-1,-1,-1,-1,-1,-1],"split_conditions":[5.16E2,3.2448E6,5.36E2,4.945E2,4.8655E2,6.3153E6,4.776E6,3.9029592E-1,4.9615E2,4.8E2,4.8614E2,4.3856E6,5.3821564E-1,4.0251493E-1,9.1696703E-1,1.2302551E-2,1.5463029E-1,4.8485E2,2.059984E-1,4.0158E6,3.5195E6,3.792114E-2,2.7059892E-1,-1.9071335E-1,1.5170704E-2,-3.0385742E-1,-6.175288E-1,1.1228509E-1,-1.998971E-1],"split_indices":[92,46,64,71,1,53,11,0,21,15,58,4,0,0,0,0,0,94,0,4,4,0,0,0,0,0,0,0,0],"split_type":[0,0,0,0,0,0,0,0,0,0,0,0,0,0,0,0,0,0,0,0,0,0,0,0,0,0,0,0,0],"sum_hessian":[1.34E2,1.09E2,2.5E1,1.2E1,9.7E1,1.6E1,9E0,5E0,7E0,2.7E1,7E1,1.2E1,4E0,4E0,5E0,4E0,3E0,1.9E1,8E0,2E1,5E1,3E0,9E0,9E0,1E1,9E0,1.1E1,1.2E1,3.8E1],"tree_param":{"num_deleted":"0","num_feature":"98","num_nodes":"29","size_leaf_vector":"1"}},{"base_weights":[1.3427974E-1,-2.274124E0,1.0298121E1,3.789335E0,-3.1609015E0,6.6469483E0,8.430959E-1,6.8804364E0,9.6410793E-1,3.3088684E-1,-4.5917854E0,1.3276774E-1,7.8828497E0,4.4366455E-1,1.5837364E-1,-4.0304568E-2,9.917781E-2,-1.6007327E0,4.3541994E0,-1.0672971E1,-2.1645644E0,2.8633285E-1,5.3093326E-1,7.926386E-3,-1.6072361E-1,1.0367775E-1,2.517698E-1,-3.5987383E-1,-6.4311206E-1,6.1306458E-2,-1.723017E-1],"categories":[],"categories_nodes":[],"categories_segments":[],"categories_sizes":[],"default_left":[0,0,0,0,0,0,0,0,0,0,0,0,0,0,0,0,0,0,0,0,0,0,0,0,0,0,0,0,0,0,0],"id":17,"left_children":[1,3,5,7,9,11,-1,13,15,17,19,-1,21,-1,-1,-1,-1,23,25,27,29,-1,-1,-1,-1,-1,-1,-1,-1,-1,-1],"loss_changes":[3.450428E3,6.2494885E2,5.3498975E2,1.243625E2,5.0115363E2,7.279938E1,0E0,2.368985E1,1.7840565E1,2.4011517E2,1.0248849E3,0E0,2.1775757E1,0E0,0E0,0E0,0E0,6.0128326E1,5.0944977E0,5.9600098E1,2.3016895E2,0E0,0E0,0E0,0E0,0E0,0E0,0E0,0E0,0E0,0E0],"parents":[2147483647,0,0,1,1,2,2,3,3,4,4,5,5,7,7,8,8,9,9,10,10,12,12,17,17,18,18,19,19,20,20],"right_children":[2,4,6,8,10,12,-1,14,16,18,20,-1,22,-1,-1,-1,-1,24,26,28,30,-1,-1,-1,-1,-1,-1,-1,-1,-1,-1],"split_conditions":[5.21E2,3.2448E6,5.36E2,4.9193E2,4.841E2,5.2126E2,8.430959E-1,4.9193E2,3.8735E6,4.8248E2,4.8881E2,1.3276774E-1,5.2527E2,4.4366455E-1,1.5837364E-1,-4.0304568E-2,9.917781E-2,4.74E2,4.768E2,4.1871E6,4.9088E2,2.8633285E-1,5.3093326E-1,7.926386E-3,-1.6072361E-1,1.0367775E-1,2.517698E-1,-3.5987383E-1,-6.4311206E-1,6.1306458E-2,-1.723017E-1],"split_indices":[64,53,64,94,0,92,0,38,39,15,66,0,45,0,0,0,0,0,16,11,37,0,0,0,0,0,0,0,0,0,0],"split_type":[0,0,0,0,0,0,0,0,0,0,0,0,0,0,0,0,0,0,0,0,0,0,0,0,0,0,0,0,0,0,0],"sum_hessian":[1.39E2,1.13E2,2.6E1,1.4E1,9.9E1,1.8E1,8E0,6E0,8E0,2.9E1,7E1,5E0,1.3E1,3E0,3E0,3E0,5E0,2E1,9E0,1.9E1,5.1E1,9E0,4E0,1E1,1E1,3E0,6E0,9E0,1E1,1.4E1,3.7E1],"tree_param":{"num_deleted":"0","num_feature":"98","num_nodes":"31","size_leaf_vector":"1"}},{"base_weights":[4.064057E-1,-2.122966E0,9.2053E0,4.0579314E0,-2.725855E0,6.260426E0,1.47634945E1,2.880672E-1,3.1238557E-3,3.9520636E0,-3.356354E0,1.5989108E0,8.809941E0,8.444794E-1,3.6759797E-1,1.06374875E-1,2.8504488E-1,-5.7729635E0,-1.3477789E0,-3.1593323E-2,1.7549531E-1,2.7614915E-1,6.136027E-1,-1.4294624E-2,-4.4637927E-1,1.3332051E-1,-1.3956115E-1],"categories":[],"categories_nodes":[],"categories_segments":[],"categories_sizes":[],"default_left":[0,0,0,0,0,0,0,0,0,0,0,0,0,0,0,0,0,0,0,0,0,0,0,0,0,0,0],"id":18,"left_children":[1,3,5,7,9,11,13,-1,-1,15,17,19,21,-1,-1,-1,-1,23,25,-1,-1,-1,-1,-1,-1,-1,-1],"loss_changes":[3.0908257E3,4.1351205E2,4.1498828E2,6.769913E1,4.300963E2,2.47375E2,3.340454E1,0E0,0E0,1.6589127E1,4.3392798E2,4.058483E1,9.153906E1,0E0,0E0,0E0,0E0,7.071428E2,3.0294965E2,0E0,0E0,0E0,0E0,0E0,0E0,0E0,0E0],"parents":[2147483647,0,0,1,1,2,2,3,3,4,4,5,5,6,6,9,9,10,10,11,11,12,12,17,17,18,18],"right_children":[2,4,6,8,10,12,14,-1,-1,16,18,20,22,-1,-1,-1,-1,24,26,-1,-1,-1,-1,-1,-1,-1,-1],"split_conditions":[5.16E2,3.2448E6,5.36E2,4.9242E2,4.7007E2,5.2388E2,5.3227E2,2.880672E-1,3.1238557E-3,4.6891E2,4.923E2,5.3572E2,5.0186E6,8.444794E-1,3.6759797E-1,1.06374875E-1,2.8504488E-1,4.796E2,4.9057E2,-3.1593323E-2,1.7549531E-1,2.7614915E-1,6.136027E-1,-1.4294624E-2,-4.4637927E-1,1.3332051E-1,-1.3956115E-1],"split_indices":[71,32,71,94,70,92,22,0,0,66,64,64,88,0,0,0,0,1,0,0,0,0,0,0,0,0,0],"split_type":[0,0,0,0,0,0,0,0,0,0,0,0,0,0,0,0,0,0,0,0,0,0,0,0,0,0,0],"sum_hessian":[1.37E2,1.07E2,3E1,9E0,9.8E1,2.1E1,9E0,6E0,3E0,8E0,9E1,8E0,1.3E1,6E0,3E0,5E0,3E0,4E1,5E1,4E0,4E0,8E0,5E0,1.5E1,2.5E1,1.3E1,3.7E1],"tree_param":{"num_deleted":"0","num_feature":"98","num_nodes":"27","size_leaf_vector":"1"}},{"base_weights":[-2.9812127E-1,-2.4607701E0,8.213606E0,4.094783E0,-3.2721567E0,6.0393157E0,7.0921654E-1,3.840439E-1,1.6475321E0,2.2647488E-1,-4.733065E0,1.9491621E0,7.368243E0,-1.3904572E-3,1.24491885E-1,-1.3585899E0,1.845485E-1,-9.0042095E0,-2.2696013E0,1.6295815E-1,7.5935363E-3,4.5800567E0,4.966223E-1,1.2650172E-2,-1.4965917E-1,-2.4607289E-1,-5.272676E-1,2.4377517E-1,-1.6181463E-1,2.662491E-1,1.065712E-1],"categories":[],"categories_nodes":[],"categories_segments":[],"categories_sizes":[],"default_left":[0,0,0,0,0,0,0,0,0,0,0,0,0,0,0,0,0,0,0,0,0,0,0,0,0,0,0,0,0,0,0],"id":19,"left_children":[1,3,5,7,9,11,-1,-1,13,15,17,19,21,-1,-1,23,-1,25,27,-1,-1,29,-1,-1,-1,-1,-1,-1,-1,-1,-1],"loss_changes":[2.6341306E3,6.197748E2,2.908169E2,1.0143448E2,5.2241223E2,1.1065497E2,0E0,0E0,1.2769585E1,1.7524944E2,7.371343E2,1.59862E1,7.6049866E1,0E0,0E0,5.8711895E1,0E0,1.1169629E2,3.4041272E2,0E0,0E0,6.890686E0,0E0,0E0,0E0,0E0,0E0,0E0,0E0,0E0,0E0],"parents":[2147483647,0,0,1,1,2,2,3,3,4,4,5,5,8,8,9,9,10,10,11,11,12,12,15,15,17,17,18,18,21,21],"right_children":[2,4,6,8,10,12,-1,-1,14,16,18,20,22,-1,-1,24,-1,26,28,-1,-1,30,-1,-1,-1,-1,-1,-1,-1,-1,-1],"split_conditions":[5.16E2,3.2448E6,5.36E2,4.9314E2,4.8655E2,5.2126E2,7.0921654E-1,3.840439E-1,4.941E2,4.8E2,4.9298E2,5.3061E2,5.2527E2,-1.3904572E-3,1.24491885E-1,4.74E2,1.845485E-1,4.2051E6,3.1734E6,1.6295815E-1,7.5935363E-3,5.3244E2,4.966223E-1,1.2650172E-2,-1.4965917E-1,-2.4607289E-1,-5.272676E-1,2.4377517E-1,-1.6181463E-1,2.662491E-1,1.065712E-1],"split_indices":[78,46,64,92,1,92,0,0,17,15,57,1,45,0,0,0,0,11,4,0,0,64,0,0,0,0,0,0,0,0,0],"split_type":[0,0,0,0,0,0,0,0,0,0,0,0,0,0,0,0,0,0,0,0,0,0,0,0,0,0,0,0,0,0,0],"sum_hessian":[1.41E2,1.13E2,2.8E1,1.2E1,1.01E2,2.2E1,6E0,4E0,8E0,3E1,7.1E1,6E0,1.6E1,3E0,5E0,2.1E1,9E0,2.5E1,4.6E1,3E0,3E0,9E0,7E0,1.1E1,1E1,8E0,1.7E1,5E0,4.1E1,6E0,3E0],"tree_param":{"num_deleted":"0","num_feature":"98","num_nodes":"31","size_leaf_vector":"1"}},{"base_weights":[3.0193907E-1,-1.5947543E0,9.359954E0,3.0902226E0,-2.425072E0,5.509286E0,1.3814893E1,6.4116178E0,-5.745307E-1,3.1457112E0,-2.9798622E0,2.2070618E-2,7.4922943E0,7.969027E-1,3.322819E-1,3.8547975E-1,1.4308739E-1,5.8998715E-2,-1.10706486E-1,1.8523382E-1,7.6041795E-2,-6.26557E0,-8.158258E-1,4.2457777E-1,1.935257E-1,-6.863057E-2,-4.1235557E-1,5.8524556E-2,-1.3155632E-1],"categories":[],"categories_nodes":[],"categories_segments":[],"categories_sizes":[],"default_left":[0,0,0,0,0,0,0,0,0,0,0,0,0,0,0,0,0,0,0,0,0,0,0,0,0,0,0,0,0],"id":20,"left_children":[1,3,5,7,9,11,13,15,17,19,21,-1,23,-1,-1,-1,-1,-1,-1,-1,-1,25,27,-1,-1,-1,-1,-1,-1],"loss_changes":[2.2827231E3,4.35396E2,3.184431E2,2.1060927E2,2.9989178E2,1.373877E2,4.6296387E1,1.9405945E1,2.8502779E1,2.540039E0,6.063821E2,0E0,3.3244019E0,0E0,0E0,0E0,0E0,0E0,0E0,0E0,0E0,3.1833032E2,1.9418512E2,0E0,0E0,0E0,0E0,0E0,0E0],"parents":[2147483647,0,0,1,1,2,2,3,3,4,4,5,5,6,6,7,7,8,8,9,9,10,10,12,12,21,21,22,22],"right_children":[2,4,6,8,10,12,14,16,18,20,22,-1,24,-1,-1,-1,-1,-1,-1,-1,-1,26,28,-1,-1,-1,-1,-1,-1],"split_conditions":[5.2141E2,3.4415E6,5.3329E2,4.945E2,4.734E2,5.2141E2,5.2658E2,4.6931E6,4.4823E6,4.6636E6,4.9192E2,2.2070618E-2,5.5121E6,7.969027E-1,3.322819E-1,3.8547975E-1,1.4308739E-1,5.8998715E-2,-1.10706486E-1,1.8523382E-1,7.6041795E-2,4.796E2,4.9451E2,4.2457777E-1,1.935257E-1,-6.863057E-2,-4.1235557E-1,5.8524556E-2,-1.3155632E-1],"split_indices":[31,46,64,71,73,85,44,4,11,88,78,0,4,0,0,0,0,0,0,0,0,1,44,0,0,0,0,0,0],"split_type":[0,0,0,0,0,0,0,0,0,0,0,0,0,0,0,0,0,0,0,0,0,0,0,0,0,0,0,0,0],"sum_hessian":[1.31E2,1.09E2,2.2E1,1.6E1,9.3E1,1.3E1,9E0,8E0,8E0,8E0,8.5E1,4E0,9E0,6E0,3E0,5E0,3E0,4E0,4E0,5E0,3E0,3.3E1,5.2E1,6E0,3E0,1E1,2.3E1,2.5E1,2.7E1],"tree_param":{"num_deleted":"0","num_feature":"98","num_nodes":"29","size_leaf_vector":"1"}},{"base_weights":[1.9078949E-1,-2.0474718E0,8.018742E0,3.540671E0,-2.8170326E0,5.274901E0,1.2777447E1,3.9105606E-1,1.6622647E0,1.8941629E-1,-4.0053425E0,1.1135777E0,6.7657986E0,1.4817773E-1,8.0436057E-1,2.6142464E0,-3.2863237E-2,-1.5833381E0,2.4930632E0,-8.368494E0,-1.599297E0,1.2682267E-1,-2.9384613E-2,4.604538E-1,4.3789244E0,1.6439606E-1,5.5929568E-2,-1.4154753E-1,5.8788806E-2,3.30304E-2,1.6170435E-1,-5.8921397E-1,-3.1927252E-1,5.4745566E-2,-1.5812562E-1,2.5134692E-1,1.0750847E-1],"categories":[],"categories_nodes":[],"categories_segments":[],"categories_sizes":[],"default_left":[0,0,0,0,0,0,0,0,0,0,0,0,0,0,0,0,0,0,0,0,0,0,0,0,0,0,0,0,0,0,0,0,0,0,0,0,0],"id":21,"left_children":[1,3,5,7,9,11,13,-1,15,17,19,21,23,-1,-1,25,-1,27,29,31,33,-1,-1,-1,35,-1,-1,-1,-1,-1,-1,-1,-1,-1,-1,-1,-1],"loss_changes":[2.5219214E3,4.9162088E2,3.5042822E2,9.9565186E1,3.544453E2,1.2895612E2,3.0962305E2,0E0,2.6007898E1,1.2237758E2,7.3197E2,1.8435522E1,5.298291E1,0E0,0E0,4.382843E0,0E0,6.184776E1,1.5516144E1,9.409338E1,2.0140918E2,0E0,0E0,0E0,3.6338959E0,0E0,0E0,0E0,0E0,0E0,0E0,0E0,0E0,0E0,0E0,0E0,0E0],"parents":[2147483647,0,0,1,1,2,2,3,3,4,4,5,5,6,6,8,8,9,9,10,10,11,11,12,12,15,15,17,17,18,18,19,19,20,20,24,24],"right_children":[2,4,6,8,10,12,14,-1,16,18,20,22,24,-1,-1,26,-1,28,30,32,34,-1,-1,-1,36,-1,-1,-1,-1,-1,-1,-1,-1,-1,-1,-1,-1],"split_conditions":[5.16E2,3.2448E6,5.36E2,4.9314E2,4.8485E2,5.2126E2,5.3329E2,3.9105606E-1,4.906E2,4.7388E2,4.923E2,5.3313E2,5.3222E6,1.4817773E-1,8.0436057E-1,5.0045E2,-3.2863237E-2,4.5959E6,4.8314E2,4.768E2,4.9163E2,1.2682267E-1,-2.9384613E-2,4.604538E-1,5.2471E2,1.6439606E-1,5.5929568E-2,-1.4154753E-1,5.8788806E-2,3.30304E-2,1.6170435E-1,-5.8921397E-1,-3.1927252E-1,5.4745566E-2,-1.5812562E-1,2.5134692E-1,1.0750847E-1],"split_indices":[64,53,64,92,3,92,57,0,86,23,78,1,11,0,0,1,0,39,15,91,65,0,0,0,8,0,0,0,0,0,0,0,0,0,0,0,0],"split_type":[0,0,0,0,0,0,0,0,0,0,0,0,0,0,0,0,0,0,0,0,0,0,0,0,0,0,0,0,0,0,0,0,0,0,0,0,0],"sum_hessian":[1.42E2,1.11E2,3.1E1,1.3E1,9.8E1,2.1E1,1E1,3E0,1E1,2.8E1,7E1,6E0,1.5E1,3E0,7E0,7E0,3E0,1.6E1,1.2E1,2.4E1,4.6E1,3E0,3E0,6E0,9E0,4E0,3E0,1.1E1,5E0,4E0,8E0,7E0,1.7E1,1.7E1,2.9E1,6E0,3E0],"tree_param":{"num_deleted":"0","num_feature":"98","num_nodes":"37","size_leaf_vector":"1"}},{"base_weights":[2.1084873E-1,-1.9577397E0,7.726551E0,3.1764505E0,-2.6712186E0,5.1260405E0,1.2225159E1,3.5078737E-1,9.391571E-1,1.9422796E0,-3.337547E0,1.1942749E0,6.881246E0,1.4262162E-1,7.6916885E-1,2.1022165E0,-6.65493E-2,2.4191438E-1,5.896484E-1,2.3820369E-1,-4.646761E0,1.3441834E-1,-4.859543E-2,1.5751521E-1,4.2158434E-1,5.1340487E-2,1.3260345E-1,-3.180593E-2,9.713196E-2,-6.489716E-2,1.2593018E-1,-3.8957682E-1,-8.676448E-2],"categories":[],"categories_nodes":[],"categories_segments":[],"categories_sizes":[],"default_left":[0,0,0,0,0,0,0,0,0,0,0,0,0,0,0,0,0,0,0,0,0,0,0,0,0,0,0,0,0,0,0,0,0],"id":22,"left_children":[1,3,5,7,9,11,13,-1,15,17,19,21,23,-1,-1,25,-1,-1,27,29,31,-1,-1,-1,-1,-1,-1,-1,-1,-1,-1,-1,-1],"loss_changes":[2.3295088E3,4.1509308E2,3.1169092E2,1.13665985E2,3.0774487E2,1.4360516E2,2.817323E2,0E0,2.9201134E1,4.8071106E1,4.037094E2,2.8504662E1,6.0206665E1,0E0,0E0,1.4160366E0,0E0,0E0,1.7820265E1,8.73417E1,5.6330273E2,0E0,0E0,0E0,0E0,0E0,0E0,0E0,0E0,0E0,0E0,0E0,0E0],"parents":[2147483647,0,0,1,1,2,2,3,3,4,4,5,5,6,6,8,8,9,9,10,10,11,11,12,12,15,15,18,18,19,19,20,20],"right_children":[2,4,6,8,10,12,14,-1,16,18,20,22,24,-1,-1,26,-1,-1,28,30,32,-1,-1,-1,-1,-1,-1,-1,-1,-1,-1,-1,-1],"split_conditions":[5.16E2,3.2448E6,5.36E2,4.9314E2,3.3674E6,5.2388E2,5.3329E2,3.5078737E-1,4.9709E2,3.7969E6,4.8442E2,5.101E2,4.776E6,1.4262162E-1,7.6916885E-1,4.9986E2,-6.65493E-2,2.4191438E-1,4.079E6,4.7388E2,4.9038E2,1.3441834E-1,-4.859543E-2,1.5751521E-1,4.2158434E-1,5.1340487E-2,1.3260345E-1,-3.180593E-2,9.713196E-2,-6.489716E-2,1.2593018E-1,-3.8957682E-1,-8.676448E-2],"split_indices":[71,46,64,92,60,92,57,0,80,25,0,86,60,0,0,45,0,0,74,16,94,0,0,0,0,0,0,0,0,0,0,0,0],"split_type":[0,0,0,0,0,0,0,0,0,0,0,0,0,0,0,0,0,0,0,0,0,0,0,0,0,0,0,0,0,0,0,0,0],"sum_hessian":[1.41E2,1.1E2,3.1E1,1.3E1,9.7E1,2.1E1,1E1,4E0,9E0,1.2E1,8.5E1,7E0,1.4E1,3E0,7E0,6E0,3E0,3E0,9E0,2.3E1,6.2E1,4E0,3E0,5E0,9E0,3E0,3E0,5E0,4E0,1.4E1,9E0,2.9E1,3.3E1],"tree_param":{"num_deleted":"0","num_feature":"98","num_nodes":"33","size_leaf_vector":"1"}},{"base_weights":[2.882361E-1,-1.532841E0,8.261872E0,4.179465E0,-2.0622716E0,5.3713126E0,1.2349637E1,2.6696473E-1,5.524483E-2,-3.225048E0,6.9109535E-1,1.3094482E-2,6.9232974E0,7.1942705E-1,2.8470728E-1,-5.3059583E0,-1.2215146E0,-8.134537E-1,2.952625E0,4.0729237E-1,1.6690247E-1,-5.972117E-2,-3.9340487E-1,-2.9504928E-1,-1.7989933E-2,-2.0746744E-1,4.5629885E-2,8.475647E-2,2.679104E-1],"categories":[],"categories_nodes":[],"categories_segments":[],"categories_sizes":[],"default_left":[0,0,0,0,0,0,0,0,0,0,0,0,0,0,0,0,0,0,0,0,0,0,0,0,0,0,0,0,0],"id":23,"left_children":[1,3,5,7,9,11,13,-1,-1,15,17,-1,19,-1,-1,21,23,25,27,-1,-1,-1,-1,-1,-1,-1,-1,-1,-1],"loss_changes":[2.0310283E3,3.5338593E2,2.4088037E2,2.9760376E1,3.383916E2,1.3299265E2,5.3768677E1,0E0,0E0,3.0203754E2,1.1128446E2,0E0,2.9789673E1,0E0,0E0,3.6983783E2,1.5513945E2,1.1894521E2,3.024228E1,0E0,0E0,0E0,0E0,0E0,0E0,0E0,0E0,0E0,0E0],"parents":[2147483647,0,0,1,1,2,2,3,3,4,4,5,5,6,6,9,9,10,10,12,12,15,15,16,16,17,17,18,18],"right_children":[2,4,6,8,10,12,14,-1,-1,16,18,-1,20,-1,-1,22,24,26,28,-1,-1,-1,-1,-1,-1,-1,-1,-1,-1],"split_conditions":[5.2388E2,3.2448E6,5.3592E2,4.9242E2,4.9283E6,5.1431E2,5.275E2,2.6696473E-1,5.524483E-2,4.923E2,4.2945E6,1.3094482E-2,5.275E2,7.1942705E-1,2.8470728E-1,4.8442E2,3.1734E6,4.001E6,6.3841E6,4.0729237E-1,1.6690247E-1,-5.972117E-2,-3.9340487E-1,-2.9504928E-1,-1.7989933E-2,-2.0746744E-1,4.5629885E-2,8.475647E-2,2.679104E-1],"split_indices":[43,32,64,94,74,94,14,0,0,85,39,0,63,0,0,0,88,18,53,0,0,0,0,0,0,0,0,0,0],"split_type":[0,0,0,0,0,0,0,0,0,0,0,0,0,0,0,0,0,0,0,0,0,0,0,0,0,0,0,0,0],"sum_hessian":[1.38E2,1.13E2,2.5E1,9E0,1.04E2,1.6E1,9E0,6E0,3E0,7.3E1,3.1E1,4E0,1.2E1,6E0,3E0,3.5E1,3.8E1,1.9E1,1.2E1,8E0,4E0,1.4E1,2.1E1,5E0,3.3E1,6E0,1.3E1,9E0,3E0],"tree_param":{"num_deleted":"0","num_feature":"98","num_nodes":"29","size_leaf_vector":"1"}},{"base_weights":[1.7759567E-1,-1.8743188E0,6.7766457E0,-3.9469233E0,-1.9821325E-1,4.802161E0,1.0640295E1,-3.904126E-1,-7.809007E0,4.762387E0,-1.087157E0,1.3429871E0,6.231613E0,1.265976E-1,6.8767965E-1,1.553796E-1,-1.6586031E0,-5.524713E-1,-5.903261E0,1.1077156E-1,2.833313E-1,2.513562E0,-1.9388651E0,1.283078E-1,-2.6086045E-2,4.2927042E-1,2.1906073E-1,-1.478007E-1,2.4741936E-2,-3.2159635E-1,-1.354641E-1,-9.802755E-3,2.6311952E-1,1.2564461E-1,-1.5471135E-1],"categories":[],"categories_nodes":[],"categories_segments":[],"categories_sizes":[],"default_left":[0,0,0,0,0,0,0,0,0,0,0,0,0,0,0,0,0,0,0,0,0,0,0,0,0,0,0,0,0,0,0,0,0,0,0],"id":24,"left_children":[1,3,5,7,9,11,13,15,17,19,21,23,25,-1,-1,-1,27,-1,29,-1,-1,31,33,-1,-1,-1,-1,-1,-1,-1,-1,-1,-1,-1,-1],"loss_changes":[1.8271536E3,3.5702985E2,1.9302246E2,6.287863E2,2.6093973E2,1.0535968E2,2.1761353E2,1.1605767E2,7.063159E1,8.173508E0,1.5821152E2,1.9585644E1,3.2072815E1,0E0,0E0,0E0,5.454683E1,0E0,9.590881E0,0E0,0E0,7.551443E1,2.186545E2,0E0,0E0,0E0,0E0,0E0,0E0,0E0,0E0,0E0,0E0,0E0,0E0],"parents":[2147483647,0,0,1,1,2,2,3,3,4,4,5,5,6,6,7,7,8,8,9,9,10,10,11,11,12,12,16,16,18,18,21,21,22,22],"right_children":[2,4,6,8,10,12,14,16,18,20,22,24,26,-1,-1,-1,28,-1,30,-1,-1,32,34,-1,-1,-1,-1,-1,-1,-1,-1,-1,-1,-1,-1],"split_conditions":[5.16E2,4.9245E2,5.36E2,4.8348E2,4.945E2,5.2126E2,5.3329E2,4.7007E2,4.7864E2,4.9673E2,4.9075E2,5.3313E2,5.1549E6,1.265976E-1,6.8767965E-1,1.553796E-1,4.5041E6,-5.524713E-1,4.9471E2,1.1077156E-1,2.833313E-1,4.9607E2,4.938E2,1.283078E-1,-2.6086045E-2,4.2927042E-1,2.1906073E-1,-1.478007E-1,2.4741936E-2,-3.2159635E-1,-1.354641E-1,-9.802755E-3,2.6311952E-1,1.2564461E-1,-1.5471135E-1],"split_indices":[64,50,64,3,50,92,57,77,85,1,63,1,11,0,0,0,32,0,64,0,0,9,1,0,0,0,0,0,0,0,0,0,0,0,0],"split_type":[0,0,0,0,0,0,0,0,0,0,0,0,0,0,0,0,0,0,0,0,0,0,0,0,0,0,0,0,0,0,0,0,0,0,0],"sum_hessian":[1.33E2,1.02E2,3.1E1,4.5E1,5.7E1,2.2E1,9E0,2.4E1,2.1E1,8E0,4.9E1,7E0,1.5E1,3E0,6E0,6E0,1.8E1,6E0,1.5E1,3E0,5E0,9E0,4E1,4E0,3E0,5E0,1E1,1.1E1,7E0,1.2E1,3E0,5E0,4E0,8E0,3.2E1],"tree_param":{"num_deleted":"0","num_feature":"98","num_nodes":"35","size_leaf_vector":"1"}},{"base_weights":[2.78766E-1,-1.63915E0,6.5319986E0,3.5188904E0,-2.3592868E0,4.3211427E0,1.1405939E1,5.4511223E0,8.079267E-1,1.1981306E-1,-3.3526385E0,1.1184266E0,6.0527687E0,2.4547043E-1,6.744411E-1,3.5220414E-1,1.5432648E-1,8.738136E-2,-1.6687775E-2,-1.190808E0,2.729074E0,-6.6484766E0,-1.1285429E0,2.108359E0,-4.4678118E-2,1.8627456E-1,3.95718E-1,-1.21718846E-1,2.997979E-2,1.6141902E-1,5.865097E-2,-3.237915E-2,-3.8108215E-1,8.598012E-2,-1.21002965E-1,1.378849E-1,4.6596527E-2],"categories":[],"categories_nodes":[],"categories_segments":[],"categories_sizes":[],"default_left":[0,0,0,0,0,0,0,0,0,0,0,0,0,0,0,0,0,0,0,0,0,0,0,0,0,0,0,0,0,0,0,0,0,0,0,0,0],"id":25,"left_children":[1,3,5,7,9,11,13,15,17,19,21,23,25,-1,-1,-1,-1,-1,-1,27,29,31,33,35,-1,-1,-1,-1,-1,-1,-1,-1,-1,-1,-1,-1,-1],"loss_changes":[1.7377241E3,4.2061102E2,3.17083E2,6.893085E1,2.4173828E2,1.3187811E2,6.909314E1,8.39183E0,8.093157E0,1.0242264E2,5.0561505E2,2.1801289E1,3.9834167E1,0E0,0E0,0E0,0E0,0E0,0E0,4.5989456E1,3.9825287E0,1.5858069E2,1.6233388E2,2.7773209E0,0E0,0E0,0E0,0E0,0E0,0E0,0E0,0E0,0E0,0E0,0E0,0E0,0E0],"parents":[2147483647,0,0,1,1,2,2,3,3,4,4,5,5,6,6,7,7,8,8,9,9,10,10,11,11,12,12,19,19,20,20,21,21,22,22,23,23],"right_children":[2,4,6,8,10,12,14,16,18,20,22,24,26,-1,-1,-1,-1,-1,-1,28,30,32,34,36,-1,-1,-1,-1,-1,-1,-1,-1,-1,-1,-1,-1,-1],"split_conditions":[5.21E2,3.2448E6,5.36E2,4.9599E2,4.841E2,5.2126E2,4.2947E6,4.9442E2,3.7076E6,4.8248E2,4.923E2,5.1374E2,5.2527E2,2.4547043E-1,6.744411E-1,3.5220414E-1,1.5432648E-1,8.738136E-2,-1.6687775E-2,4.5041E6,4.7638E6,3.6298E6,4.9298E2,5.31E2,-4.4678118E-2,1.8627456E-1,3.95718E-1,-1.21718846E-1,2.997979E-2,1.6141902E-1,5.865097E-2,-3.237915E-2,-3.8108215E-1,8.598012E-2,-1.21002965E-1,1.378849E-1,4.6596527E-2],"split_indices":[36,53,64,85,0,92,46,43,88,15,78,87,45,0,0,0,0,0,0,25,18,4,37,0,0,0,0,0,0,0,0,0,0,0,0,0,0],"split_type":[0,0,0,0,0,0,0,0,0,0,0,0,0,0,0,0,0,0,0,0,0,0,0,0,0,0,0,0,0,0,0,0,0,0,0,0,0],"sum_hessian":[1.43E2,1.1E2,3.3E1,1.3E1,9.7E1,2.4E1,9E0,7E0,6E0,2.8E1,6.9E1,9E0,1.5E1,3E0,6E0,3E0,4E0,3E0,3E0,1.9E1,9E0,2.7E1,4.2E1,6E0,3E0,8E0,7E0,1.1E1,8E0,6E0,3E0,4E0,2.3E1,1.3E1,2.9E1,3E0,3E0],"tree_param":{"num_deleted":"0","num_feature":"98","num_nodes":"37","size_leaf_vector":"1"}},{"base_weights":[1.7152405E-1,-1.5362177E0,6.370601E0,2.9979177E0,-2.128048E0,4.44836E0,9.770248E0,2.8455874E-1,1.1685622E0,3.6091942E-1,-3.0932343E0,9.73332E-1,5.7734823E0,2.2974518E-1,6.2273306E-1,-6.7642215E-3,1.1193482E-1,-9.3901783E-1,2.7947083E0,-6.495121E0,-1.3987211E0,1.2816925E-1,-4.3002702E-2,1.4348362E-1,3.6952516E-1,1.7540256E-2,-1.20556645E-1,6.771088E-2,1.7646663E-1,-5.007177E-1,-2.4806018E-1,2.2402954E-1,-1.0175178E-1],"categories":[],"categories_nodes":[],"categories_segments":[],"categories_sizes":[],"default_left":[0,0,0,0,0,0,0,0,0,0,0,0,0,0,0,0,0,0,0,0,0,0,0,0,0,0,0,0,0,0,0,0,0],"id":26,"left_children":[1,3,5,7,9,11,13,-1,15,17,19,21,23,-1,-1,-1,-1,25,27,29,31,-1,-1,-1,-1,-1,-1,-1,-1,-1,-1,-1,-1],"loss_changes":[1.4707129E3,2.9887463E2,1.5258679E2,5.739953E1,2.3414111E2,9.108209E1,8.169971E1,0E0,1.28604765E1,9.1209915E1,3.944331E2,2.2610916E1,4.9224487E1,0E0,0E0,0E0,0E0,3.6922424E1,5.8027115E0,7.4475586E1,1.8869057E2,0E0,0E0,0E0,0E0,0E0,0E0,0E0,0E0,0E0,0E0,0E0,0E0],"parents":[2147483647,0,0,1,1,2,2,3,3,4,4,5,5,6,6,8,8,9,9,10,10,11,11,12,12,17,17,18,18,19,19,20,20],"right_children":[2,4,6,8,10,12,14,-1,16,18,20,22,24,-1,-1,-1,-1,26,28,30,32,-1,-1,-1,-1,-1,-1,-1,-1,-1,-1,-1,-1],"split_conditions":[5.16E2,3.2448E6,5.36E2,4.941E2,4.841E2,5.2388E2,5.3164E2,2.8455874E-1,3.7121E6,4.8E2,4.9298E2,5.101E2,4.2947E6,2.2974518E-1,6.2273306E-1,-6.7642215E-3,1.1193482E-1,4.74E2,4.7835E2,4.7835E2,4.945E2,1.2816925E-1,-4.3002702E-2,1.4348362E-1,3.6952516E-1,1.7540256E-2,-1.20556645E-1,6.771088E-2,1.7646663E-1,-5.007177E-1,-2.4806018E-1,2.2402954E-1,-1.0175178E-1],"split_indices":[71,53,64,45,0,92,59,0,67,15,64,86,81,0,0,0,0,0,0,92,64,0,0,0,0,0,0,0,0,0,0,0,0],"split_type":[0,0,0,0,0,0,0,0,0,0,0,0,0,0,0,0,0,0,0,0,0,0,0,0,0,0,0,0,0,0,0,0,0],"sum_hessian":[1.37E2,1.08E2,2.9E1,1.2E1,9.6E1,2E1,9E0,4E0,8E0,2.7E1,6.9E1,6E0,1.4E1,4E0,5E0,4E0,4E0,1.8E1,9E0,2.2E1,4.7E1,3E0,3E0,6E0,8E0,1E1,8E0,4E0,5E0,5E0,1.7E1,4E0,4.3E1],"tree_param":{"num_deleted":"0","num_feature":"98","num_nodes":"33","size_leaf_vector":"1"}},{"base_weights":[2.8066225E-2,-1.6459963E0,6.7852793E0,-3.7642698E0,-2.0887479E-1,4.6870036E0,1.0461053E1,-7.907028E-1,-6.983381E0,2.0687153E0,-1.4752303E0,2.29617E0,6.609137E0,2.2217102E-1,6.3646495E-1,-1.8204974E0,1.4964485E0,-4.1796342E-1,-3.7026558E0,9.4889754E-1,2.63501E-1,1.9092712E0,-2.8469493E0,-4.2022704E-3,1.6641344E-1,1.595913E-1,3.808862E-1,6.4805225E-2,-1.2904598E-1,1.1942597E-1,2.4175111E-2,-9.202881E-2,-2.2258942E-1,8.123545E-4,1.272703E-1,2.1799102E-1,1.6785687E-2,-3.0770463E-1,-6.0714792E-2],"categories":[],"categories_nodes":[],"categories_segments":[],"categories_sizes":[],"default_left":[0,0,0,0,0,0,0,0,0,0,0,0,0,0,0,0,0,0,0,0,0,0,0,0,0,0,0,0,0,0,0,0,0,0,0,0,0,0,0],"id":27,"left_children":[1,3,5,7,9,11,13,15,17,19,21,23,25,-1,-1,27,29,-1,31,33,-1,35,37,-1,-1,-1,-1,-1,-1,-1,-1,-1,-1,-1,-1,-1,-1,-1,-1],"loss_changes":[1.5382882E3,3.310334E2,1.5921423E2,4.156568E2,1.9341162E2,7.2138855E1,6.628363E1,5.9251392E1,6.3840576E1,8.103636E1,2.0506676E2,2.4845901E1,1.015213E1,0E0,0E0,4.363401E1,6.0741024E0,0E0,2.9656982E0,2.8249344E1,0E0,4.86654E1,1.5990909E2,0E0,0E0,0E0,0E0,0E0,0E0,0E0,0E0,0E0,0E0,0E0,0E0,0E0,0E0,0E0,0E0],"parents":[2147483647,0,0,1,1,2,2,3,3,4,4,5,5,6,6,7,7,8,8,9,9,10,10,11,11,12,12,15,15,16,16,18,18,19,19,21,21,22,22],"right_children":[2,4,6,8,10,12,14,16,18,20,22,24,26,-1,-1,28,30,-1,32,34,-1,36,38,-1,-1,-1,-1,-1,-1,-1,-1,-1,-1,-1,-1,-1,-1,-1,-1],"split_conditions":[5.16E2,4.917E2,5.36E2,4.8485E2,4.9088E2,4.7264E6,5.2468E2,4.5959E6,4.5959E6,5.0255E2,3.5352E6,4.914E6,5.2141E2,2.2217102E-1,6.3646495E-1,4.7304E2,4.6955E2,-4.1796342E-1,4.9192E2,4.8925E2,2.63501E-1,4.9334E2,3.5662E6,-4.2022704E-3,1.6641344E-1,1.595913E-1,3.808862E-1,6.4805225E-2,-1.2904598E-1,1.1942597E-1,2.4175111E-2,-9.202881E-2,-2.2258942E-1,8.123545E-4,1.272703E-1,2.1799102E-1,1.6785687E-2,-3.0770463E-1,-6.0714792E-2],"split_indices":[85,64,64,3,37,81,51,39,74,1,39,25,94,0,0,77,43,0,15,44,0,2,88,0,0,0,0,0,0,0,0,0,0,0,0,0,0,0,0],"split_type":[0,0,0,0,0,0,0,0,0,0,0,0,0,0,0,0,0,0,0,0,0,0,0,0,0,0,0,0,0,0,0,0,0,0,0,0,0,0,0],"sum_hessian":[1.34E2,1.08E2,2.6E1,4.3E1,6.5E1,1.8E1,8E0,2.3E1,2E1,2.3E1,4.2E1,9E0,9E0,3E0,5E0,1.6E1,7E0,1.3E1,7E0,1.8E1,5E0,1.2E1,3E1,3E0,6E0,3E0,6E0,3E0,1.3E1,3E0,4E0,3E0,4E0,1.2E1,6E0,4E0,8E0,9E0,2.1E1],"tree_param":{"num_deleted":"0","num_feature":"98","num_nodes":"39","size_leaf_vector":"1"}},{"base_weights":[4.525617E-1,-1.33067E0,6.247847E0,3.1816711E0,-2.0334213E0,4.052432E0,5.582074E-1,2.8432286E-1,1.1582947E0,3.4141278E0,-2.473658E0,-1.1962128E-2,4.708145E0,-1.7411042E-2,9.8479465E-2,8.178482E-2,2.1695137E-1,2.0309563E0,-2.9211683E0,3.4193704E-1,3.3065512E0,1.7867066E-1,-2.0242691E-2,3.4384027E-2,-1.776092E-1,5.659027E-2,1.8983862E-1],"categories":[],"categories_nodes":[],"categories_segments":[],"categories_sizes":[],"default_left":[0,0,0,0,0,0,0,0,0,0,0,0,0,0,0,0,0,0,0,0,0,0,0,0,0,0,0],"id":28,"left_children":[1,3,5,7,9,11,-1,-1,13,15,17,-1,19,-1,-1,-1,-1,21,23,-1,25,-1,-1,-1,-1,-1,-1],"loss_changes":[1.3621118E3,3.2674606E2,2.8935107E2,6.436717E1,2.19488E2,6.585086E1,0E0,0E0,1.16859045E1,4.4167557E0,1.7123334E2,0E0,3.711197E1,0E0,0E0,0E0,0E0,3.1503761E1,1.7323584E2,0E0,1.0628281E1,0E0,0E0,0E0,0E0,0E0,0E0],"parents":[2147483647,0,0,1,1,2,2,3,3,4,4,5,5,8,8,9,9,10,10,12,12,17,17,18,18,20,20],"right_children":[2,4,6,8,10,12,-1,-1,14,16,18,-1,20,-1,-1,-1,-1,22,24,-1,26,-1,-1,-1,-1,-1,-1],"split_conditions":[5.16E2,3.2448E6,5.36E2,4.941E2,4.635E2,3.1835E6,5.582074E-1,2.8432286E-1,4.0654E6,4.8235E2,3.3674E6,-1.1962128E-2,5.1549E6,-1.7411042E-2,9.8479465E-2,8.178482E-2,2.1695137E-1,4.957E2,3.4415E6,3.4193704E-1,3.1835E6,1.7867066E-1,-2.0242691E-2,3.4384027E-2,-1.776092E-1,5.659027E-2,1.8983862E-1],"split_indices":[64,53,64,45,65,4,0,0,25,0,46,0,11,0,0,0,0,92,67,0,67,0,0,0,0,0,0],"split_type":[0,0,0,0,0,0,0,0,0,0,0,0,0,0,0,0,0,0,0,0,0,0,0,0,0,0,0],"sum_hessian":[1.3E2,1E2,3E1,1.3E1,8.7E1,2.2E1,8E0,5E0,8E0,6E0,8.1E1,3E0,1.9E1,3E0,5E0,3E0,3E0,7E0,7.4E1,6E0,1.3E1,4E0,3E0,1.1E1,6.3E1,3E0,1E1],"tree_param":{"num_deleted":"0","num_feature":"98","num_nodes":"27","size_leaf_vector":"1"}},{"base_weights":[-2.0658708E-1,-1.6147377E0,5.0932407E0,1.9738566E0,-2.1643605E0,2.8886395E0,7.584393E0,-1.3786049E-1,3.3863907E0,2.8184113E-1,-3.0902023E0,-3.1960677E-2,3.6902661E0,1.8735276E-1,4.7571737E-1,2.5582886E-1,-2.9592896E-3,-1.019695E0,1.4991066E-1,-6.1373887E0,-1.5332772E0,1.0564009E-1,4.6092644E0,1.9653473E-2,-1.1652451E-1,-4.6879706E-1,-2.2214222E-1,-1.2950806E-1,7.150621E-2,1.3801086E-1,2.8841287E-1],"categories":[],"categories_nodes":[],"categories_segments":[],"categories_sizes":[],"default_left":[0,0,0,0,0,0,0,0,0,0,0,0,0,0,0,0,0,0,0,0,0,0,0,0,0,0,0,0,0,0,0],"id":29,"left_children":[1,3,5,7,9,11,13,-1,15,17,19,-1,21,-1,-1,-1,-1,23,-1,25,27,-1,29,-1,-1,-1,-1,-1,-1,-1,-1],"loss_changes":[1.0306492E3,2.1926086E2,1.3735938E2,1.0957889E2,2.1602658E2,5.0435226E1,6.0625732E1,0E0,7.18407E1,9.851459E1,3.1794238E2,0E0,1.0557144E1,0E0,0E0,0E0,0E0,3.6101093E1,0E0,8.456525E1,1.509069E2,0E0,1.2226105E0,0E0,0E0,0E0,0E0,0E0,0E0,0E0,0E0],"parents":[2147483647,0,0,1,1,2,2,3,3,4,4,5,5,6,6,8,8,9,9,10,10,12,12,17,17,19,19,20,20,22,22],"right_children":[2,4,6,8,10,12,14,-1,16,18,20,-1,22,-1,-1,-1,-1,24,-1,26,28,-1,30,-1,-1,-1,-1,-1,-1,-1,-1],"split_conditions":[5.16E2,3.4433E6,5.2875E6,4.8973E2,4.8655E2,5.16E2,4.914E6,-1.3786049E-1,5.0085E2,4.8E2,4.9109E2,-3.1960677E-2,5.2191E2,1.8735276E-1,4.7571737E-1,2.5582886E-1,-2.9592896E-3,4.7304E2,1.4991066E-1,4.7358E2,4.9456E6,1.0564009E-1,5.5616E6,1.9653473E-2,-1.1652451E-1,-4.6879706E-1,-2.2214222E-1,-1.2950806E-1,7.150621E-2,1.3801086E-1,2.8841287E-1],"split_indices":[64,39,95,7,1,78,25,0,0,15,78,0,38,0,0,0,0,0,0,93,95,0,39,0,0,0,0,0,0,0,0],"split_type":[0,0,0,0,0,0,0,0,0,0,0,0,0,0,0,0,0,0,0,0,0,0,0,0,0,0,0,0,0,0,0],"sum_hessian":[1.36E2,1.08E2,2.8E1,1.4E1,9.4E1,1.6E1,1.2E1,3E0,1.1E1,2.6E1,6.8E1,3E0,1.3E1,5E0,7E0,7E0,4E0,1.8E1,8E0,2.2E1,4.6E1,6E0,7E0,9E0,9E0,6E0,1.6E1,3.4E1,1.2E1,4E0,3E0],"tree_param":{"num_deleted":"0","num_feature":"98","num_nodes":"31","size_leaf_vector":"1"}},{"base_weights":[3.499857E-1,-1.0467659E0,5.539613E0,2.5299988E0,-1.5628495E0,3.8182576E0,8.940596E0,3.706604E0,-1.6460571E-2,5.2305496E-1,-2.3987682E0,4.388916E-2,4.4585E0,5.6776327E-1,1.5417214E-1,2.2447903E-1,7.0487216E-2,-1.0744425E0,2.1972983E0,-5.422039E0,-1.0261129E0,2.9508278E0,3.0953848E-1,4.201889E-4,-1.0114918E-1,6.4331904E-2,1.5985362E-1,-1.16957605E-1,-3.1196222E-1,6.4392E-2,-1.11166716E-1,1.6840516E-1,6.892853E-2],"categories":[],"categories_nodes":[],"categories_segments":[],"categories_sizes":[],"default_left":[0,0,0,0,0,0,0,0,0,0,0,0,0,0,0,0,0,0,0,0,0,0,0,0,0,0,0,0,0,0,0,0,0],"id":30,"left_children":[1,3,5,7,9,11,13,15,-1,17,19,-1,21,-1,-1,-1,-1,23,25,27,29,31,-1,-1,-1,-1,-1,-1,-1,-1,-1,-1,-1],"loss_changes":[9.916111E2,2.0331226E2,1.356372E2,4.8318535E1,1.6690114E2,3.5621307E1,9.2274475E1,1.1654709E1,0E0,7.724966E1,2.766302E2,0E0,2.613095E1,0E0,0E0,0E0,0E0,1.5423862E1,8.632889E0,3.831183E1,1.3583836E2,2.5735397E0,0E0,0E0,0E0,0E0,0E0,0E0,0E0,0E0,0E0,0E0,0E0],"parents":[2147483647,0,0,1,1,2,2,3,3,4,4,5,5,6,6,7,7,9,9,10,10,12,12,17,17,18,18,19,19,20,20,21,21],"right_children":[2,4,6,8,10,12,14,16,-1,18,20,-1,22,-1,-1,-1,-1,24,26,28,30,32,-1,-1,-1,-1,-1,-1,-1,-1,-1,-1,-1],"split_conditions":[5.1591E2,3.2448E6,5.36E2,4.945E2,4.841E2,5.2126E2,5.1549E6,4.9925E2,-1.6460571E-2,4.7358E2,4.9298E2,4.388916E-2,5.2875E6,5.6776327E-1,1.5417214E-1,2.2447903E-1,7.0487216E-2,4.74E2,4.7977E2,4.8495E2,4.959E2,5.3244E2,3.0953848E-1,4.201889E-4,-1.0114918E-1,6.4331904E-2,1.5985362E-1,-1.16957605E-1,-3.1196222E-1,6.4392E-2,-1.11166716E-1,1.6840516E-1,6.892853E-2],"split_indices":[92,53,64,84,0,92,53,3,0,23,50,0,95,0,0,0,0,0,0,14,56,64,0,0,0,0,0,0,0,0,0,0,0],"split_type":[0,0,0,0,0,0,0,0,0,0,0,0,0,0,0,0,0,0,0,0,0,0,0,0,0,0,0,0,0,0,0,0,0],"sum_hessian":[1.35E2,1.07E2,2.8E1,1.3E1,9.4E1,2E1,8E0,9E0,4E0,2.7E1,6.7E1,4E0,1.6E1,5E0,3E0,6E0,3E0,1.4E1,1.3E1,2E1,4.7E1,1E1,6E0,7E0,7E0,8E0,5E0,5E0,1.5E1,1.6E1,3.1E1,7E0,3E0],"tree_param":{"num_deleted":"0","num_feature":"98","num_nodes":"33","size_leaf_vector":"1"}}]},"name":"gbtree"},"learner_model_param":{"base_score":"[4.9382953E2]","boost_from_average":"1","num_class":"0","num_feature":"98","num_target":"1"},"objective":{"name":"reg:squarederror","reg_loss_param":{"scale_pos_weight":"1"}}},"version":[3,2,0]}