{"learner":{"attributes":{"best_iteration":"0","best_score":"9.323507331177186"},"feature_names":[],"feature_types":[],"gradient_booster":{"model":{"cats":{"enc":[],"feature_segments":[],"sorted_idx":[]},"gbtree_model_param":{"num_parallel_tree":"1","num_trees":"31"},"iteration_indptr":[0,1,2,3,4,5,6,7,8,9,10,11,12,13,14,15,16,17,18,19,20,21,22,23,24,25,26,27,28,29,30,31],"tree_info":[0,0,0,0,0,0,0,0,0,0,0,0,0,0,0,0,0,0,0,0,0,0,0,0,0,0,0,0,0,0,0],"trees":[{"base_weights":[-3.743158E-1,5.089895E0,-1.1780127E1,-9.187487E0,6.5248547E0,-1.7317787E1,-6.657286E0,-1.9711266E-1,-5.5765307E-1,4.0075164E0,9.750315E0,-1.9119137E1,-2.4411316E-1,-9.608188E-1,-9.281458E0,5.22668E0,-4.2282977E0,1.1870313E1,1.8358426E0,-4.901127E-1,-1.0164516E0,-1.5323754E-1,3.0096946E-2,-6.187718E-1,-3.2343972E-1,3.3659622E-1,7.6015145E-2,-2.8661308E-1,-8.336296E-2,6.3238096E-1,1.9251214E-1,2.3688737E-1,-2.0236714E-2],"categories":[],"categories_nodes":[],"categories_segments":[],"categories_sizes":[],"default_left":[0,0,0,0,0,0,0,0,0,0,0,0,0,0,0,0,0,0,0,0,0,0,0,0,0,0,0,0,0,0,0,0,0],"id":0,"left_children":[1,3,5,7,9,11,13,-1,-1,15,17,19,-1,21,23,25,27,29,31,-1,-1,-1,-1,-1,-1,-1,-1,-1,-1,-1,-1,-1,-1],"loss_changes":[8.660637E3,1.985769E3,1.1612959E3,4.8820984E1,6.59209E2,3.770708E2,3.6479492E2,0E0,0E0,5.2414014E2,5.990188E2,3.6342773E0,0E0,3.143621E1,6.7885376E1,2.352417E2,1.74048E1,1.3209131E2,6.043499E1,0E0,0E0,0E0,0E0,0E0,0E0,0E0,0E0,0E0,0E0,0E0,0E0,0E0,0E0],"parents":[2147483647,0,0,1,1,2,2,3,3,4,4,5,5,6,6,9,9,10,10,11,11,13,13,14,14,15,15,16,16,17,17,18,18],"right_children":[2,4,6,8,10,12,14,-1,-1,16,18,20,-1,22,24,26,28,30,32,-1,-1,-1,-1,-1,-1,-1,-1,-1,-1,-1,-1,-1,-1],"split_conditions":[5.0978E2,4.7007E2,5.2141E2,4.8542E2,4.9245E2,5.2141E2,5.2316E2,-1.9711266E-1,-5.5765307E-1,5.0378E2,5.0446E2,5.0978E2,-2.4411316E-1,5.2545E2,4.7264E6,4.6294E6,4.9113E2,5.0016E2,4.8578E6,-4.901127E-1,-1.0164516E0,-1.5323754E-1,3.0096946E-2,-6.187718E-1,-3.2343972E-1,3.3659622E-1,7.6015145E-2,-2.8661308E-1,-8.336296E-2,6.3238096E-1,1.9251214E-1,2.3688737E-1,-2.0236714E-2],"split_indices":[1,0,10,70,92,92,9,0,0,1,92,22,0,14,18,32,59,77,18,0,0,0,0,0,0,0,0,0,0,0,0,0,0],"split_type":[0,0,0,0,0,0,0,0,0,0,0,0,0,0,0,0,0,0,0,0,0,0,0,0,0,0,0,0,0,0,0,0,0],"sum_hessian":[1.37E2,9.3E1,4.4E1,8E0,8.5E1,2E1,2.4E1,3E0,5E0,4.9E1,3.6E1,1.7E1,3E0,8E0,1.6E1,4.3E1,6E0,2.8E1,8E0,3E0,1.4E1,3E0,5E0,6E0,1E1,3E1,1.3E1,3E0,3E0,2.5E1,3E0,3E0,5E0],"tree_param":{"num_deleted":"0","num_feature":"98","num_nodes":"33","size_leaf_vector":"1"}},{"base_weights":[-9.0992045E-1,4.9196253E0,-1.0918541E1,-8.811977E0,6.440969E0,-1.3510702E1,-4.5657787E0,-1.8972091E-1,-5.3441775E-1,8.053729E0,2.4766858E0,-1.2232081E-1,-1.5273203E1,-5.0082487E-1,-1.9141642E0,4.2152195E0,9.807187E0,5.6371307E0,-6.311622E-1,-1.7828035E1,-8.380734E0,-1.9032021E-1,7.481262E-2,-4.772835E-2,2.6221076E-1,5.109364E-1,1.92865E-1,3.7814543E-1,7.142304E-2,5.184123E-2,-9.016285E-2,-4.9911743E-1,-9.543441E-1,-4.777743E-1,-2.1148682E-1],"categories":[],"categories_nodes":[],"categories_segments":[],"categories_sizes":[],"default_left":[0,0,0,0,0,0,0,0,0,0,0,0,0,0,0,0,0,0,0,0,0,0,0,0,0,0,0,0,0,0,0,0,0,0,0],"id":1,"left_children":[1,3,5,7,9,11,13,-1,-1,15,17,-1,19,-1,21,23,25,27,29,31,33,-1,-1,-1,-1,-1,-1,-1,-1,-1,-1,-1,-1,-1,-1],"loss_changes":[7.9303853E3,1.8533396E3,7.616826E2,4.417743E1,4.7874146E2,6.451636E2,2.1207806E2,0E0,0E0,3.2884717E2,2.392903E2,0E0,3.7886084E2,0E0,8.3135254E1,1.0608002E2,5.1182373E1,8.645624E1,2.7285162E1,1.6875488E1,8.346741E0,0E0,0E0,0E0,0E0,0E0,0E0,0E0,0E0,0E0,0E0,0E0,0E0,0E0,0E0],"parents":[2147483647,0,0,1,1,2,2,3,3,4,4,5,5,6,6,9,9,10,10,12,12,14,14,15,15,16,16,17,17,18,18,19,19,20,20],"right_children":[2,4,6,8,10,12,14,-1,-1,16,18,-1,20,-1,22,24,26,28,30,32,34,-1,-1,-1,-1,-1,-1,-1,-1,-1,-1,-1,-1,-1,-1],"split_conditions":[5.034E2,4.7007E2,5.2141E2,4.8542E2,4.7685E6,4.8933E2,4.2947E6,-1.8972091E-1,-5.3441775E-1,4.806E2,4.4166E6,-1.2232081E-1,5.2873E2,-5.0082487E-1,5.36E2,4.6955E2,4.9802E2,4.5571E6,4.7941E2,5.0978E2,5.1431E2,-1.9032021E-1,7.481262E-2,-4.772835E-2,2.6221076E-1,5.109364E-1,1.92865E-1,3.7814543E-1,7.142304E-2,5.184123E-2,-9.016285E-2,-4.9911743E-1,-9.543441E-1,-4.777743E-1,-2.1148682E-1],"split_indices":[3,0,92,70,18,91,67,0,0,87,25,0,3,0,78,78,58,4,64,22,52,0,0,0,0,0,0,0,0,0,0,0,0,0,0],"split_type":[0,0,0,0,0,0,0,0,0,0,0,0,0,0,0,0,0,0,0,0,0,0,0,0,0,0,0,0,0,0,0,0,0,0,0],"sum_hessian":[1.34E2,8.5E1,4.9E1,8E0,7.7E1,3.4E1,1.5E1,3E0,5E0,5.4E1,2.3E1,5E0,2.9E1,4E0,1.1E1,1.8E1,3.6E1,1.1E1,1.2E1,2E1,9E0,7E0,4E0,3E0,1.5E1,3.3E1,3E0,7E0,4E0,5E0,7E0,4E0,1.6E1,6E0,3E0],"tree_param":{"num_deleted":"0","num_feature":"98","num_nodes":"35","size_leaf_vector":"1"}},{"base_weights":[-5.4728262E-2,5.241398E0,-1.0314833E1,-7.504473E0,6.2066817E0,-1.4861563E1,-6.228059E0,-4.7403526E-1,-1.8260613E-1,3.7114942E0,9.326489E0,-1.5215722E-1,-1.6567463E1,-7.6552663E0,2.1522522E-3,5.7066727E0,-1.5252686E-1,1.0730686E1,2.7194176E0,-1.78892E1,-3.5693246E-1,-5.2648164E-2,-8.642316E0,3.4946993E-1,4.122391E-2,8.631821E-2,-1.6758467E-1,3.272374E-1,6.072814E-1,2.3260926E-1,-1.8819809E-2,-9.802052E-1,-5.0977963E-1,-5.100077E-1,-2.2572874E-1],"categories":[],"categories_nodes":[],"categories_segments":[],"categories_sizes":[],"default_left":[0,0,0,0,0,0,0,0,0,0,0,0,0,0,0,0,0,0,0,0,0,0,0,0,0,0,0,0,0,0,0,0,0,0,0],"id":2,"left_children":[1,3,5,7,9,11,13,-1,-1,15,17,-1,19,21,-1,23,25,27,29,31,-1,-1,33,-1,-1,-1,-1,-1,-1,-1,-1,-1,-1,-1,-1],"loss_changes":[7.661497E3,1.1907927E3,7.9935156E2,1.8667267E1,6.4263696E2,3.9312598E2,2.4198401E2,0E0,0E0,3.8634076E2,3.2336865E2,0E0,1.0908154E2,1.3426965E2,0E0,2.0090063E2,1.1398218E2,1.0411841E2,4.961897E1,1.1225098E1,0E0,0E0,7.61272E1,0E0,0E0,0E0,0E0,0E0,0E0,0E0,0E0,0E0,0E0,0E0,0E0],"parents":[2147483647,0,0,1,1,2,2,3,3,4,4,5,5,6,6,9,9,10,10,12,12,13,13,15,15,16,16,17,17,18,18,19,19,22,22],"right_children":[2,4,6,8,10,12,14,-1,-1,16,18,-1,20,22,-1,24,26,28,30,32,-1,-1,34,-1,-1,-1,-1,-1,-1,-1,-1,-1,-1,-1,-1],"split_conditions":[5.0975E2,4.7007E2,5.2141E2,3.7913E6,4.9314E2,5.0766E2,5.3592E2,-4.7403526E-1,-1.8260613E-1,4.6788E6,5.0446E2,-1.5215722E-1,5.2875E6,4.9371E2,2.1522522E-3,4.6294E6,4.8968E2,4.945E2,4.9057E2,5.2393E2,-3.5693246E-1,-5.2648164E-2,6.1293E6,3.4946993E-1,4.122391E-2,8.631821E-2,-1.6758467E-1,3.272374E-1,6.072814E-1,2.3260926E-1,-1.8819809E-2,-9.802052E-1,-5.0977963E-1,-5.100077E-1,-2.2572874E-1],"split_indices":[8,0,10,11,64,1,85,0,0,18,92,0,53,87,0,32,78,78,0,1,0,0,25,0,0,0,0,0,0,0,0,0,0,0,0],"split_type":[0,0,0,0,0,0,0,0,0,0,0,0,0,0,0,0,0,0,0,0,0,0,0,0,0,0,0,0,0,0,0,0,0,0,0],"sum_hessian":[1.39E2,9.2E1,4.7E1,6E0,8.6E1,2.1E1,2.6E1,3E0,3E0,4.9E1,3.7E1,3E0,1.8E1,2.1E1,5E0,3.2E1,1.7E1,3E1,7E0,1.5E1,3E0,3E0,1.8E1,2.5E1,7E0,1.1E1,6E0,9E0,2.1E1,4E0,3E0,1.1E1,4E0,1.2E1,6E0],"tree_param":{"num_deleted":"0","num_feature":"98","num_nodes":"35","size_leaf_vector":"1"}},{"base_weights":[1.3948653E-2,4.6056685E0,-1.0190183E1,-8.195753E0,5.8079195E0,-1.5685383E1,-5.945776E0,-1.7575799E-1,-4.9750954E-1,3.4217317E0,8.333267E0,-8.859528E-1,-4.1629586E-1,-7.308336E0,2.0619712E-3,4.926048E0,-1.1229929E0,1.017193E1,3.6667087E0,-2.8437107E0,-8.804838E0,3.1536746E-1,2.8289948E-2,4.6755983E-3,-1.9417535E-1,1.7668407E-1,5.656303E-1,2.6508638E-1,-1.6833497E-2,-5.067406E-2,-1.9815063E-1,-5.2359104E-1,-2.1406148E-1],"categories":[],"categories_nodes":[],"categories_segments":[],"categories_sizes":[],"default_left":[0,0,0,0,0,0,0,0,0,0,0,0,0,0,0,0,0,0,0,0,0,0,0,0,0,0,0,0,0,0,0,0,0],"id":3,"left_children":[1,3,5,7,9,11,13,-1,-1,15,17,-1,-1,19,-1,21,23,25,27,29,31,-1,-1,-1,-1,-1,-1,-1,-1,-1,-1,-1,-1],"loss_changes":[6.793982E3,1.5866531E3,9.563125E2,3.892981E1,5.2587354E2,1.3684082E2,2.2055841E2,0E0,0E0,3.405302E2,3.4023242E2,0E0,0E0,1.2195068E2,0E0,2.1927563E2,4.4019478E1,1.9475977E2,9.3423325E1,1.032362E1,7.582019E1,0E0,0E0,0E0,0E0,0E0,0E0,0E0,0E0,0E0,0E0,0E0,0E0],"parents":[2147483647,0,0,1,1,2,2,3,3,4,4,5,5,6,6,9,9,10,10,13,13,15,15,16,16,17,17,18,18,19,19,20,20],"right_children":[2,4,6,8,10,12,14,-1,-1,16,18,-1,-1,20,-1,22,24,26,28,30,32,-1,-1,-1,-1,-1,-1,-1,-1,-1,-1,-1,-1],"split_conditions":[5.0978E2,4.7007E2,5.2141E2,4.8542E2,4.8874E2,5.101E2,5.3592E2,-1.7575799E-1,-4.9750954E-1,5.0607E6,5.0211E2,-8.859528E-1,-4.1629586E-1,4.9947E2,2.0619712E-3,4.6788E6,4.9575E2,4.8961E2,4.5571E6,5.3227E2,6.1293E6,3.1536746E-1,2.8289948E-2,4.6755983E-3,-1.9417535E-1,1.7668407E-1,5.656303E-1,2.6508638E-1,-1.6833497E-2,-5.067406E-2,-1.9815063E-1,-5.2359104E-1,-2.1406148E-1],"split_indices":[1,0,10,70,94,79,85,0,0,39,92,0,0,86,0,25,0,73,60,8,25,0,0,0,0,0,0,0,0,0,0,0,0],"split_type":[0,0,0,0,0,0,0,0,0,0,0,0,0,0,0,0,0,0,0,0,0,0,0,0,0,0,0,0,0,0,0,0,0],"sum_hessian":[1.43E2,9.9E1,4.4E1,8E0,9.1E1,1.8E1,2.6E1,3E0,5E0,4.8E1,4.3E1,1.3E1,5E0,2.1E1,5E0,3.6E1,1.2E1,3E1,1.3E1,6E0,1.5E1,2.7E1,9E0,9E0,3E0,5E0,2.5E1,9E0,4E0,3E0,3E0,1E1,5E0],"tree_param":{"num_deleted":"0","num_feature":"98","num_nodes":"33","size_leaf_vector":"1"}},{"base_weights":[-3.249387E-2,4.3143573E0,-9.635246E0,-7.860782E0,5.524264E0,-1.3928253E1,-5.2966204E0,-4.7708488E-1,-1.6871071E-1,2.9840312E0,8.054175E0,-7.696721E-1,-1.9264221E-1,-6.235916E0,3.6200713E-2,4.4299765E0,-5.341317E-1,9.706818E0,2.9759495E0,-4.877434E-2,-7.106846E0,2.860384E-1,2.4782307E-2,-1.2126191E-1,2.324173E-2,1.6804597E-1,5.246671E-1,2.0989195E-1,-2.5864411E-2,-4.1744176E-1,-2.069942E-1],"categories":[],"categories_nodes":[],"categories_segments":[],"categories_sizes":[],"default_left":[0,0,0,0,0,0,0,0,0,0,0,0,0,0,0,0,0,0,0,0,0,0,0,0,0,0,0,0,0,0,0],"id":4,"left_children":[1,3,5,7,9,11,13,-1,-1,15,17,-1,-1,19,-1,21,23,25,27,-1,29,-1,-1,-1,-1,-1,-1,-1,-1,-1,-1],"loss_changes":[5.7601875E3,1.4428496E3,7.2713477E2,3.56781E1,5.350774E2,2.5070117E2,1.3458356E2,0E0,0E0,2.3128436E2,3.3199E2,0E0,0E0,8.4696655E1,0E0,1.596734E2,2.7575457E1,1.2445166E2,5.3391678E1,0E0,2.8080688E1,0E0,0E0,0E0,0E0,0E0,0E0,0E0,0E0,0E0,0E0],"parents":[2147483647,0,0,1,1,2,2,3,3,4,4,5,5,6,6,9,9,10,10,13,13,15,15,16,16,17,17,18,18,20,20],"right_children":[2,4,6,8,10,12,14,-1,-1,16,18,-1,-1,20,-1,22,24,26,28,-1,30,-1,-1,-1,-1,-1,-1,-1,-1,-1,-1],"split_conditions":[5.0978E2,4.7007E2,5.2141E2,4.6636E6,4.9109E2,5.214E2,5.3592E2,-4.7708488E-1,-1.6871071E-1,4.6788E6,5.0211E2,-7.696721E-1,-1.9264221E-1,4.9371E2,3.6200713E-2,4.6788E6,4.0158E6,4.8583E2,4.8578E6,-4.877434E-2,6.1293E6,2.860384E-1,2.4782307E-2,-1.2126191E-1,2.324173E-2,1.6804597E-1,5.246671E-1,2.0989195E-1,-2.5864411E-2,-4.1744176E-1,-2.069942E-1],"split_indices":[1,0,10,25,92,91,85,0,0,39,92,0,0,87,0,25,95,44,18,0,25,0,0,0,0,0,0,0,0,0,0],"split_type":[0,0,0,0,0,0,0,0,0,0,0,0,0,0,0,0,0,0,0,0,0,0,0,0,0,0,0,0,0,0,0],"sum_hessian":[1.36E2,9.4E1,4.2E1,8E0,8.6E1,2E1,2.2E1,5E0,3E0,4.4E1,4.2E1,1.7E1,3E0,1.9E1,3E0,3.1E1,1.3E1,3.1E1,1.1E1,3E0,1.6E1,2.3E1,8E0,4E0,9E0,4E0,2.7E1,8E0,3E0,1E1,6E0],"tree_param":{"num_deleted":"0","num_feature":"98","num_nodes":"31","size_leaf_vector":"1"}},{"base_weights":[-2.5011858E-1,4.115916E0,-8.704099E0,-7.408287E0,5.140075E0,-1.1060857E1,-4.161677E0,-1.5898629E-1,-4.6547395E-1,2.6252608E0,7.593837E0,-7.256585E-1,-6.4108458E0,-1.4872925E0,-6.670807E0,4.067696E0,-7.5622123E-1,8.189468E0,7.1457215E-2,-7.589325E0,-6.363487E-2,2.4110412E-2,-1.7766175E-1,-4.2663804E-1,-1.1050873E-1,-7.6438906E-3,2.4426122E-1,3.5645675E-2,-1.1636003E-1,1.9266053E-1,4.77593E-1,-1.5513733E-1,-4.7223854E-1],"categories":[],"categories_nodes":[],"categories_segments":[],"categories_sizes":[],"default_left":[0,0,0,0,0,0,0,0,0,0,0,0,0,0,0,0,0,0,0,0,0,0,0,0,0,0,0,0,0,0,0,0,0],"id":5,"left_children":[1,3,5,7,9,11,13,-1,-1,15,17,-1,19,21,23,25,27,29,-1,31,-1,-1,-1,-1,-1,-1,-1,-1,-1,-1,-1,-1,-1],"loss_changes":[5.203277E3,1.1357228E3,4.678269E2,3.471289E1,5.1074902E2,4.046101E2,1.1086536E2,0E0,0E0,2.1768903E2,1.4618677E2,0E0,8.116913E1,4.2402145E1,5.5890533E1,1.0771051E2,3.3970818E1,1.9359424E2,0E0,7.0590515E1,0E0,0E0,0E0,0E0,0E0,0E0,0E0,0E0,0E0,0E0,0E0,0E0,0E0],"parents":[2147483647,0,0,1,1,2,2,3,3,4,4,5,5,6,6,9,9,10,10,12,12,13,13,14,14,15,15,16,16,17,17,19,19],"right_children":[2,4,6,8,10,12,14,-1,-1,16,18,-1,20,22,24,26,28,30,-1,32,-1,-1,-1,-1,-1,-1,-1,-1,-1,-1,-1,-1,-1],"split_conditions":[5.0311E2,4.7007E2,5.2141E2,4.8542E2,4.8585E2,4.9778E6,5.5121E6,-1.5898629E-1,-4.6547395E-1,4.7798E6,5.0446E2,-7.256585E-1,5.3592E2,5.2569E2,5.5121E6,4.692E2,4.7852E2,4.9314E2,7.1457215E-2,5.0283E2,-6.363487E-2,2.4110412E-2,-1.7766175E-1,-4.2663804E-1,-1.1050873E-1,-7.6438906E-3,2.4426122E-1,3.5645675E-2,-1.1636003E-1,1.9266053E-1,4.77593E-1,-1.5513733E-1,-4.7223854E-1],"split_indices":[17,0,92,70,30,46,4,0,0,18,92,0,43,7,46,77,73,71,0,23,0,0,0,0,0,0,0,0,0,0,0,0,0],"split_type":[0,0,0,0,0,0,0,0,0,0,0,0,0,0,0,0,0,0,0,0,0,0,0,0,0,0,0,0,0,0,0,0,0],"sum_hessian":[1.39E2,9.2E1,4.7E1,7E0,8.5E1,3E1,1.7E1,3E0,4E0,4.3E1,4.2E1,1.6E1,1.4E1,9E0,8E0,3E1,1.3E1,3.8E1,4E0,1.1E1,3E0,5E0,4E0,5E0,3E0,5E0,2.5E1,7E0,6E0,1E1,2.8E1,4E0,7E0],"tree_param":{"num_deleted":"0","num_feature":"98","num_nodes":"33","size_leaf_vector":"1"}},{"base_weights":[1.6315904E-1,4.409493E0,-8.432055E0,-6.832058E0,5.4785295E0,-7.669696E-1,-6.4149666E0,-1.5302391E-1,-4.2414552E-1,2.7445154E0,7.8868155E0,-7.747903E0,-9.4781876E-1,3.9724402E0,2.680468E-1,8.905683E0,2.4434204E0,-2.0198407E0,-9.218291E0,-9.863312E-2,2.8509522E-2,2.44637E-1,3.877607E-2,6.807949E-2,-3.6115456E-2,2.3182355E-1,4.9036986E-1,2.4161409E-1,-5.767555E-2,-1.7386246E-2,-1.5934983E-1,-1.2540208E-1,-5.0729007E-1],"categories":[],"categories_nodes":[],"categories_segments":[],"categories_sizes":[],"default_left":[0,0,0,0,0,0,0,0,0,0,0,0,0,0,0,0,0,0,0,0,0,0,0,0,0,0,0,0,0,0,0,0,0],"id":6,"left_children":[1,3,5,7,9,-1,11,-1,-1,13,15,17,19,21,23,25,27,29,31,-1,-1,-1,-1,-1,-1,-1,-1,-1,-1,-1,-1,-1,-1],"loss_changes":[4.7454424E3,1.0829635E3,5.0070508E2,2.3848785E1,5.050974E2,0E0,2.4771411E2,0E0,0E0,1.17531006E2,2.1117578E2,2.1720984E2,1.3570569E1,7.2700775E1,1.6145443E1,8.926465E1,7.4314644E1,1.2553137E1,1.1147827E2,0E0,0E0,0E0,0E0,0E0,0E0,0E0,0E0,0E0,0E0,0E0,0E0,0E0,0E0],"parents":[2147483647,0,0,1,1,2,2,3,3,4,4,6,6,9,9,10,10,11,11,12,12,13,13,14,14,15,15,16,16,17,17,18,18],"right_children":[2,4,6,8,10,-1,12,-1,-1,14,16,18,20,22,24,26,28,30,32,-1,-1,-1,-1,-1,-1,-1,-1,-1,-1,-1,-1,-1,-1],"split_conditions":[5.0311E2,4.7007E2,3.8735E6,4.8542E2,4.8344E2,-7.669696E-1,5.3329E2,-1.5302391E-1,-4.2414552E-1,4.6788E6,5.0085E2,4.9311E2,5.3652E2,4.5959E6,4.3292E6,3.2062E6,4.2387E6,4.9311E2,4.856E2,-9.863312E-2,2.8509522E-2,2.44637E-1,3.877607E-2,6.807949E-2,-3.6115456E-2,2.3182355E-1,4.9036986E-1,2.4161409E-1,-5.767555E-2,-1.7386246E-2,-1.5934983E-1,-1.2540208E-1,-5.0729007E-1],"split_indices":[10,0,53,70,86,0,71,0,0,25,77,51,57,32,95,53,81,37,79,0,0,0,0,0,0,0,0,0,0,0,0,0,0],"split_type":[0,0,0,0,0,0,0,0,0,0,0,0,0,0,0,0,0,0,0,0,0,0,0,0,0,0,0,0,0,0,0,0,0],"sum_hessian":[1.28E2,8.6E1,4.2E1,7E0,7.9E1,8E0,3.4E1,3E0,4E0,3.8E1,4.1E1,2.7E1,7E0,2.5E1,1.3E1,3.4E1,7E0,6E0,2.1E1,4E0,3E0,1.9E1,6E0,6E0,7E0,7E0,2.7E1,4E0,3E0,3E0,3E0,3E0,1.8E1],"tree_param":{"num_deleted":"0","num_feature":"98","num_nodes":"33","size_leaf_vector":"1"}},{"base_weights":[2.144994E-1,4.022766E0,-7.247825E0,1.3411764E0,6.6758204E0,-8.912365E0,-8.387035E-1,-3.4663302E-1,2.2509038E0,8.161079E0,3.5747106E0,-3.2902298E0,-1.0075743E1,-1.4032187E-1,6.34407E-2,3.5819976E0,-5.613444E-1,4.9676056E0,9.2417E0,5.185572E0,-1.2139893E-2,-6.974152E-2,-2.4184608E-1,-1.2340864E1,-5.460894E0,-2.6991883E-2,2.1184447E-1,2.7611846E-2,-1.161878E-1,2.9131296E-1,1.1115303E-1,1.7659608E-1,4.9786773E-1,3.0150434E-1,9.9451065E-2,-3.6332092E-1,-6.998299E-1,-3.2548764E-1,-1.6635387E-1],"categories":[],"categories_nodes":[],"categories_segments":[],"categories_sizes":[],"default_left":[0,0,0,0,0,0,0,0,0,0,0,0,0,0,0,0,0,0,0,0,0,0,0,0,0,0,0,0,0,0,0,0,0,0,0,0,0,0,0],"id":7,"left_children":[1,3,5,7,9,11,13,-1,15,17,19,21,23,-1,-1,25,27,29,31,33,-1,-1,-1,35,37,-1,-1,-1,-1,-1,-1,-1,-1,-1,-1,-1,-1,-1,-1],"loss_changes":[4.036168E3,6.598002E2,5.046006E2,3.7689764E2,1.8730591E2,2.153938E2,4.9178215E1,0E0,1.6671889E2,6.1069824E1,1.05800186E2,1.6706108E1,2.5665698E2,0E0,0E0,8.326788E1,3.0722092E1,1.0614014E1,5.4728394E1,2.0400452E1,0E0,0E0,0E0,6.633374E1,5.1984253E0,0E0,0E0,0E0,0E0,0E0,0E0,0E0,0E0,0E0,0E0,0E0,0E0,0E0,0E0],"parents":[2147483647,0,0,1,1,2,2,3,3,4,4,5,5,6,6,8,8,9,9,10,10,11,11,12,12,15,15,16,16,17,17,18,18,19,19,23,23,24,24],"right_children":[2,4,6,8,10,12,14,-1,16,18,20,22,24,-1,-1,26,28,30,32,34,-1,-1,-1,36,38,-1,-1,-1,-1,-1,-1,-1,-1,-1,-1,-1,-1,-1,-1],"split_conditions":[5.0311E2,4.8585E2,5.3592E2,4.7013E2,4.6744E6,4.872E2,5.2681E2,-3.4663302E-1,4.8578E6,3.6139E6,4.5571E6,4.141E6,5.3327E2,-1.4032187E-1,6.34407E-2,3.737E6,4.8505E2,4.6931E6,4.9099E2,4.9984E2,-1.2139893E-2,-6.974152E-2,-2.4184608E-1,5.0963E2,5.36E2,-2.6991883E-2,2.1184447E-1,2.7611846E-2,-1.161878E-1,2.9131296E-1,1.1115303E-1,1.7659608E-1,4.9786773E-1,3.0150434E-1,9.9451065E-2,-3.6332092E-1,-6.998299E-1,-3.2548764E-1,-1.6635387E-1],"split_indices":[17,30,78,3,11,86,91,0,25,25,25,60,8,0,0,46,94,18,24,59,0,0,0,7,15,0,0,0,0,0,0,0,0,0,0,0,0,0,0],"split_type":[0,0,0,0,0,0,0,0,0,0,0,0,0,0,0,0,0,0,0,0,0,0,0,0,0,0,0,0,0,0,0,0,0,0,0,0,0,0,0],"sum_hessian":[1.4E2,9.3E1,4.7E1,4.7E1,4.6E1,3.7E1,1E1,4E0,4.3E1,3E1,1.6E1,7E0,3E1,5E0,5E0,2.9E1,1.4E1,9E0,2.1E1,1.1E1,5E0,4E0,3E0,1.9E1,1.1E1,4E0,2.5E1,9E0,5E0,6E0,3E0,3E0,1.8E1,8E0,3E0,6E0,1.3E1,6E0,5E0],"tree_param":{"num_deleted":"0","num_feature":"98","num_nodes":"39","size_leaf_vector":"1"}},{"base_weights":[-1.7360905E-1,3.5386617E0,-8.353533E0,-6.027111E0,4.349634E0,-1.4342478E1,-5.6594763E0,-3.752704E-1,-1.3362312E-1,2.4119892E0,6.6065273E0,-3.2338753E-1,-8.0290604E-1,-7.2342916E0,-1.9953475E0,3.9179585E0,-1.3631368E0,8.659743E0,2.4703023E0,-8.70359E0,-9.327825E-2,5.5190276E-2,-1.6477528E-1,2.4610579E-1,1.7929247E-2,-1.274503E-2,-2.1735306E-1,2.3958264E-1,4.8869964E-1,2.0108521E-1,-2.6354218E-2,-1.6966324E-1,-4.7995707E-1],"categories":[],"categories_nodes":[],"categories_segments":[],"categories_sizes":[],"default_left":[0,0,0,0,0,0,0,0,0,0,0,0,0,0,0,0,0,0,0,0,0,0,0,0,0,0,0,0,0,0,0,0,0],"id":8,"left_children":[1,3,5,7,9,11,13,-1,-1,15,17,-1,-1,19,21,23,25,27,29,31,-1,-1,-1,-1,-1,-1,-1,-1,-1,-1,-1,-1,-1],"loss_changes":[4.2808135E3,7.787008E2,6.2874976E2,1.9615387E1,3.7764038E2,7.177295E1,1.7021558E2,0E0,0E0,2.8960193E2,3.268031E2,0E0,0E0,1.5730457E2,4.796087E1,1.2690515E2,4.8495323E1,6.953699E1,7.187204E1,4.8274048E1,0E0,0E0,0E0,0E0,0E0,0E0,0E0,0E0,0E0,0E0,0E0,0E0,0E0],"parents":[2147483647,0,0,1,1,2,2,3,3,4,4,5,5,6,6,9,9,10,10,13,13,14,14,15,15,16,16,17,17,18,18,19,19],"right_children":[2,4,6,8,10,12,14,-1,-1,16,18,-1,-1,20,22,24,26,28,30,32,-1,-1,-1,-1,-1,-1,-1,-1,-1,-1,-1,-1,-1],"split_conditions":[5.0978E2,4.7007E2,5.0978E2,4.5733E6,4.9298E2,5.0978E2,5.9231E6,-3.752704E-1,-1.3362312E-1,4.9084E6,5.0211E2,-3.2338753E-1,-8.0290604E-1,6.3843E6,4.3856E6,4.6294E6,4.8903E2,3.5195E6,4.8578E6,5.0874E2,-9.327825E-2,5.5190276E-2,-1.6477528E-1,2.4610579E-1,1.7929247E-2,-1.274503E-2,-2.1735306E-1,2.3958264E-1,4.8869964E-1,2.0108521E-1,-2.6354218E-2,-1.6966324E-1,-4.7995707E-1],"split_indices":[1,0,85,11,85,22,39,0,0,39,92,0,0,95,88,32,51,53,18,73,0,0,0,0,0,0,0,0,0,0,0,0,0],"split_type":[0,0,0,0,0,0,0,0,0,0,0,0,0,0,0,0,0,0,0,0,0,0,0,0,0,0,0,0,0,0,0,0,0],"sum_hessian":[1.39E2,9.6E1,4.3E1,7E0,8.9E1,1.2E1,3.1E1,4E0,3E0,4.9E1,4E1,3E0,9E0,2.1E1,1E1,3.5E1,1.4E1,2.6E1,1.4E1,1.6E1,5E0,3E0,7E0,2.7E1,8E0,1.1E1,3E0,7E0,1.9E1,9E0,5E0,3E0,1.3E1],"tree_param":{"num_deleted":"0","num_feature":"98","num_nodes":"33","size_leaf_vector":"1"}},{"base_weights":[-3.2776365E-1,3.2832751E0,-7.1502113E0,-3.9892354E0,4.7326503E0,-9.728814E0,-2.9738383E0,-3.504467E-1,-4.7088242E-1,2.3312118E0,6.5500846E0,-1.2834859E1,-5.7059937E0,-3.5813415E-1,-1.379301E0,3.2727357E-2,-8.799744E-2,3.3712602E0,2.3018901E-1,7.8141522E0,2.8440754E0,-3.1060296E-1,-6.986444E-1,-5.6571044E-2,-7.422681E0,-2.5301902E0,7.142579E-2,2.1528636E-1,-3.335358E-2,5.5307664E-2,-4.1506704E-2,4.277133E-1,1.7139918E-1,2.0950504E-1,-4.477501E-2,-4.354734E-1,-1.6575661E-1,-1.5049191E-1,-4.6917345E-2],"categories":[],"categories_nodes":[],"categories_segments":[],"categories_sizes":[],"default_left":[0,0,0,0,0,0,0,0,0,0,0,0,0,0,0,0,0,0,0,0,0,0,0,0,0,0,0,0,0,0,0,0,0,0,0,0,0,0,0],"id":9,"left_children":[1,3,5,7,9,11,13,-1,15,17,19,21,23,-1,25,-1,-1,27,29,31,33,-1,-1,-1,35,37,-1,-1,-1,-1,-1,-1,-1,-1,-1,-1,-1,-1,-1],"loss_changes":[3.2754443E3,9.3591144E2,4.6645142E2,1.560651E2,3.0333545E2,2.7662646E2,1.1702664E2,0E0,1.2757996E1,7.133444E1,1.6984644E2,2.6253662E1,1.0154535E2,0E0,5.2086708E1,0E0,0E0,8.589331E1,1.2063917E1,6.806421E1,6.4155014E1,0E0,0E0,0E0,2.3982422E1,5.5744934E0,0E0,0E0,0E0,0E0,0E0,0E0,0E0,0E0,0E0,0E0,0E0,0E0,0E0],"parents":[2147483647,0,0,1,1,2,2,3,3,4,4,5,5,6,6,8,8,9,9,10,10,11,11,12,12,14,14,17,17,18,18,19,19,20,20,24,24,25,25],"right_children":[2,4,6,8,10,12,14,-1,16,18,20,22,24,-1,26,-1,-1,28,30,32,34,-1,-1,-1,36,38,-1,-1,-1,-1,-1,-1,-1,-1,-1,-1,-1,-1,-1],"split_conditions":[5.074E2,4.7432E2,5.2141E2,4.6506E2,4.8344E2,5.0044E6,4.2543E6,-3.504467E-1,4.8263E2,4.6294E6,5.0211E2,3.7487E6,4.8888E2,-3.5813415E-1,5.36E2,3.2727357E-2,-8.799744E-2,4.6294E6,4.3292E6,4.9998E2,5.1117E6,-3.1060296E-1,-6.986444E-1,-5.6571044E-2,5.2468E2,5.13E2,7.142579E-2,2.1528636E-1,-3.335358E-2,5.5307664E-2,-4.1506704E-2,4.277133E-1,1.7139918E-1,2.0950504E-1,-4.477501E-2,-4.354734E-1,-1.6575661E-1,-1.5049191E-1,-4.6917345E-2],"split_indices":[1,0,92,2,93,46,74,0,38,25,78,4,93,0,78,0,0,46,95,56,25,0,0,0,9,65,0,0,0,0,0,0,0,0,0,0,0,0,0],"split_type":[0,0,0,0,0,0,0,0,0,0,0,0,0,0,0,0,0,0,0,0,0,0,0,0,0,0,0,0,0,0,0,0,0,0,0,0,0,0,0],"sum_hessian":[1.31E2,8.6E1,4.5E1,1.4E1,7.2E1,2.7E1,1.8E1,7E0,7E0,3.2E1,4E1,1.4E1,1.3E1,4E0,1.4E1,4E0,3E0,2.1E1,1.1E1,2.9E1,1.1E1,3E0,1.1E1,4E0,9E0,1E1,4E0,1.7E1,4E0,6E0,5E0,2.4E1,5E0,8E0,3E0,6E0,3E0,7E0,3E0],"tree_param":{"num_deleted":"0","num_feature":"98","num_nodes":"39","size_leaf_vector":"1"}},{"base_weights":[-4.1251138E-2,3.2308748E0,-7.3844395E0,-6.15271E0,4.1042233E0,-1.2048496E1,-4.6507945E0,-1.1927567E-1,-3.8193616E-1,2.3346019E0,6.1076293E0,-2.7679443E-1,-1.3758041E1,-5.972365E0,-1.8251399E0,3.7934902E0,-1.0938091E0,7.909805E0,2.2162476E0,-7.861935E-1,-3.930554E-1,-7.718227E0,-1.6274458E0,-1.5937544E-1,2.236023E-2,2.405881E-1,5.2090175E-2,-2.7085524E-3,-2.0995903E-1,4.4959274E-1,2.4773622E-1,1.816983E-1,-2.5799561E-2,-2.1003799E-1,-4.602812E-1,-1.4051667E-1,-1.884842E-3],"categories":[],"categories_nodes":[],"categories_segments":[],"categories_sizes":[],"default_left":[0,0,0,0,0,0,0,0,0,0,0,0,0,0,0,0,0,0,0,0,0,0,0,0,0,0,0,0,0,0,0,0,0,0,0,0,0],"id":10,"left_children":[1,3,5,7,9,11,13,-1,-1,15,17,-1,19,21,23,25,27,29,31,-1,-1,33,35,-1,-1,-1,-1,-1,-1,-1,-1,-1,-1,-1,-1,-1,-1],"loss_changes":[3.5078948E3,8.5296094E2,5.177092E2,3.2160675E1,3.1545117E2,1.0197461E2,1.0112866E2,0E0,0E0,2.5923447E2,2.8402686E2,0E0,1.5501221E1,1.3915161E2,3.5478954E1,9.585779E1,5.1427925E1,4.8176636E1,5.9978287E1,0E0,0E0,3.457556E1,1.3057518E1,0E0,0E0,0E0,0E0,0E0,0E0,0E0,0E0,0E0,0E0,0E0,0E0,0E0,0E0],"parents":[2147483647,0,0,1,1,2,2,3,3,4,4,5,5,6,6,9,9,10,10,12,12,13,13,14,14,15,15,16,16,17,17,18,18,21,21,22,22],"right_children":[2,4,6,8,10,12,14,-1,-1,16,18,-1,20,22,24,26,28,30,32,-1,-1,34,36,-1,-1,-1,-1,-1,-1,-1,-1,-1,-1,-1,-1,-1,-1],"split_conditions":[5.0978E2,4.7007E2,5.1591E2,4.8542E2,4.9298E2,5.0019E2,6.1293E6,-1.1927567E-1,-3.8193616E-1,4.9084E6,5.0211E2,-2.7679443E-1,5.1584E2,6.3843E6,5.3227E2,4.7798E6,4.8903E2,5.0122E2,4.8578E6,-7.861935E-1,-3.930554E-1,5.2118E2,5.2142E2,-1.5937544E-1,2.236023E-2,2.405881E-1,5.2090175E-2,-2.7085524E-3,-2.0995903E-1,4.4959274E-1,2.4773622E-1,1.816983E-1,-2.5799561E-2,-2.1003799E-1,-4.602812E-1,-1.4051667E-1,-1.884842E-3],"split_indices":[1,0,57,70,85,65,39,0,0,39,92,0,22,95,85,4,51,36,18,0,0,57,9,0,0,0,0,0,0,0,0,0,0,0,0,0,0],"split_type":[0,0,0,0,0,0,0,0,0,0,0,0,0,0,0,0,0,0,0,0,0,0,0,0,0,0,0,0,0,0,0,0,0,0,0,0,0],"sum_hessian":[1.44E2,1E2,4.4E1,8E0,9.2E1,1.5E1,2.9E1,3E0,5E0,5E1,4.2E1,4E0,1.1E1,1.9E1,1E1,3.5E1,1.5E1,2.8E1,1.4E1,7E0,4E0,1.3E1,6E0,6E0,4E0,2.5E1,1E1,1.2E1,3E0,1.9E1,9E0,9E0,5E0,5E0,8E0,3E0,3E0],"tree_param":{"num_deleted":"0","num_feature":"98","num_nodes":"37","size_leaf_vector":"1"}},{"base_weights":[1.776013E-1,3.379101E0,-6.839436E0,-5.900774E0,4.333146E0,-9.2740345E0,-2.7136123E0,-3.6856106E-1,-1.1099549E-1,2.1955326E0,6.4184847E0,-6.9418424E-1,-7.1969557E0,-2.8256303E-1,-1.0186539E0,3.2870178E0,-6.104126E-2,8.043927E0,2.1737342E0,-8.106874E0,-7.652817E-2,5.7085164E-2,-1.3624333E-1,1.9733076E-1,-3.3418577E-2,2.3745602E-2,-8.2682036E-2,1.961343E-1,4.4553962E-1,2.6704344E-1,8.63444E-3,-1.6143723E-1,-4.4607815E-1],"categories":[],"categories_nodes":[],"categories_segments":[],"categories_sizes":[],"default_left":[0,0,0,0,0,0,0,0,0,0,0,0,0,0,0,0,0,0,0,0,0,0,0,0,0,0,0,0,0,0,0,0,0],"id":11,"left_children":[1,3,5,7,9,11,13,-1,-1,15,17,-1,19,-1,21,23,25,27,29,31,-1,-1,-1,-1,-1,-1,-1,-1,-1,-1,-1,-1,-1],"loss_changes":[3.0109622E3,8.4008325E2,3.9671252E2,3.2349213E1,3.603506E2,1.4901929E2,7.888959E1,0E0,0E0,1.0611038E2,2.7229773E2,0E0,9.071106E1,0E0,4.7343338E1,7.829776E1,1.3588718E1,7.222266E1,8.146624E1,3.875537E1,0E0,0E0,0E0,0E0,0E0,0E0,0E0,0E0,0E0,0E0,0E0,0E0,0E0],"parents":[2147483647,0,0,1,1,2,2,3,3,4,4,5,5,6,6,9,9,10,10,12,12,14,14,15,15,16,16,17,17,18,18,19,19],"right_children":[2,4,6,8,10,12,14,-1,-1,16,18,-1,20,-1,22,24,26,28,30,32,-1,-1,-1,-1,-1,-1,-1,-1,-1,-1,-1,-1,-1],"split_conditions":[5.034E2,4.7007E2,5.1431E2,4.6636E6,4.8419E2,3.8735E6,4.5215E6,-3.6856106E-1,-1.1099549E-1,4.6788E6,5.0211E2,-6.9418424E-1,5.7557E6,-2.8256303E-1,5.2569E2,5.0607E6,4.85E2,3.2062E6,3.9332E6,5.0672E2,-7.652817E-2,5.7085164E-2,-1.3624333E-1,1.9733076E-1,-3.3418577E-2,2.3745602E-2,-8.2682036E-2,1.961343E-1,4.4553962E-1,2.6704344E-1,8.63444E-3,-1.6143723E-1,-4.4607815E-1],"split_indices":[10,0,94,25,86,60,74,0,0,25,92,0,25,0,7,39,94,53,11,22,0,0,0,0,0,0,0,0,0,0,0,0,0],"split_type":[0,0,0,0,0,0,0,0,0,0,0,0,0,0,0,0,0,0,0,0,0,0,0,0,0,0,0,0,0,0,0,0,0],"sum_hessian":[1.32E2,9.1E1,4.1E1,8E0,8.3E1,2.5E1,1.6E1,5E0,3E0,4.2E1,4.1E1,6E0,1.9E1,5E0,1.1E1,2.8E1,1.4E1,2.9E1,1.2E1,1.6E1,3E0,5E0,6E0,2.4E1,4E0,1.1E1,3E0,6E0,2.3E1,4E0,8E0,3E0,1.3E1],"tree_param":{"num_deleted":"0","num_feature":"98","num_nodes":"33","size_leaf_vector":"1"}},{"base_weights":[-1.7249309E-1,3.0984337E0,-6.252967E0,-5.441114E0,3.7499094E0,-1.13294935E1,-4.5306263E0,-1.16938405E-1,-3.5915908E-1,1.8729357E0,5.6269774E0,-7.0923656E-1,-3.0550665E-1,-5.8281736E0,-6.9794536E-1,2.9082522E0,-8.992474E-1,6.184652E0,-6.78257E-2,2.4513245E-2,-6.5760803E0,8.3994836E-1,-1.3557038E-1,-5.0366517E-2,1.741534E-1,8.225675E-3,-1.3170837E-1,1.0770454E-1,3.4871718E-1,-3.7218162E-1,-7.21817E-2,-1.0952759E-2,8.444824E-2],"categories":[],"categories_nodes":[],"categories_segments":[],"categories_sizes":[],"default_left":[0,0,0,0,0,0,0,0,0,0,0,0,0,0,0,0,0,0,0,0,0,0,0,0,0,0,0,0,0,0,0,0,0],"id":12,"left_children":[1,3,5,7,9,11,13,-1,-1,15,17,-1,-1,19,21,23,25,27,-1,-1,29,31,-1,-1,-1,-1,-1,-1,-1,-1,-1,-1,-1],"loss_changes":[2.8435815E3,5.3779144E2,3.858457E2,2.1031677E1,2.959801E2,9.215979E1,1.898825E2,0E0,0E0,1.3176912E2,1.7585376E2,0E0,0E0,1.4026648E2,3.633884E1,7.778299E1,2.4425383E1,1.122926E2,0E0,0E0,1.0502356E2,6.6637564E0,0E0,0E0,0E0,0E0,0E0,0E0,0E0,0E0,0E0,0E0,0E0],"parents":[2147483647,0,0,1,1,2,2,3,3,4,4,5,5,6,6,9,9,10,10,13,13,14,14,15,15,16,16,17,17,20,20,21,21],"right_children":[2,4,6,8,10,12,14,-1,-1,16,18,-1,-1,20,22,24,26,28,-1,-1,30,32,-1,-1,-1,-1,-1,-1,-1,-1,-1,-1,-1],"split_conditions":[5.0311E2,4.7007E2,3.8735E6,4.6636E6,4.8627E2,5.146E2,5.3313E2,-1.16938405E-1,-3.5915908E-1,4.7798E6,5.0643E2,-7.0923656E-1,-3.0550665E-1,5.0149E2,5.5121E6,4.6955E2,4.8754E2,4.8344E2,-6.78257E-2,2.4513245E-2,5.3738E2,4.8589E6,-1.3557038E-1,-5.0366517E-2,1.741534E-1,8.225675E-3,-1.3170837E-1,1.0770454E-1,3.4871718E-1,-3.7218162E-1,-7.21817E-2,-1.0952759E-2,8.444824E-2],"split_indices":[31,0,60,53,30,3,78,0,0,18,0,0,0,17,18,78,45,93,0,0,29,11,0,0,0,0,0,0,0,0,0,0,0],"split_type":[0,0,0,0,0,0,0,0,0,0,0,0,0,0,0,0,0,0,0,0,0,0,0,0,0,0,0,0,0,0,0,0,0],"sum_hessian":[1.41E2,9.2E1,4.9E1,6E0,8.6E1,1.1E1,3.8E1,3E0,3E0,4.4E1,4.2E1,6E0,5E0,2.8E1,1E1,3.2E1,1.2E1,3.9E1,3E0,3E0,2.5E1,6E0,4E0,4E0,2.8E1,8E0,4E0,7E0,3.2E1,2.1E1,4E0,3E0,3E0],"tree_param":{"num_deleted":"0","num_feature":"98","num_nodes":"33","size_leaf_vector":"1"}},{"base_weights":[1.2765813E-1,2.8862793E0,-6.034093E0,-5.4459705E0,3.7056427E0,-8.039079E0,-2.1482372E0,-3.4227628E-1,-9.925728E-2,1.7833334E0,5.2704144E0,-1.4636561E-1,-9.023058E0,6.661159E-1,-3.9034607E0,2.868529E0,2.3733181E-1,6.794633E0,1.4641582E0,-1.1189344E1,-5.0879517E0,8.128166E-2,-2.299652E-2,-2.5622255E-1,-1.1176962E-1,1.7528962E-1,-1.2711487E-2,-1.6891949E-2,7.2198994E-2,2.9281342E-1,5.5329466E-1,2.4415894E-1,-1.1152372E-2,-6.122907E-1,-2.7433586E-1,-3.3159968E-1,-1.1087555E-1],"categories":[],"categories_nodes":[],"categories_segments":[],"categories_sizes":[],"default_left":[0,0,0,0,0,0,0,0,0,0,0,0,0,0,0,0,0,0,0,0,0,0,0,0,0,0,0,0,0,0,0,0,0,0,0,0,0],"id":13,"left_children":[1,3,5,7,9,11,13,-1,-1,15,17,-1,19,21,23,25,27,29,31,33,35,-1,-1,-1,-1,-1,-1,-1,-1,-1,-1,-1,-1,-1,-1,-1,-1],"loss_changes":[2.3631316E3,6.7558636E2,3.1774695E2,3.0003174E1,2.5530286E2,1.1442322E2,8.163726E1,0E0,0E0,6.8105484E1,2.6852673E2,0E0,1.3913428E2,8.310905E0,8.911789E0,4.8651733E1,1.298035E1,7.1467285E1,8.761804E1,1.7155884E1,2.9614288E1,0E0,0E0,0E0,0E0,0E0,0E0,0E0,0E0,0E0,0E0,0E0,0E0,0E0,0E0,0E0,0E0],"parents":[2147483647,0,0,1,1,2,2,3,3,4,4,5,5,6,6,9,9,10,10,12,12,13,13,14,14,15,15,16,16,17,17,18,18,19,19,20,20],"right_children":[2,4,6,8,10,12,14,-1,-1,16,18,-1,20,22,24,26,28,30,32,34,36,-1,-1,-1,-1,-1,-1,-1,-1,-1,-1,-1,-1,-1,-1,-1,-1],"split_conditions":[5.034E2,4.7007E2,5.2141E2,4.6636E6,4.8419E2,4.8888E2,5.0186E6,-3.4227628E-1,-9.925728E-2,4.5304E6,5.0211E2,-1.4636561E-1,5.214E2,5.231E2,4.914E6,4.6788E6,4.5959E6,4.9973E6,3.9332E6,5.2875E6,5.7557E6,8.128166E-2,-2.299652E-2,-2.5622255E-1,-1.1176962E-1,1.7528962E-1,-1.2711487E-2,-1.6891949E-2,7.2198994E-2,2.9281342E-1,5.5329466E-1,2.4415894E-1,-1.1152372E-2,-6.122907E-1,-2.7433586E-1,-3.3159968E-1,-1.1087555E-1],"split_indices":[3,0,92,25,79,86,25,0,0,39,92,0,0,7,53,32,88,25,11,53,25,0,0,0,0,0,0,0,0,0,0,0,0,0,0,0,0],"split_type":[0,0,0,0,0,0,0,0,0,0,0,0,0,0,0,0,0,0,0,0,0,0,0,0,0,0,0,0,0,0,0,0,0,0,0,0,0],"sum_hessian":[1.37E2,9.5E1,4.2E1,8E0,8.7E1,2.7E1,1.5E1,5E0,3E0,4E1,4.7E1,5E0,2.2E1,6E0,9E0,2.3E1,1.7E1,3.3E1,1.4E1,1.3E1,9E0,3E0,3E0,4E0,5E0,1.9E1,4E0,1.2E1,5E0,2.9E1,4E0,4E0,1E1,1E1,3E0,5E0,4E0],"tree_param":{"num_deleted":"0","num_feature":"98","num_nodes":"37","size_leaf_vector":"1"}},{"base_weights":[-4.5501493E-2,2.7120368E0,-5.859321E0,-5.1347313E0,3.3793936E0,-1.0821231E1,-4.1804233E0,-9.627648E-2,-3.3375734E-1,1.6294541E0,4.9457326E0,-2.727089E-1,-7.1923727E-1,-5.147054E0,-1.152478E0,2.4724245E0,-5.7089233E-1,5.526273E0,-1.3383217E-1,-6.7156653E0,-3.2107959E0,9.1301185E-1,-2.2394828E-1,-4.963989E-2,1.5014566E-1,1.770382E-2,-8.545177E-2,1.6083048E-1,3.2484478E-1,-3.859812E-1,-1.1379319E-1,-1.9777888E-1,-1.799736E-2,7.82341E-2,1.6544343E-3],"categories":[],"categories_nodes":[],"categories_segments":[],"categories_sizes":[],"default_left":[0,0,0,0,0,0,0,0,0,0,0,0,0,0,0,0,0,0,0,0,0,0,0,0,0,0,0,0,0,0,0,0,0,0,0],"id":14,"left_children":[1,3,5,7,9,11,13,-1,-1,15,17,-1,-1,19,21,23,25,27,-1,29,31,33,-1,-1,-1,-1,-1,-1,-1,-1,-1,-1,-1,-1,-1],"loss_changes":[2.292411E3,5.2530194E2,3.3796753E2,2.6694855E1,2.3863098E2,1.3192432E2,9.943677E1,0E0,0E0,8.302388E1,2.2277148E2,0E0,0E0,6.044275E1,7.2797615E1,6.180565E1,1.4290834E1,7.774182E1,0E0,4.4834473E1,2.830185E1,3.9621644E0,0E0,0E0,0E0,0E0,0E0,0E0,0E0,0E0,0E0,0E0,0E0,0E0,0E0],"parents":[2147483647,0,0,1,1,2,2,3,3,4,4,5,5,6,6,9,9,10,10,13,13,14,14,15,15,16,16,17,17,19,19,20,20,21,21],"right_children":[2,4,6,8,10,12,14,-1,-1,16,18,-1,-1,20,22,24,26,28,-1,30,32,34,-1,-1,-1,-1,-1,-1,-1,-1,-1,-1,-1,-1,-1],"split_conditions":[5.091E2,4.7007E2,5.0975E2,4.8542E2,4.8627E2,5.0025E2,5.3592E2,-9.627648E-2,-3.3375734E-1,4.7798E6,5.051E2,-2.727089E-1,-7.1923727E-1,5.2875E6,5.8893E6,4.6955E2,4.7977E2,3.6139E6,-1.3383217E-1,5.275E2,5.214E2,5.231E2,-2.2394828E-1,-4.963989E-2,1.5014566E-1,1.770382E-2,-8.545177E-2,1.6083048E-1,3.2484478E-1,-3.859812E-1,-1.1379319E-1,-1.9777888E-1,-1.799736E-2,7.82341E-2,1.6544343E-3],"split_indices":[15,0,71,70,30,65,78,0,0,18,0,0,0,46,4,78,77,32,0,9,49,7,0,0,0,0,0,0,0,0,0,0,0,0,0],"split_type":[0,0,0,0,0,0,0,0,0,0,0,0,0,0,0,0,0,0,0,0,0,0,0,0,0,0,0,0,0,0,0,0,0,0,0],"sum_hessian":[1.41E2,9.6E1,4.5E1,7E0,8.9E1,1E1,3.5E1,3E0,4E0,4.3E1,4.6E1,5E0,5E0,2.6E1,9E0,3.1E1,1.2E1,4.3E1,3E0,1.3E1,1.3E1,6E0,3E0,4E0,2.7E1,7E0,5E0,1.4E1,2.9E1,1E1,3E0,1E1,3E0,3E0,3E0],"tree_param":{"num_deleted":"0","num_feature":"98","num_nodes":"35","size_leaf_vector":"1"}},{"base_weights":[4.660814E-2,2.4279575E0,-5.999551E0,-4.999407E0,3.1358511E0,-8.634644E0,-2.4455736E0,-9.2665866E-2,-3.1317827E-1,1.7691656E0,4.9127355E0,-9.472574E0,-1.2479057E-1,-2.9272124E-1,-1.0534428E0,2.9348545E0,-1.1099186E0,7.8165517E0,2.5528393E0,-5.873894E-1,-3.5831922E-1,-1.6873307E0,4.765549E-2,1.9247131E-1,-5.444336E-4,-1.4897977E-2,-1.735653E-1,1.8620475E-1,4.8551235E-1,2.3560762E-1,2.646778E-2,-3.6223143E-2,-1.0670232E-1],"categories":[],"categories_nodes":[],"categories_segments":[],"categories_sizes":[],"default_left":[0,0,0,0,0,0,0,0,0,0,0,0,0,0,0,0,0,0,0,0,0,0,0,0,0,0,0,0,0,0,0,0,0],"id":15,"left_children":[1,3,5,7,9,11,13,-1,-1,15,17,19,-1,-1,21,23,25,27,29,-1,-1,31,-1,-1,-1,-1,-1,-1,-1,-1,-1,-1,-1],"loss_changes":[1.987095E3,5.361981E2,3.441206E2,2.4186035E1,2.1229694E2,8.9524414E1,7.925291E1,0E0,0E0,1.8113167E2,2.4730115E2,1.5505249E1,0E0,0E0,1.9415222E1,1.0241748E2,2.9643288E1,9.5585815E1,9.800032E1,0E0,0E0,3.1853714E0,0E0,0E0,0E0,0E0,0E0,0E0,0E0,0E0,0E0,0E0,0E0],"parents":[2147483647,0,0,1,1,2,2,3,3,4,4,5,5,6,6,9,9,10,10,11,11,14,14,15,15,16,16,17,17,18,18,21,21],"right_children":[2,4,6,8,10,12,14,-1,-1,16,18,20,-1,-1,22,24,26,28,30,-1,-1,32,-1,-1,-1,-1,-1,-1,-1,-1,-1,-1,-1],"split_conditions":[5.0978E2,4.7007E2,5.21E2,4.8542E2,4.9245E2,5.3258E2,4.2947E6,-9.2665866E-2,-3.1317827E-1,4.9084E6,4.9572E2,3.8735E6,-1.2479057E-1,-2.9272124E-1,5.3188E2,4.6294E6,4.9113E2,4.9242E2,4.0589E6,-5.873894E-1,-3.5831922E-1,5.2411E2,4.765549E-2,1.9247131E-1,-5.444336E-4,-1.4897977E-2,-1.735653E-1,1.8620475E-1,4.8551235E-1,2.3560762E-1,2.646778E-2,-3.6223143E-2,-1.0670232E-1],"split_indices":[1,0,92,70,92,10,67,0,0,39,73,53,0,0,84,32,45,94,11,0,0,3,0,0,0,0,0,0,0,0,0,0,0],"split_type":[0,0,0,0,0,0,0,0,0,0,0,0,0,0,0,0,0,0,0,0,0,0,0,0,0,0,0,0,0,0,0,0,0],"sum_hessian":[1.36E2,9.8E1,3.8E1,8E0,9E1,2.1E1,1.7E1,3E0,5E0,5.2E1,3.8E1,1.8E1,3E0,4E0,1.3E1,3.7E1,1.5E1,1.6E1,2.2E1,7E0,1.1E1,1E1,3E0,2.8E1,9E0,1.2E1,3E0,6E0,1E1,1E1,1.2E1,4E0,6E0],"tree_param":{"num_deleted":"0","num_feature":"98","num_nodes":"33","size_leaf_vector":"1"}},{"base_weights":[-9.4216146E-2,2.3778052E0,-5.654123E0,-2.9866138E-1,2.9808097E0,-8.824726E0,-3.119677E0,1.4924089E0,4.405789E0,-5.2169585E-1,-2.653925E-1,-3.9432895E0,1.414566E-2,2.3066506E0,-1.3820773E0,5.2415237E0,2.9473877E-1,8.180237E-3,-4.6368613E0,1.5418302E-1,-2.26671E-2,-2.0066071E-2,-1.4990349E-1,3.2947075E-1,1.446046E-1,-7.8109235E-2,1.5032196E-1,-2.828172E-1,-1.1133837E-1],"categories":[],"categories_nodes":[],"categories_segments":[],"categories_sizes":[],"default_left":[0,0,0,0,0,0,0,0,0,0,0,0,0,0,0,0,0,0,0,0,0,0,0,0,0,0,0,0,0],"id":16,"left_children":[1,3,5,-1,7,9,11,13,15,-1,-1,17,-1,19,21,23,25,-1,27,-1,-1,-1,-1,-1,-1,-1,-1,-1,-1],"loss_changes":[1.965122E3,5.163404E2,3.260415E2,0E0,1.9067218E2,5.2145508E1,7.397844E1,1.1319271E2,1.599353E2,0E0,0E0,6.057553E1,0E0,8.074597E1,1.6230646E1,1.04447266E2,5.0015392E1,0E0,3.163153E1,0E0,0E0,0E0,0E0,0E0,0E0,0E0,0E0,0E0,0E0],"parents":[2147483647,0,0,1,1,2,2,4,4,5,5,6,6,7,7,8,8,11,11,13,13,14,14,15,15,16,16,18,18],"right_children":[2,4,6,-1,8,10,12,14,16,-1,-1,18,-1,20,22,24,26,-1,28,-1,-1,-1,-1,-1,-1,-1,-1,-1,-1],"split_conditions":[5.0978E2,4.6506E2,5.2393E2,-2.9866138E-1,4.872E2,4.9778E6,5.3592E2,5.0607E6,5.023E2,-5.2169585E-1,-2.653925E-1,4.9371E2,1.414566E-2,4.9973E6,5.8893E6,4.9961E2,4.9456E6,8.180237E-3,5.9231E6,1.5418302E-1,-2.26671E-2,-2.0066071E-2,-1.4990349E-1,3.2947075E-1,1.446046E-1,-7.8109235E-2,1.5032196E-1,-2.828172E-1,-1.1133837E-1],"split_indices":[1,2,8,0,65,67,85,39,17,0,0,87,0,25,53,85,4,0,25,0,0,0,0,0,0,0,0,0,0],"split_type":[0,0,0,0,0,0,0,0,0,0,0,0,0,0,0,0,0,0,0,0,0,0,0,0,0,0,0,0,0],"sum_hessian":[1.41E2,9.8E1,4.3E1,6E0,9.2E1,1.8E1,2.5E1,4.6E1,4.6E1,1.1E1,7E0,2E1,5E0,3.6E1,1E1,3.8E1,8E0,3E0,1.7E1,2.8E1,8E0,7E0,3E0,2.3E1,1.5E1,5E0,3E0,1.1E1,6E0],"tree_param":{"num_deleted":"0","num_feature":"98","num_nodes":"29","size_leaf_vector":"1"}},{"base_weights":[-2.0209204E-1,2.1503289E0,-5.4774795E0,-4.559716E0,2.7765663E0,-8.339294E0,-2.6259205E0,-2.9243037E-1,-7.4322514E-2,1.4489298E0,4.286634E0,-9.211203E0,-1.0564537E-1,4.5936966E-1,-3.923356E0,2.260768E0,-1.0980413E0,5.6793356E0,9.9608505E-1,-2.1142197E-1,-9.881193E0,6.242981E-2,-1.3194275E-2,-2.928037E-1,-1.3150254E-1,1.9923162E-1,5.0866317E-2,-1.4136963E-1,-1.4824829E-2,1.1466467E-1,3.628846E-1,1.0745104E-1,-4.4966634E-2,-6.1255366E-1,-3.6170793E-1],"categories":[],"categories_nodes":[],"categories_segments":[],"categories_sizes":[],"default_left":[0,0,0,0,0,0,0,0,0,0,0,0,0,0,0,0,0,0,0,0,0,0,0,0,0,0,0,0,0,0,0,0,0,0,0],"id":17,"left_children":[1,3,5,7,9,11,13,-1,-1,15,17,19,-1,21,23,25,27,29,31,-1,33,-1,-1,-1,-1,-1,-1,-1,-1,-1,-1,-1,-1,-1,-1],"loss_changes":[1.8112185E3,4.370705E2,3.453302E2,2.6956284E1,1.802373E2,9.9971924E1,9.787343E1,0E0,0E0,1.0793656E2,1.9140137E2,2.1647705E1,0E0,4.895984E0,2.709137E1,7.954381E1,1.7181667E1,1.4368744E2,3.252681E1,0E0,1.1744263E1,0E0,0E0,0E0,0E0,0E0,0E0,0E0,0E0,0E0,0E0,0E0,0E0,0E0,0E0],"parents":[2147483647,0,0,1,1,2,2,3,3,4,4,5,5,6,6,9,9,10,10,11,11,13,13,14,14,15,15,16,16,17,17,18,18,20,20],"right_children":[2,4,6,8,10,12,14,-1,-1,16,18,20,-1,22,24,26,28,30,32,-1,34,-1,-1,-1,-1,-1,-1,-1,-1,-1,-1,-1,-1,-1,-1],"split_conditions":[5.0978E2,4.7007E2,5.1321E2,4.6636E6,4.8961E2,7.6204E6,5.2316E2,-2.9243037E-1,-7.4322514E-2,5.0607E6,5.0211E2,5.035E2,-1.0564537E-1,5.2952E2,5.3327E2,4.1306E6,4.1932E6,4.945E2,4.8578E6,-2.1142197E-1,5.1433E2,6.242981E-2,-1.3194275E-2,-2.928037E-1,-1.3150254E-1,1.9923162E-1,5.0866317E-2,-1.4136963E-1,-1.4824829E-2,1.1466467E-1,3.628846E-1,1.0745104E-1,-4.4966634E-2,-6.1255366E-1,-3.6170793E-1],"split_indices":[1,0,9,25,94,11,9,0,0,39,92,64,0,52,1,18,32,78,18,0,29,0,0,0,0,0,0,0,0,0,0,0,0,0,0],"split_type":[0,0,0,0,0,0,0,0,0,0,0,0,0,0,0,0,0,0,0,0,0,0,0,0,0,0,0,0,0,0,0,0,0,0,0],"sum_hessian":[1.44E2,1E2,4.4E1,8E0,9.2E1,2.1E1,2.3E1,5E0,3E0,5E1,4.2E1,1.8E1,3E0,7E0,1.6E1,3.8E1,1.2E1,2.9E1,1.3E1,3E0,1.5E1,3E0,4E0,5E0,1.1E1,1.5E1,2.3E1,3E0,9E0,1E1,1.9E1,8E0,5E0,6E0,9E0],"tree_param":{"num_deleted":"0","num_feature":"98","num_nodes":"35","size_leaf_vector":"1"}},{"base_weights":[-2.0311657E-2,2.2829084E0,-5.0268703E0,-4.312229E0,2.8256845E0,-7.4586473E0,-2.0349925E0,-7.5928114E-2,-2.8423584E-1,1.5097122E0,4.3877053E0,-8.563129E0,-6.640472E-2,-4.0041404E0,-6.2375534E-1,2.501144E0,-5.0194466E-1,6.6588354E0,2.0203676E0,-9.635934E0,-2.5204796E-1,-2.3494339E-1,-9.805069E-2,-1.0910975E-1,4.8451063E-1,1.915195E-1,5.1647272E-2,-9.461757E-2,1.7547734E-2,1.5202451E-1,4.3258128E-1,2.156225E-1,-1.2453589E-2,-5.552656E-1,-3.1850848E-1,-2.4141235E-2,6.77472E-2],"categories":[],"categories_nodes":[],"categories_segments":[],"categories_sizes":[],"default_left":[0,0,0,0,0,0,0,0,0,0,0,0,0,0,0,0,0,0,0,0,0,0,0,0,0,0,0,0,0,0,0,0,0,0,0,0,0],"id":18,"left_children":[1,3,5,7,9,11,13,-1,-1,15,17,19,-1,21,23,25,27,29,31,33,-1,-1,-1,-1,35,-1,-1,-1,-1,-1,-1,-1,-1,-1,-1,-1,-1],"loss_changes":[1.6835006E3,3.7015338E2,3.1949854E2,2.2041595E1,1.845445E2,1.5790454E2,5.8638954E1,0E0,0E0,1.04965294E2,2.1236108E2,3.0776367E1,0E0,3.5602112E0,2.5237617E1,6.434932E1,2.2009918E1,1.2511743E2,1.1551247E2,1.2370605E0,0E0,0E0,0E0,0E0,8.232208E0,0E0,0E0,0E0,0E0,0E0,0E0,0E0,0E0,0E0,0E0,0E0,0E0],"parents":[2147483647,0,0,1,1,2,2,3,3,4,4,5,5,6,6,9,9,10,10,11,11,13,13,14,14,15,15,16,16,17,17,18,18,19,19,24,24],"right_children":[2,4,6,8,10,12,14,-1,-1,16,18,20,-1,22,24,26,28,30,32,34,-1,-1,-1,-1,36,-1,-1,-1,-1,-1,-1,-1,-1,-1,-1,-1,-1],"split_conditions":[5.091E2,4.7007E2,5.1431E2,4.8542E2,4.9038E2,5.3592E2,5.2141E2,-7.5928114E-2,-2.8423584E-1,4.6788E6,4.9572E2,5.0044E6,-6.640472E-2,5.275E2,5.2388E2,4.0561E6,4.001E6,3.5829E6,3.9351E6,4.9456E6,-2.5204796E-1,-2.3494339E-1,-9.805069E-2,-1.0910975E-1,5.1549E6,1.915195E-1,5.1647272E-2,-9.461757E-2,1.7547734E-2,1.5202451E-1,4.3258128E-1,2.156225E-1,-1.2453589E-2,-5.552656E-1,-3.1850848E-1,-2.4141235E-2,6.77472E-2],"split_indices":[15,0,80,70,80,29,24,0,0,32,87,46,0,2,57,25,46,32,11,60,0,0,0,0,81,0,0,0,0,0,0,0,0,0,0,0,0],"split_type":[0,0,0,0,0,0,0,0,0,0,0,0,0,0,0,0,0,0,0,0,0,0,0,0,0,0,0,0,0,0,0,0,0,0,0,0,0],"sum_hessian":[1.44E2,9.9E1,4.5E1,7E0,9.2E1,2.4E1,2.1E1,3E0,4E0,5.1E1,4.1E1,2E1,4E0,8E0,1.3E1,3.4E1,1.7E1,2E1,2.1E1,1.4E1,6E0,5E0,3E0,5E0,8E0,1.7E1,1.7E1,6E0,1.1E1,8E0,1.2E1,1E1,1.1E1,8E0,6E0,4E0,4E0],"tree_param":{"num_deleted":"0","num_feature":"98","num_nodes":"37","size_leaf_vector":"1"}},{"base_weights":[-7.966461E-2,2.364183E0,-4.8129597E0,-2.2330044E-1,2.8030121E0,-8.053746E0,-3.379132E0,3.5699463E0,1.2012746E0,-9.753685E0,-2.4802116E-1,-3.4780693E-1,-2.2364469E0,3.142476E0,3.779065E-1,2.2694854E-1,3.5217652E-1,-5.891706E-1,-2.3890534E-1,-2.9295547E0,3.966039E-2,1.7174827E-1,-2.347046E-2,6.951625E-2,-2.8141022E-2,-2.2401683E-1,-9.018911E-2],"categories":[],"categories_nodes":[],"categories_segments":[],"categories_sizes":[],"default_left":[0,0,0,0,0,0,0,0,0,0,0,0,0,0,0,0,0,0,0,0,0,0,0,0,0,0,0],"id":19,"left_children":[1,3,5,-1,7,9,11,13,15,17,-1,-1,19,21,-1,-1,23,-1,-1,25,-1,-1,-1,-1,-1,-1,-1],"loss_changes":[1.6308219E3,2.91266E2,1.9582837E2,0E0,1.0381305E2,2.5236023E1,1.2750171E2,7.683374E1,8.342244E1,2.4490112E1,0E0,0E0,6.112033E1,5.9716553E1,0E0,0E0,2.453007E1,0E0,0E0,3.2072495E1,0E0,0E0,0E0,0E0,0E0,0E0,0E0],"parents":[2147483647,0,0,1,1,2,2,4,4,5,5,6,6,7,7,8,8,9,9,12,12,13,13,16,16,19,19],"right_children":[2,4,6,-1,8,10,12,14,16,18,-1,-1,20,22,-1,-1,24,-1,-1,26,-1,-1,-1,-1,-1,-1,-1],"split_conditions":[5.0311E2,4.6805E2,3.9515E6,-2.2330044E-1,4.6744E6,5.0448E6,3.669E6,5.0114E2,3.2448E6,5.1289E2,-2.4802116E-1,-3.4780693E-1,5.36E2,5.5738E6,3.779065E-1,2.2694854E-1,3.9875E6,-5.891706E-1,-2.3890534E-1,4.776E6,3.966039E-2,1.7174827E-1,-2.347046E-2,6.951625E-2,-2.8141022E-2,-2.2401683E-1,-9.018911E-2],"split_indices":[3,0,74,0,32,39,39,45,11,16,0,0,78,25,0,0,81,0,0,46,0,0,0,0,0,0,0],"split_type":[0,0,0,0,0,0,0,0,0,0,0,0,0,0,0,0,0,0,0,0,0,0,0,0,0,0,0],"sum_hessian":[1.39E2,9.2E1,4.7E1,5E0,8.7E1,1.3E1,3.4E1,5.8E1,2.9E1,7E0,6E0,7E0,2.7E1,5.4E1,4E0,5E0,2.4E1,4E0,3E0,2.2E1,5E0,5E1,4E0,1.1E1,1.3E1,8E0,1.4E1],"tree_param":{"num_deleted":"0","num_feature":"98","num_nodes":"27","size_leaf_vector":"1"}},{"base_weights":[-2.9517445E-1,1.8913282E0,-4.7084208E0,-2.2457516E-1,2.3720977E0,-6.4715285E0,-2.5872855E0,9.727697E-1,3.7811203E0,-6.990331E-2,-7.6699905E0,2.7100918E-1,-3.6120372E0,1.7718408E0,-2.5600713E-1,4.619562E0,1.426408E0,-8.41132E0,-1.8818696E-1,3.9323807E-2,-1.5610504E-2,-2.647171E-1,-2.2131126E0,1.2636887E-1,-2.1646118E-2,3.4772873E-2,-4.344915E-2,2.8660592E-1,9.872451E-2,1.1760666E-1,-6.222534E-2,-4.619662E-1,-2.3709229E-1,-1.4140289E-1,-7.288536E-2],"categories":[],"categories_nodes":[],"categories_segments":[],"categories_sizes":[],"default_left":[0,0,0,0,0,0,0,0,0,0,0,0,0,0,0,0,0,0,0,0,0,0,0,0,0,0,0,0,0,0,0,0,0,0,0],"id":20,"left_children":[1,3,5,-1,7,9,11,13,15,-1,17,19,21,23,25,27,29,31,-1,-1,-1,-1,33,-1,-1,-1,-1,-1,-1,-1,-1,-1,-1,-1,-1],"loss_changes":[1.3694952E3,3.02178E2,1.5902637E2,0E0,1.7180179E2,1.4128564E2,6.834685E1,4.56201E1,8.027936E1,0E0,2.62583E1,2.3499575E0,2.8291122E1,4.773597E1,1.1685612E1,8.285126E1,3.5070175E1,4.802124E0,0E0,0E0,0E0,0E0,9.873886E-1,0E0,0E0,0E0,0E0,0E0,0E0,0E0,0E0,0E0,0E0,0E0,0E0],"parents":[2147483647,0,0,1,1,2,2,4,4,5,5,6,6,7,7,8,8,10,10,11,11,12,12,13,13,14,14,15,15,16,16,17,17,22,22],"right_children":[2,4,6,-1,8,10,12,14,16,-1,18,20,22,24,26,28,30,32,-1,-1,-1,-1,34,-1,-1,-1,-1,-1,-1,-1,-1,-1,-1,-1,-1],"split_conditions":[5.074E2,4.6506E2,5.1321E2,-2.2457516E-1,4.872E2,5.0085E2,5.3227E2,4.5041E6,4.4166E6,-6.990331E-2,5.2875E6,5.2545E2,5.3327E2,4.7685E6,4.7787E2,4.2387E6,4.8578E6,5.1822E2,-1.8818696E-1,3.9323807E-2,-1.5610504E-2,-2.647171E-1,5.0448E6,1.2636887E-1,-2.1646118E-2,3.4772873E-2,-4.344915E-2,2.8660592E-1,9.872451E-2,1.1760666E-1,-6.222534E-2,-4.619662E-1,-2.3709229E-1,-1.4140289E-1,-7.288536E-2],"split_indices":[1,2,9,0,58,30,8,39,60,0,53,7,1,32,21,11,18,3,0,0,0,0,74,0,0,0,0,0,0,0,0,0,0,0,0],"split_type":[0,0,0,0,0,0,0,0,0,0,0,0,0,0,0,0,0,0,0,0,0,0,0,0,0,0,0,0,0,0,0,0,0,0,0],"sum_hessian":[1.4E2,9.4E1,4.6E1,6E0,8.8E1,2.4E1,2.2E1,4.5E1,4.3E1,5E0,1.9E1,6E0,1.6E1,2.7E1,1.8E1,3.1E1,1.2E1,1.5E1,4E0,3E0,3E0,6E0,1E1,2E1,7E0,7E0,1.1E1,2.1E1,1E1,9E0,3E0,1.1E1,4E0,4E0,6E0],"tree_param":{"num_deleted":"0","num_feature":"98","num_nodes":"35","size_leaf_vector":"1"}},{"base_weights":[-2.6078454E-1,1.8684465E0,-4.4694543E0,-2.1495035E-1,2.3325334E0,-9.417645E0,-3.0860863E0,1.1603776E0,3.8055437E0,-2.7634034E-1,-5.545202E-1,-3.977536E0,-4.5534724E-1,2.1679678E0,-5.097855E-1,5.265752E0,8.2190377E-1,-9.532689E-1,-4.7250285E0,-1.6871469E0,6.801208E-2,1.7680417E-1,3.7640113E-2,1.8513607E-2,-9.3807794E-2,1.6007213E-1,3.703663E-1,1.5138367E-1,-1.815857E-2,-7.460709E-2,-8.80394E-3,-5.1778793E-2,-2.613334E-1,-1.2560959E-1,-2.2015763E-2],"categories":[],"categories_nodes":[],"categories_segments":[],"categories_sizes":[],"default_left":[0,0,0,0,0,0,0,0,0,0,0,0,0,0,0,0,0,0,0,0,0,0,0,0,0,0,0,0,0,0,0,0,0,0,0],"id":21,"left_children":[1,3,5,-1,7,9,11,13,15,-1,-1,17,19,21,23,25,27,29,31,33,-1,-1,-1,-1,-1,-1,-1,-1,-1,-1,-1,-1,-1,-1,-1],"loss_changes":[1.2808457E3,2.8193982E2,2.9950452E2,0E0,1.4925131E2,3.789856E0,8.965054E1,8.693002E1,1.6558478E2,0E0,0E0,6.105365E1,2.6895788E1,5.929355E1,2.474438E1,9.122858E1,3.7695602E1,2.668912E0,3.7155212E1,6.0946903E0,0E0,0E0,0E0,0E0,0E0,0E0,0E0,0E0,0E0,0E0,0E0,0E0,0E0,0E0,0E0],"parents":[2147483647,0,0,1,1,2,2,4,4,5,5,6,6,7,7,8,8,11,11,12,12,13,13,14,14,15,15,16,16,17,17,18,18,19,19],"right_children":[2,4,6,-1,8,10,12,14,16,-1,-1,18,20,22,24,26,28,30,32,34,-1,-1,-1,-1,-1,-1,-1,-1,-1,-1,-1,-1,-1,-1,-1],"split_conditions":[5.091E2,4.6506E2,5.0978E2,-2.1495035E-1,4.9298E2,5.0903E2,5.3592E2,4.6788E6,4.9875E2,-2.7634034E-1,-5.545202E-1,5.0264E2,5.1549E6,4.2387E6,4.961E2,4.9285E2,3.9332E6,5.0346E2,5.0264E2,5.273E2,6.801208E-2,1.7680417E-1,3.7640113E-2,1.8513607E-2,-9.3807794E-2,1.6007213E-1,3.703663E-1,1.5138367E-1,-1.815857E-2,-7.460709E-2,-8.80394E-3,-5.1778793E-2,-2.613334E-1,-1.2560959E-1,-2.2015763E-2],"split_indices":[22,2,71,0,78,21,78,32,94,0,0,72,81,60,8,94,11,66,79,36,0,0,0,0,0,0,0,0,0,0,0,0,0,0,0],"split_type":[0,0,0,0,0,0,0,0,0,0,0,0,0,0,0,0,0,0,0,0,0,0,0,0,0,0,0,0,0,0,0,0,0,0,0],"sum_hessian":[1.41E2,9.4E1,4.7E1,6E0,8.8E1,9E0,3.8E1,5E1,3.8E1,4E0,5E0,2.8E1,1E1,3.1E1,1.9E1,2.5E1,1.3E1,6E0,2.2E1,6E0,4E0,1.5E1,1.6E1,1.2E1,7E0,1.4E1,1.1E1,4E0,9E0,3E0,3E0,3E0,1.9E1,3E0,3E0],"tree_param":{"num_deleted":"0","num_feature":"98","num_nodes":"35","size_leaf_vector":"1"}},{"base_weights":[-1.341226E-2,1.9433191E0,-4.563638E0,-4.1147766E0,2.3737803E0,-7.46285E0,-2.9066794E0,-1.0912895E-1,-2.50914E-1,1.054643E0,3.5637095E0,-5.249433E-1,-2.7022013E-1,-3.4501088E0,-1.2425741E-2,1.8289404E0,-6.675008E-1,4.045048E0,-7.405396E-2,-2.9811708E-2,-3.9910722E0,-5.782776E-2,1.088833E-1,2.662023E-3,-1.3314247E-1,2.792973E-1,8.212273E-2,-2.563081E-1,-8.238335E-2],"categories":[],"categories_nodes":[],"categories_segments":[],"categories_sizes":[],"default_left":[0,0,0,0,0,0,0,0,0,0,0,0,0,0,0,0,0,0,0,0,0,0,0,0,0,0,0,0,0],"id":22,"left_children":[1,3,5,7,9,11,13,-1,-1,15,17,-1,-1,19,-1,21,23,25,-1,-1,27,-1,-1,-1,-1,-1,-1,-1,-1],"loss_changes":[1.2731757E3,2.7054507E2,1.8487457E2,1.2674332E0,1.437915E2,3.7002075E1,4.103383E1,0E0,0E0,6.255958E1,1.2497528E2,0E0,0E0,3.4672546E1,0E0,3.583439E1,2.1713722E1,1.5742218E2,0E0,0E0,4.4753326E1,0E0,0E0,0E0,0E0,0E0,0E0,0E0,0E0],"parents":[2147483647,0,0,1,1,2,2,3,3,4,4,5,5,6,6,9,9,10,10,13,13,15,15,16,16,17,17,20,20],"right_children":[2,4,6,8,10,12,14,-1,-1,16,18,-1,-1,20,-1,22,24,26,-1,-1,28,-1,-1,-1,-1,-1,-1,-1,-1],"split_conditions":[5.091E2,4.6506E2,5.21E2,4.8E2,4.8614E2,3.669E6,5.3592E2,-1.0912895E-1,-2.50914E-1,4.7798E6,5.0643E2,-5.249433E-1,-2.7022013E-1,4.9947E2,-1.2425741E-2,4.63E2,4.9575E2,4.9961E2,-7.405396E-2,-2.9811708E-2,5.9231E6,-5.782776E-2,1.088833E-1,2.662023E-3,-1.3314247E-1,2.792973E-1,8.212273E-2,-2.563081E-1,-8.238335E-2],"split_indices":[15,2,22,50,72,74,85,0,0,25,0,0,0,86,0,79,0,85,0,0,25,0,0,0,0,0,0,0,0],"split_type":[0,0,0,0,0,0,0,0,0,0,0,0,0,0,0,0,0,0,0,0,0,0,0,0,0,0,0,0,0],"sum_hessian":[1.41E2,9.9E1,4.2E1,6E0,9.3E1,1.4E1,2.8E1,3E0,3E0,4.5E1,4.8E1,4E0,1E1,2.3E1,5E0,3.1E1,1.4E1,4.4E1,4E0,4E0,1.9E1,3E0,2.8E1,1.1E1,3E0,2.6E1,1.8E1,1.2E1,7E0],"tree_param":{"num_deleted":"0","num_feature":"98","num_nodes":"29","size_leaf_vector":"1"}},{"base_weights":[-9.338191E-2,1.6816412E0,-3.9886854E0,-2.253841E0,2.2886312E0,-7.078476E0,-2.815366E0,1.0511125E-2,-3.9534187E0,2.5865788E0,-1.1072083E-1,-1.6655235E-1,-3.9787513E-1,-3.6752589E0,-6.0512197E-1,5.9664916E-2,-5.8745194E-2,-2.3678468E-1,-9.936104E-2,1.1421902E0,3.7235394E0,-1.2419395E0,-4.552553E0,-1.0580597E-1,5.606079E-1,1.3037826E-1,1.8278621E-2,2.6251832E-1,9.096285E-2,-7.6834105E-2,-2.8151322E-2,-2.5177258E-1,-8.017731E-2,6.2197115E-2,-1.3143921E-2],"categories":[],"categories_nodes":[],"categories_segments":[],"categories_sizes":[],"default_left":[0,0,0,0,0,0,0,0,0,0,0,0,0,0,0,0,0,0,0,0,0,0,0,0,0,0,0,0,0,0,0,0,0,0,0],"id":23,"left_children":[1,3,5,7,9,11,13,15,17,19,-1,-1,-1,21,23,-1,-1,-1,-1,25,27,29,31,-1,33,-1,-1,-1,-1,-1,-1,-1,-1,-1,-1],"loss_changes":[1.01618854E3,2.4642682E2,1.4683582E2,5.3919746E1,1.2379495E2,1.3022278E1,6.429605E1,1.1216666E1,2.8939972E0,1.3205072E2,0E0,0E0,0E0,4.7714447E1,2.0561876E1,0E0,0E0,0E0,0E0,4.229213E1,1.24193665E2,7.3564434E-1,1.7558716E1,0E0,4.266021E0,0E0,0E0,0E0,0E0,0E0,0E0,0E0,0E0,0E0,0E0],"parents":[2147483647,0,0,1,1,2,2,3,3,4,4,5,5,6,6,7,7,8,8,9,9,13,13,14,14,19,19,20,20,21,21,22,22,24,24],"right_children":[2,4,6,8,10,12,14,16,18,20,-1,-1,-1,22,24,-1,-1,-1,-1,26,28,30,32,-1,34,-1,-1,-1,-1,-1,-1,-1,-1,-1,-1],"split_conditions":[5.091E2,4.7432E2,5.1433E2,4.8314E2,5.0643E2,5.0618E2,5.3592E2,4.712E2,4.8911E2,4.8344E2,-1.1072083E-1,-1.6655235E-1,-3.9787513E-1,5.0283E2,5.36E2,5.9664916E-2,-5.8745194E-2,-2.3678468E-1,-9.936104E-2,4.792E2,4.9572E2,5.2222E2,5.3258E2,-1.0580597E-1,5.2545E2,1.3037826E-1,1.8278621E-2,2.6251832E-1,9.096285E-2,-7.6834105E-2,-2.8151322E-2,-2.5177258E-1,-8.017731E-2,6.2197115E-2,-1.3143921E-2],"split_indices":[15,0,43,71,0,31,64,7,77,93,0,0,0,72,71,0,0,0,0,9,66,78,10,0,7,0,0,0,0,0,0,0,0,0,0],"split_type":[0,0,0,0,0,0,0,0,0,0,0,0,0,0,0,0,0,0,0,0,0,0,0,0,0,0,0,0,0,0,0,0,0,0,0],"sum_hessian":[1.45E2,1E2,4.5E1,1.3E1,8.7E1,1.1E1,3.4E1,6E0,7E0,8.2E1,5E0,3E0,8E0,2.4E1,1E1,3E0,3E0,4E0,3E0,3.7E1,4.5E1,7E0,1.7E1,4E0,6E0,1.2E1,2.5E1,2.4E1,2.1E1,4E0,3E0,1.4E1,3E0,3E0,3E0],"tree_param":{"num_deleted":"0","num_feature":"98","num_nodes":"35","size_leaf_vector":"1"}},{"base_weights":[-2.2863116E-2,1.7338108E0,-3.5357244E0,-2.243145E0,2.5173233E0,-7.9819684E0,-2.6903725E0,-2.4149323E-1,-3.7731526E0,9.7206116E-1,3.2147212E0,-4.8216972E-1,-2.1625252E-1,-2.3487256E-1,-1.697876E0,-4.7307435E-2,3.4984972E-2,-2.2900112E-1,-8.097801E-2,2.0143878E0,-6.524658E-2,3.7100608E0,-9.724045E-2,-2.3288043E0,6.177281E-1,3.6259677E-2,1.5079062E-1,1.4529558E-2,-5.1374435E-2,8.6542256E-2,2.2486392E-1,-4.5513917E-2,4.716835E-2,-2.0451267E-1,-7.3325664E-2,7.404442E-2,-1.999321E-2],"categories":[],"categories_nodes":[],"categories_segments":[],"categories_sizes":[],"default_left":[0,0,0,0,0,0,0,0,0,0,0,0,0,0,0,0,0,0,0,0,0,0,0,0,0,0,0,0,0,0,0,0,0,0,0,0,0],"id":24,"left_children":[1,3,5,7,9,11,13,15,17,19,21,-1,-1,-1,23,-1,-1,-1,-1,25,27,29,31,33,35,-1,-1,-1,-1,-1,-1,-1,-1,-1,-1,-1,-1],"loss_changes":[8.700635E2,2.9855017E2,1.551817E2,4.8089485E1,8.201047E1,8.217163E-1,7.369708E1,5.9677515E0,8.22139E0,2.8242989E1,8.895026E1,0E0,0E0,0E0,4.3807007E1,0E0,0E0,0E0,0E0,1.4596355E1,5.0922084E0,6.544531E1,7.6271534E0,2.893589E1,6.740571E0,0E0,0E0,0E0,0E0,0E0,0E0,0E0,0E0,0E0,0E0,0E0,0E0],"parents":[2147483647,0,0,1,1,2,2,3,3,4,4,5,5,6,6,7,7,8,8,9,9,10,10,14,14,19,19,20,20,21,21,22,22,23,23,24,24],"right_children":[2,4,6,8,10,12,14,16,18,20,22,-1,-1,-1,24,-1,-1,-1,-1,26,28,30,32,34,36,-1,-1,-1,-1,-1,-1,-1,-1,-1,-1,-1,-1],"split_conditions":[5.0311E2,4.753E2,3.4433E6,4.8314E2,4.806E2,5.146E2,4.001E6,4.7631E2,4.7013E2,4.5304E6,5.0274E2,-4.8216972E-1,-2.1625252E-1,-2.3487256E-1,5.3572E2,-4.7307435E-2,3.4984972E-2,-2.2900112E-1,-8.097801E-2,4.792E2,5.8893E6,3.6139E6,4.3856E6,4.3856E6,5.231E2,3.6259677E-2,1.5079062E-1,1.4529558E-2,-5.1374435E-2,8.6542256E-2,2.2486392E-1,-4.5513917E-2,4.716835E-2,-2.0451267E-1,-7.3325664E-2,7.404442E-2,-1.999321E-2],"split_indices":[3,0,53,71,94,17,81,59,3,39,80,0,0,0,85,0,0,0,0,65,60,32,39,25,7,0,0,0,0,0,0,0,0,0,0,0,0],"split_type":[0,0,0,0,0,0,0,0,0,0,0,0,0,0,0,0,0,0,0,0,0,0,0,0,0,0,0,0,0,0,0,0,0,0,0,0,0],"sum_hessian":[1.39E2,9.3E1,4.6E1,1.5E1,7.8E1,6E0,4E1,7E0,8E0,2.5E1,5.3E1,3E0,3E0,1.2E1,2.8E1,4E0,3E0,5E0,3E0,1.2E1,1.3E1,4.6E1,7E0,2.2E1,6E0,6E0,6E0,1E1,3E0,1.4E1,3.2E1,4E0,3E0,6E0,1.6E1,3E0,3E0],"tree_param":{"num_deleted":"0","num_feature":"98","num_nodes":"37","size_leaf_vector":"1"}},{"base_weights":[4.6043005E-2,1.6780267E0,-3.8161144E0,-3.640213E0,2.1321144E0,-5.9611764E0,-2.2048278E0,-2.244281E-1,-8.348618E-2,1.0608236E0,3.1798313E0,-3.29959E-1,-1.1189347E-1,-3.104103E0,-5.4550475E-1,1.4237438E0,-1.0999359E-1,4.137354E0,9.889628E-1,-4.2006803E0,-7.412205E-2,3.2273647E-1,-9.642754E-2,1.1031933E-1,1.801043E-2,1.17746316E-1,3.8224792E-1,8.472493E-2,-6.874428E-2,-2.6671174E-1,-1.11349486E-1,3.7834167E-2,-9.594726E-3],"categories":[],"categories_nodes":[],"categories_segments":[],"categories_sizes":[],"default_left":[0,0,0,0,0,0,0,0,0,0,0,0,0,0,0,0,0,0,0,0,0,0,0,0,0,0,0,0,0,0,0,0,0],"id":25,"left_children":[1,3,5,7,9,11,13,-1,-1,15,17,-1,-1,19,21,23,-1,25,27,29,-1,31,-1,-1,-1,-1,-1,-1,-1,-1,-1,-1,-1],"loss_changes":[8.699115E2,2.420112E2,1.285653E2,5.878647E0,9.764365E1,2.5615112E1,3.5611404E1,0E0,0E0,5.7567196E1,9.030957E1,0E0,0E0,2.222519E1,1.2630589E1,3.4164703E1,0E0,1.758103E2,2.734644E1,8.256287E0,0E0,1.7084609E0,0E0,0E0,0E0,0E0,0E0,0E0,0E0,0E0,0E0,0E0,0E0],"parents":[2147483647,0,0,1,1,2,2,3,3,4,4,5,5,6,6,9,9,10,10,13,13,14,14,15,15,17,17,18,18,19,19,21,21],"right_children":[2,4,6,8,10,12,14,-1,-1,16,18,-1,-1,20,22,24,-1,26,28,30,-1,32,-1,-1,-1,-1,-1,-1,-1,-1,-1,-1,-1],"split_conditions":[5.0978E2,4.6506E2,5.2141E2,5.7756E6,4.872E2,5.2875E6,5.3327E2,-2.244281E-1,-8.348618E-2,4.9696E2,5.0211E2,-3.29959E-1,-1.1189347E-1,5.3327E2,5.293E2,4.5304E6,-1.0999359E-1,4.001E6,5.1117E6,4.3856E6,-7.412205E-2,5.2545E2,-9.642754E-2,1.1031933E-1,1.801043E-2,1.17746316E-1,3.8224792E-1,8.472493E-2,-6.874428E-2,-2.6671174E-1,-1.11349486E-1,3.7834167E-2,-9.594726E-3],"split_indices":[1,2,10,4,65,53,64,0,0,0,78,0,0,1,0,39,0,67,25,25,0,7,0,0,0,0,0,0,0,0,0,0,0],"split_type":[0,0,0,0,0,0,0,0,0,0,0,0,0,0,0,0,0,0,0,0,0,0,0,0,0,0,0,0,0,0,0,0,0],"sum_hessian":[1.36E2,9.6E1,4E1,7E0,8.9E1,1.6E1,2.4E1,4E0,3E0,4.5E1,4.4E1,1.3E1,3E0,1.5E1,9E0,4.1E1,4E0,3E1,1.4E1,8E0,7E0,6E0,3E0,2.3E1,1.8E1,2.1E1,9E0,1.1E1,3E0,4E0,4E0,3E0,3E0],"tree_param":{"num_deleted":"0","num_feature":"98","num_nodes":"33","size_leaf_vector":"1"}},{"base_weights":[-6.612805E-2,1.8129929E0,-3.6272507E0,-2.7198334E0,2.2231076E0,-6.6946216E0,-2.2966666E0,-1.913501E-1,-3.2795716E-2,9.9532497E-1,3.3706367E0,-1.7096101E-1,-8.134376E0,-3.3195257E0,-1.1462148E0,2.4978137E0,2.356641E-1,4.5572214E0,1.469423E0,-4.6964365E-1,-2.1065179E-1,-3.414459E-2,-4.2810855E0,-2.2719696E0,2.3198107E-1,-6.4281463E-3,1.6128929E-1,1.037899E-1,-2.8248716E-3,3.003663E-1,1.01684295E-1,-1.4356995E-2,1.4516938E-1,-8.78643E-2,-2.4312484E-1,-5.020485E-2,-1.3359506E-1,4.8965964E-2,-4.7351073E-2],"categories":[],"categories_nodes":[],"categories_segments":[],"categories_sizes":[],"default_left":[0,0,0,0,0,0,0,0,0,0,0,0,0,0,0,0,0,0,0,0,0,0,0,0,0,0,0,0,0,0,0,0,0,0,0,0,0,0,0],"id":26,"left_children":[1,3,5,7,9,11,13,-1,-1,15,17,-1,19,21,23,25,27,29,31,-1,-1,-1,33,35,37,-1,-1,-1,-1,-1,-1,-1,-1,-1,-1,-1,-1,-1,-1],"loss_changes":[9.3004193E2,1.7521347E2,1.8053168E2,1.5770668E1,1.1499408E2,3.820752E1,3.738138E1,0E0,0E0,4.7349392E1,9.030939E1,0E0,4.8424683E0,4.2711563E1,2.8454245E1,2.7181725E1,1.5708151E1,8.2927124E1,4.617296E1,0E0,0E0,0E0,1.053096E1,2.3877792E0,8.857459E0,0E0,0E0,0E0,0E0,0E0,0E0,0E0,0E0,0E0,0E0,0E0,0E0,0E0,0E0],"parents":[2147483647,0,0,1,1,2,2,3,3,4,4,5,5,6,6,9,9,10,10,12,12,13,13,14,14,15,15,16,16,17,17,18,18,22,22,23,23,24,24],"right_children":[2,4,6,8,10,12,14,-1,-1,16,18,-1,20,22,24,26,28,30,32,-1,-1,-1,34,36,38,-1,-1,-1,-1,-1,-1,-1,-1,-1,-1,-1,-1,-1,-1],"split_conditions":[5.074E2,4.7007E2,5.0978E2,4.7007E2,4.8344E2,5.0978E2,4.9778E6,-1.913501E-1,-3.2795716E-2,4.8248E2,4.9572E2,-1.7096101E-1,5.1077E2,5.15E2,5.2388E2,4.7415E2,3.1722E6,5.0025E2,4.9264E2,-4.6964365E-1,-2.1065179E-1,-3.414459E-2,5.1215E2,4.9856E2,5.2545E2,-6.4281463E-3,1.6128929E-1,1.037899E-1,-2.8248716E-3,3.003663E-1,1.01684295E-1,-1.4356995E-2,1.4516938E-1,-8.78643E-2,-2.4312484E-1,-5.020485E-2,-1.3359506E-1,4.8965964E-2,-4.7351073E-2],"split_indices":[15,14,85,0,93,29,46,0,0,15,87,0,9,0,57,29,53,29,3,0,0,0,59,58,7,0,0,0,0,0,0,0,0,0,0,0,0,0,0],"split_type":[0,0,0,0,0,0,0,0,0,0,0,0,0,0,0,0,0,0,0,0,0,0,0,0,0,0,0,0,0,0,0,0,0,0,0,0,0,0,0],"sum_hessian":[1.37E2,9E1,4.7E1,7E0,8.3E1,1.3E1,3.4E1,4E0,3E0,4.1E1,4.2E1,5E0,8E0,1.7E1,1.7E1,1.3E1,2.8E1,2.5E1,1.7E1,5E0,3E0,5E0,1.2E1,9E0,8E0,3E0,1E1,3E0,2.5E1,1.5E1,1E1,8E0,9E0,3E0,9E0,3E0,6E0,5E0,3E0],"tree_param":{"num_deleted":"0","num_feature":"98","num_nodes":"39","size_leaf_vector":"1"}},{"base_weights":[-1.0842962E-1,1.5169296E0,-3.2876768E0,3.787384E-1,3.3597343E0,-6.154165E0,-2.2408566E0,-3.370091E0,8.7610507E-1,6.14338E0,1.4356079E0,-3.745432E-1,-1.3923065E-1,-3.1291687E0,-1.0639684E0,-2.1065865E-1,-8.422432E-2,2.085997E0,5.4735184E-2,1.00728095E-1,4.1066644E-1,2.4889567E0,-7.188721E-1,-3.7092052E0,5.9139254E-3,-1.5759343E0,4.9695205E-2,1.5646592E-1,-2.822876E-5,5.7117533E-2,-2.4578026E-2,2.7088167E-3,1.5465686E-1,-9.129601E-2,1.5527039E-2,-2.3734193E-1,-9.7425655E-2,-4.578298E-2,-1.1518454E-1],"categories":[],"categories_nodes":[],"categories_segments":[],"categories_sizes":[],"default_left":[0,0,0,0,0,0,0,0,0,0,0,0,0,0,0,0,0,0,0,0,0,0,0,0,0,0,0,0,0,0,0,0,0,0,0,0,0,0,0],"id":27,"left_children":[1,3,5,7,9,11,13,15,17,19,21,-1,-1,23,25,-1,-1,27,29,-1,-1,31,33,35,-1,37,-1,-1,-1,-1,-1,-1,-1,-1,-1,-1,-1,-1,-1],"loss_changes":[7.18091E2,1.9169421E2,1.2724222E2,1.1109605E2,1.7864362E2,3.318979E1,3.4306656E1,2.8506851E0,5.156181E1,1.0310388E2,5.1716465E1,0E0,0E0,3.8111465E1,1.9476858E1,0E0,0E0,4.5717804E1,1.9574642E1,0E0,0E0,2.1898125E1,9.683898E0,2.180893E1,0E0,4.6178703E0,0E0,0E0,0E0,0E0,0E0,0E0,0E0,0E0,0E0,0E0,0E0,0E0,0E0],"parents":[2147483647,0,0,1,1,2,2,3,3,4,4,5,5,6,6,7,7,8,8,9,9,10,10,13,13,14,14,17,17,18,18,21,21,22,22,23,23,25,25],"right_children":[2,4,6,8,10,12,14,16,18,20,22,-1,-1,24,26,-1,-1,28,30,-1,-1,32,34,36,-1,38,-1,-1,-1,-1,-1,-1,-1,-1,-1,-1,-1,-1,-1],"split_conditions":[5.0311E2,4.9442E2,3.8735E6,4.7007E2,4.9496E2,5.1645E2,5.2141E2,4.5733E6,4.0561E6,3.5662E6,4.6931E6,-3.745432E-1,-1.3923065E-1,6.3843E6,5.3738E2,-2.1065865E-1,-8.422432E-2,4.9034E2,4.796E2,1.00728095E-1,4.1066644E-1,4.7977E2,4.6636E6,4.9456E6,5.9139254E-3,5.2679E2,4.9695205E-2,1.5646592E-1,-2.822876E-5,5.7117533E-2,-2.4578026E-2,2.7088167E-3,1.5465686E-1,-9.129601E-2,1.5527039E-2,-2.3734193E-1,-9.7425655E-2,-4.578298E-2,-1.1518454E-1],"split_indices":[38,78,67,0,80,3,92,4,25,25,67,0,0,95,64,0,0,52,15,0,0,0,4,25,0,93,0,0,0,0,0,0,0,0,0,0,0,0,0],"split_type":[0,0,0,0,0,0,0,0,0,0,0,0,0,0,0,0,0,0,0,0,0,0,0,0,0,0,0,0,0,0,0,0,0,0,0,0,0,0,0],"sum_hessian":[1.37E2,9.1E1,4.6E1,5.7E1,3.4E1,1.1E1,3.5E1,6E0,5.1E1,1.3E1,2.1E1,7E0,4E0,1.9E1,1.6E1,3E0,3E0,2E1,3.1E1,5E0,8E0,1.4E1,7E0,1.6E1,3E0,1.3E1,3E0,1.3E1,7E0,1E1,2.1E1,3E0,1.1E1,3E0,4E0,9E0,7E0,8E0,5E0],"tree_param":{"num_deleted":"0","num_feature":"98","num_nodes":"39","size_leaf_vector":"1"}},{"base_weights":[-1.9931905E-1,1.3833638E0,-3.2257476E0,-1.9097508E0,1.9641463E0,-5.6301312E0,-2.1408324E0,-4.3426514E-2,-3.3040657E0,2.3150244E0,-3.5157916E-1,-4.9747087E-2,-3.4019125E-1,-2.7992835E0,-7.697211E-4,5.3570557E-2,-5.7370376E-2,-1.9816864E-1,-8.2695775E-2,1.5224297E0,3.3646228E0,-8.3961487E-1,3.5619356E-2,-3.570808E0,-1.2077637E0,-5.536461E-2,3.6852013E-2,1.0546223E-1,-1.1287689E-3,2.9407427E-1,6.9504775E-2,-1.4838867E-2,-6.54129E-2,-2.235769E-1,-8.226296E-2,-7.343881E-2,-2.2452546E-2],"categories":[],"categories_nodes":[],"categories_segments":[],"categories_sizes":[],"default_left":[0,0,0,0,0,0,0,0,0,0,0,0,0,0,0,0,0,0,0,0,0,0,0,0,0,0,0,0,0,0,0,0,0,0,0,0,0],"id":28,"left_children":[1,3,5,7,9,11,13,15,17,19,21,-1,-1,23,25,-1,-1,-1,-1,27,29,31,-1,33,35,-1,-1,-1,-1,-1,-1,-1,-1,-1,-1,-1,-1],"loss_changes":[6.558856E2,1.7588348E2,1.1054883E2,3.6287926E1,6.3379303E1,6.9394684E1,4.7908157E1,9.844663E0,2.1485596E0,5.0615295E1,6.3099194E0,0E0,0E0,2.761261E1,8.163748E0,0E0,0E0,0E0,0E0,3.6312897E1,1.3097336E2,1.6469154E0,0E0,2.212796E1,1.3207808E0,0E0,0E0,0E0,0E0,0E0,0E0,0E0,0E0,0E0,0E0,0E0,0E0],"parents":[2147483647,0,0,1,1,2,2,3,3,4,4,5,5,6,6,7,7,8,8,9,9,10,10,13,13,14,14,19,19,20,20,21,21,23,23,24,24],"right_children":[2,4,6,8,10,12,14,16,18,20,22,-1,-1,24,26,-1,-1,-1,-1,28,30,32,-1,34,36,-1,-1,-1,-1,-1,-1,-1,-1,-1,-1,-1,-1],"split_conditions":[5.0311E2,4.7432E2,5.1575E2,4.8314E2,5.2976E6,5.0766E2,5.3592E2,4.712E2,4.7747E2,4.945E2,1.01537E7,-4.9747087E-2,-3.4019125E-1,5.7557E6,5.2314E2,5.3570557E-2,-5.7370376E-2,-1.9816864E-1,-8.2695775E-2,4.5959E6,4.939E2,4.6744E6,3.5619356E-2,5.3327E2,5.13E2,-5.536461E-2,3.6852013E-2,1.0546223E-1,-1.1287689E-3,2.9407427E-1,6.9504775E-2,-1.4838867E-2,-6.54129E-2,-2.235769E-1,-8.226296E-2,-7.343881E-2,-2.2452546E-2],"split_indices":[38,0,43,71,39,22,71,7,31,78,39,0,0,25,24,0,0,0,0,18,84,60,0,8,65,0,0,0,0,0,0,0,0,0,0,0,0],"split_type":[0,0,0,0,0,0,0,0,0,0,0,0,0,0,0,0,0,0,0,0,0,0,0,0,0,0,0,0,0,0,0,0,0,0,0,0,0],"sum_hessian":[1.35E2,8.9E1,4.6E1,1.3E1,7.6E1,1.3E1,3.3E1,6E0,7E0,6.6E1,1E1,3E0,1E1,2.5E1,8E0,3E0,3E0,4E0,3E0,3.9E1,2.7E1,7E0,3E0,1.6E1,9E0,3E0,5E0,2.8E1,1.1E1,1.1E1,1.6E1,4E0,3E0,1E1,6E0,6E0,3E0],"tree_param":{"num_deleted":"0","num_feature":"98","num_nodes":"37","size_leaf_vector":"1"}},{"base_weights":[-4.5677297E-2,1.4232666E0,-3.5556974E0,-3.1262991E0,1.753959E0,-6.289085E0,-2.471086E0,-7.67807E-2,-1.9677047E-1,8.488221E-1,2.7220895E0,-1.5389456E-1,-4.226049E-1,-3.064284E0,-3.826065E-1,1.5123055E0,-2.7837813E-1,4.151176E0,1.2367859E0,-2.1588509E-1,-1.8605783E0,-1.1566849E-1,6.192627E-2,-5.5619206E-2,9.711739E-2,3.5668295E-2,-3.954902E-2,1.02207184E-1,3.0361885E-1,1.6867104E-1,4.558468E-3,-1.4432298E-1,-4.8496332E-2],"categories":[],"categories_nodes":[],"categories_segments":[],"categories_sizes":[],"default_left":[0,0,0,0,0,0,0,0,0,0,0,0,0,0,0,0,0,0,0,0,0,0,0,0,0,0,0,0,0,0,0,0,0],"id":29,"left_children":[1,3,5,7,9,11,13,-1,-1,15,17,-1,-1,19,21,23,25,27,29,-1,31,-1,-1,-1,-1,-1,-1,-1,-1,-1,-1,-1,-1],"loss_changes":[7.1659186E2,1.5292505E2,1.06010315E2,2.9660034E0,7.830817E1,5.038977E1,3.7232925E1,0E0,0E0,3.7067047E1,8.8261475E1,0E0,0E0,2.8176498E1,2.7905342E1,3.7151184E1,1.0223293E1,7.664389E1,5.5991024E1,0E0,9.992184E0,0E0,0E0,0E0,0E0,0E0,0E0,0E0,0E0,0E0,0E0,0E0,0E0],"parents":[2147483647,0,0,1,1,2,2,3,3,4,4,5,5,6,6,9,9,10,10,13,13,14,14,15,15,16,16,17,17,18,18,20,20],"right_children":[2,4,6,8,10,12,14,-1,-1,16,18,-1,-1,20,22,24,26,28,30,-1,32,-1,-1,-1,-1,-1,-1,-1,-1,-1,-1,-1,-1],"split_conditions":[5.0975E2,4.6506E2,5.0978E2,4.8E2,4.9314E2,5.0839E2,5.3592E2,-7.67807E-2,-1.9677047E-1,4.6744E6,4.9572E2,-1.5389456E-1,-4.226049E-1,5.2873E2,4.9778E6,4.63E2,4.7372E2,3.9563E6,4.9451E2,-2.1588509E-1,5.0291E6,-1.1566849E-1,6.192627E-2,-5.5619206E-2,9.711739E-2,3.5668295E-2,-3.954902E-2,1.02207184E-1,3.0361885E-1,1.6867104E-1,4.558468E-3,-1.4432298E-1,-4.8496332E-2],"split_indices":[8,2,71,50,64,21,78,0,0,18,87,0,0,3,81,79,93,74,58,0,74,0,0,0,0,0,0,0,0,0,0,0,0],"split_type":[0,0,0,0,0,0,0,0,0,0,0,0,0,0,0,0,0,0,0,0,0,0,0,0,0,0,0,0,0,0,0,0,0],"sum_hessian":[1.37E2,9.7E1,4E1,6E0,9.1E1,1E1,3E1,3E0,3E0,4.8E1,4.3E1,5E0,5E0,2.3E1,7E0,3E1,1.8E1,2.1E1,2.2E1,1E1,1.3E1,3E0,4E0,4E0,2.6E1,6E0,1.2E1,1.1E1,1E1,7E0,1.5E1,5E0,8E0],"tree_param":{"num_deleted":"0","num_feature":"98","num_nodes":"33","size_leaf_vector":"1"}},{"base_weights":[-2.3407452E-2,1.6559768E0,-3.024362E0,2.5886568E-1,3.3404043E0,-4.2489634E0,-1.1587021E0,-1.4488348E-1,7.036358E-1,3.2478282E-1,2.6654978E0,-2.1448886E0,-2.9647514E-1,4.594901E-1,-1.8850337E0,1.7725236E0,-9.410889E-2,1.3270986E0,4.1831036E0,-1.9795303E-1,-6.9711983E-1,-1.8909455E-3,4.2096328E-2,-2.568924E0,-4.170772E-2,1.2433823E-1,-3.5209656E-3,1.5584565E-2,-4.9769785E-2,-3.75943E-2,9.658101E-2,2.7649593E-1,1.1567002E-1,-5.360387E-2,1.9798279E-3,-6.763802E-2,-1.514035E-1],"categories":[],"categories_nodes":[],"categories_segments":[],"categories_sizes":[],"default_left":[0,0,0,0,0,0,0,0,0,0,0,0,0,0,0,0,0,0,0,0,0,0,0,0,0,0,0,0,0,0,0,0,0,0,0,0,0],"id":30,"left_children":[1,3,5,7,9,11,13,-1,15,-1,17,19,-1,21,23,25,27,29,31,-1,33,-1,-1,35,-1,-1,-1,-1,-1,-1,-1,-1,-1,-1,-1,-1,-1],"loss_changes":[6.601766E2,1.9681522E2,1.0245715E2,6.8023735E1,6.3606842E1,8.628934E1,2.437304E1,0E0,3.5980194E1,0E0,6.1476944E1,3.4011093E1,0E0,1.3631645E0,7.918728E0,2.3868622E1,9.4538145E0,2.5331398E1,2.4979248E1,0E0,2.5285873E0,0E0,0E0,3.709221E-1,0E0,0E0,0E0,0E0,0E0,0E0,0E0,0E0,0E0,0E0,0E0,0E0,0E0],"parents":[2147483647,0,0,1,1,2,2,3,3,4,4,5,5,6,6,8,8,10,10,11,11,13,13,14,14,15,15,16,16,17,17,18,18,20,20,23,23],"right_children":[2,4,6,8,10,12,14,-1,16,-1,18,20,-1,22,24,26,28,30,32,-1,34,-1,-1,36,-1,-1,-1,-1,-1,-1,-1,-1,-1,-1,-1,-1,-1],"split_conditions":[5.0274E2,4.8627E2,5.2191E2,4.6506E2,4.9057E2,5.0963E2,5.2316E2,-1.4488348E-1,4.1306E6,3.2478282E-1,4.0589E6,3.7487E6,-2.9647514E-1,5.2569E2,5.36E2,4.5571E6,4.8263E2,4.8889E2,4.9592E2,-1.9795303E-1,5.0357E2,-1.8909455E-3,4.2096328E-2,5.1591E2,-4.170772E-2,1.2433823E-1,-3.5209656E-3,1.5584565E-2,-4.9769785E-2,-3.75943E-2,9.658101E-2,2.7649593E-1,1.1567002E-1,-5.360387E-2,1.9798279E-3,-6.763802E-2,-1.514035E-1],"split_indices":[17,30,3,2,28,7,9,0,11,0,39,32,0,0,15,67,94,23,24,0,3,0,0,78,0,0,0,0,0,0,0,0,0,0,0,0,0],"split_type":[0,0,0,0,0,0,0,0,0,0,0,0,0,0,0,0,0,0,0,0,0,0,0,0,0,0,0,0,0,0,0,0,0,0,0,0,0],"sum_hessian":[1.29E2,8.3E1,4.6E1,4.6E1,3.7E1,2.7E1,1.9E1,5E0,4.1E1,5E0,3.2E1,1.3E1,1.4E1,6E0,1.3E1,1.7E1,2.4E1,1.8E1,1.4E1,5E0,8E0,3E0,3E0,7E0,6E0,1.2E1,5E0,1.7E1,7E0,4E0,1.4E1,7E0,7E0,5E0,3E0,3E0,4E0],"tree_param":{"num_deleted":"0","num_feature":"98","num_nodes":"37","size_leaf_vector":"1"}}]},"name":"gbtree"},"learner_model_param":{"base_score":"[4.9097968E2]","boost_from_average":"1","num_class":"0","num_feature":"98","num_target":"1"},"objective":{"name":"reg:squarederror","reg_loss_param":{"scale_pos_weight":"1"}}},"version":[3,2,0]}