{"learner":{"attributes":{"best_iteration":"0","best_score":"9.378799881269458"},"feature_names":[],"feature_types":[],"gradient_booster":{"model":{"cats":{"enc":[],"feature_segments":[],"sorted_idx":[]},"gbtree_model_param":{"num_parallel_tree":"1","num_trees":"31"},"iteration_indptr":[0,1,2,3,4,5,6,7,8,9,10,11,12,13,14,15,16,17,18,19,20,21,22,23,24,25,26,27,28,29,30,31],"tree_info":[0,0,0,0,0,0,0,0,0,0,0,0,0,0,0,0,0,0,0,0,0,0,0,0,0,0,0,0,0,0,0],"trees":[{"base_weights":[5.924748E-2,5.1209455E0,-9.445558E0,1.4559398E0,9.449382E0,-1.48832035E1,7.4612087E-1,3.961048E0,-9.211108E0,-1.670935E-1,1.0883774E1,-1.6581898E1,-1.196936E-1,-3.602979E0,8.095132E0,5.2930694E0,5.824562E-1,-5.605975E-1,-2.4839388E-1,8.274423E0,7.166575E-1,-1.0342323E0,-1.2710437E1,-5.824547E0,3.360626E-2,4.9403688E-1,2.1428719E-1,1.8258874E-1,3.898027E-1,1.1453743E-1,-7.955323E-3,4.817388E-1,5.8906253E-2,-3.4189332E-1,-6.9956964E-1,-3.6829346E-1,-1.2208786E-1],"categories":[],"categories_nodes":[],"categories_segments":[],"categories_sizes":[],"default_left":[0,0,0,0,0,0,0,0,0,0,0,0,0,0,0,0,0,0,0,0,0,0,0,0,0,0,0,0,0,0,0,0,0,0,0,0,0],"id":0,"left_children":[1,3,5,7,9,11,13,15,17,-1,19,21,-1,23,25,27,29,-1,-1,31,-1,-1,33,35,-1,-1,-1,-1,-1,-1,-1,-1,-1,-1,-1,-1,-1],"loss_changes":[6.783834E3,1.4457073E3,2.726623E3,1.3993134E3,8.069739E2,6.392031E2,6.044751E2,1.8593207E2,2.9200806E1,0E0,2.2342578E2,1.8183057E2,0E0,1.1788403E2,5.2681274E0,9.47746E1,1.6832949E1,0E0,0E0,2.2033252E2,0E0,0E0,3.221118E1,2.3726105E1,0E0,0E0,0E0,0E0,0E0,0E0,0E0,0E0,0E0,0E0,0E0,0E0,0E0],"parents":[2147483647,0,0,1,1,2,2,3,3,4,4,5,5,6,6,7,7,8,8,10,10,11,11,13,13,14,14,15,15,16,16,19,19,22,22,23,23],"right_children":[2,4,6,8,10,12,14,16,18,-1,20,22,-1,24,26,28,30,-1,-1,32,-1,-1,34,36,-1,-1,-1,-1,-1,-1,-1,-1,-1,-1,-1,-1,-1],"split_conditions":[5.0311E2,4.872E2,5.21E2,4.8667E2,4.9192E2,6.3843E6,5.3592E2,4.806E2,4.8815E2,-1.670935E-1,4.9928E2,5.1575E2,-1.196936E-1,5.2817E2,5.15E2,4.792E2,4.63E2,-5.605975E-1,-2.4839388E-1,4.9802E2,7.166575E-1,-1.0342323E0,5.1215E2,5.3572E2,3.360626E-2,4.9403688E-1,2.1428719E-1,1.8258874E-1,3.898027E-1,1.1453743E-1,-7.955323E-3,4.817388E-1,5.8906253E-2,-3.4189332E-1,-6.9956964E-1,-3.6829346E-1,-1.2208786E-1],"split_indices":[3,16,85,65,57,81,64,93,7,0,85,1,0,10,0,44,16,0,0,51,0,0,31,85,0,0,0,0,0,0,0,0,0,0,0,0,0],"split_type":[0,0,0,0,0,0,0,0,0,0,0,0,0,0,0,0,0,0,0,0,0,0,0,0,0,0,0,0,0,0,0,0,0,0,0,0,0],"sum_hessian":[1.39E2,9.1E1,4.8E1,5E1,4.1E1,3.1E1,1.7E1,4.1E1,9E0,4E0,3.7E1,2.7E1,4E0,1.1E1,6E0,2.9E1,1.2E1,5E0,4E0,2.3E1,1.4E1,1.1E1,1.6E1,7E0,4E0,3E0,3E0,1.9E1,1E1,3E0,9E0,1.9E1,4E0,4E0,1.2E1,4E0,3E0],"tree_param":{"num_deleted":"0","num_feature":"98","num_nodes":"37","size_leaf_vector":"1"}},{"base_weights":[-3.5863E-1,4.475123E0,-8.903757E0,1.01238E0,9.154943E0,-1.4032799E1,7.431448E-1,3.4277024E0,-6.868845E0,-6.8057634E-2,1.0069095E1,-1.605179E1,-9.677709E-2,-2.660175E0,6.9574323E0,1.9376656E0,4.001027E-1,-1.3142191E-1,-9.190544E0,1.1780806E1,6.5377765E0,-1.9366222E1,-1.2148424E1,1.0309296E-1,-4.2829714E0,4.7525713E-1,1.3351822E-1,2.4683641E-1,3.0366007E-2,-5.522693E-1,-2.287178E-1,3.814399E-1,7.1939135E-1,1.3828278E-2,4.1101184E-1,-4.7201806E-1,-1.060753E0,-2.8867075E-1,-6.587736E-1,-2.7969208E-1,-4.5910265E-2],"categories":[],"categories_nodes":[],"categories_segments":[],"categories_sizes":[],"default_left":[0,0,0,0,0,0,0,0,0,0,0,0,0,0,0,0,0,0,0,0,0,0,0,0,0,0,0,0,0,0,0,0,0,0,0,0,0,0,0,0,0],"id":1,"left_children":[1,3,5,7,9,11,13,15,17,-1,19,21,-1,23,25,27,-1,-1,29,31,33,35,37,-1,39,-1,-1,-1,-1,-1,-1,-1,-1,-1,-1,-1,-1,-1,-1,-1,-1],"loss_changes":[5.9464653E3,1.4815929E3,2.583355E3,1.051472E3,3.8862402E2,7.9935596E2,4.2034296E2,2.707647E2,1.03827576E2,0E0,1.4058545E2,1.3991748E2,0E0,1.0844858E2,5.107321E1,1.2866486E2,0E0,0E0,1.797284E1,1.3919897E2,1.45206E2,5.6640625E1,2.869165E1,0E0,3.8971436E1,0E0,0E0,0E0,0E0,0E0,0E0,0E0,0E0,0E0,0E0,0E0,0E0,0E0,0E0,0E0,0E0],"parents":[2147483647,0,0,1,1,2,2,3,3,4,4,5,5,6,6,7,7,8,8,10,10,11,11,13,13,14,14,15,15,18,18,19,19,20,20,21,21,22,22,24,24],"right_children":[2,4,6,8,10,12,14,16,18,-1,20,22,-1,24,26,28,-1,-1,30,32,34,36,38,-1,40,-1,-1,-1,-1,-1,-1,-1,-1,-1,-1,-1,-1,-1,-1,-1,-1],"split_conditions":[5.0281E2,4.872E2,5.21E2,4.9488E2,4.89E2,6.3843E6,5.3329E2,5.2516E6,4.9984E2,-6.8057634E-2,5.0211E2,5.025E2,-9.677709E-2,4.1932E6,4.8589E6,3.9332E6,4.001027E-1,-1.3142191E-1,4.8578E6,4.921E2,4.921E2,5.0025E2,5.1208E2,1.0309296E-1,5.3151E2,4.7525713E-1,1.3351822E-1,2.4683641E-1,3.0366007E-2,-5.522693E-1,-2.287178E-1,3.814399E-1,7.1939135E-1,1.3828278E-2,4.1101184E-1,-4.7201806E-1,-1.060753E0,-2.8867075E-1,-6.587736E-1,-2.7969208E-1,-4.5910265E-2],"split_indices":[3,16,85,71,52,81,50,67,73,0,43,84,0,32,18,81,0,0,11,94,80,9,22,0,0,0,0,0,0,0,0,0,0,0,0,0,0,0,0,0,0],"split_type":[0,0,0,0,0,0,0,0,0,0,0,0,0,0,0,0,0,0,0,0,0,0,0,0,0,0,0,0,0,0,0,0,0,0,0,0,0,0,0,0,0],"sum_hessian":[1.42E2,9.1E1,5.1E1,5.3E1,3.8E1,3.3E1,1.8E1,4.1E1,1.2E1,3E0,3.5E1,2.8E1,5E0,1.2E1,6E0,3.2E1,9E0,5E0,7E0,2.2E1,1.3E1,1.3E1,1.5E1,3E0,9E0,3E0,3E0,9E0,2.3E1,4E0,3E0,1E1,1.2E1,3E0,1E1,3E0,1E1,3E0,1.2E1,6E0,3E0],"tree_param":{"num_deleted":"0","num_feature":"98","num_nodes":"41","size_leaf_vector":"1"}},{"base_weights":[3.1270367E-1,4.4063106E0,-7.9702997E0,1.1448828E0,8.69908E0,-1.3190281E1,8.8246495E-1,3.5134838E0,-6.595588E0,-5.615753E-2,9.821638E0,-8.587494E-2,-1.4957227E1,-2.980724E0,6.0840416E0,2.1559641E0,3.8209748E-1,-1.2594657E-1,-8.828632E0,1.1155411E1,4.580831E0,-9.838463E-1,-1.1072588E1,9.768295E-3,-2.0980893E-1,4.7865325E-1,1.0087586E-2,2.2396497E-1,-1.4499241E-3,-5.3017825E-1,-2.2014046E-1,3.1592342E-1,6.3871324E-1,5.2604675E-2,4.3643647E-1,-3.3010712E-1,-6.5473205E-1],"categories":[],"categories_nodes":[],"categories_segments":[],"categories_sizes":[],"default_left":[0,0,0,0,0,0,0,0,0,0,0,0,0,0,0,0,0,0,0,0,0,0,0,0,0,0,0,0,0,0,0,0,0,0,0,0,0],"id":2,"left_children":[1,3,5,7,9,11,13,15,17,-1,19,-1,21,23,25,27,-1,-1,29,31,33,-1,35,-1,-1,-1,-1,-1,-1,-1,-1,-1,-1,-1,-1,-1,-1],"loss_changes":[4.7143354E3,1.2920925E3,2.1373584E3,1.0132141E3,4.5207202E2,5.621924E2,3.79839E2,2.1891205E2,9.610486E1,0E0,2.0054077E2,0E0,2.404834E2,4.3284103E1,1.6225616E2,1.6765114E2,0E0,0E0,1.6158813E1,1.3853467E2,1.2254816E2,0E0,5.8179077E1,0E0,0E0,0E0,0E0,0E0,0E0,0E0,0E0,0E0,0E0,0E0,0E0,0E0,0E0],"parents":[2147483647,0,0,1,1,2,2,3,3,4,4,5,5,6,6,7,7,8,8,10,10,12,12,13,13,14,14,15,15,18,18,19,19,20,20,22,22],"right_children":[2,4,6,8,10,12,14,16,18,-1,20,-1,22,24,26,28,-1,-1,30,32,34,-1,36,-1,-1,-1,-1,-1,-1,-1,-1,-1,-1,-1,-1,-1,-1],"split_conditions":[5.0311E2,4.872E2,5.21E2,4.9488E2,4.9192E2,4.8973E2,5.36E2,5.2976E6,4.9984E2,-5.615753E-2,4.9762E2,-8.587494E-2,5.025E2,4.9311E2,5.2896E2,4.7466E2,3.8209748E-1,-1.2594657E-1,4.8578E6,4.88E2,4.7685E6,-9.838463E-1,4.3856E6,9.768295E-3,-2.0980893E-1,4.7865325E-1,1.0087586E-2,2.2396497E-1,-1.4499241E-3,-5.3017825E-1,-2.2014046E-1,3.1592342E-1,6.3871324E-1,5.2604675E-2,4.3643647E-1,-3.3010712E-1,-6.5473205E-1],"split_indices":[3,16,78,71,57,70,64,67,73,0,51,0,84,58,8,93,0,0,11,93,74,0,60,0,0,0,0,0,0,0,0,0,0,0,0,0,0],"split_type":[0,0,0,0,0,0,0,0,0,0,0,0,0,0,0,0,0,0,0,0,0,0,0,0,0,0,0,0,0,0,0,0,0,0,0,0,0],"sum_hessian":[1.37E2,9.2E1,4.5E1,5.3E1,3.9E1,2.8E1,1.7E1,4.1E1,1.2E1,4E0,3.5E1,4E0,2.4E1,1E1,7E0,3.2E1,9E0,5E0,7E0,2.7E1,8E0,9E0,1.5E1,3E0,7E0,4E0,3E0,1.5E1,1.7E1,4E0,3E0,8E0,1.9E1,5E0,3E0,6E0,9E0],"tree_param":{"num_deleted":"0","num_feature":"98","num_nodes":"37","size_leaf_vector":"1"}},{"base_weights":[-2.62088E-1,4.1113095E0,-8.432742E0,1.0286655E0,7.7999144E0,-1.2616522E1,-5.5355656E-1,3.7928483E0,-5.955268E0,9.259824E0,-1.9897187E-1,1.1852684E-1,-1.4369549E1,-2.7074444E0,2.5786316E-1,5.396126E0,1.5516987E0,-8.850715E0,-3.0977631E-2,6.4072137E0,6.3180786E-1,-1.5652741E1,-1.5390015E-1,-3.3811647E-2,-3.535068E0,3.325603E-1,1.0575453E-1,-4.9812317E-2,1.4002118E-1,-2.0320587E-1,-5.2833307E-1,-2.2288132E-2,3.7870702E-1,-4.7335443E-1,-8.594338E-1,-2.208997E-1,-6.6345595E-2],"categories":[],"categories_nodes":[],"categories_segments":[],"categories_sizes":[],"default_left":[0,0,0,0,0,0,0,0,0,0,0,0,0,0,0,0,0,0,0,0,0,0,0,0,0,0,0,0,0,0,0,0,0,0,0,0,0],"id":3,"left_children":[1,3,5,7,9,11,13,15,17,19,-1,-1,21,23,-1,25,27,29,-1,31,-1,33,-1,-1,35,-1,-1,-1,-1,-1,-1,-1,-1,-1,-1,-1,-1],"loss_changes":[4.7157603E3,9.6985266E2,1.509396E3,9.4922125E2,7.075239E2,8.222446E2,2.230709E2,1.17388275E2,2.1080652E2,2.5613525E2,0E0,0E0,3.4303076E2,1.9463493E1,0E0,6.829138E1,5.3696823E1,3.0977722E1,0E0,1.7131165E2,0E0,6.5291504E1,0E0,0E0,1.16844635E1,0E0,0E0,0E0,0E0,0E0,0E0,0E0,0E0,0E0,0E0,0E0,0E0],"parents":[2147483647,0,0,1,1,2,2,3,3,4,4,5,5,6,6,7,7,8,8,9,9,12,12,13,13,15,15,16,16,17,17,19,19,21,21,24,24],"right_children":[2,4,6,8,10,12,14,16,18,20,-1,-1,22,24,-1,26,28,30,-1,32,-1,34,-1,-1,36,-1,-1,-1,-1,-1,-1,-1,-1,-1,-1,-1,-1],"split_conditions":[4.9947E2,4.8667E2,5.16E2,4.9008E2,5.091E2,4.9802E2,5.3682E2,4.8091E2,4.9471E2,4.9035E2,-1.9897187E-1,1.1852684E-1,5.3214E6,5.1821E2,2.5786316E-1,4.8343E2,4.0561E6,4.8654E2,-3.0977631E-2,4.9314E2,6.3180786E-1,3.8735E6,-1.5390015E-1,-3.3811647E-2,5.3023E2,3.325603E-1,1.0575453E-1,-4.9812317E-2,1.4002118E-1,-2.0320587E-1,-5.2833307E-1,-2.2288132E-2,3.7870702E-1,-4.7335443E-1,-8.594338E-1,-2.208997E-1,-6.6345595E-2],"split_indices":[2,16,92,66,1,9,50,92,29,86,0,0,95,94,0,2,74,21,0,22,0,67,0,0,24,0,0,0,0,0,0,0,0,0,0,0,0],"split_type":[0,0,0,0,0,0,0,0,0,0,0,0,0,0,0,0,0,0,0,0,0,0,0,0,0,0,0,0,0,0,0,0,0,0,0,0,0],"sum_hessian":[1.3E2,8.5E1,4.5E1,4.7E1,3.8E1,2.9E1,1.6E1,3.4E1,1.3E1,3.4E1,4E0,3E0,2.6E1,1.2E1,4E0,1.9E1,1.5E1,8E0,5E0,2E1,1.4E1,2.3E1,3E0,4E0,8E0,1.3E1,6E0,5E0,1E1,3E0,5E0,3E0,1.7E1,6E0,1.7E1,5E0,3E0],"tree_param":{"num_deleted":"0","num_feature":"98","num_nodes":"37","size_leaf_vector":"1"}},{"base_weights":[-1.3824683E-2,3.9527915E0,-6.9356875E0,1.0862873E0,7.771355E0,-1.0060086E1,5.276909E-1,3.1259766E0,-6.8003707E0,8.482093E0,-1.9522095E-2,-1.1979111E1,-3.9854214E-1,-2.4680648E0,2.9659805E-1,2.2447474E0,3.2953033E-1,-4.7811204E-1,-1.4525528E-1,2.3959122E0,9.91807E0,-6.68472E0,-1.3929815E1,2.3228684E-1,-2.6715928E-1,-3.4678955E0,7.430649E-3,3.0516252E-1,3.3718582E-2,3.9425585E-1,-1.2373169E-1,2.5126666E-1,5.8119494E-1,-5.232277E-2,-4.4758126E-1,-7.730959E-1,-4.328382E-1,-2.0533875E-1,-9.011612E-2],"categories":[],"categories_nodes":[],"categories_segments":[],"categories_sizes":[],"default_left":[0,0,0,0,0,0,0,0,0,0,0,0,0,0,0,0,0,0,0,0,0,0,0,0,0,0,0,0,0,0,0,0,0,0,0,0,0,0,0],"id":4,"left_children":[1,3,5,7,9,11,13,15,17,19,-1,21,23,25,-1,27,-1,-1,-1,29,31,33,35,-1,-1,37,-1,-1,-1,-1,-1,-1,-1,-1,-1,-1,-1,-1,-1],"loss_changes":[3.8438513E3,9.657457E2,1.1945559E3,8.577471E2,2.237461E2,6.626926E2,2.736784E2,1.1343735E2,9.0561005E1,2.8212378E2,0E0,2.1671729E2,1.9941815E2,2.929396E1,0E0,2.0795964E2,0E0,0E0,0E0,2.3339615E2,1.7527881E2,1.18446655E2,3.5806152E1,0E0,0E0,1.1110687E0,0E0,0E0,0E0,0E0,0E0,0E0,0E0,0E0,0E0,0E0,0E0,0E0,0E0],"parents":[2147483647,0,0,1,1,2,2,3,3,4,4,5,5,6,6,7,7,8,8,9,9,11,11,12,12,13,13,15,15,19,19,20,20,21,21,22,22,25,25],"right_children":[2,4,6,8,10,12,14,16,18,20,-1,22,24,26,-1,28,-1,-1,-1,30,32,34,36,-1,-1,38,-1,-1,-1,-1,-1,-1,-1,-1,-1,-1,-1,-1,-1],"split_conditions":[4.9808E2,4.872E2,5.2141E2,4.961E2,7.4759E6,6.3843E6,5.36E2,4.8378E2,4.8667E2,4.8964E2,-1.9522095E-2,3.8735E6,4.9496E2,1.01537E7,2.9659805E-1,4.734E2,3.2953033E-1,-4.7811204E-1,-1.4525528E-1,4.859E2,3.2062E6,3.656E6,5.2126E2,2.3228684E-1,-2.6715928E-1,5.3016E2,7.430649E-3,3.0516252E-1,3.3718582E-2,3.9425585E-1,-1.2373169E-1,2.5126666E-1,5.8119494E-1,-5.232277E-2,-4.4758126E-1,-7.730959E-1,-4.328382E-1,-2.0533875E-1,-9.011612E-2],"split_indices":[2,16,85,64,11,81,57,44,30,77,0,67,94,60,0,80,0,0,0,78,74,74,43,0,0,17,0,0,0,0,0,0,0,0,0,0,0,0,0],"split_type":[0,0,0,0,0,0,0,0,0,0,0,0,0,0,0,0,0,0,0,0,0,0,0,0,0,0,0,0,0,0,0,0,0,0,0,0,0,0,0],"sum_hessian":[1.38E2,8.8E1,5E1,5.1E1,3.7E1,3.5E1,1.5E1,4.1E1,1E1,3.4E1,3E0,2.9E1,6E0,1E1,5E0,3.4E1,7E0,5E0,5E0,7E0,2.7E1,9E0,2E1,3E0,3E0,7E0,3E0,9E0,2.5E1,3E0,4E0,8E0,1.9E1,3E0,6E0,1.4E1,6E0,4E0,3E0],"tree_param":{"num_deleted":"0","num_feature":"98","num_nodes":"39","size_leaf_vector":"1"}},{"base_weights":[2.5699725E-2,3.8340168E0,-7.1251345E0,9.039657E-1,7.7927027E0,-1.148868E1,3.693414E-1,3.0818934E0,-5.5388207E0,-6.8517685E-2,8.594357E0,-1.3430727E1,-5.7918042E-2,-3.0524266E0,5.455826E0,4.4591107E0,3.9744264E-1,-8.266157E0,-2.6233926E-2,1.0658555E1,5.9380155E0,-3.2996127E-1,-7.186427E-1,-4.1334805E0,7.1525574E-3,4.355298E-1,1.1703492E-3,1.5578894E-1,3.399789E-1,-5.4470826E-2,6.249069E-2,-1.9025002E-1,-4.9312845E-1,5.987534E-1,2.2886537E-1,1.20036535E-1,3.7532985E-1,-2.3787613E-1,-1.0820236E-1],"categories":[],"categories_nodes":[],"categories_segments":[],"categories_sizes":[],"default_left":[0,0,0,0,0,0,0,0,0,0,0,0,0,0,0,0,0,0,0,0,0,0,0,0,0,0,0,0,0,0,0,0,0,0,0,0,0,0,0],"id":5,"left_children":[1,3,5,7,9,11,13,15,17,-1,19,21,-1,23,25,27,29,31,-1,33,35,-1,-1,37,-1,-1,-1,-1,-1,-1,-1,-1,-1,-1,-1,-1,-1,-1,-1],"loss_changes":[3.839888E3,1.0600774E3,1.6066648E3,7.7479395E2,2.9825537E2,6.063635E2,3.4734412E2,1.4980774E2,1.8711646E2,0E0,1.3410498E2,7.2490234E1,0E0,4.2045097E1,1.4124632E2,6.3702637E1,2.0371906E1,2.6569519E1,0E0,9.730151E1,8.185205E1,0E0,0E0,7.655945E-1,0E0,0E0,0E0,0E0,0E0,0E0,0E0,0E0,0E0,0E0,0E0,0E0,0E0,0E0,0E0],"parents":[2147483647,0,0,1,1,2,2,3,3,4,4,5,5,6,6,7,7,8,8,10,10,11,11,13,13,14,14,15,15,16,16,17,17,19,19,20,20,23,23],"right_children":[2,4,6,8,10,12,14,16,18,-1,20,22,-1,24,26,28,30,32,-1,34,36,-1,-1,38,-1,-1,-1,-1,-1,-1,-1,-1,-1,-1,-1,-1,-1,-1,-1],"split_conditions":[5.0311E2,4.872E2,5.2141E2,4.9008E2,4.89E2,6.3843E6,5.36E2,4.8167E2,5.1619E6,-6.8517685E-2,4.9961E2,3.5662E6,-5.7918042E-2,1.01537E7,5.2585E2,4.6788E6,3.9376E6,4.8654E2,-2.6233926E-2,5.2298E6,4.903E2,-3.2996127E-1,-7.186427E-1,5.2718E2,7.1525574E-3,4.355298E-1,1.1703492E-3,1.5578894E-1,3.399789E-1,-5.4470826E-2,6.249069E-2,-1.9025002E-1,-4.9312845E-1,5.987534E-1,2.2886537E-1,1.20036535E-1,3.7532985E-1,-2.3787613E-1,-1.0820236E-1],"split_indices":[3,16,78,66,52,81,64,91,18,0,36,67,0,60,10,53,74,21,0,74,86,0,0,35,0,0,0,0,0,0,0,0,0,0,0,0,0,0,0],"split_type":[0,0,0,0,0,0,0,0,0,0,0,0,0,0,0,0,0,0,0,0,0,0,0,0,0,0,0,0,0,0,0,0,0,0,0,0,0,0,0],"sum_hessian":[1.39E2,9.1E1,4.8E1,5.3E1,3.8E1,3E1,1.8E1,4E1,1.3E1,3E0,3.5E1,2.5E1,5E0,1.1E1,7E0,2.6E1,1.4E1,8E0,5E0,1.8E1,1.7E1,4E0,2.1E1,8E0,3E0,4E0,3E0,1.8E1,8E0,5E0,9E0,3E0,5E0,1.4E1,4E0,6E0,1.1E1,5E0,3E0],"tree_param":{"num_deleted":"0","num_feature":"98","num_nodes":"39","size_leaf_vector":"1"}},{"base_weights":[2.2121976E-1,3.9465778E0,-6.8538723E0,9.736252E-1,6.962994E0,-1.0915467E1,7.4751115E-1,3.1886077E0,-5.93704E0,-9.167455E-2,8.080456E0,-1.2620296E1,-7.122472E-2,-3.0288222E0,4.07146E0,3.954838E0,-8.333206E-2,-2.7287161E0,-4.345289E-1,4.3295975E0,9.31145E0,-7.951882E-1,-4.4666353E-1,-1.8844377E-1,-5.807686E-2,4.1810915E-1,-9.135946E-3,1.1959177E-1,2.9073885E-1,-5.135193E-2,3.4414977E-2,-5.56324E-2,-1.8313026E-1,3.4767228E-1,-3.6723938E-2,3.0014232E-1,5.915651E-1],"categories":[],"categories_nodes":[],"categories_segments":[],"categories_sizes":[],"default_left":[0,0,0,0,0,0,0,0,0,0,0,0,0,0,0,0,0,0,0,0,0,0,0,0,0,0,0,0,0,0,0,0,0,0,0,0,0],"id":6,"left_children":[1,3,5,7,9,11,13,15,17,-1,19,21,-1,23,25,27,29,31,-1,33,35,-1,-1,-1,-1,-1,-1,-1,-1,-1,-1,-1,-1,-1,-1,-1,-1],"loss_changes":[3.7434216E3,8.272134E2,1.5209727E3,7.5366693E2,4.6698315E2,4.997981E2,2.3827383E2,9.309079E1,8.229675E1,0E0,1.4899414E2,1.847959E2,0E0,8.059319E0,1.8406294E2,7.330472E1,6.5324607E0,6.4894104E0,0E0,1.6455554E2,1.79094E2,0E0,0E0,0E0,0E0,0E0,0E0,0E0,0E0,0E0,0E0,0E0,0E0,0E0,0E0,0E0,0E0],"parents":[2147483647,0,0,1,1,2,2,3,3,4,4,5,5,6,6,7,7,8,8,10,10,11,11,13,13,14,14,15,15,16,16,17,17,19,19,20,20],"right_children":[2,4,6,8,10,12,14,16,18,-1,20,22,-1,24,26,28,30,32,-1,34,36,-1,-1,-1,-1,-1,-1,-1,-1,-1,-1,-1,-1,-1,-1,-1,-1],"split_conditions":[5.0311E2,4.8614E2,5.2141E2,4.8585E2,4.9109E2,6.3841E6,5.19E2,4.806E2,4.8654E2,-9.167455E-2,3.2062E6,5.0264E2,-7.122472E-2,5.3016E2,5.2148E2,4.7787E2,4.8542E2,4.1871E6,-4.345289E-1,5.0446E2,4.9264E2,-7.951882E-1,-4.4666353E-1,-1.8844377E-1,-5.807686E-2,4.1810915E-1,-9.135946E-3,1.1959177E-1,2.9073885E-1,-5.135193E-2,3.4414977E-2,-5.56324E-2,-1.8313026E-1,3.4767228E-1,-3.6723938E-2,3.0014232E-1,5.915651E-1],"split_indices":[3,23,85,72,50,81,37,93,21,0,88,72,0,10,2,56,77,67,0,50,94,0,0,0,0,0,0,0,0,0,0,0,0,0,0,0,0],"split_type":[0,0,0,0,0,0,0,0,0,0,0,0,0,0,0,0,0,0,0,0,0,0,0,0,0,0,0,0,0,0,0,0,0,0,0,0,0],"sum_hessian":[1.4E2,9.2E1,4.8E1,4.7E1,4.5E1,3.1E1,1.7E1,3.6E1,1.1E1,5E0,4E1,2.6E1,5E0,8E0,9E0,2.9E1,7E0,6E0,5E0,1.1E1,2.9E1,1.2E1,1.4E1,5E0,3E0,4E0,5E0,1.7E1,1.2E1,3E0,4E0,3E0,3E0,7E0,4E0,1.4E1,1.5E1],"tree_param":{"num_deleted":"0","num_feature":"98","num_nodes":"37","size_leaf_vector":"1"}},{"base_weights":[-3.3930445E-1,3.3022437E0,-6.723668E0,5.20319E-1,6.641478E0,-1.083134E1,9.52396E-1,2.7097294E0,-5.5826883E0,-2.4975204E-1,7.749939E0,-1.2533779E1,-6.8256885E-2,-1.7342097E0,5.421949E0,8.848877E-1,4.9354763E0,-1.11403145E-1,-7.4008217E0,4.6750574E0,9.284652E0,-1.4609238E1,-8.72202E0,6.9519304E-2,-2.0823453E-1,3.9266548E-1,8.1755064E-2,2.2889741E-1,-1.2667936E-2,3.0391988E-1,6.026856E-2,-4.4186735E-1,-1.8774796E-1,3.141761E-1,-4.584923E-2,2.19007E-1,5.379001E-1,-3.3763123E-1,-7.951435E-1,-2.123806E-1,-4.8707667E-1],"categories":[],"categories_nodes":[],"categories_segments":[],"categories_sizes":[],"default_left":[0,0,0,0,0,0,0,0,0,0,0,0,0,0,0,0,0,0,0,0,0,0,0,0,0,0,0,0,0,0,0,0,0,0,0,0,0,0,0,0,0],"id":7,"left_children":[1,3,5,7,9,11,13,15,17,-1,19,21,-1,23,25,27,29,-1,31,33,35,37,39,-1,-1,-1,-1,-1,-1,-1,-1,-1,-1,-1,-1,-1,-1,-1,-1,-1,-1],"loss_changes":[3.1375647E3,7.954412E2,1.5553228E3,6.5650305E2,5.4175793E2,4.985901E2,2.255455E2,1.4185153E2,6.279953E1,0E0,1.2647974E2,8.617871E1,0E0,9.692177E1,5.160939E1,8.943573E1,6.0884735E1,0E0,8.715118E0,1.3168631E2,1.1907776E2,5.52312E1,1.3362366E1,0E0,0E0,0E0,0E0,0E0,0E0,0E0,0E0,0E0,0E0,0E0,0E0,0E0,0E0,0E0,0E0,0E0,0E0],"parents":[2147483647,0,0,1,1,2,2,3,3,4,4,5,5,6,6,7,7,8,8,10,10,11,11,13,13,14,14,15,15,16,16,18,18,19,19,20,20,21,21,22,22],"right_children":[2,4,6,8,10,12,14,16,18,-1,20,22,-1,24,26,28,30,-1,32,34,36,38,40,-1,-1,-1,-1,-1,-1,-1,-1,-1,-1,-1,-1,-1,-1,-1,-1,-1,-1],"split_conditions":[5.0311E2,4.872E2,5.203E2,4.9488E2,4.8859E2,6.3843E6,5.3572E2,4.5304E6,4.9984E2,-2.4975204E-1,4.9442E2,5.0283E2,-6.8256885E-2,5.3222E6,5.2896E2,4.7304E2,5.1463E6,-1.11403145E-1,4.8578E6,4.96E2,4.9264E2,3.6214E6,5.1215E2,6.9519304E-2,-2.0823453E-1,3.9266548E-1,8.1755064E-2,2.2889741E-1,-1.2667936E-2,3.0391988E-1,6.026856E-2,-4.4186735E-1,-1.8774796E-1,3.141761E-1,-4.584923E-2,2.19007E-1,5.379001E-1,-3.3763123E-1,-7.951435E-1,-2.123806E-1,-4.8707667E-1],"split_indices":[3,16,85,71,52,81,57,67,73,0,78,79,0,4,8,91,11,0,11,85,94,74,17,0,0,0,0,0,0,0,0,0,0,0,0,0,0,0,0,0,0],"split_type":[0,0,0,0,0,0,0,0,0,0,0,0,0,0,0,0,0,0,0,0,0,0,0,0,0,0,0,0,0,0,0,0,0,0,0,0,0,0,0,0,0],"sum_hessian":[1.33E2,8.5E1,4.8E1,4.7E1,3.8E1,3.1E1,1.7E1,3.5E1,1.2E1,3E0,3.5E1,2.6E1,5E0,1.1E1,6E0,2E1,1.5E1,5E0,7E0,1.3E1,2.2E1,1.5E1,1.1E1,5E0,6E0,3E0,3E0,4E0,1.6E1,1.1E1,4E0,4E0,3E0,1E1,3E0,6E0,1.6E1,3E0,1.2E1,3E0,8E0],"tree_param":{"num_deleted":"0","num_feature":"98","num_nodes":"41","size_leaf_vector":"1"}},{"base_weights":[-3.079487E-2,3.5146415E0,-6.217325E0,9.096114E-1,6.408137E0,-9.318397E0,-5.040267E-1,2.1774654E0,-4.1641387E-1,7.0458426E0,-7.057648E-2,1.17165826E-1,-1.1007712E1,-3.3532944E0,3.832878E0,3.5675013E0,4.8665363E-2,4.426337E0,9.080356E0,-1.2030865E1,-8.0264665E-2,-4.0720997E0,-4.4882964E-2,3.637488E-1,-7.139816E-2,1.2211348E-1,3.4556147E-1,2.5788194E-1,-6.58486E-2,3.4798583E-1,3.648758E-3,1.4933014E-1,4.9650294E-1,-7.360973E-1,-4.336329E-1,-2.3527248E-1,-1.0520249E-1],"categories":[],"categories_nodes":[],"categories_segments":[],"categories_sizes":[],"default_left":[0,0,0,0,0,0,0,0,0,0,0,0,0,0,0,0,0,0,0,0,0,0,0,0,0,0,0,0,0,0,0,0,0,0,0,0,0],"id":8,"left_children":[1,3,5,7,9,11,13,15,-1,17,-1,-1,19,21,23,25,27,29,31,33,-1,35,-1,-1,-1,-1,-1,-1,-1,-1,-1,-1,-1,-1,-1,-1,-1],"loss_changes":[3.070671E3,6.6502136E2,8.988878E2,5.803247E2,2.1938452E2,6.75905E2,2.4763582E2,1.27068085E2,0E0,1.6765466E2,0E0,0E0,2.5967017E2,1.7526123E1,1.5525502E2,8.094513E1,1.3237854E2,2.0903784E2,7.907837E1,1.0728931E2,0E0,1.317688E0,0E0,0E0,0E0,0E0,0E0,0E0,0E0,0E0,0E0,0E0,0E0,0E0,0E0,0E0,0E0],"parents":[2147483647,0,0,1,1,2,2,3,3,4,4,5,5,6,6,7,7,9,9,12,12,13,13,14,14,15,15,16,16,17,17,18,18,19,19,21,21],"right_children":[2,4,6,8,10,12,14,16,-1,18,-1,-1,20,22,24,26,28,30,32,34,-1,36,-1,-1,-1,-1,-1,-1,-1,-1,-1,-1,-1,-1,-1,-1,-1],"split_conditions":[4.9808E2,4.9345E2,5.1581E2,5.0122E2,8.5463E6,4.9861E2,5.36E2,4.806E2,-4.1641387E-1,4.903E2,-7.057648E-2,1.17165826E-1,6.3843E6,5.3652E2,5.2896E2,4.806E2,3.7121E6,4.96E2,4.915E2,5.0346E2,-8.0264665E-2,5.2831E2,-4.4882964E-2,3.637488E-1,-7.139816E-2,1.2211348E-1,3.4556147E-1,2.5788194E-1,-6.58486E-2,3.4798583E-1,3.648758E-3,1.4933014E-1,4.9650294E-1,-7.360973E-1,-4.336329E-1,-2.3527248E-1,-1.0520249E-1],"split_indices":[2,15,73,78,4,9,64,86,0,79,0,0,95,22,1,51,74,92,91,80,0,7,0,0,0,0,0,0,0,0,0,0,0,0,0,0,0],"split_type":[0,0,0,0,0,0,0,0,0,0,0,0,0,0,0,0,0,0,0,0,0,0,0,0,0,0,0,0,0,0,0,0,0,0,0,0,0],"sum_hessian":[1.38E2,8.8E1,5E1,4.7E1,4.1E1,3.2E1,1.8E1,4.2E1,5E0,3.8E1,3E0,4E0,2.8E1,1.1E1,7E0,2.5E1,1.7E1,1.8E1,2E1,2.5E1,3E0,8E0,3E0,4E0,3E0,2E1,5E0,3E0,1.4E1,1.1E1,7E0,3E0,1.7E1,1.2E1,1.3E1,5E0,3E0],"tree_param":{"num_deleted":"0","num_feature":"98","num_nodes":"37","size_leaf_vector":"1"}},{"base_weights":[1.7251392E-1,3.2998674E0,-5.4110484E0,8.6782956E-1,6.3790197E0,-8.907229E0,4.5339355E-1,2.9175017E0,-4.903959E0,-6.6373065E-2,7.039747E0,1.1660995E-1,-1.015035E1,-2.1907115E0,4.69339E0,3.5931578E0,-1.4981079E-1,-7.2958984E0,-2.4936168E-2,3.6630416E0,8.154711E0,-7.4355227E-1,-7.2824845E0,2.6594544E-2,-1.729928E-1,3.7303194E-1,3.0490875E-3,1.049358E-1,3.1276953E-1,3.8482055E-2,-6.308365E-2,-1.6585885E-1,-4.3661982E-1,2.569482E-1,4.320709E-2,1.9733715E-1,4.7150812E-1,-4.101297E-1,-7.756996E-2],"categories":[],"categories_nodes":[],"categories_segments":[],"categories_sizes":[],"default_left":[0,0,0,0,0,0,0,0,0,0,0,0,0,0,0,0,0,0,0,0,0,0,0,0,0,0,0,0,0,0,0,0,0,0,0,0,0,0,0],"id":9,"left_children":[1,3,5,7,9,11,13,15,17,-1,19,-1,21,23,25,27,29,31,-1,33,35,-1,37,-1,-1,-1,-1,-1,-1,-1,-1,-1,-1,-1,-1,-1,-1,-1,-1],"loss_changes":[2.4799658E3,6.7592816E2,1.0496992E3,6.2948157E2,2.1302014E2,4.707754E2,2.3450177E2,8.136377E1,1.4388016E2,0E0,1.094303E2,0E0,2.84313E2,4.676015E1,1.0209723E2,1.14185394E2,9.149466E0,2.2471954E1,0E0,4.0999756E1,1.0769226E2,0E0,9.273889E1,0E0,0E0,0E0,0E0,0E0,0E0,0E0,0E0,0E0,0E0,0E0,0E0,0E0,0E0,0E0,0E0],"parents":[2147483647,0,0,1,1,2,2,3,3,4,4,5,5,6,6,7,7,8,8,10,10,12,12,13,13,14,14,15,15,16,16,17,17,19,19,20,20,22,22],"right_children":[2,4,6,8,10,12,14,16,18,-1,20,-1,22,24,26,28,30,32,-1,34,36,-1,38,-1,-1,-1,-1,-1,-1,-1,-1,-1,-1,-1,-1,-1,-1,-1,-1],"split_conditions":[5.0281E2,4.872E2,5.21E2,4.9008E2,4.89E2,4.9802E2,5.3592E2,4.8111E2,5.1619E6,-6.6373065E-2,3.2062E6,1.1660995E-1,5.0346E2,5.2222E2,5.2681E2,4.792E2,4.6646E2,4.8654E2,-2.4936168E-2,4.976E2,4.8964E2,-7.4355227E-1,5.3094E2,2.6594544E-2,-1.729928E-1,3.7303194E-1,3.0490875E-3,1.049358E-1,3.1276953E-1,3.8482055E-2,-6.308365E-2,-1.6585885E-1,-4.3661982E-1,2.569482E-1,4.320709E-2,1.9733715E-1,4.7150812E-1,-4.101297E-1,-7.756996E-2],"split_indices":[3,16,85,66,52,9,64,86,18,0,81,0,66,64,14,44,0,21,0,14,84,0,59,0,0,0,0,0,0,0,0,0,0,0,0,0,0,0,0],"split_type":[0,0,0,0,0,0,0,0,0,0,0,0,0,0,0,0,0,0,0,0,0,0,0,0,0,0,0,0,0,0,0,0,0,0,0,0,0,0,0],"sum_hessian":[1.4E2,9E1,5E1,5.1E1,3.9E1,3.1E1,1.9E1,3.8E1,1.3E1,3E0,3.6E1,3E0,2.8E1,1.2E1,7E0,3.1E1,7E0,8E0,5E0,1E1,2.6E1,9E0,1.9E1,4E0,8E0,4E0,3E0,2.1E1,1E1,4E0,3E0,3E0,5E0,6E0,4E0,7E0,1.9E1,1.6E1,3E0],"tree_param":{"num_deleted":"0","num_feature":"98","num_nodes":"39","size_leaf_vector":"1"}},{"base_weights":[4.235674E-1,3.3253338E0,-5.2074294E0,1.1616895E0,6.1631203E0,-1.321034E1,-3.0218773E0,2.718915E0,-5.172821E0,3.228119E0,8.664878E0,-3.2074204E-1,-7.603145E-1,2.9082593E-1,-4.4927154E0,1.5177182E0,6.1845317E0,-6.5954742E0,-5.171547E-2,4.057897E0,-5.527344E-2,1.340847E-1,4.756546E-1,-7.4714327E0,2.96269E-1,1.214931E-1,-4.5720674E-2,1.3822822E-1,3.5607243E-1,-1.7195778E-1,-3.9007172E-1,5.9749605E-3,2.4466519E-1,-4.060242E-1,-1.3414231E-1,-8.048248E-2,2.731739E-1],"categories":[],"categories_nodes":[],"categories_segments":[],"categories_sizes":[],"default_left":[0,0,0,0,0,0,0,0,0,0,0,0,0,0,0,0,0,0,0,0,0,0,0,0,0,0,0,0,0,0,0,0,0,0,0,0,0],"id":10,"left_children":[1,3,5,7,9,11,13,15,17,19,21,-1,-1,-1,23,25,27,29,-1,31,-1,-1,-1,33,35,-1,-1,-1,-1,-1,-1,-1,-1,-1,-1,-1,-1],"loss_changes":[2.3048936E3,5.638568E2,7.996372E2,5.467346E2,2.6573535E2,3.808899E1,5.331261E2,1.7378073E2,5.7942566E1,7.6404205E1,8.106433E1,0E0,0E0,0E0,4.872246E2,7.7649345E1,1.5558777E1,3.6207886E0,0E0,5.5348053E1,0E0,0E0,0E0,4.3482788E1,1.4667021E2,0E0,0E0,0E0,0E0,0E0,0E0,0E0,0E0,0E0,0E0,0E0,0E0],"parents":[2147483647,0,0,1,1,2,2,3,3,4,4,5,5,6,6,7,7,8,8,9,9,10,10,14,14,15,15,16,16,17,17,19,19,23,23,24,24],"right_children":[2,4,6,8,10,12,14,16,18,20,22,-1,-1,-1,24,26,28,30,-1,32,-1,-1,-1,34,36,-1,-1,-1,-1,-1,-1,-1,-1,-1,-1,-1,-1],"split_conditions":[5.0281E2,4.8667E2,4.9471E2,4.9496E2,4.903E2,5.0025E2,4.9496E2,5.2516E6,4.8815E2,4.9774E2,4.915E2,-3.2074204E-1,-7.603145E-1,2.9082593E-1,5.2141E2,4.8578E2,4.6955E2,4.3856E6,-5.171547E-2,4.9192E2,-5.527344E-2,1.340847E-1,4.756546E-1,6.1293E6,5.3738E2,1.214931E-1,-4.5720674E-2,1.3822822E-1,3.5607243E-1,-1.7195778E-1,-3.9007172E-1,5.9749605E-3,2.4466519E-1,-4.060242E-1,-1.3414231E-1,-8.048248E-2,2.731739E-1],"split_indices":[3,9,85,73,79,9,94,60,7,71,91,0,0,0,85,0,71,53,0,43,0,0,0,25,57,0,0,0,0,0,0,0,0,0,0,0,0],"split_type":[0,0,0,0,0,0,0,0,0,0,0,0,0,0,0,0,0,0,0,0,0,0,0,0,0,0,0,0,0,0,0,0,0,0,0,0,0],"sum_hessian":[1.39E2,9.2E1,4.7E1,5.3E1,3.9E1,9E0,3.8E1,4.3E1,1E1,1.9E1,2E1,3E0,6E0,5E0,3.3E1,3.3E1,1E1,7E0,3E0,1.6E1,3E0,3E0,1.7E1,2E1,1.3E1,2.4E1,9E0,3E0,7E0,3E0,4E0,3E0,1.3E1,1.7E1,3E0,1E1,3E0],"tree_param":{"num_deleted":"0","num_feature":"98","num_nodes":"37","size_leaf_vector":"1"}},{"base_weights":[1.4537375E-1,3.1267056E0,-5.455196E0,8.350053E-1,6.085041E0,-9.403257E0,-5.833329E-1,1.9573598E0,-3.4100452E-1,8.550789E0,3.191754E0,-1.0890694E-1,-1.0215641E1,-2.5806365E0,4.3505945E0,3.346764E0,2.2636552E-1,3.2509288E-1,5.533785E-1,-5.9661865E-2,4.3625793E0,-1.1678417E1,-1.9404551E-1,-3.8454616E0,1.8955994E-2,3.4354097E-1,3.7136078E-2,1.1020591E-1,3.066679E-1,1.2511063E-1,-2.9509513E-2,3.1075457E-1,8.665905E-2,-3.4601948E-1,-6.4417E-1,-1.0316223E-1,-2.2393322E-1],"categories":[],"categories_nodes":[],"categories_segments":[],"categories_sizes":[],"default_left":[0,0,0,0,0,0,0,0,0,0,0,0,0,0,0,0,0,0,0,0,0,0,0,0,0,0,0,0,0,0,0,0,0,0,0,0,0],"id":11,"left_children":[1,3,5,7,9,11,13,15,-1,17,19,-1,21,23,25,27,29,-1,-1,-1,31,33,-1,35,-1,-1,-1,-1,-1,-1,-1,-1,-1,-1,-1,-1,-1],"loss_changes":[2.354659E3,6.1864386E2,9.37001E2,4.6871115E2,2.580725E2,1.362273E2,2.3788197E2,1.1227985E2,0E0,3.6331177E1,1.07886765E2,0E0,1.7706812E2,6.509866E1,5.8545456E1,6.92677E1,4.2360615E1,0E0,0E0,0E0,6.7164E1,1.977539E1,0E0,4.301483E0,0E0,0E0,0E0,0E0,0E0,0E0,0E0,0E0,0E0,0E0,0E0,0E0,0E0],"parents":[2147483647,0,0,1,1,2,2,3,3,4,4,5,5,6,6,7,7,9,9,10,10,12,12,13,13,14,14,15,15,16,16,20,20,21,21,23,23],"right_children":[2,4,6,8,10,12,14,16,-1,18,20,-1,22,24,26,28,30,-1,-1,-1,32,34,-1,36,-1,-1,-1,-1,-1,-1,-1,-1,-1,-1,-1,-1,-1],"split_conditions":[5.0281E2,4.9442E2,5.16E2,4.9377E2,4.9961E2,5.0019E2,5.36E2,4.8167E2,-3.4100452E-1,4.9716E2,4.905E2,-1.0890694E-1,5.1431E2,6.1293E6,5.15E2,4.6788E6,4.0589E6,3.2509288E-1,5.533785E-1,-5.9661865E-2,4.9502E2,3.6261E6,-1.9404551E-1,4.7264E6,1.8955994E-2,3.4354097E-1,3.7136078E-2,1.1020591E-1,3.066679E-1,1.2511063E-1,-2.9509513E-2,3.1075457E-1,8.665905E-2,-3.4601948E-1,-6.4417E-1,-1.0316223E-1,-2.2393322E-1],"split_indices":[3,29,92,70,36,9,78,91,0,50,3,0,52,88,0,53,81,0,0,0,9,74,0,81,0,0,0,0,0,0,0,0,0,0,0,0,0],"split_type":[0,0,0,0,0,0,0,0,0,0,0,0,0,0,0,0,0,0,0,0,0,0,0,0,0,0,0,0,0,0,0,0,0,0,0,0,0],"sum_hessian":[1.39E2,9.1E1,4.8E1,5.2E1,3.9E1,2.6E1,2.2E1,4.6E1,6E0,2E1,1.9E1,3E0,2.3E1,1.6E1,6E0,2.5E1,2.1E1,1.3E1,7E0,4E0,1.5E1,1.8E1,5E0,1.1E1,5E0,3E0,3E0,1.9E1,6E0,5E0,1.6E1,8E0,7E0,5E0,1.3E1,4E0,7E0],"tree_param":{"num_deleted":"0","num_feature":"98","num_nodes":"37","size_leaf_vector":"1"}},{"base_weights":[-2.6282784E-1,2.9542952E0,-5.4411035E0,7.153143E-1,5.822578E0,-8.524235E0,2.2643128E-1,2.0249476E0,-4.725714E0,3.3954208E0,8.071029E0,-9.787912E0,-3.925705E-2,-2.4590912E0,2.7825645E-1,8.876982E-1,5.461652E0,-3.335012E-1,-7.236999E-2,1.3322171E0,5.3254027E0,2.389134E-1,9.223206E0,-1.2658626E1,-7.4596767E0,-4.064846E0,-2.7264404E-1,2.0720112E-1,6.55964E-3,1.2645684E-1,3.1785694E-1,1.9949012E-1,-7.73702E-2,1.7536883E-1,3.587799E-1,5.0495255E-1,2.3638955E-1,-3.0166626E-1,-7.098345E-1,-2.0945434E-1,-4.1642618E-1,-1.1717987E-1,-2.6000977E-1,-6.457825E-2,4.0721893E-2],"categories":[],"categories_nodes":[],"categories_segments":[],"categories_sizes":[],"default_left":[0,0,0,0,0,0,0,0,0,0,0,0,0,0,0,0,0,0,0,0,0,0,0,0,0,0,0,0,0,0,0,0,0,0,0,0,0,0,0,0,0,0,0,0,0],"id":12,"left_children":[1,3,5,7,9,11,13,15,17,19,21,23,-1,25,-1,27,29,-1,-1,31,33,-1,35,37,39,41,43,-1,-1,-1,-1,-1,-1,-1,-1,-1,-1,-1,-1,-1,-1,-1,-1,-1,-1],"loss_changes":[2.3483557E3,5.5455164E2,9.455127E2,3.6585693E2,1.7997449E2,3.3460547E2,3.0042902E2,1.5539569E2,5.408638E1,7.254433E1,2.8012085E1,1.0608154E2,0E0,4.804432E1,0E0,7.8285995E1,1.018222E1,0E0,0E0,9.035505E1,8.469513E0,0E0,3.4385986E0,3.6628296E1,1.9102417E1,3.446579E0,8.805452E0,0E0,0E0,0E0,0E0,0E0,0E0,0E0,0E0,0E0,0E0,0E0,0E0,0E0,0E0,0E0,0E0,0E0,0E0],"parents":[2147483647,0,0,1,1,2,2,3,3,4,4,5,5,6,6,7,7,8,8,9,9,10,10,11,11,13,13,15,15,16,16,19,19,20,20,22,22,23,23,24,24,25,25,26,26],"right_children":[2,4,6,8,10,12,14,16,18,20,22,24,-1,26,-1,28,30,-1,-1,32,34,-1,36,38,40,42,44,-1,-1,-1,-1,-1,-1,-1,-1,-1,-1,-1,-1,-1,-1,-1,-1,-1,-1],"split_conditions":[5.0274E2,4.872E2,5.21E2,4.939E2,4.8995E2,6.3843E6,5.3592E2,5.2516E6,4.8815E2,4.9696E2,3.7076E6,5.1433E2,-3.925705E-2,4.9778E6,2.7825645E-1,4.7304E2,4.8263E2,-3.335012E-1,-7.236999E-2,4.9057E2,4.9242E2,2.389134E-1,5.1042E6,5.0025E2,5.1215E2,5.3313E2,5.3023E2,2.0720112E-1,6.55964E-3,1.2645684E-1,3.1785694E-1,1.9949012E-1,-7.73702E-2,1.7536883E-1,3.587799E-1,5.0495255E-1,2.3638955E-1,-3.0166626E-1,-7.098345E-1,-2.0945434E-1,-4.1642618E-1,-1.1717987E-1,-2.6000977E-1,-6.457825E-2,4.0721893E-2],"split_indices":[3,9,85,70,79,81,64,60,7,0,74,1,0,60,0,84,3,0,0,0,94,0,4,9,31,50,38,0,0,0,0,0,0,0,0,0,0,0,0,0,0,0,0,0,0],"split_type":[0,0,0,0,0,0,0,0,0,0,0,0,0,0,0,0,0,0,0,0,0,0,0,0,0,0,0,0,0,0,0,0,0,0,0,0,0,0,0,0,0,0,0,0,0],"sum_hessian":[1.39E2,8.6E1,5.3E1,4.9E1,3.7E1,3.4E1,1.9E1,4E1,9E0,1.9E1,1.8E1,2.9E1,5E0,1.3E1,6E0,3.1E1,9E0,5E0,4E0,1E1,9E0,6E0,1.2E1,1.1E1,1.8E1,7E0,6E0,5E0,2.6E1,3E0,6E0,5E0,5E0,6E0,3E0,9E0,3E0,3E0,8E0,5E0,1.3E1,4E0,3E0,3E0,3E0],"tree_param":{"num_deleted":"0","num_feature":"98","num_nodes":"45","size_leaf_vector":"1"}},{"base_weights":[-3.240328E-1,2.4857361E0,-5.276095E0,5.07988E-1,4.6356473E0,-8.970692E0,-3.8829505E-1,1.5175334E0,-3.4058762E-1,6.2196145E0,-5.376781E-1,-1.1369375E1,-5.588575E0,-2.1948028E0,4.0544086E0,2.1548767E0,-2.0680716E0,4.302325E0,8.233541E0,2.194355E-1,-2.9336624E0,-2.7530214E-1,-6.1494553E-1,-2.3055594E0,-3.881321E-1,-3.2873306E0,1.7802684E-2,3.2035905E-1,3.4401704E-2,2.5539646E-1,6.477834E-2,1.0531998E-2,-1.9148827E-1,1.4011161E-1,2.8288677E-1,1.3053627E-1,4.710842E-1,-2.6330873E-1,-2.404602E-2,-1.862133E-1,-1.5523148E-2,-1.9621463E-1,-5.161667E-2],"categories":[],"categories_nodes":[],"categories_segments":[],"categories_sizes":[],"default_left":[0,0,0,0,0,0,0,0,0,0,0,0,0,0,0,0,0,0,0,0,0,0,0,0,0,0,0,0,0,0,0,0,0,0,0,0,0,0,0,0,0,0,0],"id":13,"left_children":[1,3,5,7,9,11,13,15,-1,17,19,21,23,25,27,29,31,33,35,-1,37,-1,-1,39,-1,41,-1,-1,-1,-1,-1,-1,-1,-1,-1,-1,-1,-1,-1,-1,-1,-1,-1],"loss_changes":[1.9610962E3,3.8032355E2,9.174978E2,3.650384E2,3.557025E2,1.7172778E2,1.9349153E2,1.0272268E2,0E0,9.199902E1,1.4271404E2,1.948462E1,8.202768E1,4.8547462E1,5.103383E1,8.727307E1,2.8907444E1,2.2777313E1,7.561328E1,0E0,4.3235794E1,0E0,0E0,1.8656948E1,0E0,1.3184998E1,0E0,0E0,0E0,0E0,0E0,0E0,0E0,0E0,0E0,0E0,0E0,0E0,0E0,0E0,0E0,0E0,0E0],"parents":[2147483647,0,0,1,1,2,2,3,3,4,4,5,5,6,6,7,7,9,9,10,10,11,11,12,12,13,13,14,14,15,15,16,16,17,17,18,18,20,20,23,23,25,25],"right_children":[2,4,6,8,10,12,14,16,-1,18,20,22,24,26,28,30,32,34,36,-1,38,-1,-1,40,-1,42,-1,-1,-1,-1,-1,-1,-1,-1,-1,-1,-1,-1,-1,-1,-1,-1,-1],"split_conditions":[5.0311E2,4.9345E2,5.16E2,5.0122E2,5.1546E6,5.1025E2,5.36E2,5.2976E6,-3.4058762E-1,4.9264E2,3.8735E6,4.9808E2,5.0978E2,6.1293E6,5.3583E6,4.74E2,3.7913E6,3.9648E6,3.2062E6,2.194355E-1,4.9354E2,-2.7530214E-1,-6.1494553E-1,3.669E6,-3.881321E-1,5.2736E2,1.7802684E-2,3.2035905E-1,3.4401704E-2,2.5539646E-1,6.477834E-2,1.0531998E-2,-1.9148827E-1,1.4011161E-1,2.8288677E-1,1.3053627E-1,4.710842E-1,-2.6330873E-1,-2.404602E-2,-1.862133E-1,-1.5523148E-2,-1.9621463E-1,-5.161667E-2],"split_indices":[3,15,92,78,11,9,78,4,0,94,18,30,92,88,11,84,25,60,88,0,17,0,0,95,0,2,0,0,0,0,0,0,0,0,0,0,0,0,0,0,0,0,0],"split_type":[0,0,0,0,0,0,0,0,0,0,0,0,0,0,0,0,0,0,0,0,0,0,0,0,0,0,0,0,0,0,0,0,0,0,0,0,0,0,0,0,0,0,0],"sum_hessian":[1.39E2,8.9E1,5E1,4.7E1,4.2E1,2.8E1,2.2E1,4.2E1,5E0,3.2E1,1E1,1.5E1,1.3E1,1.6E1,6E0,3.6E1,6E0,1.8E1,1.4E1,3E0,7E0,3E0,1.2E1,6E0,7E0,1.1E1,5E0,3E0,3E0,7E0,2.9E1,3E0,3E0,1E1,8E0,3E0,1.1E1,3E0,4E0,3E0,3E0,8E0,3E0],"tree_param":{"num_deleted":"0","num_feature":"98","num_nodes":"43","size_leaf_vector":"1"}},{"base_weights":[-1.6210373E-1,2.68962E0,-5.063826E0,5.847345E-1,5.461367E0,-8.139474E0,-4.3380737E-2,2.2398095E0,-5.4868774E0,3.1855109E0,7.043662E0,-8.784884E0,-7.933655E-2,-2.728719E0,3.5418904E0,1.4432554E0,2.4115668E-1,-3.3796522E-1,-7.851525E-2,4.5063596E0,-4.4289857E-2,3.6314785E0,8.166437E0,-4.930732E0,-5.040005E-1,-1.6393553E-1,-4.0452957E-2,3.1076127E-1,-6.767922E-2,1.5396982E-1,-1.8819173E-5,3.076279E-1,7.801845E-2,2.4652863E-1,7.122574E-2,4.5128495E-1,2.3213868E-1,-3.0036408E-1,-1.4340179E-1],"categories":[],"categories_nodes":[],"categories_segments":[],"categories_sizes":[],"default_left":[0,0,0,0,0,0,0,0,0,0,0,0,0,0,0,0,0,0,0,0,0,0,0,0,0,0,0,0,0,0,0,0,0,0,0,0,0,0,0],"id":14,"left_children":[1,3,5,7,9,11,13,15,17,19,21,23,-1,25,27,29,-1,-1,-1,31,-1,33,35,37,-1,-1,-1,-1,-1,-1,-1,-1,-1,-1,-1,-1,-1,-1,-1],"loss_changes":[1.9006981E3,4.9854865E2,7.71703E2,5.147382E2,1.10802246E2,1.1716626E2,2.0221814E2,7.534929E1,4.4204895E1,9.54106E1,5.079724E1,9.006323E1,0E0,1.00168915E1,1.2619803E2,7.558471E1,0E0,0E0,0E0,5.3445618E1,0E0,1.3045692E1,3.512024E0,2.756256E0,0E0,0E0,0E0,0E0,0E0,0E0,0E0,0E0,0E0,0E0,0E0,0E0,0E0,0E0,0E0],"parents":[2147483647,0,0,1,1,2,2,3,3,4,4,5,5,6,6,7,7,8,8,9,9,10,10,11,11,13,13,14,14,15,15,19,19,21,21,22,22,23,23],"right_children":[2,4,6,8,10,12,14,16,18,20,22,24,-1,26,28,30,-1,-1,-1,32,-1,34,36,38,-1,-1,-1,-1,-1,-1,-1,-1,-1,-1,-1,-1,-1,-1,-1],"split_conditions":[5.0281E2,4.872E2,5.2141E2,4.9008E2,4.903E2,9.4701E6,5.36E2,5.2976E6,5.1619E6,4.96E2,3.1777E6,3.8735E6,-7.933655E-2,5.3016E2,5.2148E2,4.7466E2,2.4115668E-1,-3.3796522E-1,-7.851525E-2,4.8819E2,-4.4289857E-2,3.9351E6,5.1042E6,4.7264E6,-5.040005E-1,-1.6393553E-1,-4.0452957E-2,3.1076127E-1,-6.767922E-2,1.5396982E-1,-1.8819173E-5,3.076279E-1,7.801845E-2,2.4652863E-1,7.122574E-2,4.5128495E-1,2.3213868E-1,-3.0036408E-1,-1.4340179E-1],"split_indices":[3,16,71,66,79,74,64,67,18,92,81,67,0,24,2,93,0,0,0,79,0,11,4,25,0,0,0,0,0,0,0,0,0,0,0,0,0,0,0],"split_type":[0,0,0,0,0,0,0,0,0,0,0,0,0,0,0,0,0,0,0,0,0,0,0,0,0,0,0,0,0,0,0,0,0,0,0,0,0,0,0],"sum_hessian":[1.34E2,8.5E1,4.9E1,4.9E1,3.6E1,3E1,1.9E1,3.9E1,1E1,1.6E1,2E1,2.7E1,3E0,1.1E1,8E0,3.1E1,8E0,7E0,3E0,1.2E1,4E0,6E0,1.4E1,8E0,1.9E1,8E0,3E0,5E0,3E0,1.4E1,1.7E1,7E0,5E0,3E0,3E0,1E1,4E0,4E0,4E0],"tree_param":{"num_deleted":"0","num_feature":"98","num_nodes":"39","size_leaf_vector":"1"}},{"base_weights":[-1.9661334E-1,2.0899258E0,-4.5750504E0,5.7962656E-1,4.127521E0,-6.9416046E0,1.0941427E0,1.9322313E0,-3.834914E0,5.7410483E0,1.8664042E-2,-8.527455E0,3.934544E-1,-1.0940152E-1,4.2395477E0,3.8395336E0,1.1315908E0,5.7775117E-2,-5.447589E0,8.080134E0,3.4817257E0,3.0838187E0,-1.7802303E-1,-1.1366702E1,-6.0216656E0,2.1954155E-1,-1.851143E-1,3.063498E-1,4.1017532E-2,2.3831025E-1,1.0592474E-1,-6.0090132E-2,9.9772915E-2,-1.17662966E-1,-3.5591328E-1,1.7113724E-1,4.5675382E-1,8.245947E-2,3.130544E-1,2.1532555E-1,5.4508593E-2,-2.8694E-1,-6.302512E-1,-3.361993E-1,-1.0290642E-1],"categories":[],"categories_nodes":[],"categories_segments":[],"categories_sizes":[],"default_left":[0,0,0,0,0,0,0,0,0,0,0,0,0,0,0,0,0,0,0,0,0,0,0,0,0,0,0,0,0,0,0,0,0,0,0,0,0,0,0,0,0,0,0,0,0],"id":15,"left_children":[1,3,5,7,9,11,13,15,17,19,21,23,25,-1,27,29,31,-1,33,35,37,39,-1,41,43,-1,-1,-1,-1,-1,-1,-1,-1,-1,-1,-1,-1,-1,-1,-1,-1,-1,-1,-1,-1],"loss_changes":[1.4011555E3,2.8072644E2,6.5158484E2,3.298509E2,2.5845325E2,3.9885376E2,1.6413272E2,5.97919E1,1.1091768E2,1.1984021E2,1.4262665E2,1.3076099E2,1.3086162E2,0E0,4.6602173E1,9.040878E0,6.4886154E1,0E0,3.494513E1,3.260553E1,7.116681E1,1.2368477E1,0E0,1.1292358E1,3.3483643E1,0E0,0E0,0E0,0E0,0E0,0E0,0E0,0E0,0E0,0E0,0E0,0E0,0E0,0E0,0E0,0E0,0E0,0E0,0E0,0E0],"parents":[2147483647,0,0,1,1,2,2,3,3,4,4,5,5,6,6,7,7,8,8,9,9,10,10,11,11,12,12,14,14,15,15,16,16,18,18,19,19,20,20,21,21,23,23,24,24],"right_children":[2,4,6,8,10,12,14,16,18,20,22,24,26,-1,28,30,32,-1,34,36,38,40,-1,42,44,-1,-1,-1,-1,-1,-1,-1,-1,-1,-1,-1,-1,-1,-1,-1,-1,-1,-1,-1,-1],"split_conditions":[5.0311E2,4.9345E2,5.2141E2,4.8585E2,5.1117E6,6.3843E6,5.2008E2,4.7304E2,3.9332E6,4.9496E2,4.9266E2,5.0346E2,4.2051E6,-1.0940152E-1,5.2148E2,4.2229E6,4.7922E2,5.7775117E-2,4.8654E2,4.7735E2,4.99E2,4.9961E2,-1.7802303E-1,5.025E2,6.1293E6,2.1954155E-1,-1.851143E-1,3.063498E-1,4.1017532E-2,2.3831025E-1,1.0592474E-1,-6.0090132E-2,9.9772915E-2,-1.17662966E-1,-3.5591328E-1,1.7113724E-1,4.5675382E-1,8.245947E-2,3.130544E-1,2.1532555E-1,5.4508593E-2,-2.8694E-1,-6.302512E-1,-3.361993E-1,-1.0290642E-1],"split_indices":[3,22,85,72,11,81,42,84,46,38,0,73,4,0,2,18,71,0,21,91,85,22,0,14,25,0,0,0,0,0,0,0,0,0,0,0,0,0,0,0,0,0,0,0,0],"split_type":[0,0,0,0,0,0,0,0,0,0,0,0,0,0,0,0,0,0,0,0,0,0,0,0,0,0,0,0,0,0,0,0,0,0,0,0,0,0,0,0,0,0,0,0,0],"sum_hessian":[1.38E2,9.1E1,4.7E1,5.3E1,3.8E1,3.3E1,1.4E1,4.1E1,1.2E1,2.7E1,1.1E1,2.7E1,6E0,7E0,7E0,1.1E1,3E1,3E0,9E0,1.2E1,1.5E1,6E0,5E0,1.1E1,1.6E1,3E0,3E0,4E0,3E0,6E0,5E0,8E0,2.2E1,4E0,5E0,3E0,9E0,1E1,5E0,3E0,3E0,3E0,8E0,1.3E1,3E0],"tree_param":{"num_deleted":"0","num_feature":"98","num_nodes":"45","size_leaf_vector":"1"}},{"base_weights":[-2.1486227E-1,2.2471166E0,-4.6913667E0,3.7088928E-1,4.427218E0,-7.4164095E0,5.651771E-1,1.9810024E0,-3.9109018E0,5.5053964E0,-8.4321594E-1,4.7969438E-2,-8.285969E0,-2.1807184E0,2.9799652E0,4.1715755E0,1.0151763E0,-5.782976E0,-2.2548676E-2,3.6788375E0,7.4445076E0,-2.0215912E-1,9.427002E-2,-5.568749E-1,-6.0489006E0,-1.3834025E-1,-3.7820436E-2,2.9409638E-1,3.250122E-3,2.4362467E-1,1.1779877E-1,2.2286668E-3,1.4757149E-1,-1.2742424E-1,-3.487737E-1,2.1404238E-1,5.083191E-2,1.550171E-1,4.3171006E-1,-3.268263E-1,-1.293087E-1],"categories":[],"categories_nodes":[],"categories_segments":[],"categories_sizes":[],"default_left":[0,0,0,0,0,0,0,0,0,0,0,0,0,0,0,0,0,0,0,0,0,0,0,0,0,0,0,0,0,0,0,0,0,0,0,0,0,0,0,0,0],"id":16,"left_children":[1,3,5,7,9,11,13,15,17,19,21,-1,23,25,27,29,31,33,-1,35,37,-1,-1,-1,39,-1,-1,-1,-1,-1,-1,-1,-1,-1,-1,-1,-1,-1,-1,-1,-1],"loss_changes":[1.5534904E3,3.7058118E2,7.2040686E2,3.5245593E2,2.4330591E2,2.4829688E2,1.2585208E2,7.404649E1,8.8073425E1,9.6579346E1,7.747487E1,0E0,1.2400244E2,5.420082E0,8.420877E1,2.518982E0,5.0610443E1,1.6937225E1,0E0,2.7701324E1,5.592267E1,0E0,0E0,0E0,1.5177185E1,0E0,0E0,0E0,0E0,0E0,0E0,0E0,0E0,0E0,0E0,0E0,0E0,0E0,0E0,0E0,0E0],"parents":[2147483647,0,0,1,1,2,2,3,3,4,4,5,5,6,6,7,7,8,8,9,9,10,10,12,12,13,13,14,14,15,15,16,16,17,17,19,19,20,20,24,24],"right_children":[2,4,6,8,10,12,14,16,18,20,22,-1,24,26,28,30,32,34,-1,36,38,-1,-1,-1,40,-1,-1,-1,-1,-1,-1,-1,-1,-1,-1,-1,-1,-1,-1,-1,-1],"split_conditions":[5.0311E2,4.872E2,5.2141E2,4.9008E2,5.1546E6,4.9808E2,5.19E2,4.734E2,4.9471E2,4.9264E2,4.9034E2,4.7969438E-2,5.0963E2,5.3016E2,5.2148E2,4.2229E6,4.5041E6,4.8654E2,-2.2548676E-2,4.9242E2,3.1734E6,-2.0215912E-1,9.427002E-2,-5.568749E-1,5.2468E2,-1.3834025E-1,-3.7820436E-2,2.9409638E-1,3.250122E-3,2.4362467E-1,1.1779877E-1,2.2286668E-3,1.4757149E-1,-1.2742424E-1,-3.487737E-1,2.1404238E-1,5.083191E-2,1.550171E-1,4.3171006E-1,-3.268263E-1,-1.293087E-1],"split_indices":[3,16,85,66,11,16,37,87,29,94,73,0,28,10,2,18,67,21,0,87,95,0,0,0,65,0,0,0,0,0,0,0,0,0,0,0,0,0,0,0,0],"split_type":[0,0,0,0,0,0,0,0,0,0,0,0,0,0,0,0,0,0,0,0,0,0,0,0,0,0,0,0,0,0,0,0,0,0,0,0,0,0,0,0,0],"sum_hessian":[1.39E2,9E1,4.9E1,4.9E1,4.1E1,3.2E1,1.7E1,3.6E1,1.3E1,3.4E1,7E0,3E0,2.9E1,8E0,9E0,1E1,2.6E1,8E0,5E0,1.9E1,1.5E1,3E0,4E0,1.1E1,1.8E1,5E0,3E0,4E0,5E0,6E0,4E0,1.8E1,8E0,3E0,5E0,1.5E1,4E0,4E0,1.1E1,1.5E1,3E0],"tree_param":{"num_deleted":"0","num_feature":"98","num_nodes":"41","size_leaf_vector":"1"}},{"base_weights":[-4.7202896E-2,1.966904E0,-4.0743904E0,2.6511064E0,-2.8153713E0,-5.8766875E0,3.0015473E0,1.0965793E0,4.470096E0,-4.580597E0,9.3011476E-2,-7.1769567E0,-1.0339661E0,2.7704647E-1,-3.2301027E-2,3.1282413E0,-1.1696236E0,5.6246905E0,7.9022217E-1,-2.9011473E-1,-1.2213898E-1,-3.6343017E0,-8.589437E0,1.726176E-2,-1.4221382E-1,1.0960388E-1,2.785693E-1,-1.9709587E-3,-1.7929296E-1,1.597643E-1,3.9129302E-1,-4.6763103E-2,1.3513795E-1,-1.4017105E-2,-2.5158322E-1,-5.0117797E-1,-3.0764785E-1],"categories":[],"categories_nodes":[],"categories_segments":[],"categories_sizes":[],"default_left":[0,0,0,0,0,0,0,0,0,0,0,0,0,0,0,0,0,0,0,0,0,0,0,0,0,0,0,0,0,0,0,0,0,0,0,0,0],"id":17,"left_children":[1,3,5,7,9,11,13,15,17,19,-1,21,23,-1,-1,25,27,29,31,-1,-1,33,35,-1,-1,-1,-1,-1,-1,-1,-1,-1,-1,-1,-1,-1,-1],"loss_changes":[1.1192465E3,3.0849194E2,6.0427435E2,2.2413928E2,1.0756286E2,2.255625E2,9.620525E1,2.1084598E2,1.5275946E2,9.332184E0,0E0,1.1389734E2,2.3452984E1,0E0,0E0,4.267949E1,5.9937134E1,1.2472504E2,3.5528305E1,0E0,0E0,4.545639E1,8.209717E0,0E0,0E0,0E0,0E0,0E0,0E0,0E0,0E0,0E0,0E0,0E0,0E0,0E0,0E0],"parents":[2147483647,0,0,1,1,2,2,3,3,4,4,5,5,6,6,7,7,8,8,9,9,11,11,12,12,15,15,16,16,17,17,18,18,21,21,22,22],"right_children":[2,4,6,8,10,12,14,16,18,20,-1,22,24,-1,-1,26,28,30,32,-1,-1,34,36,-1,-1,-1,-1,-1,-1,-1,-1,-1,-1,-1,-1,-1,-1],"split_conditions":[4.9947E2,5.055E2,5.3572E2,4.9298E2,5.24E2,5.21E2,5.2896E2,4.8167E2,5.0211E2,4.9225E2,9.3011476E-2,3.8735E6,5.3222E6,2.7704647E-1,-3.2301027E-2,4.8668E2,4.9057E2,4.938E2,4.9408E2,-2.9011473E-1,-1.2213898E-1,4.9973E6,5.101E2,1.726176E-2,-1.4221382E-1,1.0960388E-1,2.785693E-1,-1.9709587E-3,-1.7929296E-1,1.597643E-1,3.9129302E-1,-4.6763103E-2,1.3513795E-1,-1.4017105E-2,-2.5158322E-1,-5.0117797E-1,-3.0764785E-1],"split_indices":[9,78,71,36,86,92,1,91,50,1,0,67,18,0,0,50,7,92,80,0,0,18,30,0,0,0,0,0,0,0,0,0,0,0,0,0,0],"split_type":[0,0,0,0,0,0,0,0,0,0,0,0,0,0,0,0,0,0,0,0,0,0,0,0,0,0,0,0,0,0,0,0,0,0,0,0,0],"sum_hessian":[1.36E2,9.1E1,4.5E1,8E1,1.1E1,3.6E1,9E0,4.4E1,3.6E1,8E0,3E0,2.8E1,8E0,5E0,4E0,2.3E1,2.1E1,2.7E1,9E0,4E0,4E0,9E0,1.9E1,5E0,3E0,1.8E1,5E0,1.5E1,6E0,1.4E1,1.3E1,5E0,4E0,3E0,6E0,1E1,9E0],"tree_param":{"num_deleted":"0","num_feature":"98","num_nodes":"37","size_leaf_vector":"1"}},{"base_weights":[1.4849405E-1,2.3358622E0,-3.6099772E0,6.938465E-1,4.5074253E0,-5.040381E0,2.309781E0,2.432838E0,-2.2971313E0,8.5466224E-1,5.145665E0,-5.9941554E0,7.210519E-1,-5.3773243E-2,2.655032E-1,1.5865524E0,2.4924736E-1,-7.554767E-1,-4.5151787E0,-1.1952438E-1,1.9430733E-1,7.438215E0,3.6612895E0,-2.7073593E0,-7.280594E0,1.9093247E-1,-1.2784043E-1,-8.974763E-3,1.23977415E-1,2.1369087E-2,-1.3667634E-1,-2.8974488E-1,-8.9336775E-2,1.6126023E-1,4.242098E-1,1.8625641E-2,2.0804821E-1,3.84964E-2,-1.9760013E-1,-4.2419854E-1,-1.4011449E-1],"categories":[],"categories_nodes":[],"categories_segments":[],"categories_sizes":[],"default_left":[0,0,0,0,0,0,0,0,0,0,0,0,0,0,0,0,0,0,0,0,0,0,0,0,0,0,0,0,0,0,0,0,0,0,0,0,0,0,0,0,0],"id":18,"left_children":[1,3,5,7,9,11,13,15,17,19,21,23,25,-1,-1,27,-1,29,31,-1,-1,33,35,37,39,-1,-1,-1,-1,-1,-1,-1,-1,-1,-1,-1,-1,-1,-1,-1,-1],"loss_changes":[1.1840582E3,3.2135495E2,4.604275E2,2.8125665E2,8.652435E1,2.406117E2,1.1743443E2,6.5524765E1,6.497816E1,7.815314E1,8.5065674E1,1.3673462E2,8.0838E1,0E0,0E0,4.302604E1,0E0,3.1585052E1,1.7579178E1,0E0,0E0,2.5517517E1,3.4602966E1,5.4978546E1,1.163418E2,0E0,0E0,0E0,0E0,0E0,0E0,0E0,0E0,0E0,0E0,0E0,0E0,0E0,0E0,0E0,0E0],"parents":[2147483647,0,0,1,1,2,2,3,3,4,4,5,5,6,6,7,7,8,8,9,9,10,10,11,11,12,12,15,15,17,17,18,18,21,21,22,22,23,23,24,24],"right_children":[2,4,6,8,10,12,14,16,18,20,22,24,26,-1,-1,28,-1,30,32,-1,-1,34,36,38,40,-1,-1,-1,-1,-1,-1,-1,-1,-1,-1,-1,-1,-1,-1,-1,-1],"split_conditions":[5.0281E2,4.872E2,5.3572E2,4.811E2,4.9442E2,6.3843E6,5.36E2,4.806E2,4.9225E2,4.9673E2,4.9496E2,3.8735E6,4.8936E6,-5.3773243E-2,2.655032E-1,4.1306E6,2.4924736E-1,4.9488E2,4.7638E6,-1.1952438E-1,1.9430733E-1,3.5829E6,3.063E6,3.7076E6,5.2126E2,1.9093247E-1,-1.2784043E-1,-8.974763E-3,1.23977415E-1,2.1369087E-2,-1.3667634E-1,-2.8974488E-1,-8.9336775E-2,1.6126023E-1,4.242098E-1,1.8625641E-2,2.0804821E-1,3.84964E-2,-1.9760013E-1,-4.2419854E-1,-1.4011449E-1],"split_indices":[3,16,71,86,29,81,78,51,43,15,31,74,4,0,0,67,0,71,25,0,0,25,60,60,71,0,0,0,0,0,0,0,0,0,0,0,0,0,0,0,0],"split_type":[0,0,0,0,0,0,0,0,0,0,0,0,0,0,0,0,0,0,0,0,0,0,0,0,0,0,0,0,0,0,0,0,0,0,0,0,0,0,0,0,0],"sum_hessian":[1.42E2,9E1,5.2E1,5.2E1,3.8E1,4.2E1,1E1,3.3E1,1.9E1,6E0,3.2E1,3.6E1,6E0,5E0,5E0,2.6E1,7E0,1.2E1,7E0,3E0,3E0,1.1E1,2.1E1,1.1E1,2.5E1,3E0,3E0,9E0,1.7E1,8E0,4E0,4E0,3E0,3E0,8E0,3E0,1.8E1,3E0,8E0,1.9E1,6E0],"tree_param":{"num_deleted":"0","num_feature":"98","num_nodes":"41","size_leaf_vector":"1"}},{"base_weights":[-1.3171452E-1,1.8750805E0,-4.2296934E0,3.2602516E-1,3.7047503E0,-5.962867E0,2.606018E0,1.695037E0,-3.5109384E0,-1.993782E-1,4.381363E0,-7.186132E0,-1.3586935E0,-4.4726867E-2,2.5444058E-1,1.1224161E0,2.0761935E-1,-5.5361137E0,-6.948896E-1,5.5078316E0,1.2939504E0,-4.5103073E-2,-7.8765225E0,-1.2412323E-1,1.8408204E-3,1.5429688E-2,1.3610035E-1,-1.4547424E-1,-3.265097E-1,3.9881896E-2,-1.0068474E-1,1.4089493E-1,3.3876374E-1,-2.007904E-2,2.392704E-1,-4.9170324E-1,-2.748098E-1],"categories":[],"categories_nodes":[],"categories_segments":[],"categories_sizes":[],"default_left":[0,0,0,0,0,0,0,0,0,0,0,0,0,0,0,0,0,0,0,0,0,0,0,0,0,0,0,0,0,0,0,0,0,0,0,0,0],"id":19,"left_children":[1,3,5,7,9,11,13,15,17,-1,19,21,23,-1,-1,25,-1,27,29,31,33,-1,35,-1,-1,-1,-1,-1,-1,-1,-1,-1,-1,-1,-1,-1,-1],"loss_changes":[1.1510397E3,2.652126E2,5.6052313E2,2.7909933E2,2.4127386E2,1.9862488E2,9.14637E1,5.0217377E1,7.59949E1,0E0,1.3198804E2,1.1871033E2,1.42055E1,0E0,0E0,4.2118843E1,0E0,1.8891296E0,1.5384669E1,7.977875E1,7.296023E1,0E0,6.709949E1,0E0,0E0,0E0,0E0,0E0,0E0,0E0,0E0,0E0,0E0,0E0,0E0,0E0,0E0],"parents":[2147483647,0,0,1,1,2,2,3,3,4,4,5,5,6,6,7,7,8,8,10,10,11,11,12,12,15,15,17,17,18,18,19,19,20,20,22,22],"right_children":[2,4,6,8,10,12,14,16,18,-1,20,22,24,-1,-1,26,-1,28,30,32,34,-1,36,-1,-1,-1,-1,-1,-1,-1,-1,-1,-1,-1,-1,-1,-1],"split_conditions":[4.9947E2,4.872E2,5.3572E2,4.9008E2,4.8859E2,5.2141E2,5.3572E2,5.8893E6,4.9471E2,-1.993782E-1,4.9762E2,3.3306E6,5.2875E6,-4.4726867E-2,2.5444058E-1,4.7638E6,2.0761935E-1,4.8E2,5.0014E2,4.9488E2,5.3327E2,-4.5103073E-2,5.068E2,-1.2412323E-1,1.8408204E-3,1.5429688E-2,1.3610035E-1,-1.4547424E-1,-3.265097E-1,3.9881896E-2,-1.0068474E-1,1.4089493E-1,3.3876374E-1,-2.007904E-2,2.392704E-1,-4.9170324E-1,-2.748098E-1],"split_indices":[9,16,71,66,52,92,78,53,29,0,51,74,95,0,0,81,0,1,1,64,78,0,30,0,0,0,0,0,0,0,0,0,0,0,0,0,0],"split_type":[0,0,0,0,0,0,0,0,0,0,0,0,0,0,0,0,0,0,0,0,0,0,0,0,0,0,0,0,0,0,0,0,0,0,0,0,0],"sum_hessian":[1.38E2,9.3E1,4.5E1,5.1E1,4.2E1,3.6E1,9E0,3.8E1,1.3E1,3E0,3.9E1,2.8E1,8E0,4E0,5E0,3.2E1,6E0,7E0,6E0,2.8E1,1.1E1,3E0,2.5E1,4E0,4E0,2.2E1,1E1,3E0,4E0,3E0,3E0,1E1,1.8E1,8E0,3E0,1.2E1,1.3E1],"tree_param":{"num_deleted":"0","num_feature":"98","num_nodes":"37","size_leaf_vector":"1"}},{"base_weights":[-6.1266582E-2,2.0153034E0,-3.773954E0,5.752419E-1,3.8276925E0,-8.978781E0,-1.9880364E0,1.4025362E0,-4.253605E0,4.7785425E0,4.0220338E-1,-2.2340088E-1,-5.243559E-1,2.2970155E-1,-2.8469892E0,9.2559016E-1,2.5641876E-1,-2.5720185E-1,-1.0385819E-1,3.23409E0,6.313316E0,1.6994171E-1,-1.3676147E0,-4.1064005E0,1.3875122E0,8.5318044E-2,-8.71756E-2,2.2969972E-1,9.7553045E-2,8.909531E-2,3.648838E-1,-1.571083E-2,-1.0395546E-1,-2.6273316E-1,-7.570313E-2,-2.302831E-2,1.9063759E-1],"categories":[],"categories_nodes":[],"categories_segments":[],"categories_sizes":[],"default_left":[0,0,0,0,0,0,0,0,0,0,0,0,0,0,0,0,0,0,0,0,0,0,0,0,0,0,0,0,0,0,0,0,0,0,0,0,0],"id":20,"left_children":[1,3,5,7,9,11,13,15,17,19,21,-1,-1,-1,23,25,-1,-1,-1,27,29,-1,31,33,35,-1,-1,-1,-1,-1,-1,-1,-1,-1,-1,-1,-1],"loss_changes":[1.117796E3,2.4052368E2,4.655103E2,2.1769432E2,1.3162024E2,4.1592163E1,2.3922655E2,7.699632E1,4.8187866E0,5.543451E1,5.7683212E1,0E0,0E0,0E0,1.97685E2,9.050122E1,0E0,0E0,0E0,2.2443176E1,5.3904358E1,0E0,4.5931187E0,7.5391205E1,4.2094322E1,0E0,0E0,0E0,0E0,0E0,0E0,0E0,0E0,0E0,0E0,0E0,0E0],"parents":[2147483647,0,0,1,1,2,2,3,3,4,4,5,5,6,6,7,7,8,8,9,9,10,10,14,14,15,15,19,19,20,20,22,22,23,23,24,24],"right_children":[2,4,6,8,10,12,14,16,18,20,22,-1,-1,-1,24,26,-1,-1,-1,28,30,-1,32,34,36,-1,-1,-1,-1,-1,-1,-1,-1,-1,-1,-1,-1],"split_conditions":[5.0281E2,4.9345E2,4.9706E2,4.9572E2,5.1546E6,4.872E2,5.0741E2,4.9298E2,4.5571E6,4.9264E2,3.8735E6,-2.2340088E-1,-5.243559E-1,2.2970155E-1,6.3843E6,4.8654E2,2.5641876E-1,-2.5720185E-1,-1.0385819E-1,4.9279E2,3.2062E6,1.6994171E-1,4.8425E2,5.2141E2,5.3329E2,8.5318044E-2,-8.71756E-2,2.2969972E-1,9.7553045E-2,8.909531E-2,3.648838E-1,-1.571083E-2,-1.0395546E-1,-2.6273316E-1,-7.570313E-2,-2.302831E-2,1.9063759E-1],"split_indices":[3,15,92,66,11,72,0,36,46,94,18,0,0,0,95,0,0,0,0,92,88,0,2,85,78,0,0,0,0,0,0,0,0,0,0,0,0],"split_type":[0,0,0,0,0,0,0,0,0,0,0,0,0,0,0,0,0,0,0,0,0,0,0,0,0,0,0,0,0,0,0,0,0,0,0,0,0],"sum_hessian":[1.43E2,9.2E1,5.1E1,5.2E1,4E1,1.2E1,3.9E1,4.5E1,7E0,3.1E1,9E0,4E0,8E0,4E0,3.5E1,4.1E1,4E0,4E0,3E0,1.7E1,1.4E1,3E0,6E0,2.7E1,8E0,3.2E1,9E0,7E0,1E1,3E0,1.1E1,3E0,3E0,1.8E1,9E0,5E0,3E0],"tree_param":{"num_deleted":"0","num_feature":"98","num_nodes":"37","size_leaf_vector":"1"}},{"base_weights":[1.8718763E-1,1.9292392E0,-3.300898E0,3.5863823E-1,4.1349936E0,-4.7637835E0,1.9197971E0,2.0184937E0,-2.110654E0,2.450006E0,5.6132307E0,-8.127968E0,-3.0278602E0,-5.9262343E-2,2.3524372E-1,8.142424E-1,3.6806924E0,-5.727452E-1,-4.052661E0,-3.787575E-2,3.0605989E0,6.6240153E0,1.0753657E-1,-2.1446534E-1,-4.7555676E-1,1.7785569E-1,-4.041427E0,9.931488E-2,-3.3682402E-2,7.7680364E-2,2.188083E-1,9.443398E-2,-7.078705E-2,-2.700928E-1,-8.1154786E-2,2.3686372E-1,8.576938E-2,1.7130204E-1,3.569003E-1,-5.6483764E-2,-2.2974853E-1],"categories":[],"categories_nodes":[],"categories_segments":[],"categories_sizes":[],"default_left":[0,0,0,0,0,0,0,0,0,0,0,0,0,0,0,0,0,0,0,0,0,0,0,0,0,0,0,0,0,0,0,0,0,0,0,0,0,0,0,0,0],"id":21,"left_children":[1,3,5,7,9,11,13,15,17,19,21,23,25,-1,-1,27,29,31,33,-1,35,37,-1,-1,-1,-1,39,-1,-1,-1,-1,-1,-1,-1,-1,-1,-1,-1,-1,-1,-1],"loss_changes":[8.570676E2,3.2416684E2,3.6809747E2,2.3378577E2,8.338922E1,1.914685E2,1.0070212E2,6.5061005E1,6.637135E1,4.148825E1,5.5750305E1,2.2917969E1,1.8790785E2,0E0,0E0,3.795975E1,1.3911804E1,3.1723473E1,2.401184E1,0E0,3.0216965E1,2.0080566E-1,0E0,0E0,0E0,0E0,3.1880188E1,0E0,0E0,0E0,0E0,0E0,0E0,0E0,0E0,0E0,0E0,0E0,0E0,0E0,0E0],"parents":[2147483647,0,0,1,1,2,2,3,3,4,4,5,5,6,6,7,7,8,8,9,9,10,10,11,11,12,12,15,15,16,16,17,17,18,18,20,20,21,21,26,26],"right_children":[2,4,6,8,10,12,14,16,18,20,22,24,26,-1,-1,28,30,32,34,-1,36,38,-1,-1,-1,-1,40,-1,-1,-1,-1,-1,-1,-1,-1,-1,-1,-1,-1,-1,-1],"split_conditions":[5.0281E2,4.872E2,5.3572E2,4.8111E2,4.9264E2,4.9352E2,5.3572E2,4.7787E2,4.9225E2,4.9314E2,5.1546E6,4.872E2,4.8811E2,-5.9262343E-2,2.3524372E-1,4.85E2,4.792E2,4.1932E6,4.8889E2,-3.787575E-2,4.895E2,3.1734E6,1.0753657E-1,-2.1446534E-1,-4.7555676E-1,1.7785569E-1,5.0264E2,9.931488E-2,-3.3682402E-2,7.7680364E-2,2.188083E-1,9.443398E-2,-7.078705E-2,-2.700928E-1,-8.1154786E-2,2.3686372E-1,8.576938E-2,1.7130204E-1,3.569003E-1,-5.6483764E-2,-2.2974853E-1],"split_indices":[3,16,71,86,94,93,78,56,43,22,11,72,72,0,0,1,44,81,30,0,37,95,0,0,0,0,44,0,0,0,0,0,0,0,0,0,0,0,0,0,0],"split_type":[0,0,0,0,0,0,0,0,0,0,0,0,0,0,0,0,0,0,0,0,0,0,0,0,0,0,0,0,0,0,0,0,0,0,0,0,0,0,0,0,0],"sum_hessian":[1.39E2,9.3E1,4.6E1,5.5E1,3.8E1,3.6E1,1E1,3.3E1,2.2E1,1.9E1,1.9E1,1.1E1,2.5E1,5E0,5E0,2E1,1.3E1,1.3E1,9E0,3E0,1.6E1,1.4E1,5E0,4E0,7E0,3E0,2.2E1,1.1E1,9E0,4E0,9E0,3E0,1E1,5E0,4E0,6E0,1E1,3E0,1.1E1,4E0,1.8E1],"tree_param":{"num_deleted":"0","num_feature":"98","num_nodes":"41","size_leaf_vector":"1"}},{"base_weights":[-9.7872436E-2,1.8070809E0,-3.1786537E0,5.3031063E-1,3.7618034E0,-8.399134E0,-1.9746658E0,1.4739957E0,-3.3784292E0,2.09975E0,5.2148676E0,-1.865593E-1,-4.9333277E-1,2.5252655E-1,-2.7639828E0,2.4854126E0,4.8544693E-1,-2.1556942E-1,-6.983002E-2,1.764705E-1,2.7793375E-1,3.4419633E-2,6.07427E0,-5.210713E0,-6.912377E-2,6.531029E-2,2.4128418E-1,-5.8782198E-2,4.9222603E-2,-5.911217E-2,6.0253143E-2,3.4797454E-1,1.7932612E-1,-2.959549E-1,-1.1675848E-1,-5.5320024E-2,1.735721E-1],"categories":[],"categories_nodes":[],"categories_segments":[],"categories_sizes":[],"default_left":[0,0,0,0,0,0,0,0,0,0,0,0,0,0,0,0,0,0,0,0,0,0,0,0,0,0,0,0,0,0,0,0,0,0,0,0,0],"id":22,"left_children":[1,3,5,7,9,11,13,15,17,19,21,-1,-1,-1,23,25,27,-1,-1,-1,29,-1,31,33,35,-1,-1,-1,-1,-1,-1,-1,-1,-1,-1,-1,-1],"loss_changes":[8.4497455E2,2.2012518E2,3.291112E2,2.0785385E2,7.3577545E1,3.1688904E1,2.6903455E2,4.3786034E1,1.4317329E1,4.590145E1,6.583969E1,0E0,0E0,0E0,2.765707E2,5.4409256E1,2.1050795E1,0E0,0E0,0E0,1.3608632E1,0E0,8.072754E0,3.09917E1,8.0964264E1,0E0,0E0,0E0,0E0,0E0,0E0,0E0,0E0,0E0,0E0,0E0,0E0],"parents":[2147483647,0,0,1,1,2,2,3,3,4,4,5,5,6,6,7,7,8,8,9,9,10,10,14,14,15,15,16,16,20,20,22,22,23,23,24,24],"right_children":[2,4,6,8,10,12,14,16,18,20,22,-1,-1,-1,24,26,28,-1,-1,-1,30,-1,32,34,36,-1,-1,-1,-1,-1,-1,-1,-1,-1,-1,-1,-1],"split_conditions":[5.01E2,4.872E2,4.9298E2,4.9721E2,4.921E2,4.8531E2,5.091E2,4.8091E2,4.8815E2,4.945E2,4.8923E2,-1.865593E-1,-4.9333277E-1,2.5252655E-1,5.16E2,4.7966E2,4.7922E2,-2.1556942E-1,-6.983002E-2,1.764705E-1,4.9572E2,3.4419633E-2,5.0122E2,5.1431E2,5.3258E2,6.531029E-2,2.4128418E-1,-5.8782198E-2,4.9222603E-2,-5.911217E-2,6.0253143E-2,3.4797454E-1,1.7932612E-1,-2.959549E-1,-1.1675848E-1,-5.5320024E-2,1.735721E-1],"split_indices":[0,2,85,71,87,94,1,92,7,71,72,0,0,0,85,51,71,0,0,0,3,0,50,52,59,0,0,0,0,0,0,0,0,0,0,0,0],"split_type":[0,0,0,0,0,0,0,0,0,0,0,0,0,0,0,0,0,0,0,0,0,0,0,0,0,0,0,0,0,0,0,0,0,0,0,0,0],"sum_hessian":[1.42E2,8.8E1,5.4E1,5.4E1,3.4E1,9E0,4.5E1,4.4E1,1E1,1.7E1,1.7E1,3E0,6E0,4E0,4.1E1,2.1E1,2.3E1,6E0,4E0,9E0,8E0,3E0,1.4E1,2.1E1,2E1,1.5E1,6E0,5E0,1.8E1,3E0,5E0,9E0,5E0,1.6E1,5E0,1.6E1,4E0],"tree_param":{"num_deleted":"0","num_feature":"98","num_nodes":"37","size_leaf_vector":"1"}},{"base_weights":[-8.89122E-3,1.5387365E0,-3.455678E0,1.7904322E0,-2.4118614E-1,-5.9667187E0,-1.4409332E-1,5.7259053E-1,3.1308656E0,-4.5309362E-1,-3.9771245E0,-1.2820263E0,1.7630555E-1,1.9492961E0,-1.330762E0,-1.068985E-1,3.558115E0,-1.5962677E0,-2.7420488E-1,-2.1142328E0,2.286784E-2,5.093338E-2,1.7320696E-1,-1.0179162E-1,1.1755066E-1,2.2736196E-1,1.785986E-2,-1.5702592E-1,-2.0806885E-3,-1.2742703E-1,-5.4167785E-2],"categories":[],"categories_nodes":[],"categories_segments":[],"categories_sizes":[],"default_left":[0,0,0,0,0,0,0,0,0,0,0,0,0,0,0,0,0,0,0,0,0,0,0,0,0,0,0,0,0,0,0],"id":23,"left_children":[1,3,5,7,-1,9,11,13,15,-1,17,19,-1,21,23,-1,25,27,-1,29,-1,-1,-1,-1,-1,-1,-1,-1,-1,-1,-1],"loss_changes":[7.574597E2,1.655742E2,3.6502325E2,1.5328867E2,0E0,1.1791235E2,8.804949E1,1.3623221E2,1.0890701E2,0E0,5.223996E1,2.4127373E1,0E0,3.8763878E1,6.1896317E1,0E0,1.3135217E2,1.9075514E1,0E0,2.1639214E0,0E0,0E0,0E0,0E0,0E0,0E0,0E0,0E0,0E0,0E0,0E0],"parents":[2147483647,0,0,1,1,2,2,3,3,5,5,6,6,7,7,8,8,10,10,11,11,13,13,14,14,16,16,17,17,19,19],"right_children":[2,4,6,8,-1,10,12,14,16,-1,18,20,-1,22,24,-1,26,28,-1,30,-1,-1,-1,-1,-1,-1,-1,-1,-1,-1,-1],"split_conditions":[5.0162E2,8.2175E6,5.16E2,4.9345E2,-2.4118614E-1,5.1433E2,5.36E2,4.8111E2,4.9109E2,-4.5309362E-1,4.141E6,6.1293E6,1.7630555E-1,4.6636E6,4.9471E2,-1.068985E-1,4.9802E2,4.7264E6,-2.7420488E-1,5.2736E2,2.286784E-2,5.093338E-2,1.7320696E-1,-1.0179162E-1,1.1755066E-1,2.2736196E-1,1.785986E-2,-1.5702592E-1,-2.0806885E-3,-1.2742703E-1,-5.4167785E-2],"split_indices":[2,32,92,22,0,1,78,86,50,0,67,88,0,74,36,0,51,25,0,2,0,0,0,0,0,0,0,0,0,0,0],"split_type":[0,0,0,0,0,0,0,0,0,0,0,0,0,0,0,0,0,0,0,0,0,0,0,0,0,0,0,0,0,0,0],"sum_hessian":[1.4E2,9.7E1,4.3E1,9.4E1,3E0,2.4E1,1.9E1,5E1,4.4E1,8E0,1.6E1,1.5E1,4E0,2.9E1,2.1E1,3E0,4.1E1,7E0,9E0,1E1,5E0,1.9E1,1E1,1.8E1,3E0,3.1E1,1E1,3E0,4E0,6E0,4E0],"tree_param":{"num_deleted":"0","num_feature":"98","num_nodes":"31","size_leaf_vector":"1"}},{"base_weights":[5.2502915E-2,1.630748E0,-3.6190555E0,1.8726407E0,-2.3214188E-1,-6.1116514E0,-1.4884707E-1,2.614438E0,-4.925944E-1,-4.4734478E-1,-4.5120068E0,-1.3168966E0,1.6925354E-1,1.0503327E0,4.3272886E0,9.81176E-1,-3.5627823E0,-2.7437172E0,-2.693927E-1,2.5217896E-2,-2.0250216E0,8.37683E-2,-1.8299866E-1,1.2760742E-1,3.1378794E-1,-1.3936545E-2,1.410431E-1,-2.4937348E-1,-4.4561386E-2,-1.8132019E-1,-4.7721483E-2,-1.1756497E-1,-4.331055E-2],"categories":[],"categories_nodes":[],"categories_segments":[],"categories_sizes":[],"default_left":[0,0,0,0,0,0,0,0,0,0,0,0,0,0,0,0,0,0,0,0,0,0,0,0,0,0,0,0,0,0,0,0,0],"id":24,"left_children":[1,3,5,7,-1,9,11,13,15,-1,17,19,-1,21,23,25,27,29,-1,-1,31,-1,-1,-1,-1,-1,-1,-1,-1,-1,-1,-1,-1],"loss_changes":[8.287377E2,1.6044785E2,3.7103284E2,1.7147678E2,0E0,7.301611E1,8.2885826E1,1.9370676E2,1.1208977E2,0E0,1.3094757E1,2.0366474E1,0E0,1.23895706E2,1.05041565E2,4.0189426E1,2.6004066E1,9.173893E0,0E0,0E0,2.1223145E0,0E0,0E0,0E0,0E0,0E0,0E0,0E0,0E0,0E0,0E0,0E0,0E0],"parents":[2147483647,0,0,1,1,2,2,3,3,5,5,6,6,7,7,8,8,10,10,11,11,13,13,14,14,15,15,16,16,17,17,20,20],"right_children":[2,4,6,8,-1,10,12,14,16,-1,18,20,-1,22,24,26,28,30,-1,-1,32,-1,-1,-1,-1,-1,-1,-1,-1,-1,-1,-1,-1],"split_conditions":[5.0162E2,8.2175E6,5.16E2,5.1546E6,-2.3214188E-1,5.0672E2,5.36E2,4.9345E2,4.9694E2,-4.4734478E-1,5.1575E2,4.9311E2,1.6925354E-1,4.9721E2,4.0589E6,3.9332E6,4.982E2,5.0424E2,-2.693927E-1,2.5217896E-2,5.36E2,8.37683E-2,-1.8299866E-1,1.2760742E-1,3.1378794E-1,-1.3936545E-2,1.410431E-1,-2.4937348E-1,-4.4561386E-2,-1.8132019E-1,-4.7721483E-2,-1.1756497E-1,-4.331055E-2],"split_indices":[2,32,92,11,0,50,78,22,0,0,36,72,0,64,81,95,10,77,0,0,15,0,0,0,0,0,0,0,0,0,0,0,0],"split_type":[0,0,0,0,0,0,0,0,0,0,0,0,0,0,0,0,0,0,0,0,0,0,0,0,0,0,0,0,0,0,0,0,0],"sum_hessian":[1.41E2,9.9E1,4.2E1,9.6E1,3E0,2.4E1,1.8E1,7.3E1,2.3E1,7E0,1.7E1,1.4E1,4E0,3.9E1,3.4E1,1.6E1,7E0,7E0,1E1,4E0,1E1,3.5E1,4E0,1.9E1,1.5E1,1E1,6E0,4E0,3E0,4E0,3E0,7E0,3E0],"tree_param":{"num_deleted":"0","num_feature":"98","num_nodes":"33","size_leaf_vector":"1"}},{"base_weights":[1.8246211E-1,1.6366E0,-2.7621827E0,3.0054688E-1,3.1881728E0,-3.5899754E0,1.5151062E0,1.8041255E0,-1.6951045E0,-9.648132E-2,3.6313274E0,-4.628247E0,-1.2372812E0,-1.1410522E-2,1.6577378E-1,8.141078E-1,3.3501449E0,-6.7129517E-1,-2.1566899E-1,4.791776E0,9.418312E-1,-2.1356583E-2,-5.157647E0,8.185425E-3,-1.8781332E0,-1.4690094E-2,9.203034E-2,7.973236E-2,2.0627399E-1,-1.1198006E-1,3.2523956E-2,1.4469147E-1,3.058606E-1,-4.3871116E-2,1.6052653E-1,-1.6002254E-1,-2.9069462E-1,-4.168663E-2,-1.130689E-1],"categories":[],"categories_nodes":[],"categories_segments":[],"categories_sizes":[],"default_left":[0,0,0,0,0,0,0,0,0,0,0,0,0,0,0,0,0,0,0,0,0,0,0,0,0,0,0,0,0,0,0,0,0,0,0,0,0,0,0],"id":25,"left_children":[1,3,5,7,9,11,13,15,17,-1,19,21,23,-1,-1,25,27,29,-1,31,33,-1,35,-1,37,-1,-1,-1,-1,-1,-1,-1,-1,-1,-1,-1,-1,-1,-1],"loss_changes":[5.825797E2,1.876833E2,1.6477112E2,1.5308911E2,1.02262146E2,8.7097534E1,2.5865534E1,4.1659637E1,5.6077984E1,0E0,1.1720691E2,5.5622864E1,1.1979216E1,0E0,0E0,2.2148865E1,8.393387E0,3.6696907E1,0E0,5.021924E1,5.647241E1,0E0,1.0934204E1,0E0,1.7169647E0,0E0,0E0,0E0,0E0,0E0,0E0,0E0,0E0,0E0,0E0,0E0,0E0,0E0,0E0],"parents":[2147483647,0,0,1,1,2,2,3,3,4,4,5,5,6,6,7,7,8,8,10,10,11,11,12,12,15,15,16,16,17,17,19,19,20,20,22,22,24,24],"right_children":[2,4,6,8,10,12,14,16,18,-1,20,22,24,-1,-1,26,28,30,-1,32,34,-1,36,-1,38,-1,-1,-1,-1,-1,-1,-1,-1,-1,-1,-1,-1,-1,-1],"split_conditions":[5.051E2,4.9345E2,6.3843E6,4.8111E2,4.9109E2,5.2141E2,5.3023E2,4.5304E6,4.9984E2,-9.648132E-2,5.0211E2,4.9808E2,5.2388E2,-1.1410522E-2,1.6577378E-1,4.76E2,4.2051E6,4.0158E6,-2.1566899E-1,4.938E2,5.035E2,-2.1356583E-2,3.8735E6,8.185425E-3,4.9311E2,-1.4690094E-2,9.203034E-2,7.973236E-2,2.0627399E-1,-1.1198006E-1,3.2523956E-2,1.4469147E-1,3.058606E-1,-4.3871116E-2,1.6052653E-1,-1.6002254E-1,-2.9069462E-1,-4.168663E-2,-1.130689E-1],"split_indices":[0,22,95,86,50,85,73,74,73,0,50,16,64,0,0,73,46,46,0,92,78,0,60,0,44,0,0,0,0,0,0,0,0,0,0,0,0,0,0],"split_type":[0,0,0,0,0,0,0,0,0,0,0,0,0,0,0,0,0,0,0,0,0,0,0,0,0,0,0,0,0,0,0,0,0,0,0,0,0,0,0],"sum_hessian":[1.34E2,9E1,4.4E1,4.9E1,4.1E1,3.7E1,7E0,2.8E1,2.1E1,3E0,3.8E1,2.5E1,1.2E1,4E0,3E0,1.8E1,1E1,1.6E1,5E0,2.6E1,1.2E1,3E0,2.2E1,4E0,8E0,9E0,9E0,4E0,6E0,7E0,9E0,1.2E1,1.4E1,7E0,5E0,7E0,1.5E1,3E0,5E0],"tree_param":{"num_deleted":"0","num_feature":"98","num_nodes":"39","size_leaf_vector":"1"}},{"base_weights":[-8.8819906E-2,1.3939556E0,-3.0216293E0,1.9645455E-1,2.7775033E0,-6.809953E0,-1.8454927E0,1.2608721E0,-2.782741E0,-1.3663727E-1,3.3968468E0,-1.4114761E-1,-7.9522095E0,1.8177675E-1,-2.597247E0,7.584996E-1,1.7245375E-1,-4.0432196E0,-2.141164E-2,1.60819E0,4.019848E0,-4.7034332E-1,-2.072918E-1,-3.7969263E0,-3.672321E-1,1.3381843E-1,6.960649E-3,-7.73922E-2,-2.516467E-1,1.1832237E-1,3.666992E-3,7.8331165E-2,2.4399045E-1,-1.0472794E-1,-2.2258638E-1,-6.105545E-2,9.296341E-2],"categories":[],"categories_nodes":[],"categories_segments":[],"categories_sizes":[],"default_left":[0,0,0,0,0,0,0,0,0,0,0,0,0,0,0,0,0,0,0,0,0,0,0,0,0,0,0,0,0,0,0,0,0,0,0,0,0],"id":26,"left_children":[1,3,5,7,9,11,13,15,17,-1,19,-1,21,-1,23,25,-1,27,-1,29,31,-1,-1,33,35,-1,-1,-1,-1,-1,-1,-1,-1,-1,-1,-1,-1],"loss_changes":[6.217272E2,1.5685033E2,2.0130048E2,1.684063E2,1.5944312E2,2.7647247E1,1.6601704E2,4.0256294E1,3.981785E1,0E0,3.8108765E1,0E0,5.2964478E0,0E0,8.956595E1,3.882187E1,0E0,1.443718E1,0E0,1.3792183E1,5.3535828E1,0E0,0E0,1.519928E1,2.6985413E1,0E0,0E0,0E0,0E0,0E0,0E0,0E0,0E0,0E0,0E0,0E0,0E0],"parents":[2147483647,0,0,1,1,2,2,3,3,4,4,5,5,6,6,7,7,8,8,10,10,12,12,14,14,15,15,17,17,19,19,20,20,23,23,24,24],"right_children":[2,4,6,8,10,12,14,16,18,-1,20,-1,22,-1,24,26,-1,28,-1,30,32,-1,-1,34,36,-1,-1,-1,-1,-1,-1,-1,-1,-1,-1,-1,-1],"split_conditions":[5.0311E2,4.872E2,4.9706E2,4.8627E2,4.89E2,5.0025E2,4.9496E2,4.8378E2,4.8889E2,-1.3663727E-1,3.2062E6,-1.4114761E-1,5.0975E2,1.8177675E-1,5.2141E2,4.7284E2,1.7245375E-1,4.8654E2,-2.141164E-2,4.9986E2,4.8964E2,-4.7034332E-1,-2.072918E-1,5.0978E2,5.2588E2,1.3381843E-1,6.960649E-3,-7.73922E-2,-2.516467E-1,1.1832237E-1,3.666992E-3,7.8331165E-2,2.4399045E-1,-1.0472794E-1,-2.2258638E-1,-6.105545E-2,9.296341E-2],"split_indices":[3,16,92,65,52,16,94,44,30,0,81,0,22,0,85,87,0,21,0,17,84,0,0,78,44,0,0,0,0,0,0,0,0,0,0,0,0],"split_type":[0,0,0,0,0,0,0,0,0,0,0,0,0,0,0,0,0,0,0,0,0,0,0,0,0,0,0,0,0,0,0,0,0,0,0,0,0],"sum_hessian":[1.41E2,9.4E1,4.7E1,5.1E1,4.3E1,1E1,3.7E1,3.8E1,1.3E1,4E0,3.9E1,3E0,7E0,4E0,3.3E1,3.2E1,6E0,8E0,5E0,1.1E1,2.8E1,4E0,3E0,2.1E1,1.2E1,7E0,2.5E1,3E0,5E0,7E0,4E0,8E0,2E1,7E0,1.4E1,9E0,3E0],"tree_param":{"num_deleted":"0","num_feature":"98","num_nodes":"37","size_leaf_vector":"1"}},{"base_weights":[-1.3433975E-1,1.3314136E0,-2.9354692E0,7.6610714E-2,2.9059966E0,-5.063418E0,-3.839153E-1,1.2011888E0,-2.627484E0,-1.3117218E-1,3.612888E0,-2.1033359E0,-6.332672E0,-1.5549793E0,2.3476474E0,-2.8502908E-1,1.8665259E0,-3.412712E0,1.925354E-2,4.811941E0,2.0602472E0,-4.4735465E-2,-1.6952209E-1,-7.352638E0,-1.20711364E-1,-2.5441163E0,8.021327E-2,2.1127358E-1,-5.854416E-3,1.3133677E-2,-4.3825533E-2,4.945984E-2,1.4465998E-1,-9.164233E-2,-2.3435517E-1,9.513428E-2,2.7304485E-1,1.3468418E-1,6.317139E-5,-4.1056442E-1,-1.6839257E-1,-3.7146E-2,-1.6049631E-1,3.2380678E-2,-2.5362015E-2],"categories":[],"categories_nodes":[],"categories_segments":[],"categories_sizes":[],"default_left":[0,0,0,0,0,0,0,0,0,0,0,0,0,0,0,0,0,0,0,0,0,0,0,0,0,0,0,0,0,0,0,0,0,0,0,0,0,0,0,0,0,0,0,0,0],"id":27,"left_children":[1,3,5,7,9,11,13,15,17,-1,19,21,23,25,27,29,31,33,-1,35,37,-1,-1,39,-1,41,43,-1,-1,-1,-1,-1,-1,-1,-1,-1,-1,-1,-1,-1,-1,-1,-1,-1,-1],"loss_changes":[5.499751E2,1.7364699E2,2.4781656E2,1.552044E2,1.6191809E2,8.060773E1,7.402492E1,3.6130104E1,3.679728E1,0E0,5.5245667E1,1.09672165E1,5.0192627E1,2.608294E1,3.289313E1,4.117708E0,1.9656334E1,1.5569672E1,0E0,2.5481232E1,2.2168594E1,0E0,0E0,1.6825684E1,0E0,9.607826E0,2.6617448E0,0E0,0E0,0E0,0E0,0E0,0E0,0E0,0E0,0E0,0E0,0E0,0E0,0E0,0E0,0E0,0E0,0E0,0E0],"parents":[2147483647,0,0,1,1,2,2,3,3,4,4,5,5,6,6,7,7,8,8,10,10,11,11,12,12,13,13,14,14,15,15,16,16,17,17,19,19,20,20,23,23,25,25,26,26],"right_children":[2,4,6,8,10,12,14,16,18,-1,20,22,24,26,28,30,32,34,-1,36,38,-1,-1,40,-1,42,44,-1,-1,-1,-1,-1,-1,-1,-1,-1,-1,-1,-1,-1,-1,-1,-1,-1,-1],"split_conditions":[4.9947E2,4.872E2,5.16E2,4.9008E2,4.89E2,3.7487E6,5.36E2,4.1871E6,4.9113E2,-1.3117218E-1,5.0014E2,5.1431E2,5.0186E6,5.36E2,5.15E2,4.4166E6,4.2229E6,4.6636E6,1.925354E-2,3.2062E6,4.9764E2,-4.4735465E-2,-1.6952209E-1,5.2875E6,-1.20711364E-1,5.1233E2,5.3534E2,2.1127358E-1,-5.854416E-3,1.3133677E-2,-4.3825533E-2,4.945984E-2,1.4465998E-1,-9.164233E-2,-2.3435517E-1,9.513428E-2,2.7304485E-1,1.3468418E-1,6.317139E-5,-4.1056442E-1,-1.6839257E-1,-3.7146E-2,-1.6049631E-1,3.2380678E-2,-2.5362015E-2],"split_indices":[9,16,85,66,52,67,71,67,10,0,36,10,95,22,0,95,39,4,0,11,7,0,0,11,0,94,1,0,0,0,0,0,0,0,0,0,0,0,0,0,0,0,0,0,0],"split_type":[0,0,0,0,0,0,0,0,0,0,0,0,0,0,0,0,0,0,0,0,0,0,0,0,0,0,0,0,0,0,0,0,0,0,0,0,0,0,0,0,0,0,0,0,0],"sum_hessian":[1.32E2,8.7E1,4.5E1,4.9E1,3.8E1,2.4E1,2.1E1,3.5E1,1.4E1,4E0,3.4E1,8E0,1.6E1,1.5E1,6E0,1.1E1,2.4E1,1.1E1,3E0,1.8E1,1.6E1,5E0,3E0,1.2E1,4E0,9E0,6E0,3E0,3E0,6E0,5E0,1.4E1,1E1,6E0,5E0,4E0,1.4E1,1.2E1,4E0,9E0,3E0,3E0,6E0,3E0,3E0],"tree_param":{"num_deleted":"0","num_feature":"98","num_nodes":"45","size_leaf_vector":"1"}},{"base_weights":[-2.2773318E-2,1.3808367E0,-2.8587608E0,2.9019442E-1,2.7437317E0,-6.6178513E0,-1.5623325E0,1.674309E0,-1.7083262E0,3.808039E-2,3.5624723E0,-1.2805863E-1,-7.685503E0,1.7309998E-1,-2.2762516E0,1.0039767E0,1.8218003E-1,-4.9220276E-1,-3.2400665E0,1.4749731E-1,-1.440066E-1,2.100383E0,5.396709E0,-4.4924065E-1,-1.9075814E-1,-3.6839752E0,-1.0262843E-1,3.692322E-3,1.0414874E-1,7.566185E-2,-5.8835395E-2,-2.1050541E-1,-7.140015E-2,1.4404322E-1,4.131826E-2,3.0630395E-1,1.0208817E-1,-2.037112E-1,-5.5221178E-2,-6.463831E-2,1.5979539E-1],"categories":[],"categories_nodes":[],"categories_segments":[],"categories_sizes":[],"default_left":[0,0,0,0,0,0,0,0,0,0,0,0,0,0,0,0,0,0,0,0,0,0,0,0,0,0,0,0,0,0,0,0,0,0,0,0,0,0,0,0,0],"id":28,"left_children":[1,3,5,7,9,11,13,15,17,19,21,-1,23,-1,25,27,-1,29,31,-1,-1,33,35,-1,-1,37,39,-1,-1,-1,-1,-1,-1,-1,-1,-1,-1,-1,-1,-1,-1],"loss_changes":[5.771568E2,1.4338759E2,2.2358356E2,1.5500026E2,9.511908E1,3.228955E1,1.4059811E2,3.9904533E1,4.124929E1,1.019681E2,7.7164856E1,0E0,1.0980408E1,0E0,1.00597336E2,2.5940006E1,0E0,2.0998913E1,1.1565735E1,0E0,0E0,1.7506294E1,2.174997E1,0E0,0E0,1.5633667E1,5.9091534E1,0E0,0E0,0E0,0E0,0E0,0E0,0E0,0E0,0E0,0E0,0E0,0E0,0E0,0E0],"parents":[2147483647,0,0,1,1,2,2,3,3,4,4,5,5,6,6,7,7,8,8,9,9,10,10,12,12,14,14,15,15,17,17,18,18,21,21,22,22,25,25,26,26],"right_children":[2,4,6,8,10,12,14,16,18,20,22,-1,24,-1,26,28,-1,30,32,-1,-1,34,36,-1,-1,38,40,-1,-1,-1,-1,-1,-1,-1,-1,-1,-1,-1,-1,-1,-1],"split_conditions":[5.0311E2,4.872E2,4.9706E2,4.8111E2,4.8964E2,5.0025E2,4.9496E2,4.806E2,4.9225E2,4.792E2,3.7969E6,-1.2805863E-1,5.0975E2,1.7309998E-1,5.2141E2,4.5041E6,1.8218003E-1,4.1932E6,4.9471E2,1.4749731E-1,-1.440066E-1,5.0025E2,4.9973E6,-4.4924065E-1,-1.9075814E-1,5.3592E2,5.3738E2,3.692322E-3,1.0414874E-1,7.566185E-2,-5.8835395E-2,-2.1050541E-1,-7.140015E-2,1.4404322E-1,4.131826E-2,3.0630395E-1,1.0208817E-1,-2.037112E-1,-5.5221178E-2,-6.463831E-2,1.5979539E-1],"split_indices":[3,16,92,86,84,16,94,51,43,93,81,0,22,0,85,60,0,81,29,0,0,15,4,0,0,43,57,0,0,0,0,0,0,0,0,0,0,0,0,0,0],"split_type":[0,0,0,0,0,0,0,0,0,0,0,0,0,0,0,0,0,0,0,0,0,0,0,0,0,0,0,0,0,0,0,0,0,0,0,0,0,0,0,0,0],"sum_hessian":[1.43E2,9.6E1,4.7E1,5.4E1,4.2E1,1.1E1,3.6E1,3.2E1,2.2E1,1E1,3.2E1,3E0,8E0,4E0,3.2E1,2.5E1,7E0,1.3E1,9E0,5E0,5E0,1.9E1,1.3E1,5E0,3E0,1.9E1,1.3E1,1.4E1,1.1E1,3E0,1E1,5E0,4E0,1.1E1,8E0,1E1,3E0,1.6E1,3E0,1E1,3E0],"tree_param":{"num_deleted":"0","num_feature":"98","num_nodes":"41","size_leaf_vector":"1"}},{"base_weights":[-2.1366915E-1,1.2606151E0,-2.4882236E0,3.1772614E-1,2.4184587E0,-6.726346E0,-1.5128008E0,1.6206822E0,-1.5874466E0,3.802719E0,1.3503444E0,-1.795813E-1,-4.1087776E-1,3.042825E0,-2.2722154E0,5.728117E-1,3.283306E0,-6.5454507E-1,-1.8275629E-1,1.0650971E-1,2.0913556E-1,-2.3356934E-1,2.3852582E0,1.07128145E-2,2.5553438E-1,-3.0606995E0,1.2643089E0,5.4755878E-2,-8.298073E-2,7.974592E-2,2.4951935E-1,-1.01865545E-1,1.6744441E-3,2.8915405E-2,-5.805542E-2,1.5875785E-1,-1.9163895E-2,-1.9378708E-1,-5.3913742E-2,-1.4880982E-2,1.4503212E-1],"categories":[],"categories_nodes":[],"categories_segments":[],"categories_sizes":[],"default_left":[0,0,0,0,0,0,0,0,0,0,0,0,0,0,0,0,0,0,0,0,0,0,0,0,0,0,0,0,0,0,0,0,0,0,0,0,0,0,0,0,0],"id":29,"left_children":[1,3,5,7,9,11,13,15,17,19,21,-1,-1,23,25,27,29,31,-1,-1,-1,33,35,-1,-1,37,39,-1,-1,-1,-1,-1,-1,-1,-1,-1,-1,-1,-1,-1,-1],"loss_changes":[4.6925092E2,9.20276E1,2.1719226E2,1.2172586E2,5.1049866E1,1.7230865E1,1.6605591E2,4.86435E1,3.618638E1,1.2587585E0,3.8259052E1,0E0,0E0,3.9848633E1,1.1540939E2,2.3971651E1,2.374511E1,1.4339075E1,0E0,0E0,0E0,8.201959E0,3.1833054E1,0E0,0E0,4.914096E1,2.1309973E1,0E0,0E0,0E0,0E0,0E0,0E0,0E0,0E0,0E0,0E0,0E0,0E0,0E0,0E0],"parents":[2147483647,0,0,1,1,2,2,3,3,4,4,5,5,6,6,7,7,8,8,9,9,10,10,13,13,14,14,15,15,16,16,17,17,21,21,22,22,25,25,26,26],"right_children":[2,4,6,8,10,12,14,16,18,20,22,-1,-1,24,26,28,30,32,-1,-1,-1,34,36,-1,-1,38,40,-1,-1,-1,-1,-1,-1,-1,-1,-1,-1,-1,-1,-1,-1],"split_conditions":[5.01E2,4.9442E2,4.9298E2,4.8111E2,4.9572E2,4.872E2,5.0741E2,4.6636E6,4.9496E2,4.8782E2,4.945E2,-1.795813E-1,-4.1087776E-1,3.7487E6,6.3843E6,6.4109E6,4.2229E6,4.8577E2,-1.8275629E-1,1.0650971E-1,2.0913556E-1,4.9984E2,5.5121E6,1.07128145E-2,2.5553438E-1,5.2141E2,5.3329E2,5.4755878E-2,-8.298073E-2,7.974592E-2,2.4951935E-1,-1.01865545E-1,1.6744441E-3,2.8915405E-2,-5.805542E-2,1.5875785E-1,-1.9163895E-2,-1.9378708E-1,-5.3913742E-2,-1.4880982E-2,1.4503212E-1],"split_indices":[0,29,85,86,38,72,0,74,66,37,84,0,0,25,95,32,39,77,0,0,0,59,25,0,0,85,78,0,0,0,0,0,0,0,0,0,0,0,0,0,0],"split_type":[0,0,0,0,0,0,0,0,0,0,0,0,0,0,0,0,0,0,0,0,0,0,0,0,0,0,0,0,0,0,0,0,0,0,0,0,0,0,0,0,0],"sum_hessian":[1.38E2,8.4E1,5.4E1,4.7E1,3.7E1,9E0,4.5E1,2.8E1,1.9E1,1.5E1,2.2E1,4E0,5E0,6E0,3.9E1,1.8E1,1E1,1.4E1,5E0,4E0,1.1E1,9E0,1.3E1,3E0,3E0,3.2E1,7E0,1.5E1,3E0,6E0,4E0,4E0,1E1,5E0,4E0,1E1,3E0,2.2E1,1E1,4E0,3E0],"tree_param":{"num_deleted":"0","num_feature":"98","num_nodes":"41","size_leaf_vector":"1"}},{"base_weights":[1.8157959E-3,1.2853041E0,-2.538459E0,3.37868E-1,2.4728336E0,-3.379833E0,2.090889E0,1.7054577E0,-1.5795554E0,7.014965E-1,3.0044546E0,-4.0693913E0,-8.352631E-1,2.2205658E-1,-1.0374146E-2,1.1102735E0,1.6761132E-1,-7.046566E-1,-1.5659542E-1,1.6644935E-1,-6.999359E-1,8.772694E-1,3.9314811E0,1.3973999E-3,-4.6557236E0,2.9423142E-2,-7.647487E-2,8.8368624E-2,-4.1594587E-2,-1.3827172E-1,-8.183406E-4,-1.02565005E-1,2.605713E-2,8.694573E-2,-5.326691E-2,9.294892E-3,2.2565524E-1,-2.8954324E-1,-1.5534745E-1],"categories":[],"categories_nodes":[],"categories_segments":[],"categories_sizes":[],"default_left":[0,0,0,0,0,0,0,0,0,0,0,0,0,0,0,0,0,0,0,0,0,0,0,0,0,0,0,0,0,0,0,0,0,0,0,0,0,0,0],"id":30,"left_children":[1,3,5,7,9,11,13,15,17,19,21,23,25,-1,-1,27,-1,29,-1,-1,31,33,35,-1,37,-1,-1,-1,-1,-1,-1,-1,-1,-1,-1,-1,-1,-1,-1],"loss_changes":[4.6624136E2,1.06049805E2,1.9402744E2,1.4429529E2,3.7442932E1,6.85408E1,4.4135315E1,2.7642296E1,2.9030571E1,4.283483E1,5.9653656E1,7.700696E1,1.0784048E1,0E0,0E0,3.3375137E1,0E0,2.2649336E1,0E0,0E0,1.4269994E1,2.0264751E1,4.70885E1,0E0,3.1234314E1,0E0,0E0,0E0,0E0,0E0,0E0,0E0,0E0,0E0,0E0,0E0,0E0,0E0,0E0],"parents":[2147483647,0,0,1,1,2,2,3,3,4,4,5,5,6,6,7,7,8,8,9,9,10,10,11,11,12,12,15,15,17,17,20,20,21,21,22,22,24,24],"right_children":[2,4,6,8,10,12,14,16,18,20,22,24,26,-1,-1,28,-1,30,-1,-1,32,34,36,-1,38,-1,-1,-1,-1,-1,-1,-1,-1,-1,-1,-1,-1,-1,-1],"split_conditions":[4.9808E2,4.872E2,6.3843E6,4.8111E2,4.9016E2,5.2141E2,5.2545E2,4.806E2,4.9984E2,4.9057E2,3.2062E6,3.4415E6,4.2051E6,2.2205658E-1,-1.0374146E-2,4.8578E2,1.6761132E-1,4.8568E2,-1.5659542E-1,1.6644935E-1,4.9673E2,5.0279E2,4.8657E2,1.3973999E-3,5.0283E2,2.9423142E-2,-7.647487E-2,8.8368624E-2,-4.1594587E-2,-1.3827172E-1,-8.183406E-4,-1.02565005E-1,2.605713E-2,8.694573E-2,-5.326691E-2,9.294892E-3,2.2565524E-1,-2.8954324E-1,-1.5534745E-1],"split_indices":[2,16,81,86,73,85,28,51,73,14,74,81,11,0,0,0,0,80,0,0,8,57,9,0,79,0,0,0,0,0,0,0,0,0,0,0,0,0,0],"split_type":[0,0,0,0,0,0,0,0,0,0,0,0,0,0,0,0,0,0,0,0,0,0,0,0,0,0,0,0,0,0,0,0,0,0,0,0,0,0,0],"sum_hessian":[1.41E2,9.4E1,4.7E1,5.3E1,4.1E1,4E1,7E0,3.1E1,2.2E1,1E1,3.1E1,3.1E1,9E0,3E0,4E0,2.4E1,7E0,1.5E1,7E0,3E0,7E0,1E1,2.1E1,4E0,2.7E1,3E0,6E0,1.8E1,6E0,3E0,1.2E1,3E0,4E0,7E0,3E0,3E0,1.8E1,1.4E1,1.3E1],"tree_param":{"num_deleted":"0","num_feature":"98","num_nodes":"39","size_leaf_vector":"1"}}]},"name":"gbtree"},"learner_model_param":{"base_score":"[4.9124234E2]","boost_from_average":"1","num_class":"0","num_feature":"98","num_target":"1"},"objective":{"name":"reg:squarederror","reg_loss_param":{"scale_pos_weight":"1"}}},"version":[3,2,0]}