{"learner":{"attributes":{"best_iteration":"4","best_score":"9.048106001209504"},"feature_names":[],"feature_types":[],"gradient_booster":{"model":{"cats":{"enc":[],"feature_segments":[],"sorted_idx":[]},"gbtree_model_param":{"num_parallel_tree":"1","num_trees":"35"},"iteration_indptr":[0,1,2,3,4,5,6,7,8,9,10,11,12,13,14,15,16,17,18,19,20,21,22,23,24,25,26,27,28,29,30,31,32,33,34,35],"tree_info":[0,0,0,0,0,0,0,0,0,0,0,0,0,0,0,0,0,0,0,0,0,0,0,0,0,0,0,0,0,0,0,0,0,0,0],"trees":[{"base_weights":[-4.53205E-1,3.0527039E0,-6.2657857E0,2.3784268E-1,9.403396E0,-1.3156579E1,2.60878E0,5.2894206E0,-4.361708E0,-3.2045153E-1,1.3514514E1,-5.966708E0,-1.5953822E1,-6.6006637E-1,1.0641702E1,6.4523354E0,1.2848625E0,-1.1038511E1,5.3013915E-1,3.437958E-2,-6.322022E-2,7.4064E-1,2.4713707E-1,1.4938699E-1,-5.1155746E-1,-8.943288E-1,-4.0704218E-1,-3.477476E0,5.0351185E-1,6.908871E-1,2.4026184E-1,1.4554113E-1,3.6371884E-1,1.4363709E-1,-1.2120667E-2,-2.3625692E-2,-8.4280044E-1,1.6935883E-1,-4.3592045E-1,1.7387008E-2,-2.2313793E-1],"categories":[],"categories_nodes":[],"categories_segments":[],"categories_sizes":[],"default_left":[0,0,0,0,0,0,0,0,0,0,0,0,0,0,0,0,0,0,0,0,0,0,0,0,0,0,0,0,0,0,0,0,0,0,0,0,0,0,0,0,0],"id":0,"left_children":[1,3,5,7,9,11,13,15,17,19,21,23,25,27,29,31,33,35,37,-1,-1,-1,-1,-1,-1,-1,-1,39,-1,-1,-1,-1,-1,-1,-1,-1,-1,-1,-1,-1,-1],"loss_changes":[2.8721003E3,1.5708794E3,3.2754204E3,1.4636404E3,1.0836797E3,5.081631E2,6.372256E2,1.3141852E2,1.0836947E3,9.433299E0,1.3822754E2,4.124252E2,1.715E2,5.7918884E2,6.3360413E1,4.578479E1,2.0097424E1,8.525824E2,5.5799963E2,0E0,0E0,0E0,0E0,0E0,0E0,0E0,0E0,5.8085648E1,0E0,0E0,0E0,0E0,0E0,0E0,0E0,0E0,0E0,0E0,0E0,0E0,0E0],"parents":[2147483647,0,0,1,1,2,2,3,3,4,4,5,5,6,6,7,7,8,8,9,9,10,10,11,11,12,12,13,13,14,14,15,15,16,16,17,17,18,18,27,27],"right_children":[2,4,6,8,10,12,14,16,18,20,22,24,26,28,30,32,34,36,38,-1,-1,-1,-1,-1,-1,-1,-1,40,-1,-1,-1,-1,-1,-1,-1,-1,-1,-1,-1,-1,-1],"split_conditions":[5.0016E2,4.9408E2,5.1575E2,4.8608E2,4.905E2,3.7121E6,6.3841E6,4.8936E6,4.8807E2,4.894E2,4.8936E6,4.9986E2,4.0158E6,6.1293E6,5.2952E2,4.7284E2,4.7304E2,4.8577E2,4.9725E2,3.437958E-2,-6.322022E-2,7.4064E-1,2.4713707E-1,1.4938699E-1,-5.1155746E-1,-8.943288E-1,-4.0704218E-1,5.1239E2,5.0351185E-1,6.908871E-1,2.4026184E-1,1.4554113E-1,3.6371884E-1,1.4363709E-1,-1.2120667E-2,-2.3625692E-2,-8.4280044E-1,1.6935883E-1,-4.3592045E-1,1.7387008E-2,-2.2313793E-1],"split_indices":[0,59,78,64,3,32,81,81,66,8,53,3,67,67,31,94,56,0,14,0,0,0,0,0,0,0,0,80,0,0,0,0,0,0,0,0,0,0,0,0,0],"split_type":[0,0,0,0,0,0,0,0,0,0,0,0,0,0,0,0,0,0,0,0,0,0,0,0,0,0,0,0,0,0,0,0,0,0,0,0,0,0,0,0,0],"sum_hessian":[1.39E2,8.7E1,5.2E1,6.1E1,2.6E1,2.9E1,2.3E1,2.9E1,3.2E1,8E0,1.8E1,9E0,2E1,1.7E1,6E0,2.2E1,7E0,1.3E1,1.9E1,4E0,4E0,1.5E1,3E0,3E0,6E0,1.5E1,5E0,1.4E1,3E0,3E0,3E0,5E0,1.7E1,3E0,4E0,5E0,8E0,1.5E1,4E0,3E0,1.1E1],"tree_param":{"num_deleted":"0","num_feature":"98","num_nodes":"41","size_leaf_vector":"1"}},{"base_weights":[5.629672E-1,3.7894623E0,-4.5859504E0,8.58255E-1,1.0162907E1,-1.1240459E1,4.2005386E0,5.130555E0,-3.0403376E0,-2.9366302E-1,1.3837389E1,2.8546525E-2,-1.2526357E1,1.7460823E-1,1.0891022E1,6.313167E0,1.2370529E0,3.9224264E-1,-5.8540297E0,3.3003848E-2,-7.062111E-2,4.3975112E-1,7.685093E-1,-3.829346E-2,-1.390698E1,-2.495013E0,3.2733887E-1,6.543478E-1,2.4371834E-1,3.9887735E-1,1.9617783E-1,1.21791385E-1,-2.8533936E-2,-9.010782E-2,-6.078406E-1,-8.480236E-1,-5.148173E-1,-2.2158253E-1,-2.393036E-2],"categories":[],"categories_nodes":[],"categories_segments":[],"categories_sizes":[],"default_left":[0,0,0,0,0,0,0,0,0,0,0,0,0,0,0,0,0,0,0,0,0,0,0,0,0,0,0,0,0,0,0,0,0,0,0,0,0,0,0],"id":1,"left_children":[1,3,5,7,9,11,13,15,17,19,21,-1,23,25,27,29,31,-1,33,-1,-1,-1,-1,-1,35,37,-1,-1,-1,-1,-1,-1,-1,-1,-1,-1,-1,-1,-1],"loss_changes":[2.3265796E3,1.5979197E3,3.2045835E3,1.0149561E3,1.0414707E3,4.7798633E2,6.4454834E2,1.2572089E2,1.0260065E3,9.468349E0,1.9397705E1,0E0,4.439795E2,2.8851474E2,5.511902E1,5.6198486E1,1.8726578E1,0E0,6.420815E2,0E0,0E0,0E0,0E0,0E0,1.0099512E2,4.4739555E1,0E0,0E0,0E0,0E0,0E0,0E0,0E0,0E0,0E0,0E0,0E0,0E0,0E0],"parents":[2147483647,0,0,1,1,2,2,3,3,4,4,5,5,6,6,7,7,8,8,9,9,10,10,12,12,13,13,14,14,15,15,16,16,18,18,24,24,25,25],"right_children":[2,4,6,8,10,12,14,16,18,20,22,-1,24,26,28,30,32,-1,34,-1,-1,-1,-1,-1,36,38,-1,-1,-1,-1,-1,-1,-1,-1,-1,-1,-1,-1,-1],"split_conditions":[5.0085E2,4.9408E2,5.2141E2,4.8608E2,4.8667E2,4.856E2,6.3841E6,4.8936E6,3.5829E6,4.8378E2,4.895E2,2.8546525E-2,3.0574E6,6.1293E6,5.3151E2,4.755E2,4.74E2,3.9224264E-1,4.9057E2,3.3003848E-2,-7.062111E-2,4.3975112E-1,7.685093E-1,-3.829346E-2,4.001E6,4.3856E6,3.2733887E-1,6.543478E-1,2.4371834E-1,3.9887735E-1,1.9617783E-1,1.21791385E-1,-2.8533936E-2,-9.010782E-2,-6.078406E-1,-8.480236E-1,-5.148173E-1,-2.2158253E-1,-2.393036E-2],"split_indices":[0,59,29,64,2,37,81,81,53,9,2,0,67,67,56,77,63,0,7,0,0,0,0,0,67,4,0,0,0,0,0,0,0,0,0,0,0,0,0],"split_type":[0,0,0,0,0,0,0,0,0,0,0,0,0,0,0,0,0,0,0,0,0,0,0,0,0,0,0,0,0,0,0,0,0,0,0,0,0,0,0],"sum_hessian":[1.38E2,8.5E1,5.3E1,5.9E1,2.6E1,3E1,2.3E1,2.8E1,3.1E1,7E0,1.9E1,3E0,2.7E1,1.5E1,8E0,2.1E1,7E0,6E0,2.5E1,4E0,3E0,6E0,1.3E1,3E0,2.4E1,1.1E1,4E0,5E0,3E0,1.1E1,1E1,4E0,3E0,1.6E1,9E0,1.1E1,1.3E1,5E0,6E0],"tree_param":{"num_deleted":"0","num_feature":"98","num_nodes":"39","size_leaf_vector":"1"}},{"base_weights":[5.1118714E-1,3.2647135E0,-3.8325336E0,-1.4308357E-1,7.4833856E0,-1.1495577E1,3.1699376E0,3.2269626E0,-1.0522136E1,-1.0159668E0,1.0156149E1,-4.005422E0,-1.4602012E1,3.5406494E-1,1.0517345E1,5.4486165E0,-2.9497147E-2,-7.07173E-1,1.2818909E-2,6.146576E-2,-1.3588537E-1,3.2711349E0,1.3607676E1,1.5117799E-1,-4.0119195E-1,-8.0074275E-1,-2.8266755E-1,-1.8449787E0,5.355503E-1,2.133133E-1,6.7073697E-1,1.3877015E-1,3.5429054E-1,5.2026507E-2,-9.931488E-2,3.6597195E-1,-2.8216287E-1,4.1747078E-1,7.4446195E-1,-1.9751012E-1,1.1641454E-1],"categories":[],"categories_nodes":[],"categories_segments":[],"categories_sizes":[],"default_left":[0,0,0,0,0,0,0,0,0,0,0,0,0,0,0,0,0,0,0,0,0,0,0,0,0,0,0,0,0,0,0,0,0,0,0,0,0,0,0,0,0],"id":2,"left_children":[1,3,5,7,9,11,13,15,17,19,21,23,25,27,29,31,33,-1,-1,-1,-1,35,37,-1,-1,-1,-1,39,-1,-1,-1,-1,-1,-1,-1,-1,-1,-1,-1,-1,-1],"loss_changes":[1.6630681E3,1.2230629E3,2.9340938E3,1.712893E3,8.7355493E2,5.464724E2,5.962677E2,2.6784564E2,4.720161E2,4.1549793E1,6.446382E2,2.78469E2,1.3703735E2,5.208197E2,8.766394E1,7.661859E1,3.556808E1,0E0,0E0,0E0,0E0,4.3827533E2,3.7207031E0,0E0,0E0,0E0,0E0,1.7612488E2,0E0,0E0,0E0,0E0,0E0,0E0,0E0,0E0,0E0,0E0,0E0,0E0,0E0],"parents":[2147483647,0,0,1,1,2,2,3,3,4,4,5,5,6,6,7,7,8,8,9,9,10,10,11,11,12,12,13,13,14,14,15,15,16,16,21,21,22,22,27,27],"right_children":[2,4,6,8,10,12,14,16,18,20,22,24,26,28,30,32,34,-1,-1,-1,-1,36,38,-1,-1,-1,-1,40,-1,-1,-1,-1,-1,-1,-1,-1,-1,-1,-1,-1,-1],"split_conditions":[5.0085E2,4.929E2,5.16E2,4.8754E2,4.8667E2,3.7121E6,6.3843E6,4.8314E2,4.9673E2,3.9376E6,4.9699E2,4.9861E2,5.0448E6,5.3592E2,4.2543E6,4.0561E6,4.6744E6,-7.07173E-1,1.2818909E-2,6.146576E-2,-1.3588537E-1,4.2606E6,4.895E2,1.5117799E-1,-4.0119195E-1,-8.0074275E-1,-2.8266755E-1,6.1293E6,5.355503E-1,2.133133E-1,6.7073697E-1,1.3877015E-1,3.5429054E-1,5.2026507E-2,-9.931488E-2,3.6597195E-1,-2.8216287E-1,4.1747078E-1,7.4446195E-1,-1.9751012E-1,1.1641454E-1],"split_indices":[0,36,57,3,2,32,95,50,1,11,57,2,67,85,60,53,60,0,0,0,0,11,2,0,0,0,0,32,0,0,0,0,0,0,0,0,0,0,0,0,0],"split_type":[0,0,0,0,0,0,0,0,0,0,0,0,0,0,0,0,0,0,0,0,0,0,0,0,0,0,0,0,0,0,0,0,0,0,0,0,0,0,0,0,0],"sum_hessian":[1.37E2,8.4E1,5.3E1,4.7E1,3.7E1,2.5E1,2.8E1,3.6E1,1.1E1,9E0,2.8E1,8E0,1.7E1,2.1E1,7E0,2.1E1,1.5E1,8E0,3E0,4E0,5E0,1E1,1.8E1,3E0,5E0,1.4E1,3E0,1.8E1,3E0,3E0,4E0,9E0,1.2E1,1E1,5E0,7E0,3E0,5E0,1.3E1,1.2E1,6E0],"tree_param":{"num_deleted":"0","num_feature":"98","num_nodes":"41","size_leaf_vector":"1"}},{"base_weights":[6.5347403E-1,-2.592663E-1,6.730323E-1,2.5117433E0,-7.067445E0,9.367588E0,9.2426187E-1,-1.196193E1,4.1262283E0,5.7523793E-1,9.687134E-2,2.4911883E0,-4.5682626E0,-1.3761441E1,-2.5558123E-1,-1.5019403E-1,4.8241448E-1,1.7599611E-1,-2.8268412E-1,-4.162098E-1,1.8524908E-1,-7.3962134E-1,-2.9696962E-1],"categories":[],"categories_nodes":[],"categories_segments":[],"categories_sizes":[],"default_left":[0,0,0,0,0,0,0,0,0,0,0,0,0,0,0,0,0,0,0,0,0,0,0],"id":3,"left_children":[1,3,-1,5,7,9,11,13,15,-1,-1,17,19,21,-1,-1,-1,-1,-1,-1,-1,-1,-1],"loss_changes":[1.5815889E3,2.4136736E3,0E0,9.817427E2,2.0764868E3,2.4766223E2,6.5685895E2,2.5016406E2,5.014571E2,0E0,0E0,5.142559E2,5.590948E2,7.3430176E1,0E0,0E0,0E0,0E0,0E0,0E0,0E0,0E0,0E0],"parents":[2147483647,0,0,1,1,3,3,4,4,5,5,6,6,7,7,8,8,11,11,12,12,13,13],"right_children":[2,4,-1,6,8,10,12,14,16,-1,-1,18,20,22,-1,-1,-1,-1,-1,-1,-1,-1,-1],"split_conditions":[5.36E2,4.9947E2,6.730323E-1,3.5352E6,5.3329E2,4.7685E6,5.0607E6,5.1619E6,5.3592E2,5.7523793E-1,9.687134E-2,5.8893E6,4.937E2,5.2141E2,-2.5558123E-1,-1.5019403E-1,4.8241448E-1,1.7599611E-1,-2.8268412E-1,-4.162098E-1,1.8524908E-1,-7.3962134E-1,-2.9696962E-1],"split_indices":[78,2,0,53,15,46,95,60,22,0,0,88,63,15,0,0,0,0,0,0,0,0,0],"split_type":[0,0,0,0,0,0,0,0,0,0,0,0,0,0,0,0,0,0,0,0,0,0,0],"sum_hessian":[1.34E2,1.26E2,8E0,9E1,3.6E1,1.6E1,7.4E1,2.5E1,1.1E1,1.2E1,4E0,5.8E1,1.6E1,1.9E1,6E0,5E0,6E0,5.2E1,6E0,1.1E1,5E0,1.6E1,3E0],"tree_param":{"num_deleted":"0","num_feature":"98","num_nodes":"23","size_leaf_vector":"1"}},{"base_weights":[-6.9335407E-1,2.1650953E0,-4.542604E0,-2.4655043E-1,8.205417E0,-1.095234E1,2.4872055E0,3.979364E0,-4.614585E0,-2.0610046E-1,1.2144531E1,-5.7047873E0,-7.066888E-1,-4.4976515E-1,4.9429265E-1,2.4638548E0,3.8247967E-1,6.5434456E0,-8.645521E0,3.1812668E-2,-4.193817E-2,3.2611817E-1,6.798007E-1,1.0074585E-1,-9.359646E0,-2.9657938E0,5.005977E0,2.7560577E-1,4.8812486E-2,1.5364502E-1,4.622883E-1,-8.46652E-1,-2.4986783E-1,-2.3256378E-1,-5.4693097E-1,-1.23203825E-2,-2.3756698E-1,5.2048343E-1,-8.24604E-2],"categories":[],"categories_nodes":[],"categories_segments":[],"categories_sizes":[],"default_left":[0,0,0,0,0,0,0,0,0,0,0,0,0,0,0,0,0,0,0,0,0,0,0,0,0,0,0,0,0,0,0,0,0,0,0,0,0,0,0],"id":4,"left_children":[1,3,5,7,9,11,13,15,17,19,21,23,-1,25,-1,27,-1,29,31,-1,-1,-1,-1,-1,33,35,37,-1,-1,-1,-1,-1,-1,-1,-1,-1,-1,-1,-1],"loss_changes":[1.4732192E3,1.1236909E3,2.5956167E3,1.0520637E3,7.314496E2,4.2021265E2,6.1287537E2,1.4245822E2,1.315936E3,4.7970743E0,3.3729248E1,3.856465E2,0E0,3.031096E2,0E0,9.438019E1,0E0,4.6616882E1,5.5029846E2,0E0,0E0,0E0,0E0,0E0,1.6031006E1,7.1663055E1,2.6890567E2,0E0,0E0,0E0,0E0,0E0,0E0,0E0,0E0,0E0,0E0,0E0,0E0],"parents":[2147483647,0,0,1,1,2,2,3,3,4,4,5,5,6,6,7,7,8,8,9,9,10,10,11,11,13,13,15,15,17,17,18,18,24,24,25,25,26,26],"right_children":[2,4,6,8,10,12,14,16,18,20,22,24,-1,26,-1,28,-1,30,32,-1,-1,-1,-1,-1,34,36,38,-1,-1,-1,-1,-1,-1,-1,-1,-1,-1,-1,-1],"split_conditions":[5.0085E2,4.9799E2,5.16E2,4.811E2,4.8667E2,4.4823E6,6.3843E6,4.85E2,3.7969E6,4.8905E2,3.7076E6,4.9802E2,-7.066888E-1,5.3592E2,4.9429265E-1,4.7292E2,3.8247967E-1,3.2062E6,4.001E6,3.1812668E-2,-4.193817E-2,3.2611817E-1,6.798007E-1,1.0074585E-1,3.7487E6,5.1165E2,5.8893E6,2.7560577E-1,4.8812486E-2,1.5364502E-1,4.622883E-1,-8.46652E-1,-2.4986783E-1,-2.3256378E-1,-5.4693097E-1,-1.23203825E-2,-2.3756698E-1,5.2048343E-1,-8.24604E-2],"split_indices":[0,71,57,23,2,4,74,8,18,8,18,9,0,78,0,15,0,18,18,0,0,0,0,0,11,37,4,0,0,0,0,0,0,0,0,0,0,0,0],"split_type":[0,0,0,0,0,0,0,0,0,0,0,0,0,0,0,0,0,0,0,0,0,0,0,0,0,0,0,0,0,0,0,0,0,0,0,0,0,0,0],"sum_hessian":[1.32E2,7.6E1,5.6E1,5.5E1,2.1E1,2.9E1,2.7E1,2.8E1,2.7E1,7E0,1.4E1,1.2E1,1.7E1,2E1,7E0,2.1E1,7E0,7E0,2E1,3E0,4E0,4E0,1E1,4E0,8E0,1.4E1,6E0,6E0,1.5E1,4E0,3E0,5E0,1.5E1,3E0,5E0,6E0,8E0,3E0,3E0],"tree_param":{"num_deleted":"0","num_feature":"98","num_nodes":"39","size_leaf_vector":"1"}},{"base_weights":[4.550923E-1,2.7860496E0,-3.395098E0,5.4104716E-1,7.183186E0,-9.224975E0,4.8636475E0,4.805261E0,-3.3403044E0,-2.0853494E-1,1.0889473E1,1.1593018E-2,-1.0584231E1,6.8055725E-1,6.310936E-1,5.6953826E0,1.1941092E0,-8.575127E0,2.4304638E0,8.9968875E-2,-1.1864243E0,1.1618717E1,2.5339088E-1,-1.1971835E1,-1.7505239E-1,3.9039993E-1,-3.269007E0,3.652232E-1,1.8058434E-1,1.2565652E-1,-2.1171952E-2,-6.258869E-2,-6.788148E-1,2.560486E-1,-3.4606513E-1,-1.0882569E-2,-1.0503922E-1,3.2454163E-1,6.3486165E-1,-7.20844E-1,-3.996944E-1,-2.2388534E-1,-1.7177582E-3],"categories":[],"categories_nodes":[],"categories_segments":[],"categories_sizes":[],"default_left":[0,0,0,0,0,0,0,0,0,0,0,0,0,0,0,0,0,0,0,0,0,0,0,0,0,0,0,0,0,0,0,0,0,0,0,0,0,0,0,0,0,0,0],"id":5,"left_children":[1,3,5,7,9,11,13,15,17,19,21,-1,23,25,-1,27,29,31,33,-1,35,37,-1,39,-1,-1,41,-1,-1,-1,-1,-1,-1,-1,-1,-1,-1,-1,-1,-1,-1,-1,-1],"loss_changes":[1.2838563E3,8.746844E2,2.64483E3,1.0091059E3,8.241461E2,4.1379077E2,7.3783716E2,8.641565E1,9.8752795E2,2.3733501E1,2.6026611E1,0E0,2.3328809E2,4.7592902E2,0E0,5.0733826E1,1.5999219E1,6.056362E2,4.3801984E2,0E0,6.629219E0,1.1603027E1,0E0,1.0845703E2,0E0,0E0,4.2853127E1,0E0,0E0,0E0,0E0,0E0,0E0,0E0,0E0,0E0,0E0,0E0,0E0,0E0,0E0,0E0,0E0],"parents":[2147483647,0,0,1,1,2,2,3,3,4,4,5,5,6,6,7,7,8,8,9,9,10,10,12,12,13,13,15,15,16,16,17,17,18,18,20,20,21,21,23,23,26,26],"right_children":[2,4,6,8,10,12,14,16,18,20,22,-1,24,26,-1,28,30,32,34,-1,36,38,-1,40,-1,-1,42,-1,-1,-1,-1,-1,-1,-1,-1,-1,-1,-1,-1,-1,-1,-1,-1],"split_conditions":[4.9762E2,4.9266E2,5.19E2,4.8608E2,4.8667E2,4.9057E2,5.3329E2,4.8936E6,4.9222E2,4.8973E2,5.5121E6,1.1593018E-2,5.2141E2,4.9947E2,6.310936E-1,4.755E2,4.7304E2,4.8968E2,4.9716E2,8.9968875E-2,4.8667E2,4.8906E2,2.5339088E-1,4.6053E6,-1.7505239E-1,3.9039993E-1,5.2718E2,3.652232E-1,1.8058434E-1,1.2565652E-1,-2.1171952E-2,-6.258869E-2,-6.788148E-1,2.560486E-1,-3.4606513E-1,-1.0882569E-2,-1.0503922E-1,3.2454163E-1,6.3486165E-1,-7.20844E-1,-3.996944E-1,-2.2388534E-1,-1.7177582E-3],"split_indices":[2,63,16,64,2,35,57,81,64,42,18,0,36,58,0,77,56,1,64,0,16,2,0,60,0,0,63,0,0,0,0,0,0,0,0,0,0,0,0,0,0,0,0],"split_type":[0,0,0,0,0,0,0,0,0,0,0,0,0,0,0,0,0,0,0,0,0,0,0,0,0,0,0,0,0,0,0,0,0,0,0,0,0,0,0,0,0,0,0],"sum_hessian":[1.41E2,8.8E1,5.3E1,5.9E1,2.9E1,3.1E1,2.2E1,2.8E1,3.1E1,1E1,1.9E1,4E0,2.7E1,1.5E1,7E0,2.2E1,6E0,1.6E1,1.5E1,3E0,7E0,1.6E1,3E0,2.2E1,5E0,5E0,1E1,1.1E1,1.1E1,3E0,3E0,7E0,9E0,1.2E1,3E0,4E0,3E0,4E0,1.2E1,1.2E1,1E1,7E0,3E0],"tree_param":{"num_deleted":"0","num_feature":"98","num_nodes":"43","size_leaf_vector":"1"}},{"base_weights":[-1.7395262E-1,2.3430645E0,-3.5839088E0,-1.2282508E-1,7.7729344E0,-7.723606E0,5.537749E0,2.5488694E0,-8.31997E0,-4.311638E-1,1.09873705E1,1.9986992E-1,-8.754143E0,1.0041046E0,5.822998E-1,4.710686E0,-7.1535915E-1,2.283664E-1,-1.39316225E1,2.4814606E-2,-5.4344784E-2,3.1363556E-1,5.9431833E-1,-1.0393844E1,-2.3157926E0,3.6757722E-1,-3.0885582E0,2.687323E-1,4.2356264E-2,-1.4023875E-1,2.6390383E-1,-8.829383E-1,-1.963108E-1,4.7725677E-3,-5.781428E-1,4.0542223E-2,-2.0071259E-1,-2.1044739E-1,-4.5796584E-2],"categories":[],"categories_nodes":[],"categories_segments":[],"categories_sizes":[],"default_left":[0,0,0,0,0,0,0,0,0,0,0,0,0,0,0,0,0,0,0,0,0,0,0,0,0,0,0,0,0,0,0,0,0,0,0,0,0,0,0],"id":6,"left_children":[1,3,5,7,9,11,13,15,17,19,21,-1,23,25,-1,27,29,-1,31,-1,-1,-1,-1,33,35,-1,37,-1,-1,-1,-1,-1,-1,-1,-1,-1,-1,-1,-1],"loss_changes":[1.1928401E3,1.0721116E3,2.2706643E3,1.2476215E3,6.6402625E2,5.3023E2,5.14466E2,3.0680643E2,1.0760967E3,5.4047174E0,1.7324219E0,0E0,3.7709497E2,3.3444083E2,0E0,6.2143494E1,2.402138E2,0E0,3.0358362E2,0E0,0E0,0E0,0E0,3.689673E2,5.104912E1,0E0,1.5618393E1,0E0,0E0,0E0,0E0,0E0,0E0,0E0,0E0,0E0,0E0,0E0,0E0],"parents":[2147483647,0,0,1,1,2,2,3,3,4,4,5,5,6,6,7,7,8,8,9,9,10,10,12,12,13,13,15,15,16,16,18,18,23,23,24,24,26,26],"right_children":[2,4,6,8,10,12,14,16,18,20,22,-1,24,26,-1,28,30,-1,32,-1,-1,-1,-1,34,36,-1,38,-1,-1,-1,-1,-1,-1,-1,-1,-1,-1,-1,-1],"split_conditions":[4.9607E2,4.9408E2,5.2141E2,4.9057E2,4.8585E2,3.0574E6,5.2141E2,4.7862E2,3.6139E6,4.894E2,4.8906E2,1.9986992E-1,5.16E2,4.9856E2,5.822998E-1,4.7866E6,4.8964E2,2.283664E-1,4.9192E2,2.4814606E-2,-5.4344784E-2,3.1363556E-1,5.9431833E-1,4.9057E2,5.2025E2,3.6757722E-1,4.2543E6,2.687323E-1,4.2356264E-2,-1.4023875E-1,2.6390383E-1,-8.829383E-1,-1.963108E-1,4.7725677E-3,-5.781428E-1,4.0542223E-2,-2.0071259E-1,-2.1044739E-1,-4.5796584E-2],"split_indices":[2,59,31,7,2,46,78,51,74,8,2,0,57,79,0,81,56,0,64,0,0,0,0,28,36,0,18,0,0,0,0,0,0,0,0,0,0,0,0],"split_type":[0,0,0,0,0,0,0,0,0,0,0,0,0,0,0,0,0,0,0,0,0,0,0,0,0,0,0,0,0,0,0,0,0,0,0,0,0,0,0],"sum_hessian":[1.37E2,7.9E1,5.8E1,5.5E1,2.4E1,4E1,1.8E1,4.2E1,1.3E1,7E0,1.7E1,3E0,3.7E1,1.1E1,7E0,2.5E1,1.7E1,4E0,9E0,3E0,4E0,4E0,1.3E1,2.9E1,8E0,4E0,7E0,2.1E1,4E0,1.3E1,4E0,6E0,3E0,3E0,2.6E1,3E0,5E0,4E0,3E0],"tree_param":{"num_deleted":"0","num_feature":"98","num_nodes":"39","size_leaf_vector":"1"}},{"base_weights":[-1.0465473E-1,2.6162121E0,-4.2582574E0,2.1213369E-1,8.617569E0,-9.585143E0,1.6209253E0,3.6120472E0,-3.421512E0,1.0688286E1,3.1201934E-2,-3.9633026E0,-1.1916806E1,-6.3093495E-1,8.144945E0,4.895178E0,7.174183E-1,-9.945687E0,2.9087467E0,3.2977182E-1,6.263081E-1,1.3883363E-1,-3.6242655E-1,-1.3174719E1,-2.754062E-1,-2.5830479E0,2.3399277E-1,5.277489E-1,1.8493386E-1,4.776535E-2,2.7334917E-1,-1.8061392E-2,1.04201965E-1,-1.24617E-1,-7.318829E-1,-1.08374596E-1,3.5488826E-1,-8.129218E-1,-4.8493224E-1,5.326271E-2,-1.7534532E-1],"categories":[],"categories_nodes":[],"categories_segments":[],"categories_sizes":[],"default_left":[0,0,0,0,0,0,0,0,0,0,0,0,0,0,0,0,0,0,0,0,0,0,0,0,0,0,0,0,0,0,0,0,0,0,0,0,0,0,0,0,0],"id":7,"left_children":[1,3,5,7,9,11,13,15,17,19,-1,21,23,25,27,29,31,33,35,-1,-1,-1,-1,37,-1,39,-1,-1,-1,-1,-1,-1,-1,-1,-1,-1,-1,-1,-1,-1,-1],"loss_changes":[1.5707336E3,1.2101013E3,1.7380121E3,7.659576E2,3.9058606E2,3.3290894E2,4.0180084E2,1.1534204E2,1.267921E3,6.030542E1,0E0,2.4155037E2,8.866333E1,2.2980081E2,3.5970093E1,4.4339844E1,1.696792E1,4.8808142E2,3.5561563E2,0E0,0E0,0E0,0E0,1.3822998E1,0E0,5.7663986E1,0E0,0E0,0E0,0E0,0E0,0E0,0E0,0E0,0E0,0E0,0E0,0E0,0E0,0E0,0E0],"parents":[2147483647,0,0,1,1,2,2,3,3,4,4,5,5,6,6,7,7,8,8,9,9,11,11,12,12,13,13,14,14,15,15,16,16,17,17,18,18,23,23,25,25],"right_children":[2,4,6,8,10,12,14,16,18,20,-1,22,24,26,28,30,32,34,36,-1,-1,-1,-1,38,-1,40,-1,-1,-1,-1,-1,-1,-1,-1,-1,-1,-1,-1,-1,-1,-1],"split_conditions":[5.0085E2,4.9354E2,5.1575E2,4.8172E2,4.9808E2,3.7121E6,6.3841E6,4.8248E2,4.8903E2,4.9333E2,3.1201934E-2,4.9861E2,5.0044E6,6.1293E6,5.2267E2,4.621E2,4.7441E2,4.806E2,4.8556E2,3.2977182E-1,6.263081E-1,1.3883363E-1,-3.6242655E-1,5.0346E2,-2.754062E-1,5.2388E2,2.3399277E-1,5.277489E-1,1.8493386E-1,4.776535E-2,2.7334917E-1,-1.8061392E-2,1.04201965E-1,-1.24617E-1,-7.318829E-1,-1.08374596E-1,3.5488826E-1,-8.129218E-1,-4.8493224E-1,5.326271E-2,-1.7534532E-1],"split_indices":[0,3,78,30,9,32,81,50,65,45,0,2,81,67,23,72,10,79,2,0,0,0,0,24,0,8,0,0,0,0,0,0,0,0,0,0,0,0,0,0,0],"split_type":[0,0,0,0,0,0,0,0,0,0,0,0,0,0,0,0,0,0,0,0,0,0,0,0,0,0,0,0,0,0,0,0,0,0,0,0,0,0,0,0,0],"sum_hessian":[1.37E2,8.3E1,5.4E1,6E1,2.3E1,2.8E1,2.6E1,3.1E1,2.9E1,1.8E1,5E0,9E0,1.9E1,2E1,6E0,2.1E1,1E1,1.4E1,1.5E1,7E0,1.1E1,3E0,6E0,1.5E1,4E0,1.5E1,5E0,3E0,3E0,3E0,1.8E1,6E0,4E0,6E0,8E0,7E0,8E0,6E0,9E0,3E0,1.2E1],"tree_param":{"num_deleted":"0","num_feature":"98","num_nodes":"41","size_leaf_vector":"1"}},{"base_weights":[-2.2922434E-1,2.1492329E0,-3.6885703E0,1.3704565E-1,6.812025E0,-8.10114E0,3.6996613E0,3.7962868E0,-3.2905362E0,-6.6193306E-1,1.0368119E1,-3.7869911E0,-1.1002342E1,-1.1494507E0,7.145158E0,1.3992136E0,5.656458E0,4.493973E0,-6.6793795E0,1.6984558E-2,-6.096802E-2,3.1599122E-1,5.7641286E-1,-3.1252748E-1,2.7337646E-1,-1.2763891E1,-5.6558313E0,-1.5282187E-1,6.844117E-2,-9.2666626E-2,5.01502E-1,1.6238002E-1,-4.5655824E-2,3.652907E-1,1.2460851E-1,2.6407078E-1,9.962273E-2,-6.0341354E-2,-6.56288E-1,-2.2564773E-1,2.4956818E-1,-7.1210206E-1,-3.4795928E-1,-1.4442559E-1,-3.5045967E-1],"categories":[],"categories_nodes":[],"categories_segments":[],"categories_sizes":[],"default_left":[0,0,0,0,0,0,0,0,0,0,0,0,0,0,0,0,0,0,0,0,0,0,0,0,0,0,0,0,0,0,0,0,0,0,0,0,0,0,0,0,0,0,0,0,0],"id":8,"left_children":[1,3,5,7,9,11,13,15,17,19,21,23,25,27,29,31,33,35,37,-1,-1,-1,-1,-1,39,41,43,-1,-1,-1,-1,-1,-1,-1,-1,-1,-1,-1,-1,-1,-1,-1,-1,-1,-1],"loss_changes":[1.1516066E3,7.778066E2,1.8882334E3,7.524904E2,6.713154E2,4.0891846E2,3.7578018E2,1.2139542E2,8.478119E2,5.4392004E0,6.9853516E0,1.61756E2,1.2559082E2,5.2206867E1,3.5606342E2,6.2802567E1,6.529727E1,9.175049E0,7.602789E2,0E0,0E0,0E0,0E0,0E0,1.8059874E2,2.9590332E1,5.970154E0,0E0,0E0,0E0,0E0,0E0,0E0,0E0,0E0,0E0,0E0,0E0,0E0,0E0,0E0,0E0,0E0,0E0,0E0],"parents":[2147483647,0,0,1,1,2,2,3,3,4,4,5,5,6,6,7,7,8,8,9,9,10,10,11,11,12,12,13,13,14,14,15,15,16,16,17,17,18,18,24,24,25,25,26,26],"right_children":[2,4,6,8,10,12,14,16,18,20,22,24,26,28,30,32,34,36,38,-1,-1,-1,-1,-1,40,42,44,-1,-1,-1,-1,-1,-1,-1,-1,-1,-1,-1,-1,-1,-1,-1,-1,-1,-1],"split_conditions":[5.0085E2,4.9408E2,5.16E2,4.8608E2,4.8667E2,4.2947E6,5.19E2,4.7864E2,3.737E6,4.8025E2,3.656E6,4.2543E6,4.9456E6,4.3856E6,3.1835E6,4.7862E2,4.8445E2,4.9193E2,4.9185E2,1.6984558E-2,-6.096802E-2,3.1599122E-1,5.7641286E-1,-3.1252748E-1,4.001E6,5.1289E2,5.0409E6,-1.5282187E-1,6.844117E-2,-9.2666626E-2,5.01502E-1,1.6238002E-1,-4.5655824E-2,3.652907E-1,1.2460851E-1,2.6407078E-1,9.962273E-2,-6.0341354E-2,-6.56288E-1,-2.2564773E-1,2.4956818E-1,-7.1210206E-1,-3.4795928E-1,-1.4442559E-1,-3.5045967E-1],"split_indices":[0,59,92,78,2,11,30,92,18,0,18,18,60,67,32,51,92,59,15,0,0,0,0,0,81,2,46,0,0,0,0,0,0,0,0,0,0,0,0,0,0,0,0,0,0],"split_type":[0,0,0,0,0,0,0,0,0,0,0,0,0,0,0,0,0,0,0,0,0,0,0,0,0,0,0,0,0,0,0,0,0,0,0,0,0,0,0,0,0,0,0,0,0],"sum_hessian":[1.38E2,8.2E1,5.6E1,5.8E1,2.4E1,3.5E1,2.1E1,2.8E1,3E1,8E0,1.6E1,1.5E1,2E1,9E0,1.2E1,1.3E1,1.5E1,9E0,2.1E1,3E0,5E0,5E0,1.1E1,9E0,6E0,1.4E1,6E0,5E0,4E0,3E0,9E0,7E0,6E0,9E0,6E0,6E0,3E0,1.2E1,9E0,3E0,3E0,1E1,4E0,3E0,3E0],"tree_param":{"num_deleted":"0","num_feature":"98","num_nodes":"45","size_leaf_vector":"1"}},{"base_weights":[9.175346E-2,-5.602161E-1,5.5411357E-1,1.9301982E0,-5.420587E0,8.348274E-2,6.236109E0,-7.7788367E0,1.9093552E0,3.7410526E0,-3.4657815E0,-4.3556383E-1,9.068158E0,1.0690651E-1,-8.775369E0,-1.1657486E0,3.223825E-1,1.08564E-1,3.2702515E-1,2.2206727E-1,-2.8827223E-1,-4.9838766E-2,2.5757218E-2,2.5686094E-1,5.466553E-1,-2.6212505E-1,-5.6159526E-1,-1.6186027E-1,3.6228333E-2],"categories":[],"categories_nodes":[],"categories_segments":[],"categories_sizes":[],"default_left":[0,0,0,0,0,0,0,0,0,0,0,0,0,0,0,0,0,0,0,0,0,0,0,0,0,0,0,0,0],"id":9,"left_children":[1,3,-1,5,7,9,11,13,15,17,19,21,23,-1,25,27,-1,-1,-1,-1,-1,-1,-1,-1,-1,-1,-1,-1,-1],"loss_changes":[1.02370715E3,1.6445486E3,0E0,7.151406E2,8.1000085E2,8.4379333E2,5.1410156E2,3.6465308E2,1.7498508E2,1.2642276E2,6.256693E2,5.3154182E0,8.312317E1,0E0,2.1883252E2,3.3671227E1,0E0,0E0,0E0,0E0,0E0,0E0,0E0,0E0,0E0,0E0,0E0,0E0,0E0],"parents":[2147483647,0,0,1,1,3,3,4,4,5,5,6,6,7,7,8,8,9,9,10,10,11,11,12,12,14,14,15,15],"right_children":[2,4,-1,6,8,10,12,14,16,18,20,22,24,-1,26,28,-1,-1,-1,-1,-1,-1,-1,-1,-1,-1,-1,-1,-1],"split_conditions":[5.36E2,5.0085E2,5.5411357E-1,4.9408E2,5.1581E2,4.8608E2,4.905E2,2.9767E6,5.36E2,4.8577E2,3.5195E6,4.9984E2,4.9245E2,1.0690651E-1,4.2543E6,4.776E6,3.223825E-1,1.08564E-1,3.2702515E-1,2.2206727E-1,-2.8827223E-1,-4.9838766E-2,2.5757218E-2,2.5686094E-1,5.466553E-1,-2.6212505E-1,-5.6159526E-1,-1.6186027E-1,3.6228333E-2],"split_indices":[57,0,0,59,87,78,3,39,22,0,18,87,0,0,11,67,0,0,0,0,0,0,0,0,0,0,0,0,0],"split_type":[0,0,0,0,0,0,0,0,0,0,0,0,0,0,0,0,0,0,0,0,0,0,0,0,0,0,0,0,0],"sum_hessian":[1.41E2,1.34E2,7E0,8.9E1,4.5E1,6.3E1,2.6E1,3.4E1,1.1E1,3.1E1,3.2E1,8E0,1.8E1,3E0,3.1E1,7E0,4E0,2.1E1,1E1,7E0,2.5E1,5E0,3E0,7E0,1.1E1,1.4E1,1.7E1,3E0,4E0],"tree_param":{"num_deleted":"0","num_feature":"98","num_nodes":"29","size_leaf_vector":"1"}},{"base_weights":[-3.6556652E-1,1.8445522E0,-3.4458086E0,-4.302853E-1,6.673258E0,-8.354425E0,2.1117957E0,1.8625268E0,-7.4417596E0,-1.9952393E-1,9.215837E0,-3.1962707E0,-1.0319294E1,-3.3322144E-1,8.265991E0,4.6144457E0,-5.08344E-1,9.349823E-2,-1.2822713E1,2.5271608E-2,-3.61792E-2,2.8819123E-1,5.182851E-1,9.8059386E-2,-3.4807205E-1,-7.3064655E-1,-4.0984383E-1,-2.9872415E0,5.401568E0,2.1765366E-1,4.871564E-1,2.6301107E-1,3.5814285E-2,-1.1187857E-1,2.5261334E-1,-8.0847806E-1,-3.4556612E-1,-2.1580079E-1,-1.3737233E-2,4.7534332E-1,-2.7061463E-3],"categories":[],"categories_nodes":[],"categories_segments":[],"categories_sizes":[],"default_left":[0,0,0,0,0,0,0,0,0,0,0,0,0,0,0,0,0,0,0,0,0,0,0,0,0,0,0,0,0,0,0,0,0,0,0,0,0,0,0,0,0],"id":10,"left_children":[1,3,5,7,9,11,13,15,17,19,21,23,25,27,29,31,33,-1,35,-1,-1,-1,-1,-1,-1,-1,-1,37,39,-1,-1,-1,-1,-1,-1,-1,-1,-1,-1,-1,-1],"loss_changes":[9.458187E2,8.926177E2,1.5998914E3,9.141161E2,4.561781E2,2.8120483E2,4.2407364E2,2.8289682E2,7.2546136E2,3.3212373E0,1.5671509E1,2.0783978E2,8.0703125E1,3.3576102E2,3.8267212E0,4.657895E1,2.4207822E2,0E0,6.630786E1,0E0,0E0,0E0,0E0,0E0,0E0,0E0,0E0,5.287863E1,1.5729521E2,0E0,0E0,0E0,0E0,0E0,0E0,0E0,0E0,0E0,0E0,0E0,0E0],"parents":[2147483647,0,0,1,1,2,2,3,3,4,4,5,5,6,6,7,7,8,8,9,9,10,10,11,11,12,12,13,13,14,14,15,15,16,16,18,18,27,27,28,28],"right_children":[2,4,6,8,10,12,14,16,18,20,22,24,26,28,30,32,34,-1,36,-1,-1,-1,-1,-1,-1,-1,-1,38,40,-1,-1,-1,-1,-1,-1,-1,-1,-1,-1,-1,-1],"split_conditions":[5.0085E2,4.9408E2,5.1575E2,4.9057E2,4.8585E2,3.7076E6,6.3841E6,4.8314E2,3.7076E6,4.8913E2,4.895E2,5.0643E2,5.0238E2,5.36E2,5.2222E2,5.2516E6,4.8888E2,9.349823E-2,4.9673E2,2.5271608E-2,-3.61792E-2,2.8819123E-1,5.182851E-1,9.8059386E-2,-3.4807205E-1,-7.3064655E-1,-4.0984383E-1,5.3434E6,5.3013E2,2.1765366E-1,4.871564E-1,2.6301107E-1,3.5814285E-2,-1.1187857E-1,2.5261334E-1,-8.0847806E-1,-3.4556612E-1,-2.1580079E-1,-1.3737233E-2,4.7534332E-1,-2.7061463E-3],"split_indices":[0,59,78,14,2,39,74,50,11,31,2,0,21,71,85,74,23,0,8,0,0,0,0,0,0,0,0,39,22,0,0,0,0,0,0,0,0,0,0,0,0],"split_type":[0,0,0,0,0,0,0,0,0,0,0,0,0,0,0,0,0,0,0,0,0,0,0,0,0,0,0,0,0,0,0,0,0,0,0,0,0,0,0,0,0],"sum_hessian":[1.37E2,8E1,5.7E1,5.5E1,2.5E1,3E1,2.7E1,4.2E1,1.3E1,7E0,1.8E1,9E0,2.1E1,2E1,7E0,1.9E1,2.3E1,5E0,8E0,3E0,4E0,6E0,1.2E1,4E0,5E0,5E0,1.6E1,1.4E1,6E0,3E0,4E0,1.6E1,3E0,1.8E1,5E0,4E0,4E0,9E0,5E0,3E0,3E0],"tree_param":{"num_deleted":"0","num_feature":"98","num_nodes":"41","size_leaf_vector":"1"}},{"base_weights":[6.842978E-2,-6.677812E-1,7.976995E0,1.5354869E0,-4.0675926E0,-6.0676574E-3,5.344964E-1,5.732787E0,-7.541263E-1,-7.2949433E0,8.902864E-1,2.454867E0,8.037798E0,-6.519708E-1,5.413024E-1,-1.8095818E0,-8.819442E0,-1.8453125E0,3.3125502E-1,2.4162535E-1,4.3059625E-2,4.7743174E-1,1.402115E-1,1.9987217E-1,-7.414753E-2,1.32061E-1,-2.5041535E-1,-5.2734274E-1,-2.9095736E-1,1.2211037E-2,-1.8520908E-1],"categories":[],"categories_nodes":[],"categories_segments":[],"categories_sizes":[],"default_left":[0,0,0,0,0,0,0,0,0,0,0,0,0,0,0,0,0,0,0,0,0,0,0,0,0,0,0,0,0,0,0],"id":11,"left_children":[1,3,5,7,9,-1,-1,11,13,15,17,19,21,-1,23,25,27,29,-1,-1,-1,-1,-1,-1,-1,-1,-1,-1,-1,-1,-1],"loss_changes":[8.20459E2,9.725456E2,2.6494067E2,7.6352856E2,8.22536E2,0E0,0E0,1.9182617E2,8.346236E2,2.4327551E2,3.4167657E2,4.5097687E1,9.973657E1,0E0,3.4174097E2,1.2712317E2,6.301233E1,5.9167168E1,0E0,0E0,0E0,0E0,0E0,0E0,0E0,0E0,0E0,0E0,0E0,0E0,0E0],"parents":[2147483647,0,0,1,1,2,2,3,3,4,4,7,7,8,8,9,9,10,10,11,11,12,12,14,14,15,15,16,16,17,17],"right_children":[2,4,6,8,10,-1,-1,12,14,16,18,20,22,-1,24,26,28,30,-1,-1,-1,-1,-1,-1,-1,-1,-1,-1,-1,-1,-1],"split_conditions":[5.3592E2,5.0085E2,4.2947E6,3.9351E6,5.16E2,-6.0676574E-3,5.344964E-1,4.8627E2,4.0158E6,3.7121E6,5.36E2,3.9332E6,4.9762E2,-6.519708E-1,4.8048E2,5.023E2,4.0158E6,5.1165E2,3.3125502E-1,2.4162535E-1,4.3059625E-2,4.7743174E-1,1.402115E-1,1.9987217E-1,-7.414753E-2,1.32061E-1,-2.5041535E-1,-5.2734274E-1,-2.9095736E-1,1.2211037E-2,-1.8520908E-1],"split_indices":[85,0,67,53,71,0,0,9,53,32,36,32,16,0,52,3,60,37,0,0,0,0,0,0,0,0,0,0,0,0,0],"split_type":[0,0,0,0,0,0,0,0,0,0,0,0,0,0,0,0,0,0,0,0,0,0,0,0,0,0,0,0,0,0,0],"sum_hessian":[1.39E2,1.28E2,1.1E1,7.8E1,5E1,3E0,8E0,2.7E1,5.1E1,3E1,2E1,1.2E1,1.5E1,4E0,4.7E1,7E0,2.3E1,1.4E1,6E0,4E0,8E0,1.1E1,4E0,1.7E1,3E1,3E0,4E0,1.3E1,1E1,7E0,7E0],"tree_param":{"num_deleted":"0","num_feature":"98","num_nodes":"31","size_leaf_vector":"1"}},{"base_weights":[1.1656104E-1,-5.1416063E-1,7.789301E0,1.5351633E0,-4.2178483E0,4.9241638E-1,8.619614E-2,4.94945E0,-3.4866226E-1,-6.5361977E0,4.1744356E0,5.9555883E0,-1.6654396E-1,-6.2589175E-1,8.059514E-1,-6.495339E-1,-4.920024E0,-1.0692215E-1,6.8090706E0,1.1891245E-1,4.244976E-1,9.212914E-2,-2.2333781E-1,8.527484E-2,-3.2572934E-1,4.0029603E-1,1.8053703E-1],"categories":[],"categories_nodes":[],"categories_segments":[],"categories_sizes":[],"default_left":[0,0,0,0,0,0,0,0,0,0,0,0,0,0,0,0,0,0,0,0,0,0,0,0,0,0,0],"id":12,"left_children":[1,3,5,7,9,-1,-1,11,13,15,17,19,-1,-1,21,-1,23,-1,25,-1,-1,-1,-1,-1,-1,-1,-1],"loss_changes":[7.008732E2,1.02354266E3,1.2039874E2,5.6130273E2,9.611848E2,0E0,0E0,2.781032E2,8.109783E2,3.32485E2,1.9751424E2,2.3366461E2,0E0,0E0,2.979207E2,0E0,3.4918457E2,0E0,1.7160645E0,0E0,0E0,0E0,0E0,0E0,0E0,0E0,0E0],"parents":[2147483647,0,0,1,1,2,2,3,3,4,4,7,7,8,8,9,9,10,10,11,11,14,14,16,16,18,18],"right_children":[2,4,6,8,10,-1,-1,12,14,16,18,20,-1,-1,22,-1,24,-1,26,-1,-1,-1,-1,-1,-1,-1,-1],"split_conditions":[5.3592E2,5.0085E2,5.293E2,3.9351E6,5.3313E2,4.9241638E-1,8.619614E-2,5.0085E2,4.0158E6,4.9354E2,6.3841E6,4.88E2,-1.6654396E-1,-6.2589175E-1,4.9973E6,-6.495339E-1,4.9984E2,-1.0692215E-1,5.1502E2,1.1891245E-1,4.244976E-1,9.212914E-2,-2.2333781E-1,8.527484E-2,-3.2572934E-1,4.0029603E-1,1.8053703E-1],"split_indices":[78,0,14,53,22,0,0,35,53,38,74,37,0,0,74,0,10,0,84,0,0,0,0,0,0,0,0],"split_type":[0,0,0,0,0,0,0,0,0,0,0,0,0,0,0,0,0,0,0,0,0,0,0,0,0,0,0],"sum_hessian":[1.43E2,1.33E2,1E1,8.6E1,4.7E1,7E0,3E0,3E1,5.6E1,3.7E1,1E1,2.7E1,3E0,4E0,5.2E1,6E0,3.1E1,3E0,7E0,1.2E1,1.5E1,4.4E1,8E0,6E0,2.5E1,4E0,3E0],"tree_param":{"num_deleted":"0","num_feature":"98","num_nodes":"27","size_leaf_vector":"1"}},{"base_weights":[2.4737136E-1,-4.9499512E-1,8.52589E0,1.5196464E0,-4.02081E0,1.6924286E-1,5.490036E-1,2.8211365E0,-3.3929138E0,-6.0068383E0,3.8093022E-1,6.295093E0,1.4004331E0,5.3075153E-2,-4.8597032E-1,-7.9133043E0,-2.0371988E0,4.1249862E-1,1.711775E-1,1.0346665E-1,-2.2492066E-1,8.356018E-2,-9.2179365E-2,-3.4352113E-2,-4.4129944E-1,4.101181E-2,-1.8579E-1],"categories":[],"categories_nodes":[],"categories_segments":[],"categories_sizes":[],"default_left":[0,0,0,0,0,0,0,0,0,0,0,0,0,0,0,0,0,0,0,0,0,0,0,0,0,0,0],"id":13,"left_children":[1,3,5,7,9,-1,-1,11,13,15,-1,17,19,21,-1,23,25,-1,-1,-1,-1,-1,-1,-1,-1,-1,-1],"loss_changes":[8.215977E2,8.798105E2,1.016214E2,5.1467017E2,1.0859929E3,0E0,0E0,3.0211823E2,3.7113327E2,2.790304E2,0E0,7.2799194E1,1.9081265E2,3.9909534E1,0E0,1.6541382E2,7.019875E1,0E0,0E0,0E0,0E0,0E0,0E0,0E0,0E0,0E0,0E0],"parents":[2147483647,0,0,1,1,2,2,3,3,4,4,7,7,8,8,9,9,11,11,12,12,13,13,15,15,16,16],"right_children":[2,4,6,8,10,-1,-1,12,14,16,-1,18,20,22,-1,24,26,-1,-1,-1,-1,-1,-1,-1,-1,-1,-1],"split_conditions":[5.3592E2,4.9856E2,5.2411E2,4.9973E6,5.3592E2,1.6924286E-1,5.490036E-1,3.7913E6,4.9034E2,5.1185E2,3.8093022E-1,4.4823E6,5.0016E2,4.817E2,-4.8597032E-1,3.0822E6,5.1502E2,4.1249862E-1,1.711775E-1,1.0346665E-1,-2.2492066E-1,8.356018E-2,-9.2179365E-2,-3.4352113E-2,-4.4129944E-1,4.101181E-2,-1.8579E-1],"split_indices":[85,2,52,81,36,0,0,53,3,70,0,88,21,87,0,4,42,0,0,0,0,0,0,0,0,0,0],"split_type":[0,0,0,0,0,0,0,0,0,0,0,0,0,0,0,0,0,0,0,0,0,0,0,0,0,0,0],"sum_hessian":[1.32E2,1.22E2,1E1,7.8E1,4.4E1,4E0,6E0,6.2E1,1.6E1,3.8E1,6E0,1.7E1,4.5E1,1.1E1,5E0,2.5E1,1.3E1,9E0,8E0,4.1E1,4E0,6E0,5E0,3E0,2.2E1,5E0,8E0],"tree_param":{"num_deleted":"0","num_feature":"98","num_nodes":"27","size_leaf_vector":"1"}},{"base_weights":[3.249266E-1,-3.4775898E-1,7.817236E0,1.1532171E0,-3.4911149E0,4.9691278E-1,8.104439E-2,5.0780244E0,-4.098746E-1,-5.671618E0,5.93985E0,1.094435E0,7.001417E0,2.9422493E0,-2.5162194E0,-8.3085165E0,-1.9534383E0,3.6904725E-1,1.3267593E-1,-6.1791994E-2,2.1581192E-1,6.0455322E-2,4.4157144E-1,3.0658188E-1,8.901095E-2,-3.4451014E-1,1.11020304E-1,-1.1036499E-1,-4.8941776E-1,-2.4881363E-3,-1.806467E-1],"categories":[],"categories_nodes":[],"categories_segments":[],"categories_sizes":[],"default_left":[0,0,0,0,0,0,0,0,0,0,0,0,0,0,0,0,0,0,0,0,0,0,0,0,0,0,0,0,0,0,0],"id":14,"left_children":[1,3,5,7,9,-1,-1,11,13,15,17,19,21,23,25,27,29,-1,-1,-1,-1,-1,-1,-1,-1,-1,-1,-1,-1,-1,-1],"loss_changes":[6.730343E2,5.8435254E2,1.2845953E2,5.174074E2,8.5625854E2,0E0,0E0,1.7622559E2,4.381078E2,3.0731702E2,1.830185E1,7.2903366E1,1.5892175E2,7.803232E1,8.0257996E2,1.4994165E2,4.720734E1,0E0,0E0,0E0,0E0,0E0,0E0,0E0,0E0,0E0,0E0,0E0,0E0,0E0,0E0],"parents":[2147483647,0,0,1,1,2,2,3,3,4,4,7,7,8,8,9,9,10,10,11,11,12,12,13,13,14,14,15,15,16,16],"right_children":[2,4,6,8,10,-1,-1,12,14,16,18,20,22,24,26,28,30,-1,-1,-1,-1,-1,-1,-1,-1,-1,-1,-1,-1,-1,-1],"split_conditions":[5.3592E2,4.9856E2,5.2896E2,3.737E6,5.3592E2,4.9691278E-1,8.104439E-2,4.9099E2,4.8668E2,5.1591E2,5.1502E2,4.6636E6,4.8923E2,3.7913E6,4.9242E2,3.4433E6,5.118E2,3.6904725E-1,1.3267593E-1,-6.1791994E-2,2.1581192E-1,6.0455322E-2,4.4157144E-1,3.0658188E-1,8.901095E-2,-3.4451014E-1,1.11020304E-1,-1.1036499E-1,-4.8941776E-1,-2.4881363E-3,-1.806467E-1],"split_indices":[85,2,1,60,36,0,0,45,29,50,84,18,9,32,94,4,44,0,0,0,0,0,0,0,0,0,0,0,0,0,0],"split_type":[0,0,0,0,0,0,0,0,0,0,0,0,0,0,0,0,0,0,0,0,0,0,0,0,0,0,0,0,0,0,0],"sum_hessian":[1.32E2,1.22E2,1E1,8.3E1,3.9E1,7E0,3E0,2.3E1,6E1,3.2E1,7E0,8E0,1.5E1,2.3E1,3.7E1,1.8E1,1.4E1,4E0,3E0,5E0,3E0,4E0,1.1E1,5E0,1.8E1,1.9E1,1.8E1,4E0,1.4E1,7E0,7E0],"tree_param":{"num_deleted":"0","num_feature":"98","num_nodes":"31","size_leaf_vector":"1"}},{"base_weights":[-1.1340332E-1,1.5854007E0,-2.6447182E0,-4.1259456E-1,4.1885457E0,-6.302281E0,3.460599E0,3.027654E0,-5.5523376E0,6.0744643E0,6.5636116E-1,9.652062E-2,-7.109205E0,-6.125641E-1,6.3276014E0,3.9803689E0,3.6238945E-1,-2.327652E-1,-8.398818E0,-1.072464E-2,6.9831004E0,-2.441293E0,3.2847633E0,-6.2066805E-1,-5.7187E0,-2.9973886E0,1.85701E-1,-2.6765442E-2,4.2200026E-1,1.2076288E-1,2.8084883E-1,-2.753881E-2,8.207703E-2,-1.2731537E-1,1.358677E-1,-6.3968405E-2,-6.3442767E-1,4.9808122E-2,3.9627907E-1,3.353882E-2,-2.4715196E-1,2.3411193E-1,3.583641E-2,-1.1179929E-1,-3.499993E-1,-1.8261795E-1,-7.965355E-2],"categories":[],"categories_nodes":[],"categories_segments":[],"categories_sizes":[],"default_left":[0,0,0,0,0,0,0,0,0,0,0,0,0,0,0,0,0,0,0,0,0,0,0,0,0,0,0,0,0,0,0,0,0,0,0,0,0,0,0,0,0,0,0,0,0,0,0],"id":15,"left_children":[1,3,5,7,9,11,13,15,17,19,21,-1,23,25,27,29,31,33,35,-1,37,39,41,-1,43,45,-1,-1,-1,-1,-1,-1,-1,-1,-1,-1,-1,-1,-1,-1,-1,-1,-1,-1,-1,-1,-1],"loss_changes":[6.105223E2,4.4381924E2,1.2946528E3,8.832282E2,2.4248523E2,2.5287744E2,2.6078696E2,7.473468E1,3.0088623E2,1.3864294E2,1.220054E2,0E0,1.7240186E2,1.1431379E2,1.9298212E2,4.278598E1,1.1416813E1,6.1521015E1,3.8079382E2,0E0,1.1059888E2,5.7814926E1,2.5354233E1,0E0,1.0929413E2,6.200371E-1,0E0,0E0,0E0,0E0,0E0,0E0,0E0,0E0,0E0,0E0,0E0,0E0,0E0,0E0,0E0,0E0,0E0,0E0,0E0,0E0,0E0],"parents":[2147483647,0,0,1,1,2,2,3,3,4,4,5,5,6,6,7,7,8,8,9,9,10,10,12,12,13,13,14,14,15,15,16,16,17,17,18,18,20,20,21,21,22,22,24,24,25,25],"right_children":[2,4,6,8,10,12,14,16,18,20,22,-1,24,26,28,30,32,34,36,-1,38,40,42,-1,44,46,-1,-1,-1,-1,-1,-1,-1,-1,-1,-1,-1,-1,-1,-1,-1,-1,-1,-1,-1,-1,-1],"split_conditions":[5.0085E2,4.9057E2,5.19E2,4.8172E2,4.07E6,2.9767E6,5.21E2,4.8314E2,4.1306E6,4.8913E2,4.9665E2,9.652062E-2,4.9E2,5.2098E2,4.9778E6,4.74E2,4.7441E2,4.8933E2,4.8754E2,-1.072464E-2,4.88E2,5.0025E2,5.5121E6,-6.2066805E-1,5.0085E2,5.3329E2,1.85701E-1,-2.6765442E-2,4.2200026E-1,1.2076288E-1,2.8084883E-1,-2.753881E-2,8.207703E-2,-1.2731537E-1,1.358677E-1,-6.3968405E-2,-6.3442767E-1,4.9808122E-2,3.9627907E-1,3.353882E-2,-2.4715196E-1,2.3411193E-1,3.583641E-2,-1.1179929E-1,-3.499993E-1,-1.8261795E-1,-7.965355E-2],"split_indices":[0,56,16,30,53,39,92,50,95,3,86,0,77,63,67,56,10,0,24,0,37,43,18,0,16,15,0,0,0,0,0,0,0,0,0,0,0,0,0,0,0,0,0,0,0,0,0],"split_type":[0,0,0,0,0,0,0,0,0,0,0,0,0,0,0,0,0,0,0,0,0,0,0,0,0,0,0,0,0,0,0,0,0,0,0,0,0,0,0,0,0,0,0,0,0,0,0],"sum_hessian":[1.4E2,8.4E1,5.6E1,4.8E1,3.6E1,3.5E1,2.1E1,2.9E1,1.9E1,2.3E1,1.3E1,3E0,3.2E1,9E0,1.2E1,2.1E1,8E0,7E0,1.2E1,3E0,2E1,6E0,7E0,5E0,2.7E1,6E0,3E0,3E0,9E0,1.2E1,9E0,5E0,3E0,4E0,3E0,5E0,7E0,3E0,1.7E1,3E0,3E0,4E0,3E0,8E0,1.9E1,3E0,3E0],"tree_param":{"num_deleted":"0","num_feature":"98","num_nodes":"47","size_leaf_vector":"1"}},{"base_weights":[6.954756E-2,-5.2303123E-1,5.7620707E0,1.2888482E0,-4.0082164E0,4.62616E-3,4.1357946E-1,-8.428324E-2,4.3024163E0,-5.668142E0,1.3359431E0,1.1108545E0,-6.7145724E0,4.3811288E-1,7.1070313E0,3.1809997E-2,-6.3197827E0,-1.3187953E0,2.392694E-1,1.3652653E-1,-1.6245325E-1,-5.360471E-1,-6.826447E-2,9.127175E-2,-6.267243E-2,1.3954888E-1,3.9767316E-1,-4.269397E-1,-1.9222365E-1,-1.0095253E-1,-1.4442063E-2],"categories":[],"categories_nodes":[],"categories_segments":[],"categories_sizes":[],"default_left":[0,0,0,0,0,0,0,0,0,0,0,0,0,0,0,0,0,0,0,0,0,0,0,0,0,0,0,0,0,0,0],"id":16,"left_children":[1,3,5,7,9,-1,-1,11,13,15,17,19,21,23,25,-1,27,29,-1,-1,-1,-1,-1,-1,-1,-1,-1,-1,-1,-1,-1],"loss_changes":[4.6515158E2,7.945079E2,1.8419656E2,3.4381873E2,3.8902124E2,0E0,0E0,4.6705722E2,2.7867136E2,1.3959033E2,1.0704205E2,3.619545E2,1.7824365E2,3.0448978E1,3.260077E1,0E0,1.3195496E2,4.4654303E0,0E0,0E0,0E0,0E0,0E0,0E0,0E0,0E0,0E0,0E0,0E0,0E0,0E0],"parents":[2147483647,0,0,1,1,2,2,3,3,4,4,7,7,8,8,9,9,10,10,11,11,12,12,13,13,14,14,16,16,17,17],"right_children":[2,4,6,8,10,-1,-1,12,14,16,18,20,22,24,26,-1,28,30,-1,-1,-1,-1,-1,-1,-1,-1,-1,-1,-1,-1,-1],"split_conditions":[5.3329E2,5.0085E2,5.2388E2,4.9408E2,5.3572E2,4.62616E-3,4.1357946E-1,4.9442E2,4.8657E2,3.0574E6,5.36E2,4.6931E6,5.1463E6,4.8973E2,3.0822E6,3.1809997E-2,4.0158E6,5.3329E2,2.392694E-1,1.3652653E-1,-1.6245325E-1,-5.360471E-1,-6.826447E-2,9.127175E-2,-6.267243E-2,1.3954888E-1,3.9767316E-1,-4.269397E-1,-1.9222365E-1,-1.0095253E-1,-1.4442063E-2],"split_indices":[50,0,8,87,15,0,0,92,2,67,22,53,88,42,25,0,60,8,0,0,0,0,0,0,0,0,0,0,0,0,0],"split_type":[0,0,0,0,0,0,0,0,0,0,0,0,0,0,0,0,0,0,0,0,0,0,0,0,0,0,0,0,0,0,0],"sum_hessian":[1.36E2,1.24E2,1.2E1,8.2E1,4.2E1,4E0,8E0,5.7E1,2.5E1,3.2E1,1E1,4.9E1,8E0,1.1E1,1.4E1,3E0,2.9E1,6E0,4E0,3.6E1,1.3E1,4E0,4E0,6E0,5E0,3E0,1.1E1,1.4E1,1.5E1,3E0,3E0],"tree_param":{"num_deleted":"0","num_feature":"98","num_nodes":"31","size_leaf_vector":"1"}},{"base_weights":[1.0658351E-1,1.7773528E0,-2.3574727E0,4.488637E-1,5.500874E0,-5.4637704E0,2.832718E0,3.5925186E0,-1.325598E0,8.790207E-2,8.021068E0,-5.961469E-1,-4.283783E0,3.8956472E-1,4.862957E-1,2.5630406E-1,4.7549295E0,5.72052E-1,-6.553012E0,5.8781814E-2,-3.9993286E-2,2.2078979E-1,4.4653198E-1,9.617119E-1,-5.79099E0,-2.592579E0,3.1690402E0,-1.9342422E-2,4.1769028E-2,3.0635072E-2,2.7993926E-1,1.4593707E-1,-9.0519525E-2,4.815445E-2,-4.745968E-1,-4.0765993E-2,1.4712869E-1,-3.0862468E-1,-1.12248614E-1,-1.7508057E-1,-4.040718E-2,-2.4377441E-2,2.5392964E-1],"categories":[],"categories_nodes":[],"categories_segments":[],"categories_sizes":[],"default_left":[0,0,0,0,0,0,0,0,0,0,0,0,0,0,0,0,0,0,0,0,0,0,0,0,0,0,0,0,0,0,0,0,0,0,0,0,0,0,0,0,0,0,0],"id":17,"left_children":[1,3,5,7,9,11,13,15,17,19,21,-1,23,-1,25,27,29,31,33,-1,-1,-1,-1,35,37,39,41,-1,-1,-1,-1,-1,-1,-1,-1,-1,-1,-1,-1,-1,-1,-1,-1],"loss_changes":[5.805518E2,4.1305014E2,9.3444727E2,3.5619485E2,2.994132E2,2.2330713E2,2.5217923E2,8.79765E1,4.1046057E2,8.665594E0,9.75293E0,0E0,2.5856274E2,0E0,1.4037334E2,2.930207E0,5.5992157E1,1.7860048E2,2.5212332E2,0E0,0E0,0E0,0E0,3.0559568E1,1.996344E1,1.0147072E1,6.5318115E1,0E0,0E0,0E0,0E0,0E0,0E0,0E0,0E0,0E0,0E0,0E0,0E0,0E0,0E0,0E0,0E0],"parents":[2147483647,0,0,1,1,2,2,3,3,4,4,5,5,6,6,7,7,8,8,9,9,10,10,12,12,14,14,15,15,16,16,17,17,18,18,23,23,24,24,25,25,26,26],"right_children":[2,4,6,8,10,12,14,16,18,20,22,-1,24,-1,26,28,30,32,34,-1,-1,-1,-1,36,38,40,42,-1,-1,-1,-1,-1,-1,-1,-1,-1,-1,-1,-1,-1,-1,-1,-1],"split_conditions":[5E2,4.9351E2,5.19E2,4.755E2,4.8667E2,4.9673E2,5.2316E2,4.755E2,4.8589E6,4.9193E2,4.895E2,-5.961469E-1,4.959E2,3.8956472E-1,5.21E2,4.3859E6,3.7913E6,4.0589E6,4.8968E2,5.8781814E-2,-3.9993286E-2,2.2078979E-1,4.4653198E-1,4.1162E6,5.101E2,5.2679E2,5.189E2,-1.9342422E-2,4.1769028E-2,3.0635072E-2,2.7993926E-1,1.4593707E-1,-9.0519525E-2,4.815445E-2,-4.745968E-1,-4.0765993E-2,1.4712869E-1,-3.0862468E-1,-1.12248614E-1,-1.7508057E-1,-4.040718E-2,-2.4377441E-2,2.5392964E-1],"split_indices":[0,65,16,86,2,36,16,0,74,24,2,0,16,0,92,32,95,95,1,0,0,0,0,4,93,9,0,0,0,0,0,0,0,0,0,0,0,0,0,0,0,0,0],"split_type":[0,0,0,0,0,0,0,0,0,0,0,0,0,0,0,0,0,0,0,0,0,0,0,0,0,0,0,0,0,0,0,0,0,0,0,0,0,0,0,0,0,0,0],"sum_hessian":[1.39E2,8.3E1,5.6E1,6.2E1,2.1E1,3.5E1,2.1E1,2.2E1,4E1,7E0,1.4E1,4E0,3.1E1,6E0,1.5E1,6E0,1.6E1,3E1,1E1,3E0,4E0,4E0,1E1,7E0,2.4E1,7E0,8E0,3E0,3E0,3E0,1.3E1,1.5E1,1.5E1,3E0,7E0,4E0,3E0,2.1E1,3E0,4E0,3E0,3E0,5E0],"tree_param":{"num_deleted":"0","num_feature":"98","num_nodes":"43","size_leaf_vector":"1"}},{"base_weights":[5.6174397E-2,-4.0178922E-1,6.614078E0,1.2818103E0,-2.6903014E0,4.2702636E-1,1.03544235E-1,1.2653993E-1,6.7818274E0,-4.068329E0,3.9176545E0,1.4334235E0,-5.5471673E0,1.6217498E-1,3.759488E-1,-9.376661E0,-2.704031E0,-3.937149E-2,3.0233046E-1,1.9286086E-1,-1.00992685E-2,-5.2520543E-1,1.7466858E-1,-5.813586E-1,-2.625409E-1,9.626596E-2,-1.8161002E-1],"categories":[],"categories_nodes":[],"categories_segments":[],"categories_sizes":[],"default_left":[0,0,0,0,0,0,0,0,0,0,0,0,0,0,0,0,0,0,0,0,0,0,0,0,0,0,0],"id":18,"left_children":[1,3,5,7,9,-1,-1,11,13,15,17,19,21,-1,-1,23,25,-1,-1,-1,-1,-1,-1,-1,-1,-1,-1],"loss_changes":[4.1410703E2,5.0047748E2,6.108365E1,4.756924E2,5.1676526E2,0E0,0E0,4.7508856E2,9.519775E0,3.07784E2,1.0493039E2,2.0690157E2,5.744558E2,0E0,0E0,2.2515198E1,1.7027234E2,0E0,0E0,0E0,0E0,0E0,0E0,0E0,0E0,0E0,0E0],"parents":[2147483647,0,0,1,1,2,2,3,3,4,4,7,7,8,8,9,9,10,10,11,11,12,12,15,15,16,16],"right_children":[2,4,6,8,10,-1,-1,12,14,16,18,20,22,-1,-1,24,26,-1,-1,-1,-1,-1,-1,-1,-1,-1,-1],"split_conditions":[5.3592E2,4.9803E2,5.5121E6,4.9371E2,5.3572E2,4.2702636E-1,1.03544235E-1,4.9075E2,4.9057E2,4.9222E2,5.2008E2,4.8314E2,4.9408E2,1.6217498E-1,3.759488E-1,5.0424E2,5.0003E2,-3.937149E-2,3.0233046E-1,1.9286086E-1,-1.00992685E-2,-5.2520543E-1,1.7466858E-1,-5.813586E-1,-2.625409E-1,9.626596E-2,-1.8161002E-1],"split_indices":[92,7,18,3,50,0,0,7,21,92,7,50,59,0,0,7,10,0,0,0,0,0,0,0,0,0,0],"split_type":[0,0,0,0,0,0,0,0,0,0,0,0,0,0,0,0,0,0,0,0,0,0,0,0,0,0,0],"sum_hessian":[1.36E2,1.28E2,8E0,7.4E1,5.4E1,5E0,3E0,6.2E1,1.2E1,4.5E1,9E0,5.1E1,1.1E1,3E0,9E0,8E0,3.7E1,3E0,6E0,2E1,3.1E1,7E0,4E0,4E0,4E0,6E0,3.1E1],"tree_param":{"num_deleted":"0","num_feature":"98","num_nodes":"27","size_leaf_vector":"1"}},{"base_weights":[6.68731E-2,-4.1377106E-1,5.7848287E0,3.0469158E0,-1.2997212E0,-2.7066803E-2,4.112404E-1,2.8382704E-1,4.195383E0,2.237621E0,-2.2106953E0,-4.0756227E-3,3.8043976E-2,2.7277172E-1,1.7808838E0,5.092277E0,-3.3945618E0,-2.8435855E0,4.1572113E0,1.5907075E-1,-2.0750046E-2,4.848175E-2,3.2516357E-1,-5.517731E-2,-2.274231E-1,-4.992255E-3,-2.2046998E-1,5.2328493E-2,2.9071411E-1],"categories":[],"categories_nodes":[],"categories_segments":[],"categories_sizes":[],"default_left":[0,0,0,0,0,0,0,0,0,0,0,0,0,0,0,0,0,0,0,0,0,0,0,0,0,0,0,0,0],"id":19,"left_children":[1,3,5,7,9,-1,-1,11,13,15,17,-1,-1,-1,19,21,23,25,27,-1,-1,-1,-1,-1,-1,-1,-1,-1,-1],"loss_changes":[3.8990417E2,4.0560565E2,1.7424518E2,8.4488815E1,3.433015E2,0E0,0E0,1.6305962E0,4.8089996E1,3.7100085E2,3.503571E2,0E0,0E0,0E0,2.5923529E1,8.0949554E1,1.6129387E1,3.3036615E2,3.5151398E1,0E0,0E0,0E0,0E0,0E0,0E0,0E0,0E0,0E0,0E0],"parents":[2147483647,0,0,1,1,2,2,3,3,4,4,7,7,8,8,9,9,10,10,14,14,15,15,16,16,17,17,18,18],"right_children":[2,4,6,8,10,-1,-1,12,14,16,18,-1,-1,-1,20,22,24,26,28,-1,-1,-1,-1,-1,-1,-1,-1,-1,-1],"split_conditions":[5.3592E2,4.755E2,4.2947E6,4.7625E2,3.6139E6,-2.7066803E-2,4.112404E-1,4.3859E6,4.6788E6,4.9762E2,5.36E2,-4.0756227E-3,3.8043976E-2,2.7277172E-1,4.3859E6,4.9225E2,4.9947E2,3.9376E6,5.3592E2,1.5907075E-1,-2.0750046E-2,4.848175E-2,3.2516357E-1,-5.517731E-2,-2.274231E-1,-4.992255E-3,-2.2046998E-1,5.2328493E-2,2.9071411E-1],"split_indices":[85,86,67,0,74,0,0,32,46,2,36,0,0,0,4,1,2,95,22,0,0,0,0,0,0,0,0,0,0],"split_type":[0,0,0,0,0,0,0,0,0,0,0,0,0,0,0,0,0,0,0,0,0,0,0,0,0,0,0,0,0],"sum_hessian":[1.4E2,1.3E2,1E1,2.6E1,1.04E2,3E0,7E0,8E0,1.8E1,2.1E1,8.3E1,5E0,3E0,1.1E1,7E0,1.4E1,7E0,7.6E1,7E0,4E0,3E0,4E0,1E1,3E0,4E0,2.8E1,4.8E1,3E0,4E0],"tree_param":{"num_deleted":"0","num_feature":"98","num_nodes":"29","size_leaf_vector":"1"}},{"base_weights":[6.5717488E-3,1.6381133E0,-2.3825886E0,-4.0175536E-1,4.6791835E0,-5.4329753E0,1.9109675E0,1.3878396E0,-5.7966226E-1,-3.562134E-2,5.44742E0,1.1211319E-1,-6.275241E0,-2.0160942E0,3.6465867E0,2.9538317E0,-8.2814103E-1,6.3455553E0,-6.636963E-3,-5.650739E-1,-5.0673018E0,-1.6802216E-1,8.418274E-3,1.107211E0,3.5580465E-1,2.1785621E-1,8.1713766E-2,-1.1615626E-1,7.589264E-2,2.2788768E-1,4.5087263E-1,-2.8153214E-1,-1.12552896E-1,1.7107147E-1,-3.519876E-2],"categories":[],"categories_nodes":[],"categories_segments":[],"categories_sizes":[],"default_left":[0,0,0,0,0,0,0,0,0,0,0,0,0,0,0,0,0,0,0,0,0,0,0,0,0,0,0,0,0,0,0,0,0,0,0],"id":20,"left_children":[1,3,5,7,9,11,13,15,-1,-1,17,-1,19,21,23,25,27,29,-1,-1,31,-1,-1,33,-1,-1,-1,-1,-1,-1,-1,-1,-1,-1,-1],"loss_changes":[5.379309E2,5.1055737E2,7.438146E2,1.01750116E3,1.40568E2,2.274024E2,1.7093307E2,1.5513535E2,0E0,0E0,1.4618268E2,0E0,1.2487366E2,2.4059193E1,1.4189746E2,4.102408E1,7.0163414E1,7.832129E1,0E0,0E0,2.8574219E1,0E0,0E0,4.8514885E1,0E0,0E0,0E0,0E0,0E0,0E0,0E0,0E0,0E0,0E0,0E0],"parents":[2147483647,0,0,1,1,2,2,3,3,4,4,5,5,6,6,7,7,10,10,12,12,13,13,14,14,15,15,16,16,17,17,20,20,23,23],"right_children":[2,4,6,8,10,12,14,16,-1,-1,18,-1,20,22,24,26,28,30,-1,-1,32,-1,-1,34,-1,-1,-1,-1,-1,-1,-1,-1,-1,-1,-1],"split_conditions":[5.0016E2,4.9345E2,5.16E2,4.8964E2,4.8667E2,3.0574E6,5.19E2,4.7862E2,-5.7966226E-1,-3.562134E-2,5.055E2,1.1211319E-1,4.8777E2,5.9231E6,5.3329E2,4.1932E6,5.0014E2,4.079E6,-6.636963E-3,-5.650739E-1,5.0448E6,-1.6802216E-1,8.418274E-3,4.9947E2,3.5580465E-1,2.1785621E-1,8.1713766E-2,-1.1615626E-1,7.589264E-2,2.2788768E-1,4.5087263E-1,-2.8153214E-1,-1.12552896E-1,1.7107147E-1,-3.519876E-2],"split_indices":[0,29,71,7,2,39,16,51,0,0,8,0,87,4,57,88,92,25,0,0,74,0,0,58,0,0,0,0,0,0,0,0,0,0,0],"split_type":[0,0,0,0,0,0,0,0,0,0,0,0,0,0,0,0,0,0,0,0,0,0,0,0,0,0,0,0,0,0,0,0,0,0,0],"sum_hessian":[1.36E2,8.1E1,5.5E1,4.9E1,3.2E1,3.2E1,2.3E1,4.3E1,6E0,4E0,2.8E1,3E0,2.9E1,7E0,1.6E1,2.5E1,1.8E1,2.4E1,4E0,4E0,2.5E1,4E0,3E0,1E1,6E0,1.1E1,1.4E1,1.1E1,7E0,1.6E1,8E0,2E1,5E0,4E0,6E0],"tree_param":{"num_deleted":"0","num_feature":"98","num_nodes":"35","size_leaf_vector":"1"}},{"base_weights":[-4.859755E-3,1.1909256E0,-1.9364196E0,-2.5125235E-1,3.6646895E0,-4.616875E0,2.962102E0,1.878184E0,-4.27275E0,2.364408E-2,5.9630527E0,-4.998389E-1,-3.566329E0,-9.1853714E-1,5.302353E0,2.6285346E0,-6.649272E-1,1.9886628E-1,-6.737925E0,1.0987091E-1,-8.4823E-1,1.5414073E-1,6.771508E0,1.161765E0,-4.796759E0,-1.3347992E-1,7.499619E-2,1.2289047E-2,3.480284E-1,9.580867E-2,2.7610812E-1,-1.1028259E-1,5.043915E-2,-4.4126508E-1,-3.99057E-2,-2.0292446E-2,-7.051697E-2,1.6333275E-1,3.7152046E-1,1.2839241E-1,-2.6737977E-2,-8.216896E-2,-2.584493E-1],"categories":[],"categories_nodes":[],"categories_segments":[],"categories_sizes":[],"default_left":[0,0,0,0,0,0,0,0,0,0,0,0,0,0,0,0,0,0,0,0,0,0,0,0,0,0,0,0,0,0,0,0,0,0,0,0,0,0,0,0,0,0,0],"id":21,"left_children":[1,3,5,7,9,11,13,15,17,19,21,-1,23,25,27,29,31,-1,33,-1,35,-1,37,39,41,-1,-1,-1,-1,-1,-1,-1,-1,-1,-1,-1,-1,-1,-1,-1,-1,-1,-1],"loss_changes":[3.1411984E2,3.0059982E2,6.9644965E2,4.704553E2,2.5928082E2,1.5651068E2,1.7742215E2,7.044389E1,4.132187E2,2.650226E1,2.3367065E1,0E0,1.8010043E2,3.788318E1,9.890784E1,4.7135223E1,2.5433563E1,0E0,1.7893567E2,0E0,1.9142804E0,0E0,8.05835E0,1.8071365E1,1.9675964E1,0E0,0E0,0E0,0E0,0E0,0E0,0E0,0E0,0E0,0E0,0E0,0E0,0E0,0E0,0E0,0E0,0E0,0E0],"parents":[2147483647,0,0,1,1,2,2,3,3,4,4,5,5,6,6,7,7,8,8,9,9,10,10,12,12,13,13,14,14,15,15,16,16,18,18,20,20,22,22,23,23,24,24],"right_children":[2,4,6,8,10,12,14,16,18,20,22,-1,24,26,28,30,32,-1,34,-1,36,-1,38,40,42,-1,-1,-1,-1,-1,-1,-1,-1,-1,-1,-1,-1,-1,-1,-1,-1,-1,-1],"split_conditions":[5.0085E2,4.8906E2,5.19E2,4.8583E2,4.8667E2,4.9673E2,5.21E2,4.8936E6,3.4614E6,3.9332E6,4.8923E2,-4.998389E-1,4.9473E2,4.2543E6,5.19E2,4.8968E2,4.5304E6,1.9886628E-1,4.9352E2,1.0987091E-1,4.8667E2,1.5414073E-1,4.9716E2,4.9607E2,3.3306E6,-1.3347992E-1,7.499619E-2,1.2289047E-2,3.480284E-1,9.580867E-2,2.7610812E-1,-1.1028259E-1,5.043915E-2,-4.4126508E-1,-3.99057E-2,-2.0292446E-2,-7.051697E-2,1.6333275E-1,3.7152046E-1,1.2839241E-1,-2.6737977E-2,-8.216896E-2,-2.584493E-1],"split_indices":[7,72,16,9,9,43,92,81,53,25,2,0,16,18,30,1,67,0,2,0,23,0,50,9,11,0,0,0,0,0,0,0,0,0,0,0,0,0,0,0,0,0,0],"split_type":[0,0,0,0,0,0,0,0,0,0,0,0,0,0,0,0,0,0,0,0,0,0,0,0,0,0,0,0,0,0,0,0,0,0,0,0,0,0,0,0,0,0,0],"sum_hessian":[1.34E2,8.3E1,5.1E1,5.3E1,3E1,3.3E1,1.8E1,3.5E1,1.8E1,1.2E1,1.8E1,4E0,2.9E1,7E0,1.1E1,2.7E1,8E0,4E0,1.4E1,3E0,9E0,5E0,1.3E1,6E0,2.3E1,4E0,3E0,3E0,8E0,2.3E1,4E0,4E0,4E0,1E1,4E0,6E0,3E0,3E0,1E1,3E0,3E0,3E0,2E1],"tree_param":{"num_deleted":"0","num_feature":"98","num_nodes":"43","size_leaf_vector":"1"}},{"base_weights":[2.4639262E-2,-4.6233588E-1,5.9989123E0,9.742758E-1,-2.9240613E0,1.10339664E-1,3.925291E-1,4.480901E0,-1.9844055E-2,-4.890647E0,1.5605984E0,1.440528E0,6.561124E0,9.562794E-1,-3.8531973E0,-5.577442E-1,-3.9547844E0,-9.226532E-1,2.4425791E-1,1.3299738E-1,-3.7436675E-2,1.371605E-1,3.8249704E-1,9.239154E-2,-1.03312925E-1,-5.707126E-3,-4.40979E-1,7.785248E-2,-2.398899E-1,3.705139E-2,-8.707603E-2],"categories":[],"categories_nodes":[],"categories_segments":[],"categories_sizes":[],"default_left":[0,0,0,0,0,0,0,0,0,0,0,0,0,0,0,0,0,0,0,0,0,0,0,0,0,0,0,0,0,0,0],"id":22,"left_children":[1,3,5,7,9,-1,-1,11,13,15,17,19,21,23,25,-1,27,29,-1,-1,-1,-1,-1,-1,-1,-1,-1,-1,-1,-1,-1],"loss_changes":[4.2462524E2,4.8028223E2,5.9914673E1,2.998854E2,4.4860565E2,0E0,0E0,1.1071695E2,2.581289E2,1.610711E2,1.3659882E2,2.6018255E1,2.47417E1,1.5202924E2,2.589674E2,0E0,1.5616003E2,1.4913856E1,0E0,0E0,0E0,0E0,0E0,0E0,0E0,0E0,0E0,0E0,0E0,0E0,0E0],"parents":[2147483647,0,0,1,1,2,2,3,3,4,4,7,7,8,8,9,9,10,10,11,11,12,12,13,13,14,14,16,16,17,17],"right_children":[2,4,6,8,10,-1,-1,12,14,16,18,20,22,24,26,-1,28,30,-1,-1,-1,-1,-1,-1,-1,-1,-1,-1,-1,-1,-1],"split_conditions":[5.3592E2,5.0085E2,5.2411E2,3.5829E6,5.16E2,1.10339664E-1,3.925291E-1,4.8923E2,4.9973E6,4.9034E2,5.7557E6,4.6788E6,4.8923E2,4.7866E6,4.8905E2,-5.577442E-1,4.9984E2,5.2388E2,2.4425791E-1,1.3299738E-1,-3.7436675E-2,1.371605E-1,3.8249704E-1,9.239154E-2,-1.03312925E-1,-5.707126E-3,-4.40979E-1,7.785248E-2,-2.398899E-1,3.705139E-2,-8.707603E-2],"split_indices":[85,0,52,60,92,0,0,9,81,73,88,46,44,88,1,0,10,8,0,0,0,0,0,0,0,0,0,0,0,0,0],"split_type":[0,0,0,0,0,0,0,0,0,0,0,0,0,0,0,0,0,0,0,0,0,0,0,0,0,0,0,0,0,0,0],"sum_hessian":[1.44E2,1.34E2,1E1,8.5E1,4.9E1,4E0,6E0,1.8E1,6.7E1,3.4E1,1.5E1,8E0,1E1,5.4E1,1.3E1,3E0,3.1E1,9E0,6E0,5E0,3E0,3E0,7E0,4.2E1,1.2E1,8E0,5E0,4E0,2.7E1,3E0,6E0],"tree_param":{"num_deleted":"0","num_feature":"98","num_nodes":"31","size_leaf_vector":"1"}},{"base_weights":[1.7321208E-1,-4.9938506E-1,3.6200423E0,9.0206987E-1,-3.924187E0,6.037755E0,1.15011595E-1,4.652902E0,-3.224256E-1,-4.89227E0,2.158741E-1,8.941841E-2,3.566867E-1,-1.3574263E0,1.3315125E-1,5.7946815E0,3.4313966E-3,2.529063E0,-2.0689204E0,-4.9445495E-1,-3.9708037E0,-2.3249818E-2,-9.552498E-2,1.6408177E-1,3.6923236E-1,2.2870827E-1,7.089467E-2,-2.6058316E-1,1.1523636E-1,-2.3479997E-1,-1.1341858E-1],"categories":[],"categories_nodes":[],"categories_segments":[],"categories_sizes":[],"default_left":[0,0,0,0,0,0,0,0,0,0,0,0,0,0,0,0,0,0,0,0,0,0,0,0,0,0,0,0,0,0,0],"id":23,"left_children":[1,3,5,7,9,11,13,15,17,19,-1,-1,-1,21,-1,23,-1,25,27,-1,29,-1,-1,-1,-1,-1,-1,-1,-1,-1,-1],"loss_changes":[3.1246375E2,5.4590656E2,1.8573706E2,3.7352325E2,2.8441678E2,4.7786346E1,4.113277E1,1.0428693E2,3.1399927E2,9.8864624E1,0E0,0E0,0E0,2.566679E0,0E0,3.9696777E1,0E0,4.8053253E1,5.4807623E2,0E0,2.2681824E1,0E0,0E0,0E0,0E0,0E0,0E0,0E0,0E0,0E0,0E0],"parents":[2147483647,0,0,1,1,2,2,3,3,4,4,5,5,6,6,7,7,8,8,9,9,13,13,15,15,17,17,18,18,20,20],"right_children":[2,4,6,8,10,12,14,16,18,20,-1,-1,-1,22,-1,24,-1,26,28,-1,30,-1,-1,-1,-1,-1,-1,-1,-1,-1,-1],"split_conditions":[5.2141E2,4.9947E2,5.5121E6,3.6139E6,5.3592E2,5.2118E2,4.914E6,4.6931E6,4.8608E2,4.9471E2,2.158741E-1,8.941841E-2,3.566867E-1,4.9371E2,1.3315125E-1,4.9264E2,3.4313966E-3,3.7913E6,4.9378E2,-4.9445495E-1,5.1619E6,-2.3249818E-2,-9.552498E-2,1.6408177E-1,3.6923236E-1,2.2870827E-1,7.089467E-2,-2.6058316E-1,1.1523636E-1,-2.3479997E-1,-1.1341858E-1],"split_indices":[92,2,18,60,64,36,74,46,64,43,0,0,0,3,0,38,0,32,80,0,60,0,0,0,0,0,0,0,0,0,0],"split_type":[0,0,0,0,0,0,0,0,0,0,0,0,0,0,0,0,0,0,0,0,0,0,0,0,0,0,0,0,0,0,0],"sum_hessian":[1.33E2,1.12E2,2.1E1,8E1,3.2E1,1.2E1,9E0,1.9E1,6.1E1,2.9E1,3E0,3E0,9E0,6E0,3E0,1.5E1,4E0,2.3E1,3.8E1,3E0,2.6E1,3E0,3E0,7E0,8E0,7E0,1.6E1,2.2E1,1.6E1,1.7E1,9E0],"tree_param":{"num_deleted":"0","num_feature":"98","num_nodes":"31","size_leaf_vector":"1"}},{"base_weights":[-1.4181235E-1,-4.9044937E-1,5.6720047E0,9.423505E-1,-2.9659095E0,1.1924324E-1,3.5836577E-1,3.4089715E0,-2.646795E-1,-4.5509696E-1,-2.0617712E0,9.4245774E-1,4.726898E0,-4.8247653E-1,6.091896E-1,1.606137E-1,-2.6694825E0,1.02064304E-1,-3.9219666E-2,4.890442E-2,2.8640616E-1,-2.418535E-2,1.3239394E-1,-1.893667E-1,-2.822876E-3],"categories":[],"categories_nodes":[],"categories_segments":[],"categories_sizes":[],"default_left":[0,0,0,0,0,0,0,0,0,0,0,0,0,0,0,0,0,0,0,0,0,0,0,0,0],"id":24,"left_children":[1,3,5,7,9,-1,-1,11,13,-1,15,17,19,-1,21,-1,23,-1,-1,-1,-1,-1,-1,-1,-1],"loss_changes":[2.865495E2,4.7452448E2,2.222931E1,2.5397156E2,2.5307703E2,0E0,0E0,8.656427E1,4.8154398E2,0E0,1.4959941E2,2.2473812E1,6.195865E1,0E0,1.2159692E2,0E0,1.1662515E2,0E0,0E0,0E0,0E0,0E0,0E0,0E0,0E0],"parents":[2147483647,0,0,1,1,2,2,3,3,4,4,7,7,8,8,10,10,11,11,12,12,14,14,16,16],"right_children":[2,4,6,8,10,-1,-1,12,14,-1,16,18,20,-1,22,-1,24,-1,-1,-1,-1,-1,-1,-1,-1],"split_conditions":[5.36E2,5.0085E2,5.2222E2,3.9351E6,4.9E2,1.1924324E-1,3.5836577E-1,4.938E2,4.0158E6,-4.5509696E-1,4.9057E2,4.8617E2,4.9057E2,-4.8247653E-1,4.6744E6,1.606137E-1,5.143E2,1.02064304E-1,-3.9219666E-2,4.890442E-2,2.8640616E-1,-2.418535E-2,1.3239394E-1,-1.893667E-1,-2.822876E-3],"split_indices":[57,0,85,53,77,0,0,1,53,0,63,36,35,0,18,0,87,0,0,0,0,0,0,0,0],"split_type":[0,0,0,0,0,0,0,0,0,0,0,0,0,0,0,0,0,0,0,0,0,0,0,0,0],"sum_hessian":[1.39E2,1.32E2,7E0,8.4E1,4.8E1,3E0,4E0,2.7E1,5.7E1,5E0,4.3E1,1E1,1.7E1,4E0,5.3E1,4E0,3.9E1,6E0,4E0,4E0,1.3E1,3.5E1,1.8E1,2.7E1,1.2E1],"tree_param":{"num_deleted":"0","num_feature":"98","num_nodes":"25","size_leaf_vector":"1"}},{"base_weights":[-1.4255749E-1,-5.696302E-1,4.878801E0,7.121876E-1,-2.5440218E0,3.4079114E-1,-1.0747147E-2,3.1309195E0,-6.771342E-1,-4.6596713E0,2.3414545E-1,3.923348E0,-1.4012985E-1,-4.631772E-1,2.5072074E-1,-5.041439E-1,-3.6461134E0,2.019521E-1,-1.0471616E0,6.7032926E-2,2.605896E-1,1.2802836E-1,-5.7177227E-2,1.0541153E-1,-2.2441712E-1,7.4043535E-2,-1.0666974E-1],"categories":[],"categories_nodes":[],"categories_segments":[],"categories_sizes":[],"default_left":[0,0,0,0,0,0,0,0,0,0,0,0,0,0,0,0,0,0,0,0,0,0,0,0,0,0,0],"id":25,"left_children":[1,3,5,7,9,-1,-1,11,13,15,17,19,-1,-1,21,-1,23,-1,25,-1,-1,-1,-1,-1,-1,-1,-1],"loss_changes":[3.0086255E2,3.2828638E2,1.0999863E2,2.675914E2,3.0085E2,0E0,0E0,1.4735037E2,4.0863666E2,1.2264191E2,1.1636006E2,7.953168E1,0E0,0E0,1.5429343E2,0E0,1.3547076E2,0E0,5.2587864E1,0E0,0E0,0E0,0E0,0E0,0E0,0E0,0E0],"parents":[2147483647,0,0,1,1,2,2,3,3,4,4,7,7,8,8,9,9,10,10,11,11,14,14,16,16,18,18],"right_children":[2,4,6,8,10,-1,-1,12,14,16,18,20,-1,-1,22,-1,24,-1,26,-1,-1,-1,-1,-1,-1,-1,-1],"split_conditions":[5.3592E2,5.0085E2,5.8893E6,3.9351E6,5.1423E2,3.4079114E-1,-1.0747147E-2,5.0085E2,4.0158E6,4.8968E2,4.9947E2,4.89E2,-1.4012985E-1,-4.631772E-1,4.7862E2,-5.041439E-1,4.9984E2,2.019521E-1,5.1502E2,6.7032926E-2,2.605896E-1,1.2802836E-1,-5.7177227E-2,1.0541153E-1,-2.2441712E-1,7.4043535E-2,-1.0666974E-1],"split_indices":[92,0,18,53,63,0,0,35,53,85,93,17,0,0,51,0,10,0,42,0,0,0,0,0,0,0,0],"split_type":[0,0,0,0,0,0,0,0,0,0,0,0,0,0,0,0,0,0,0,0,0,0,0,0,0,0,0],"sum_hessian":[1.38E2,1.28E2,1E1,7.8E1,5E1,7E0,3E0,2.8E1,5E1,2.8E1,2.2E1,2.5E1,3E0,4E0,4.6E1,3E0,2.5E1,5E0,1.7E1,9E0,1.6E1,1.7E1,2.9E1,3E0,2.2E1,5E0,1.2E1],"tree_param":{"num_deleted":"0","num_feature":"98","num_nodes":"27","size_leaf_vector":"1"}},{"base_weights":[-3.4597203E-1,7.3671126E-1,-1.9444853E0,3.6730742E0,-1.9241333E-1,-3.9948516E0,1.9459168E0,4.639264E0,-6.7575075E-2,-1.2890105E0,2.6816134E0,-4.8523828E-1,-3.2056015E0,-2.5888532E-1,2.6427403E-1,5.2180414E0,7.268639E-2,1.4530523E0,-4.471039E0,3.6777115E-1,4.120625E0,1.1427394E0,-4.1782007E0,-1.1710902E-1,1.8613936E0,1.6046056E-1,3.1617567E-1,2.5244301E-2,1.7616577E-1,-4.9316993E-1,-1.1524254E-1,7.272034E-2,-2.8754577E-2,1.0612519E-1,2.4795969E-1,-2.3918916E-2,1.2390862E-1,-2.3202622E-1,-8.547974E-2,1.1629867E-2,1.5124206E-1],"categories":[],"categories_nodes":[],"categories_segments":[],"categories_sizes":[],"default_left":[0,0,0,0,0,0,0,0,0,0,0,0,0,0,0,0,0,0,0,0,0,0,0,0,0,0,0,0,0,0,0,0,0,0,0,0,0,0,0,0,0],"id":26,"left_children":[1,3,5,7,9,11,13,15,-1,17,19,-1,21,23,-1,25,-1,27,29,31,33,35,37,-1,39,-1,-1,-1,-1,-1,-1,-1,-1,-1,-1,-1,-1,-1,-1,-1,-1],"loss_changes":[2.4026686E2,2.2715128E2,4.5447156E2,1.0336386E2,2.0516222E2,1.3563281E2,1.4862987E2,2.3757599E1,0E0,4.1658676E2,5.8418167E1,0E0,1.485672E2,6.1782887E1,0E0,1.0796387E1,0E0,4.9257923E1,2.3424539E2,9.032803E0,7.9052887E0,1.633976E1,2.4022827E1,0E0,1.2561567E1,0E0,0E0,0E0,0E0,0E0,0E0,0E0,0E0,0E0,0E0,0E0,0E0,0E0,0E0,0E0,0E0],"parents":[2147483647,0,0,1,1,2,2,3,3,4,4,5,5,6,6,7,7,9,9,10,10,12,12,13,13,15,15,17,17,18,18,19,19,20,20,21,21,22,22,24,24],"right_children":[2,4,6,8,10,12,14,16,-1,18,20,-1,22,24,-1,26,-1,28,30,32,34,36,38,-1,40,-1,-1,-1,-1,-1,-1,-1,-1,-1,-1,-1,-1,-1,-1,-1,-1],"split_conditions":[5.0085E2,3.6139E6,5.19E2,4.7685E6,4.9351E2,4.8344E2,6.3843E6,4.6931E6,-6.7575075E-2,4.8172E2,4.856E2,-4.8523828E-1,4.959E2,5.0448E6,2.6427403E-1,4.9264E2,7.268639E-2,4.85E2,4.1871E6,4.1932E6,4.9075E2,4.1162E6,5.1619E6,-1.1710902E-1,5.0409E6,1.6046056E-1,3.1617567E-1,2.5244301E-2,1.7616577E-1,-4.9316993E-1,-1.1524254E-1,7.272034E-2,-2.8754577E-2,1.0612519E-1,2.4795969E-1,-2.3918916E-2,1.2390862E-1,-2.3202622E-1,-8.547974E-2,1.1629867E-2,1.5124206E-1],"split_indices":[0,53,16,39,93,86,81,46,0,37,2,0,16,88,0,38,0,8,53,25,7,4,60,0,60,0,0,0,0,0,0,0,0,0,0,0,0,0,0,0,0],"split_type":[0,0,0,0,0,0,0,0,0,0,0,0,0,0,0,0,0,0,0,0,0,0,0,0,0,0,0,0,0,0,0,0,0,0,0,0,0,0,0,0,0],"sum_hessian":[1.37E2,8.2E1,5.5E1,1.9E1,6.3E1,3.6E1,1.9E1,1.6E1,3E0,4.6E1,1.7E1,3E0,3.3E1,1.2E1,7E0,1.3E1,3E0,2.5E1,2.1E1,7E0,1E1,6E0,2.7E1,6E0,6E0,6E0,7E0,1.8E1,7E0,5E0,1.6E1,3E0,4E0,4E0,6E0,3E0,3E0,2.2E1,5E0,3E0,3E0],"tree_param":{"num_deleted":"0","num_feature":"98","num_nodes":"41","size_leaf_vector":"1"}},{"base_weights":[1.1920759E-1,-4.9380106E-1,3.4017446E0,7.6267356E-1,-3.8944101E0,5.283242E0,9.699842E-2,4.042793E0,-3.4225512E-1,-5.363485E0,-9.989955E-1,1.0509857E-1,3.1727767E-1,-6.890991E-2,7.763977E-2,1.7214539E0,5.5174537E0,6.098535E-1,-3.9222195E0,-6.529809E0,-2.6519814E0,-1.9222717E0,6.640625E-2,1.3219081E-1,-1.6152192E-2,1.04859166E-1,3.1669083E-1,5.4253023E-2,-2.7413484E-1,-1.8277148E-2,-4.3017656E-1,-4.084427E-1,-1.8618928E-1,-6.97155E-2,-1.5638612E-1,-1.1762365E-1,-3.98201E-2],"categories":[],"categories_nodes":[],"categories_segments":[],"categories_sizes":[],"default_left":[0,0,0,0,0,0,0,0,0,0,0,0,0,0,0,0,0,0,0,0,0,0,0,0,0,0,0,0,0,0,0,0,0,0,0,0,0],"id":27,"left_children":[1,3,5,7,9,11,13,15,17,19,21,-1,-1,-1,-1,23,25,27,29,31,33,35,-1,-1,-1,-1,-1,-1,-1,-1,-1,-1,-1,-1,-1,-1,-1],"loss_changes":[2.8137885E2,5.0715808E2,1.3628078E2,3.1669754E2,1.307565E2,3.3974823E1,2.1468342E1,6.581213E1,2.2735396E2,4.909546E1,2.8335918E1,0E0,0E0,0E0,0E0,1.971175E1,2.3015198E1,1.5939583E2,2.2995381E2,3.3969727E1,4.2559052E-1,2.4856415E0,0E0,0E0,0E0,0E0,0E0,0E0,0E0,0E0,0E0,0E0,0E0,0E0,0E0,0E0,0E0],"parents":[2147483647,0,0,1,1,2,2,3,3,4,4,5,5,6,6,7,7,8,8,9,9,10,10,15,15,16,16,17,17,18,18,19,19,20,20,21,21],"right_children":[2,4,6,8,10,12,14,16,18,20,22,-1,-1,-1,-1,24,26,28,30,32,34,36,-1,-1,-1,-1,-1,-1,-1,-1,-1,-1,-1,-1,-1,-1,-1],"split_conditions":[5.21E2,4.9947E2,5.5121E6,3.737E6,4.9778E6,5.2314E2,4.776E6,4.8923E2,4.8936E6,4.9456E6,5.0409E6,1.0509857E-1,3.1727767E-1,-6.890991E-2,7.763977E-2,4.8943E2,4.8923E2,4.9986E2,4.8905E2,5.0044E6,4.2387E6,4.2543E6,6.640625E-2,1.3219081E-1,-1.6152192E-2,1.04859166E-1,3.1669083E-1,5.4253023E-2,-2.7413484E-1,-1.8277148E-2,-4.3017656E-1,-4.084427E-1,-1.8618928E-1,-6.97155E-2,-1.5638612E-1,-1.1762365E-1,-3.98201E-2],"split_indices":[92,2,18,60,60,45,74,9,81,67,18,0,0,0,0,7,44,17,1,39,11,25,0,0,0,0,0,0,0,0,0,0,0,0,0,0,0],"split_type":[0,0,0,0,0,0,0,0,0,0,0,0,0,0,0,0,0,0,0,0,0,0,0,0,0,0,0,0,0,0,0,0,0,0,0,0,0],"sum_hessian":[1.38E2,1.17E2,2.1E1,8.6E1,3.1E1,1.3E1,8E0,2.1E1,6.5E1,2E1,1.1E1,4E0,9E0,4E0,4E0,9E0,1.2E1,5.2E1,1.3E1,1.3E1,7E0,8E0,3E0,6E0,3E0,3E0,9E0,4.9E1,3E0,8E0,5E0,7E0,6E0,3E0,4E0,5E0,3E0],"tree_param":{"num_deleted":"0","num_feature":"98","num_nodes":"37","size_leaf_vector":"1"}},{"base_weights":[-2.0850383E-2,-3.963591E-1,4.9755006E0,2.3281238E0,-1.0485831E0,3.47229E-1,8.087524E-2,4.2950186E-1,3.6918132E0,-3.9033127E0,-4.8817575E-2,1.021152E0,-5.045433E-2,1.9365044E0,2.4928227E-1,3.3094978E-1,-8.814458E0,2.6995535E0,-1.7184389E0,8.823364E-2,3.670044E-3,1.5326691E-2,1.42659E-1,6.752167E-2,-7.966309E-2,-5.214183E-1,-1.2880364E-1,-3.3003386E-2,2.0519736E-1,-1.531128E-1,3.5300165E-2],"categories":[],"categories_nodes":[],"categories_segments":[],"categories_sizes":[],"default_left":[0,0,0,0,0,0,0,0,0,0,0,0,0,0,0,0,0,0,0,0,0,0,0,0,0,0,0,0,0,0,0],"id":28,"left_children":[1,3,5,7,9,-1,-1,11,13,15,17,19,-1,21,-1,23,25,27,29,-1,-1,-1,-1,-1,-1,-1,-1,-1,-1,-1,-1],"loss_changes":[2.683887E2,2.3877866E2,5.4888718E1,6.5731766E1,3.0804797E2,0E0,0E0,1.1244124E1,2.4411407E1,5.851793E2,3.7632687E2,6.2125254E0,0E0,1.107864E1,0E0,3.3538826E1,1.04022095E2,1.4897403E2,1.683203E2,0E0,0E0,0E0,0E0,0E0,0E0,0E0,0E0,0E0,0E0,0E0,0E0],"parents":[2147483647,0,0,1,1,2,2,3,3,4,4,7,7,8,8,9,9,10,10,11,11,13,13,15,15,16,16,17,17,18,18],"right_children":[2,4,6,8,10,-1,-1,12,14,16,18,20,-1,22,-1,24,26,28,30,-1,-1,-1,-1,-1,-1,-1,-1,-1,-1,-1,-1],"split_conditions":[5.3592E2,4.8025E2,5.3222E6,4.7835E2,4.923E2,3.47229E-1,8.087524E-2,4.8617E2,4.7596E2,4.8933E2,4.9803E2,4.5959E6,-5.045433E-2,4.7787E2,2.4928227E-1,4.7583E2,5.1619E6,4.8667E2,5.16E2,8.823364E-2,3.670044E-3,1.5326691E-2,1.42659E-1,6.752167E-2,-7.966309E-2,-5.214183E-1,-1.2880364E-1,-3.3003386E-2,2.0519736E-1,-1.531128E-1,3.5300165E-2],"split_indices":[92,70,18,92,57,0,0,50,50,7,14,74,0,0,0,2,32,9,71,0,0,0,0,0,0,0,0,0,0,0,0],"split_type":[0,0,0,0,0,0,0,0,0,0,0,0,0,0,0,0,0,0,0,0,0,0,0,0,0,0,0,0,0,0,0],"sum_hessian":[1.41E2,1.32E2,9E0,2.5E1,1.07E2,5E0,4E0,1.1E1,1.4E1,2.7E1,8E1,8E0,3E0,7E0,7E0,1.5E1,1.2E1,3E1,5E1,4E0,4E0,3E0,4E0,1E1,5E0,9E0,3E0,9E0,2.1E1,3.2E1,1.8E1],"tree_param":{"num_deleted":"0","num_feature":"98","num_nodes":"31","size_leaf_vector":"1"}},{"base_weights":[7.494283E-2,-2.9692256E-1,4.4290967E0,2.3309975E0,-8.891221E-1,5.783718E0,3.0628968E-2,9.2755996E-2,3.071925E0,-4.3868713E0,2.4458897E-1,1.5093651E-1,3.4194824E-1,-1.369133E-2,2.180748E-2,1.0530875E0,3.9935863E0,-6.878092E-1,-8.645126E0,2.0375175E0,-1.7385012E0,-2.9787827E-2,1.2193298E-1,1.0656311E-1,2.3291703E-1,4.172625E-2,-8.977119E-2,-5.1774734E-1,-1.3183747E-1,-5.473241E-2,1.7156388E-1,-1.337411E-1,1.928533E-1],"categories":[],"categories_nodes":[],"categories_segments":[],"categories_sizes":[],"default_left":[0,0,0,0,0,0,0,0,0,0,0,0,0,0,0,0,0,0,0,0,0,0,0,0,0,0,0,0,0,0,0,0,0],"id":29,"left_children":[1,3,5,7,9,11,-1,13,15,17,19,-1,-1,-1,-1,21,23,25,27,29,31,-1,-1,-1,-1,-1,-1,-1,-1,-1,-1,-1,-1],"loss_changes":[2.2637822E2,2.0282921E2,5.3326324E1,3.9516052E1,4.2140933E2,2.6969604E0,0E0,1.0006042E0,2.9286713E1,4.0359412E2,2.9154086E2,0E0,0E0,0E0,0E0,1.7444994E1,4.927719E0,2.6790716E1,9.5975586E1,1.9147203E2,2.146475E2,0E0,0E0,0E0,0E0,0E0,0E0,0E0,0E0,0E0,0E0,0E0,0E0],"parents":[2147483647,0,0,1,1,2,2,3,3,4,4,5,5,7,7,8,8,9,9,10,10,15,15,16,16,17,17,18,18,19,19,20,20],"right_children":[2,4,6,8,10,12,-1,14,16,18,20,-1,-1,-1,-1,22,24,26,28,30,32,-1,-1,-1,-1,-1,-1,-1,-1,-1,-1,-1,-1],"split_conditions":[5.3592E2,4.768E2,5.2569E2,4.7131E2,4.923E2,5.1117E6,3.0628968E-2,4.85E2,4.0561E6,4.9E2,5.0281E2,1.5093651E-1,3.4194824E-1,-1.369133E-2,2.180748E-2,4.8589E6,4.7188E2,4.7941E2,5.035E2,4.872E2,6.3843E6,-2.9787827E-2,1.2193298E-1,1.0656311E-1,2.3291703E-1,4.172625E-2,-8.977119E-2,-5.1774734E-1,-1.3183747E-1,-5.473241E-2,1.7156388E-1,-1.337411E-1,1.928533E-1],"split_indices":[85,58,0,94,57,4,0,43,53,0,17,0,0,0,0,11,86,22,8,2,88,0,0,0,0,0,0,0,0,0,0,0,0],"split_type":[0,0,0,0,0,0,0,0,0,0,0,0,0,0,0,0,0,0,0,0,0,0,0,0,0,0,0,0,0,0,0,0,0],"sum_hessian":[1.38E2,1.28E2,1E1,2.3E1,1.05E2,7E0,3E0,6E0,1.7E1,2.5E1,8E1,3E0,4E0,3E0,3E0,6E0,1.1E1,1.4E1,1.1E1,4.2E1,3.8E1,3E0,3E0,4E0,7E0,6E0,8E0,8E0,3E0,1.3E1,2.9E1,3.3E1,5E0],"tree_param":{"num_deleted":"0","num_feature":"98","num_nodes":"33","size_leaf_vector":"1"}},{"base_weights":[1.3256547E-1,-1.6687272E-1,4.4097834E0,7.5975955E-1,-1.9134698E0,6.861023E-2,3.282703E-1,-4.5839664E-1,3.2559488E0,-3.1137178E0,2.5987701E0,1.086801E0,-4.960417E0,-8.09729E-2,4.135994E0,-4.0543785E0,-1.1375967E0,-2.1176148E-2,1.977271E-1,1.3443871E-1,2.35666E-2,4.8317567E-2,-3.6017275E-1,2.2717662E-1,4.8120882E-2,-2.517086E-1,-1.4190392E-1,1.2920531E-2,-8.933784E-2],"categories":[],"categories_nodes":[],"categories_segments":[],"categories_sizes":[],"default_left":[0,0,0,0,0,0,0,0,0,0,0,0,0,0,0,0,0,0,0,0,0,0,0,0,0,0,0,0,0],"id":30,"left_children":[1,3,5,7,9,-1,-1,11,13,15,17,19,21,-1,23,25,27,-1,-1,-1,-1,-1,-1,-1,-1,-1,-1,-1,-1],"loss_changes":[1.7620032E2,2.1023425E2,4.992177E1,2.5995615E2,2.5180318E2,0E0,0E0,4.0886862E2,1.2683426E2,6.23067E1,4.2650238E1,4.2115158E1,2.063706E2,0E0,2.6667725E1,1.4314026E1,1.2242733E1,0E0,0E0,0E0,0E0,0E0,0E0,0E0,0E0,0E0,0E0,0E0,0E0],"parents":[2147483647,0,0,1,1,2,2,3,3,4,4,7,7,8,8,9,9,10,10,11,11,12,12,14,14,15,15,16,16],"right_children":[2,4,6,8,10,-1,-1,12,14,16,18,20,22,-1,24,26,28,-1,-1,-1,-1,-1,-1,-1,-1,-1,-1,-1,-1],"split_conditions":[5.3592E2,5.0572E2,5.3222E6,4.8903E2,5.36E2,6.861023E-2,3.282703E-1,4.9057E2,4.8911E2,5.1185E2,5.3329E2,4.7304E2,3.7969E6,-8.09729E-2,4.9762E2,4.2387E6,5.1165E2,-2.1176148E-2,1.977271E-1,1.3443871E-1,2.35666E-2,4.8317567E-2,-3.6017275E-1,2.2717662E-1,4.8120882E-2,-2.517086E-1,-1.4190392E-1,1.2920531E-2,-8.933784E-2],"split_indices":[85,15,4,51,36,0,0,0,0,91,29,28,81,0,2,39,37,0,0,0,0,0,0,0,0,0,0,0,0],"split_type":[0,0,0,0,0,0,0,0,0,0,0,0,0,0,0,0,0,0,0,0,0,0,0,0,0,0,0,0,0],"sum_hessian":[1.36E2,1.28E2,8E0,8.4E1,4.4E1,4E0,4E0,5.7E1,2.7E1,3.5E1,9E0,4.3E1,1.4E1,4E0,2.3E1,2.3E1,1.2E1,3E0,6E0,1.1E1,3.2E1,4E0,1E1,2E1,3E0,1.1E1,1.2E1,4E0,8E0],"tree_param":{"num_deleted":"0","num_feature":"98","num_nodes":"29","size_leaf_vector":"1"}},{"base_weights":[3.578241E-3,2.146417E0,-4.3979856E-1,-8.077749E-3,2.762281E0,-3.9377582E0,5.6445146E-1,2.4579506E-1,2.0512333E0,-4.6922302E-1,-7.370199E0,2.2683961E0,-8.164541E-1,9.495283E-1,1.3086517E-1,6.440081E-1,-1.3846474E0,-4.7010142E-1,-1.11943364E-1,-9.9473315E-1,3.4980347E0,-2.6777713E0,1.3891016E0,6.1306E-3,7.695313E-2,-7.3635103E-3,6.371422E-2,-2.705658E-2,-1.04644015E-1,-1.915596E-1,1.8822057E-2,2.553978E-2,2.192493E-1,1.6331788E-2,-1.5960579E-1,2.4224175E-3,2.3190264E-1],"categories":[],"categories_nodes":[],"categories_segments":[],"categories_sizes":[],"default_left":[0,0,0,0,0,0,0,0,0,0,0,0,0,0,0,0,0,0,0,0,0,0,0,0,0,0,0,0,0,0,0,0,0,0,0,0,0],"id":31,"left_children":[1,3,5,-1,7,9,11,-1,13,15,17,19,21,23,-1,25,27,-1,-1,29,31,33,35,-1,-1,-1,-1,-1,-1,-1,-1,-1,-1,-1,-1,-1,-1],"loss_changes":[1.330058E2,3.4559784E1,4.097105E2,0E0,1.9011536E1,3.060859E2,2.1597382E2,0E0,7.4930725E0,1.515883E1,1.14487976E2,1.679909E2,2.1308691E2,3.2237606E0,0E0,3.6787314E0,3.6467218E0,0E0,0E0,4.811357E1,7.724628E1,4.431105E1,1.04312515E2,0E0,0E0,0E0,0E0,0E0,0E0,0E0,0E0,0E0,0E0,0E0,0E0,0E0,0E0],"parents":[2147483647,0,0,1,1,2,2,4,4,5,5,6,6,8,8,9,9,10,10,11,11,12,12,13,13,15,15,16,16,19,19,20,20,21,21,22,22],"right_children":[2,4,6,-1,8,10,12,-1,14,16,18,20,22,24,-1,26,28,-1,-1,30,32,34,36,-1,-1,-1,-1,-1,-1,-1,-1,-1,-1,-1,-1,-1,-1],"split_conditions":[4.7628E2,4.1306E6,4.923E2,-8.077749E-3,3.9332E6,4.8814E2,5.055E2,2.4579506E-1,4.4811E6,4.2229E6,4.6053E6,4.872E2,5.2141E2,4.7631E2,1.3086517E-1,4.04E6,4.8618E2,-4.7010142E-1,-1.11943364E-1,4.9185E2,3.2448E6,4.9984E2,6.3843E6,6.1306E-3,7.695313E-2,-7.3635103E-3,6.371422E-2,-2.705658E-2,-1.04644015E-1,-1.915596E-1,1.8822057E-2,2.553978E-2,2.192493E-1,1.6331788E-2,-1.5960579E-1,2.4224175E-3,2.3190264E-1],"split_indices":[51,4,64,0,67,10,1,0,11,60,39,9,17,94,0,11,59,0,0,78,25,10,95,0,0,0,0,0,0,0,0,0,0,0,0,0,0],"split_type":[0,0,0,0,0,0,0,0,0,0,0,0,0,0,0,0,0,0,0,0,0,0,0,0,0,0,0,0,0,0,0,0,0,0,0,0,0],"sum_hessian":[1.38E2,2.3E1,1.15E2,5E0,1.8E1,2.5E1,9E1,3E0,1.5E1,1.3E1,1.2E1,4E1,5E1,6E0,9E0,6E0,7E0,8E0,4E0,1.1E1,2.9E1,2.7E1,2.3E1,3E0,3E0,3E0,3E0,4E0,3E0,3E0,8E0,7E0,2.2E1,4E0,2.3E1,1.7E1,6E0],"tree_param":{"num_deleted":"0","num_feature":"98","num_nodes":"37","size_leaf_vector":"1"}},{"base_weights":[-1.10314645E-1,-4.3786645E-1,3.860113E0,4.51397E-1,-1.9715302E0,-6.654358E-3,2.6870996E-1,-6.456995E-1,2.5921936E0,-3.554662E0,7.1523887E-1,1.1925192E0,-2.883288E0,-1.0480414E-1,3.624612E0,-1.1492233E0,-4.820192E0,-5.615932E-1,1.7876536E-1,2.0469133E-2,1.1528062E-1,-2.4877651E-1,4.8092652E-2,-5.515976E-2,7.0949174E-2,2.6093444E-2,2.1619855E-1,1.0620995E-1,-1.2381931E-1,-2.883485E-1,-8.24941E-2,5.3801473E-2,-7.954712E-2],"categories":[],"categories_nodes":[],"categories_segments":[],"categories_sizes":[],"default_left":[0,0,0,0,0,0,0,0,0,0,0,0,0,0,0,0,0,0,0,0,0,0,0,0,0,0,0,0,0,0,0,0,0],"id":32,"left_children":[1,3,5,7,9,-1,-1,11,13,15,17,19,21,23,25,27,29,31,-1,-1,-1,-1,-1,-1,-1,-1,-1,-1,-1,-1,-1,-1,-1],"loss_changes":[1.8766467E2,1.8227948E2,6.7221756E1,2.0130992E2,2.1096437E2,0E0,0E0,2.3788947E2,8.112833E1,8.8829346E1,7.1392586E1,2.6950653E1,2.1395488E2,1.525744E1,4.331201E1,5.7392708E1,5.0516785E1,2.5311499E1,0E0,0E0,0E0,0E0,0E0,0E0,0E0,0E0,0E0,0E0,0E0,0E0,0E0,0E0,0E0],"parents":[2147483647,0,0,1,1,2,2,3,3,4,4,7,7,8,8,9,9,10,10,11,11,12,12,13,13,14,14,15,15,16,16,17,17],"right_children":[2,4,6,8,10,-1,-1,12,14,16,18,20,22,24,26,28,30,32,-1,-1,-1,-1,-1,-1,-1,-1,-1,-1,-1,-1,-1,-1,-1],"split_conditions":[5.3592E2,5.0085E2,4.776E6,4.915E2,5.2098E2,-6.654358E-3,2.6870996E-1,4.8275E2,4.8667E2,3.9113E6,6.3843E6,4.5959E6,4.9038E2,4.9984E2,4.88E2,5.029E2,5.1619E6,5.0283E2,1.7876536E-1,2.0469133E-2,1.1528062E-1,-2.4877651E-1,4.8092652E-2,-5.515976E-2,7.0949174E-2,2.6093444E-2,2.1619855E-1,1.0620995E-1,-1.2381931E-1,-2.883485E-1,-8.24941E-2,5.3801473E-2,-7.954712E-2],"split_indices":[92,14,67,49,14,0,0,37,2,11,88,11,52,87,30,14,39,37,0,0,0,0,0,0,0,0,0,0,0,0,0,0,0],"split_type":[0,0,0,0,0,0,0,0,0,0,0,0,0,0,0,0,0,0,0,0,0,0,0,0,0,0,0,0,0,0,0,0,0],"sum_hessian":[1.42E2,1.32E2,1E1,8.4E1,4.8E1,3E0,7E0,5.6E1,2.8E1,3E1,1.8E1,3.1E1,2.5E1,8E0,2E1,1.1E1,1.9E1,1.3E1,5E0,1.9E1,1.2E1,1.6E1,9E0,5E0,3E0,4E0,1.6E1,3E0,8E0,1.4E1,5E0,5E0,8E0],"tree_param":{"num_deleted":"0","num_feature":"98","num_nodes":"33","size_leaf_vector":"1"}},{"base_weights":[-1.4447258E-1,-4.3211943E-1,3.3204234E0,4.0372577E-1,-1.8561782E0,1.9675065E-2,2.1844159E-1,2.4953475E0,-8.0449647E-1,-2.7595391E0,1.9428833E0,6.358197E-1,3.636322E0,3.4915543E-1,-3.8272684E0,-2.981743E-1,-2.131447E0,-4.6038438E-2,1.6508506E-1,-6.1965942E-2,1.2100633E-1,8.879226E-2,2.4139778E-1,1.2967597E-1,-1.4649153E-2,-3.870636E-1,2.825718E-2,1.02227405E-1,-1.2934195E-1],"categories":[],"categories_nodes":[],"categories_segments":[],"categories_sizes":[],"default_left":[0,0,0,0,0,0,0,0,0,0,0,0,0,0,0,0,0,0,0,0,0,0,0,0,0,0,0,0,0],"id":33,"left_children":[1,3,5,7,9,-1,-1,11,13,15,17,19,21,23,25,-1,27,-1,-1,-1,-1,-1,-1,-1,-1,-1,-1,-1,-1],"loss_changes":[1.4296146E2,1.57868E2,3.2035545E1,2.1428757E2,1.7352573E2,0E0,0E0,6.345984E1,1.8964656E2,6.778406E1,4.195192E1,4.6495014E1,3.354944E1,5.840756E1,2.6225366E2,0E0,7.184889E1,0E0,0E0,0E0,0E0,0E0,0E0,0E0,0E0,0E0,0E0,0E0,0E0],"parents":[2147483647,0,0,1,1,2,2,3,3,4,4,7,7,8,8,9,9,10,10,11,11,12,12,13,13,14,14,16,16],"right_children":[2,4,6,8,10,-1,-1,12,14,16,18,20,22,24,26,-1,28,-1,-1,-1,-1,-1,-1,-1,-1,-1,-1,-1,-1],"split_conditions":[5.36E2,5.0085E2,5.3329E2,3.9376E6,5.36E2,1.9675065E-2,2.1844159E-1,4.8724E2,4.9075E2,4.9266E2,5.3329E2,4.5571E6,3.656E6,3.7913E6,4.9471E2,-2.981743E-1,5.0572E2,-4.6038438E-2,1.6508506E-1,-6.1965942E-2,1.2100633E-1,8.879226E-2,2.4139778E-1,1.2967597E-1,-1.4649153E-2,-3.870636E-1,2.825718E-2,1.02227405E-1,-1.2934195E-1],"split_indices":[71,14,64,67,29,0,0,0,14,56,22,46,25,46,36,0,15,0,0,0,0,0,0,0,0,0,0,0,0],"split_type":[0,0,0,0,0,0,0,0,0,0,0,0,0,0,0,0,0,0,0,0,0,0,0,0,0,0,0,0,0],"sum_hessian":[1.41E2,1.31E2,1E1,8.3E1,4.8E1,3E0,7E0,3E1,5.3E1,3.9E1,9E0,1.2E1,1.8E1,3.9E1,1.4E1,5E0,3.4E1,3E0,6E0,6E0,6E0,8E0,1E1,8E0,3.1E1,7E0,7E0,3E0,3.1E1],"tree_param":{"num_deleted":"0","num_feature":"98","num_nodes":"29","size_leaf_vector":"1"}},{"base_weights":[-3.2306567E-1,-5.949395E-1,3.2436004E0,3.0224496E-1,-2.0364795E0,4.7941286E-2,2.3034897E-1,2.3795462E0,-9.6635467E-1,-2.7822068E0,2.2263641E0,4.5802197E0,1.1135007E0,-3.5433578E-1,-4.3619218E-1,-1.0388184E0,-3.776851E0,2.4613952E-2,1.5841797E-1,7.376404E-2,2.7800807E-1,-7.337723E-2,1.00589946E-1,8.364211E-2,-5.9283573E-2,9.8393634E-2,-9.118358E-2,-2.971265E-1,-1.0766808E-1],"categories":[],"categories_nodes":[],"categories_segments":[],"categories_sizes":[],"default_left":[0,0,0,0,0,0,0,0,0,0,0,0,0,0,0,0,0,0,0,0,0,0,0,0,0,0,0,0,0],"id":34,"left_children":[1,3,5,7,9,-1,-1,11,13,15,17,19,21,-1,23,25,27,-1,-1,-1,-1,-1,-1,-1,-1,-1,-1,-1,-1],"loss_changes":[1.367157E2,1.6874808E2,2.673285E1,2.1575583E2,1.6514012E2,0E0,0E0,8.1270676E1,1.6239291E2,7.064072E1,1.1508282E1,2.5266464E1,5.1641914E1,0E0,7.7855965E1,4.3705544E1,8.213443E1,0E0,0E0,0E0,0E0,0E0,0E0,0E0,0E0,0E0,0E0,0E0,0E0],"parents":[2147483647,0,0,1,1,2,2,3,3,4,4,7,7,8,8,9,9,10,10,11,11,12,12,14,14,15,15,16,16],"right_children":[2,4,6,8,10,-1,-1,12,14,16,18,20,22,-1,24,26,28,-1,-1,-1,-1,-1,-1,-1,-1,-1,-1,-1,-1],"split_conditions":[5.36E2,5.0085E2,5.3592E2,3.9376E6,5.36E2,4.7941286E-2,2.3034897E-1,3.9113E6,4.0158E6,4.1162E6,5.3572E2,3.0822E6,3.9332E6,-3.5433578E-1,4.75E2,5.029E2,5.1575E2,2.4613952E-2,1.5841797E-1,7.376404E-2,2.7800807E-1,-7.337723E-2,1.00589946E-1,8.364211E-2,-5.9283573E-2,9.8393634E-2,-9.118358E-2,-2.971265E-1,-1.0766808E-1],"split_indices":[71,14,57,67,36,0,0,32,67,11,43,25,46,0,79,14,29,0,0,0,0,0,0,0,0,0,0,0,0],"split_type":[0,0,0,0,0,0,0,0,0,0,0,0,0,0,0,0,0,0,0,0,0,0,0,0,0,0,0,0,0],"sum_hessian":[1.38E2,1.29E2,9E0,8E1,4.9E1,4E0,5E0,3E1,5E1,4.2E1,7E0,1E1,2E1,3E0,4.7E1,1.6E1,2.6E1,3E0,4E0,3E0,7E0,5E0,1.5E1,1.2E1,3.5E1,3E0,1.3E1,1E1,1.6E1],"tree_param":{"num_deleted":"0","num_feature":"98","num_nodes":"29","size_leaf_vector":"1"}}]},"name":"gbtree"},"learner_model_param":{"base_score":"[4.91743E2]","boost_from_average":"1","num_class":"0","num_feature":"98","num_target":"1"},"objective":{"name":"reg:squarederror","reg_loss_param":{"scale_pos_weight":"1"}}},"version":[3,2,0]}