{"learner":{"attributes":{"best_iteration":"0","best_score":"8.259782506101168"},"feature_names":[],"feature_types":[],"gradient_booster":{"model":{"cats":{"enc":[],"feature_segments":[],"sorted_idx":[]},"gbtree_model_param":{"num_parallel_tree":"1","num_trees":"31"},"iteration_indptr":[0,1,2,3,4,5,6,7,8,9,10,11,12,13,14,15,16,17,18,19,20,21,22,23,24,25,26,27,28,29,30,31],"tree_info":[0,0,0,0,0,0,0,0,0,0,0,0,0,0,0,0,0,0,0,0,0,0,0,0,0,0,0,0,0,0,0],"trees":[{"base_weights":[2.5358845E-2,-4.8488955E0,1.8871632E1,7.110368E0,-6.2971797E0,1.2451497E1,2.8828999E1,5.862671E-1,1.4796274E0,1.5958989E0,-9.226154E0,-1.04579166E-1,1.5140957E1,5.301712E-1,1.7169081E0,1.5929604E-1,-2.9828643E-2,-1.670878E0,6.363073E0,-1.6326454E1,-3.3974028E0,9.153552E-1,4.6453267E-1,-1.6059494E-1,1.1351014E-2,3.550176E-1,1.5567131E-1,1.0417099E-1,-9.0876305E-1,4.1311583E-1,-2.402563E-1],"categories":[],"categories_nodes":[],"categories_segments":[],"categories_sizes":[],"default_left":[0,0,0,0,0,0,0,0,0,0,0,0,0,0,0,0,0,0,0,0,0,0,0,0,0,0,0,0,0,0,0],"id":0,"left_children":[1,3,5,7,9,11,13,-1,15,17,19,-1,21,-1,-1,-1,-1,23,25,27,29,-1,-1,-1,-1,-1,-1,-1,-1,-1,-1],"loss_changes":[1.3411428E4,2.053943E3,1.5588662E3,3.2046527E2,2.4190615E3,8.1392944E2,7.403828E2,0E0,2.6698881E1,4.6225748E2,3.0898604E3,0E0,1.4480493E2,0E0,0E0,0E0,0E0,5.337378E1,6.644348E0,1.1951016E3,7.454887E2,0E0,0E0,0E0,0E0,0E0,0E0,0E0,0E0,0E0,0E0],"parents":[2147483647,0,0,1,1,2,2,3,3,4,4,5,5,6,6,8,8,9,9,10,10,12,12,17,17,18,18,19,19,20,20],"right_children":[2,4,6,8,10,12,14,-1,16,18,20,-1,22,-1,-1,-1,-1,24,26,28,30,-1,-1,-1,-1,-1,-1,-1,-1,-1,-1],"split_conditions":[5.16E2,3.2448E6,5.36E2,4.945E2,4.8608E2,3.1835E6,5.3329E2,5.862671E-1,4.9875E2,4.75E2,4.9129E2,-1.04579166E-1,5.3227E2,5.301712E-1,1.7169081E0,1.5929604E-1,-2.9828643E-2,4.5041E6,4.7966E2,3.4415E6,4.945E2,9.153552E-1,4.6453267E-1,-1.6059494E-1,1.1351014E-2,3.550176E-1,1.5567131E-1,1.0417099E-1,-9.0876305E-1,4.1311583E-1,-2.402563E-1],"split_indices":[85,60,78,85,1,25,71,0,17,30,73,0,71,0,0,0,0,39,9,39,71,0,0,0,0,0,0,0,0,0,0],"split_type":[0,0,0,0,0,0,0,0,0,0,0,0,0,0,0,0,0,0,0,0,0,0,0,0,0,0,0,0,0,0,0],"sum_hessian":[1.44E2,1.15E2,2.9E1,1.2E1,1.03E2,1.9E1,1E1,6E0,6E0,2.8E1,7.5E1,3E0,1.6E1,3E0,7E0,3E0,3E0,1.7E1,1.1E1,3.3E1,4.2E1,9E0,7E0,9E0,8E0,8E0,3E0,3E0,3E1,4E0,3.8E1],"tree_param":{"num_deleted":"0","num_feature":"98","num_nodes":"31","size_leaf_vector":"1"}},{"base_weights":[1.5240479E-1,-3.6956155E0,2.0667923E1,-4.3442807E0,7.452206E-1,3.230606E-1,2.267675E1,3.815791E0,-5.8935957E0,6.944601E-1,2.8317871E1,5.718194E-1,-9.475403E-1,8.9323145E-1,-8.580729E0,7.2766036E-1,1.6068991E0,1.0473328E-1,-2.812781E-1,-1.23410664E-1,3.0034944E-1,-8.8347787E-1,-1.973309E-1],"categories":[],"categories_nodes":[],"categories_segments":[],"categories_sizes":[],"default_left":[0,0,0,0,0,0,0,0,0,0,0,0,0,0,0,0,0,0,0,0,0,0,0],"id":1,"left_children":[1,3,5,7,-1,-1,9,11,13,-1,15,-1,17,19,21,-1,-1,-1,-1,-1,-1,-1,-1],"loss_changes":[1.0497006E4,1.4160499E3,4.5279785E2,1.4005237E3,0E0,0E0,4.9897656E2,6.642262E2,1.685478E3,0E0,5.8115723E1,0E0,1.8256174E2,4.7894604E2,2.7100952E3,0E0,0E0,0E0,0E0,0E0,0E0,0E0,0E0],"parents":[2147483647,0,0,1,1,2,2,3,3,6,6,7,7,8,8,10,10,12,12,13,13,14,14],"right_children":[2,4,6,8,-1,-1,10,12,14,-1,16,-1,18,20,22,-1,-1,-1,-1,-1,-1,-1,-1],"split_conditions":[5.2141E2,9.4701E6,3.1835E6,3.4433E6,7.452206E-1,3.230606E-1,5.2066E2,3.7969E6,4.841E2,6.944601E-1,5.3329E2,5.718194E-1,4.9984E2,4.8E2,4.917E2,7.2766036E-1,1.6068991E0,1.0473328E-1,-2.812781E-1,-1.23410664E-1,3.0034944E-1,-8.8347787E-1,-1.973309E-1],"split_indices":[71,81,53,53,0,0,51,18,0,0,71,0,66,29,85,0,0,0,0,0,0,0,0],"split_type":[0,0,0,0,0,0,0,0,0,0,0,0,0,0,0,0,0,0,0,0,0,0,0],"sum_hessian":[1.31E2,1.11E2,2E1,1.08E2,3E0,3E0,1.7E1,1.7E1,9.1E1,8E0,9E0,6E0,1.1E1,2.6E1,6.5E1,3E0,6E0,7E0,4E0,1.6E1,1E1,2.1E1,4.4E1],"tree_param":{"num_deleted":"0","num_feature":"98","num_nodes":"23","size_leaf_vector":"1"}},{"base_weights":[-1.5354173E-1,-4.479736E0,1.6847704E1,5.466529E0,-5.8690963E0,-9.3257524E-2,1.9167852E1,5.1500314E-1,5.5387115E-1,9.8296815E-1,-8.805756E0,4.9463484E-1,2.2225264E1,1.5137818E-1,-1.338356E-1,-1.3046163E0,5.6885986E0,-1.672188E1,-4.1078267E0,2.49284E1,5.105716E-1,7.467324E-2,-1.2617067E-1,3.418152E-1,1.5868165E-1,4.4615936E-2,-9.5821875E-1,3.003894E-1,-2.6347917E-1,1.4968148E0,6.6309106E-1],"categories":[],"categories_nodes":[],"categories_segments":[],"categories_sizes":[],"default_left":[0,0,0,0,0,0,0,0,0,0,0,0,0,0,0,0,0,0,0,0,0,0,0,0,0,0,0,0,0,0,0],"id":2,"left_children":[1,3,5,7,9,-1,11,-1,13,15,17,-1,19,-1,-1,21,23,25,27,29,-1,-1,-1,-1,-1,-1,-1,-1,-1,-1,-1],"loss_changes":[1.0151919E4,1.552168E3,1.251415E3,3.2673203E2,1.9605071E3,0E0,4.8908203E2,0E0,7.203567E1,3.3035724E2,2.460188E3,0E0,3.299961E2,0E0,0E0,7.5384766E1,7.1684875E0,1.0926665E3,5.487411E2,4.2094043E2,0E0,0E0,0E0,0E0,0E0,0E0,0E0,0E0,0E0,0E0,0E0],"parents":[2147483647,0,0,1,1,2,2,3,3,4,4,6,6,8,8,9,9,10,10,12,12,15,15,16,16,17,17,18,18,19,19],"right_children":[2,4,6,8,10,-1,12,-1,14,16,18,-1,20,-1,-1,22,24,26,28,30,-1,-1,-1,-1,-1,-1,-1,-1,-1,-1,-1],"split_conditions":[5.16E2,3.2448E6,3.1835E6,4.945E2,4.8655E2,-9.3257524E-2,5.2141E2,5.1500314E-1,4.906E2,4.7977E2,4.8964E2,4.9463484E-1,5.8893E6,1.5137818E-1,-1.338356E-1,4.7466E2,4.3859E6,3.8158E6,4.8556E2,5.2681E2,5.105716E-1,7.467324E-2,-1.2617067E-1,3.418152E-1,1.5868165E-1,4.4615936E-2,-9.5821875E-1,3.003894E-1,-2.6347917E-1,1.4968148E0,6.6309106E-1],"split_indices":[85,60,25,85,1,0,38,0,93,28,70,0,11,0,0,79,11,18,93,0,0,0,0,0,0,0,0,0,0,0,0],"split_type":[0,0,0,0,0,0,0,0,0,0,0,0,0,0,0,0,0,0,0,0,0,0,0,0,0,0,0,0,0,0,0],"sum_hessian":[1.36E2,1.09E2,2.7E1,1.3E1,9.6E1,3E0,2.4E1,6E0,7E0,2.9E1,6.7E1,7E0,1.7E1,4E0,3E0,2E1,9E0,2.4E1,4.3E1,1.3E1,4E0,6E0,1.4E1,5E0,4E0,3E0,2.1E1,4E0,3.9E1,8E0,5E0],"tree_param":{"num_deleted":"0","num_feature":"98","num_nodes":"31","size_leaf_vector":"1"}},{"base_weights":[2.585893E-1,-4.042661E0,1.5651499E1,5.22828E0,-5.7749405E0,-7.798729E-2,1.7551266E1,7.695164E0,-2.6648027E-1,6.714445E-1,-8.382759E0,1.3054617E1,2.4339773E1,9.794302E0,1.4570364E-1,-1.8174679E0,5.333234E0,-1.6881508E1,-3.2466779E0,8.1853735E-1,4.2165133E-1,4.631779E-1,1.4738822E0,5.9415674E-1,1.8451348E-1,-1.4693357E-1,2.6220268E-2,3.103008E-1,1.2362786E-1,-5.443341E-1,-9.786591E-1,5.3622108E-2,-2.5770223E-1],"categories":[],"categories_nodes":[],"categories_segments":[],"categories_sizes":[],"default_left":[0,0,0,0,0,0,0,0,0,0,0,0,0,0,0,0,0,0,0,0,0,0,0,0,0,0,0,0,0,0,0,0,0],"id":3,"left_children":[1,3,5,7,9,-1,11,13,-1,15,17,19,21,23,-1,25,27,29,31,-1,-1,-1,-1,-1,-1,-1,-1,-1,-1,-1,-1,-1,-1],"loss_changes":[9.398708E3,1.8128378E3,1.0409946E3,5.0982364E2,1.5858635E3,0E0,5.3696875E2,1.2200134E2,0E0,3.3457098E2,2.8697593E3,1.531355E2,5.015288E2,8.3651245E1,0E0,5.1429672E1,9.622772E0,1.9031592E2,3.5976773E2,0E0,0E0,0E0,0E0,0E0,0E0,0E0,0E0,0E0,0E0,0E0,0E0,0E0,0E0],"parents":[2147483647,0,0,1,1,2,2,3,3,4,4,6,6,7,7,9,9,10,10,11,11,12,12,13,13,15,15,16,16,17,17,18,18],"right_children":[2,4,6,8,10,-1,12,14,-1,16,18,20,22,24,-1,26,28,30,32,-1,-1,-1,-1,-1,-1,-1,-1,-1,-1,-1,-1,-1,-1],"split_conditions":[5.16E2,3.4415E6,3.1835E6,4.9984E2,4.8655E2,-7.798729E-2,5.36E2,4.945E2,-2.6648027E-1,4.8E2,4.9192E2,5.3227E2,5.3329E2,4.6931E6,1.4570364E-1,4.7835E2,4.9998E2,4.1306E6,3.656E6,8.1853735E-1,4.2165133E-1,4.631779E-1,1.4738822E0,5.9415674E-1,1.8451348E-1,-1.4693357E-1,2.6220268E-2,3.103008E-1,1.2362786E-1,-5.443341E-1,-9.786591E-1,5.3622108E-2,-2.5770223E-1],"split_indices":[78,60,18,73,1,0,78,85,0,29,85,71,71,18,0,29,84,18,46,0,0,0,0,0,0,0,0,0,0,0,0,0,0],"split_type":[0,0,0,0,0,0,0,0,0,0,0,0,0,0,0,0,0,0,0,0,0,0,0,0,0,0,0,0,0,0,0,0,0],"sum_hessian":[1.4E2,1.1E2,3E1,1.7E1,9.3E1,3E0,2.7E1,1.4E1,3E0,2.7E1,6.6E1,1.8E1,9E0,9E0,5E0,1.8E1,9E0,2.4E1,4.2E1,9E0,9E0,3E0,6E0,6E0,3E0,1.2E1,6E0,6E0,3E0,9E0,1.5E1,1.3E1,2.9E1],"tree_param":{"num_deleted":"0","num_feature":"98","num_nodes":"33","size_leaf_vector":"1"}},{"base_weights":[9.6339546E-2,-3.9813032E0,1.640359E1,5.51913E0,-5.3393936E0,-8.623467E-2,1.8561647E1,4.9222127E-1,5.039444E-1,1.1607121E0,-7.6949077E0,1.0544891E1,2.2185526E1,-1.2534523E-1,1.4059174E-1,-1.2052677E0,5.5400023E0,-1.6359556E1,-3.2966506E0,2.6744196E-1,6.0038257E-1,1.46510315E1,1.4415226E0,-1.3406585E-1,1.9565431E-2,3.178384E-1,1.3628311E-1,-5.0011677E-1,-9.6551734E-1,1.258276E-1,-2.3879421E-1,3.7572822E-1,8.318004E-1],"categories":[],"categories_nodes":[],"categories_segments":[],"categories_sizes":[],"default_left":[0,0,0,0,0,0,0,0,0,0,0,0,0,0,0,0,0,0,0,0,0,0,0,0,0,0,0,0,0,0,0,0,0],"id":4,"left_children":[1,3,5,7,9,-1,11,-1,13,15,17,19,21,-1,-1,23,25,27,29,-1,-1,31,-1,-1,-1,-1,-1,-1,-1,-1,-1,-1,-1],"loss_changes":[9.640606E3,1.5261528E3,1.1665488E3,3.204213E2,1.5706628E3,0E0,5.2140137E2,0E0,6.2638668E1,2.967939E2,2.804269E3,1.1778687E1,4.2872852E2,0E0,0E0,4.582511E1,5.660187E0,2.7582227E2,4.5057196E2,0E0,0E0,1.6644775E1,0E0,0E0,0E0,0E0,0E0,0E0,0E0,0E0,0E0,0E0,0E0],"parents":[2147483647,0,0,1,1,2,2,3,3,4,4,6,6,8,8,9,9,10,10,11,11,12,12,15,15,16,16,17,17,18,18,21,21],"right_children":[2,4,6,8,10,-1,12,-1,14,16,18,20,22,-1,-1,24,26,28,30,-1,-1,32,-1,-1,-1,-1,-1,-1,-1,-1,-1,-1,-1],"split_conditions":[5.16E2,3.2448E6,3.1835E6,4.945E2,4.8655E2,-8.623467E-2,5.13E2,4.9222127E-1,3.7121E6,4.7977E2,4.917E2,4.3856E6,5.3329E2,-1.2534523E-1,1.4059174E-1,4.5041E6,4.5304E6,4.1306E6,3.4415E6,2.6744196E-1,6.0038257E-1,5.2875E6,1.4415226E0,-1.3406585E-1,1.9565431E-2,3.178384E-1,1.3628311E-1,-5.0011677E-1,-9.6551734E-1,1.258276E-1,-2.3879421E-1,3.7572822E-1,8.318004E-1],"split_indices":[85,60,25,85,1,0,37,0,74,28,78,81,71,0,0,39,11,18,74,0,0,67,0,0,0,0,0,0,0,0,0,0,0],"split_type":[0,0,0,0,0,0,0,0,0,0,0,0,0,0,0,0,0,0,0,0,0,0,0,0,0,0,0,0,0,0,0,0,0],"sum_hessian":[1.43E2,1.15E2,2.8E1,1.4E1,1.01E2,3E0,2.5E1,7E0,7E0,2.7E1,7.4E1,9E0,1.6E1,3E0,4E0,1.8E1,9E0,2.4E1,5E1,3E0,6E0,9E0,7E0,9E0,9E0,6E0,3E0,9E0,1.5E1,1E1,4E1,3E0,6E0],"tree_param":{"num_deleted":"0","num_feature":"98","num_nodes":"33","size_leaf_vector":"1"}},{"base_weights":[2.0674443E-1,-4.190777E0,1.5520473E1,-1.9252933E0,-9.064909E0,1.0774706E1,2.3169619E1,5.6441245E0,-3.3144765E0,-1.5050215E1,-3.5475512E0,5.1216083E0,1.2694505E1,4.289112E-1,1.3784558E0,8.805607E0,-2.7153626E-2,5.6177235E0,-4.6908216E0,1.1115265E-2,-9.295872E-1,-5.3306236E0,2.2358131E-1,3.6861E-1,7.9530716E-2,8.067867E-1,3.2282826E-1,5.202264E-1,2.3027764E-1,1.13557436E-1,3.9203766E-1,1.8243989E-2,-3.75484E-1,7.9639055E-2,-3.5254273E-1],"categories":[],"categories_nodes":[],"categories_segments":[],"categories_sizes":[],"default_left":[0,0,0,0,0,0,0,0,0,0,0,0,0,0,0,0,0,0,0,0,0,0,0,0,0,0,0,0,0,0,0,0,0,0,0],"id":5,"left_children":[1,3,5,7,9,11,13,15,17,19,21,23,25,-1,-1,27,-1,29,31,-1,-1,33,-1,-1,-1,-1,-1,-1,-1,-1,-1,-1,-1,-1,-1],"loss_changes":[9.358301E3,1.1751122E3,8.75687E2,8.0735535E2,1.0693931E3,1.6289282E2,4.6964844E2,2.3951062E2,8.131543E2,8.69542E2,2.9551328E2,4.390146E1,2.1781128E2,0E0,0E0,5.805908E0,0E0,4.9148315E1,8.0081323E2,0E0,0E0,2.0178812E2,0E0,0E0,0E0,0E0,0E0,0E0,0E0,0E0,0E0,0E0,0E0,0E0,0E0],"parents":[2147483647,0,0,1,1,2,2,3,3,4,4,5,5,6,6,7,7,8,8,9,9,10,10,11,11,12,12,15,15,17,17,18,18,21,21],"right_children":[2,4,6,8,10,12,14,16,18,20,22,24,26,-1,-1,28,-1,30,32,-1,-1,34,-1,-1,-1,-1,-1,-1,-1,-1,-1,-1,-1,-1,-1],"split_conditions":[5.16E2,4.7685E6,5.36E2,3.2448E6,4.9192E2,4.5215E6,5.3329E2,4.9955E2,3.4415E6,4.8267E2,6.3843E6,5.1645E2,5.31E2,4.289112E-1,1.3784558E0,4.2606E6,-2.7153626E-2,4.4166E6,4.8655E2,1.1115265E-2,-9.295872E-1,3.2062E6,2.2358131E-1,3.6861E-1,7.9530716E-2,8.067867E-1,3.2282826E-1,5.202264E-1,2.3027764E-1,1.13557436E-1,3.9203766E-1,1.8243989E-2,-3.75484E-1,7.9639055E-2,-3.5254273E-1],"split_indices":[78,25,78,46,85,88,71,0,60,0,74,10,70,0,0,11,0,88,1,0,0,95,0,0,0,0,0,0,0,0,0,0,0,0,0],"split_type":[0,0,0,0,0,0,0,0,0,0,0,0,0,0,0,0,0,0,0,0,0,0,0,0,0,0,0,0,0,0,0,0,0,0,0],"sum_hessian":[1.37E2,1.07E2,3E1,7.4E1,3.3E1,2E1,1E1,1.1E1,6.3E1,1.5E1,1.8E1,6E0,1.4E1,3E0,7E0,7E0,4E0,8E0,5.5E1,3E0,1.2E1,1.5E1,3E0,3E0,3E0,8E0,6E0,4E0,3E0,4E0,4E0,2E1,3.5E1,3E0,1.2E1],"tree_param":{"num_deleted":"0","num_feature":"98","num_nodes":"35","size_leaf_vector":"1"}},{"base_weights":[-2.6027074E-1,-3.6975794E0,1.5934569E1,-7.849049E0,-7.3016673E-1,1.1323893E1,1.1180409E0,1.2036612E0,-1.459934E1,2.700354E0,-3.4192576E0,7.081565E-1,3.357132E-1,-1.2656947E0,2.6872882E-1,-1.5695472E1,-2.1863595E-1,4.8019223E0,-4.3839356E-1,3.6185565E0,-4.8519278E0,-1.0908188E-1,4.0966492E-2,-8.443231E-1,-2.7594528E-1,3.3317712E-1,-1.2570344E-1,9.518738E-2,2.214363E-1,-3.363012E-1,-3.313252E-2],"categories":[],"categories_nodes":[],"categories_segments":[],"categories_sizes":[],"default_left":[0,0,0,0,0,0,0,0,0,0,0,0,0,0,0,0,0,0,0,0,0,0,0,0,0,0,0,0,0,0,0],"id":6,"left_children":[1,3,5,7,9,11,-1,13,15,17,19,-1,-1,21,-1,23,-1,25,-1,27,29,-1,-1,-1,-1,-1,-1,-1,-1,-1,-1],"loss_changes":[7.6295854E3,1.3863298E3,4.5789355E2,2.8896687E3,6.27307E2,1.143103E2,0E0,2.2309155E2,2.3403076E2,7.651404E2,4.0070584E2,0E0,0E0,2.8524166E1,0E0,1.9769043E2,0E0,3.7086212E2,0E0,1.2938232E0,2.4677856E2,0E0,0E0,0E0,0E0,0E0,0E0,0E0,0E0,0E0,0E0],"parents":[2147483647,0,0,1,1,2,2,3,3,4,4,5,5,7,7,8,8,9,9,10,10,13,13,15,15,17,17,19,19,20,20],"right_children":[2,4,6,8,10,12,-1,14,16,18,20,-1,-1,22,-1,24,-1,26,-1,28,30,-1,-1,-1,-1,-1,-1,-1,-1,-1,-1],"split_conditions":[5.2141E2,4.9192E2,5.36E2,4.859E2,4.9311E2,5.2681E2,1.1180409E0,4.755E2,4.9471E2,5.2516E6,4.8943E2,7.081565E-1,3.357132E-1,4.7866E6,2.6872882E-1,6.7807E6,-2.1863595E-1,4.7685E6,-4.3839356E-1,5.035E2,5.0839E2,-1.0908188E-1,4.0966492E-2,-8.443231E-1,-2.7594528E-1,3.3317712E-1,-1.2570344E-1,9.518738E-2,2.214363E-1,-3.363012E-1,-3.313252E-2],"split_indices":[85,71,78,1,79,70,0,28,85,39,0,0,0,95,0,46,0,60,0,78,91,0,0,0,0,0,0,0,0,0,0],"split_type":[0,0,0,0,0,0,0,0,0,0,0,0,0,0,0,0,0,0,0,0,0,0,0,0,0,0,0,0,0,0,0],"sum_hessian":[1.35E2,1.12E2,2.3E1,4.6E1,6.6E1,1.5E1,8E0,2E1,2.6E1,2.9E1,3.7E1,8E0,7E0,1.3E1,7E0,2.3E1,3E0,2.5E1,4E0,6E0,3.1E1,9E0,4E0,2E1,3E0,2E1,5E0,3E0,3E0,2.1E1,1E1],"tree_param":{"num_deleted":"0","num_feature":"98","num_nodes":"31","size_leaf_vector":"1"}},{"base_weights":[8.179875E-2,-3.5957665E0,1.3563478E1,5.2776837E0,-4.9447875E0,8.577467E0,2.139591E1,1.0106171E1,-2.1051407E-1,3.9436672E0,-6.141454E0,-8.680954E-2,1.0499654E1,1.2523321E0,6.0028535E-1,5.913431E-1,2.714382E-1,-1.8162881E-1,1.2846191E-1,5.981927E0,-8.1416704E-2,6.470151E-1,-8.522301E0,2.9001248E-1,6.267835E-1,3.9252445E-1,8.418007E-2,-1.1549777E-1,2.0413986E-1,-7.2337246E-1,-2.1151482E-1],"categories":[],"categories_nodes":[],"categories_segments":[],"categories_sizes":[],"default_left":[0,0,0,0,0,0,0,0,0,0,0,0,0,0,0,0,0,0,0,0,0,0,0,0,0,0,0,0,0,0,0],"id":7,"left_children":[1,3,5,7,9,11,13,15,17,19,21,-1,23,-1,-1,-1,-1,-1,-1,25,-1,27,29,-1,-1,-1,-1,-1,-1,-1,-1],"loss_changes":[6.940358E3,1.3428485E3,9.880552E2,3.9962286E2,1.0453254E3,4.1472473E2,7.638965E1,1.817627E-1,8.543282E1,1.460268E2,1.37931E3,0E0,8.994714E1,0E0,0E0,0E0,0E0,0E0,0E0,5.9068115E1,0E0,2.4309969E2,1.5463447E3,0E0,0E0,0E0,0E0,0E0,0E0,0E0,0E0],"parents":[2147483647,0,0,1,1,2,2,3,3,4,4,5,5,6,6,7,7,8,8,9,9,10,10,12,12,19,19,21,21,22,22],"right_children":[2,4,6,8,10,12,14,16,18,20,22,-1,24,-1,-1,-1,-1,-1,-1,26,-1,28,30,-1,-1,-1,-1,-1,-1,-1,-1],"split_conditions":[5.16E2,3.2448E6,5.36E2,4.961E2,3.2448E6,3.1835E6,5.275E2,4.9221E2,3.7121E6,4.9716E2,4.8655E2,-8.680954E-2,4.7264E6,1.2523321E0,6.0028535E-1,5.913431E-1,2.714382E-1,-1.8162881E-1,1.2846191E-1,4.9473E2,-8.1416704E-2,4.7358E2,4.9298E2,2.9001248E-1,6.267835E-1,3.9252445E-1,8.418007E-2,-1.1549777E-1,2.0413986E-1,-7.2337246E-1,-2.1151482E-1],"split_indices":[85,53,78,85,67,25,28,73,67,92,1,0,81,0,0,0,0,0,0,9,0,30,78,0,0,0,0,0,0,0,0],"split_type":[0,0,0,0,0,0,0,0,0,0,0,0,0,0,0,0,0,0,0,0,0,0,0,0,0,0,0,0,0,0,0],"sum_hessian":[1.38E2,1.09E2,2.9E1,1.4E1,9.5E1,1.9E1,1E1,7E0,7E0,1.1E1,8.4E1,3E0,1.6E1,6E0,4E0,4E0,3E0,3E0,4E0,8E0,3E0,2.2E1,6.2E1,6E0,1E1,5E0,3E0,1.2E1,1E1,2.5E1,3.7E1],"tree_param":{"num_deleted":"0","num_feature":"98","num_nodes":"31","size_leaf_vector":"1"}},{"base_weights":[3.3954352E-1,-2.652056E0,1.3788682E1,5.9917426E0,-3.7901437E0,9.572963E0,2.0688046E1,5.2040863E-1,1.3783989E0,1.2336088E0,-5.5677404E0,2.4275258E-1,1.1014078E1,1.1906629E0,5.4141086E-1,1.5937103E-1,-6.13739E-2,-8.378601E-1,4.511139E0,-1.32862835E1,-1.601397E0,6.511312E-1,2.59794E-1,-1.0811784E-1,2.1898651E-2,2.722374E-1,7.580681E-2,-7.1623224E-1,-1.9970666E-1,7.218574E-2,-2.4739332E-1],"categories":[],"categories_nodes":[],"categories_segments":[],"categories_sizes":[],"default_left":[0,0,0,0,0,0,0,0,0,0,0,0,0,0,0,0,0,0,0,0,0,0,0,0,0,0,0,0,0,0,0],"id":8,"left_children":[1,3,5,7,9,11,13,-1,15,17,19,-1,21,-1,-1,-1,-1,23,25,27,29,-1,-1,-1,-1,-1,-1,-1,-1,-1,-1],"loss_changes":[5.7498584E3,1.1736855E3,5.581841E2,2.7089658E2,9.356096E2,6.890918E1,1.9471436E1,0E0,4.1625195E1,1.9388016E2,2.3360317E3,0E0,8.425537E1,0E0,0E0,0E0,0E0,3.1364117E1,2.2502808E1,1.9364941E2,5.370426E2,0E0,0E0,0E0,0E0,0E0,0E0,0E0,0E0,0E0,0E0],"parents":[2147483647,0,0,1,1,2,2,3,3,4,4,5,5,6,6,8,8,9,9,10,10,12,12,17,17,18,18,19,19,20,20],"right_children":[2,4,6,8,10,12,14,-1,16,18,20,-1,22,-1,-1,-1,-1,24,26,28,30,-1,-1,-1,-1,-1,-1,-1,-1,-1,-1],"split_conditions":[5.21E2,3.2448E6,5.36E2,4.9264E2,4.8655E2,4.914E6,5.1549E6,5.2040863E-1,5.0016E2,4.8E2,4.9298E2,2.4275258E-1,5.275E2,1.1906629E0,5.4141086E-1,1.5937103E-1,-6.13739E-2,4.5041E6,4.8556E2,4.9471E2,4.9861E2,6.511312E-1,2.59794E-1,-1.0811784E-1,2.1898651E-2,2.722374E-1,7.580681E-2,-7.1623224E-1,-1.9970666E-1,7.218574E-2,-2.4739332E-1],"split_indices":[78,46,78,87,1,11,67,0,0,29,57,0,77,0,0,0,0,39,51,71,9,0,0,0,0,0,0,0,0,0,0],"split_type":[0,0,0,0,0,0,0,0,0,0,0,0,0,0,0,0,0,0,0,0,0,0,0,0,0,0,0,0,0,0,0],"sum_hessian":[1.41E2,1.16E2,2.5E1,1.3E1,1.03E2,1.7E1,8E0,6E0,7E0,2.7E1,7.6E1,5E0,1.2E1,5E0,3E0,4E0,3E0,1.7E1,1E1,2.5E1,5.1E1,8E0,4E0,8E0,9E0,7E0,3E0,2.2E1,3E0,2.7E1,2.4E1],"tree_param":{"num_deleted":"0","num_feature":"98","num_nodes":"31","size_leaf_vector":"1"}},{"base_weights":[3.3840623E-1,-2.970254E0,1.2970129E1,4.811991E0,-4.1935167E0,8.284029E0,1.8527925E1,4.279177E-1,4.641304E-1,8.426797E-1,-6.2665467E0,2.2964096E-2,9.927955E0,1.0916808E0,3.2290727E-1,1.2207276E-1,-1.061779E-1,-1.2627548E0,2.3793685E-1,-1.3088054E1,-3.6327982E0,2.1105714E-1,5.8942825E-1,-1.3195094E-1,2.7982583E-2,-2.8247413E-1,-7.099568E-1,1.2850672E-1,-2.7480096E-1],"categories":[],"categories_nodes":[],"categories_segments":[],"categories_sizes":[],"default_left":[0,0,0,0,0,0,0,0,0,0,0,0,0,0,0,0,0,0,0,0,0,0,0,0,0,0,0,0,0],"id":9,"left_children":[1,3,5,7,9,11,13,-1,15,17,19,-1,21,-1,-1,-1,-1,23,-1,25,27,-1,-1,-1,-1,-1,-1,-1,-1],"loss_changes":[5.6389307E3,1.0387902E3,5.757573E2,2.4035773E2,9.76218E2,2.1411646E2,3.377827E2,0E0,4.6118176E1,2.3686917E2,1.1382185E3,0E0,9.8892944E1,0E0,0E0,0E0,0E0,4.9131073E1,0E0,6.8549805E1,5.8043976E2,0E0,0E0,0E0,0E0,0E0,0E0,0E0,0E0],"parents":[2147483647,0,0,1,1,2,2,3,3,4,4,5,5,6,6,8,8,9,9,10,10,12,12,17,17,19,19,20,20],"right_children":[2,4,6,8,10,12,14,-1,16,18,20,-1,22,-1,-1,-1,-1,24,-1,26,28,-1,-1,-1,-1,-1,-1,-1,-1],"split_conditions":[5.16E2,3.2448E6,5.3329E2,4.945E2,4.8655E2,3.1835E6,5.2681E2,4.279177E-1,4.9674E2,4.8E2,4.917E2,2.2964096E-2,4.7264E6,1.0916808E0,3.2290727E-1,1.2207276E-1,-1.061779E-1,4.5041E6,2.3793685E-1,3.9483E6,3.6139E6,2.1105714E-1,5.8942825E-1,-1.3195094E-1,2.7982583E-2,-2.8247413E-1,-7.099568E-1,1.2850672E-1,-2.7480096E-1],"split_indices":[71,60,78,85,1,32,0,0,94,29,57,0,81,0,0,0,0,39,0,32,53,0,0,0,0,0,0,0,0],"split_type":[0,0,0,0,0,0,0,0,0,0,0,0,0,0,0,0,0,0,0,0,0,0,0,0,0,0,0,0,0],"sum_hessian":[1.33E2,1.06E2,2.7E1,1.4E1,9.2E1,1.6E1,1.1E1,7E0,7E0,2.7E1,6.5E1,3E0,1.3E1,8E0,3E0,4E0,3E0,1.8E1,9E0,1.7E1,4.8E1,4E0,9E0,1E1,8E0,3E0,1.4E1,1.1E1,3.7E1],"tree_param":{"num_deleted":"0","num_feature":"98","num_nodes":"29","size_leaf_vector":"1"}},{"base_weights":[3.0670097E-1,-2.7668295E0,1.1931256E1,4.492202E0,-3.7413037E0,8.120847E0,1.797791E1,8.87748E0,-1.051768E-1,1.3779602E0,-5.7189336E0,1.0389958E1,3.7020721E0,3.1264192E-1,1.1054839E0,5.491916E-1,2.0125847E-1,-8.241215E-1,4.1992393E0,-1.2195E1,-2.1379442E0,5.8431226E-1,2.4379121E-1,3.7376788E-2,2.6626435E-1,-1.037223E-1,3.427544E-2,2.4579468E-1,7.6847844E-2,-8.0532897E-1,-4.1252723E-1,1.1183434E-1,-2.199908E-1],"categories":[],"categories_nodes":[],"categories_segments":[],"categories_sizes":[],"default_left":[0,0,0,0,0,0,0,0,0,0,0,0,0,0,0,0,0,0,0,0,0,0,0,0,0,0,0,0,0,0,0,0,0],"id":10,"left_children":[1,3,5,7,9,11,13,15,-1,17,19,21,23,-1,-1,-1,-1,25,27,29,31,-1,-1,-1,-1,-1,-1,-1,-1,-1,-1,-1,-1],"loss_changes":[4.7848926E3,7.666229E2,4.991306E2,3.94688E2,9.5953735E2,1.5204285E2,3.462046E2,3.755359E1,0E0,1.7120323E2,1.550897E3,2.8794678E1,3.4385933E1,0E0,0E0,0E0,0E0,3.1622492E1,1.5339737E1,2.3740918E2,4.551094E2,0E0,0E0,0E0,0E0,0E0,0E0,0E0,0E0,0E0,0E0,0E0,0E0],"parents":[2147483647,0,0,1,1,2,2,3,3,4,4,5,5,6,6,7,7,9,9,10,10,11,11,12,12,17,17,18,18,19,19,20,20],"right_children":[2,4,6,8,10,12,14,16,-1,18,20,22,24,-1,-1,-1,-1,26,28,30,32,-1,-1,-1,-1,-1,-1,-1,-1,-1,-1,-1,-1],"split_conditions":[5.16E2,3.2448E6,5.36E2,4.9264E2,4.8655E2,5.275E2,5.3329E2,4.9965E2,-1.051768E-1,4.8E2,4.9298E2,5.2952E2,5.2875E6,3.1264192E-1,1.1054839E0,5.491916E-1,2.0125847E-1,4.1932E6,4.8556E2,4.7797E2,4.9032E2,5.8431226E-1,2.4379121E-1,3.7376788E-2,2.6626435E-1,-1.037223E-1,3.427544E-2,2.4579468E-1,7.6847844E-2,-8.0532897E-1,-4.1252723E-1,1.1183434E-1,-2.199908E-1],"split_indices":[78,53,78,94,1,21,71,1,0,29,64,80,25,0,0,0,0,46,51,91,79,0,0,0,0,0,0,0,0,0,0,0,0],"split_type":[0,0,0,0,0,0,0,0,0,0,0,0,0,0,0,0,0,0,0,0,0,0,0,0,0,0,0,0,0,0,0,0,0],"sum_hessian":[1.32E2,1.05E2,2.7E1,1.2E1,9.3E1,1.8E1,9E0,7E0,5E0,2.6E1,6.7E1,1.1E1,7E0,3E0,6E0,4E0,3E0,1.5E1,1.1E1,2.3E1,4.4E1,8E0,3E0,3E0,4E0,8E0,7E0,8E0,3E0,1E1,1.3E1,1.5E1,2.9E1],"tree_param":{"num_deleted":"0","num_feature":"98","num_nodes":"33","size_leaf_vector":"1"}},{"base_weights":[6.0713875E-1,-2.7410698E0,1.1679107E1,1.4992203E0,-4.282446E0,7.9843903E0,1.8006804E1,-4.4245642E-1,3.9230113E0,-1.053724E1,-1.3074036E0,2.3918916E-2,9.144372E0,3.0091745E-1,1.087509E0,6.881485E-2,-9.304962E-1,2.4445382E-1,9.905446E-2,-1.1303711E0,-1.3448337E1,1.8972926E0,-4.831588E0,1.0311584E1,1.9069307E-1,-8.2184516E-2,1.4718883E-2,-3.0551606E-1,2.0660858E-1,-4.0610406E-1,-7.3852116E-1,2.1134631E-1,-3.8687286E-1,-4.079801E-1,-4.379554E-2,2.1397553E-1,5.731489E-1],"categories":[],"categories_nodes":[],"categories_segments":[],"categories_sizes":[],"default_left":[0,0,0,0,0,0,0,0,0,0,0,0,0,0,0,0,0,0,0,0,0,0,0,0,0,0,0,0,0,0,0,0,0,0,0,0,0],"id":11,"left_children":[1,3,5,7,9,11,13,15,17,19,21,-1,23,-1,-1,-1,25,-1,-1,27,29,31,33,35,-1,-1,-1,-1,-1,-1,-1,-1,-1,-1,-1,-1,-1],"loss_changes":[5.110776E3,6.992238E2,6.0435596E2,1.382161E2,1.4376691E3,1.871759E2,3.6275024E2,1.6370249E1,1.4702606E1,6.69406E2,6.190396E2,0E0,7.888806E1,0E0,0E0,0E0,1.2713884E1,0E0,0E0,2.086993E2,1.3827148E1,6.8362335E2,3.3513135E2,5.5123413E1,0E0,0E0,0E0,0E0,0E0,0E0,0E0,0E0,0E0,0E0,0E0,0E0,0E0],"parents":[2147483647,0,0,1,1,2,2,3,3,4,4,5,5,6,6,7,7,8,8,9,9,10,10,12,12,16,16,19,19,20,20,21,21,22,22,23,23],"right_children":[2,4,6,8,10,12,14,16,18,20,22,-1,24,-1,-1,-1,26,-1,-1,28,30,32,34,36,-1,-1,-1,-1,-1,-1,-1,-1,-1,-1,-1,-1,-1],"split_conditions":[5.1591E2,4.841E2,5.36E2,4.8E2,4.9192E2,3.1835E6,5.3329E2,3.737E6,4.8542E2,4.7586E2,4.959E2,2.3918916E-2,5.2658E2,3.0091745E-1,1.087509E0,6.881485E-2,4.6636E6,2.4445382E-1,9.905446E-2,4.7871E2,3.9515E6,5.012E2,4.0589E6,4.8589E6,1.9069307E-1,-8.2184516E-2,1.4718883E-2,-3.0551606E-1,2.0660858E-1,-4.0610406E-1,-7.3852116E-1,2.1134631E-1,-3.8687286E-1,-4.079801E-1,-4.379554E-2,2.1397553E-1,5.731489E-1],"split_indices":[71,0,78,29,78,32,71,67,49,73,84,0,79,0,0,0,46,0,0,85,11,9,39,11,0,0,0,0,0,0,0,0,0,0,0,0,0],"split_type":[0,0,0,0,0,0,0,0,0,0,0,0,0,0,0,0,0,0,0,0,0,0,0,0,0,0,0,0,0,0,0,0,0,0,0,0,0],"sum_hessian":[1.36E2,1.05E2,3.1E1,2.8E1,7.7E1,2.1E1,1E1,1.6E1,1.2E1,2.4E1,5.3E1,3E0,1.8E1,3E0,7E0,3E0,1.3E1,7E0,5E0,6E0,1.8E1,2.8E1,2.5E1,1.4E1,4E0,8E0,5E0,3E0,3E0,5E0,1.3E1,2.3E1,5E0,1.3E1,1.2E1,3E0,1.1E1],"tree_param":{"num_deleted":"0","num_feature":"98","num_nodes":"37","size_leaf_vector":"1"}},{"base_weights":[-5.9353784E-2,-2.4681213E0,1.1794156E1,5.5773773E0,-3.4696565E0,1.42959795E1,5.7580295E0,4.768827E-1,1.4149628E0,8.2731426E-1,-5.0182915E0,9.359401E-1,3.490227E-1,4.355202E-2,4.0281755E-1,1.5017945E-1,-4.622803E-2,-1.083517E0,3.7838542E0,-1.0803149E1,-1.5843682E0,-1.233078E-1,2.0373687E-2,2.2481418E-1,6.1746217E-2,-5.9425884E-1,-1.5079896E-1,3.2248056E-1,-1.3862437E-1],"categories":[],"categories_nodes":[],"categories_segments":[],"categories_sizes":[],"default_left":[0,0,0,0,0,0,0,0,0,0,0,0,0,0,0,0,0,0,0,0,0,0,0,0,0,0,0,0,0],"id":12,"left_children":[1,3,5,7,9,11,13,-1,15,17,19,-1,-1,-1,-1,-1,-1,21,23,25,27,-1,-1,-1,-1,-1,-1,-1,-1],"loss_changes":[4.2263047E3,1.010467E3,2.952163E2,2.1728497E2,7.3614026E2,4.1937402E2,9.406943E1,0E0,3.2510025E1,1.7358334E2,1.5919293E3,0E0,0E0,0E0,0E0,0E0,0E0,4.017343E1,1.6238632E1,2.1693262E2,5.1423846E2,0E0,0E0,0E0,0E0,0E0,0E0,0E0,0E0],"parents":[2147483647,0,0,1,1,2,2,3,3,4,4,5,5,6,6,8,8,9,9,10,10,17,17,18,18,19,19,20,20],"right_children":[2,4,6,8,10,12,14,-1,16,18,20,-1,-1,-1,-1,-1,-1,22,24,26,28,-1,-1,-1,-1,-1,-1,-1,-1],"split_conditions":[5.21E2,3.2448E6,5.275E2,4.9264E2,4.8655E2,5.8893E6,5.2569E2,4.768827E-1,5.0016E2,4.8E2,4.9129E2,9.359401E-1,3.490227E-1,4.355202E-2,4.0281755E-1,1.5017945E-1,-4.622803E-2,4.5041E6,4.8556E2,4.9471E2,4.856E2,-1.233078E-1,2.0373687E-2,2.2481418E-1,6.1746217E-2,-5.9425884E-1,-1.5079896E-1,3.2248056E-1,-1.3862437E-1],"split_indices":[85,46,7,87,1,11,0,0,0,29,59,0,0,0,0,0,0,39,51,78,93,0,0,0,0,0,0,0,0],"split_type":[0,0,0,0,0,0,0,0,0,0,0,0,0,0,0,0,0,0,0,0,0,0,0,0,0,0,0,0,0],"sum_hessian":[1.46E2,1.22E2,2.4E1,1.3E1,1.09E2,1.6E1,8E0,6E0,7E0,2.9E1,8E1,9E0,7E0,3E0,5E0,4E0,3E0,1.8E1,1.1E1,2.9E1,5.1E1,9E0,9E0,8E0,3E0,2.5E1,4E0,6E0,4.5E1],"tree_param":{"num_deleted":"0","num_feature":"98","num_nodes":"29","size_leaf_vector":"1"}},{"base_weights":[-2.4693024E-1,-2.6948333E0,1.2216183E1,4.434031E0,-3.706854E0,7.13535E0,1.711024E1,3.912716E-1,4.8837662E-1,9.8938555E-1,-5.3054466E0,1.832245E-2,5.051517E-1,1.0134509E0,3.2575646E-1,-9.466248E-2,1.1480011E-1,-8.727614E-1,3.777305E0,-9.712873E0,-2.1240745E0,-1.00524224E-1,1.8096754E-2,2.2392331E-1,7.153282E-2,-5.823342E-2,-5.820371E-1,8.885641E-2,-1.943193E-1],"categories":[],"categories_nodes":[],"categories_segments":[],"categories_sizes":[],"default_left":[0,0,0,0,0,0,0,0,0,0,0,0,0,0,0,0,0,0,0,0,0,0,0,0,0,0,0,0,0],"id":13,"left_children":[1,3,5,7,9,11,13,-1,15,17,19,-1,-1,-1,-1,-1,-1,21,23,25,27,-1,-1,-1,-1,-1,-1,-1,-1],"loss_changes":[4.273601E3,8.605397E2,4.4982812E2,1.9689767E2,7.7850867E2,2.5744128E2,2.3608789E2,0E0,3.8787613E1,1.4346762E2,1.0590374E3,0E0,0E0,0E0,0E0,0E0,0E0,2.4608295E1,1.1692032E1,5.1379614E2,3.2316278E2,0E0,0E0,0E0,0E0,0E0,0E0,0E0,0E0],"parents":[2147483647,0,0,1,1,2,2,3,3,4,4,5,5,6,6,8,8,9,9,10,10,17,17,18,18,19,19,20,20],"right_children":[2,4,6,8,10,12,14,-1,16,18,20,-1,-1,-1,-1,-1,-1,22,24,26,28,-1,-1,-1,-1,-1,-1,-1,-1],"split_conditions":[5.2222E2,3.2448E6,5.3329E2,4.945E2,4.8655E2,4.776E6,5.293E2,3.912716E-1,3.7121E6,4.75E2,4.923E2,1.832245E-2,5.051517E-1,1.0134509E0,3.2575646E-1,-9.466248E-2,1.1480011E-1,4.3292E6,4.9998E2,4.7586E2,4.959E2,-1.00524224E-1,1.8096754E-2,2.2392331E-1,7.153282E-2,-5.823342E-2,-5.820371E-1,8.885641E-2,-1.943193E-1],"split_indices":[57,60,78,85,1,32,14,0,74,30,92,0,0,0,0,0,0,39,84,73,63,0,0,0,0,0,0,0,0],"split_type":[0,0,0,0,0,0,0,0,0,0,0,0,0,0,0,0,0,0,0,0,0,0,0,0,0,0,0,0,0],"sum_hessian":[1.38E2,1.16E2,2.2E1,1.4E1,1.02E2,1.2E1,1E1,7E0,7E0,2.6E1,7.6E1,4E0,8E0,7E0,3E0,3E0,4E0,1.6E1,1E1,3.1E1,4.5E1,8E0,8E0,7E0,3E0,6E0,2.5E1,1.4E1,3.1E1],"tree_param":{"num_deleted":"0","num_feature":"98","num_nodes":"29","size_leaf_vector":"1"}},{"base_weights":[9.4060525E-2,-2.5300279E0,1.039962E1,4.3201227E0,-3.4926267E0,1.3324163E1,6.0002112E0,4.493676E-1,-3.0371857E-1,7.8929263E-1,-4.83416E0,3.2082477E-1,8.4135574E-1,-3.4009095E-2,9.04485E0,-1.9219933E-1,1.2946199E-1,-2.09911E0,3.002374E0,-1.0021201E1,-1.8157374E0,2.1049081E-1,5.380366E-1,-1.3437977E-1,-1.9868089E-2,3.2470703E-2,1.9393082E-1,-1.1346054E-1,-5.4478246E-1,5.6708634E-2,-1.9816612E-1],"categories":[],"categories_nodes":[],"categories_segments":[],"categories_sizes":[],"default_left":[0,0,0,0,0,0,0,0,0,0,0,0,0,0,0,0,0,0,0,0,0,0,0,0,0,0,0,0,0,0,0],"id":14,"left_children":[1,3,5,7,9,11,13,-1,15,17,19,-1,-1,-1,21,-1,-1,23,25,27,29,-1,-1,-1,-1,-1,-1,-1,-1,-1,-1],"loss_changes":[3.7311611E3,7.404228E2,2.8030737E2,3.0485712E2,5.61016E2,2.791848E2,2.705642E2,0E0,9.188778E1,1.597168E2,1.1403983E3,0E0,0E0,0E0,2.9366394E1,0E0,0E0,9.948044E0,2.6345856E1,1.5830078E2,3.0858386E2,0E0,0E0,0E0,0E0,0E0,0E0,0E0,0E0,0E0,0E0],"parents":[2147483647,0,0,1,1,2,2,3,3,4,4,5,5,6,6,8,8,9,9,10,10,14,14,17,17,18,18,19,19,20,20],"right_children":[2,4,6,8,10,12,14,-1,16,18,20,-1,-1,-1,22,-1,-1,24,26,28,30,-1,-1,-1,-1,-1,-1,-1,-1,-1,-1],"split_conditions":[5.16E2,3.2448E6,5.275E2,4.9264E2,4.8608E2,5.1165E2,5.143E2,4.493676E-1,3.7121E6,4.7835E2,4.9192E2,3.2082477E-1,8.4135574E-1,-3.4009095E-2,5.189E2,-1.9219933E-1,1.2946199E-1,4.5304E6,4.4166E6,4.8267E2,3.7969E6,2.1049081E-1,5.380366E-1,-1.3437977E-1,-1.9868089E-2,3.2470703E-2,1.9393082E-1,-1.1346054E-1,-5.4478246E-1,5.6708634E-2,-1.9816612E-1],"split_indices":[85,46,28,87,1,37,94,0,60,29,78,0,0,0,0,0,0,53,81,7,60,0,0,0,0,0,0,0,0,0,0],"split_type":[0,0,0,0,0,0,0,0,0,0,0,0,0,0,0,0,0,0,0,0,0,0,0,0,0,0,0,0,0,0,0],"sum_hessian":[1.36E2,1.09E2,2.7E1,1.3E1,9.6E1,1.5E1,1.2E1,6E0,7E0,2.3E1,7.3E1,6E0,9E0,4E0,8E0,3E0,4E0,1E1,1.3E1,2.6E1,4.7E1,3E0,5E0,7E0,3E0,4E0,9E0,3E0,2.3E1,2E1,2.7E1],"tree_param":{"num_deleted":"0","num_feature":"98","num_nodes":"31","size_leaf_vector":"1"}},{"base_weights":[2.2048733E-1,-2.3918014E0,9.482786E0,4.9902606E0,-3.4325957E0,-4.9085237E-2,1.0639043E1,4.8121974E-1,1.3463644E0,7.428578E-1,-5.05374E0,1.2782903E1,6.163721E0,1.5237834E-1,-7.710152E-2,-1.3437968E0,2.9254978E0,-1.0555066E1,-1.9540253E0,1.7055093E-1,1.4429879E1,4.7001383E-1,1.8874894E-1,-2.3387147E-2,-1.8180047E-1,5.8499403E-2,1.8853913E-1,-3.134491E-1,-6.4972615E-1,9.776505E-2,-2.3887256E-1,8.592272E-1,4.4133782E-1],"categories":[],"categories_nodes":[],"categories_segments":[],"categories_sizes":[],"default_left":[0,0,0,0,0,0,0,0,0,0,0,0,0,0,0,0,0,0,0,0,0,0,0,0,0,0,0,0,0,0,0,0,0],"id":15,"left_children":[1,3,5,7,9,-1,11,-1,13,15,17,19,21,-1,-1,23,25,27,29,-1,31,-1,-1,-1,-1,-1,-1,-1,-1,-1,-1,-1,-1],"loss_changes":[3.4100923E3,8.6228265E2,3.855332E2,2.2345032E2,6.603485E2,0E0,1.8985474E2,0E0,4.892314E1,1.3145493E2,1.173053E3,2.286145E2,4.955841E1,0E0,0E0,2.8420805E1,1.6362907E1,1.7993091E2,5.1707526E2,0E0,7.9836914E1,0E0,0E0,0E0,0E0,0E0,0E0,0E0,0E0,0E0,0E0,0E0,0E0],"parents":[2147483647,0,0,1,1,2,2,3,3,4,4,6,6,8,8,9,9,10,10,11,11,12,12,15,15,16,16,17,17,18,18,20,20],"right_children":[2,4,6,8,10,-1,12,-1,14,16,18,20,22,-1,-1,24,26,28,30,-1,32,-1,-1,-1,-1,-1,-1,-1,-1,-1,-1,-1,-1],"split_conditions":[5.16E2,3.2448E6,3.1835E6,4.938E2,4.8655E2,-4.9085237E-2,5.8893E6,4.8121974E-1,4.9803E2,4.7358E2,4.9192E2,3.1835E6,5.1867E2,1.5237834E-1,-7.710152E-2,4.74E2,4.2129E6,4.1306E6,3.8735E6,1.7055093E-1,5.2681E2,4.7001383E-1,1.8874894E-1,-2.3387147E-2,-1.8180047E-1,5.8499403E-2,1.8853913E-1,-3.134491E-1,-6.4972615E-1,9.776505E-2,-2.3887256E-1,8.592272E-1,4.4133782E-1],"split_indices":[78,53,18,78,1,0,4,0,0,37,71,53,15,0,0,35,74,18,67,0,0,0,0,0,0,0,0,0,0,0,0,0,0],"split_type":[0,0,0,0,0,0,0,0,0,0,0,0,0,0,0,0,0,0,0,0,0,0,0,0,0,0,0,0,0,0,0,0,0],"sum_hessian":[1.39E2,1.09E2,3E1,1.3E1,9.6E1,3E0,2.7E1,5E0,8E0,2.7E1,6.9E1,1.7E1,1E1,5E0,3E0,1.4E1,1.3E1,2.4E1,4.5E1,3E0,1.4E1,3E0,7E0,1.1E1,3E0,5E0,8E0,1E1,1.4E1,1.9E1,2.6E1,8E0,6E0],"tree_param":{"num_deleted":"0","num_feature":"98","num_nodes":"33","size_leaf_vector":"1"}},{"base_weights":[-8.02167E-2,-2.648183E0,1.0787342E1,5.674466E0,-3.5371926E0,7.752416E0,7.433991E-1,4.2213288E-1,9.802654E-2,1.4329855E-1,-4.900433E0,3.0398483E0,1.0747229E1,-1.2428436E0,1.6038463E-1,-6.9591457E-1,-3.5764155E0,2.0195375E-1,5.1542666E-2,6.085419E-1,2.7845535E-1,-1.09849654E-1,4.2150225E-2,1.4921205E-1,-2.3420484E-1],"categories":[],"categories_nodes":[],"categories_segments":[],"categories_sizes":[],"default_left":[0,0,0,0,0,0,0,0,0,0,0,0,0,0,0,0,0,0,0,0,0,0,0,0,0],"id":16,"left_children":[1,3,5,7,9,11,-1,-1,-1,13,15,17,19,21,-1,-1,23,-1,-1,-1,-1,-1,-1,-1,-1],"loss_changes":[3.796083E3,8.3395233E2,2.0673267E2,9.653763E1,5.0244177E2,2.0725543E2,0E0,0E0,0E0,1.2292186E2,8.21828E2,1.1895836E1,5.935547E0,4.1656296E1,0E0,0E0,4.8634113E2,0E0,0E0,0E0,0E0,0E0,0E0,0E0,0E0],"parents":[2147483647,0,0,1,1,2,2,3,3,4,4,5,5,9,9,10,10,11,11,12,12,13,13,16,16],"right_children":[2,4,6,8,10,12,-1,-1,-1,14,16,18,20,22,-1,-1,24,-1,-1,-1,-1,-1,-1,-1,-1],"split_conditions":[5.21E2,3.2448E6,5.36E2,4.9599E2,4.841E2,5.231E2,7.433991E-1,4.2213288E-1,9.802654E-2,4.8E2,4.796E2,5.2817E2,5.118E2,4.5304E6,1.6038463E-1,-6.9591457E-1,3.2448E6,2.0195375E-1,5.1542666E-2,6.085419E-1,2.7845535E-1,-1.09849654E-1,4.2150225E-2,1.4921205E-1,-2.3420484E-1],"split_indices":[71,60,85,92,7,0,0,0,0,29,92,59,86,53,0,0,46,0,0,0,0,0,0,0,0],"split_type":[0,0,0,0,0,0,0,0,0,0,0,0,0,0,0,0,0,0,0,0,0,0,0,0,0],"sum_hessian":[1.34E2,1.09E2,2.5E1,1E1,9.9E1,1.6E1,9E0,5E0,5E0,2.7E1,7.2E1,7E0,9E0,1.9E1,8E0,8E0,6.4E1,4E0,3E0,6E0,3E0,1.3E1,6E0,9E0,5.5E1],"tree_param":{"num_deleted":"0","num_feature":"98","num_nodes":"25","size_leaf_vector":"1"}},{"base_weights":[4.0877166E-1,-1.9698153E0,9.170841E0,4.966192E0,-2.8162973E0,6.4880514E0,1.4411702E1,8.048611E0,-4.7945864E-2,3.1701405E0,-3.6283085E0,3.3470185E0,8.564908E0,3.4365463E-1,8.5177463E-1,4.779892E-1,2.0737457E-1,2.9994446E-1,1.0059052E0,6.1068374E-1,-5.404733E0,1.2569885E-2,2.6844332E-1,5.2601147E-1,1.8617065E-1,1.2064178E-1,-5.0211716E-2,-6.0026854E-2,1.4119098E-1,-4.8521972E-1,-1.3300385E-1],"categories":[],"categories_nodes":[],"categories_segments":[],"categories_sizes":[],"default_left":[0,0,0,0,0,0,0,0,0,0,0,0,0,0,0,0,0,0,0,0,0,0,0,0,0,0,0,0,0,0,0],"id":17,"left_children":[1,3,5,7,9,11,13,15,-1,17,19,21,23,-1,-1,-1,-1,-1,25,27,29,-1,-1,-1,-1,-1,-1,-1,-1,-1,-1],"loss_changes":[2.8316467E3,6.422051E2,3.1424E2,2.2688199E2,4.7816357E2,1.0832611E2,6.093103E1,7.5130005E0,0E0,6.7430626E1,6.4337195E2,6.123902E1,7.4428955E1,0E0,0E0,0E0,0E0,0E0,2.5048065E1,1.0761052E2,6.8225146E2,0E0,0E0,0E0,0E0,0E0,0E0,0E0,0E0,0E0,0E0],"parents":[2147483647,0,0,1,1,2,2,3,3,4,4,5,5,6,6,7,7,9,9,10,10,11,11,12,12,18,18,19,19,20,20],"right_children":[2,4,6,8,10,12,14,16,-1,18,20,22,24,-1,-1,-1,-1,-1,26,28,30,-1,-1,-1,-1,-1,-1,-1,-1,-1,-1],"split_conditions":[5.16E2,3.2062E6,5.36E2,4.903E2,3.2448E6,4.9778E6,5.2468E2,3.4415E6,-4.7945864E-2,4.9163E2,4.8655E2,4.8578E6,5.275E2,3.4365463E-1,8.5177463E-1,4.779892E-1,2.0737457E-1,2.9994446E-1,4.9473E2,4.7922E2,4.8859E2,1.2569885E-2,2.6844332E-1,5.2601147E-1,1.8617065E-1,1.2064178E-1,-5.0211716E-2,-6.0026854E-2,1.4119098E-1,-4.8521972E-1,-1.3300385E-1],"split_indices":[78,32,78,51,67,39,65,39,0,7,8,18,77,0,0,0,0,0,72,29,80,0,0,0,0,0,0,0,0,0,0],"split_type":[0,0,0,0,0,0,0,0,0,0,0,0,0,0,0,0,0,0,0,0,0,0,0,0,0,0,0,0,0,0,0],"sum_hessian":[1.34E2,1.06E2,2.8E1,1.1E1,9.5E1,2E1,8E0,7E0,4E0,1.1E1,8.4E1,9E0,1.1E1,3E0,5E0,4E0,3E0,4E0,7E0,2.5E1,5.9E1,4E0,5E0,7E0,4E0,4E0,3E0,1.4E1,1.1E1,2.2E1,3.7E1],"tree_param":{"num_deleted":"0","num_feature":"98","num_nodes":"31","size_leaf_vector":"1"}},{"base_weights":[1.0827102E-1,-1.8964051E0,8.7396345E0,3.7371368E0,-2.8060985E0,5.933633E0,1.3380568E1,6.4098177E0,-8.928172E-2,8.7408936E-1,-4.027997E0,-1.207428E-2,8.327254E0,2.7529374E-1,8.2001346E-1,4.172542E-1,1.2092407E-1,-8.4810585E-1,3.1430748E0,-7.6244335E0,-1.4843361E0,5.278446E-1,1.9832636E-1,-1.4201216E-2,-9.597321E-2,1.8630409E-1,5.956459E-2,4.537964E-3,-4.2425194E-1,2.0885284E-1,-1.5297337E-1],"categories":[],"categories_nodes":[],"categories_segments":[],"categories_sizes":[],"default_left":[0,0,0,0,0,0,0,0,0,0,0,0,0,0,0,0,0,0,0,0,0,0,0,0,0,0,0,0,0,0,0],"id":18,"left_children":[1,3,5,7,9,11,13,15,-1,17,19,-1,21,-1,-1,-1,-1,23,25,27,29,-1,-1,-1,-1,-1,-1,-1,-1,-1,-1],"loss_changes":[2.3870972E3,5.84464E2,2.5918884E2,2.4761531E2,4.3971198E2,2.6806708E2,1.2371521E2,6.478488E1,0E0,1.0035655E2,6.5649524E2,0E0,8.4522766E1,0E0,0E0,0E0,0E0,8.519827E0,8.078087E0,1.9996216E2,4.051468E2,0E0,0E0,0E0,0E0,0E0,0E0,0E0,0E0,0E0,0E0],"parents":[2147483647,0,0,1,1,2,2,3,3,4,4,5,5,6,6,7,7,9,9,10,10,12,12,17,17,18,18,19,19,20,20],"right_children":[2,4,6,8,10,12,14,16,-1,18,20,-1,22,-1,-1,-1,-1,24,26,28,30,-1,-1,-1,-1,-1,-1,-1,-1,-1,-1],"split_conditions":[5.16E2,3.4415E6,5.3592E2,4.9699E2,4.8608E2,5.2141E2,5.273E2,4.9377E2,-8.928172E-2,4.8E2,4.923E2,-1.207428E-2,5.2952E2,2.7529374E-1,8.2001346E-1,4.172542E-1,1.2092407E-1,4.753E2,4.7827E2,4.859E2,4.9221E2,5.278446E-1,1.9832636E-1,-1.4201216E-2,-9.597321E-2,1.8630409E-1,5.956459E-2,4.537964E-3,-4.2425194E-1,2.0885284E-1,-1.5297337E-1],"split_indices":[85,60,71,85,1,92,29,56,0,29,92,0,94,0,0,0,0,0,3,8,87,0,0,0,0,0,0,0,0,0,0],"split_type":[0,0,0,0,0,0,0,0,0,0,0,0,0,0,0,0,0,0,0,0,0,0,0,0,0,0,0,0,0,0,0],"sum_hessian":[1.36E2,1.11E2,2.5E1,1.5E1,9.6E1,1.7E1,8E0,1E1,5E0,2.4E1,7.2E1,5E0,1.2E1,3E0,5E0,6E0,4E0,1.4E1,1E1,2.9E1,4.3E1,7E0,5E0,1E1,4E0,7E0,3E0,3E0,2.6E1,9E0,3.4E1],"tree_param":{"num_deleted":"0","num_feature":"98","num_nodes":"31","size_leaf_vector":"1"}},{"base_weights":[2.5922203E-1,-1.944009E0,8.6963005E0,3.9722955E0,-2.9403036E0,-6.01017E-2,9.840635E0,6.905737E0,-1.2048689E0,-4.2573276E0,5.513404E-1,2.353446E-1,1.1754479E1,4.7698125E-1,9.185731E-2,-1.8610421E-1,8.067818E-2,-7.815738E-1,-5.771028E0,4.8593445E0,-1.1160583E0,1.4010411E1,5.885681E0,-9.4427936E-2,1.009236E-1,-5.217883E-1,-1.525873E-1,8.369064E-2,3.2179505E-1,1.3245748E-1,-1.22912884E-1,3.0948296E-1,7.8688353E-1,3.609295E-1,1.5406762E-1],"categories":[],"categories_nodes":[],"categories_segments":[],"categories_sizes":[],"default_left":[0,0,0,0,0,0,0,0,0,0,0,0,0,0,0,0,0,0,0,0,0,0,0,0,0,0,0,0,0,0,0,0,0,0,0],"id":19,"left_children":[1,3,5,7,9,-1,11,13,15,17,19,-1,21,-1,-1,-1,-1,23,25,27,29,31,33,-1,-1,-1,-1,-1,-1,-1,-1,-1,-1,-1,-1],"loss_changes":[2.6936978E3,6.8953375E2,3.5163892E2,2.6649792E2,4.5760663E2,0E0,2.0995312E2,1.293255E2,5.5668022E1,3.7429932E2,2.065518E2,0E0,1.6909204E2,0E0,0E0,0E0,0E0,7.5103004E1,6.023895E2,2.9404877E1,1.1263914E2,7.819946E1,3.9223938E0,0E0,0E0,0E0,0E0,0E0,0E0,0E0,0E0,0E0,0E0,0E0,0E0],"parents":[2147483647,0,0,1,1,2,2,3,3,4,4,6,6,7,7,8,8,9,9,10,10,12,12,17,17,18,18,19,19,20,20,21,21,22,22],"right_children":[2,4,6,8,10,-1,12,14,16,18,20,-1,22,-1,-1,-1,-1,24,26,28,30,32,34,-1,-1,-1,-1,-1,-1,-1,-1,-1,-1,-1,-1],"split_conditions":[5.1591E2,3.4415E6,3.1835E6,4.4823E6,4.9084E6,-6.01017E-2,5.2141E2,4.9264E2,3.7487E6,4.8275E2,4.7388E2,2.353446E-1,5.3013E2,4.7698125E-1,9.185731E-2,-1.8610421E-1,8.067818E-2,5.0607E6,4.9192E2,4.7347E2,3.4415E6,5.2658E2,5.3023E2,-9.4427936E-2,1.009236E-1,-5.217883E-1,-1.525873E-1,8.369064E-2,3.2179505E-1,1.3245748E-1,-1.22912884E-1,3.0948296E-1,7.8688353E-1,3.609295E-1,1.5406762E-1],"split_indices":[85,39,25,4,88,0,38,80,18,2,86,0,1,0,0,0,0,67,85,7,67,64,45,0,0,0,0,0,0,0,0,0,0,0,0],"split_type":[0,0,0,0,0,0,0,0,0,0,0,0,0,0,0,0,0,0,0,0,0,0,0,0,0,0,0,0,0,0,0,0,0,0,0],"sum_hessian":[1.43E2,1.14E2,2.9E1,1.6E1,9.8E1,3E0,2.6E1,1E1,6E0,7.1E1,2.7E1,8E0,1.8E1,6E0,4E0,3E0,3E0,2.2E1,4.9E1,7E0,2E1,1.2E1,6E0,1.6E1,6E0,1.7E1,3.2E1,3E0,4E0,5E0,1.5E1,3E0,9E0,3E0,3E0],"tree_param":{"num_deleted":"0","num_feature":"98","num_nodes":"35","size_leaf_vector":"1"}},{"base_weights":[2.2564675E-1,-1.9394588E0,7.691474E0,3.5870972E0,-2.8099844E0,5.330705E0,1.2116018E1,6.4399514E0,-5.9330094E-1,5.71009E-1,-4.20177E0,1.8458779E0,8.080905E0,3.0695587E-1,7.538717E-1,3.9905426E-1,1.8054138E-1,5.8179475E-2,-1.1009331E-1,-1.0995483E0,2.5831556E0,-8.199107E0,-1.8729823E0,-4.748779E-2,3.5790622E0,4.7967902E-1,1.328579E-1,7.0057674E-3,-1.3567092E-1,1.7774332E-1,6.212115E-2,-5.078086E-1,-2.2217987E-1,1.16075E-1,-1.6936913E-1,2.1626548E-1,9.690247E-2],"categories":[],"categories_nodes":[],"categories_segments":[],"categories_sizes":[],"default_left":[0,0,0,0,0,0,0,0,0,0,0,0,0,0,0,0,0,0,0,0,0,0,0,0,0,0,0,0,0,0,0,0,0,0,0,0,0],"id":20,"left_children":[1,3,5,7,9,11,13,15,17,19,21,23,25,-1,-1,-1,-1,-1,-1,27,29,31,33,-1,35,-1,-1,-1,-1,-1,-1,-1,-1,-1,-1,-1,-1],"loss_changes":[2.229427E3,5.2485754E2,2.5921838E2,1.8271184E2,4.4002155E2,1.9593097E2,8.443872E1,1.0422241E1,2.2344578E1,9.6959694E1,5.9903394E2,5.6698074E1,7.2960754E1,0E0,0E0,0E0,0E0,0E0,0E0,3.2390686E1,1.2519814E1,1.312649E2,2.810052E2,0E0,1.895523E-1,0E0,0E0,0E0,0E0,0E0,0E0,0E0,0E0,0E0,0E0,0E0,0E0],"parents":[2147483647,0,0,1,1,2,2,3,3,4,4,5,5,6,6,7,7,8,8,9,9,10,10,11,11,12,12,19,19,20,20,21,21,22,22,24,24],"right_children":[2,4,6,8,10,12,14,16,18,20,22,24,26,-1,-1,-1,-1,-1,-1,28,30,32,34,-1,36,-1,-1,-1,-1,-1,-1,-1,-1,-1,-1,-1,-1],"split_conditions":[5.16E2,3.4415E6,5.36E2,4.6931E6,4.8655E2,4.9778E6,5.2468E2,4.938E2,4.5571E6,4.7941E2,4.923E2,4.2947E6,5.275E2,3.0695587E-1,7.538717E-1,3.9905426E-1,1.8054138E-1,5.8179475E-2,-1.1009331E-1,4.74E2,4.2229E6,4.5959E6,3.4415E6,-4.748779E-2,5.1549E6,4.7967902E-1,1.328579E-1,7.0057674E-3,-1.3567092E-1,1.7774332E-1,6.212115E-2,-5.078086E-1,-2.2217987E-1,1.16075E-1,-1.6936913E-1,2.1626548E-1,9.690247E-2],"split_indices":[64,46,78,4,1,39,65,85,18,29,78,18,77,0,0,0,0,0,0,14,46,88,74,0,11,0,0,0,0,0,0,0,0,0,0,0,0],"split_type":[0,0,0,0,0,0,0,0,0,0,0,0,0,0,0,0,0,0,0,0,0,0,0,0,0,0,0,0,0,0,0,0,0,0,0,0,0],"sum_hessian":[1.36E2,1.06E2,3E1,1.4E1,9.2E1,2.1E1,9E0,8E0,6E0,2.7E1,6.5E1,1E1,1.1E1,4E0,5E0,4E0,4E0,3E0,3E0,1.5E1,1.2E1,2.3E1,4.2E1,4E0,6E0,8E0,3E0,9E0,6E0,6E0,6E0,1.4E1,9E0,1.1E1,3.1E1,3E0,3E0],"tree_param":{"num_deleted":"0","num_feature":"98","num_nodes":"37","size_leaf_vector":"1"}},{"base_weights":[5.8255512E-2,-2.0255616E0,7.719446E0,3.6638122E0,-2.8587122E0,5.1754065E0,1.1874481E1,4.249293E-1,3.9656678E-1,4.790159E-1,-4.0997763E0,-3.73394E-2,6.203927E0,1.7448464E-1,7.291283E-1,2.3080182E0,-1.5238075E-1,-1.4109403E0,1.9846668E0,-8.15362E0,-1.94782E0,7.935536E0,1.523737E-1,2.3993302E-2,1.779583E-1,1.598638E-2,-1.2662868E-1,1.9800313E-2,1.3353924E-1,-1.17705286E-1,-4.7428963E-1,5.027596E-2,-1.9258927E-1,1.8969499E-1,4.507206E-1],"categories":[],"categories_nodes":[],"categories_segments":[],"categories_sizes":[],"default_left":[0,0,0,0,0,0,0,0,0,0,0,0,0,0,0,0,0,0,0,0,0,0,0,0,0,0,0,0,0,0,0,0,0,0,0],"id":21,"left_children":[1,3,5,7,9,11,13,-1,15,17,19,-1,21,-1,-1,23,-1,25,27,29,31,33,-1,-1,-1,-1,-1,-1,-1,-1,-1,-1,-1,-1,-1],"loss_changes":[2.314527E3,5.508457E2,2.662328E2,2.3357567E2,4.1619727E2,1.3254608E2,1.9888513E2,0E0,7.286782E1,8.247745E1,6.2094775E2,0E0,7.420001E1,0E0,0E0,1.4303097E1,0E0,2.6045006E1,1.6382492E1,1.7081848E2,2.7940277E2,1.495166E1,0E0,0E0,0E0,0E0,0E0,0E0,0E0,0E0,0E0,0E0,0E0,0E0,0E0],"parents":[2147483647,0,0,1,1,2,2,3,3,4,4,5,5,6,6,8,8,9,9,10,10,12,12,15,15,17,17,18,18,19,19,20,20,21,21],"right_children":[2,4,6,8,10,12,14,-1,16,18,20,-1,22,-1,-1,24,-1,26,28,30,32,34,-1,-1,-1,-1,-1,-1,-1,-1,-1,-1,-1,-1,-1],"split_conditions":[5.16E2,3.2448E6,5.36E2,4.938E2,4.8655E2,3.1835E6,5.3329E2,4.249293E-1,4.9163E2,4.7835E2,4.917E2,-3.73394E-2,5.275E2,1.7448464E-1,7.291283E-1,4.9242E2,-1.5238075E-1,4.7007E2,3.798E6,4.806E2,3.8735E6,4.7866E6,1.523737E-1,2.3993302E-2,1.779583E-1,1.598638E-2,-1.2662868E-1,1.9800313E-2,1.3353924E-1,-1.17705286E-1,-4.7428963E-1,5.027596E-2,-1.9258927E-1,1.8969499E-1,4.507206E-1],"split_indices":[78,53,78,78,1,18,71,0,86,29,71,0,77,0,0,73,0,42,18,16,67,88,0,0,0,0,0,0,0,0,0,0,0,0,0],"split_type":[0,0,0,0,0,0,0,0,0,0,0,0,0,0,0,0,0,0,0,0,0,0,0,0,0,0,0,0,0,0,0,0,0,0,0],"sum_hessian":[1.43E2,1.13E2,3E1,1.4E1,9.9E1,2E1,1E1,5E0,9E0,2.7E1,7.2E1,3E0,1.7E1,3E0,7E0,6E0,3E0,1.2E1,1.5E1,2.4E1,4.8E1,1E1,7E0,3E0,3E0,5E0,7E0,5E0,1E1,5E0,1.9E1,1.9E1,2.9E1,3E0,7E0],"tree_param":{"num_deleted":"0","num_feature":"98","num_nodes":"35","size_leaf_vector":"1"}},{"base_weights":[5.7578012E-2,-1.6148682E0,7.5170465E0,-2.910336E0,1.5950937E0,5.1006165E0,1.1514679E1,-5.460837E0,-7.401322E-1,5.615401E0,-3.1400934E-1,7.1439395E0,-8.83433E-3,2.9079056E-1,6.6974056E-1,-1.285749E0,-9.154129E0,1.9799361E0,-3.104187E0,8.659668E-2,4.2814842E-1,-1.738774E-1,9.3370056E-1,5.6517565E-1,4.7657166E0,9.1925815E-2,-1.2664403E-1,-5.1349944E-1,-1.8762757E-1,-1.6094933E-1,1.4851195E-1,-3.219752E-1,-1.1808123E-3,1.2365861E-1,-6.498928E-2,1.359967E-1,2.8381246E-1],"categories":[],"categories_nodes":[],"categories_segments":[],"categories_sizes":[],"default_left":[0,0,0,0,0,0,0,0,0,0,0,0,0,0,0,0,0,0,0,0,0,0,0,0,0,0,0,0,0,0,0,0,0,0,0,0,0],"id":22,"left_children":[1,3,5,7,9,11,13,15,17,19,21,23,-1,-1,-1,25,27,29,31,-1,-1,-1,33,-1,35,-1,-1,-1,-1,-1,-1,-1,-1,-1,-1,-1,-1],"loss_changes":[1.771193E3,4.8701697E2,1.924281E2,4.553722E2,2.6271945E2,1.953605E2,1.853003E1,5.741832E2,3.0194406E2,1.1108411E2,9.797927E1,7.473175E1,0E0,0E0,0E0,7.8687775E1,8.20094E1,1.2282833E2,2.567149E2,0E0,0E0,0E0,6.510559E1,0E0,3.1884918E0,0E0,0E0,0E0,0E0,0E0,0E0,0E0,0E0,0E0,0E0,0E0,0E0],"parents":[2147483647,0,0,1,1,2,2,3,3,4,4,5,5,6,6,7,7,8,8,9,9,10,10,11,11,15,15,16,16,17,17,18,18,22,22,24,24],"right_children":[2,4,6,8,10,12,14,16,18,20,22,24,-1,-1,-1,26,28,30,32,-1,-1,-1,34,-1,36,-1,-1,-1,-1,-1,-1,-1,-1,-1,-1,-1,-1],"split_conditions":[5.2126E2,4.7798E6,6.3841E6,4.9298E2,4.859E2,5.2073E2,4.2543E6,4.8172E2,4.9575E2,4.755E2,4.9108E2,5.0741E2,-8.83433E-3,2.9079056E-1,6.6974056E-1,4.7007E2,4.9084E6,4.9108E2,4.0589E6,8.659668E-2,4.2814842E-1,-1.738774E-1,5.0149E2,5.6517565E-1,5.2569E2,9.1925815E-2,-1.2664403E-1,-5.1349944E-1,-1.8762757E-1,-1.6094933E-1,1.4851195E-1,-3.219752E-1,-1.1808123E-3,1.2365861E-1,-6.498928E-2,1.359967E-1,2.8381246E-1],"split_indices":[50,88,95,85,85,30,60,16,70,0,85,7,0,0,0,70,95,71,39,0,0,0,45,0,0,0,0,0,0,0,0,0,0,0,0,0,0],"split_type":[0,0,0,0,0,0,0,0,0,0,0,0,0,0,0,0,0,0,0,0,0,0,0,0,0,0,0,0,0,0,0,0,0,0,0,0,0],"sum_hessian":[1.4E2,1.15E2,2.5E1,8.2E1,3.3E1,1.7E1,8E0,3.7E1,4.5E1,1E1,2.3E1,1.2E1,5E0,3E0,5E0,1.8E1,1.9E1,2.1E1,2.4E1,5E0,5E0,6E0,1.7E1,3E0,9E0,5E0,1.3E1,1.5E1,4E0,3E0,1.8E1,1.1E1,1.3E1,1E1,7E0,4E0,5E0],"tree_param":{"num_deleted":"0","num_feature":"98","num_nodes":"37","size_leaf_vector":"1"}},{"base_weights":[2.9536113E-1,-1.5460068E0,7.8619385E0,3.32683E0,-2.3766522E0,2.0064647E-1,9.3496685E0,6.318953E0,-1.3566004E-1,4.273753E-1,-3.6741788E0,6.570127E0,6.3894653E-1,4.4666037E-1,1.32577E-1,-1.0962331E0,2.8041408E0,-7.956228E0,-1.9187211E0,1.2585938E-1,4.140974E-1,-1.1113816E-1,3.652954E-2,6.3685864E-2,1.8576704E-1,-5.506439E-1,-2.9667243E-1,9.576581E-2,-1.6641217E-1],"categories":[],"categories_nodes":[],"categories_segments":[],"categories_sizes":[],"default_left":[0,0,0,0,0,0,0,0,0,0,0,0,0,0,0,0,0,0,0,0,0,0,0,0,0,0,0,0,0],"id":23,"left_children":[1,3,5,7,9,-1,11,13,-1,15,17,19,-1,-1,-1,21,23,25,27,-1,-1,-1,-1,-1,-1,-1,-1,-1,-1],"loss_changes":[1.8512913E3,4.4099988E2,1.1136389E2,3.0630487E2,3.3629395E2,0E0,8.7612915E1,8.177634E1,0E0,1.11711784E2,4.5830243E2,6.2407715E1,0E0,0E0,0E0,4.0725395E1,1.2001976E1,4.5948364E1,2.5496606E2,0E0,0E0,0E0,0E0,0E0,0E0,0E0,0E0,0E0,0E0],"parents":[2147483647,0,0,1,1,2,2,3,3,4,4,6,6,7,7,9,9,10,10,11,11,15,15,16,16,17,17,18,18],"right_children":[2,4,6,8,10,-1,12,14,-1,16,18,20,-1,-1,-1,22,24,26,28,-1,-1,-1,-1,-1,-1,-1,-1,-1,-1],"split_conditions":[5.1591E2,3.4415E6,5.2141E2,4.9716E2,4.8275E2,2.0064647E-1,5.3329E2,4.2606E6,-1.3566004E-1,4.7977E2,4.9192E2,5.13E2,6.3894653E-1,4.4666037E-1,1.32577E-1,4.5304E6,4.2129E6,4.7864E2,4.961E2,1.2585938E-1,4.140974E-1,-1.1113816E-1,3.652954E-2,6.3685864E-2,1.8576704E-1,-5.506439E-1,-2.9667243E-1,9.576581E-2,-1.6641217E-1],"split_indices":[92,39,38,71,2,0,78,11,0,28,71,9,0,0,0,53,25,92,43,0,0,0,0,0,0,0,0,0,0],"split_type":[0,0,0,0,0,0,0,0,0,0,0,0,0,0,0,0,0,0,0,0,0,0,0,0,0,0,0,0,0],"sum_hessian":[1.31E2,1.06E2,2.5E1,1.5E1,9.1E1,8E0,1.7E1,1E1,5E0,2.9E1,6.2E1,1.1E1,6E0,5E0,5E0,1.8E1,1.1E1,1.7E1,4.5E1,4E0,7E0,1.1E1,7E0,5E0,6E0,5E0,1.2E1,1.2E1,3.3E1],"tree_param":{"num_deleted":"0","num_feature":"98","num_nodes":"29","size_leaf_vector":"1"}},{"base_weights":[4.502145E-1,-1.3056914E0,7.10765E0,3.429368E0,-2.113756E0,-5.4422E-2,8.058639E0,6.4239297E0,5.3765193E-2,2.6309001E0,-2.935852E0,4.1995025E0,9.754902E0,4.280497E-1,8.0617525E-2,-1.6339417E-1,1.1296183E-1,4.3573527E0,-8.467377E-2,1.070844E0,-4.4641285E0,8.300438E-2,2.525334E-1,1.1057497E1,1.21572115E-1,2.5132582E-1,9.648438E-2,-2.3763066E-2,1.10457614E-1,-2.9655564E-1,1.622963E-3,6.48009E-1,2.3300476E-1],"categories":[],"categories_nodes":[],"categories_segments":[],"categories_sizes":[],"default_left":[0,0,0,0,0,0,0,0,0,0,0,0,0,0,0,0,0,0,0,0,0,0,0,0,0,0,0,0,0,0,0,0,0],"id":24,"left_children":[1,3,5,7,9,-1,11,13,15,17,19,21,23,-1,-1,-1,-1,25,-1,27,29,-1,-1,31,-1,-1,-1,-1,-1,-1,-1,-1,-1],"loss_changes":[1.6809261E3,4.4343942E2,2.4260315E2,1.7149832E2,3.8997916E2,0E0,1.3577917E2,7.874057E1,7.3315125E1,1.19366516E2,5.191409E2,1.3230087E1,1.4482568E2,0E0,0E0,0E0,0E0,8.169952E0,0E0,4.328859E1,4.0257434E2,0E0,0E0,1.2218762E2,0E0,0E0,0E0,0E0,0E0,0E0,0E0,0E0,0E0],"parents":[2147483647,0,0,1,1,2,2,3,3,4,4,6,6,7,7,8,8,9,9,10,10,11,11,12,12,17,17,19,19,20,20,23,23],"right_children":[2,4,6,8,10,-1,12,14,16,18,20,22,24,-1,-1,-1,-1,26,-1,28,30,-1,-1,32,-1,-1,-1,-1,-1,-1,-1,-1,-1],"split_conditions":[5.16E2,3.4415E6,3.1835E6,3.5829E6,3.4415E6,-5.4422E-2,5.13E2,4.2606E6,4.9113E2,4.9716E2,4.8608E2,4.3856E6,5.8893E6,4.280497E-1,8.0617525E-2,-1.6339417E-1,1.1296183E-1,4.9473E2,-8.467377E-2,4.7346E2,5.0271E2,8.300438E-2,2.525334E-1,5.3013E2,1.21572115E-1,2.5132582E-1,9.648438E-2,-2.3763066E-2,1.10457614E-1,-2.9655564E-1,1.622963E-3,6.48009E-1,2.3300476E-1],"split_indices":[85,39,25,46,67,0,37,11,87,92,1,81,11,0,0,0,0,9,0,37,56,0,0,1,0,0,0,0,0,0,0,0,0],"split_type":[0,0,0,0,0,0,0,0,0,0,0,0,0,0,0,0,0,0,0,0,0,0,0,0,0,0,0,0,0,0,0,0,0],"sum_hessian":[1.42E2,1.13E2,2.9E1,1.6E1,9.7E1,3E0,2.6E1,8E0,8E0,1.4E1,8.3E1,9E0,1.7E1,5E0,3E0,3E0,5E0,1E1,4E0,2.3E1,6E1,3E0,6E0,1.4E1,3E0,7E0,3E0,1E1,1.3E1,4.5E1,1.5E1,1E1,4E0],"tree_param":{"num_deleted":"0","num_feature":"98","num_nodes":"33","size_leaf_vector":"1"}},{"base_weights":[3.1524548E-1,-1.3789179E0,7.3312106E0,3.6910596E0,-2.0819561E0,5.051127E0,1.070224E1,5.6855664E0,-1.3582993E-1,3.4307623E0,-2.6042912E0,4.878544E-1,3.4594624E0,2.708664E-1,6.096649E-1,3.9752075E-1,1.6277967E-1,6.753108E-2,2.8466415E-1,3.5095477E0,-3.077145E0,2.6742503E-1,1.9800934E0,2.4191895E-1,6.516647E-2,-2.1181385E-1,-1.4193668E-2,3.6465075E-2,1.20598055E-1],"categories":[],"categories_nodes":[],"categories_segments":[],"categories_sizes":[],"default_left":[0,0,0,0,0,0,0,0,0,0,0,0,0,0,0,0,0,0,0,0,0,0,0,0,0,0,0,0,0],"id":25,"left_children":[1,3,5,7,9,11,13,15,-1,17,19,-1,21,-1,-1,-1,-1,-1,-1,23,25,-1,27,-1,-1,-1,-1,-1,-1],"loss_changes":[1.6504037E3,4.0689606E2,1.5346985E2,1.9436703E2,2.9400394E2,1.0107135E2,1.2746094E1,3.4655426E1,0E0,3.4667778E1,2.7387604E2,0E0,3.1328262E1,0E0,0E0,0E0,0E0,0E0,0E0,1.4215836E1,2.74008E2,0E0,3.6427193E0,0E0,0E0,0E0,0E0,0E0,0E0],"parents":[2147483647,0,0,1,1,2,2,3,3,4,4,5,5,6,6,7,7,9,9,10,10,12,12,19,19,20,20,22,22],"right_children":[2,4,6,8,10,12,14,16,-1,18,20,-1,22,-1,-1,-1,-1,-1,-1,24,26,-1,28,-1,-1,-1,-1,-1,-1],"split_conditions":[5.21E2,3.2448E6,5.3592E2,4.9575E2,4.7007E2,5.0122E2,5.2073E2,4.9599E2,-1.3582993E-1,4.5733E6,3.1668E6,4.878544E-1,5.19E2,2.708664E-1,6.096649E-1,3.9752075E-1,1.6277967E-1,6.753108E-2,2.8466415E-1,3.7673E6,4.9084E6,2.6742503E-1,5.2141E2,2.4191895E-1,6.516647E-2,-2.1181385E-1,-1.4193668E-2,3.6465075E-2,1.20598055E-1],"split_indices":[71,53,64,84,70,1,51,50,0,88,11,0,70,0,0,0,0,0,0,95,95,0,24,0,0,0,0,0,0],"split_type":[0,0,0,0,0,0,0,0,0,0,0,0,0,0,0,0,0,0,0,0,0,0,0,0,0,0,0,0,0],"sum_hessian":[1.37E2,1.11E2,2.6E1,1.3E1,9.8E1,1.7E1,9E0,1E1,3E0,8E0,9E1,3E0,1.4E1,3E0,6E0,4E0,6E0,5E0,3E0,6E0,8.4E1,5E0,9E0,3E0,3E0,5.9E1,2.5E1,3E0,6E0],"tree_param":{"num_deleted":"0","num_feature":"98","num_nodes":"29","size_leaf_vector":"1"}},{"base_weights":[2.142334E-1,-1.4596975E0,6.5250616E0,3.1903808E0,-2.1227214E0,-2.0969009E-2,7.284087E0,4.301783E0,-4.7071077E-2,5.307953E-1,-3.1697862E0,5.0722704E0,1.075813E1,2.9669294E-1,1.1441606E-1,-1.0634352E0,1.8124677E0,-6.3642993E0,-9.6967095E-1,3.4563358E0,3.998703E-1,2.807602E-1,6.080035E-1,1.1479187E-2,-1.0309487E-1,1.5537904E-1,5.8746338E-2,-2.2862208E-1,-5.018626E-1,1.4035672E-1,-1.5751116E-1,2.6651308E-1,1.0868698E-1],"categories":[],"categories_nodes":[],"categories_segments":[],"categories_sizes":[],"default_left":[0,0,0,0,0,0,0,0,0,0,0,0,0,0,0,0,0,0,0,0,0,0,0,0,0,0,0,0,0,0,0,0,0],"id":26,"left_children":[1,3,5,7,9,-1,11,13,-1,15,17,19,21,-1,-1,23,25,27,29,31,-1,-1,-1,-1,-1,-1,-1,-1,-1,-1,-1,-1,-1],"loss_changes":[1.5624164E3,3.6749658E2,1.6645605E2,7.293123E1,2.8785812E2,0E0,1.6058252E2,2.5854874E1,0E0,6.3225876E1,5.1392285E2,6.216803E1,3.81958E0,0E0,0E0,1.8547806E1,1.0385506E1,1.5154749E2,3.794416E2,2.2062271E1,0E0,0E0,0E0,0E0,0E0,0E0,0E0,0E0,0E0,0E0,0E0,0E0,0E0],"parents":[2147483647,0,0,1,1,2,2,3,3,4,4,6,6,7,7,9,9,10,10,11,11,12,12,15,15,16,16,17,17,18,18,19,19],"right_children":[2,4,6,8,10,-1,12,14,-1,16,18,20,22,-1,-1,24,26,28,30,32,-1,-1,-1,-1,-1,-1,-1,-1,-1,-1,-1,-1,-1],"split_conditions":[5.1591E2,3.3674E6,3.1835E6,4.9716E2,4.8655E2,-2.0969009E-2,5.36E2,3.5195E6,-4.7071077E-2,4.7835E2,4.9353E2,6.3153E6,5.273E2,2.9669294E-1,1.1441606E-1,4.7007E2,4.63E2,4.6788E6,5.0085E2,5.2008E2,3.998703E-1,2.807602E-1,6.080035E-1,1.1479187E-2,-1.0309487E-1,1.5537904E-1,5.8746338E-2,-2.2862208E-1,-5.018626E-1,1.4035672E-1,-1.5751116E-1,2.6651308E-1,1.0868698E-1],"split_indices":[78,67,39,92,1,0,78,11,0,29,3,67,36,0,0,42,93,25,0,77,0,0,0,0,0,0,0,0,0,0,0,0,0],"split_type":[0,0,0,0,0,0,0,0,0,0,0,0,0,0,0,0,0,0,0,0,0,0,0,0,0,0,0,0,0,0,0,0,0],"sum_hessian":[1.46E2,1.16E2,3E1,1.4E1,1.02E2,3E0,2.7E1,1.1E1,3E0,2.9E1,7.3E1,1.8E1,9E0,5E0,6E0,1.3E1,1.6E1,2.9E1,4.4E1,1.3E1,5E0,3E0,6E0,6E0,7E0,4E0,1.2E1,2.1E1,8E0,1.6E1,2.8E1,4E0,9E0],"tree_param":{"num_deleted":"0","num_feature":"98","num_nodes":"33","size_leaf_vector":"1"}},{"base_weights":[2.5549033E-1,-1.2255356E0,6.4992485E0,2.920726E0,-1.9322796E0,4.783918E0,4.6991816E-1,5.6834774E0,-1.8379866E0,2.5215688E0,-2.5830674E0,1.6164246E0,6.1214976E0,3.474327E0,4.340454E-1,-1.8680839E-1,2.5984574E-2,3.6404908E0,-4.5306396E-2,6.698665E-1,-4.0038366E0,1.2364464E-1,1.7792512E-2,3.6318284E-1,1.7891847E-1,6.786652E-2,2.2365296E-1,2.2563456E-1,6.020088E-2,-2.0652601E-2,1.2760666E-1,-3.451694E-1,-9.39521E-2],"categories":[],"categories_nodes":[],"categories_segments":[],"categories_sizes":[],"default_left":[0,0,0,0,0,0,0,0,0,0,0,0,0,0,0,0,0,0,0,0,0,0,0,0,0,0,0,0,0,0,0,0,0],"id":27,"left_children":[1,3,5,7,9,11,-1,13,15,17,19,21,23,25,-1,-1,-1,27,-1,29,31,-1,-1,-1,-1,-1,-1,-1,-1,-1,-1,-1,-1],"loss_changes":[1.3025685E3,3.3970306E2,8.930835E1,2.3394753E2,2.9056735E2,7.060379E1,0E0,4.267923E1,3.326876E1,5.3157967E1,4.001455E2,6.677513E0,1.1768494E1,1.0843086E1,0E0,0E0,0E0,1.5817566E1,0E0,5.6089386E1,3.566853E2,0E0,0E0,0E0,0E0,0E0,0E0,0E0,0E0,0E0,0E0,0E0,0E0],"parents":[2147483647,0,0,1,1,2,2,3,3,4,4,5,5,7,7,8,8,9,9,10,10,11,11,12,12,13,13,17,17,19,19,20,20],"right_children":[2,4,6,8,10,12,-1,14,16,18,20,22,24,26,-1,-1,-1,28,-1,30,32,-1,-1,-1,-1,-1,-1,-1,-1,-1,-1,-1,-1],"split_conditions":[5.16E2,3.4415E6,5.36E2,4.9716E2,3.2448E6,5.231E2,4.6991816E-1,3.9332E6,4.2051E6,4.9716E2,4.8348E2,5.1165E2,5.2008E2,4.8854E2,4.340454E-1,-1.8680839E-1,2.5984574E-2,4.9775E2,-4.5306396E-2,4.7835E2,4.923E2,1.2364464E-1,1.7792512E-2,3.6318284E-1,1.7891847E-1,6.786652E-2,2.2365296E-1,2.2563456E-1,6.020088E-2,-2.0652601E-2,1.2760666E-1,-3.451694E-1,-9.39521E-2],"split_indices":[92,39,92,71,67,0,0,81,25,92,3,9,91,65,0,0,0,58,0,28,92,0,0,0,0,0,0,0,0,0,0,0,0],"split_type":[0,0,0,0,0,0,0,0,0,0,0,0,0,0,0,0,0,0,0,0,0,0,0,0,0,0,0,0,0,0,0,0,0],"sum_hessian":[1.39E2,1.13E2,2.6E1,1.6E1,9.7E1,1.8E1,8E0,1E1,6E0,1.2E1,8.5E1,6E0,1.2E1,7E0,3E0,3E0,3E0,9E0,3E0,2.6E1,5.9E1,3E0,3E0,7E0,5E0,3E0,4E0,6E0,3E0,1.7E1,9E0,2.4E1,3.5E1],"tree_param":{"num_deleted":"0","num_feature":"98","num_nodes":"33","size_leaf_vector":"1"}},{"base_weights":[-3.4168217E-2,-1.4011768E0,5.53273E0,3.1725078E0,-2.0732179E0,-4.151497E-2,6.3295054E0,4.8671327E0,-9.030915E-3,2.7460854E0,-2.639208E0,4.6180725E-2,7.02469E0,2.9900157E-1,1.2791137E-1,1.5475006E0,2.2283669E-1,1.8857142E0,-3.2931302E0,4.6365314E0,5.312201E-1,9.415223E-2,3.7059784E-2,1.552906E-1,-2.217926E-2,1.9319423E-3,-2.0699535E-1,1.1404343E-1,3.206314E-1],"categories":[],"categories_nodes":[],"categories_segments":[],"categories_sizes":[],"default_left":[0,0,0,0,0,0,0,0,0,0,0,0,0,0,0,0,0,0,0,0,0,0,0,0,0,0,0,0,0],"id":28,"left_children":[1,3,5,7,9,-1,11,13,-1,15,17,-1,19,-1,-1,21,-1,23,25,27,-1,-1,-1,-1,-1,-1,-1,-1,-1],"loss_changes":[1.0807621E3,3.569795E2,1.472127E2,8.6113464E1,2.8001538E2,0E0,8.746423E1,1.0397507E1,0E0,1.5657127E1,2.7251514E2,0E0,1.398667E2,0E0,0E0,7.6870155E-1,0E0,3.5481373E1,2.2304004E2,4.8131927E1,0E0,0E0,0E0,0E0,0E0,0E0,0E0,0E0,0E0],"parents":[2147483647,0,0,1,1,2,2,3,3,4,4,6,6,7,7,9,9,10,10,12,12,15,15,17,17,18,18,19,19],"right_children":[2,4,6,8,10,-1,12,14,-1,16,18,-1,20,-1,-1,22,-1,24,26,28,-1,-1,-1,-1,-1,-1,-1,-1,-1],"split_conditions":[5.16E2,3.2448E6,3.1835E6,4.9377E2,4.7304E2,-4.151497E-2,3.1835E6,4.941E2,-9.030915E-3,4.817E2,3.3306E6,4.6180725E-2,5.3329E2,2.9900157E-1,1.2791137E-1,4.2051E6,2.2283669E-1,5.0014E2,4.7583E2,5.2875E6,5.312201E-1,9.415223E-2,3.7059784E-2,1.552906E-1,-2.217926E-2,1.9319423E-3,-2.0699535E-1,1.1404343E-1,3.206314E-1],"split_indices":[78,60,18,91,77,0,60,52,0,31,74,0,78,0,0,4,0,85,2,74,0,0,0,0,0,0,0,0,0],"split_type":[0,0,0,0,0,0,0,0,0,0,0,0,0,0,0,0,0,0,0,0,0,0,0,0,0,0,0,0,0],"sum_hessian":[1.4E2,1.13E2,2.7E1,1.4E1,9.9E1,3E0,2.4E1,9E0,5E0,1E1,8.9E1,3E0,2.1E1,5E0,4E0,7E0,3E0,1.1E1,7.8E1,1.4E1,7E0,4E0,3E0,7E0,4E0,1.6E1,6.2E1,7E0,7E0],"tree_param":{"num_deleted":"0","num_feature":"98","num_nodes":"29","size_leaf_vector":"1"}},{"base_weights":[3.43692E-1,-1.1854688E0,5.5416555E0,2.424118E0,-1.8788067E0,3.728933E0,8.663314E0,5.356337E0,-1.9106979E0,1.7821285E0,-2.5037978E0,-3.9958574E-2,4.4859586E0,1.2542878E-1,5.328884E-1,3.6636353E-1,1.2463404E-1,-2.2341537E-1,2.5876466E-2,5.531494E-1,1.9418304E-1,4.6594474E-1,-3.8873072E0,5.836245E0,1.8997841E0,7.455924E-2,-6.1334994E-2,-2.1934869E-2,9.786209E-2,-4.773512E-1,-1.3477322E-1,3.3048183E-1,1.3185273E-1,5.048256E-2,1.1159668E-1],"categories":[],"categories_nodes":[],"categories_segments":[],"categories_sizes":[],"default_left":[0,0,0,0,0,0,0,0,0,0,0,0,0,0,0,0,0,0,0,0,0,0,0,0,0,0,0,0,0,0,0,0,0,0,0],"id":29,"left_children":[1,3,5,7,9,11,13,15,17,19,21,-1,23,-1,-1,-1,-1,-1,-1,25,-1,27,29,31,33,-1,-1,-1,-1,-1,-1,-1,-1,-1,-1],"loss_changes":[1.1193625E3,2.773448E2,1.4877344E2,2.390257E2,2.1496286E2,7.899866E1,1.0829297E2,4.3820312E1,5.199614E1,3.4010117E1,3.2639594E2,0E0,5.526184E1,0E0,0E0,0E0,0E0,0E0,0E0,1.8524853E1,0E0,3.593498E1,3.3852295E2,1.2260742E1,1.1178398E-1,0E0,0E0,0E0,0E0,0E0,0E0,0E0,0E0,0E0,0E0],"parents":[2147483647,0,0,1,1,2,2,3,3,4,4,5,5,6,6,7,7,8,8,9,9,10,10,12,12,19,19,21,21,22,22,23,23,24,24],"right_children":[2,4,6,8,10,12,14,16,18,20,22,-1,24,-1,-1,-1,-1,-1,-1,26,-1,28,30,32,34,-1,-1,-1,-1,-1,-1,-1,-1,-1,-1],"split_conditions":[5.16E2,3.4415E6,5.36E2,4.4823E6,3.3674E6,3.1835E6,5.3329E2,4.9154E2,3.7487E6,4.7685E6,4.8348E2,-3.9958574E-2,5.275E2,1.2542878E-1,5.328884E-1,3.6636353E-1,1.2463404E-1,-2.2341537E-1,2.5876466E-2,4.6636E6,1.9418304E-1,4.796E2,4.796E2,9.1531E6,5.3434E6,7.455924E-2,-6.1334994E-2,-2.1934869E-2,9.786209E-2,-4.773512E-1,-1.3477322E-1,3.3048183E-1,1.3185273E-1,5.048256E-2,1.1159668E-1],"split_indices":[78,46,78,11,74,18,71,80,32,88,3,0,77,0,0,0,0,0,0,32,0,29,92,11,18,0,0,0,0,0,0,0,0,0,0],"split_type":[0,0,0,0,0,0,0,0,0,0,0,0,0,0,0,0,0,0,0,0,0,0,0,0,0,0,0,0,0,0,0,0,0,0,0],"sum_hessian":[1.39E2,1.08E2,3.1E1,1.7E1,9.1E1,2.1E1,1E1,1E1,7E0,1.3E1,7.8E1,3E0,1.8E1,3E0,7E0,5E0,5E0,3E0,4E0,9E0,4E0,2.5E1,5.3E1,1.1E1,7E0,6E0,3E0,1.6E1,9E0,8E0,4.5E1,8E0,3E0,3E0,4E0],"tree_param":{"num_deleted":"0","num_feature":"98","num_nodes":"35","size_leaf_vector":"1"}},{"base_weights":[2.1858753E-1,-1.2325157E0,5.173373E0,3.8148832E0,-1.7980248E0,-4.600525E-2,5.859107E0,3.1626457E-1,-2.3133239E-2,6.6713005E-1,-2.723184E0,2.281705E0,7.719791E0,-6.129761E-1,2.0928578E0,-5.771748E0,-1.0071564E0,2.0420928E-1,6.682609E-1,7.142029E-2,8.882841E0,-7.906663E-2,5.515569E-2,1.3720137E-1,5.7135444E-2,-1.4600201E-1,-3.3592606E-1,9.4205074E-2,-1.6518332E-1,-9.952927E-3,6.842575E-2,2.1397033E-1,5.08389E-1],"categories":[],"categories_nodes":[],"categories_segments":[],"categories_sizes":[],"default_left":[0,0,0,0,0,0,0,0,0,0,0,0,0,0,0,0,0,0,0,0,0,0,0,0,0,0,0,0,0,0,0,0,0],"id":30,"left_children":[1,3,5,7,9,-1,11,-1,-1,13,15,17,19,21,23,25,27,-1,29,-1,31,-1,-1,-1,-1,-1,-1,-1,-1,-1,-1,-1,-1],"loss_changes":[9.8420337E2,3.0942035E2,1.3492462E2,1.210488E2,2.2076016E2,0E0,1.6876532E2,0E0,0E0,5.0560116E1,3.6038635E2,2.9260921E1,1.1902124E2,2.6671186E1,4.9075813E0,4.787964E1,3.1165536E2,0E0,4.523823E0,0E0,4.5214966E1,0E0,0E0,0E0,0E0,0E0,0E0,0E0,0E0,0E0,0E0,0E0,0E0],"parents":[2147483647,0,0,1,1,2,2,3,3,4,4,6,6,9,9,10,10,11,11,12,12,13,13,14,14,15,15,16,16,18,18,20,20],"right_children":[2,4,6,8,10,-1,12,-1,-1,14,16,18,20,22,24,26,28,-1,30,-1,32,-1,-1,-1,-1,-1,-1,-1,-1,-1,-1,-1,-1],"split_conditions":[5.21E2,3.2448E6,3.1835E6,4.941E2,4.8608E2,-4.600525E-2,5.2393E2,3.1626457E-1,-2.3133239E-2,4.7941E2,4.9298E2,4.9856E2,3.1835E6,4.5959E6,4.3859E6,4.8577E2,4.9351E2,2.0420928E-1,4.2947E6,7.142029E-2,5.2471E2,-7.906663E-2,5.515569E-2,1.3720137E-1,5.7135444E-2,-1.4600201E-1,-3.3592606E-1,9.4205074E-2,-1.6518332E-1,-9.952927E-3,6.842575E-2,2.1397033E-1,5.08389E-1],"split_indices":[36,53,25,87,8,0,57,0,0,29,64,65,53,25,32,21,37,0,4,0,36,0,0,0,0,0,0,0,0,0,0,0,0],"split_type":[0,0,0,0,0,0,0,0,0,0,0,0,0,0,0,0,0,0,0,0,0,0,0,0,0,0,0,0,0,0,0,0,0],"sum_hessian":[1.35E2,1.05E2,3E1,1E1,9.5E1,3E0,2.7E1,6E0,4E0,2.6E1,6.9E1,1E1,1.7E1,1.4E1,1.2E1,2.4E1,4.5E1,4E0,6E0,3E0,1.4E1,9E0,5E0,6E0,6E0,7E0,1.7E1,2E1,2.5E1,3E0,3E0,4E0,1E1],"tree_param":{"num_deleted":"0","num_feature":"98","num_nodes":"33","size_leaf_vector":"1"}}]},"name":"gbtree"},"learner_model_param":{"base_score":"[4.938121E2]","boost_from_average":"1","num_class":"0","num_feature":"98","num_target":"1"},"objective":{"name":"reg:squarederror","reg_loss_param":{"scale_pos_weight":"1"}}},"version":[3,2,0]}