{"learner":{"attributes":{"best_iteration":"43","best_score":"7.2248760927279125"},"feature_names":[],"feature_types":[],"gradient_booster":{"model":{"cats":{"enc":[],"feature_segments":[],"sorted_idx":[]},"gbtree_model_param":{"num_parallel_tree":"1","num_trees":"74"},"iteration_indptr":[0,1,2,3,4,5,6,7,8,9,10,11,12,13,14,15,16,17,18,19,20,21,22,23,24,25,26,27,28,29,30,31,32,33,34,35,36,37,38,39,40,41,42,43,44,45,46,47,48,49,50,51,52,53,54,55,56,57,58,59,60,61,62,63,64,65,66,67,68,69,70,71,72,73,74],"tree_info":[0,0,0,0,0,0,0,0,0,0,0,0,0,0,0,0,0,0,0,0,0,0,0,0,0,0,0,0,0,0,0,0,0,0,0,0,0,0,0,0,0,0,0,0,0,0,0,0,0,0,0,0,0,0,0,0,0,0,0,0,0,0,0,0,0,0,0,0,0,0,0,0,0,0],"trees":[{"base_weights":[-6.6079184E-2,-8.152623E0,2.0644976E1,-1.7829388E1,-2.6251283E0,1.269042E1,2.693798E1,-2.826833E-1,-1.950287E1,-5.991359E0,1.3491116E0,1.5431034E1,-1.0648956E-1,4.784002E-1,1.5741986E0,-1.1255755E1,-1.1063274E0,-8.347076E0,-3.0410428E0,3.5418315E0,-1.7230879E0,4.3014985E-1,8.779567E-1,-2.8124008E-1,-6.4327395E-1,-4.8021278E-1,-4.586487E-2,-1.8983185E-1,2.7634813E-2,2.276063E-1,-6.924019E-2,-1.6342732E-1,1.4788476E-1],"categories":[],"categories_nodes":[],"categories_segments":[],"categories_sizes":[],"default_left":[0,0,0,0,0,0,0,0,0,0,0,0,0,0,0,0,0,0,0,0,0,0,0,0,0,0,0,0,0,0,0,0,0],"id":0,"left_children":[1,3,5,7,9,11,13,-1,15,17,19,21,-1,-1,-1,23,-1,25,27,29,31,-1,-1,-1,-1,-1,-1,-1,-1,-1,-1,-1,-1],"loss_changes":[2.4453033E4,5.5694634E3,1.7105254E3,6.6401953E2,9.1780133E2,8.4519434E2,1.4359639E3,0E0,4.6499512E2,2.3177039E2,2.2167001E2,9.596167E1,0E0,0E0,0E0,1.82771E1,0E0,1.7800122E2,5.0975754E1,1.0087349E2,1.1094274E2,0E0,0E0,0E0,0E0,0E0,0E0,0E0,0E0,0E0,0E0,0E0,0E0],"parents":[2147483647,0,0,1,1,2,2,3,3,4,4,5,5,6,6,8,8,9,9,10,10,11,11,15,15,17,17,18,18,19,19,20,20],"right_children":[2,4,6,8,10,12,14,-1,16,18,20,22,-1,-1,-1,24,-1,26,28,30,32,-1,-1,-1,-1,-1,-1,-1,-1,-1,-1,-1,-1],"split_conditions":[5.1185E2,4.8172E2,4.9778E6,3.4415E6,4.9354E2,5.36E2,5.1591E2,-2.826833E-1,4.7062E2,4.9314E2,4.959E2,5.203E2,-1.0648956E-1,4.784002E-1,1.5741986E0,4.74E2,-1.1063274E0,6.0886E6,4.6931E6,5.0016E2,4.9973E6,4.3014985E-1,8.779567E-1,-2.8124008E-1,-6.4327395E-1,-4.8021278E-1,-4.586487E-2,-1.8983185E-1,2.7634813E-2,2.276063E-1,-6.924019E-2,-1.6342732E-1,1.4788476E-1],"split_indices":[57,93,25,46,94,92,85,0,65,85,35,71,0,0,0,21,0,4,11,70,39,0,0,0,0,0,0,0,0,0,0,0,0],"split_type":[0,0,0,0,0,0,0,0,0,0,0,0,0,0,0,0,0,0,0,0,0,0,0,0,0,0,0,0,0,0,0,0,0],"sum_hessian":[1.44E2,1.04E2,4E1,3.7E1,6.7E1,1.9E1,2.1E1,5E0,3.2E1,3.6E1,3.1E1,1.6E1,3E0,5E0,1.6E1,9E0,2.3E1,1.9E1,1.7E1,1.8E1,1.3E1,5E0,1.1E1,3E0,6E0,1.6E1,3E0,1.4E1,3E0,1.5E1,3E0,1E1,3E0],"tree_param":{"num_deleted":"0","num_feature":"98","num_nodes":"33","size_leaf_vector":"1"}},{"base_weights":[-5.764125E-1,-7.3933787E0,2.0492935E1,-1.707559E1,-2.0943174E0,1.6262864E0,1.6168667E1,-1.8448772E1,-2.2987334E-1,-6.256575E0,1.2678442E0,-1.0249672E-1,1.8531406E1,-1.1617328E1,-1.0668218E0,-8.804079E0,-2.9522989E0,5.6359186E0,-4.120464E-2,4.0522486E-1,1.0424389E0,-2.706932E-1,-6.541804E-1,-5.399771E-1,-9.275299E-2,8.262329E-3,-2.0504873E-1,3.308154E-1,1.3781777E-1,-1.2704583E-1,7.303413E-2],"categories":[],"categories_nodes":[],"categories_segments":[],"categories_sizes":[],"default_left":[0,0,0,0,0,0,0,0,0,0,0,0,0,0,0,0,0,0,0,0,0,0,0,0,0,0,0,0,0,0,0],"id":1,"left_children":[1,3,5,7,9,-1,11,13,-1,15,17,-1,19,21,-1,23,25,27,29,-1,-1,-1,-1,-1,-1,-1,-1,-1,-1,-1,-1],"loss_changes":[1.9972318E4,5.3514346E3,1.2432246E3,5.4916797E2,9.735309E2,0E0,1.2002251E3,4.031162E2,0E0,2.3495508E2,2.2323514E2,0E0,4.1094434E2,3.8319458E1,0E0,2.1569678E2,5.4393387E1,7.1709595E0,1.2009432E2,0E0,0E0,0E0,0E0,0E0,0E0,0E0,0E0,0E0,0E0,0E0,0E0],"parents":[2147483647,0,0,1,1,2,2,3,3,4,4,6,6,7,7,9,9,10,10,12,12,13,13,15,15,16,16,17,17,18,18],"right_children":[2,4,6,8,10,-1,12,14,-1,16,18,-1,20,22,-1,24,26,28,30,-1,-1,-1,-1,-1,-1,-1,-1,-1,-1,-1,-1],"split_conditions":[5.1575E2,4.8505E2,4.9947E2,4.8903E2,4.9221E2,1.6262864E0,5.15E2,4.777E2,-2.2987334E-1,4.9314E2,4.9527E2,-1.0249672E-1,4.3856E6,4.74E2,-1.0668218E0,6.0886E6,3.1668E6,4.995E2,4.9774E2,4.0522486E-1,1.0424389E0,-2.706932E-1,-6.541804E-1,-5.399771E-1,-9.275299E-2,8.262329E-3,-2.0504873E-1,3.308154E-1,1.3781777E-1,-1.2704583E-1,7.303413E-2],"split_indices":[36,94,9,30,94,0,0,57,0,85,71,0,95,21,0,4,81,0,92,0,0,0,0,0,0,0,0,0,0,0,0],"split_type":[0,0,0,0,0,0,0,0,0,0,0,0,0,0,0,0,0,0,0,0,0,0,0,0,0,0,0,0,0,0,0],"sum_hessian":[1.37E2,1.04E2,3.3E1,3.6E1,6.8E1,7E0,2.6E1,3.2E1,4E0,3E1,3.8E1,3E0,2.3E1,1.1E1,2.1E1,1.6E1,1.4E1,8E0,3E1,5E0,1.8E1,3E0,8E0,1.2E1,4E0,4E0,1E1,5E0,3E0,1.1E1,1.9E1],"tree_param":{"num_deleted":"0","num_feature":"98","num_nodes":"31","size_leaf_vector":"1"}},{"base_weights":[4.5365263E-2,-7.2215047E0,2.0077131E1,-1.6025393E1,-2.3832734E0,1.0614378E1,2.6046537E1,-2.5893402E-1,-1.760781E1,-6.1462116E0,8.3387136E-1,1.3670943E1,-9.865265E-2,3.64777E-1,1.4311622E0,-2.605423E-1,-1.8749952E1,-7.8200507E0,-2.391954E0,2.9077413E0,-2.0698166E0,3.232174E-1,7.593244E-1,-1.1837958E0,-7.585251E-1,3.6901094E-2,-4.6436986E-1,-3.730194E-2,-1.61295E-1,2.5217828E-1,3.537954E-2,-1.8244146E-1,1.0668885E-1],"categories":[],"categories_nodes":[],"categories_segments":[],"categories_sizes":[],"default_left":[0,0,0,0,0,0,0,0,0,0,0,0,0,0,0,0,0,0,0,0,0,0,0,0,0,0,0,0,0,0,0,0,0],"id":2,"left_children":[1,3,5,7,9,11,13,-1,15,17,19,21,-1,-1,-1,-1,23,25,27,29,31,-1,-1,-1,-1,-1,-1,-1,-1,-1,-1,-1,-1],"loss_changes":[2.0233404E4,4.306523E3,1.8135527E3,5.267178E2,8.1622156E2,6.425624E2,8.5412695E2,0E0,3.412295E2,1.7609961E2,2.2882773E2,4.3813965E1,0E0,0E0,0E0,0E0,1.3452734E2,2.705652E2,1.2692005E1,9.9812164E1,1.1398622E2,0E0,0E0,0E0,0E0,0E0,0E0,0E0,0E0,0E0,0E0,0E0,0E0],"parents":[2147483647,0,0,1,1,2,2,3,3,4,4,5,5,6,6,8,8,9,9,10,10,11,11,16,16,17,17,18,18,19,19,20,20],"right_children":[2,4,6,8,10,12,14,-1,16,18,20,22,-1,-1,-1,-1,24,26,28,30,32,-1,-1,-1,-1,-1,-1,-1,-1,-1,-1,-1,-1],"split_conditions":[5.1379E2,4.8172E2,4.9778E6,3.4415E6,4.9221E2,5.3592E2,5.1379E2,-2.5893402E-1,4.692E2,4.895E2,4.9592E2,5.1591E2,-9.865265E-2,3.64777E-1,1.4311622E0,-2.605423E-1,4.796E2,4.692E2,4.9597E2,4.8811E2,4.9456E6,3.232174E-1,7.593244E-1,-1.1837958E0,-7.585251E-1,3.6901094E-2,-4.6436986E-1,-3.730194E-2,-1.61295E-1,2.5217828E-1,3.537954E-2,-1.8244146E-1,1.0668885E-1],"split_indices":[50,93,25,46,94,92,92,0,35,86,45,71,0,0,0,0,1,0,52,58,39,0,0,0,0,0,0,0,0,0,0,0,0],"split_type":[0,0,0,0,0,0,0,0,0,0,0,0,0,0,0,0,0,0,0,0,0,0,0,0,0,0,0,0,0,0,0,0,0],"sum_hessian":[1.37E2,1.01E2,3.6E1,3.5E1,6.6E1,1.5E1,2.1E1,5E0,3E1,3E1,3.6E1,1.2E1,3E0,3E0,1.8E1,3E0,2.7E1,2E1,1E1,2.1E1,1.5E1,3E0,9E0,9E0,1.8E1,3E0,1.7E1,4E0,6E0,1E1,1.1E1,1.1E1,4E0],"tree_param":{"num_deleted":"0","num_feature":"98","num_nodes":"33","size_leaf_vector":"1"}},{"base_weights":[7.5644976E-1,-6.9596014E0,1.7606504E1,-1.22360735E1,-6.855177E-1,1.432799E0,1.4262168E1,-9.249795E-1,-9.834489E0,2.4929829E0,-2.590839E0,5.385587E0,1.8106201E1,-1.0929387E1,-4.225586E0,2.3688217E-1,-6.2446594E-1,-3.3971813E-1,-1.3816223E0,8.024807E0,-9.495278E-2,1.1631245E1,1.0950183E0,-6.5973634E-1,-3.537164E-1,-2.9935724E-1,-9.85611E-2,-1.2693818E-1,9.622612E-2,7.7425644E-2,-1.5237977E-1,2.1071243E-1,4.6138558E-1,2.952732E-1,6.520115E-1],"categories":[],"categories_nodes":[],"categories_segments":[],"categories_sizes":[],"default_left":[0,0,0,0,0,0,0,0,0,0,0,0,0,0,0,0,0,0,0,0,0,0,0,0,0,0,0,0,0,0,0,0,0,0,0],"id":3,"left_children":[1,3,5,7,9,-1,11,-1,13,15,17,19,21,23,25,-1,27,-1,29,31,-1,33,-1,-1,-1,-1,-1,-1,-1,-1,-1,-1,-1,-1,-1],"loss_changes":[1.7804693E4,3.1034849E3,1.18029E3,5.8522656E2,2.7292575E2,0E0,1.0967529E3,0E0,1.9332251E2,1.2191795E2,1.3293591E2,2.4594891E2,3.3488184E2,1.8611304E2,1.996756E1,0E0,4.3922085E1,0E0,1.1699433E2,2.3657837E0,0E0,1.1734375E1,0E0,0E0,0E0,0E0,0E0,0E0,0E0,0E0,0E0,0E0,0E0,0E0,0E0],"parents":[2147483647,0,0,1,1,2,2,3,3,4,4,6,6,8,8,9,9,10,10,11,11,12,12,13,13,14,14,16,16,18,18,19,19,21,21],"right_children":[2,4,6,8,10,-1,12,-1,14,16,18,20,22,24,26,-1,28,-1,30,32,-1,34,-1,-1,-1,-1,-1,-1,-1,-1,-1,-1,-1,-1,-1],"split_conditions":[5.0978E2,4.9279E2,4.9947E2,4.7864E2,4.9285E2,1.432799E0,5.2658E2,-9.249795E-1,4.9125E2,4.9803E2,4.9442E2,5.3313E2,5.2141E2,4.5959E6,4.9113E2,2.3688217E-1,4.8724E2,-3.3971813E-1,4.9875E2,5.1077E2,-9.495278E-2,5.1304E2,1.0950183E0,-6.5973634E-1,-3.537164E-1,-2.9935724E-1,-9.85611E-2,-1.2693818E-1,9.622612E-2,7.7425644E-2,-1.5237977E-1,2.1071243E-1,4.6138558E-1,2.952732E-1,6.520115E-1],"split_indices":[50,92,9,92,17,0,1,0,37,70,57,71,57,25,52,0,14,0,45,9,0,30,0,0,0,0,0,0,0,0,0,0,0,0,0],"split_type":[0,0,0,0,0,0,0,0,0,0,0,0,0,0,0,0,0,0,0,0,0,0,0,0,0,0,0,0,0,0,0,0,0,0,0],"sum_hessian":[1.35E2,9.3E1,4.2E1,5E1,4.3E1,8E0,3.4E1,1.2E1,3.8E1,1.6E1,2.7E1,1.1E1,2.3E1,3.1E1,7E0,9E0,7E0,5E0,2.2E1,8E0,3E0,1E1,1.3E1,1.8E1,1.3E1,3E0,4E0,4E0,3E0,8E0,1.4E1,3E0,5E0,3E0,7E0],"tree_param":{"num_deleted":"0","num_feature":"98","num_nodes":"35","size_leaf_vector":"1"}},{"base_weights":[5.624973E-2,-6.2395363E0,1.645695E1,-1.3582877E1,-2.0114145E0,4.1892537E-1,1.986321E1,-1.4008713E-1,-1.4478079E1,-5.2744355E0,3.5997972E-1,1.224087E1,2.5522297E1,-1.5294165E1,-2.3689575E-1,-7.2168655E0,-2.2449925E0,3.3270142E0,-1.509416E0,7.595903E-1,9.016571E-2,1.3902721E0,6.431538E-1,-4.7264525E-1,-8.4942913E-1,-4.339326E-1,-3.309212E-2,4.605446E-2,-1.7013483E-1,2.4194543E-1,-3.3227842E-2,-1.4204477E-1,2.9402415E-3],"categories":[],"categories_nodes":[],"categories_segments":[],"categories_sizes":[],"default_left":[0,0,0,0,0,0,0,0,0,0,0,0,0,0,0,0,0,0,0,0,0,0,0,0,0,0,0,0,0,0,0,0,0],"id":4,"left_children":[1,3,5,7,9,-1,11,-1,13,15,17,19,21,23,-1,25,27,29,31,-1,-1,-1,-1,-1,-1,-1,-1,-1,-1,-1,-1,-1,-1],"loss_changes":[1.4145404E4,3.0464846E3,8.792334E2,3.0688184E2,4.971249E2,0E0,8.091084E2,0E0,1.8984863E2,1.426792E2,2.1579118E2,3.7301184E2,4.6976562E1,1.3633447E2,0E0,1.4756885E2,4.711881E1,9.3738266E1,5.028035E1,0E0,0E0,0E0,0E0,0E0,0E0,0E0,0E0,0E0,0E0,0E0,0E0,0E0,0E0],"parents":[2147483647,0,0,1,1,2,2,3,3,4,4,6,6,8,8,9,9,10,10,11,11,12,12,13,13,15,15,16,16,17,17,18,18],"right_children":[2,4,6,8,10,-1,12,-1,14,16,18,20,22,24,-1,26,28,30,32,-1,-1,-1,-1,-1,-1,-1,-1,-1,-1,-1,-1,-1,-1],"split_conditions":[5.0978E2,4.8505E2,5.21E2,3.3674E6,4.9221E2,4.1892537E-1,4.914E6,-1.4008713E-1,4.8923E2,4.9314E2,4.9105E2,5.2468E2,5.3023E2,4.7596E2,-2.3689575E-1,6.368E6,3.1668E6,4.9803E2,3.8735E6,7.595903E-1,9.016571E-2,1.3902721E0,6.431538E-1,-4.7264525E-1,-8.4942913E-1,-4.339326E-1,-3.309212E-2,4.605446E-2,-1.7013483E-1,2.4194543E-1,-3.3227842E-2,-1.4204477E-1,2.9402415E-3],"split_indices":[64,94,71,53,94,0,25,0,9,85,28,93,66,64,0,4,81,70,46,0,0,0,0,0,0,0,0,0,0,0,0,0,0],"split_type":[0,0,0,0,0,0,0,0,0,0,0,0,0,0,0,0,0,0,0,0,0,0,0,0,0,0,0,0,0,0,0,0,0],"sum_hessian":[1.35E2,9.8E1,3.7E1,3.5E1,6.3E1,1.2E1,2.5E1,3E0,3.2E1,2.6E1,3.7E1,1.2E1,1.3E1,2.9E1,3E0,1.5E1,1.1E1,1.4E1,2.3E1,9E0,3E0,1E1,3E0,8E0,2.1E1,1.2E1,3E0,3E0,8E0,1E1,4E0,1.2E1,1.1E1],"tree_param":{"num_deleted":"0","num_feature":"98","num_nodes":"33","size_leaf_vector":"1"}},{"base_weights":[5.632594E-1,-5.883732E0,1.6827831E1,-1.2470943E1,-9.831584E-1,9.951508E0,2.1477657E1,-1.4380874E1,-6.957191E0,-3.307613E0,2.310404E0,1.2447271E1,-9.4774246E-2,3.7786764E-1,2.4924555E1,-2.2519593E-1,-1.5677315E1,-1.2112427E-1,-4.0376768E-1,1.04599E-1,-4.071818E0,4.4158688E0,6.123698E-1,3.4689382E-1,7.254091E-1,1.3385743E0,5.883713E-1,-1.0003808E0,-6.5806645E-1,-4.7877756E-1,-1.3225585E-1,2.927005E-1,1.3788931E-1,-1.4830062E-1,1.6637574E-1],"categories":[],"categories_nodes":[],"categories_segments":[],"categories_sizes":[],"default_left":[0,0,0,0,0,0,0,0,0,0,0,0,0,0,0,0,0,0,0,0,0,0,0,0,0,0,0,0,0,0,0,0,0,0,0],"id":5,"left_children":[1,3,5,7,9,11,13,15,17,19,21,23,-1,-1,25,-1,27,-1,-1,-1,29,31,33,-1,-1,-1,-1,-1,-1,-1,-1,-1,-1,-1,-1],"loss_changes":[1.4779067E4,3.2481316E3,1.0652139E3,3.5277734E2,4.5933038E2,5.558048E2,9.152197E2,3.263423E2,4.6354675E1,1.5294196E2,8.667464E1,6.965967E1,0E0,0E0,1.2237598E2,0E0,3.0837402E1,0E0,0E0,0E0,2.1808911E2,1.0086014E1,1.5560683E2,0E0,0E0,0E0,0E0,0E0,0E0,0E0,0E0,0E0,0E0,0E0,0E0],"parents":[2147483647,0,0,1,1,2,2,3,3,4,4,5,5,6,6,7,7,8,8,9,9,10,10,11,11,14,14,16,16,20,20,21,21,22,22],"right_children":[2,4,6,8,10,12,14,16,18,20,22,24,-1,-1,26,-1,28,-1,-1,-1,30,32,34,-1,-1,-1,-1,-1,-1,-1,-1,-1,-1,-1,-1],"split_conditions":[5.1379E2,4.8814E2,4.9778E6,4.9E2,4.9298E2,5.3592E2,5.1591E2,4.7007E2,4.8183E2,4.7007E2,4.9659E2,5.1431E2,-9.4774246E-2,3.7786764E-1,5.3262E2,-2.2519593E-1,4.796E2,-1.2112427E-1,-4.0376768E-1,1.04599E-1,4.9221E2,4.8973E2,4.2129E6,3.4689382E-1,7.254091E-1,1.3385743E0,5.883713E-1,-1.0003808E0,-6.5806645E-1,-4.7877756E-1,-1.3225585E-1,2.927005E-1,1.3788931E-1,-1.4830062E-1,1.6637574E-1],"split_indices":[50,94,25,7,93,92,85,35,72,0,86,66,0,0,14,0,1,0,0,0,31,21,39,0,0,0,0,0,0,0,0,0,0,0,0],"split_type":[0,0,0,0,0,0,0,0,0,0,0,0,0,0,0,0,0,0,0,0,0,0,0,0,0,0,0,0,0,0,0,0,0,0,0],"sum_hessian":[1.39E2,1E2,3.9E1,4.2E1,5.8E1,1.7E1,2.2E1,3E1,1.2E1,3.4E1,2.4E1,1.4E1,3E0,5E0,1.7E1,4E0,2.6E1,3E0,9E0,4E0,3E1,1E1,1.4E1,5E0,9E0,1.4E1,3E0,7E0,1.9E1,5E0,2.5E1,4E0,6E0,6E0,8E0],"tree_param":{"num_deleted":"0","num_feature":"98","num_nodes":"35","size_leaf_vector":"1"}},{"base_weights":[-1.336263E-2,-6.2888536E0,1.5595252E1,-1.3300423E1,-2.465694E0,1.3309611E0,1.2351909E1,-2.0101166E-1,-1.4761827E1,-5.067819E0,4.677882E-1,6.4167037E0,1.475806E1,-8.180097E0,-1.7314602E1,6.6523366E-2,-5.729926E0,2.927895E0,-1.7304113E0,3.838415E-1,1.1461373E-1,3.4113514E-1,8.3453274E-1,-2.1549569E-1,-4.6115223E-1,-9.433376E-1,-5.2742285E-1,-3.9268586E-1,-1.4704844E-1,2.2746995E-1,-1.312968E-2,-1.6401847E-1,-2.9338215E-2],"categories":[],"categories_nodes":[],"categories_segments":[],"categories_sizes":[],"default_left":[0,0,0,0,0,0,0,0,0,0,0,0,0,0,0,0,0,0,0,0,0,0,0,0,0,0,0,0,0,0,0,0,0],"id":6,"left_children":[1,3,5,7,9,-1,11,-1,13,15,17,19,21,23,25,-1,27,29,31,-1,-1,-1,-1,-1,-1,-1,-1,-1,-1,-1,-1,-1,-1],"loss_changes":[1.3321559E4,2.567421E3,1.0656279E3,4.0176562E2,4.9090103E2,0E0,3.6229443E2,0E0,3.4561328E2,1.5165942E2,1.7270847E2,3.9572937E1,2.235122E2,6.135254E-1,1.1026855E1,0E0,1.6052051E2,7.879547E1,2.8209488E1,0E0,0E0,0E0,0E0,0E0,0E0,0E0,0E0,0E0,0E0,0E0,0E0,0E0,0E0],"parents":[2147483647,0,0,1,1,2,2,3,3,4,4,6,6,8,8,9,9,10,10,11,11,12,12,13,13,14,14,16,16,17,17,18,18],"right_children":[2,4,6,8,10,-1,12,-1,14,16,18,20,22,24,26,-1,28,30,32,-1,-1,-1,-1,-1,-1,-1,-1,-1,-1,-1,-1,-1,-1],"split_conditions":[5.0978E2,4.8172E2,4.9311E2,3.4415E6,4.8995E2,1.3309611E0,5.2658E2,-2.0101166E-1,4.7596E2,4.7007E2,4.9496E2,5.3329E2,5.16E2,4.74E2,4.8419E2,6.6523366E-2,4.9314E2,4.9659E2,3.4433E6,3.838415E-1,1.1461373E-1,3.4113514E-1,8.3453274E-1,-2.1549569E-1,-4.6115223E-1,-9.433376E-1,-5.2742285E-1,-3.9268586E-1,-1.4704844E-1,2.2746995E-1,-1.312968E-2,-1.6401847E-1,-2.9338215E-2],"split_indices":[64,93,2,46,93,0,1,0,64,0,38,64,64,21,51,0,85,86,32,0,0,0,0,0,0,0,0,0,0,0,0,0,0],"split_type":[0,0,0,0,0,0,0,0,0,0,0,0,0,0,0,0,0,0,0,0,0,0,0,0,0,0,0,0,0,0,0,0,0],"sum_hessian":[1.34E2,9.6E1,3.8E1,3.3E1,6.3E1,7E0,3.1E1,5E0,2.8E1,3.3E1,3E1,1E1,2.1E1,9E0,1.9E1,3E0,3E1,1.4E1,1.6E1,7E0,3E0,5E0,1.6E1,3E0,6E0,1.4E1,5E0,1.6E1,1.4E1,9E0,5E0,6E0,1E1],"tree_param":{"num_deleted":"0","num_feature":"98","num_nodes":"33","size_leaf_vector":"1"}},{"base_weights":[1.379109E-1,-5.629941E0,1.5768196E1,-1.1707959E1,-1.2531418E0,8.739572E0,2.1041864E1,-1.3277508E1,-5.934956E0,-4.3460946E0,7.332796E-1,1.0996916E1,-9.551811E-2,3.755249E-1,2.2879843E1,-2.1806717E-1,-1.4713918E1,-1.2632255E-1,-3.4486696E-1,-6.8590913E0,-2.3810241E0,2.8598857E0,-1.3236603E0,3.4166607E-1,6.5066934E-1,1.2272412E0,5.4581034E-1,-9.4737357E-1,-6.200236E-1,-4.3844125E-1,-9.011421E-2,3.412903E-2,-1.7785576E-1,1.8617602E-1,-6.5481186E-2,-1.266965E-1,1.4069672E-1],"categories":[],"categories_nodes":[],"categories_segments":[],"categories_sizes":[],"default_left":[0,0,0,0,0,0,0,0,0,0,0,0,0,0,0,0,0,0,0,0,0,0,0,0,0,0,0,0,0,0,0,0,0,0,0,0,0],"id":7,"left_children":[1,3,5,7,9,11,13,15,17,19,21,23,-1,-1,25,-1,27,-1,-1,29,31,33,35,-1,-1,-1,-1,-1,-1,-1,-1,-1,-1,-1,-1,-1,-1],"loss_changes":[1.2710217E4,2.7253616E3,1.2246357E3,3.1082178E2,3.7796527E2,4.537384E2,3.5043848E2,3.5846777E2,1.865738E1,1.0218555E2,1.7000896E2,3.7011963E1,0E0,0E0,9.0609375E1,0E0,3.9277344E1,0E0,0E0,8.07677E1,5.6474182E1,7.329413E1,1.0728241E2,0E0,0E0,0E0,0E0,0E0,0E0,0E0,0E0,0E0,0E0,0E0,0E0,0E0,0E0],"parents":[2147483647,0,0,1,1,2,2,3,3,4,4,5,5,6,6,7,7,8,8,9,9,10,10,11,11,14,14,16,16,19,19,20,20,21,21,22,22],"right_children":[2,4,6,8,10,12,14,16,18,20,22,24,-1,-1,26,-1,28,-1,-1,30,32,34,36,-1,-1,-1,-1,-1,-1,-1,-1,-1,-1,-1,-1,-1,-1],"split_conditions":[5.1E2,4.87E2,5.0409E6,4.8627E2,4.9221E2,5.36E2,5.1591E2,4.7007E2,3.5829E6,4.9314E2,4.9961E2,5.1581E2,-9.551811E-2,3.755249E-1,5.3262E2,-2.1806717E-1,4.7735E2,-1.2632255E-1,-3.4486696E-1,4.9084E6,3.1668E6,5.0016E2,4.9973E6,3.4166607E-1,6.5066934E-1,1.2272412E0,5.4581034E-1,-9.4737357E-1,-6.200236E-1,-4.3844125E-1,-9.011421E-2,3.412903E-2,-1.7785576E-1,1.8617602E-1,-6.5481186E-2,-1.266965E-1,1.4069672E-1],"split_indices":[78,84,25,30,94,92,85,35,4,85,43,66,0,0,14,0,0,0,0,25,81,70,39,0,0,0,0,0,0,0,0,0,0,0,0,0,0],"split_type":[0,0,0,0,0,0,0,0,0,0,0,0,0,0,0,0,0,0,0,0,0,0,0,0,0,0,0,0,0,0,0,0,0,0,0,0,0],"sum_hessian":[1.39E2,1.02E2,3.7E1,4.2E1,6E1,1.7E1,2E1,3.2E1,1E1,2.3E1,3.7E1,1.4E1,3E0,3E0,1.7E1,5E0,2.7E1,3E0,7E0,9E0,1.4E1,1.8E1,1.9E1,6E0,8E0,1.4E1,3E0,7E0,2E1,6E0,3E0,4E0,1E1,1.5E1,3E0,1.5E1,4E0],"tree_param":{"num_deleted":"0","num_feature":"98","num_nodes":"37","size_leaf_vector":"1"}},{"base_weights":[1.2064616E-1,-5.431172E0,1.5750222E1,-1.1426665E1,-8.9530355E-1,1.2228054E0,1.2613449E1,-1.55736885E1,-8.917664E0,-4.060462E0,9.4704515E-1,3.0235248E0,1.488495E1,-4.426407E-1,-8.5381234E-1,-5.3380027E0,-1.0619577E1,-6.8791585E0,-1.3630676E0,2.7735013E-1,1.3142264E-1,2.7332878E-1,-8.770371E-3,3.2085878E-1,1.5789052E1,-3.344005E-1,-1.4366633E-1,-6.554306E-1,-3.0604553E-1,-4.3387508E-1,-7.813416E-2,7.898102E-2,-1.20191805E-1,-1.9794082E-2,2.1585007E-1,4.9079853E-1,8.761944E-1],"categories":[],"categories_nodes":[],"categories_segments":[],"categories_sizes":[],"default_left":[0,0,0,0,0,0,0,0,0,0,0,0,0,0,0,0,0,0,0,0,0,0,0,0,0,0,0,0,0,0,0,0,0,0,0,0,0],"id":8,"left_children":[1,3,5,7,9,-1,11,13,15,17,19,21,23,-1,-1,25,27,29,31,-1,33,-1,-1,-1,35,-1,-1,-1,-1,-1,-1,-1,-1,-1,-1,-1,-1],"loss_changes":[1.2580792E4,2.89961E3,7.2924316E2,3.3974414E2,3.653876E2,0E0,6.085005E2,1.040332E1,1.3217334E2,1.6549539E2,1.4934415E2,5.5664955E1,8.241699E1,0E0,0E0,2.0711151E1,1.437102E2,9.160907E1,4.361169E1,0E0,7.8956604E1,0E0,0E0,0E0,4.5595215E1,0E0,0E0,0E0,0E0,0E0,0E0,0E0,0E0,0E0,0E0,0E0,0E0],"parents":[2147483647,0,0,1,1,2,2,3,3,4,4,6,6,7,7,8,8,9,9,10,10,11,11,12,12,15,15,16,16,17,17,18,18,20,20,24,24],"right_children":[2,4,6,8,10,-1,12,14,16,18,20,22,24,-1,-1,26,28,30,32,-1,34,-1,-1,-1,36,-1,-1,-1,-1,-1,-1,-1,-1,-1,-1,-1,-1],"split_conditions":[5.1379E2,4.87E2,4.9947E2,4.7864E2,4.9221E2,1.2228054E0,4.141E6,4.7949E2,4.8314E2,3.8711E6,4.8667E2,4.9778E6,3.6261E6,-4.426407E-1,-8.5381234E-1,4.04E6,4.9038E2,4.9599E2,3.1668E6,2.7735013E-1,5.1215E2,2.7332878E-1,-8.770371E-3,3.2085878E-1,5.1591E2,-3.344005E-1,-1.4366633E-1,-6.554306E-1,-3.0604553E-1,-4.3387508E-1,-7.813416E-2,7.898102E-2,-1.20191805E-1,-1.9794082E-2,2.1585007E-1,4.9079853E-1,8.761944E-1],"split_indices":[50,84,9,92,94,0,95,43,78,4,65,4,88,0,0,81,3,71,81,0,10,0,0,0,92,0,0,0,0,0,0,0,0,0,0,0,0],"split_type":[0,0,0,0,0,0,0,0,0,0,0,0,0,0,0,0,0,0,0,0,0,0,0,0,0,0,0,0,0,0,0,0,0,0,0,0,0],"sum_hessian":[1.43E2,1.06E2,3.7E1,4.5E1,6.1E1,8E0,2.9E1,1.5E1,3E1,2.2E1,3.9E1,6E0,2.3E1,4E0,1.1E1,1.1E1,1.9E1,1E1,1.2E1,5E0,3.4E1,3E0,3E0,3E0,2E1,6E0,5E0,1.1E1,8E0,7E0,3E0,3E0,9E0,3.1E1,3E0,6E0,1.4E1],"tree_param":{"num_deleted":"0","num_feature":"98","num_nodes":"37","size_leaf_vector":"1"}},{"base_weights":[-1.9950254E-1,-5.1597614E0,1.3860106E1,-1.11312685E1,-1.5893456E0,7.9490714E0,1.8730555E1,-1.7356466E-1,-1.2186681E1,-4.348039E0,6.1582905E-1,1.0086456E1,-1.0266953E-1,3.254175E-1,2.155592E1,-7.528534E0,-6.942317E-1,-6.086096E0,-2.0511148E0,4.252228E0,-5.3394395E-1,3.0246708E-1,5.75004E-1,1.1830833E0,4.9248543E-1,-4.305418E-1,-1.7408982E-1,-5.7110596E-2,-3.8194364E-1,-1.5587978E-1,6.972428E-2,2.8419465E-1,9.850586E-2,5.2940845E-2,-1.15805164E-1],"categories":[],"categories_nodes":[],"categories_segments":[],"categories_sizes":[],"default_left":[0,0,0,0,0,0,0,0,0,0,0,0,0,0,0,0,0,0,0,0,0,0,0,0,0,0,0,0,0,0,0,0,0,0,0],"id":9,"left_children":[1,3,5,7,9,11,13,-1,15,17,19,21,-1,-1,23,25,-1,27,29,31,33,-1,-1,-1,-1,-1,-1,-1,-1,-1,-1,-1,-1,-1,-1],"loss_changes":[9.625799E3,2.1570266E3,8.8752783E2,2.649048E2,3.9809875E2,4.0553552E2,5.1581885E2,0E0,1.5647705E2,1.0329004E2,1.5696869E2,1.6036621E1,0E0,0E0,1.3669336E2,1.8196594E1,0E0,1.1410278E2,5.5792767E1,1.8207031E1,8.4770386E1,0E0,0E0,0E0,0E0,0E0,0E0,0E0,0E0,0E0,0E0,0E0,0E0,0E0,0E0],"parents":[2147483647,0,0,1,1,2,2,3,3,4,4,5,5,6,6,8,8,9,9,10,10,11,11,14,14,15,15,17,17,18,18,19,19,20,20],"right_children":[2,4,6,8,10,12,14,-1,16,18,20,22,-1,-1,24,26,-1,28,30,32,34,-1,-1,-1,-1,-1,-1,-1,-1,-1,-1,-1,-1,-1,-1],"split_conditions":[5.0978E2,4.8172E2,5.0409E6,3.4415E6,4.9221E2,5.36E2,5.1591E2,-1.7356466E-1,4.7596E2,4.9314E2,4.8811E2,5.1581E2,-1.0266953E-1,3.254175E-1,5.3262E2,4.7855E2,-6.942317E-1,4.9108E2,4.6931E6,4.6636E6,3.9113E6,3.0246708E-1,5.75004E-1,1.1830833E0,4.9248543E-1,-4.305418E-1,-1.7408982E-1,-5.7110596E-2,-3.8194364E-1,-1.5587978E-1,6.972428E-2,2.8419465E-1,9.850586E-2,5.2940845E-2,-1.15805164E-1],"split_indices":[78,93,25,46,94,92,85,0,64,85,58,66,0,0,14,78,0,64,11,32,67,0,0,0,0,0,0,0,0,0,0,0,0,0,0],"split_type":[0,0,0,0,0,0,0,0,0,0,0,0,0,0,0,0,0,0,0,0,0,0,0,0,0,0,0,0,0,0,0,0,0,0,0],"sum_hessian":[1.36E2,1.01E2,3.5E1,3.7E1,6.4E1,1.7E1,1.8E1,5E0,3.2E1,2.8E1,3.6E1,1.4E1,3E0,4E0,1.4E1,1E1,2.2E1,1.5E1,1.3E1,8E0,2.8E1,5E0,9E0,1.1E1,3E0,7E0,3E0,4E0,1.1E1,1E1,3E0,4E0,4E0,1.5E1,1.3E1],"tree_param":{"num_deleted":"0","num_feature":"98","num_nodes":"35","size_leaf_vector":"1"}},{"base_weights":[-1.2291812E-1,-4.925585E0,1.3488051E1,-1.1317567E1,-1.5631589E0,7.829508E0,1.7157034E1,-9.136348E-1,-9.248482E0,-3.9151847E0,3.9673495E-1,-9.881973E-2,1.0244439E1,3.1240115E-1,1.935633E1,-1.631714E-1,-1.0075553E1,-5.6670156E0,-1.6687642E0,1.9993359E0,-1.495007E0,2.8076905E-1,5.8389336E-1,1.0492549E0,4.4082794E-1,-1.8173066E-1,-5.394327E-1,-3.5289624E-1,-4.586243E-2,-1.2666754E-1,6.71093E-2,4.798851E-2,2.2191441E-1,-1.28782E-1,9.148835E-2],"categories":[],"categories_nodes":[],"categories_segments":[],"categories_sizes":[],"default_left":[0,0,0,0,0,0,0,0,0,0,0,0,0,0,0,0,0,0,0,0,0,0,0,0,0,0,0,0,0,0,0,0,0,0,0],"id":10,"left_children":[1,3,5,7,9,11,13,-1,15,17,19,-1,21,-1,23,-1,25,27,29,31,33,-1,-1,-1,-1,-1,-1,-1,-1,-1,-1,-1,-1,-1,-1],"loss_changes":[9.021982E3,2.1745508E3,6.1306885E2,3.3468213E2,3.1501428E2,3.9913635E2,3.8289648E2,0E0,1.1067114E2,1.1253891E2,1.181939E2,0E0,2.0684814E1,0E0,1.06819824E2,0E0,7.561328E1,1.0583655E2,4.2448635E1,4.898475E1,6.938431E1,0E0,0E0,0E0,0E0,0E0,0E0,0E0,0E0,0E0,0E0,0E0,0E0,0E0,0E0],"parents":[2147483647,0,0,1,1,2,2,3,3,4,4,5,5,6,6,8,8,9,9,10,10,12,12,14,14,16,16,17,17,18,18,19,19,20,20],"right_children":[2,4,6,8,10,12,14,-1,16,18,20,-1,22,-1,24,-1,26,28,30,32,34,-1,-1,-1,-1,-1,-1,-1,-1,-1,-1,-1,-1,-1,-1],"split_conditions":[5.1379E2,4.8485E2,4.9778E6,4.7358E2,4.9221E2,5.15E2,5.21E2,-9.136348E-1,3.4415E6,4.9314E2,4.9696E2,-9.881973E-2,5.1431E2,3.1240115E-1,5.3023E2,-1.631714E-1,4.74E2,6.0886E6,4.6931E6,4.6744E6,4.9456E6,2.8076905E-1,5.8389336E-1,1.0492549E0,4.4082794E-1,-1.8173066E-1,-5.394327E-1,-3.5289624E-1,-4.586243E-2,-1.2666754E-1,6.71093E-2,4.798851E-2,2.2191441E-1,-1.28782E-1,9.148835E-2],"split_indices":[50,94,25,2,94,0,50,0,46,85,49,0,66,0,66,0,21,4,11,67,39,0,0,0,0,0,0,0,0,0,0,0,0,0,0],"split_type":[0,0,0,0,0,0,0,0,0,0,0,0,0,0,0,0,0,0,0,0,0,0,0,0,0,0,0,0,0,0,0,0,0,0,0],"sum_hessian":[1.36E2,1.01E2,3.5E1,3.4E1,6.7E1,1.5E1,2E1,6E0,2.8E1,3E1,3.7E1,3E0,1.2E1,4E0,1.6E1,4E0,2.4E1,1.6E1,1.4E1,2E1,1.7E1,4E0,8E0,1.3E1,3E0,3E0,2.1E1,1.2E1,4E0,1.1E1,3E0,1.5E1,5E0,1.3E1,4E0],"tree_param":{"num_deleted":"0","num_feature":"98","num_nodes":"35","size_leaf_vector":"1"}},{"base_weights":[3.4404278E-1,-4.715179E0,1.3116181E1,-9.218557E0,-1.472191E0,1.0733373E0,1.0173806E1,-1.0527822E1,-4.237985E0,-3.815037E0,1.0945609E-1,-2.3160705E-2,1.1828086E1,-5.3335876E0,-1.1820573E1,-4.3761443E-2,-2.777067E-1,-5.5790076E0,-9.63974E-1,1.9296505E0,-1.9313174E0,3.1635743E-1,1.3921439E1,-1.3897668E-1,-3.1550568E-1,-6.22029E-1,-2.8051987E-1,-3.7406972E-1,-8.977967E-2,6.1932374E-2,-1.0424521E-1,1.5203775E-1,-2.047468E-2,9.865952E-3,-1.2007741E-1,7.906274E-1,4.3453804E-1],"categories":[],"categories_nodes":[],"categories_segments":[],"categories_sizes":[],"default_left":[0,0,0,0,0,0,0,0,0,0,0,0,0,0,0,0,0,0,0,0,0,0,0,0,0,0,0,0,0,0,0,0,0,0,0,0,0],"id":11,"left_children":[1,3,5,7,9,-1,11,13,15,17,19,-1,21,23,25,-1,-1,27,29,31,33,-1,35,-1,-1,-1,-1,-1,-1,-1,-1,-1,-1,-1,-1,-1,-1],"loss_changes":[8.655918E3,1.3884512E3,7.152803E2,2.162185E2,2.1163423E2,0E0,5.3337744E2,1.451145E2,3.9397736E1,1.10293396E2,1.3373793E2,0E0,2.1131787E2,2.4136353E0,2.2611816E1,0E0,0E0,8.7331696E1,2.7272316E1,5.0626816E1,1.7490028E1,0E0,4.0628906E1,0E0,0E0,0E0,0E0,0E0,0E0,0E0,0E0,0E0,0E0,0E0,0E0,0E0,0E0],"parents":[2147483647,0,0,1,1,2,2,3,3,4,4,6,6,7,7,8,8,9,9,10,10,12,12,13,13,14,14,17,17,18,18,19,19,20,20,22,22],"right_children":[2,4,6,8,10,-1,12,14,16,18,20,-1,22,24,26,-1,-1,28,30,32,34,-1,36,-1,-1,-1,-1,-1,-1,-1,-1,-1,-1,-1,-1,-1,-1],"split_conditions":[5.0975E2,4.8654E2,4.9947E2,4.8923E2,4.9221E2,1.0733373E0,5.15E2,4.7188E2,3.9515E6,4.0589E6,4.9961E2,-2.3160705E-2,5.16E2,4.7629E2,4.945E2,-4.3761443E-2,-2.777067E-1,4.9377E2,4.7247E2,4.9607E2,3.1722E6,3.1635743E-1,5.2952E2,-1.3897668E-1,-3.1550568E-1,-6.22029E-1,-2.8051987E-1,-3.7406972E-1,-8.977967E-2,6.1932374E-2,-1.0424521E-1,1.5203775E-1,-2.047468E-2,9.865952E-3,-1.2007741E-1,7.906274E-1,4.3453804E-1],"split_indices":[85,91,9,2,94,0,0,59,39,11,43,0,85,2,43,0,0,84,1,86,74,0,87,0,0,0,0,0,0,0,0,0,0,0,0,0,0],"split_type":[0,0,0,0,0,0,0,0,0,0,0,0,0,0,0,0,0,0,0,0,0,0,0,0,0,0,0,0,0,0,0,0,0,0,0,0,0],"sum_hessian":[1.32E2,9.5E1,3.7E1,3.9E1,5.6E1,8E0,2.9E1,3E1,9E0,2.2E1,3.4E1,4E0,2.5E1,7E0,2.3E1,3E0,6E0,1.3E1,9E0,1.8E1,1.6E1,8E0,1.7E1,3E0,4E0,2E1,3E0,8E0,5E0,3E0,6E0,1.2E1,6E0,3E0,1.3E1,1.1E1,6E0],"tree_param":{"num_deleted":"0","num_feature":"98","num_nodes":"37","size_leaf_vector":"1"}},{"base_weights":[-4.7156826E-2,-5.1856256E0,1.1087315E1,-1.0170729E1,-1.7377263E0,5.982947E0,1.5043838E1,-7.4704224E-1,-8.103875E0,-3.6562936E0,2.4290249E-1,9.6102905E-1,4.3065652E-1,6.0835724E0,1.858373E1,-1.5706202E-1,-9.046133E0,-5.4622436E0,-1.4601833E0,2.384815E0,-1.5125828E0,1.5227875E-1,-9.424553E-2,1.6043358E-1,3.5833892E-1,1.0152825E0,4.1707802E-1,-3.2233155E-1,-5.128384E-1,-3.9152223E-1,-1.2056313E-1,5.9610367E-2,-1.1459725E-1,1.7419045E-1,-3.5168459E-3,-1.3763224E-1,3.5779953E-3],"categories":[],"categories_nodes":[],"categories_segments":[],"categories_sizes":[],"default_left":[0,0,0,0,0,0,0,0,0,0,0,0,0,0,0,0,0,0,0,0,0,0,0,0,0,0,0,0,0,0,0,0,0,0,0,0,0],"id":12,"left_children":[1,3,5,7,9,11,13,-1,15,17,19,21,-1,23,25,-1,27,29,31,33,35,-1,-1,-1,-1,-1,-1,-1,-1,-1,-1,-1,-1,-1,-1,-1,-1],"loss_changes":[7.6097603E3,1.5464458E3,7.5820703E2,2.4370947E2,2.0988646E2,2.5589398E2,6.164668E2,0E0,1.0251428E2,1.03073975E2,1.0888991E2,5.3200573E1,0E0,1.9170227E0,1.1279883E2,0E0,6.260498E0,8.949875E1,3.3618675E1,3.5321594E1,3.1627945E1,0E0,0E0,0E0,0E0,0E0,0E0,0E0,0E0,0E0,0E0,0E0,0E0,0E0,0E0,0E0,0E0],"parents":[2147483647,0,0,1,1,2,2,3,3,4,4,5,5,6,6,8,8,9,9,10,10,11,11,13,13,14,14,16,16,17,17,18,18,19,19,20,20],"right_children":[2,4,6,8,10,12,14,-1,16,18,20,22,-1,24,26,-1,28,30,32,34,36,-1,-1,-1,-1,-1,-1,-1,-1,-1,-1,-1,-1,-1,-1,-1,-1],"split_conditions":[5.055E2,4.8172E2,4.9778E6,4.79E2,4.9221E2,5.15E2,5.1591E2,-7.4704224E-1,3.4415E6,4.0589E6,4.9333E2,5.203E2,4.3065652E-1,3.7487E6,5.3262E2,-1.5706202E-1,4.7835E2,4.8854E2,4.7247E2,4.9694E2,3.8735E6,1.5227875E-1,-9.424553E-2,1.6043358E-1,3.5833892E-1,1.0152825E0,4.1707802E-1,-3.2233155E-1,-5.128384E-1,-3.9152223E-1,-1.2056313E-1,5.9610367E-2,-1.1459725E-1,1.7419045E-1,-3.5168459E-3,-1.3763224E-1,3.5779953E-3],"split_indices":[92,93,25,1,94,0,85,0,53,11,17,63,0,95,14,0,64,79,1,49,46,0,0,0,0,0,0,0,0,0,0,0,0,0,0,0,0],"split_type":[0,0,0,0,0,0,0,0,0,0,0,0,0,0,0,0,0,0,0,0,0,0,0,0,0,0,0,0,0,0,0,0,0,0,0,0,0],"sum_hessian":[1.31E2,9E1,4.1E1,3.6E1,5.4E1,1.9E1,2.2E1,9E0,2.7E1,2.7E1,2.7E1,7E0,1.2E1,7E0,1.5E1,5E0,2.2E1,1.4E1,1.3E1,1.2E1,1.5E1,4E0,3E0,3E0,4E0,1.2E1,3E0,9E0,1.3E1,7E0,7E0,3E0,1E1,8E0,4E0,8E0,7E0],"tree_param":{"num_deleted":"0","num_feature":"98","num_nodes":"37","size_leaf_vector":"1"}},{"base_weights":[-5.723407E-2,-4.6647396E0,1.1069602E1,-1.0604562E1,-1.5341533E0,5.377826E0,1.4877201E1,-7.820899E-1,-8.966519E0,-3.1879098E0,5.566183E-1,6.9371867E0,-9.071159E-2,1.9238637E-1,1.7577183E1,-6.5490255E0,-5.4581124E-1,1.1269134E-1,-3.9158123E0,2.208191E0,-1.4886214E0,1.7361024E-1,3.9407626E-1,9.432859E-1,4.0143737E-1,-1.2824364E-1,-3.665662E-1,-5.3394318E-2,-2.4696445E-1,-1.7436473E-2,1.6513176E-1,-1.2121399E-1,3.4020998E-2],"categories":[],"categories_nodes":[],"categories_segments":[],"categories_sizes":[],"default_left":[0,0,0,0,0,0,0,0,0,0,0,0,0,0,0,0,0,0,0,0,0,0,0,0,0,0,0,0,0,0,0,0,0],"id":13,"left_children":[1,3,5,7,9,11,13,-1,15,17,19,21,-1,-1,23,25,-1,-1,27,29,31,-1,-1,-1,-1,-1,-1,-1,-1,-1,-1,-1,-1],"loss_changes":[7.1777446E3,1.8246487E3,8.085449E2,1.4028882E2,2.2997783E2,2.1445593E2,6.4707227E2,0E0,6.048462E1,1.5538443E2,1.0462302E2,2.1715454E1,0E0,0E0,8.229834E1,2.794806E1,0E0,0E0,9.091333E1,4.8724648E1,3.0062279E1,0E0,0E0,0E0,0E0,0E0,0E0,0E0,0E0,0E0,0E0,0E0,0E0],"parents":[2147483647,0,0,1,1,2,2,3,3,4,4,5,5,6,6,8,8,9,9,10,10,11,11,14,14,15,15,18,18,19,19,20,20],"right_children":[2,4,6,8,10,12,14,-1,16,18,20,22,-1,-1,24,26,-1,-1,28,30,32,-1,-1,-1,-1,-1,-1,-1,-1,-1,-1,-1,-1],"split_conditions":[5.074E2,4.8172E2,4.914E6,4.76E2,4.9354E2,5.36E2,5.1575E2,-7.820899E-1,4.7747E2,4.7007E2,4.9725E2,5.0655E2,-9.071159E-2,1.9238637E-1,5.3262E2,3.669E6,-5.4581124E-1,1.1269134E-1,3.7076E6,3.2448E6,4.0589E6,1.7361024E-1,3.9407626E-1,9.432859E-1,4.0143737E-1,-1.2824364E-1,-3.665662E-1,-5.3394318E-2,-2.4696445E-1,-1.7436473E-2,1.6513176E-1,-1.2121399E-1,3.4020998E-2],"split_indices":[85,93,25,3,87,92,85,0,73,0,56,65,0,0,14,53,0,0,67,95,39,0,0,0,0,0,0,0,0,0,0,0,0],"split_type":[0,0,0,0,0,0,0,0,0,0,0,0,0,0,0,0,0,0,0,0,0,0,0,0,0,0,0,0,0,0,0,0,0],"sum_hessian":[1.38E2,9.8E1,4E1,3.3E1,6.5E1,1.7E1,2.3E1,6E0,2.7E1,3.6E1,2.9E1,1.4E1,3E0,5E0,1.8E1,1.4E1,1.3E1,4E0,3.2E1,1.6E1,1.3E1,4E0,1E1,1.5E1,3E0,3E0,1.1E1,9E0,2.3E1,5E0,1.1E1,9E0,4E0],"tree_param":{"num_deleted":"0","num_feature":"98","num_nodes":"33","size_leaf_vector":"1"}},{"base_weights":[1.3021828E-1,-4.225424E0,1.07982855E1,-8.888735E0,-1.2511412E0,8.398343E0,8.57914E-1,-7.993012E-2,-9.699379E0,-3.4763975E0,5.01232E-1,4.885824E0,1.1385965E1,-6.1889367E0,-1.15778E1,-4.958786E0,-1.2101797E0,2.4960344E0,-1.5214165E0,5.8667016E0,2.3825837E-2,5.2643824E0,7.2662383E-1,-1.2796707E-1,-3.4730795E-1,-6.49652E-1,-2.9370958E-1,-3.789703E-2,-3.1479532E-1,-1.2075844E-1,-2.7008226E-2,2.1049003E-1,5.1137336E-2,7.0985034E-2,-1.10214345E-1,1.4720307E-1,3.224544E-1,1.4048615E-1,3.2014734E-1],"categories":[],"categories_nodes":[],"categories_segments":[],"categories_sizes":[],"default_left":[0,0,0,0,0,0,0,0,0,0,0,0,0,0,0,0,0,0,0,0,0,0,0,0,0,0,0,0,0,0,0,0,0,0,0,0,0,0,0],"id":14,"left_children":[1,3,5,7,9,11,-1,-1,13,15,17,19,21,23,25,27,29,31,33,35,-1,37,-1,-1,-1,-1,-1,-1,-1,-1,-1,-1,-1,-1,-1,-1,-1,-1,-1],"loss_changes":[6.4115073E3,1.3481394E3,4.6644336E2,2.0906348E2,2.3961075E2,2.6968677E2,0E0,0E0,1.5254492E2,8.470322E1,1.4501495E2,6.640427E1,2.3168164E2,2.0700195E1,9.3187744E1,8.510065E1,8.383743E0,4.1142113E1,3.9280655E1,3.1408386E0,0E0,1.572998E0,0E0,0E0,0E0,0E0,0E0,0E0,0E0,0E0,0E0,0E0,0E0,0E0,0E0,0E0,0E0,0E0,0E0],"parents":[2147483647,0,0,1,1,2,2,3,3,4,4,5,5,8,8,9,9,10,10,11,11,12,12,13,13,14,14,15,15,16,16,17,17,18,18,19,19,21,21],"right_children":[2,4,6,8,10,12,-1,-1,14,16,18,20,22,24,26,28,30,32,34,36,-1,38,-1,-1,-1,-1,-1,-1,-1,-1,-1,-1,-1,-1,-1,-1,-1,-1,-1],"split_conditions":[5.1575E2,4.885E2,6.3153E6,3.4415E6,4.9221E2,5.0448E6,8.57914E-1,-7.993012E-2,4.7835E2,4.895E2,4.9725E2,5.3592E2,4.914E6,4.772E2,4.8485E2,4.838E2,4.9442E2,4.9488E2,3.2062E6,5.1564E2,2.3825837E-2,4.8578E6,7.2662383E-1,-1.2796707E-1,-3.4730795E-1,-6.49652E-1,-2.9370958E-1,-3.789703E-2,-3.1479532E-1,-1.2075844E-1,-2.7008226E-2,2.1049003E-1,5.1137336E-2,7.0985034E-2,-1.10214345E-1,1.4720307E-1,3.224544E-1,1.4048615E-1,3.2014734E-1],"split_indices":[29,85,11,46,94,95,0,0,50,86,56,85,25,3,87,65,71,71,81,28,0,18,0,0,0,0,0,0,0,0,0,0,0,0,0,0,0,0,0],"split_type":[0,0,0,0,0,0,0,0,0,0,0,0,0,0,0,0,0,0,0,0,0,0,0,0,0,0,0,0,0,0,0,0,0,0,0,0,0,0,0],"sum_hessian":[1.36E2,9.7E1,3.9E1,3.7E1,6E1,3E1,9E0,4E0,3.3E1,2.6E1,3.4E1,1.5E1,1.5E1,1.3E1,2E1,1.5E1,1.1E1,1.7E1,1.7E1,1.2E1,3E0,6E0,9E0,3E0,1E1,1.5E1,5E0,4E0,1.1E1,3E0,8E0,7E0,1E1,3E0,1.4E1,3E0,9E0,3E0,3E0],"tree_param":{"num_deleted":"0","num_feature":"98","num_nodes":"39","size_leaf_vector":"1"}},{"base_weights":[3.766909E-2,-3.9218688E0,1.1035339E1,-8.776609E0,-1.2879629E0,6.39552E0,1.4427419E1,-1.1519674E-1,-9.778591E0,-3.2454793E0,4.3345302E-1,1.6983796E-2,7.6689386E0,2.4288146E-1,1.6516264E1,-7.0948774E-1,-7.819117E0,-4.730243E0,-1.1046774E0,2.1502507E-1,-3.289903E-1,2.3631237E-1,4.3893147E-1,4.9872765E-1,9.2914957E-1,-4.1113114E-1,-1.9234048E-1,-3.326053E-1,-1.034629E-1,8.598214E-2,-1.01563886E-1,-4.4227164E-2,1.821064E-1],"categories":[],"categories_nodes":[],"categories_segments":[],"categories_sizes":[],"default_left":[0,0,0,0,0,0,0,0,0,0,0,0,0,0,0,0,0,0,0,0,0,0,0,0,0,0,0,0,0,0,0,0,0],"id":15,"left_children":[1,3,5,7,9,11,13,-1,15,17,19,-1,21,-1,23,-1,25,27,29,-1,31,-1,-1,-1,-1,-1,-1,-1,-1,-1,-1,-1,-1],"loss_changes":[5.9219478E3,1.267389E3,4.743203E2,2.0446338E2,2.2380698E2,1.2849268E2,3.195664E2,0E0,1.4835547E2,9.331076E1,1.0755742E2,0E0,4.2266846E0,0E0,3.0961914E1,0E0,5.234619E0,7.8287964E1,4.0131294E1,0E0,7.161279E1,0E0,0E0,0E0,0E0,0E0,0E0,0E0,0E0,0E0,0E0,0E0,0E0],"parents":[2147483647,0,0,1,1,2,2,3,3,4,4,5,5,6,6,8,8,9,9,10,10,12,12,14,14,16,16,17,17,18,18,20,20],"right_children":[2,4,6,8,10,12,14,-1,16,18,20,-1,22,-1,24,-1,26,28,30,-1,32,-1,-1,-1,-1,-1,-1,-1,-1,-1,-1,-1,-1],"split_conditions":[5.1433E2,4.8172E2,4.9778E6,3.4415E6,4.9221E2,5.15E2,5.1591E2,-1.1519674E-1,4.7735E2,4.9314E2,4.7261E2,1.6983796E-2,5.1077E2,2.4288146E-1,4.776E6,-7.0948774E-1,6.4109E6,4.7685E6,3.1668E6,2.1502507E-1,5.1584E2,2.3631237E-1,4.3893147E-1,4.9872765E-1,9.2914957E-1,-4.1113114E-1,-1.9234048E-1,-3.326053E-1,-1.034629E-1,8.598214E-2,-1.01563886E-1,-4.4227164E-2,1.821064E-1],"split_indices":[43,93,25,46,94,0,85,0,0,85,0,0,65,0,39,0,39,18,81,0,8,0,0,0,0,0,0,0,0,0,0,0,0],"split_type":[0,0,0,0,0,0,0,0,0,0,0,0,0,0,0,0,0,0,0,0,0,0,0,0,0,0,0,0,0,0,0,0,0],"sum_hessian":[1.34E2,9.9E1,3.5E1,3.4E1,6.5E1,1.6E1,1.9E1,5E0,2.9E1,3E1,3.5E1,3E0,1.3E1,4E0,1.5E1,7E0,2.2E1,1.7E1,1.3E1,5E0,3E1,5E0,8E0,5E0,1E1,1.9E1,3E0,9E0,8E0,3E0,1E1,2.7E1,3E0],"tree_param":{"num_deleted":"0","num_feature":"98","num_nodes":"33","size_leaf_vector":"1"}},{"base_weights":[1.4315578E-1,-3.8694046E0,9.926396E0,-8.325925E0,-1.0037E0,5.40768E0,1.2069151E1,-1.1039658E-1,-9.16069E0,-3.3388896E0,6.6437095E-1,4.2824708E-2,3.492397E-1,2.665146E-1,1.4161237E1,-1.0475578E1,-4.9574003E0,-3.4489137E-1,-2.1630554E0,4.176816E0,-7.912315E-1,8.471648E-1,6.574084E0,-7.3629636E-1,-4.1791573E-1,-2.9262313E-1,-1.4459229E-1,5.3386687E-4,-1.6253422E-1,2.9752716E-1,1.1565901E-1,3.738251E-2,-8.011042E-2,4.4301683E-1,1.322155E-1],"categories":[],"categories_nodes":[],"categories_segments":[],"categories_sizes":[],"default_left":[0,0,0,0,0,0,0,0,0,0,0,0,0,0,0,0,0,0,0,0,0,0,0,0,0,0,0,0,0,0,0,0,0,0,0],"id":16,"left_children":[1,3,5,7,9,11,13,-1,15,17,19,-1,-1,-1,21,23,25,-1,27,29,31,-1,33,-1,-1,-1,-1,-1,-1,-1,-1,-1,-1,-1,-1],"loss_changes":[5.534227E3,1.2687502E3,3.3171655E2,1.7895044E2,2.4372452E2,1.01683655E2,3.0516968E2,0E0,1.3598145E2,9.3882355E1,1.9247562E2,0E0,0E0,0E0,3.1077148E2,1.018938E2,1.5635834E0,0E0,4.9683235E1,2.2596725E1,3.489383E1,0E0,3.946173E1,0E0,0E0,0E0,0E0,0E0,0E0,0E0,0E0,0E0,0E0,0E0,0E0],"parents":[2147483647,0,0,1,1,2,2,3,3,4,4,5,5,6,6,8,8,9,9,10,10,14,14,15,15,16,16,18,18,19,19,20,20,22,22],"right_children":[2,4,6,8,10,12,14,-1,16,18,20,-1,-1,-1,22,24,26,-1,28,30,32,-1,34,-1,-1,-1,-1,-1,-1,-1,-1,-1,-1,-1,-1],"split_conditions":[5.0978E2,4.8902E2,4.776E6,3.4415E6,4.9221E2,4.141E6,5.1591E2,-1.1039658E-1,5.1463E6,3.1734E6,4.8925E2,4.2824708E-2,3.492397E-1,2.665146E-1,5.3023E2,4.755E2,4.5041E6,-3.4489137E-1,3.9332E6,4.8911E2,4.915E2,8.471648E-1,5.3013E2,-7.3629636E-1,-4.1791573E-1,-2.9262313E-1,-1.4459229E-1,5.3386687E-4,-1.6253422E-1,2.9752716E-1,1.1565901E-1,3.738251E-2,-8.011042E-2,4.4301683E-1,1.322155E-1],"split_indices":[64,85,32,46,94,95,92,0,11,4,72,0,0,0,73,7,88,0,67,63,28,0,22,0,0,0,0,0,0,0,0,0,0,0,0],"split_type":[0,0,0,0,0,0,0,0,0,0,0,0,0,0,0,0,0,0,0,0,0,0,0,0,0,0,0,0,0,0,0,0,0,0,0],"sum_hessian":[1.39E2,9.9E1,4E1,3.8E1,6.1E1,1.4E1,2.6E1,5E0,3.3E1,2.5E1,3.6E1,4E0,1E1,7E0,1.9E1,2.4E1,9E0,5E0,2E1,1E1,2.6E1,1.3E1,6E0,6E0,1.8E1,5E0,4E0,7E0,1.3E1,4E0,6E0,9E0,1.7E1,3E0,3E0],"tree_param":{"num_deleted":"0","num_feature":"98","num_nodes":"35","size_leaf_vector":"1"}},{"base_weights":[2.719236E-1,-3.4981527E0,9.9875965E0,-7.899715E0,-1.0363898E0,8.448353E-1,7.8824196E0,-6.033295E-1,-6.2181745E0,-2.6951354E0,1.0584801E0,3.0584538E0,1.0382678E1,-1.00098036E-1,-6.6617866E0,9.5056154E-2,-3.3290777E0,3.4022474E0,-7.960762E-1,2.4524029E-1,-9.302254E-2,2.9690456E-1,1.2319141E1,-1.09255984E-1,-3.5986286E-1,-2.77577E-1,-6.460385E-2,2.8399086E-1,1.0754974E-1,9.167214E-2,-7.452523E-2,3.5684967E-1,7.33293E-1],"categories":[],"categories_nodes":[],"categories_segments":[],"categories_sizes":[],"default_left":[0,0,0,0,0,0,0,0,0,0,0,0,0,0,0,0,0,0,0,0,0,0,0,0,0,0,0,0,0,0,0,0,0],"id":17,"left_children":[1,3,5,7,9,-1,11,-1,13,15,17,19,21,-1,23,-1,25,27,29,-1,-1,-1,31,-1,-1,-1,-1,-1,-1,-1,-1,-1,-1],"loss_changes":[4.9798296E3,1.0537019E3,4.195188E2,1.7020459E2,2.2524356E2,0E0,3.4214124E2,0E0,3.7163208E1,1.1122449E2,1.2876125E2,1.1810948E2,9.89834E1,0E0,4.1804077E1,0E0,1.3769604E2,2.4830338E1,3.3774975E1,0E0,0E0,0E0,5.3423462E1,0E0,0E0,0E0,0E0,0E0,0E0,0E0,0E0,0E0,0E0],"parents":[2147483647,0,0,1,1,2,2,3,3,4,4,6,6,8,8,9,9,10,10,11,11,12,12,14,14,16,16,17,17,18,18,22,22],"right_children":[2,4,6,8,10,-1,12,-1,14,16,18,20,22,-1,24,-1,26,28,30,-1,-1,-1,32,-1,-1,-1,-1,-1,-1,-1,-1,-1,-1],"split_conditions":[5.0978E2,4.8172E2,4.9947E2,4.79E2,4.9354E2,8.448353E-1,5.214E2,-6.033295E-1,3.669E6,4.894E2,4.9572E2,5.3592E2,5.2141E2,-1.00098036E-1,4.74E2,9.5056154E-2,4.9125E2,4.8378E2,3.737E6,2.4524029E-1,-9.302254E-2,2.9690456E-1,4.914E6,-1.09255984E-1,-3.5986286E-1,-2.77577E-1,-6.460385E-2,2.8399086E-1,1.0754974E-1,9.167214E-2,-7.452523E-2,3.5684967E-1,7.33293E-1],"split_indices":[64,93,9,1,94,0,0,0,46,8,66,85,57,0,21,0,37,65,4,0,0,0,32,0,0,0,0,0,0,0,0,0,0],"split_type":[0,0,0,0,0,0,0,0,0,0,0,0,0,0,0,0,0,0,0,0,0,0,0,0,0,0,0,0,0,0,0,0,0],"sum_hessian":[1.34E2,9.7E1,3.7E1,3.4E1,6.3E1,7E0,3E1,8E0,2.6E1,3.5E1,2.8E1,1.1E1,1.9E1,3E0,2.3E1,4E0,3.1E1,1.2E1,1.6E1,8E0,3E0,7E0,1.2E1,3E0,2E1,1.4E1,1.7E1,3E0,9E0,3E0,1.3E1,5E0,7E0],"tree_param":{"num_deleted":"0","num_feature":"98","num_nodes":"33","size_leaf_vector":"1"}},{"base_weights":[-5.481829E-3,-3.3892174E0,9.166367E0,-8.145001E0,-1.1310472E0,9.923459E0,1.25106815E-2,-6.5415233E-1,-6.312333E0,-3.1966019E0,5.496727E-1,5.406095E0,1.2347079E1,-8.24791E-2,-6.8487973E0,-4.1872864E0,-9.2463267E-1,1.9198469E0,-1.4170245E0,1.2814605E-1,3.1435364E-1,2.2882965E-1,6.9097996E-1,-1.05159E-1,-3.7277406E-1,-2.4397102E-1,7.358551E-3,-1.05623625E-1,-1.0756684E-2,5.2007373E-2,2.5273377E-1,2.490743E-2,-1.1282629E-1],"categories":[],"categories_nodes":[],"categories_segments":[],"categories_sizes":[],"default_left":[0,0,0,0,0,0,0,0,0,0,0,0,0,0,0,0,0,0,0,0,0,0,0,0,0,0,0,0,0,0,0,0,0],"id":18,"left_children":[1,3,5,7,9,11,-1,-1,13,15,17,19,21,-1,23,25,27,29,31,-1,-1,-1,-1,-1,-1,-1,-1,-1,-1,-1,-1,-1,-1],"loss_changes":[4.375982E3,1.0969427E3,2.5403052E2,2.160586E2,2.4824203E2,3.1644385E2,0E0,0E0,5.373877E1,6.815402E1,1.1050918E2,1.8953552E1,1.8848169E2,0E0,5.053882E1,6.671869E1,8.816019E0,6.0927353E1,2.8456516E1,0E0,0E0,0E0,0E0,0E0,0E0,0E0,0E0,0E0,0E0,0E0,0E0,0E0,0E0],"parents":[2147483647,0,0,1,1,2,2,3,3,4,4,5,5,8,8,9,9,10,10,11,11,12,12,14,14,15,15,16,16,17,17,18,18],"right_children":[2,4,6,8,10,12,-1,-1,14,16,18,20,22,-1,24,26,28,30,32,-1,-1,-1,-1,-1,-1,-1,-1,-1,-1,-1,-1,-1,-1],"split_conditions":[5.0978E2,4.8263E2,5.388E2,4.7358E2,4.9221E2,5.16E2,1.25106815E-2,-6.5415233E-1,3.4415E6,4.895E2,4.9803E2,5.1753E2,4.1162E6,-8.24791E-2,4.74E2,6.0886E6,4.9442E2,5.1117E6,3.5352E6,1.2814605E-1,3.1435364E-1,2.2882965E-1,6.9097996E-1,-1.05159E-1,-3.7277406E-1,-2.4397102E-1,7.358551E-3,-1.05623625E-1,-1.0756684E-2,5.2007373E-2,2.5273377E-1,2.490743E-2,-1.1282629E-1],"split_indices":[64,94,92,2,94,92,0,0,39,86,63,28,32,0,21,4,71,74,46,0,0,0,0,0,0,0,0,0,0,0,0,0,0],"split_type":[0,0,0,0,0,0,0,0,0,0,0,0,0,0,0,0,0,0,0,0,0,0,0,0,0,0,0,0,0,0,0,0,0],"sum_hessian":[1.39E2,1.02E2,3.7E1,3.2E1,7E1,3.4E1,3E0,7E0,2.5E1,3.1E1,3.9E1,1.3E1,2.1E1,3E0,2.2E1,2.1E1,1E1,2.3E1,1.6E1,4E0,9E0,4E0,1.7E1,3E0,1.9E1,1.8E1,3E0,3E0,7E0,1.9E1,4E0,5E0,1.1E1],"tree_param":{"num_deleted":"0","num_feature":"98","num_nodes":"33","size_leaf_vector":"1"}},{"base_weights":[-3.9098674E-1,-3.2346768E0,8.79482E0,-7.1553826E0,-8.1846255E-1,6.8320594E0,7.274137E-1,-8.9906566E-2,-7.9125986E0,-2.5034983E0,1.0016873E0,4.933601E0,9.658918E0,-1.1540711E-1,-8.606036E0,1.5837479E-1,-3.176181E0,2.4229584E0,-4.8218918E-1,5.815471E0,3.0682756E-2,2.2622986E-1,5.7359904E-1,-6.749224E-1,-3.512174E-1,-2.6546434E-1,-1.00458495E-1,5.0177004E-2,1.707723E-1,6.564667E-2,-5.9498724E-2,1.4307435E-1,3.355458E-1],"categories":[],"categories_nodes":[],"categories_segments":[],"categories_sizes":[],"default_left":[0,0,0,0,0,0,0,0,0,0,0,0,0,0,0,0,0,0,0,0,0,0,0,0,0,0,0,0,0,0,0,0,0],"id":19,"left_children":[1,3,5,7,9,11,-1,-1,13,15,17,19,21,-1,23,-1,25,27,29,31,-1,-1,-1,-1,-1,-1,-1,-1,-1,-1,-1,-1,-1],"loss_changes":[3.4242542E3,9.414702E2,2.5067725E2,1.399226E2,1.9572984E2,8.651355E1,0E0,0E0,1.08385254E2,1.3594827E2,6.654703E1,6.119507E1,3.1873474E1,0E0,1.2959204E2,0E0,6.401349E1,1.9112549E1,2.189134E1,1.7828644E1,0E0,0E0,0E0,0E0,0E0,0E0,0E0,0E0,0E0,0E0,0E0,0E0,0E0],"parents":[2147483647,0,0,1,1,2,2,3,3,4,4,5,5,8,8,9,9,10,10,11,11,12,12,14,14,16,16,17,17,18,18,19,19],"right_children":[2,4,6,8,10,12,-1,-1,14,16,18,20,22,-1,24,-1,26,28,30,32,-1,-1,-1,-1,-1,-1,-1,-1,-1,-1,-1,-1,-1],"split_conditions":[5.0978E2,4.8902E2,6.1293E6,3.4415E6,4.9673E2,6.1293E6,7.274137E-1,-8.9906566E-2,4.692E2,4.6891E2,4.9803E2,5.3641E2,4.776E6,-1.1540711E-1,4.755E2,1.5837479E-1,3.6214E6,3.9332E6,3.2062E6,5.1821E2,3.0682756E-2,2.2622986E-1,5.7359904E-1,-6.749224E-1,-3.512174E-1,-2.6546434E-1,-1.00458495E-1,5.0177004E-2,1.707723E-1,6.564667E-2,-5.9498724E-2,1.4307435E-1,3.355458E-1],"split_indices":[71,85,18,46,92,67,0,0,35,17,63,85,4,0,7,0,4,18,81,24,0,0,0,0,0,0,0,0,0,0,0,0,0],"split_type":[0,0,0,0,0,0,0,0,0,0,0,0,0,0,0,0,0,0,0,0,0,0,0,0,0,0,0,0,0,0,0,0,0],"sum_hessian":[1.29E2,9.9E1,3E1,3.7E1,6.2E1,2.4E1,6E0,5E0,3.2E1,3.2E1,3E1,1.6E1,8E0,4E0,2.8E1,3E0,2.9E1,1.5E1,1.5E1,1.3E1,3E0,3E0,5E0,5E0,2.3E1,9E0,2E1,7E0,8E0,4E0,1.1E1,4E0,9E0],"tree_param":{"num_deleted":"0","num_feature":"98","num_nodes":"33","size_leaf_vector":"1"}},{"base_weights":[7.182369E-2,-2.9522433E0,9.141912E0,-6.7222457E0,-7.028226E-1,4.35188E0,1.2277341E1,-9.27636E0,-4.6531997E0,-2.302807E0,5.7021433E-1,6.065567E0,-9.385758E-2,1.3256722E1,2.5228158E-1,-2.7505037E-1,-5.246169E-1,-3.705101E-2,-5.2029753E0,-3.6621513E0,-5.847844E-1,3.5425072E0,-2.4140422E-1,1.8303935E-1,3.6301488E-1,2.5980073E-1,7.306437E-1,-8.623429E-2,-2.8576696E-1,-2.7146456E-1,-6.081753E-2,5.5763245E-2,-6.8816535E-2,2.1464355E-1,8.594628E-2,-4.8410434E-2,9.391671E-2],"categories":[],"categories_nodes":[],"categories_segments":[],"categories_sizes":[],"default_left":[0,0,0,0,0,0,0,0,0,0,0,0,0,0,0,0,0,0,0,0,0,0,0,0,0,0,0,0,0,0,0,0,0,0,0,0,0],"id":20,"left_children":[1,3,5,7,9,11,13,15,17,19,21,23,-1,25,-1,-1,-1,-1,27,29,31,33,35,-1,-1,-1,-1,-1,-1,-1,-1,-1,-1,-1,-1,-1,-1],"loss_changes":[3.729844E3,8.602683E2,4.5720972E2,1.5764929E2,1.3370766E2,1.7150516E2,7.476367E1,1.57335205E1,4.5613464E1,6.5584564E1,9.01128E1,7.898407E0,0E0,1.09907715E2,0E0,0E0,0E0,0E0,2.5785889E1,6.2549225E1,2.037432E1,3.5676727E0,4.8037678E1,0E0,0E0,0E0,0E0,0E0,0E0,0E0,0E0,0E0,0E0,0E0,0E0,0E0,0E0],"parents":[2147483647,0,0,1,1,2,2,3,3,4,4,5,5,6,6,7,7,8,8,9,9,10,10,11,11,13,13,18,18,19,19,20,20,21,21,22,22],"right_children":[2,4,6,8,10,12,14,16,18,20,22,24,-1,26,-1,-1,-1,-1,28,30,32,34,36,-1,-1,-1,-1,-1,-1,-1,-1,-1,-1,-1,-1,-1,-1],"split_conditions":[5.1208E2,4.8902E2,4.9778E6,4.7864E2,4.9221E2,5.36E2,5.3023E2,4.0561E6,3.7969E6,4.0589E6,4.9527E2,5.1077E2,-9.385758E-2,5.1867E2,2.5228158E-1,-2.7505037E-1,-5.246169E-1,-3.705101E-2,4.772E2,4.945E2,4.9108E2,4.995E2,5.0044E6,1.8303935E-1,3.6301488E-1,2.5980073E-1,7.306437E-1,-8.623429E-2,-2.8576696E-1,-2.7146456E-1,-6.081753E-2,5.5763245E-2,-6.8816535E-2,2.1464355E-1,8.594628E-2,-4.8410434E-2,9.391671E-2],"split_indices":[71,85,25,92,94,92,66,95,32,11,71,65,0,71,0,0,0,0,3,78,29,0,32,0,0,0,0,0,0,0,0,0,0,0,0,0,0],"split_type":[0,0,0,0,0,0,0,0,0,0,0,0,0,0,0,0,0,0,0,0,0,0,0,0,0,0,0,0,0,0,0,0,0,0,0,0,0],"sum_hessian":[1.34E2,1.01E2,3.3E1,3.7E1,6.4E1,1.4E1,1.9E1,1.5E1,2.2E1,2.8E1,3.6E1,1.1E1,3E0,1.6E1,3E0,5E0,1E1,3E0,1.9E1,1.5E1,1.3E1,7E0,2.9E1,5E0,6E0,3E0,1.3E1,3E0,1.6E1,8E0,7E0,4E0,9E0,4E0,3E0,2.2E1,7E0],"tree_param":{"num_deleted":"0","num_feature":"98","num_nodes":"37","size_leaf_vector":"1"}},{"base_weights":[-6.7034826E-2,-3.2051728E0,8.061656E0,-7.1193094E0,-1.0216259E0,4.097739E0,1.0938422E1,-5.77816E-1,-5.6498127E0,2.823683E0,-1.6006975E0,5.100726E0,-3.4394838E-2,1.7716955E-1,6.4524984E-1,-1.1353028E-1,-6.099662E0,2.2326875E-1,3.0862732E-2,-3.824704E0,-4.191378E-1,1.0450973E-1,2.8395882E-1,-3.242373E-1,-1.22839354E-1,-2.7032813E-1,-6.452959E-2,3.9033603E-2,-6.007735E-2],"categories":[],"categories_nodes":[],"categories_segments":[],"categories_sizes":[],"default_left":[0,0,0,0,0,0,0,0,0,0,0,0,0,0,0,0,0,0,0,0,0,0,0,0,0,0,0,0,0],"id":21,"left_children":[1,3,5,7,9,11,13,-1,15,17,19,21,-1,-1,-1,-1,23,-1,-1,25,27,-1,-1,-1,-1,-1,-1,-1,-1],"loss_changes":[3.5715835E3,8.559435E2,3.9990454E2,1.694353E2,1.5148268E2,8.990753E1,2.7421606E2,0E0,3.0233948E1,2.98442E1,1.5080913E2,1.4251068E1,0E0,0E0,0E0,0E0,1.9138672E1,0E0,0E0,7.319449E1,3.7548965E1,0E0,0E0,0E0,0E0,0E0,0E0,0E0,0E0],"parents":[2147483647,0,0,1,1,2,2,3,3,4,4,5,5,6,6,8,8,9,9,10,10,11,11,16,16,19,19,20,20],"right_children":[2,4,6,8,10,12,14,-1,16,18,20,22,-1,-1,-1,-1,24,-1,-1,26,28,-1,-1,-1,-1,-1,-1,-1,-1],"split_conditions":[5.0738E2,4.8505E2,4.9778E6,4.7358E2,4.7261E2,5.3738E2,5.1591E2,-5.77816E-1,3.4415E6,4.1932E6,4.938E2,5.0692E2,-3.4394838E-2,1.7716955E-1,6.4524984E-1,-1.1353028E-1,5.0607E6,2.2326875E-1,3.0862732E-2,4.7685E6,4.9615E2,1.0450973E-1,2.8395882E-1,-3.242373E-1,-1.22839354E-1,-2.7032813E-1,-6.452959E-2,3.9033603E-2,-6.007735E-2],"split_indices":[85,94,25,2,0,57,85,0,53,18,85,80,0,0,0,0,95,0,0,18,35,0,0,0,0,0,0,0,0],"split_type":[0,0,0,0,0,0,0,0,0,0,0,0,0,0,0,0,0,0,0,0,0,0,0,0,0,0,0,0,0],"sum_hessian":[1.38E2,1E2,3.8E1,3.5E1,6.5E1,1.7E1,2.1E1,7E0,2.8E1,8E0,5.7E1,1.4E1,3E0,5E0,1.6E1,4E0,2.4E1,4E0,4E0,1.9E1,3.8E1,3E0,1.1E1,2.1E1,3E0,1.1E1,8E0,1.5E1,2.3E1],"tree_param":{"num_deleted":"0","num_feature":"98","num_nodes":"29","size_leaf_vector":"1"}},{"base_weights":[3.625041E-1,-2.8742774E0,7.959878E0,-6.276903E0,-7.4938244E-1,6.885368E-1,6.309976E0,-4.1260988E-2,-6.932575E0,2.5437775E0,-1.3930267E0,2.1770961E0,8.277457E0,-4.0977783E0,-8.656501E0,3.5015216E0,1.158905E-2,-3.5370352E0,-5.441309E-1,1.8648513E-1,-9.3027115E-2,4.4988036E0,1.0547387E1,-7.923889E-2,-2.3195358E-1,-5.021029E-1,-2.7480507E-1,8.567009E-2,2.2071305E-1,-2.6624364E-1,-7.652741E-2,3.7818316E-2,-8.4368594E-2,9.4797514E-2,2.6717314E-1,2.7925354E-1,6.066149E-1],"categories":[],"categories_nodes":[],"categories_segments":[],"categories_sizes":[],"default_left":[0,0,0,0,0,0,0,0,0,0,0,0,0,0,0,0,0,0,0,0,0,0,0,0,0,0,0,0,0,0,0,0,0,0,0,0,0],"id":22,"left_children":[1,3,5,7,9,-1,11,-1,13,15,17,19,21,23,25,27,-1,29,31,-1,-1,33,35,-1,-1,-1,-1,-1,-1,-1,-1,-1,-1,-1,-1,-1,-1],"loss_changes":[3.2934868E3,6.749371E2,2.966006E2,1.2296179E2,1.2860135E2,0E0,2.5031433E2,0E0,1.2091089E2,2.133142E1,8.9077385E1,8.2165634E1,1.4124951E2,1.1691895E1,2.8007202E1,3.861206E0,0E0,4.207187E1,5.6287193E1,0E0,0E0,1.1854294E1,3.4483032E1,0E0,0E0,0E0,0E0,0E0,0E0,0E0,0E0,0E0,0E0,0E0,0E0,0E0,0E0],"parents":[2147483647,0,0,1,1,2,2,3,3,4,4,6,6,8,8,9,9,10,10,11,11,12,12,13,13,14,14,15,15,17,17,18,18,21,21,22,22],"right_children":[2,4,6,8,10,-1,12,-1,14,16,18,20,22,24,26,28,-1,30,32,-1,-1,34,36,-1,-1,-1,-1,-1,-1,-1,-1,-1,-1,-1,-1,-1,-1],"split_conditions":[5.0978E2,4.8902E2,4.9311E2,3.4415E6,4.8275E2,6.885368E-1,5.214E2,-4.1260988E-2,4.7941E2,4.8589E6,4.9314E2,5.3572E2,5.2141E2,4.772E2,4.8618E2,4.6887E2,1.158905E-2,4.903E2,4.9725E2,1.8648513E-1,-9.3027115E-2,5.1304E2,4.914E6,-7.923889E-2,-2.3195358E-1,-5.021029E-1,-2.7480507E-1,8.567009E-2,2.2071305E-1,-2.6624364E-1,-7.652741E-2,3.7818316E-2,-8.4368594E-2,9.4797514E-2,2.6717314E-1,2.7925354E-1,6.066149E-1],"split_indices":[57,85,2,46,30,0,0,0,64,67,78,78,57,3,31,1,0,23,56,0,0,30,32,0,0,0,0,0,0,0,0,0,0,0,0,0,0],"split_type":[0,0,0,0,0,0,0,0,0,0,0,0,0,0,0,0,0,0,0,0,0,0,0,0,0,0,0,0,0,0,0,0,0,0,0,0,0],"sum_hessian":[1.32E2,9.3E1,3.9E1,3.5E1,5.8E1,7E0,3.2E1,4E0,3.1E1,9E0,4.9E1,1.1E1,2.1E1,1.3E1,1.8E1,6E0,3E0,1.3E1,3.6E1,8E0,3E0,9E0,1.2E1,3E0,1E1,1.1E1,7E0,3E0,3E0,6E0,7E0,1.7E1,1.9E1,3E0,6E0,4E0,8E0],"tree_param":{"num_deleted":"0","num_feature":"98","num_nodes":"37","size_leaf_vector":"1"}},{"base_weights":[2.5461036E-1,-2.6068823E0,8.750056E0,-6.3113027E0,-7.962178E-1,1.2949042E-1,9.690438E0,-5.3585494E-1,-4.7721295E0,-2.3504555E0,5.393223E-1,2.266558E-1,1.0790889E1,-5.4452132E-2,-5.187139E0,8.877166E-2,-2.9807656E0,2.6191955E0,-1.7194621E-1,1.7521706E-1,1.166495E1,-7.927056E-2,-2.813088E-1,-2.0255399E-1,-5.6344863E-2,1.6058546E-1,4.6374895E-2,-4.241454E-2,1.0857566E-1,3.612795E-1,6.6842586E-1],"categories":[],"categories_nodes":[],"categories_segments":[],"categories_sizes":[],"default_left":[0,0,0,0,0,0,0,0,0,0,0,0,0,0,0,0,0,0,0,0,0,0,0,0,0,0,0,0,0,0,0],"id":23,"left_children":[1,3,5,7,9,-1,11,-1,13,15,17,-1,19,-1,21,-1,23,25,27,-1,29,-1,-1,-1,-1,-1,-1,-1,-1,-1,-1],"loss_changes":[3.3775432E3,6.925509E2,1.776582E2,1.7942017E2,1.4864568E2,0E0,1.21345215E2,0E0,3.562091E1,9.111159E1,5.814495E1,0E0,1.1197534E2,0E0,2.9031189E1,0E0,5.2977264E1,7.044693E0,4.939165E1,0E0,6.2222412E1,0E0,0E0,0E0,0E0,0E0,0E0,0E0,0E0,0E0,0E0],"parents":[2147483647,0,0,1,1,2,2,3,3,4,4,6,6,8,8,9,9,10,10,12,12,14,14,16,16,17,17,18,18,20,20],"right_children":[2,4,6,8,10,-1,12,-1,14,16,18,-1,20,-1,22,-1,24,26,28,-1,30,-1,-1,-1,-1,-1,-1,-1,-1,-1,-1],"split_conditions":[5.1433E2,4.8263E2,3.803E6,4.7358E2,4.9221E2,1.2949042E-1,5.1591E2,-5.3585494E-1,3.4415E6,4.7292E2,4.8925E2,2.266558E-1,3.1835E6,-5.4452132E-2,4.74E2,8.877166E-2,4.9125E2,4.8811E2,5.0044E6,1.7521706E-1,4.776E6,-7.927056E-2,-2.813088E-1,-2.0255399E-1,-5.6344863E-2,1.6058546E-1,4.6374895E-2,-4.241454E-2,1.0857566E-1,3.612795E-1,6.6842586E-1],"split_indices":[50,94,18,2,87,0,92,0,39,1,65,0,67,0,21,0,37,58,32,0,39,0,0,0,0,0,0,0,0,0,0],"split_type":[0,0,0,0,0,0,0,0,0,0,0,0,0,0,0,0,0,0,0,0,0,0,0,0,0,0,0,0,0,0,0],"sum_hessian":[1.37E2,1.03E2,3.4E1,3.3E1,7E1,5E0,2.9E1,7E0,2.6E1,3.2E1,3.8E1,6E0,2.3E1,3E0,2.3E1,4E0,2.8E1,9E0,2.9E1,3E0,2E1,3E0,2E1,1.7E1,1.1E1,6E0,3E0,2.3E1,6E0,7E0,1.3E1],"tree_param":{"num_deleted":"0","num_feature":"98","num_nodes":"31","size_leaf_vector":"1"}},{"base_weights":[-1.2716459E-1,-2.6640444E0,6.819221E0,-6.4259386E0,-9.78501E-1,4.133339E0,9.2875595E0,-5.124111E-1,-4.9457703E0,-2.53373E0,3.6790618E-1,5.3522987E0,-1.040287E-1,6.1279798E0,6.0586584E-1,-5.241051E-2,-5.42961E0,-4.3351603E0,-1.0559708E0,1.730918E0,-7.1479464E-1,1.7798328E-1,6.251175E0,1.22068785E-1,3.602642E-1,-7.629738E-2,-2.9828322E-1,-2.917621E-1,-8.935874E-2,7.6654054E-2,-8.015218E-2,1.4610533E-1,-2.791966E-2,-8.043251E-2,5.8113288E-2,1.8245606E-1,3.6888453E-1],"categories":[],"categories_nodes":[],"categories_segments":[],"categories_sizes":[],"default_left":[0,0,0,0,0,0,0,0,0,0,0,0,0,0,0,0,0,0,0,0,0,0,0,0,0,0,0,0,0,0,0,0,0,0,0,0,0],"id":24,"left_children":[1,3,5,7,9,11,13,-1,15,17,19,21,-1,23,-1,-1,25,27,29,31,33,-1,35,-1,-1,-1,-1,-1,-1,-1,-1,-1,-1,-1,-1,-1,-1],"loss_changes":[2.5028892E3,6.531591E2,2.135387E2,1.3035864E2,1.5379208E2,1.6262604E2,9.562134E1,0E0,4.145343E1,8.593294E1,6.0266617E1,5.14093E0,0E0,2.609674E1,0E0,0E0,3.693341E1,4.6904236E1,3.078559E1,5.0717705E1,4.045956E1,0E0,2.3904724E0,0E0,0E0,0E0,0E0,0E0,0E0,0E0,0E0,0E0,0E0,0E0,0E0,0E0,0E0],"parents":[2147483647,0,0,1,1,2,2,3,3,4,4,5,5,6,6,8,8,9,9,10,10,11,11,13,13,16,16,17,17,18,18,19,19,20,20,22,22],"right_children":[2,4,6,8,10,12,14,-1,16,18,20,22,-1,24,-1,-1,26,28,30,32,34,-1,36,-1,-1,-1,-1,-1,-1,-1,-1,-1,-1,-1,-1,-1,-1],"split_conditions":[5.1E2,4.8263E2,5.0409E6,4.7358E2,4.9221E2,5.36E2,5.0409E6,-5.124111E-1,3.4415E6,3.9563E6,4.9266E2,5.2126E2,-1.040287E-1,5.19E2,6.0586584E-1,-5.241051E-2,4.74E2,4.99E2,3.4433E6,4.9977E2,4.6931E6,1.7798328E-1,5.231E2,1.22068785E-1,3.602642E-1,-7.629738E-2,-2.9828322E-1,-2.917621E-1,-8.935874E-2,7.6654054E-2,-8.015218E-2,1.4610533E-1,-2.791966E-2,-8.043251E-2,5.8113288E-2,1.8245606E-1,3.6888453E-1],"split_indices":[78,94,25,2,94,92,39,0,39,11,21,71,0,28,0,0,21,29,18,73,46,0,14,0,0,0,0,0,0,0,0,0,0,0,0,0,0],"split_type":[0,0,0,0,0,0,0,0,0,0,0,0,0,0,0,0,0,0,0,0,0,0,0,0,0,0,0,0,0,0,0,0,0,0,0,0,0],"sum_hessian":[1.4E2,1.03E2,3.7E1,3.1E1,7.2E1,1.9E1,1.8E1,7E0,2.4E1,3.3E1,3.9E1,1.6E1,3E0,1E1,8E0,3E0,2.1E1,1.4E1,1.9E1,1.7E1,2.2E1,7E0,9E0,3E0,7E0,3E0,1.8E1,8E0,6E0,3E0,1.6E1,1.1E1,6E0,1.5E1,7E0,4E0,5E0],"tree_param":{"num_deleted":"0","num_feature":"98","num_nodes":"37","size_leaf_vector":"1"}},{"base_weights":[-1.2395394E-1,-2.4885461E0,6.8382444E0,-7.619608E0,-1.3123258E0,6.1259615E-1,5.0472565E0,-5.143823E-1,-2.7984244E-1,-2.4608085E0,5.7197434E-1,5.973335E0,-1.00127414E-1,6.664022E-2,-2.8837433E0,2.2666728E0,-3.7840548E-1,4.3682423E0,4.4190636E-1,-1.9998533E-1,-5.6070484E-2,1.6152322E-1,3.822352E-2,-6.0571957E-2,7.8986466E-2,1.3146414E-1,2.4174102E-1],"categories":[],"categories_nodes":[],"categories_segments":[],"categories_sizes":[],"default_left":[0,0,0,0,0,0,0,0,0,0,0,0,0,0,0,0,0,0,0,0,0,0,0,0,0,0,0],"id":25,"left_children":[1,3,5,7,9,-1,11,-1,-1,13,15,17,-1,-1,19,21,23,25,-1,-1,-1,-1,-1,-1,-1,-1,-1],"loss_changes":[2.2724155E3,6.116323E2,2.775155E2,4.4960693E1,1.8535486E2,0E0,1.9476471E2,0E0,0E0,8.8879364E1,5.400776E1,7.6349304E1,0E0,0E0,8.991626E1,1.4904129E1,3.7799976E1,1.892395E0,0E0,0E0,0E0,0E0,0E0,0E0,0E0,0E0,0E0],"parents":[2147483647,0,0,1,1,2,2,3,3,4,4,6,6,9,9,10,10,11,11,14,14,15,15,16,16,17,17],"right_children":[2,4,6,8,10,-1,12,-1,-1,14,16,18,-1,-1,20,22,24,26,-1,-1,-1,-1,-1,-1,-1,-1,-1],"split_conditions":[5.1185E2,4.7442E2,4.9311E2,4.755E2,4.9673E2,6.1259615E-1,5.36E2,-5.143823E-1,-2.7984244E-1,4.7304E2,3.7913E6,6.7072E6,-1.00127414E-1,6.664022E-2,4.9125E2,4.9527E2,4.9456E6,5.203E2,4.4190636E-1,-1.9998533E-1,-5.6070484E-2,1.6152322E-1,3.822352E-2,-6.0571957E-2,7.8986466E-2,1.3146414E-1,2.4174102E-1],"split_indices":[57,93,2,7,92,0,92,0,0,0,4,39,0,0,37,29,67,28,0,0,0,0,0,0,0,0,0],"split_type":[0,0,0,0,0,0,0,0,0,0,0,0,0,0,0,0,0,0,0,0,0,0,0,0,0,0,0],"sum_hessian":[1.36E2,1.02E2,3.4E1,1.8E1,8.4E1,7E0,2.7E1,6E0,1.2E1,5.2E1,3.2E1,2.4E1,3E0,5E0,4.7E1,1.1E1,2.1E1,1.7E1,7E0,2.8E1,1.9E1,6E0,5E0,1.5E1,6E0,5E0,1.2E1],"tree_param":{"num_deleted":"0","num_feature":"98","num_nodes":"27","size_leaf_vector":"1"}},{"base_weights":[3.5041338E-1,-2.1548052E0,6.391053E0,-4.685775E0,-5.0131977E-1,5.8689797E-1,5.1390705E0,-2.841568E-3,-5.069941E0,2.880268E0,-9.93012E-1,1.975553E0,6.7037077E0,-6.455681E0,-3.772714E0,1.9215943E-1,4.782753E-2,-2.7267103E0,-5.0420973E-2,1.6695999E-1,-9.6372604E-2,3.4102235E0,8.57736E0,-2.05343E-1,-3.7271437E-1,-1.0202535E-1,-2.3408626E-1,-1.8282156E-1,-5.145518E-3,4.3947E-2,-5.1430594E-2,7.3336415E-2,2.0168088E-1,2.3377381E-1,5.112788E-1],"categories":[],"categories_nodes":[],"categories_segments":[],"categories_sizes":[],"default_left":[0,0,0,0,0,0,0,0,0,0,0,0,0,0,0,0,0,0,0,0,0,0,0,0,0,0,0,0,0,0,0,0,0,0,0],"id":26,"left_children":[1,3,5,7,9,-1,11,-1,13,15,17,19,21,23,25,-1,-1,27,29,-1,-1,31,33,-1,-1,-1,-1,-1,-1,-1,-1,-1,-1,-1,-1],"loss_changes":[2.1172756E3,4.119582E2,2.1414148E2,6.9065E1,1.0428488E2,0E0,1.5999792E2,0E0,4.0358887E1,1.1142891E1,8.810762E1,7.562631E1,1.1267883E2,6.9151E0,2.3513428E1,0E0,0E0,4.5972336E1,3.3631416E1,0E0,0E0,6.1994095E0,4.2226685E1,0E0,0E0,0E0,0E0,0E0,0E0,0E0,0E0,0E0,0E0,0E0,0E0],"parents":[2147483647,0,0,1,1,2,2,3,3,4,4,6,6,8,8,9,9,10,10,11,11,12,12,13,13,14,14,17,17,18,18,21,21,22,22],"right_children":[2,4,6,8,10,-1,12,-1,14,16,18,20,22,24,26,-1,-1,28,30,-1,-1,32,34,-1,-1,-1,-1,-1,-1,-1,-1,-1,-1,-1,-1],"split_conditions":[5.0975E2,4.8902E2,4.9311E2,3.3674E6,4.7261E2,5.8689797E-1,5.214E2,-2.841568E-3,4.772E2,4.1932E6,4.9193E2,5.3592E2,5.1431E2,4.7864E2,4.8E2,1.9215943E-1,4.782753E-2,4.6294E6,4.9725E2,1.6695999E-1,-9.6372604E-2,5.1304E2,4.914E6,-2.05343E-1,-3.7271437E-1,-1.0202535E-1,-2.3408626E-1,-1.8282156E-1,-5.145518E-3,4.3947E-2,-5.1430594E-2,7.3336415E-2,2.0168088E-1,2.3377381E-1,5.112788E-1],"split_indices":[64,85,2,46,0,0,0,0,94,18,80,85,59,57,78,0,0,11,56,0,0,30,32,0,0,0,0,0,0,0,0,0,0,0,0],"split_type":[0,0,0,0,0,0,0,0,0,0,0,0,0,0,0,0,0,0,0,0,0,0,0,0,0,0,0,0,0,0,0,0,0,0,0],"sum_hessian":[1.38E2,9.8E1,4E1,3.8E1,6E1,6E0,3.4E1,3E0,3.5E1,7E0,5.3E1,1.2E1,2.2E1,1.5E1,2E1,4E0,3E0,1.8E1,3.5E1,9E0,3E0,9E0,1.3E1,6E0,9E0,8E0,1.2E1,1.3E1,5E0,1.8E1,1.7E1,3E0,6E0,5E0,8E0],"tree_param":{"num_deleted":"0","num_feature":"98","num_nodes":"35","size_leaf_vector":"1"}},{"base_weights":[1.7421573E-1,-2.129377E0,6.656063E0,-5.1765695E0,-5.762058E-1,5.504598E-1,5.1282544E0,-4.9593356E-2,-5.8195257E0,-1.588359E0,8.9375407E-1,-9.275856E-2,5.9729004E0,-4.7636437E-1,-4.5485716E0,-2.4069428E-1,-1.1341028E0,1.9916954E0,-3.3696696E-1,3.7814353E0,8.04206E0,-1.3976197E-1,-2.6800594E-1,-1.401266E-1,-2.3107175E-2,3.5704423E-2,1.4530234E-1,-6.230138E-2,1.23722844E-1,5.865097E-2,2.1678936E-1,2.0904465E-1,4.3911606E-1],"categories":[],"categories_nodes":[],"categories_segments":[],"categories_sizes":[],"default_left":[0,0,0,0,0,0,0,0,0,0,0,0,0,0,0,0,0,0,0,0,0,0,0,0,0,0,0,0,0,0,0,0,0],"id":27,"left_children":[1,3,5,7,9,-1,11,-1,13,15,17,-1,19,-1,21,-1,23,25,27,29,31,-1,-1,-1,-1,-1,-1,-1,-1,-1,-1,-1,-1],"loss_changes":[2.1643142E3,5.0342804E2,1.9627087E2,9.1088684E1,1.0854298E2,0E0,1.880365E2,0E0,1.0274878E2,5.7544823E1,4.1208916E1,0E0,9.202081E1,0E0,2.0590027E1,0E0,4.242837E1,1.6615726E1,4.1419563E1,1.6603775E1,4.3963623E-1,0E0,0E0,0E0,0E0,0E0,0E0,0E0,0E0,0E0,0E0,0E0,0E0],"parents":[2147483647,0,0,1,1,2,2,3,3,4,4,6,6,8,8,9,9,10,10,12,12,14,14,16,16,17,17,18,18,19,19,20,20],"right_children":[2,4,6,8,10,-1,12,-1,14,16,18,-1,20,-1,22,-1,24,26,28,30,32,-1,-1,-1,-1,-1,-1,-1,-1,-1,-1,-1,-1],"split_conditions":[5.1379E2,4.8172E2,4.9947E2,3.4415E6,4.941E2,5.504598E-1,5.15E2,-4.9593356E-2,4.7358E2,3.1722E6,4.9696E2,-9.275856E-2,5.2875E6,-4.7636437E-1,4.777E2,-2.4069428E-1,4.8859E2,3.9332E6,4.5571E6,5.0283E2,5.203E2,-1.3976197E-1,-2.6800594E-1,-1.401266E-1,-2.3107175E-2,3.5704423E-2,1.4530234E-1,-6.230138E-2,1.23722844E-1,5.865097E-2,2.1678936E-1,2.0904465E-1,4.3911606E-1],"split_indices":[50,93,9,46,94,0,0,0,2,4,63,0,81,0,64,0,80,18,60,72,57,0,0,0,0,0,0,0,0,0,0,0,0],"split_type":[0,0,0,0,0,0,0,0,0,0,0,0,0,0,0,0,0,0,0,0,0,0,0,0,0,0,0,0,0,0,0,0,0],"sum_hessian":[1.43E2,1.06E2,3.7E1,3.5E1,7.1E1,8E0,2.9E1,5E0,3E1,4.2E1,2.9E1,3E0,2.6E1,6E0,2.4E1,4E0,3.8E1,1.5E1,1.4E1,1.4E1,1.2E1,9E0,1.5E1,1E1,2.8E1,7E0,8E0,1.1E1,3E0,3E0,1.1E1,3E0,9E0],"tree_param":{"num_deleted":"0","num_feature":"98","num_nodes":"33","size_leaf_vector":"1"}},{"base_weights":[2.232594E-1,-2.0808184E0,6.0354743E0,-4.7815046E0,-2.3149134E-1,5.3603363E-1,4.7167754E0,-5.3182397E0,-3.820877E-2,-1.2065125E0,8.859979E-1,1.515274E0,5.8542023E0,-3.105375E0,-6.5852733E0,1.236557E-1,-1.6569122E0,2.3116558E0,-5.987264E-1,2.6939304E0,-4.630966E-2,1.9631067E-1,7.455007E0,-5.261879E-2,-1.7654635E-1,-4.2413315E-1,-2.3095916E-1,-1.1461319E-1,-2.5643159E-2,1.8680573E-3,1.438558E-1,3.0633885E-2,-1.03535675E-1,7.304268E-2,1.6267624E-1,1.5670013E-1,4.2735597E-1],"categories":[],"categories_nodes":[],"categories_segments":[],"categories_sizes":[],"default_left":[0,0,0,0,0,0,0,0,0,0,0,0,0,0,0,0,0,0,0,0,0,0,0,0,0,0,0,0,0,0,0,0,0,0,0,0,0],"id":28,"left_children":[1,3,5,7,9,-1,11,13,-1,15,17,19,21,23,25,-1,27,29,31,33,-1,-1,35,-1,-1,-1,-1,-1,-1,-1,-1,-1,-1,-1,-1,-1,-1],"loss_changes":[1.88741E3,5.0333273E2,1.9656763E2,8.434192E1,6.753308E1,0E0,1.1129791E2,8.0486084E1,0E0,5.8788734E1,6.276861E1,3.1271612E1,4.4802063E1,9.388992E0,4.288678E1,0E0,2.0630585E1,1.9182854E1,2.8016253E1,7.7236176E-2,0E0,0E0,2.9841614E1,0E0,0E0,0E0,0E0,0E0,0E0,0E0,0E0,0E0,0E0,0E0,0E0,0E0,0E0],"parents":[2147483647,0,0,1,1,2,2,3,3,4,4,6,6,7,7,9,9,10,10,11,11,12,12,13,13,14,14,16,16,17,17,18,18,19,19,22,22],"right_children":[2,4,6,8,10,-1,12,14,-1,16,18,20,22,24,26,-1,28,30,32,34,-1,-1,36,-1,-1,-1,-1,-1,-1,-1,-1,-1,-1,-1,-1,-1,-1],"split_conditions":[5.0978E2,4.8902E2,4.9311E2,4.9129E2,4.9673E2,5.3603363E-1,4.141E6,4.735E2,-3.820877E-2,4.6891E2,4.9803E2,5.1374E2,4.9778E6,4.753E2,4.867E2,1.236557E-1,4.0589E6,3.2448E6,5.0287E2,5.1564E2,-4.630966E-2,1.9631067E-1,4.2543E6,-5.261879E-2,-1.7654635E-1,-4.2413315E-1,-2.3095916E-1,-1.1461319E-1,-2.5643159E-2,1.8680573E-3,1.438558E-1,3.0633885E-2,-1.03535675E-1,7.304268E-2,1.6267624E-1,1.5670013E-1,4.2735597E-1],"split_indices":[64,85,2,31,92,0,95,51,0,17,63,87,32,0,1,0,11,95,92,28,0,0,81,0,0,0,0,0,0,0,0,0,0,0,0,0,0],"split_type":[0,0,0,0,0,0,0,0,0,0,0,0,0,0,0,0,0,0,0,0,0,0,0,0,0,0,0,0,0,0,0,0,0,0,0,0,0],"sum_hessian":[1.39E2,1E2,3.9E1,4E1,6E1,7E0,3.2E1,3.5E1,5E0,3.2E1,2.8E1,9E0,2.3E1,1.4E1,2.1E1,3E0,2.9E1,1.4E1,1.4E1,6E0,3E0,1.2E1,1.1E1,3E0,1.1E1,9E0,1.2E1,1.8E1,1.1E1,3E0,1.1E1,8E0,6E0,3E0,3E0,3E0,8E0],"tree_param":{"num_deleted":"0","num_feature":"98","num_nodes":"37","size_leaf_vector":"1"}},{"base_weights":[-5.9564125E-2,-2.113549E0,5.6715403E0,-3.7858887E0,6.632184E-2,1.6444092E0,6.690628E0,-5.6974025E0,-2.5292912E0,1.1477532E0,-6.4448917E-1,1.4297995E-1,-2.9473877E-2,3.2413747E0,8.253186E0,-4.3777093E-1,-4.1030774E0,-3.1530232E0,-1.6915216E-1,2.1281586E0,-4.6632385E-1,-1.3225969E0,1.0093722E0,2.0027225E-1,7.617005E-2,1.3232194E-1,9.086939E0,-7.3373415E-2,-2.2815159E-1,-2.0328644E-1,-6.0346015E-2,5.075714E-2,-6.598084E-2,5.0529864E-2,1.1941953E-1,-8.655914E-2,6.1566543E-2,-9.127323E-2,3.258362E-2,-1.2942505E-2,8.433126E-2,2.9420647E-1,5.149503E-1],"categories":[],"categories_nodes":[],"categories_segments":[],"categories_sizes":[],"default_left":[0,0,0,0,0,0,0,0,0,0,0,0,0,0,0,0,0,0,0,0,0,0,0,0,0,0,0,0,0,0,0,0,0,0,0,0,0,0,0,0,0,0,0],"id":29,"left_children":[1,3,5,7,9,11,13,15,17,19,21,-1,-1,23,25,-1,27,29,31,33,35,37,39,-1,-1,-1,41,-1,-1,-1,-1,-1,-1,-1,-1,-1,-1,-1,-1,-1,-1,-1,-1],"loss_changes":[1.6953262E3,3.866725E2,1.4495007E2,1.2970978E2,3.68683E1,2.6117035E1,1.3493823E2,7.621173E1,5.5406265E1,3.1058958E1,3.385839E1,0E0,0E0,8.337296E0,6.94447E1,0E0,1.3912323E1,4.8379547E1,1.3602004E1,1.0762024E0,1.9310009E1,2.2038322E1,8.166749E0,0E0,0E0,0E0,5.3936768E0,0E0,0E0,0E0,0E0,0E0,0E0,0E0,0E0,0E0,0E0,0E0,0E0,0E0,0E0,0E0,0E0],"parents":[2147483647,0,0,1,1,2,2,3,3,4,4,5,5,6,6,7,7,8,8,9,9,10,10,13,13,14,14,16,16,17,17,18,18,19,19,20,20,21,21,22,22,26,26],"right_children":[2,4,6,8,10,12,14,16,18,20,22,-1,-1,24,26,-1,28,30,32,34,36,38,40,-1,-1,-1,42,-1,-1,-1,-1,-1,-1,-1,-1,-1,-1,-1,-1,-1,-1,-1,-1],"split_conditions":[5.1575E2,4.9314E2,4.1162E6,4.7999E2,4.9266E2,5.3222E6,5.16E2,4.7358E2,4.9456E6,4.9803E2,4.0158E6,1.4297995E-1,-2.9473877E-2,4.9778E6,3.1835E6,-4.3777093E-1,3.8158E6,4.906E2,3.9875E6,3.9332E6,4.8724E2,4.9973E6,4.8995E2,2.0027225E-1,7.617005E-2,1.3232194E-1,4.776E6,-7.3373415E-2,-2.2815159E-1,-2.0328644E-1,-6.0346015E-2,5.075714E-2,-6.598084E-2,5.0529864E-2,1.1941953E-1,-8.655914E-2,6.1566543E-2,-9.127323E-2,3.258362E-2,-1.2942505E-2,8.433126E-2,2.9420647E-1,5.149503E-1],"split_indices":[36,92,32,92,21,11,92,2,4,70,46,0,0,39,67,0,4,30,88,67,14,39,79,0,0,0,39,0,0,0,0,0,0,0,0,0,0,0,0,0,0,0,0],"split_type":[0,0,0,0,0,0,0,0,0,0,0,0,0,0,0,0,0,0,0,0,0,0,0,0,0,0,0,0,0,0,0,0,0,0,0,0,0,0,0,0,0,0,0],"sum_hessian":[1.42E2,1.05E2,3.7E1,5.9E1,4.6E1,8E0,2.9E1,2.2E1,3.7E1,1.8E1,2.8E1,5E0,3E0,1E1,1.9E1,6E0,1.6E1,2.9E1,8E0,1.1E1,7E0,2E1,8E0,6E0,4E0,3E0,1.6E1,3E0,1.3E1,1.9E1,1E1,4E0,4E0,3E0,8E0,4E0,3E0,1.6E1,4E0,3E0,5E0,6E0,1E1],"tree_param":{"num_deleted":"0","num_feature":"98","num_nodes":"43","size_leaf_vector":"1"}},{"base_weights":[1.6862068E-1,-1.91556E0,5.3227525E0,-4.494867E0,-4.972323E-1,2.1416106E0,7.35428E0,-3.938435E-1,-3.523526E0,2.412772E0,-8.3405936E-1,-5.1617432E-2,1.5988123E-1,8.862915E-2,8.38199E0,-2.4114952E0,-2.2713688E-1,2.412491E-2,1.8699265E-1,-3.0043273E0,-3.833246E-1,9.130888E0,1.5518379E-1,-1.5998673E-1,-2.8223673E-2,-1.8695349E-1,-7.608856E-2,2.4393281E-2,-4.9019013E-2,2.792674E-1,5.0713754E-1],"categories":[],"categories_nodes":[],"categories_segments":[],"categories_sizes":[],"default_left":[0,0,0,0,0,0,0,0,0,0,0,0,0,0,0,0,0,0,0,0,0,0,0,0,0,0,0,0,0,0,0],"id":30,"left_children":[1,3,5,7,9,11,13,-1,15,17,19,-1,-1,-1,21,23,-1,-1,-1,25,27,29,-1,-1,-1,-1,-1,-1,-1,-1,-1],"loss_changes":[1.4926117E3,3.5993695E2,2.4275317E2,8.722339E1,6.5723335E1,6.0280746E1,1.2281494E2,0E0,2.1913666E1,1.6126934E1,5.6563072E1,0E0,0E0,0E0,5.0718994E1,2.1488167E1,0E0,0E0,0E0,5.202957E0,2.6485748E1,4.338501E0,0E0,0E0,0E0,0E0,0E0,0E0,0E0,0E0,0E0],"parents":[2147483647,0,0,1,1,2,2,3,3,4,4,5,5,6,6,8,8,9,9,10,10,14,14,15,15,19,19,20,20,21,21],"right_children":[2,4,6,8,10,12,14,-1,16,18,20,-1,-1,-1,22,24,-1,-1,-1,26,28,30,-1,-1,-1,-1,-1,-1,-1,-1,-1],"split_conditions":[5.1433E2,4.8172E2,4.9778E6,4.7358E2,4.7261E2,5.15E2,5.1575E2,-3.938435E-1,4.7747E2,4.141E6,4.8614E2,-5.1617432E-2,1.5988123E-1,8.862915E-2,5.3023E2,4.7855E2,-2.2713688E-1,2.412491E-2,1.8699265E-1,4.001E6,4.9615E2,5.2222E2,1.5518379E-1,-1.5998673E-1,-2.8223673E-2,-1.8695349E-1,-7.608856E-2,2.4393281E-2,-4.9019013E-2,2.792674E-1,5.0713754E-1],"split_indices":[43,93,25,2,0,0,85,0,73,46,44,0,0,0,66,78,0,0,0,25,35,57,0,0,0,0,0,0,0,0,0],"split_type":[0,0,0,0,0,0,0,0,0,0,0,0,0,0,0,0,0,0,0,0,0,0,0,0,0,0,0,0,0,0,0],"sum_hessian":[1.37E2,9.8E1,3.9E1,3.4E1,6.4E1,1.6E1,2.3E1,6E0,2.8E1,6E0,5.8E1,4E0,1.2E1,4E0,1.9E1,1.5E1,1.3E1,3E0,3E0,9E0,4.9E1,1.6E1,3E0,1E1,5E0,5E0,4E0,2E1,2.9E1,5E0,1.1E1],"tree_param":{"num_deleted":"0","num_feature":"98","num_nodes":"31","size_leaf_vector":"1"}},{"base_weights":[1.4584462E-1,-2.0684998E0,5.034609E0,-5.438564E0,-1.0973018E0,2.7242095E0,6.5891285E0,-6.9642844E0,-3.0638428E0,-2.2827785E0,-2.9403686E-3,4.5260113E-2,3.3091977E0,2.5331115E-2,8.084424E0,-4.028873E-1,-1.381462E-1,-7.753693E-2,-1.9070612E-1,3.3931732E-1,-2.9273987E0,1.3986675E0,-8.1144714E-1,2.0628949E-1,9.516035E-2,4.6676072E-1,5.041336E0,-4.203583E-2,8.647652E-2,-1.8174241E-1,-4.7570802E-2,1.0502236E-1,-2.1249084E-2,-3.8352457E-3,-8.311272E-2,1.2267609E-1,3.05166E-1],"categories":[],"categories_nodes":[],"categories_segments":[],"categories_sizes":[],"default_left":[0,0,0,0,0,0,0,0,0,0,0,0,0,0,0,0,0,0,0,0,0,0,0,0,0,0,0,0,0,0,0,0,0,0,0,0,0],"id":31,"left_children":[1,3,5,7,9,11,13,15,17,19,21,-1,23,-1,25,-1,-1,-1,-1,27,29,31,33,-1,-1,-1,35,-1,-1,-1,-1,-1,-1,-1,-1,-1,-1],"loss_changes":[1.493495E3,3.049672E2,1.3648694E2,5.47489E1,9.7293785E1,1.7222366E1,2.2328296E2,3.2865356E1,5.437813E0,6.184253E1,4.646332E1,0E0,8.221466E0,0E0,2.9063354E1,0E0,0E0,0E0,0E0,1.45780325E1,3.7081085E1,2.0089651E1,1.612572E1,0E0,0E0,0E0,7.0111237E0,0E0,0E0,0E0,0E0,0E0,0E0,0E0,0E0,0E0,0E0],"parents":[2147483647,0,0,1,1,2,2,3,3,4,4,5,5,6,6,7,7,8,8,9,9,10,10,12,12,14,14,19,19,20,20,21,21,22,22,26,26],"right_children":[2,4,6,8,10,12,14,16,18,20,22,-1,24,-1,26,-1,-1,-1,-1,28,30,32,34,-1,-1,-1,36,-1,-1,-1,-1,-1,-1,-1,-1,-1,-1],"split_conditions":[5.055E2,4.796E2,5.16E2,4.5304E6,4.9314E2,3.9376E6,4.1162E6,4.8668E2,4.806E2,4.753E2,4.9266E2,4.5260113E-2,5.0186E6,2.5331115E-2,5.293E2,-4.028873E-1,-1.381462E-1,-7.753693E-2,-1.9070612E-1,4.727E2,4.9084E6,4.6744E6,4.079E6,2.0628949E-1,9.516035E-2,4.6676072E-1,5.36E2,-4.203583E-2,8.647652E-2,-1.8174241E-1,-4.7570802E-2,1.0502236E-1,-2.1249084E-2,-3.8352457E-3,-8.311272E-2,1.2267609E-1,3.05166E-1],"split_indices":[92,92,92,25,85,46,32,64,24,7,21,0,39,0,7,0,0,0,0,43,18,60,67,0,0,0,15,0,0,0,0,0,0,0,0,0,0],"split_type":[0,0,0,0,0,0,0,0,0,0,0,0,0,0,0,0,0,0,0,0,0,0,0,0,0,0,0,0,0,0,0,0,0,0,0,0,0],"sum_hessian":[1.36E2,9.4E1,4.2E1,2E1,7.4E1,1.8E1,2.4E1,1.1E1,9E0,3.5E1,3.9E1,5E0,1.3E1,5E0,1.9E1,8E0,3E0,4E0,5E0,7E0,2.8E1,1.4E1,2.5E1,7E0,6E0,1.2E1,7E0,4E0,3E0,2E1,8E0,1E1,4E0,1.4E1,1.1E1,3E0,4E0],"tree_param":{"num_deleted":"0","num_feature":"98","num_nodes":"37","size_leaf_vector":"1"}},{"base_weights":[6.0356196E-2,-1.783631E0,4.9113655E0,-4.803027E0,-9.202089E-1,5.5062203E0,-5.7958984E-3,-3.5772833E-1,-3.690541E0,-2.0227575E0,2.7902776E-3,3.0076833E0,6.7323456E0,-8.834114E-2,-3.9765646E0,-2.4812673E-1,-1.3885183E0,1.1880618E0,-7.1693856E-1,1.8935852E-1,7.335434E-2,1.4292806E-1,7.703543E0,-2.1954513E-1,-9.2149734E-2,-1.8783569E-3,-1.1198868E-1,1.1131536E-1,-3.0659486E-2,-5.8678716E-2,4.1031104E-2,4.2286977E-1,2.1014099E-1],"categories":[],"categories_nodes":[],"categories_segments":[],"categories_sizes":[],"default_left":[0,0,0,0,0,0,0,0,0,0,0,0,0,0,0,0,0,0,0,0,0,0,0,0,0,0,0,0,0,0,0,0,0],"id":32,"left_children":[1,3,5,7,9,11,-1,-1,13,15,17,19,21,-1,23,-1,25,27,29,-1,-1,-1,31,-1,-1,-1,-1,-1,-1,-1,-1,-1,-1],"loss_changes":[1.2342524E3,2.562816E2,1.1427728E2,3.1148987E1,8.0400116E1,8.391101E1,0E0,0E0,2.3280182E0,6.0232224E1,3.838703E1,1.0055267E1,6.074762E1,0E0,4.283844E0,0E0,3.556599E1,3.3157547E1,2.0622005E1,0E0,0E0,0E0,9.3186035E0,0E0,0E0,0E0,0E0,0E0,0E0,0E0,0E0,0E0,0E0],"parents":[2147483647,0,0,1,1,2,2,3,3,4,4,5,5,8,8,9,9,10,10,11,11,12,12,14,14,16,16,17,17,18,18,22,22],"right_children":[2,4,6,8,10,12,-1,-1,14,16,18,20,22,-1,24,-1,26,28,30,-1,-1,-1,32,-1,-1,-1,-1,-1,-1,-1,-1,-1,-1],"split_conditions":[5.1575E2,4.7999E2,5.3325E2,4.755E2,4.9314E2,5.16E2,-5.7958984E-3,-3.5772833E-1,3.7969E6,3.4614E6,4.9266E2,5.0186E6,4.776E6,-8.834114E-2,6.231E6,-2.4812673E-1,4.2129E6,4.2129E6,4.7685E6,1.8935852E-1,7.335434E-2,1.4292806E-1,5.3151E2,-2.1954513E-1,-9.2149734E-2,-1.8783569E-3,-1.1198868E-1,1.1131536E-1,-3.0659486E-2,-5.8678716E-2,4.1031104E-2,4.2286977E-1,2.1014099E-1],"split_indices":[36,92,70,7,85,92,0,0,25,81,21,39,32,0,11,0,81,60,39,0,0,0,77,0,0,0,0,0,0,0,0,0,0],"split_type":[0,0,0,0,0,0,0,0,0,0,0,0,0,0,0,0,0,0,0,0,0,0,0,0,0,0,0,0,0,0,0,0,0],"sum_hessian":[1.36E2,9.9E1,3.7E1,2.1E1,7.8E1,3.3E1,4E0,5E0,1.6E1,3.5E1,4.3E1,1.2E1,2.1E1,3E0,1.3E1,5E0,3E1,1.6E1,2.7E1,7E0,5E0,5E0,1.6E1,1E1,3E0,1.2E1,1.8E1,1E1,6E0,2.1E1,6E0,1.2E1,4E0],"tree_param":{"num_deleted":"0","num_feature":"98","num_nodes":"33","size_leaf_vector":"1"}},{"base_weights":[1.7393725E-1,-1.8666848E0,4.7731557E0,-5.0613623E0,-9.7116643E-1,2.6516023E0,6.3422356E0,-3.7142378E-1,-3.619285E0,-2.1933672E0,4.623342E-2,3.603275E0,-1.02795415E-1,8.678665E-2,7.4631186E0,-8.5028075E-2,-1.9786263E-1,4.9788207E-2,-2.6369894E0,1.2414619E0,-7.830106E-1,1.2719408E-1,2.3766415E-1,4.0930232E-1,1.3528137E-1,1.9386292E-2,-1.5497278E-1,9.958518E-2,-5.5375367E-2,-5.4397453E-2,5.8306884E-2],"categories":[],"categories_nodes":[],"categories_segments":[],"categories_sizes":[],"default_left":[0,0,0,0,0,0,0,0,0,0,0,0,0,0,0,0,0,0,0,0,0,0,0,0,0,0,0,0,0,0,0],"id":33,"left_children":[1,3,5,7,9,11,13,-1,15,17,19,21,-1,-1,23,-1,-1,-1,25,27,29,-1,-1,-1,-1,-1,-1,-1,-1,-1,-1],"loss_changes":[1.313462E3,2.7259116E2,1.2632507E2,4.479901E1,9.5848366E1,9.7008194E1,1.1096649E2,0E0,2.9974518E0,5.2142746E1,4.3590927E1,8.619492E0,0E0,0E0,4.3198853E1,0E0,0E0,0E0,4.45654E1,3.392713E1,1.6722324E1,0E0,0E0,0E0,0E0,0E0,0E0,0E0,0E0,0E0,0E0],"parents":[2147483647,0,0,1,1,2,2,3,3,4,4,5,5,6,6,8,8,9,9,10,10,11,11,14,14,18,18,19,19,20,20],"right_children":[2,4,6,8,10,12,14,-1,16,18,20,22,-1,-1,24,-1,-1,-1,26,28,30,-1,-1,-1,-1,-1,-1,-1,-1,-1,-1],"split_conditions":[5.0978E2,4.7999E2,4.9778E6,4.7656E2,4.9314E2,5.36E2,5.1591E2,-3.7142378E-1,3.7969E6,4.7304E2,4.9266E2,5.3222E6,-1.02795415E-1,8.678665E-2,5.3023E2,-8.5028075E-2,-1.9786263E-1,4.9788207E-2,4.7977E2,5.0446E2,5.0044E6,1.2719408E-1,2.3766415E-1,4.0930232E-1,1.3528137E-1,1.9386292E-2,-1.5497278E-1,9.958518E-2,-5.5375367E-2,-5.4397453E-2,5.8306884E-2],"split_indices":[64,92,25,3,85,92,64,0,25,0,21,11,0,0,66,0,0,0,84,71,32,0,0,0,0,0,0,0,0,0,0],"split_type":[0,0,0,0,0,0,0,0,0,0,0,0,0,0,0,0,0,0,0,0,0,0,0,0,0,0,0,0,0,0,0],"sum_hessian":[1.38E2,9.6E1,4.2E1,2E1,7.6E1,1.9E1,2.3E1,6E0,1.4E1,3.4E1,4.2E1,1.6E1,3E0,5E0,1.8E1,3E0,1.1E1,4E0,3E1,1.7E1,2.5E1,1E1,6E0,1.5E1,3E0,4E0,2.6E1,1.3E1,4E0,2.2E1,3E0],"tree_param":{"num_deleted":"0","num_feature":"98","num_nodes":"31","size_leaf_vector":"1"}},{"base_weights":[-8.675866E-3,-1.7547294E0,4.6029186E0,-3.1180398E0,7.171631E-2,4.1830254E-1,3.5182943E0,-4.4812474E0,-2.0552332E0,-3.1322038E-1,1.891201E0,-1.631724E-2,4.2423515E0,-2.5249329E0,-5.838E0,-2.3133062E-1,-1.4724498E0,-7.2363174E-1,9.082947E-1,1.2901093E-1,2.7856445E-2,2.1447337E0,5.3500834E0,-6.7648314E-2,-1.5843855E-1,-3.4575546E-1,-1.2580903E-1,5.5001E-4,-1.1073624E-1,-1.1241084E-2,-1.1296016E-1,9.566879E-2,1.021031E-2,3.8980484E-2,1.279602E-1,1.6804606E-1,3.372396E-1],"categories":[],"categories_nodes":[],"categories_segments":[],"categories_sizes":[],"default_left":[0,0,0,0,0,0,0,0,0,0,0,0,0,0,0,0,0,0,0,0,0,0,0,0,0,0,0,0,0,0,0,0,0,0,0,0,0],"id":34,"left_children":[1,3,5,7,9,-1,11,13,15,17,19,-1,21,23,25,-1,27,29,31,-1,-1,33,35,-1,-1,-1,-1,-1,-1,-1,-1,-1,-1,-1,-1,-1,-1],"loss_changes":[1.1434216E3,2.566949E2,1.2974756E2,7.627069E1,3.2109753E1,0E0,9.046411E1,5.1615356E1,4.5637054E1,1.9707573E1,5.9160786E0,0E0,5.1262634E1,4.767441E0,3.2691803E1,0E0,3.305819E1,2.170488E1,6.685938E0,0E0,0E0,4.228657E0,2.4494385E1,0E0,0E0,0E0,0E0,0E0,0E0,0E0,0E0,0E0,0E0,0E0,0E0,0E0,0E0],"parents":[2147483647,0,0,1,1,2,2,3,3,4,4,6,6,7,7,8,8,9,9,10,10,12,12,13,13,14,14,16,16,17,17,18,18,21,21,22,22],"right_children":[2,4,6,8,10,-1,12,14,16,18,20,-1,22,24,26,-1,28,30,32,-1,-1,34,36,-1,-1,-1,-1,-1,-1,-1,-1,-1,-1,-1,-1,-1,-1],"split_conditions":[5.0978E2,4.9314E2,4.9311E2,4.7999E2,5.1117E6,4.1830254E-1,5.1502E2,4.8248E2,3.4614E6,4.5571E6,4.4823E6,-1.631724E-2,5.1431E2,4.5041E6,4.8668E2,-2.3133062E-1,4.079E6,5.035E2,4.9193E2,1.2901093E-1,2.7856445E-2,5.1239E2,4.914E6,-6.7648314E-2,-1.5843855E-1,-3.4575546E-1,-1.2580903E-1,5.5001E-4,-1.1073624E-1,-1.1241084E-2,-1.1296016E-1,9.566879E-2,1.021031E-2,3.8980484E-2,1.279602E-1,1.6804606E-1,3.372396E-1],"split_indices":[64,85,2,92,32,0,0,50,81,39,46,0,59,67,64,0,88,85,10,0,0,24,32,0,0,0,0,0,0,0,0,0,0,0,0,0,0],"split_type":[0,0,0,0,0,0,0,0,0,0,0,0,0,0,0,0,0,0,0,0,0,0,0,0,0,0,0,0,0,0,0,0,0,0,0,0,0],"sum_hessian":[1.4E2,1.02E2,3.8E1,5.8E1,4.4E1,7E0,3.1E1,2.4E1,3.4E1,3.7E1,7E0,5E0,2.6E1,1.1E1,1.3E1,5E0,2.9E1,2.8E1,9E0,4E0,3E0,1E1,1.6E1,5E0,6E0,9E0,4E0,1E1,1.9E1,2.2E1,6E0,3E0,6E0,3E0,7E0,8E0,8E0],"tree_param":{"num_deleted":"0","num_feature":"98","num_nodes":"37","size_leaf_vector":"1"}},{"base_weights":[-2.0249385E-1,-1.6332432E0,4.650125E0,-3.079058E0,1.8734131E-2,1.4553157E0,6.876636E0,-4.2966127E0,-2.031623E0,1.2901612E-1,-1.9967197E-1,-9.8328784E-2,1.2836693E-1,1.5620232E-1,7.4188843E0,-3.4225792E-1,-3.1315372E0,-2.4212267E0,6.504555E-2,-5.3977966E-1,1.1127045E0,2.0563293E-1,4.123635E-1,-4.642258E-2,-1.7432939E-1,-1.5799026E-1,-3.5097353E-2,-1.3440496E-2,-9.70075E-2,8.940239E-2,2.8391812E-2],"categories":[],"categories_nodes":[],"categories_segments":[],"categories_sizes":[],"default_left":[0,0,0,0,0,0,0,0,0,0,0,0,0,0,0,0,0,0,0,0,0,0,0,0,0,0,0,0,0,0,0],"id":35,"left_children":[1,3,5,7,9,11,13,15,17,-1,19,-1,-1,-1,21,-1,23,25,-1,27,29,-1,-1,-1,-1,-1,-1,-1,-1,-1,-1],"loss_changes":[9.4488367E2,2.5084534E2,2.1050403E2,6.268817E1,2.8488543E1,5.832196E1,1.3450134E1,5.279535E1,4.469757E1,0E0,2.1579035E1,0E0,0E0,0E0,7.1643066E0,0E0,1.1624802E1,3.4606857E1,0E0,1.389787E1,2.6644135E0,0E0,0E0,0E0,0E0,0E0,0E0,0E0,0E0,0E0,0E0],"parents":[2147483647,0,0,1,1,2,2,3,3,4,4,5,5,6,6,7,7,8,8,10,10,14,14,16,16,17,17,19,19,20,20],"right_children":[2,4,6,8,10,12,14,16,18,-1,20,-1,-1,-1,22,-1,24,26,-1,28,30,-1,-1,-1,-1,-1,-1,-1,-1,-1,-1],"split_conditions":[5.1208E2,4.9314E2,4.9778E6,4.7797E2,4.727E2,5.2681E2,5.1111E2,4.755E2,5.3214E6,1.2901612E-1,5.0044E6,-9.8328784E-2,1.2836693E-1,1.5620232E-1,4.776E6,-3.4225792E-1,3.7969E6,4.906E2,6.504555E-2,5.0149E2,3.5195E6,2.0563293E-1,4.123635E-1,-4.642258E-2,-1.7432939E-1,-1.5799026E-1,-3.5097353E-2,-1.3440496E-2,-9.70075E-2,8.940239E-2,2.8391812E-2],"split_indices":[71,85,25,91,1,21,63,7,4,0,32,0,0,0,39,0,32,30,0,94,53,0,0,0,0,0,0,0,0,0,0],"split_type":[0,0,0,0,0,0,0,0,0,0,0,0,0,0,0,0,0,0,0,0,0,0,0,0,0,0,0,0,0,0,0],"sum_hessian":[1.34E2,1.04E2,3E1,5.5E1,4.9E1,1.3E1,1.7E1,2.4E1,3.1E1,3E0,4.6E1,3E0,1E1,3E0,1.4E1,6E0,1.8E1,2.8E1,3E0,3.7E1,9E0,4E0,1E1,3E0,1.5E1,1.9E1,9E0,3.2E1,5E0,3E0,6E0],"tree_param":{"num_deleted":"0","num_feature":"98","num_nodes":"31","size_leaf_vector":"1"}},{"base_weights":[-1.8152915E-1,-1.3971118E0,3.7923298E0,-2.6582568E0,1.3871077E-1,4.2643156E0,-4.0682223E-2,8.5883245E-2,-3.074087E0,-1.8220729E-1,1.8864212E0,2.59152E0,5.4894695E0,-4.991455E-2,8.453369E-2,-3.229411E-1,-2.5869515E0,-4.9385938E-1,1.2819595E0,1.378302E-1,1.635437E-2,6.275813E-2,3.1341827E0,6.230996E0,7.608795E-2,-1.5259106E-1,-3.7293036E-2,4.9429704E-2,-4.3635916E-2,8.596039E-2,2.074547E-2,1.778087E-1,8.060761E-2,1.4811707E-1,3.4265718E-1],"categories":[],"categories_nodes":[],"categories_segments":[],"categories_sizes":[],"default_left":[0,0,0,0,0,0,0,0,0,0,0,0,0,0,0,0,0,0,0,0,0,0,0,0,0,0,0,0,0,0,0,0,0,0,0],"id":36,"left_children":[1,3,5,7,9,11,-1,13,15,17,19,21,23,-1,-1,-1,25,27,29,-1,-1,-1,31,33,-1,-1,-1,-1,-1,-1,-1,-1,-1,-1,-1],"loss_changes":[7.0089813E2,2.1536407E2,7.7384094E1,6.987088E1,2.8948183E1,4.9306335E1,0E0,1.7346638E1,7.0678986E1,2.0710777E1,9.953592E0,6.9439545E0,4.053473E1,0E0,0E0,0E0,3.880539E1,2.164347E1,2.3196144E0,0E0,0E0,0E0,6.8974304E-1,8.168884E0,0E0,0E0,0E0,0E0,0E0,0E0,0E0,0E0,0E0,0E0,0E0],"parents":[2147483647,0,0,1,1,2,2,3,3,4,4,5,5,7,7,8,8,9,9,10,10,11,11,12,12,16,16,17,17,18,18,22,22,23,23],"right_children":[2,4,6,8,10,12,-1,14,16,18,20,22,24,-1,-1,-1,26,28,30,-1,-1,-1,32,34,-1,-1,-1,-1,-1,-1,-1,-1,-1,-1,-1],"split_conditions":[5.1208E2,4.9314E2,5.388E2,4.7304E2,5.2298E6,4.9778E6,-4.0682223E-2,4.6636E6,4.7358E2,5.0044E6,5.0114E2,3.803E6,5.3262E2,-4.991455E-2,8.453369E-2,-3.229411E-1,4.906E2,4.9222E2,3.9113E6,1.378302E-1,1.635437E-2,6.275813E-2,5.0186E6,5.1581E2,7.608795E-2,-1.5259106E-1,-3.7293036E-2,4.9429704E-2,-4.3635916E-2,8.596039E-2,2.074547E-2,1.778087E-1,8.060761E-2,1.4811707E-1,3.4265718E-1],"split_indices":[64,85,92,14,25,32,0,60,2,32,59,32,14,0,0,0,30,15,39,0,0,0,39,59,0,0,0,0,0,0,0,0,0,0,0],"split_type":[0,0,0,0,0,0,0,0,0,0,0,0,0,0,0,0,0,0,0,0,0,0,0,0,0,0,0,0,0,0,0,0,0,0,0],"sum_hessian":[1.43E2,1.1E2,3.3E1,6E1,5E1,3E1,3E0,8E0,5.2E1,4.3E1,7E0,1.4E1,1.6E1,5E0,3E0,5E0,4.7E1,3.6E1,7E0,4E0,3E0,5E0,9E0,1.3E1,3E0,3.7E1,1E1,7E0,2.9E1,4E0,3E0,6E0,3E0,3E0,1E1],"tree_param":{"num_deleted":"0","num_feature":"98","num_nodes":"35","size_leaf_vector":"1"}},{"base_weights":[9.895552E-2,-1.4011315E0,4.201853E0,-2.7253008E0,8.347717E-2,3.734394E-1,3.2232292E0,-4.168547E0,-1.8477944E0,-1.8452038E-1,1.7561079E0,-6.594483E-2,3.9449847E0,-3.1861028E-1,-2.7689645E0,1.14057265E-1,-2.2439666E0,4.7316614E-1,-9.2737544E-1,1.3693543E-1,1.6724015E-2,3.269099E-1,3.0584273E0,-1.6252664E-1,-3.7620544E-2,5.227814E-2,-4.2298127E-2,-1.3635145E-1,-1.3359288E-2,-7.982407E-2,4.224265E-2,-2.7371217E-2,-1.0168671E-1,1.012849E-1,2.162535E-1],"categories":[],"categories_nodes":[],"categories_segments":[],"categories_sizes":[],"default_left":[0,0,0,0,0,0,0,0,0,0,0,0,0,0,0,0,0,0,0,0,0,0,0,0,0,0,0,0,0,0,0,0,0,0,0],"id":37,"left_children":[1,3,5,7,9,-1,11,13,15,17,19,-1,21,-1,23,25,27,29,31,-1,-1,-1,33,-1,-1,-1,-1,-1,-1,-1,-1,-1,-1,-1,-1],"loss_changes":[8.737006E2,2.0467828E2,9.74162E1,6.1952576E1,2.2737087E1,0E0,1.06830475E2,4.4039642E1,2.8236275E1,2.1935698E1,8.8622E0,0E0,4.207727E1,0E0,1.1149773E1,7.1443524E0,2.7918625E1,1.981105E1,7.7142906E0,0E0,0E0,0E0,2.0016891E1,0E0,0E0,0E0,0E0,0E0,0E0,0E0,0E0,0E0,0E0,0E0,0E0],"parents":[2147483647,0,0,1,1,2,2,3,3,4,4,6,6,7,7,8,8,9,9,10,10,12,12,14,14,15,15,16,16,17,17,18,18,22,22],"right_children":[2,4,6,8,10,-1,12,14,16,18,20,-1,22,-1,24,26,28,30,32,-1,-1,-1,34,-1,-1,-1,-1,-1,-1,-1,-1,-1,-1,-1,-1],"split_conditions":[5.1379E2,4.9314E2,4.9311E2,4.772E2,5.0025E2,3.734394E-1,5.1502E2,4.755E2,4.772E2,4.9725E2,4.4166E6,-6.594483E-2,4.9947E2,-3.1861028E-1,4.8961E2,4.1932E6,4.9125E2,4.8343E2,5.0101E2,1.3693543E-1,1.6724015E-2,3.269099E-1,5.2141E2,-1.6252664E-1,-3.7620544E-2,5.227814E-2,-4.2298127E-2,-1.3635145E-1,-1.3359288E-2,-7.982407E-2,4.224265E-2,-2.7371217E-2,-1.0168671E-1,1.012849E-1,2.162535E-1],"split_indices":[50,92,2,94,93,0,0,7,3,56,81,0,93,0,3,88,37,65,91,0,0,0,92,0,0,0,0,0,0,0,0,0,0,0,0],"split_type":[0,0,0,0,0,0,0,0,0,0,0,0,0,0,0,0,0,0,0,0,0,0,0,0,0,0,0,0,0,0,0,0,0,0,0],"sum_hessian":[1.4E2,1.03E2,3.7E1,5.4E1,4.9E1,7E0,3E1,1.9E1,3.5E1,4.3E1,6E0,4E0,2.6E1,6E0,1.3E1,6E0,2.9E1,2.3E1,2E1,3E0,3E0,5E0,2.1E1,1E1,3E0,3E0,3E0,2.3E1,6E0,3E0,2E1,1.6E1,4E0,1.3E1,8E0],"tree_param":{"num_deleted":"0","num_feature":"98","num_nodes":"35","size_leaf_vector":"1"}},{"base_weights":[2.6055887E-1,-1.2428427E0,3.8477E0,-3.0405674E0,-2.4029255E-1,3.6511493E-1,3.0468462E0,-4.008674E0,-1.4825134E0,1.5381348E-1,-5.1266783E-1,3.714832E0,-1.5578787E-1,-5.0861515E-2,-4.652706E0,1.50497435E-2,-1.9534734E0,-1.6086975E0,2.6270464E-1,2.2201843E0,4.9618244E0,-9.193573E-2,7.830429E-2,-3.3513793E-1,-1.6199774E-1,-2.8585816E-2,-1.1752676E-1,-1.9560884E-1,-4.9182277E-2,4.5145877E-2,-5.464821E-2,1.6793823E-1,6.575089E-2,1.371242E-1,3.0683324E-1],"categories":[],"categories_nodes":[],"categories_segments":[],"categories_sizes":[],"default_left":[0,0,0,0,0,0,0,0,0,0,0,0,0,0,0,0,0,0,0,0,0,0,0,0,0,0,0,0,0,0,0,0,0,0,0],"id":38,"left_children":[1,3,5,7,9,-1,11,13,15,-1,17,19,21,-1,23,-1,25,27,29,31,33,-1,-1,-1,-1,-1,-1,-1,-1,-1,-1,-1,-1,-1,-1],"loss_changes":[7.4900415E2,1.7589568E2,9.11828E1,4.6849792E1,5.939148E1,0E0,7.545471E1,3.5725464E1,1.3187405E1,0E0,5.1412483E1,4.3034454E1,2.3164095E1,0E0,2.7519043E1,0E0,5.239872E0,3.214666E1,3.2231853E1,1.1042244E1,2.2280884E1,0E0,0E0,0E0,0E0,0E0,0E0,0E0,0E0,0E0,0E0,0E0,0E0,0E0,0E0],"parents":[2147483647,0,0,1,1,2,2,3,3,4,4,6,6,7,7,8,8,10,10,11,11,12,12,14,14,16,16,17,17,18,18,19,19,20,20],"right_children":[2,4,6,8,10,-1,12,14,16,-1,18,20,22,-1,24,-1,26,28,30,32,34,-1,-1,-1,-1,-1,-1,-1,-1,-1,-1,-1,-1,-1,-1],"split_conditions":[5.0978E2,4.885E2,4.9311E2,4.5304E6,4.7941E2,3.6511493E-1,5.3094E2,3.6298E6,3.669E6,1.5381348E-1,4.945E2,5.2141E2,5.15E2,-5.0861515E-2,4.7358E2,1.50497435E-2,4.7596E2,3.4415E6,5.0016E2,4.9778E6,5.0186E6,-9.193573E-2,7.830429E-2,-3.3513793E-1,-1.6199774E-1,-2.8585816E-2,-1.1752676E-1,-1.9560884E-1,-4.9182277E-2,4.5145877E-2,-5.464821E-2,1.6793823E-1,6.575089E-2,1.371242E-1,3.0683324E-1],"split_indices":[64,71,2,25,15,0,87,25,53,0,92,57,0,0,2,0,64,88,63,39,39,0,0,0,0,0,0,0,0,0,0,0,0,0,0],"split_type":[0,0,0,0,0,0,0,0,0,0,0,0,0,0,0,0,0,0,0,0,0,0,0,0,0,0,0,0,0,0,0,0,0,0,0],"sum_hessian":[1.37E2,9.7E1,4E1,3.4E1,6.3E1,6E0,3.4E1,2E1,1.4E1,4E0,5.9E1,2.8E1,6E0,4E0,1.6E1,3E0,1.1E1,2.4E1,3.5E1,1.4E1,1.4E1,3E0,3E0,5E0,1.1E1,3E0,8E0,4E0,2E1,2.4E1,1.1E1,5E0,9E0,6E0,8E0],"tree_param":{"num_deleted":"0","num_feature":"98","num_nodes":"35","size_leaf_vector":"1"}},{"base_weights":[2.0918414E-1,-1.1808949E0,3.8750548E0,-3.702298E0,-5.665025E-1,1.9471709E0,5.4348044E0,-1.6734467E0,-5.210136E0,-1.1698937E0,4.0146244E-1,2.7547035E0,-8.8487625E-2,9.299744E-2,6.1665382E0,-1.0098398E-1,-3.245888E-2,-3.041256E-1,-1.0814247E-1,5.3317767E-2,-1.430481E0,1.0266087E0,-9.421581E-1,2.0401752E0,2.1941224E-1,1.7979254E-1,3.469002E-1,-1.1960409E-1,-3.7556987E-2,7.801697E-2,1.1494955E-3,-1.0101079E-1,3.777771E-2,6.4120226E-2,1.1767407E-1],"categories":[],"categories_nodes":[],"categories_segments":[],"categories_sizes":[],"default_left":[0,0,0,0,0,0,0,0,0,0,0,0,0,0,0,0,0,0,0,0,0,0,0,0,0,0,0,0,0,0,0,0,0,0,0],"id":39,"left_children":[1,3,5,7,9,11,13,15,17,19,21,23,-1,-1,25,-1,-1,-1,-1,-1,27,29,31,33,-1,-1,-1,-1,-1,-1,-1,-1,-1,-1,-1],"loss_changes":[7.2309094E2,1.5746312E2,1.0669116E2,5.246469E1,4.9530838E1,6.1904343E1,4.3463257E1,2.2352276E0,1.608664E1,3.1827774E1,2.8685886E1,9.722595E0,0E0,0E0,8.766357E0,0E0,0E0,0E0,0E0,0E0,2.8906212E1,1.2284359E1,2.1658932E1,6.827164E-2,0E0,0E0,0E0,0E0,0E0,0E0,0E0,0E0,0E0,0E0,0E0],"parents":[2147483647,0,0,1,1,2,2,3,3,4,4,5,5,6,6,7,7,8,8,9,9,10,10,11,11,14,14,20,20,21,21,22,22,23,23],"right_children":[2,4,6,8,10,12,14,16,18,20,22,24,-1,-1,26,-1,-1,-1,-1,-1,28,30,32,34,-1,-1,-1,-1,-1,-1,-1,-1,-1,-1,-1],"split_conditions":[5.1185E2,4.796E2,4.9778E6,4.796E2,4.9673E2,5.36E2,5.1591E2,5.0607E6,4.8668E2,4.6742E2,5.0446E2,5.283E2,-8.8487625E-2,9.299744E-2,4.776E6,-1.0098398E-1,-3.245888E-2,-3.041256E-1,-1.0814247E-1,5.3317767E-2,4.9057E2,4.9875E2,4.0589E6,5.2126E2,2.1941224E-1,1.7979254E-1,3.469002E-1,-1.1960409E-1,-3.7556987E-2,7.801697E-2,1.1494955E-3,-1.0101079E-1,3.777771E-2,6.4120226E-2,1.1767407E-1],"split_indices":[57,92,25,50,92,92,85,25,64,21,85,37,0,0,39,0,0,0,0,0,28,45,39,64,0,0,0,0,0,0,0,0,0,0,0],"split_type":[0,0,0,0,0,0,0,0,0,0,0,0,0,0,0,0,0,0,0,0,0,0,0,0,0,0,0,0,0,0,0,0,0,0,0],"sum_hessian":[1.4E2,1.02E2,3.8E1,1.9E1,8.3E1,1.8E1,2E1,9E0,1E1,5.1E1,3.2E1,1.5E1,3E0,4E0,1.6E1,6E0,3E0,7E0,3E0,5E0,4.6E1,2.2E1,1E1,1.2E1,3E0,5E0,1.1E1,1.8E1,2.8E1,1.4E1,8E0,6E0,4E0,5E0,7E0],"tree_param":{"num_deleted":"0","num_feature":"98","num_nodes":"35","size_leaf_vector":"1"}},{"base_weights":[2.9630534E-2,-1.3448378E0,3.7064614E0,-3.6504045E0,-6.773083E-1,4.199967E0,-1.4598389E-2,-3.343338E-1,-2.819063E0,1.27771E-1,-8.406897E-1,4.5920055E-2,4.753161E0,-6.1297864E-2,-3.3004608E0,-1.540622E0,-3.9634705E-2,2.119629E0,5.53007E0,-1.8473136E-1,-6.95694E-2,-1.1359948E-1,-1.0041373E-3,1.7089618E-2,-5.327622E-2,1.4661789E-1,5.2276004E-2,3.0687293E-1,1.4943442E-1],"categories":[],"categories_nodes":[],"categories_segments":[],"categories_sizes":[],"default_left":[0,0,0,0,0,0,0,0,0,0,0,0,0,0,0,0,0,0,0,0,0,0,0,0,0,0,0,0,0],"id":40,"left_children":[1,3,5,7,9,11,-1,-1,13,-1,15,-1,17,-1,19,21,23,25,27,-1,-1,-1,-1,-1,-1,-1,-1,-1,-1],"loss_changes":[6.872324E2,1.498919E2,7.423633E1,3.6681763E1,4.3345387E1,5.5541016E1,0E0,0E0,1.0525223E1,0E0,4.1990246E1,0E0,4.5566772E1,0E0,5.3942413E0,4.44373E1,1.4451061E1,3.917839E0,1.4072815E1,0E0,0E0,0E0,0E0,0E0,0E0,0E0,0E0,0E0,0E0],"parents":[2147483647,0,0,1,1,2,2,3,3,4,4,5,5,8,8,10,10,12,12,14,14,15,15,16,16,17,17,18,18],"right_children":[2,4,6,8,10,12,-1,-1,14,-1,16,-1,18,-1,20,22,24,26,28,-1,-1,-1,-1,-1,-1,-1,-1,-1,-1],"split_conditions":[5.1E2,4.7797E2,5.3325E2,4.7347E2,4.6891E2,3.803E6,-1.4598389E-2,-3.343338E-1,4.7629E2,1.27771E-1,4.895E2,4.5920055E-2,5.2141E2,-6.1297864E-2,6.368E6,4.9084E6,4.9775E2,5.16E2,5.275E2,-1.8473136E-1,-6.95694E-2,-1.1359948E-1,-1.0041373E-3,1.7089618E-2,-5.327622E-2,1.4661789E-1,5.2276004E-2,3.0687293E-1,1.4943442E-1],"split_indices":[71,91,70,21,10,18,0,0,30,0,86,0,43,0,67,18,93,36,44,0,0,0,0,0,0,0,0,0,0],"split_type":[0,0,0,0,0,0,0,0,0,0,0,0,0,0,0,0,0,0,0,0,0,0,0,0,0,0,0,0,0],"sum_hessian":[1.34E2,9.8E1,3.6E1,2.1E1,7.7E1,3.2E1,4E0,3E0,1.8E1,3E0,7.4E1,5E0,2.7E1,5E0,1.3E1,3.9E1,3.5E1,7E0,2E1,1E1,3E0,2.6E1,1.3E1,2.6E1,9E0,3E0,4E0,1.5E1,5E0],"tree_param":{"num_deleted":"0","num_feature":"98","num_nodes":"29","size_leaf_vector":"1"}},{"base_weights":[-3.6294427E-2,-1.8229533E0,1.934819E0,-3.298706E0,-1.1879623E0,8.238905E-1,3.492435E0,-1.5108887E0,-4.4202037E0,4.9012247E-2,-1.4292129E0,1.3619015E-1,2.140442E0,1.7367325E0,5.3846507E0,-9.220647E-2,-2.749977E-2,-5.100568E0,-8.071213E-2,-2.2311049E0,-5.701526E-1,8.998654E-1,-1.3284118E0,6.1126202E-2,1.2572801E-1,-5.096054E-3,2.1688771E0,1.6575395E-1,3.1318742E-1,-2.9638278E-1,-1.1890107E-1,-1.3015033E-1,1.8606568E-2,5.216034E-2,-4.6356782E-2,7.821489E-2,-6.10182E-4,-9.954249E-2,-1.3390198E-2,3.1975098E-2,1.388772E-1],"categories":[],"categories_nodes":[],"categories_segments":[],"categories_sizes":[],"default_left":[0,0,0,0,0,0,0,0,0,0,0,0,0,0,0,0,0,0,0,0,0,0,0,0,0,0,0,0,0,0,0,0,0,0,0,0,0,0,0,0,0],"id":41,"left_children":[1,3,5,7,9,11,13,15,17,-1,19,21,23,25,27,-1,-1,29,-1,31,33,35,37,-1,-1,-1,39,-1,-1,-1,-1,-1,-1,-1,-1,-1,-1,-1,-1,-1,-1],"loss_changes":[5.0360953E2,6.636301E1,1.14789825E2,3.7432312E1,2.964737E1,3.6829605E1,8.3668976E1,2.1878242E0,1.6584457E1,0E0,3.2482727E1,3.251284E1,1.7336273E0,1.2934093E1,2.8868103E0,0E0,0E0,8.421783E0,0E0,2.5172363E1,1.5365745E1,1.1533247E1,6.492714E0,0E0,0E0,0E0,1.03251915E1,0E0,0E0,0E0,0E0,0E0,0E0,0E0,0E0,0E0,0E0,0E0,0E0,0E0,0E0],"parents":[2147483647,0,0,1,1,2,2,3,3,4,4,5,5,6,6,7,7,8,8,10,10,11,11,12,12,13,13,14,14,17,17,19,19,20,20,21,21,22,22,26,26],"right_children":[2,4,6,8,10,12,14,16,18,-1,20,22,24,26,28,-1,-1,30,-1,32,34,36,38,-1,-1,-1,40,-1,-1,-1,-1,-1,-1,-1,-1,-1,-1,-1,-1,-1,-1],"split_conditions":[4.9673E2,4.7949E2,5.0044E6,4.7864E2,4.7304E2,5.1753E2,5.2388E2,5.0607E6,4.8348E2,4.9012247E-2,4.906E2,5.017E2,5.15E2,3.3306E6,4.9778E6,-9.220647E-2,-2.749977E-2,4.8502E2,-8.071213E-2,5.2976E6,4.9266E2,3.9376E6,4.141E6,6.1126202E-2,1.2572801E-1,-5.096054E-3,3.7487E6,1.6575395E-1,3.1318742E-1,-2.9638278E-1,-1.1890107E-1,-1.3015033E-1,1.8606568E-2,5.216034E-2,-4.6356782E-2,7.821489E-2,-6.10182E-4,-9.954249E-2,-1.3390198E-2,3.1975098E-2,1.388772E-1],"split_indices":[92,92,25,57,0,0,36,25,59,0,30,91,84,67,39,0,0,0,0,4,35,81,88,0,0,0,95,0,0,0,0,0,0,0,0,0,0,0,0,0,0],"split_type":[0,0,0,0,0,0,0,0,0,0,0,0,0,0,0,0,0,0,0,0,0,0,0,0,0,0,0,0,0,0,0,0,0,0,0,0,0,0,0,0,0],"sum_hessian":[1.41E2,7.4E1,6.7E1,2.1E1,5.3E1,4E1,2.7E1,9E0,1.2E1,5E0,4.8E1,2.7E1,1.3E1,1.5E1,1.2E1,6E0,3E0,9E0,3E0,2.4E1,2.4E1,1.8E1,9E0,5E0,8E0,3E0,1.2E1,5E0,7E0,6E0,3E0,2.1E1,3E0,4E0,2E1,1E1,8E0,5E0,4E0,4E0,8E0],"tree_param":{"num_deleted":"0","num_feature":"98","num_nodes":"41","size_leaf_vector":"1"}},{"base_weights":[1.9011536E-1,-1.0343277E0,3.3876305E0,-1.9469768E0,2.6318997E-1,3.7657912E0,-4.3136217E-2,4.8358664E-2,-2.2294843E0,1.1967468E0,-2.7967072E-1,1.6896566E0,4.611704E0,-4.167467E0,-1.8109455E0,-2.3039246E-2,1.6146991E0,-1.6001805E0,1.5320379E-1,1.0665455E-1,3.211151E-2,5.1561832E0,2.3207093E-2,-2.5378877E-1,-8.8156894E-2,-1.7439608E-1,-6.887583E-2,3.607483E-2,1.1386152E-1,-3.4128573E-2,-1.0588723E-1,5.175217E-2,-2.6845962E-2,1.5052986E-1,2.9783753E-1],"categories":[],"categories_nodes":[],"categories_segments":[],"categories_sizes":[],"default_left":[0,0,0,0,0,0,0,0,0,0,0,0,0,0,0,0,0,0,0,0,0,0,0,0,0,0,0,0,0,0,0,0,0,0,0],"id":42,"left_children":[1,3,5,7,9,11,-1,-1,13,15,17,19,21,23,25,-1,27,29,31,-1,-1,33,-1,-1,-1,-1,-1,-1,-1,-1,-1,-1,-1,-1,-1],"loss_changes":[5.516285E2,1.21298615E2,6.5934204E1,5.1552475E1,2.2126722E1,5.5432007E1,0E0,0E0,3.7064575E1,1.1828341E1,1.6250374E1,4.20364E0,5.4063354E1,1.0705551E1,2.93573E1,0E0,6.0500565E0,1.8789368E0,1.3944446E1,0E0,0E0,1.9855713E1,0E0,0E0,0E0,0E0,0E0,0E0,0E0,0E0,0E0,0E0,0E0,0E0,0E0],"parents":[2147483647,0,0,1,1,2,2,3,3,4,4,5,5,8,8,9,9,10,10,11,11,12,12,13,13,14,14,16,16,17,17,18,18,21,21],"right_children":[2,4,6,8,10,12,-1,-1,14,16,18,20,22,24,26,-1,28,30,32,-1,-1,34,-1,-1,-1,-1,-1,-1,-1,-1,-1,-1,-1,-1,-1],"split_conditions":[5.091E2,4.945E2,5.388E2,4.692E2,3.803E6,5.16E2,-4.3136217E-2,4.8358664E-2,4.79E2,3.5195E6,4.9038E2,5.2875E6,5.3325E2,4.4811E6,3.4614E6,-2.3039246E-2,3.9351E6,4.8048E2,4.9725E2,1.0665455E-1,3.211151E-2,4.3856E6,2.3207093E-2,-2.5378877E-1,-8.8156894E-2,-1.7439608E-1,-6.887583E-2,3.607483E-2,1.1386152E-1,-3.4128573E-2,-1.0588723E-1,5.175217E-2,-2.6845962E-2,1.5052986E-1,2.9783753E-1],"split_indices":[92,92,92,21,4,92,0,0,8,32,38,32,70,4,81,0,60,10,49,0,0,39,0,0,0,0,0,0,0,0,0,0,0,0,0],"split_type":[0,0,0,0,0,0,0,0,0,0,0,0,0,0,0,0,0,0,0,0,0,0,0,0,0,0,0,0,0,0,0,0,0,0,0],"sum_hessian":[1.39E2,1.01E2,3.8E1,5.9E1,4.2E1,3.5E1,3E0,5E0,5.4E1,1.5E1,2.7E1,1.1E1,2.4E1,8E0,4.6E1,3E0,1.2E1,6E0,2.1E1,7E0,4E0,2.1E1,3E0,5E0,3E0,8E0,3.8E1,6E0,6E0,3E0,3E0,9E0,1.2E1,7E0,1.4E1],"tree_param":{"num_deleted":"0","num_feature":"98","num_nodes":"35","size_leaf_vector":"1"}},{"base_weights":[1.0184733E-1,-1.0044503E0,3.575873E0,-1.9995563E0,2.2966796E-1,7.0713425E-1,4.2678027E0,-4.1001825E0,-1.6051186E0,1.4961891E-1,-1.03428615E-2,8.4094845E-2,-3.440514E-2,1.9639282E0,5.091156E0,-2.6471895E-1,-1.0429748E-1,-3.0948954E0,-9.9097073E-1,-2.8062564E-1,8.997303E-1,1.22178905E-1,3.767357E-2,1.4357997E-1,5.8372803E0,-7.752315E-2,-1.9761217E-1,1.638828E-2,-6.709314E-2,-8.900833E-2,-4.7977674E-3,3.2463074E-3,6.0233306E-2,1.2502213E-1,3.260007E-1],"categories":[],"categories_nodes":[],"categories_segments":[],"categories_sizes":[],"default_left":[0,0,0,0,0,0,0,0,0,0,0,0,0,0,0,0,0,0,0,0,0,0,0,0,0,0,0,0,0,0,0,0,0,0,0],"id":43,"left_children":[1,3,5,7,9,11,13,15,17,-1,19,-1,-1,21,23,-1,-1,25,27,29,31,-1,-1,-1,33,-1,-1,-1,-1,-1,-1,-1,-1,-1,-1],"loss_changes":[5.5702783E2,1.3554787E2,6.645596E1,4.3961227E1,3.318497E1,1.2037518E1,4.3114624E1,1.0604691E1,4.542505E1,0E0,1.1813412E1,0E0,0E0,3.3841972E0,1.6358948E1,0E0,0E0,1.37339325E1,1.8486446E1,1.0075248E1,2.7219648E0,0E0,0E0,0E0,1.5591461E1,0E0,0E0,0E0,0E0,0E0,0E0,0E0,0E0,0E0,0E0],"parents":[2147483647,0,0,1,1,2,2,3,3,4,4,5,5,6,6,7,7,8,8,10,10,13,13,14,14,17,17,18,18,19,19,20,20,24,24],"right_children":[2,4,6,8,10,12,14,16,18,-1,20,-1,-1,22,24,-1,-1,26,28,30,32,-1,-1,-1,34,-1,-1,-1,-1,-1,-1,-1,-1,-1,-1],"split_conditions":[5.1208E2,4.9314E2,4.07E6,3.6298E6,4.8275E2,5.0044E6,5.1591E2,4.2229E6,4.7864E2,1.4961891E-1,5.0044E6,8.4094845E-2,-3.440514E-2,5.3327E2,4.776E6,-2.6471895E-1,-1.0429748E-1,4.7787E2,4.772E2,4.91E2,4.8906E2,1.22178905E-1,3.767357E-2,1.4357997E-1,5.2025E2,-7.752315E-2,-1.9761217E-1,1.638828E-2,-6.709314E-2,-8.900833E-2,-4.7977674E-3,3.2463074E-3,6.0233306E-2,1.2502213E-1,3.260007E-1],"split_indices":[64,85,32,81,65,67,92,74,92,0,32,0,0,1,39,0,0,49,3,36,2,0,0,0,43,0,0,0,0,0,0,0,0,0,0],"split_type":[0,0,0,0,0,0,0,0,0,0,0,0,0,0,0,0,0,0,0,0,0,0,0,0,0,0,0,0,0,0,0,0,0,0,0],"sum_hessian":[1.43E2,1.09E2,3.4E1,6E1,4.9E1,7E0,2.7E1,8E0,5.2E1,3E0,4.6E1,4E0,3E0,8E0,1.9E1,4E0,4E0,1.4E1,3.8E1,3.6E1,1E1,5E0,3E0,6E0,1.3E1,6E0,8E0,8E0,3E1,3E0,3.3E1,3E0,7E0,3E0,1E1],"tree_param":{"num_deleted":"0","num_feature":"98","num_nodes":"35","size_leaf_vector":"1"}},{"base_weights":[9.555794E-2,-8.7796813E-1,3.1607444E0,-1.9251553E0,1.2730068E-1,3.6449301E0,-6.304169E-2,-2.2075565E-1,-1.4950473E0,1.24248885E-1,-6.011125E-2,1.1985779E0,4.2065773E0,-2.6336787E0,-1.0011911E0,-9.653555E-1,2.4317814E-1,8.305206E-2,2.1823501E-2,5.4847746E0,3.0740073E0,-6.5030925E-2,-1.6521321E-1,-7.025116E-2,1.1590406E-2,3.1017305E-3,-6.39888E-2,4.1220173E-2,-1.4713614E-2,3.5264406E-1,1.6319452E-1,7.964691E-2,1.7338826E-1],"categories":[],"categories_nodes":[],"categories_segments":[],"categories_sizes":[],"default_left":[0,0,0,0,0,0,0,0,0,0,0,0,0,0,0,0,0,0,0,0,0,0,0,0,0,0,0,0,0,0,0,0,0],"id":44,"left_children":[1,3,5,7,9,11,-1,-1,13,-1,15,17,19,21,23,25,27,-1,-1,29,31,-1,-1,-1,-1,-1,-1,-1,-1,-1,-1,-1,-1],"loss_changes":[4.0860434E2,1.0972637E2,7.524417E1,4.8017685E1,2.4009644E1,3.6177704E1,0E0,0E0,2.2667587E1,0E0,1.4236854E1,1.7421331E0,1.7883362E1,7.323517E0,1.675721E1,4.2788115E0,1.2425411E1,0E0,0E0,1.1806E1,3.2238007E0,0E0,0E0,0E0,0E0,0E0,0E0,0E0,0E0,0E0,0E0,0E0,0E0],"parents":[2147483647,0,0,1,1,2,2,3,3,4,4,5,5,8,8,10,10,11,11,12,12,13,13,14,14,15,15,16,16,19,19,20,20],"right_children":[2,4,6,8,10,12,-1,-1,14,-1,16,18,20,22,24,26,28,-1,-1,30,32,-1,-1,-1,-1,-1,-1,-1,-1,-1,-1,-1,-1],"split_conditions":[5.1208E2,4.9279E2,5.2935E2,3.6298E6,4.6646E2,4.1162E6,-6.304169E-2,-2.2075565E-1,4.7864E2,1.24248885E-1,3.4415E6,4.914E6,5.2545E2,4.7735E2,5.3214E6,3.5195E6,4.9696E2,8.305206E-2,2.1823501E-2,5.5121E6,4.2543E6,-6.5030925E-2,-1.6521321E-1,-7.025116E-2,1.1590406E-2,3.1017305E-3,-6.39888E-2,4.1220173E-2,-1.4713614E-2,3.5264406E-1,1.6319452E-1,7.964691E-2,1.7338826E-1],"split_indices":[71,85,58,81,0,32,0,0,92,0,95,11,0,49,4,60,56,0,0,32,60,0,0,0,0,0,0,0,0,0,0,0,0],"split_type":[0,0,0,0,0,0,0,0,0,0,0,0,0,0,0,0,0,0,0,0,0,0,0,0,0,0,0,0,0,0,0,0,0],"sum_hessian":[1.35E2,1.03E2,3.2E1,5E1,5.3E1,2.9E1,3E0,6E0,4.4E1,3E0,5E1,6E0,2.3E1,1.2E1,3.2E1,1.2E1,3.8E1,3E0,3E0,9E0,1.4E1,5E0,7E0,2.4E1,8E0,3E0,9E0,1.8E1,2E1,4E0,5E0,4E0,1E1],"tree_param":{"num_deleted":"0","num_feature":"98","num_nodes":"33","size_leaf_vector":"1"}},{"base_weights":[5.2327838E-2,-1.0603427E0,2.8605125E0,-2.1071608E0,1.3941829E-1,3.2236402E0,-6.067734E-2,-2.4528728E0,-3.4074098E-1,9.947357E-2,-2.812907E-2,5.3962555E0,2.5368216E0,1.28758745E-2,-2.7981095E0,3.0988822E-2,-7.126068E-2,-8.520164E-2,1.3215056E-1,3.200415E-1,1.3957368E-1,2.1035592E-1,1.9439507E0,-1.6585676E-1,-7.98633E-2,3.982984E-2,-1.5368888E-2,1.08812094E-1,1.1921692E-2],"categories":[],"categories_nodes":[],"categories_segments":[],"categories_sizes":[],"default_left":[0,0,0,0,0,0,0,0,0,0,0,0,0,0,0,0,0,0,0,0,0,0,0,0,0,0,0,0,0],"id":45,"left_children":[1,3,5,7,9,11,-1,13,15,-1,17,19,21,-1,23,-1,-1,-1,25,-1,-1,-1,27,-1,-1,-1,-1,-1,-1],"loss_changes":[4.4047488E2,1.2714287E2,6.3088165E1,3.214052E1,1.4934595E1,4.152182E1,0E0,4.2828247E1,1.1299862E1,0E0,1.2312784E1,3.0658417E0,2.1529694E1,0E0,1.9632385E1,0E0,0E0,0E0,1.2510658E1,0E0,0E0,0E0,8.989349E0,0E0,0E0,0E0,0E0,0E0,0E0],"parents":[2147483647,0,0,1,1,2,2,3,3,4,4,5,5,7,7,8,8,10,10,11,11,12,12,14,14,18,18,22,22],"right_children":[2,4,6,8,10,12,-1,14,16,-1,18,20,22,-1,24,-1,-1,-1,26,-1,-1,-1,28,-1,-1,-1,-1,-1,-1],"split_conditions":[5.1E2,4.9314E2,5.2935E2,4.906E2,4.727E2,4.9311E2,-6.067734E-2,4.692E2,5.012E2,9.947357E-2,4.91E2,5.2527E2,5.0085E2,1.28758745E-2,4.5041E6,3.0988822E-2,-7.126068E-2,-8.520164E-2,4.9615E2,3.200415E-1,1.3957368E-1,2.1035592E-1,5.3682E2,-1.6585676E-1,-7.98633E-2,3.982984E-2,-1.5368888E-2,1.08812094E-1,1.1921692E-2],"split_indices":[78,85,58,30,1,2,0,21,9,0,36,38,93,0,11,0,0,0,35,0,0,0,71,0,0,0,0,0,0],"split_type":[0,0,0,0,0,0,0,0,0,0,0,0,0,0,0,0,0,0,0,0,0,0,0,0,0,0,0,0,0],"sum_hessian":[1.39E2,1E2,3.9E1,5.3E1,4.7E1,3.6E1,3E0,4.4E1,9E0,3E0,4.4E1,7E0,2.9E1,5E0,3.9E1,5E0,4E0,3E0,4.1E1,4E0,3E0,6E0,2.3E1,2.6E1,1.3E1,1.6E1,2.5E1,2E1,3E0],"tree_param":{"num_deleted":"0","num_feature":"98","num_nodes":"29","size_leaf_vector":"1"}},{"base_weights":[1.253357E-1,-9.5084435E-1,2.798775E0,-2.2895699E0,-1.9201514E-1,5.412842E0,2.1594646E0,-3.222845E0,-8.303467E-1,-1.5623671E0,1.9552368E-1,3.392845E-1,1.3433914E-1,2.1729605E-1,1.5126252E0,-2.7980652E-1,-2.5164015E0,-1.4824456E0,1.2668718E-1,-2.4787903E0,-2.9183087E-1,1.8592268E0,-7.3600076E-2,1.8557739E0,-4.6221163E-2,-1.3826977E-1,-4.7678757E-2,-2.8411103E-2,-9.224269E-2,4.656601E-2,-3.5480883E-2,-1.723076E-1,-6.045715E-2,-5.917282E-2,3.363762E-2,3.1258773E-2,1.3142358E-1,-5.855645E-2,1.0141331E-2,6.580281E-2,1.3853513E-1],"categories":[],"categories_nodes":[],"categories_segments":[],"categories_sizes":[],"default_left":[0,0,0,0,0,0,0,0,0,0,0,0,0,0,0,0,0,0,0,0,0,0,0,0,0,0,0,0,0,0,0,0,0,0,0,0,0,0,0,0,0],"id":46,"left_children":[1,3,5,7,9,11,13,15,17,19,21,-1,-1,-1,23,-1,25,27,29,31,33,35,37,39,-1,-1,-1,-1,-1,-1,-1,-1,-1,-1,-1,-1,-1,-1,-1,-1,-1],"loss_changes":[3.9106995E2,9.8099174E1,5.3487976E1,4.4988907E1,3.3762547E1,7.9655914E0,4.0097687E1,2.1126328E1,9.549017E0,1.5577496E1,2.2523941E1,0E0,0E0,0E0,2.4294815E1,0E0,4.367401E0,1.9336128E0,5.37131E0,5.6587715E0,6.8165026E0,5.0017548E0,1.3586532E1,8.204872E0,0E0,0E0,0E0,0E0,0E0,0E0,0E0,0E0,0E0,0E0,0E0,0E0,0E0,0E0,0E0,0E0,0E0],"parents":[2147483647,0,0,1,1,2,2,3,3,4,4,5,5,6,6,7,7,8,8,9,9,10,10,14,14,16,16,17,17,18,18,19,19,20,20,21,21,22,22,23,23],"right_children":[2,4,6,8,10,12,14,16,18,20,22,-1,-1,-1,24,-1,26,28,30,32,34,36,38,40,-1,-1,-1,-1,-1,-1,-1,-1,-1,-1,-1,-1,-1,-1,-1,-1,-1],"split_conditions":[5.0978E2,4.8172E2,4.9311E2,4.5959E6,3.4433E6,5.2527E2,4.9947E2,4.7347E2,4.7372E2,4.5215E6,4.7292E2,3.392845E-1,1.3433914E-1,2.1729605E-1,5.3682E2,-2.7980652E-1,6.368E6,4.792E2,4.7735E2,3.669E6,4.8923E2,4.6887E2,4.9192E2,6.1293E6,-4.6221163E-2,-1.3826977E-1,-4.7678757E-2,