{"learner":{"attributes":{"best_iteration":"3","best_score":"8.959174005111977"},"feature_names":[],"feature_types":[],"gradient_booster":{"model":{"cats":{"enc":[],"feature_segments":[],"sorted_idx":[]},"gbtree_model_param":{"num_parallel_tree":"1","num_trees":"34"},"iteration_indptr":[0,1,2,3,4,5,6,7,8,9,10,11,12,13,14,15,16,17,18,19,20,21,22,23,24,25,26,27,28,29,30,31,32,33,34],"tree_info":[0,0,0,0,0,0,0,0,0,0,0,0,0,0,0,0,0,0,0,0,0,0,0,0,0,0,0,0,0,0,0,0,0,0],"trees":[{"base_weights":[9.292906E-2,3.394955E0,-4.9796987E0,1.1247406E0,9.564466E0,-1.0925883E1,3.4037921E0,2.8455608E0,-7.425171E0,-1.5415396E-1,1.3248956E1,-4.986596E0,-1.6924713E1,-5.3533745E-1,1.002849E1,6.1535964E0,3.7898636E-1,1.924296E-1,-8.7307024E-1,1.4776418E1,2.1043663E-1,2.188324E-1,-7.9744263E0,-1.8689257E1,-3.4793854E-1,-2.8946416E0,3.6331177E-1,2.2456132E-1,6.024292E-1,2.2809672E-1,4.569988E-1,-8.45621E-2,4.0071326E-1,3.250614E-1,8.151723E-1,1.8436432E-2,-5.1416767E-1,-1.0236262E0,-4.7793847E-1,-2.3644924E-1,1.679484E-3],"categories":[],"categories_nodes":[],"categories_segments":[],"categories_sizes":[],"default_left":[0,0,0,0,0,0,0,0,0,0,0,0,0,0,0,0,0,0,0,0,0,0,0,0,0,0,0,0,0,0,0,0,0,0,0,0,0,0,0,0,0],"id":0,"left_children":[1,3,5,7,9,11,13,15,17,-1,19,21,23,25,27,29,31,-1,-1,33,-1,-1,35,37,-1,39,-1,-1,-1,-1,-1,-1,-1,-1,-1,-1,-1,-1,-1,-1,-1],"loss_changes":[2.3786487E3,1.1937681E3,2.8287773E3,9.6275183E2,1.1126418E3,1.0913528E3,6.316617E2,4.3828177E2,1.3118093E3,0E0,1.8636499E2,5.384654E2,1.5131055E2,3.1553366E2,4.6559204E1,6.763013E1,5.193707E2,0E0,0E0,8.355444E1,0E0,0E0,2.73484E2,1.5976074E1,0E0,6.998682E1,0E0,0E0,0E0,0E0,0E0,0E0,0E0,0E0,0E0,0E0,0E0,0E0,0E0,0E0,0E0],"parents":[2147483647,0,0,1,1,2,2,3,3,4,4,5,5,6,6,7,7,8,8,10,10,11,11,12,12,13,13,14,14,15,15,16,16,19,19,22,22,23,23,25,25],"right_children":[2,4,6,8,10,12,14,16,18,-1,20,22,24,26,28,30,32,-1,-1,34,-1,-1,36,38,-1,40,-1,-1,-1,-1,-1,-1,-1,-1,-1,-1,-1,-1,-1,-1,-1],"split_conditions":[5.0016E2,4.9354E2,5.2141E2,4.9075E2,4.915E2,4.7685E6,6.1293E6,4.8248E2,4.9075E2,-1.5415396E-1,5.5121E6,4.9986E2,5.0044E6,5.3188E2,4.1932E6,4.806E2,4.929E2,1.924296E-1,-8.7307024E-1,4.9442E2,2.1043663E-1,2.188324E-1,4.9311E2,5.146E2,-3.4793854E-1,5.9231E6,3.6331177E-1,2.2456132E-1,6.024292E-1,2.2809672E-1,4.569988E-1,-8.45621E-2,4.0071326E-1,3.250614E-1,8.151723E-1,1.8436432E-2,-5.1416767E-1,-1.0236262E0,-4.7793847E-1,-2.3644924E-1,1.679484E-3],"split_indices":[0,3,36,7,63,18,74,57,14,0,18,10,67,70,32,2,8,0,0,43,0,0,37,17,0,11,0,0,0,0,0,0,0,0,0,0,0,0,0,0,0],"split_type":[0,0,0,0,0,0,0,0,0,0,0,0,0,0,0,0,0,0,0,0,0,0,0,0,0,0,0,0,0,0,0,0,0,0,0,0,0,0,0,0,0],"sum_hessian":[1.4E2,8.5E1,5.5E1,6.3E1,2.2E1,3.2E1,2.3E1,5.3E1,1E1,5E0,1.7E1,1.7E1,1.5E1,1.5E1,8E0,2.2E1,3.1E1,5E0,5E0,1.4E1,3E0,4E0,1.3E1,1.2E1,3E0,1.2E1,3E0,3E0,5E0,1.6E1,6E0,2.5E1,6E0,3E0,1.1E1,3E0,1E1,9E0,3E0,7E0,5E0],"tree_param":{"num_deleted":"0","num_feature":"98","num_nodes":"41","size_leaf_vector":"1"}},{"base_weights":[-3.0271205E-1,3.3625493E0,-5.5702333E0,5.7924694E-1,1.0064728E1,-1.0608141E1,4.2803025E0,5.5183477E0,-3.7605677E0,-7.517357E-1,1.4562785E1,7.425716E-2,-1.248546E1,2.6446533E-1,5.8502525E-1,3.9540246E0,4.4674513E-1,3.680364E-1,-6.092686E0,2.65448E-2,-1.0835457E-1,4.4821295E-1,8.074242E-1,-1.4843378E1,-3.261547E0,-3.0641923E0,4.676079E-1,3.3457857E-1,6.716169E-2,-6.339406E-2,-5.24115E-1,-2.1409333E-1,-8.2845116E-1,-2.6715514E-1,7.7892304E-3,-3.689728E-2,-2.8540498E-1],"categories":[],"categories_nodes":[],"categories_segments":[],"categories_sizes":[],"default_left":[0,0,0,0,0,0,0,0,0,0,0,0,0,0,0,0,0,0,0,0,0,0,0,0,0,0,0,0,0,0,0,0,0,0,0,0,0],"id":1,"left_children":[1,3,5,7,9,11,13,15,17,19,21,-1,23,25,-1,27,-1,-1,29,-1,-1,-1,-1,31,33,35,-1,-1,-1,-1,-1,-1,-1,-1,-1,-1,-1],"loss_changes":[2.6830745E3,1.5238136E3,2.8740933E3,1.2854042E3,1.1786211E3,8.812549E2,5.928722E2,1.14319885E2,8.7480444E2,1.5673538E1,6.159668E0,0E0,6.69312E2,4.5215424E2,0E0,1.4110205E2,0E0,0E0,5.585436E2,0E0,0E0,0E0,0E0,4.0291455E2,5.773932E1,6.3441917E1,0E0,0E0,0E0,0E0,0E0,0E0,0E0,0E0,0E0,0E0,0E0],"parents":[2147483647,0,0,1,1,2,2,3,3,4,4,5,5,6,6,7,7,8,8,9,9,10,10,12,12,13,13,15,15,18,18,23,23,24,24,25,25],"right_children":[2,4,6,8,10,12,14,16,18,20,22,-1,24,26,-1,28,-1,-1,30,-1,-1,-1,-1,32,34,36,-1,-1,-1,-1,-1,-1,-1,-1,-1,-1,-1],"split_conditions":[5.0016E2,4.959E2,5.2393E2,4.8608E2,4.8667E2,4.9057E2,6.3843E6,4.8577E2,3.6139E6,4.894E2,4.895E2,7.425716E-2,5.21E2,5.3572E2,5.8502525E-1,4.734E2,4.4674513E-1,3.680364E-1,4.9185E2,2.65448E-2,-1.0835457E-1,4.4821295E-1,8.074242E-1,3.5195E6,5.9231E6,5.5121E6,4.676079E-1,3.3457857E-1,6.716169E-2,-6.339406E-2,-5.24115E-1,-2.1409333E-1,-8.2845116E-1,-2.6715514E-1,7.7892304E-3,-3.689728E-2,-2.8540498E-1],"split_indices":[0,70,29,71,2,28,95,0,60,1,9,0,50,85,0,31,0,0,15,0,0,0,0,11,25,74,0,0,0,0,0,0,0,0,0,0,0],"split_type":[0,0,0,0,0,0,0,0,0,0,0,0,0,0,0,0,0,0,0,0,0,0,0,0,0,0,0,0,0,0,0,0,0,0,0,0,0],"sum_hessian":[1.37E2,8.1E1,5.6E1,5.8E1,2.3E1,3.7E1,1.9E1,2.7E1,3.1E1,7E0,1.6E1,5E0,3.2E1,1.3E1,6E0,2E1,7E0,5E0,2.6E1,4E0,3E0,5E0,1.1E1,2.5E1,7E0,1E1,3E0,9E0,1.1E1,1.3E1,1.3E1,4E0,2.1E1,4E0,3E0,6E0,4E0],"tree_param":{"num_deleted":"0","num_feature":"98","num_nodes":"37","size_leaf_vector":"1"}},{"base_weights":[-3.3778504E-2,3.2296026E0,-4.6706223E0,8.9367414E-1,8.740196E0,-1.0591933E1,4.5431385E0,5.6511197E0,-3.1483479E0,-1.0479703E0,1.3699778E1,7.116344E-2,-1.2641909E1,-1.4044626E-1,5.322922E-1,3.8962064E0,4.1224262E-1,4.5774536E0,-5.9143424E0,3.1452943E-2,-1.2577026E-1,4.0676752E-1,7.744743E-1,-7.8761005E0,-1.6319735E1,-2.6026113E0,3.3328095E-1,2.7612612E-1,5.8649827E-2,4.3839166E-1,-1.426239E-1,-7.938935E-2,-5.906371E-1,-7.6094665E-2,-5.024184E-1,-1.0440671E0,-6.173987E-1,-2.4097493E-1,2.402242E-3],"categories":[],"categories_nodes":[],"categories_segments":[],"categories_sizes":[],"default_left":[0,0,0,0,0,0,0,0,0,0,0,0,0,0,0,0,0,0,0,0,0,0,0,0,0,0,0,0,0,0,0,0,0,0,0,0,0,0,0],"id":2,"left_children":[1,3,5,7,9,11,13,15,17,19,21,-1,23,25,-1,27,-1,29,31,-1,-1,-1,-1,33,35,37,-1,-1,-1,-1,-1,-1,-1,-1,-1,-1,-1,-1,-1],"loss_changes":[2.0881394E3,1.0348497E3,3.1579004E3,1.1331143E3,1.1794419E3,8.80074E2,6.5889343E2,9.077429E1,7.1089746E2,2.373072E1,3.3326904E1,0E0,3.9729883E2,2.519552E2,0E0,7.324048E1,0E0,3.052181E2,5.9371796E2,0E0,0E0,0E0,0E0,1.9175299E2,3.204004E1,6.4869835E1,0E0,0E0,0E0,0E0,0E0,0E0,0E0,0E0,0E0,0E0,0E0,0E0,0E0],"parents":[2147483647,0,0,1,1,2,2,3,3,4,4,5,5,6,6,7,7,8,8,9,9,10,10,12,12,13,13,15,15,17,17,18,18,23,23,24,24,25,25],"right_children":[2,4,6,8,10,12,14,16,18,20,22,-1,24,26,-1,28,-1,30,32,-1,-1,-1,-1,34,36,38,-1,-1,-1,-1,-1,-1,-1,-1,-1,-1,-1,-1,-1],"split_conditions":[5.0016E2,4.9799E2,5.2141E2,4.8608E2,4.8667E2,4.9057E2,6.1293E6,4.806E2,3.5829E6,4.8568E2,4.895E2,7.116344E-2,4.7264E6,5.3258E2,5.322922E-1,4.7284E2,4.1224262E-1,4.9725E2,4.9034E2,3.1452943E-2,-1.2577026E-1,4.0676752E-1,7.744743E-1,4.9947E2,5.0346E2,5.3434E6,3.3328095E-1,2.7612612E-1,5.8649827E-2,4.3839166E-1,-1.426239E-1,-7.938935E-2,-5.906371E-1,-7.6094665E-2,-5.024184E-1,-1.0440671E0,-6.173987E-1,-2.4097493E-1,2.402242E-3],"split_indices":[0,71,36,64,2,28,81,2,53,3,9,0,18,80,0,31,0,21,3,0,0,0,0,30,31,18,0,0,0,0,0,0,0,0,0,0,0,0,0],"split_type":[0,0,0,0,0,0,0,0,0,0,0,0,0,0,0,0,0,0,0,0,0,0,0,0,0,0,0,0,0,0,0,0,0,0,0,0,0,0,0],"sum_hessian":[1.36E2,8E1,5.6E1,5.7E1,2.3E1,3.4E1,2.2E1,2.6E1,3.1E1,8E0,1.5E1,5E0,2.9E1,1.3E1,9E0,1.7E1,9E0,8E0,2.3E1,4E0,4E0,5E0,1E1,1.4E1,1.5E1,1E1,3E0,1E1,7E0,5E0,3E0,1.4E1,9E0,4E0,1E1,5E0,1E1,5E0,5E0],"tree_param":{"num_deleted":"0","num_feature":"98","num_nodes":"39","size_leaf_vector":"1"}},{"base_weights":[-3.0466345E-1,2.8851752E0,-4.832247E0,-5.2668566E-1,7.1646314E0,-1.1000745E1,4.107802E0,4.6732707E0,-6.9396462E0,-4.8988226E-1,1.10123E1,-6.5114344E-3,-1.28704815E1,1.1427709E0,6.406217E-1,3.0635574E0,6.9424562E0,2.8490525E-1,-9.362499E0,1.1800461E0,-1.3174032E-1,1.2041806E1,1.4271584E-1,-1.4407516E1,-2.2886327E-1,4.969368E-1,-2.708555E0,2.6592755E-1,6.7502804E-2,4.0295282E-1,1.6263962E-1,-1.0405922E-2,-7.5845474E-1,6.3043213E-3,1.1012421E-1,2.5573578E-1,6.4560854E-1,-8.044034E-1,-4.9095154E-1,8.0710985E-2,-2.0171204E-1],"categories":[],"categories_nodes":[],"categories_segments":[],"categories_sizes":[],"default_left":[0,0,0,0,0,0,0,0,0,0,0,0,0,0,0,0,0,0,0,0,0,0,0,0,0,0,0,0,0,0,0,0,0,0,0,0,0,0,0,0,0],"id":3,"left_children":[1,3,5,7,9,11,13,15,17,19,21,-1,23,25,-1,27,29,-1,31,33,-1,35,-1,37,-1,-1,39,-1,-1,-1,-1,-1,-1,-1,-1,-1,-1,-1,-1,-1,-1],"loss_changes":[1.9925315E3,1.186447E3,3.1885498E3,1.5663982E3,1.065668E3,6.8937354E2,6.047865E2,7.3702576E1,6.963562E2,4.9673496E1,1.6719727E2,0E0,3.0371436E2,6.7056604E2,0E0,5.8506577E1,1.4984375E1,0E0,9.536472E2,8.343164E0,0E0,6.0568848E1,0E0,2.7099121E1,0E0,0E0,8.674112E1,0E0,0E0,0E0,0E0,0E0,0E0,0E0,0E0,0E0,0E0,0E0,0E0,0E0,0E0],"parents":[2147483647,0,0,1,1,2,2,3,3,4,4,5,5,6,6,7,7,8,8,9,9,10,10,12,12,13,13,15,15,16,16,18,18,19,19,21,21,23,23,26,26],"right_children":[2,4,6,8,10,12,14,16,18,20,22,-1,24,26,-1,28,30,-1,32,34,-1,36,-1,38,-1,-1,40,-1,-1,-1,-1,-1,-1,-1,-1,-1,-1,-1,-1,-1,-1],"split_conditions":[5.0085E2,4.9057E2,5.2393E2,4.8608E2,4.8667E2,4.9057E2,5.3592E2,4.8668E2,3.1668E6,5.0149E2,5.0323E2,-6.5114344E-3,5.1581E2,4.9947E2,6.406217E-1,4.7284E2,4.6788E6,2.8490525E-1,4.8968E2,4.9984E2,-1.3174032E-1,4.9154E2,1.4271584E-1,4.6053E6,-2.2886327E-1,4.969368E-1,5.2008E2,2.6592755E-1,6.7502804E-2,4.0295282E-1,1.6263962E-1,-1.0405922E-2,-7.5845474E-1,6.3043213E-3,1.1012421E-1,2.5573578E-1,6.4560854E-1,-8.044034E-1,-4.9095154E-1,8.0710985E-2,-2.0171204E-1],"split_indices":[7,70,29,71,9,35,92,1,53,52,1,0,45,86,0,31,39,0,8,94,0,59,0,74,0,0,35,0,0,0,0,0,0,0,0,0,0,0,0,0,0],"split_type":[0,0,0,0,0,0,0,0,0,0,0,0,0,0,0,0,0,0,0,0,0,0,0,0,0,0,0,0,0,0,0,0,0,0,0,0,0,0,0,0,0],"sum_hessian":[1.36E2,8E1,5.6E1,4.5E1,3.5E1,3.3E1,2.3E1,2.5E1,2E1,1.2E1,2.3E1,5E0,2.8E1,1.8E1,5E0,1.6E1,9E0,3E0,1.7E1,7E0,5E0,2E1,3E0,2.3E1,5E0,5E0,1.3E1,6E0,1E1,6E0,3E0,7E0,1E1,4E0,3E0,3E0,1.7E1,1.5E1,8E0,3E0,1E1],"tree_param":{"num_deleted":"0","num_feature":"98","num_nodes":"41","size_leaf_vector":"1"}},{"base_weights":[2.8403446E-1,3.8752894E0,-4.979661E0,1.5142251E0,8.1381235E0,-1.02415085E1,3.0152283E0,2.9766185E0,-5.340513E-1,-1.330623E0,1.0666084E1,2.0332375E-1,-1.1757328E1,6.409045E-1,5.717307E-1,5.4161158E0,4.1805664E-1,1.7351532E-1,-2.8994486E-1,1.1964708E1,7.5322345E-2,-1.3785129E1,-4.204262E0,-2.063623E0,4.3131533E-1,3.0394912E-1,7.744263E-2,-6.335791E-2,3.7061736E-1,3.2747397E-1,6.666576E-1,-2.7315828E-1,-7.5881815E-1,-8.941918E-2,-2.6480561E-1,-5.244446E-3,-1.6788958E-1],"categories":[],"categories_nodes":[],"categories_segments":[],"categories_sizes":[],"default_left":[0,0,0,0,0,0,0,0,0,0,0,0,0,0,0,0,0,0,0,0,0,0,0,0,0,0,0,0,0,0,0,0,0,0,0,0,0],"id":4,"left_children":[1,3,5,7,9,11,13,15,-1,17,19,-1,21,23,-1,25,27,-1,-1,29,-1,31,33,35,-1,-1,-1,-1,-1,-1,-1,-1,-1,-1,-1,-1,-1],"loss_changes":[2.6090461E3,8.129928E2,2.3866821E3,9.94843E2,7.083545E2,7.8521436E2,4.5244943E2,3.0357434E2,0E0,1.7028702E2,2.5555908E2,0E0,4.1684326E2,4.281395E2,0E0,5.467157E1,3.0406467E2,0E0,0E0,6.088379E1,0E0,1.9495605E2,1.1630737E1,3.7671787E1,0E0,0E0,0E0,0E0,0E0,0E0,0E0,0E0,0E0,0E0,0E0,0E0,0E0],"parents":[2147483647,0,0,1,1,2,2,3,3,4,4,5,5,6,6,7,7,9,9,10,10,12,12,13,13,15,15,16,16,19,19,21,21,22,22,23,23],"right_children":[2,4,6,8,10,12,14,16,-1,18,20,-1,22,24,-1,26,28,-1,-1,30,-1,32,34,36,-1,-1,-1,-1,-1,-1,-1,-1,-1,-1,-1,-1,-1],"split_conditions":[5.0016E2,4.9471E2,5.1591E2,4.9105E2,4.9057E2,3.0574E6,5.3592E2,4.8314E2,-5.340513E-1,4.2945E6,5.5121E6,2.0332375E-1,5.0448E6,6.1293E6,5.717307E-1,4.7866E6,4.8903E2,1.7351532E-1,-2.8994486E-1,4.9685E2,7.5322345E-2,3.3306E6,5.0162E2,5.2008E2,4.3131533E-1,3.0394912E-1,7.744263E-2,-6.335791E-2,3.7061736E-1,3.2747397E-1,6.666576E-1,-2.7315828E-1,-7.5881815E-1,-8.941918E-2,-2.6480561E-1,-5.244446E-3,-1.6788958E-1],"split_indices":[0,8,78,14,63,39,85,57,0,11,18,0,81,74,0,88,16,0,0,57,0,11,2,14,0,0,0,0,0,0,0,0,0,0,0,0,0],"split_type":[0,0,0,0,0,0,0,0,0,0,0,0,0,0,0,0,0,0,0,0,0,0,0,0,0,0,0,0,0,0,0,0,0,0,0,0,0],"sum_hessian":[1.36E2,8.1E1,5.5E1,5.3E1,2.8E1,3.3E1,2.2E1,4.8E1,5E0,6E0,2.2E1,3E0,3E1,1.8E1,4E0,2.4E1,2.4E1,3E0,3E0,1.9E1,3E0,2.3E1,7E0,1.4E1,4E0,2E1,4E0,2E1,4E0,5E0,1.4E1,4E0,1.9E1,3E0,4E0,6E0,8E0],"tree_param":{"num_deleted":"0","num_feature":"98","num_nodes":"37","size_leaf_vector":"1"}},{"base_weights":[3.229147E-2,2.981062E0,-4.0034347E0,6.726219E-1,8.826517E0,-9.011166E0,4.3730083E0,2.687337E0,-7.996854E0,-1.3641357E-2,1.086375E1,-8.4024525E-1,-6.1842074E0,7.0538986E-1,9.592302E0,5.869655E0,1.12669766E-1,-7.354915E-1,1.5003417E-1,1.1445274E-1,6.2130433E-1,5.760387E-1,-9.971902E0,-3.2390199E0,4.2265654E-1,2.5481912E-1,5.4954326E-1,3.2254782E-1,8.931923E-2,3.1274435E-1,-9.700506E-2,2.4044266E-1,-8.061867E-2,-5.3889567E-1,-2.2281913E-1,-2.819031E-2,-2.4642639E-1],"categories":[],"categories_nodes":[],"categories_segments":[],"categories_sizes":[],"default_left":[0,0,0,0,0,0,0,0,0,0,0,0,0,0,0,0,0,0,0,0,0,0,0,0,0,0,0,0,0,0,0,0,0,0,0,0,0],"id":5,"left_children":[1,3,5,7,9,11,13,15,17,-1,19,-1,21,23,25,27,29,-1,-1,-1,-1,31,33,35,-1,-1,-1,-1,-1,-1,-1,-1,-1,-1,-1,-1,-1],"loss_changes":[1.6065919E3,1.0465859E3,2.430383E3,1.01708215E3,4.107887E2,6.892478E2,4.1436603E2,3.84429E2,8.562279E2,0E0,2.1269409E2,0E0,7.227052E2,4.552236E2,5.767822E-1,3.832196E1,3.525664E2,0E0,0E0,0E0,0E0,1.0964823E2,3.198999E1,4.241922E1,0E0,0E0,0E0,0E0,0E0,0E0,0E0,0E0,0E0,0E0,0E0,0E0,0E0],"parents":[2147483647,0,0,1,1,2,2,3,3,4,4,5,5,6,6,7,7,8,8,10,10,12,12,13,13,14,14,15,15,16,16,21,21,22,22,23,23],"right_children":[2,4,6,8,10,12,14,16,18,-1,20,-1,22,24,26,28,30,-1,-1,-1,-1,32,34,36,-1,-1,-1,-1,-1,-1,-1,-1,-1,-1,-1,-1,-1],"split_conditions":[5.0016E2,4.9354E2,5.2393E2,4.9075E2,2.9767E6,4.9E2,6.3841E6,4.8314E2,4.9351E2,-1.3641357E-2,4.9023E2,-8.4024525E-1,4.9947E2,5.3572E2,4.7264E6,4.7866E6,3.656E6,-7.354915E-1,1.5003417E-1,1.1445274E-1,6.2130433E-1,4.9242E2,5.1581E2,5.3094E2,4.2265654E-1,2.5481912E-1,5.4954326E-1,3.2254782E-1,8.931923E-2,3.1274435E-1,-9.700506E-2,2.4044266E-1,-8.061867E-2,-5.3889567E-1,-2.2281913E-1,-2.819031E-2,-2.4642639E-1],"split_indices":[0,3,29,7,81,91,81,57,58,0,38,0,30,85,67,95,25,0,0,0,0,59,45,31,0,0,0,0,0,0,0,0,0,0,0,0,0],"split_type":[0,0,0,0,0,0,0,0,0,0,0,0,0,0,0,0,0,0,0,0,0,0,0,0,0,0,0,0,0,0,0,0,0,0,0,0,0],"sum_hessian":[1.33E2,7.7E1,5.6E1,5.6E1,2.1E1,3.5E1,2.1E1,4.6E1,1E1,4E0,1.7E1,8E0,2.7E1,1.3E1,8E0,2E1,2.6E1,6E0,4E0,3E0,1.4E1,1E1,1.7E1,9E0,4E0,3E0,5E0,1.7E1,3E0,6E0,2E1,3E0,7E0,1.4E1,3E0,4E0,5E0],"tree_param":{"num_deleted":"0","num_feature":"98","num_nodes":"37","size_leaf_vector":"1"}},{"base_weights":[-4.6577308E-1,2.3043058E0,-5.1820693E0,3.131973E-1,6.4886703E0,-9.112076E0,4.85742E0,4.239539E0,-2.0715148E0,1.0272025E1,5.881958E-1,-1.1242436E1,-3.0546403E0,-1.4643031E0,9.234602E0,2.0989869E0,5.4656806E0,-5.8804183E0,2.9795084E0,2.2310333E-1,5.858234E-1,-2.4302395E-1,5.1744604E0,-6.944422E-1,-6.7770233E0,-2.281765E-1,3.633995E-2,-1.6832428E-1,4.0197756E-2,1.780262E-1,5.739111E-1,-1.1869812E-2,1.5671037E-1,3.112062E-1,1.0067711E-1,-1.5541266E-1,-6.3774085E-1,-9.202299E-3,3.7625822E-1,5.066311E-1,-5.3865816E-2,-5.8098223E-2,-4.2598015E-1],"categories":[],"categories_nodes":[],"categories_segments":[],"categories_sizes":[],"default_left":[0,0,0,0,0,0,0,0,0,0,0,0,0,0,0,0,0,0,0,0,0,0,0,0,0,0,0,0,0,0,0,0,0,0,0,0,0,0,0,0,0,0,0],"id":6,"left_children":[1,3,5,7,9,11,13,15,17,19,21,23,25,27,29,31,33,35,37,-1,-1,-1,39,-1,41,-1,-1,-1,-1,-1,-1,-1,-1,-1,-1,-1,-1,-1,-1,-1,-1,-1,-1],"loss_changes":[1.8017793E3,7.228103E2,2.0564795E3,5.70574E2,6.1901843E2,4.4312573E2,4.285923E2,4.889392E1,7.485975E2,9.0387085E1,3.250191E2,2.2494214E2,6.6080284E1,3.2908993E1,7.370575E1,2.493077E1,2.4122986E1,3.7960803E2,2.4585226E2,0E0,0E0,0E0,2.2789726E2,0E0,1.07516785E2,0E0,0E0,0E0,0E0,0E0,0E0,0E0,0E0,0E0,0E0,0E0,0E0,0E0,0E0,0E0,0E0,0E0,0E0],"parents":[2147483647,0,0,1,1,2,2,3,3,4,4,5,5,6,6,7,7,8,8,9,9,10,10,11,11,12,12,13,13,14,14,15,15,16,16,17,17,18,18,22,22,24,24],"right_children":[2,4,6,8,10,12,14,16,18,20,22,24,26,28,30,32,34,36,38,-1,-1,-1,40,-1,42,-1,-1,-1,-1,-1,-1,-1,-1,-1,-1,-1,-1,-1,-1,-1,-1,-1,-1],"split_conditions":[4.9861E2,4.9371E2,5.1581E2,4.768E2,4.9762E2,5.1575E2,5.19E2,4.0561E6,4.9378E2,4.9057E2,4.9378E2,4.6053E6,5.2468E2,5.3016E2,5.2079E2,4.1306E6,5.8893E6,4.9E2,4.8585E2,2.2310333E-1,5.858234E-1,-2.4302395E-1,4.07E6,-6.944422E-1,5.017E2,-2.281765E-1,3.633995E-2,-1.6832428E-1,4.0197756E-2,1.780262E-1,5.739111E-1,-1.1869812E-2,1.5671037E-1,3.112062E-1,1.0067711E-1,-1.5541266E-1,-6.3774085E-1,-9.202299E-3,3.7625822E-1,5.066311E-1,-5.3865816E-2,-5.8098223E-2,-4.2598015E-1],"split_indices":[2,3,94,58,16,71,30,53,94,21,59,67,72,3,94,11,67,0,9,0,0,0,39,0,21,0,0,0,0,0,0,0,0,0,0,0,0,0,0,0,0,0,0],"split_type":[0,0,0,0,0,0,0,0,0,0,0,0,0,0,0,0,0,0,0,0,0,0,0,0,0,0,0,0,0,0,0,0,0,0,0,0,0,0,0,0,0,0,0],"sum_hessian":[1.36E2,8.6E1,5E1,5.9E1,2.7E1,3.6E1,1.4E1,2.2E1,3.7E1,1.6E1,1.1E1,2.6E1,1E1,6E0,8E0,9E0,1.3E1,2.1E1,1.6E1,4E0,1.2E1,5E0,6E0,1.5E1,1.1E1,7E0,3E0,3E0,3E0,3E0,5E0,3E0,6E0,1E1,3E0,1.6E1,5E0,1E1,6E0,3E0,3E0,3E0,8E0],"tree_param":{"num_deleted":"0","num_feature":"98","num_nodes":"43","size_leaf_vector":"1"}},{"base_weights":[-1.5934259E-2,2.3685658E0,-3.7201407E0,2.8643847E-1,7.520784E0,-8.576423E0,3.6204555E0,1.9386533E0,-7.700273E0,1.0301269E0,1.1107395E1,-2.3581848E0,-1.1860998E1,-1.795712E0,6.6287923E0,4.532418E0,-4.8289638E-2,-2.504476E-3,-7.033539E-1,5.042716E0,-3.1247178E-1,6.233714E-1,1.9552194E-1,2.1565247E-1,-5.8024054E0,-1.3171619E1,-1.3351479E-1,-2.2255936E-1,1.3694509E-2,-1.0286751E-1,8.971774E0,1.4978628E-1,3.5196248E-1,-7.961889E-2,3.325404E-1,3.2335207E-1,1.1788559E-1,-1.2288437E-1,-3.532575E-1,-8.767128E-1,-5.180544E-1,1.4377442E-1,5.342185E-1],"categories":[],"categories_nodes":[],"categories_segments":[],"categories_sizes":[],"default_left":[0,0,0,0,0,0,0,0,0,0,0,0,0,0,0,0,0,0,0,0,0,0,0,0,0,0,0,0,0,0,0,0,0,0,0,0,0,0,0,0,0,0,0],"id":7,"left_children":[1,3,5,7,9,11,13,15,17,19,21,23,25,27,29,31,33,-1,-1,35,-1,-1,-1,-1,37,39,-1,-1,-1,-1,41,-1,-1,-1,-1,-1,-1,-1,-1,-1,-1,-1,-1],"loss_changes":[1.2630521E3,9.3114465E2,2.0273386E3,8.462613E2,5.7054456E2,6.6645483E2,3.866576E2,2.7336298E2,5.350749E2,3.2361307E2,1.0785657E2,3.2372968E2,2.2982959E2,5.068113E1,3.2373016E2,6.751361E1,3.3125455E2,0E0,0E0,1.1522812E1,0E0,0E0,0E0,0E0,2.0647827E1,5.1291504E1,0E0,0E0,0E0,0E0,9.456299E1,0E0,0E0,0E0,0E0,0E0,0E0,0E0,0E0,0E0,0E0,0E0,0E0],"parents":[2147483647,0,0,1,1,2,2,3,3,4,4,5,5,6,6,7,7,8,8,9,9,10,10,11,11,12,12,13,13,14,14,15,15,16,16,19,19,24,24,25,25,30,30],"right_children":[2,4,6,8,10,12,14,16,18,20,22,24,26,28,30,32,34,-1,-1,36,-1,-1,-1,-1,38,40,-1,-1,-1,-1,42,-1,-1,-1,-1,-1,-1,-1,-1,-1,-1,-1,-1],"split_conditions":[5.0016E2,4.9354E2,5.16E2,4.9075E2,4.9699E2,3.7076E6,5.19E2,4.8248E2,4.9105E2,5.0497E2,5.2545E2,4.9802E2,5.214E2,5.3434E6,3.1835E6,4.806E2,4.938E2,-2.504476E-3,-7.033539E-1,4.9639E2,-3.1247178E-1,6.233714E-1,1.9552194E-1,2.1565247E-1,5.028E2,4.9034E2,-1.3351479E-1,-2.2255936E-1,1.3694509E-2,-1.0286751E-1,5.13E2,1.4978628E-1,3.5196248E-1,-7.961889E-2,3.325404E-1,3.2335207E-1,1.1788559E-1,-1.2288437E-1,-3.532575E-1,-8.767128E-1,-5.180544E-1,1.4377442E-1,5.342185E-1],"split_indices":[0,3,92,7,57,39,30,57,14,15,35,9,0,32,32,2,1,0,0,24,0,0,0,0,16,80,0,0,0,0,44,0,0,0,0,0,0,0,0,0,0,0,0],"split_type":[0,0,0,0,0,0,0,0,0,0,0,0,0,0,0,0,0,0,0,0,0,0,0,0,0,0,0,0,0,0,0,0,0,0,0,0,0,0,0,0,0,0,0],"sum_hessian":[1.41E2,8.6E1,5.5E1,6.2E1,2.4E1,3.3E1,2.2E1,5.2E1,1E1,9E0,1.5E1,1.2E1,2.1E1,8E0,1.4E1,2.2E1,3E1,5E0,5E0,6E0,3E0,1.2E1,3E0,4E0,8E0,1.8E1,3E0,3E0,5E0,3E0,1.1E1,1.5E1,7E0,2.5E1,5E0,3E0,3E0,3E0,5E0,5E0,1.3E1,3E0,8E0],"tree_param":{"num_deleted":"0","num_feature":"98","num_nodes":"43","size_leaf_vector":"1"}},{"base_weights":[-1.334659E-1,2.11634E0,-3.9554663E0,5.8029173E-3,6.9054117E0,-8.487128E0,2.1978815E0,4.1157465E0,-3.481598E0,-6.575521E-2,5.0036806E-1,-2.3254204E0,-1.034197E1,-1.8042842E0,4.089632E-1,1.7275335E0,5.3465576E0,-9.705644E0,5.3717333E-1,4.295624E-2,-4.8874207E-2,1.4087029E-1,-2.9872987E-1,-6.005671E-1,-6.5960627E0,-1.8840139E-1,2.0235406E-1,7.9484945E-3,2.2163887E-1,3.0539855E-1,5.7730865E-2,-6.383031E-2,-7.4071085E-1,1.174063E-1,-3.8732034E-1,-1.5210152E-1,-3.933037E-1],"categories":[],"categories_nodes":[],"categories_segments":[],"categories_sizes":[],"default_left":[0,0,0,0,0,0,0,0,0,0,0,0,0,0,0,0,0,0,0,0,0,0,0,0,0,0,0,0,0,0,0,0,0,0,0,0,0],"id":8,"left_children":[1,3,5,7,9,11,13,15,17,19,-1,21,23,25,-1,27,29,31,33,-1,-1,-1,-1,-1,35,-1,-1,-1,-1,-1,-1,-1,-1,-1,-1,-1,-1],"loss_changes":[1.1606047E3,8.5909863E2,1.4128982E3,8.7431067E2,5.6288745E2,3.0739136E2,5.4140436E2,7.306799E1,8.306433E2,8.428939E0,0E0,1.6696951E2,5.834546E1,1.7611761E2,0E0,4.597214E1,5.0400085E1,5.408727E2,3.332141E2,0E0,0E0,0E0,0E0,0E0,1.6694122E1,0E0,0E0,0E0,0E0,0E0,0E0,0E0,0E0,0E0,0E0,0E0,0E0],"parents":[2147483647,0,0,1,1,2,2,3,3,4,4,5,5,6,6,7,7,8,8,9,9,11,11,12,12,13,13,15,15,16,16,17,17,18,18,24,24],"right_children":[2,4,6,8,10,12,14,16,18,20,-1,22,24,26,-1,28,30,32,34,-1,-1,-1,-1,-1,36,-1,-1,-1,-1,-1,-1,-1,-1,-1,-1,-1,-1],"split_conditions":[5.0085E2,4.9408E2,5.2141E2,4.8608E2,4.8667E2,3.7076E6,6.1293E6,4.0561E6,4.8807E2,4.894E2,5.0036806E-1,5.04E2,4.0158E6,7.6204E6,4.089632E-1,4.7787E2,4.8936E6,4.8777E2,4.9986E2,4.295624E-2,-4.8874207E-2,1.4087029E-1,-2.9872987E-1,-6.005671E-1,3.656E6,-1.8840139E-1,2.0235406E-1,7.9484945E-3,2.2163887E-1,3.0539855E-1,5.7730865E-2,-6.383031E-2,-7.4071085E-1,1.174063E-1,-3.8732034E-1,-1.5210152E-1,-3.933037E-1],"split_indices":[7,66,36,71,9,39,81,60,73,15,0,0,74,25,0,70,81,3,24,0,0,0,0,0,60,0,0,0,0,0,0,0,0,0,0,0,0],"split_type":[0,0,0,0,0,0,0,0,0,0,0,0,0,0,0,0,0,0,0,0,0,0,0,0,0,0,0,0,0,0,0,0,0,0,0,0,0],"sum_hessian":[1.33E2,8.4E1,4.9E1,5.9E1,2.5E1,2.8E1,2.1E1,2.7E1,3.2E1,8E0,1.7E1,7E0,2.1E1,1.3E1,8E0,1E1,1.7E1,1.2E1,2E1,4E0,4E0,3E0,4E0,1.3E1,8E0,1E1,3E0,7E0,3E0,1.4E1,3E0,5E0,7E0,1.7E1,3E0,3E0,5E0],"tree_param":{"num_deleted":"0","num_feature":"98","num_nodes":"37","size_leaf_vector":"1"}},{"base_weights":[1.7199448E-1,2.273977E0,-2.8752215E0,3.700842E-1,7.307341E0,-6.983646E0,3.2360318E0,1.7319665E0,-4.896393E0,-3.3915203E-2,9.563259E0,1.1978804E0,-8.717682E0,1.587677E-1,8.347164E0,-1.544728E-2,5.1249137E0,1.8425598E0,-6.532799E-1,5.2801526E-1,1.7167626E-1,1.3422357E-1,-2.9409027E-2,-2.8696594E0,-1.0118485E1,3.166568E-1,-2.4271164E0,5.246325E-1,1.5210724E-1,5.7958495E-2,-2.3558545E-1,3.1330046E-1,-7.507324E-3,-9.773682E-2,3.06427E-1,1.0809707E-2,-2.6190493E-1,-6.195739E-1,-2.6029444E-1,-1.9324473E-1,-1.7259471E-2],"categories":[],"categories_nodes":[],"categories_segments":[],"categories_sizes":[],"default_left":[0,0,0,0,0,0,0,0,0,0,0,0,0,0,0,0,0,0,0,0,0,0,0,0,0,0,0,0,0,0,0,0,0,0,0,0,0,0,0,0,0],"id":9,"left_children":[1,3,5,7,9,11,13,15,17,-1,19,21,23,25,27,29,31,33,-1,-1,-1,-1,-1,35,37,-1,39,-1,-1,-1,-1,-1,-1,-1,-1,-1,-1,-1,-1,-1,-1],"loss_changes":[9.0967065E2,8.022665E2,1.4788416E3,4.5316437E2,4.2083093E2,5.0698987E2,3.7615408E2,2.9652332E2,7.3974854E2,0E0,7.3750244E1,2.0164944E1,2.085293E2,2.7083047E2,7.051642E1,1.930162E2,1.0326965E2,1.4218076E2,0E0,0E0,0E0,0E0,0E0,5.229303E1,1.9231616E2,0E0,3.4586067E1,0E0,0E0,0E0,0E0,0E0,0E0,0E0,0E0,0E0,0E0,0E0,0E0,0E0,0E0],"parents":[2147483647,0,0,1,1,2,2,3,3,4,4,5,5,6,6,7,7,8,8,10,10,11,11,12,12,13,13,14,14,15,15,16,16,17,17,23,23,24,24,26,26],"right_children":[2,4,6,8,10,12,14,16,18,-1,20,22,24,26,28,30,32,34,-1,-1,-1,-1,-1,36,38,-1,40,-1,-1,-1,-1,-1,-1,-1,-1,-1,-1,-1,-1,-1,-1],"split_conditions":[5.0016E2,4.9354E2,5.2141E2,4.9075E2,3.2448E6,4.9057E2,5.3592E2,4.7638E6,4.9105E2,-3.3915203E-2,5.0446E2,4.88E2,3.2062E6,4.9311E2,5.2631E2,4.9453E2,5.2298E6,4.872E2,-6.532799E-1,5.2801526E-1,1.7167626E-1,1.3422357E-1,-2.9409027E-2,4.8589E6,4.9456E6,3.166568E-1,4.914E6,5.246325E-1,1.5210724E-1,5.7958495E-2,-2.3558545E-1,3.1330046E-1,-7.507324E-3,-9.773682E-2,3.06427E-1,1.0809707E-2,-2.6190493E-1,-6.195739E-1,-2.6029444E-1,-1.9324473E-1,-1.7259471E-2],"split_indices":[0,3,24,7,32,28,57,4,14,0,1,23,60,58,10,57,46,9,0,0,0,0,0,11,74,0,4,0,0,0,0,0,0,0,0,0,0,0,0,0,0],"split_type":[0,0,0,0,0,0,0,0,0,0,0,0,0,0,0,0,0,0,0,0,0,0,0,0,0,0,0,0,0,0,0,0,0,0,0,0,0,0,0,0,0],"sum_hessian":[1.4E2,8.3E1,5.7E1,6.1E1,2.2E1,3.4E1,2.3E1,4.9E1,1.2E1,5E0,1.7E1,6E0,2.8E1,1.5E1,8E0,3.3E1,1.6E1,7E0,5E0,1.4E1,3E0,3E0,3E0,6E0,2.2E1,4E0,1.1E1,5E0,3E0,2.7E1,6E0,1.3E1,3E0,4E0,3E0,3E0,3E0,1.4E1,8E0,6E0,5E0],"tree_param":{"num_deleted":"0","num_feature":"98","num_nodes":"41","size_leaf_vector":"1"}},{"base_weights":[1.8344791E-1,2.449003E0,-3.158483E0,7.263151E-1,5.6911244E0,-7.485723E0,3.103377E0,4.291486E0,-2.9921231E0,-1.3788086E0,8.941534E0,1.6652718E-1,-8.639895E0,1.3819641E0,4.6841764E-1,3.5393068E-1,3.0829177E0,4.2900085E0,-5.6237864E0,6.7395455E-1,-2.313221E-1,2.0073883E-1,4.9611503E-1,-7.9910403E-1,-6.9602356E0,-9.294063E-1,5.8072815E0,8.592166E-2,2.2742279E-1,2.7462006E-2,3.212311E-1,-4.4747926E-2,-4.2324957E-1,9.059372E-2,-3.1622697E-2,1.9028092E-2,-3.946846E-1,-1.0881076E-1,5.478541E-2,1.5714912E-1,3.50988E-1],"categories":[],"categories_nodes":[],"categories_segments":[],"categories_sizes":[],"default_left":[0,0,0,0,0,0,0,0,0,0,0,0,0,0,0,0,0,0,0,0,0,0,0,0,0,0,0,0,0,0,0,0,0,0,0,0,0,0,0,0,0],"id":10,"left_children":[1,3,5,7,9,11,13,15,17,19,21,-1,23,25,-1,-1,27,29,31,33,-1,-1,-1,-1,35,37,39,-1,-1,-1,-1,-1,-1,-1,-1,-1,-1,-1,-1,-1,-1],"loss_changes":[1.0677212E3,4.6502014E2,1.5677356E3,7.552252E2,6.78754E2,4.5322595E2,2.4588396E2,7.5861755E1,5.6072144E2,6.978423E1,5.6804077E1,0E0,2.7106445E2,2.0996826E2,0E0,0E0,3.6177277E1,6.0352097E1,2.7457117E2,1.1552044E1,0E0,0E0,0E0,0E0,1.880166E2,3.773353E1,5.4985046E-1,0E0,0E0,0E0,0E0,0E0,0E0,0E0,0E0,0E0,0E0,0E0,0E0,0E0,0E0],"parents":[2147483647,0,0,1,1,2,2,3,3,4,4,5,5,6,6,7,7,8,8,9,9,10,10,12,12,13,13,16,16,17,17,18,18,19,19,24,24,25,25,26,26],"right_children":[2,4,6,8,10,12,14,16,18,20,22,-1,24,26,-1,-1,28,30,32,34,-1,-1,-1,-1,36,38,40,-1,-1,-1,-1,-1,-1,-1,-1,-1,-1,-1,-1,-1,-1],"split_conditions":[5.0016E2,4.9408E2,5.16E2,4.8608E2,4.8585E2,3.0574E6,5.36E2,3.7913E6,3.4415E6,4.8874E2,4.9242E2,1.6652718E-1,4.8807E2,5.36E2,4.6841764E-1,3.5393068E-1,4.2229E6,4.8667E2,4.8968E2,4.7891E2,-2.313221E-1,2.0073883E-1,4.9611503E-1,-7.9910403E-1,4.9984E2,6.3153E6,5.1431E2,8.592166E-2,2.2742279E-1,2.7462006E-2,3.212311E-1,-4.4747926E-2,-4.2324957E-1,9.059372E-2,-3.1622697E-2,1.9028092E-2,-3.946846E-1,-1.0881076E-1,5.478541E-2,1.5714912E-1,3.50988E-1],"split_indices":[0,80,78,71,2,39,85,39,60,3,45,0,94,36,0,0,60,2,8,10,0,0,0,0,24,11,80,0,0,0,0,0,0,0,0,0,0,0,0,0,0],"split_type":[0,0,0,0,0,0,0,0,0,0,0,0,0,0,0,0,0,0,0,0,0,0,0,0,0,0,0,0,0,0,0,0,0,0,0,0,0,0,0,0,0],"sum_hessian":[1.39E2,8.3E1,5.6E1,5.5E1,2.8E1,3.3E1,2.3E1,2.8E1,2.7E1,9E0,1.9E1,3E0,3E1,1.9E1,4E0,7E0,2.1E1,7E0,2E1,6E0,3E0,4E0,1.5E1,4E0,2.6E1,1.3E1,6E0,1.2E1,9E0,3E0,4E0,8E0,1.2E1,3E0,3E0,3E0,2.3E1,8E0,5E0,3E0,3E0],"tree_param":{"num_deleted":"0","num_feature":"98","num_nodes":"41","size_leaf_vector":"1"}},{"base_weights":[-9.213235E-2,1.7507573E0,-3.5879815E0,4.9954776E-2,4.841612E0,-7.8043914E0,3.4802647E0,3.880308E0,-3.5425625E0,9.019609E-2,6.9035234E0,-1.0847845E1,-4.273163E0,-7.9155576E-1,7.404059E0,1.9400177E0,6.2683787E0,3.5970192E0,-5.685526E0,9.9499255E-2,-9.123128E-2,8.181185E0,-6.0533144E-2,-6.0225815E-1,-2.902356E-1,1.4646912E-2,-5.819608E0,-1.7644589E-1,2.0983581E-1,1.5456657E-1,4.405376E-1,1.6127555E-1,-3.501892E-3,3.5045502E-1,1.4247398E-1,7.466507E-3,2.8178832E-1,5.00412E-2,-4.445458E-1,1.6845933E-1,4.4160867E-1,-3.250785E-1,-1.4151458E-1],"categories":[],"categories_nodes":[],"categories_segments":[],"categories_sizes":[],"default_left":[0,0,0,0,0,0,0,0,0,0,0,0,0,0,0,0,0,0,0,0,0,0,0,0,0,0,0,0,0,0,0,0,0,0,0,0,0,0,0,0,0,0,0],"id":11,"left_children":[1,3,5,7,9,11,13,15,17,19,21,23,25,27,29,31,33,35,37,-1,-1,39,-1,-1,-1,-1,41,-1,-1,-1,-1,-1,-1,-1,-1,-1,-1,-1,-1,-1,-1,-1,-1],"loss_changes":[9.146692E2,4.886529E2,1.48749E3,8.531435E2,3.2267834E2,2.8680652E2,3.2433386E2,1.26845795E2,5.100465E2,4.3646313E1,2.4834985E2,2.6693115E1,1.1468442E2,1.5135692E2,3.342993E1,4.673635E1,1.2949585E1,5.5390152E1,5.447072E2,0E0,0E0,3.28938E1,0E0,0E0,0E0,0E0,6.061859E0,0E0,0E0,0E0,0E0,0E0,0E0,0E0,0E0,0E0,0E0,0E0,0E0,0E0,0E0,0E0,0E0],"parents":[2147483647,0,0,1,1,2,2,3,3,4,4,5,5,6,6,7,7,8,8,9,9,10,10,11,11,12,12,13,13,14,14,15,15,16,16,17,17,18,18,21,21,26,26],"right_children":[2,4,6,8,10,12,14,16,18,20,22,24,26,28,30,32,34,36,38,-1,-1,40,-1,-1,-1,-1,42,-1,-1,-1,-1,-1,-1,-1,-1,-1,-1,-1,-1,-1,-1,-1,-1],"split_conditions":[4.9947E2,4.9408E2,5.2393E2,4.8608E2,4.856E2,4.0158E6,5.21E2,4.869E2,3.4415E6,4.7638E6,5.091E2,5.1423E2,4.9311E2,5.2468E2,5.2671E2,4.753E2,4.6788E6,4.9225E2,4.8968E2,9.9499255E-2,-9.123128E-2,4.9333E2,-6.0533144E-2,-6.0225815E-1,-2.902356E-1,1.4646912E-2,5.3214E6,-1.7644589E-1,2.0983581E-1,1.5456657E-1,4.405376E-1,1.6127555E-1,-3.501892E-3,3.5045502E-1,1.4247398E-1,7.466507E-3,2.8178832E-1,5.00412E-2,-4.445458E-1,1.6845933E-1,4.4160867E-1,-3.250785E-1,-1.4151458E-1],"split_indices":[2,87,29,85,2,74,92,1,67,18,1,28,30,65,43,42,39,1,8,0,0,59,0,0,0,0,67,0,0,0,0,0,0,0,0,0,0,0,0,0,0,0,0],"split_type":[0,0,0,0,0,0,0,0,0,0,0,0,0,0,0,0,0,0,0,0,0,0,0,0,0,0,0,0,0,0,0,0,0,0,0,0,0,0,0,0,0,0,0],"sum_hessian":[1.4E2,9.2E1,4.8E1,6E1,3.2E1,3E1,1.8E1,2.9E1,3.1E1,1E1,2.2E1,1.5E1,1.5E1,9E0,9E0,1.7E1,1.2E1,7E0,2.4E1,5E0,5E0,1.9E1,3E0,1.1E1,4E0,4E0,1.1E1,6E0,3E0,3E0,6E0,1E1,7E0,9E0,3E0,3E0,4E0,8E0,1.6E1,3E0,1.6E1,8E0,3E0],"tree_param":{"num_deleted":"0","num_feature":"98","num_nodes":"43","size_leaf_vector":"1"}},{"base_weights":[-6.7201726E-2,2.0488827E0,-3.4197278E0,4.9845764E-1,6.395605E0,-7.5311584E0,2.715977E0,3.7659338E0,-1.6088593E0,8.475468E0,-2.8163657E-2,1.7932637E-2,-9.005518E0,-5.022522E-1,4.20533E-1,4.462065E0,4.089203E-2,-5.22267E0,2.0853944E0,2.0971191E-1,4.7350675E-1,-7.6381534E-1,-7.250759E0,2.3034668E-1,-2.1634598E0,2.4763714E-1,6.305847E-2,-4.6731822E-2,-5.179876E-1,-6.152547E-2,3.1374446E-1,-3.9067367E-1,-1.8311463E-1,-1.86866E-1,-2.5268555E-2],"categories":[],"categories_nodes":[],"categories_segments":[],"categories_sizes":[],"default_left":[0,0,0,0,0,0,0,0,0,0,0,0,0,0,0,0,0,0,0,0,0,0,0,0,0,0,0,0,0,0,0,0,0,0,0],"id":12,"left_children":[1,3,5,7,9,11,13,15,17,19,-1,-1,21,23,-1,25,-1,27,29,-1,-1,-1,31,-1,33,-1,-1,-1,-1,-1,-1,-1,-1,-1,-1],"loss_changes":[9.718216E2,5.629105E2,1.3574603E3,4.3985214E2,3.2319135E2,3.7546716E2,4.0741376E2,4.7657288E1,5.315543E2,3.267285E1,0E0,0E0,1.863357E2,1.3727818E2,0E0,2.5165894E1,0E0,4.3087695E2,2.8556052E2,0E0,0E0,0E0,1.7828125E1,0E0,2.9426464E1,0E0,0E0,0E0,0E0,0E0,0E0,0E0,0E0,0E0,0E0],"parents":[2147483647,0,0,1,1,2,2,3,3,4,4,5,5,6,6,7,7,8,8,9,9,12,12,13,13,15,15,17,17,18,18,22,22,24,24],"right_children":[2,4,6,8,10,12,14,16,18,20,-1,-1,22,24,-1,26,-1,28,30,-1,-1,-1,32,-1,34,-1,-1,-1,-1,-1,-1,-1,-1,-1,-1],"split_conditions":[5E2,4.9354E2,5.2141E2,4.7862E2,5.0085E2,4.9057E2,5.36E2,4.7866E6,4.9057E2,3.7076E6,-2.8163657E-2,1.7932637E-2,5.0101E2,4.9371E2,4.20533E-1,4.7866E6,4.089203E-2,4.8814E2,4.872E2,2.0971191E-1,4.7350675E-1,-7.6381534E-1,5.1581E2,2.3034668E-1,5.203E2,2.4763714E-1,6.305847E-2,-4.6731822E-2,-5.179876E-1,-6.152547E-2,3.1374446E-1,-3.9067367E-1,-1.8311463E-1,-1.86866E-1,-2.5268555E-2],"split_indices":[0,3,24,58,14,28,50,88,70,25,0,0,21,52,0,95,0,3,9,0,0,0,45,0,78,0,0,0,0,0,0,0,0,0,0],"split_type":[0,0,0,0,0,0,0,0,0,0,0,0,0,0,0,0,0,0,0,0,0,0,0,0,0,0,0,0,0,0,0,0,0,0,0],"sum_hessian":[1.35E2,8.3E1,5.2E1,6.2E1,2.1E1,3.1E1,2.1E1,2.4E1,3.8E1,1.6E1,5E0,5E0,2.6E1,1.4E1,7E0,1.9E1,5E0,1.9E1,1.9E1,4E0,1.2E1,4E0,2.2E1,3E0,1.1E1,1.6E1,3E0,1.1E1,8E0,1.1E1,8E0,1.8E1,4E0,5E0,6E0],"tree_param":{"num_deleted":"0","num_feature":"98","num_nodes":"35","size_leaf_vector":"1"}},{"base_weights":[5.0434774E-1,2.456852E0,-2.3093283E0,6.7183584E-1,7.689058E0,-6.492476E0,3.7929847E0,2.1070895E0,-4.194504E0,8.762178E0,1.3586305E-1,2.5214845E-2,-7.474938E0,6.9773155E-1,8.530297E0,3.3538132E0,-1.8086725E0,1.0741272E0,-5.6991833E-1,2.1755295E-1,4.7227165E-1,-5.7403815E-1,-5.6785045E0,-2.2355378E0,2.7351126E-1,5.43601E-1,1.4425698E-1,8.657289E-2,2.7548403E-1,5.04885E-2,-2.3977052E-1,-7.391841E-2,2.3171692E-1,3.5528567E-2,-3.3623523E-1,8.0833435E-3,-1.6430032E-1],"categories":[],"categories_nodes":[],"categories_segments":[],"categories_sizes":[],"default_left":[0,0,0,0,0,0,0,0,0,0,0,0,0,0,0,0,0,0,0,0,0,0,0,0,0,0,0,0,0,0,0,0,0,0,0,0,0],"id":13,"left_children":[1,3,5,7,9,11,13,15,17,19,-1,-1,21,23,25,27,29,31,-1,-1,-1,-1,33,35,-1,-1,-1,-1,-1,-1,-1,-1,-1,-1,-1,-1,-1],"loss_changes":[7.363377E2,7.326604E2,1.428604E3,4.2790408E2,8.289758E1,2.3061365E2,3.313013E2,2.35514E2,5.436062E2,7.125E0,0E0,0E0,1.4349622E2,2.22214E2,8.760724E1,1.163732E2,1.0585765E2,8.863806E1,0E0,0E0,0E0,0E0,1.5183185E2,2.5713127E1,0E0,0E0,0E0,0E0,0E0,0E0,0E0,0E0,0E0,0E0,0E0,0E0,0E0],"parents":[2147483647,0,0,1,1,2,2,3,3,4,4,5,5,6,6,7,7,8,8,9,9,12,12,13,13,14,14,15,15,16,16,17,17,22,22,23,23],"right_children":[2,4,6,8,10,12,14,16,18,20,-1,-1,22,24,26,28,30,32,-1,-1,-1,-1,34,36,-1,-1,-1,-1,-1,-1,-1,-1,-1,-1,-1,-1,-1],"split_conditions":[5.0085E2,4.9371E2,5.2393E2,4.9105E2,4.9803E2,4.9057E2,5.3592E2,5.0409E6,4.9075E2,4.8923E2,1.3586305E-1,2.5214845E-2,5.0014E2,6.1293E6,5.2658E2,4.869E2,4.7625E2,4.8903E2,-5.6991833E-1,2.1755295E-1,4.7227165E-1,-5.7403815E-1,4.9947E2,5.2389E2,2.7351126E-1,5.43601E-1,1.4425698E-1,8.657289E-2,2.7548403E-1,5.04885E-2,-2.3977052E-1,-7.391841E-2,2.3171692E-1,3.5528567E-2,-3.3623523E-1,8.0833435E-3,-1.6430032E-1],"split_indices":[7,3,29,14,7,35,64,88,7,9,0,0,43,60,37,1,0,9,0,0,0,0,37,30,0,0,0,0,0,0,0,0,0,0,0,0,0],"split_type":[0,0,0,0,0,0,0,0,0,0,0,0,0,0,0,0,0,0,0,0,0,0,0,0,0,0,0,0,0,0,0,0,0,0,0,0,0],"sum_hessian":[1.32E2,7.8E1,5.4E1,5.9E1,1.9E1,3.2E1,2.2E1,4.6E1,1.3E1,1.5E1,4E0,4E0,2.8E1,1.4E1,8E0,3.5E1,1.1E1,8E0,5E0,3E0,1.2E1,7E0,2.1E1,9E0,5E0,5E0,3E0,2.1E1,1.4E1,6E0,5E0,5E0,3E0,3E0,1.8E1,3E0,6E0],"tree_param":{"num_deleted":"0","num_feature":"98","num_nodes":"37","size_leaf_vector":"1"}},{"base_weights":[6.1667305E-3,1.9425997E0,-2.8476322E0,5.9460416E0,8.380541E-1,-6.1358104E0,4.0516615E0,7.800471E-2,7.512937E0,3.5256805E0,-4.6555096E-1,-6.8718517E-1,-4.612776E0,1.1938312E0,4.390126E-1,2.2392324E-1,4.4248372E-1,7.709307E-1,4.5105286E0,-4.1714506E0,3.105334E0,1.259992E-1,-5.929458E0,2.7312654E-1,-1.3103163E0,-1.6090011E-2,8.354645E-2,2.5746965E-1,6.5329365E-2,-3.627425E-2,-3.932366E-1,2.8180718E-1,5.242284E-3,-3.4376463E-1,-7.196045E-4,2.1200944E-2,-1.12407684E-1],"categories":[],"categories_nodes":[],"categories_segments":[],"categories_sizes":[],"default_left":[0,0,0,0,0,0,0,0,0,0,0,0,0,0,0,0,0,0,0,0,0,0,0,0,0,0,0,0,0,0,0,0,0,0,0,0,0],"id":14,"left_children":[1,3,5,7,9,11,13,-1,15,17,19,-1,21,23,-1,-1,-1,25,27,29,31,-1,33,-1,35,-1,-1,-1,-1,-1,-1,-1,-1,-1,-1,-1,-1],"loss_changes":[7.791984E2,3.6646353E2,1.3179684E3,1.11980896E2,2.3638281E2,3.8849963E2,2.4627454E2,0E0,1.3098877E1,5.6208923E1,6.2168744E2,0E0,3.342558E2,1.4612054E2,0E0,0E0,0E0,7.4218974E0,2.6022003E1,2.870135E2,1.8165706E2,0E0,1.621466E2,0E0,1.5591979E1,0E0,0E0,0E0,0E0,0E0,0E0,0E0,0E0,0E0,0E0,0E0,0E0],"parents":[2147483647,0,0,1,1,2,2,3,3,4,4,5,5,6,6,8,8,9,9,10,10,12,12,13,13,17,17,18,18,19,19,20,20,22,22,24,24],"right_children":[2,4,6,8,10,12,14,-1,16,18,20,-1,22,24,-1,-1,-1,26,28,30,32,-1,34,-1,36,-1,-1,-1,-1,-1,-1,-1,-1,-1,-1,-1,-1],"split_conditions":[5.0016E2,3.6139E6,5.2388E2,4.8913E2,4.8314E2,4.8807E2,5.36E2,7.800471E-2,4.9264E2,4.0561E6,4.8995E2,-6.8718517E-1,4.9986E2,4.9311E2,4.390126E-1,2.2392324E-1,4.4248372E-1,4.1306E6,6.231E6,4.8968E2,4.07E6,1.259992E-1,6.3843E6,2.7312654E-1,5.3061E2,-1.6090011E-2,8.354645E-2,2.5746965E-1,6.5329365E-2,-3.627425E-2,-3.932366E-1,2.8180718E-1,5.242284E-3,-3.4376463E-1,-7.196045E-4,2.1200944E-2,-1.12407684E-1],"split_indices":[0,60,36,3,71,94,64,0,45,60,79,0,10,65,0,0,0,18,74,15,53,0,53,0,29,0,0,0,0,0,0,0,0,0,0,0,0],"split_type":[0,0,0,0,0,0,0,0,0,0,0,0,0,0,0,0,0,0,0,0,0,0,0,0,0,0,0,0,0,0,0,0,0,0,0,0,0],"sum_hessian":[1.39E2,8.3E1,5.6E1,1.7E1,6.6E1,3.8E1,1.8E1,5E0,1.2E1,2.1E1,4.5E1,5E0,3.3E1,1.2E1,6E0,5E0,7E0,6E0,1.5E1,2.2E1,2.3E1,5E0,2.8E1,4E0,8E0,3E0,3E0,1.2E1,3E0,1.2E1,1E1,1.2E1,1.1E1,2.4E1,4E0,3E0,5E0],"tree_param":{"num_deleted":"0","num_feature":"98","num_nodes":"37","size_leaf_vector":"1"}},{"base_weights":[2.79735E-1,2.0120044E0,-2.6955783E0,6.32176E-1,5.8718762E0,-6.3303328E0,2.4522052E0,1.286256E0,-4.7842145E0,7.616963E0,-2.5591531E-3,5.1431276E-2,-7.548911E0,6.341756E-2,3.6103603E-1,4.3565445E0,8.599708E-2,-4.6702996E-1,4.841118E-2,1.9124816E-1,4.244752E-1,-1.208964E-1,-8.71076E0,2.6021883E-1,-1.6555201E0,2.9245073E-1,8.010407E-2,1.3260804E-1,-6.459024E-2,-5.583796E-1,-3.264403E-1,-1.4714377E-1,6.115723E-3],"categories":[],"categories_nodes":[],"categories_segments":[],"categories_sizes":[],"default_left":[0,0,0,0,0,0,0,0,0,0,0,0,0,0,0,0,0,0,0,0,0,0,0,0,0,0,0,0,0,0,0,0,0],"id":15,"left_children":[1,3,5,7,9,11,13,15,17,19,-1,-1,21,23,-1,25,27,-1,-1,-1,-1,-1,29,-1,31,-1,-1,-1,-1,-1,-1,-1,-1],"loss_changes":[6.857573E2,4.436686E2,9.3235876E2,2.2934714E2,2.2778748E2,2.6782153E2,2.3875247E2,2.096784E2,1.92516E2,2.3775452E1,0E0,0E0,1.27973755E2,1.4117075E2,0E0,5.6404663E1,1.5192401E2,0E0,0E0,0E0,0E0,0E0,3.4302856E1,0E0,2.7824417E1,0E0,0E0,0E0,0E0,0E0,0E0,0E0,0E0],"parents":[2147483647,0,0,1,1,2,2,3,3,4,4,5,5,6,6,7,7,8,8,9,9,12,12,13,13,15,15,16,16,22,22,24,24],"right_children":[2,4,6,8,10,12,14,16,18,20,-1,-1,22,24,-1,26,28,-1,-1,-1,-1,-1,30,-1,32,-1,-1,-1,-1,-1,-1,-1,-1],"split_conditions":[4.9802E2,4.9371E2,5.2141E2,4.915E2,5.0271E2,4.8583E2,6.3843E6,3.9351E6,4.001E6,4.9685E2,-2.5591531E-3,5.1431276E-2,3.4433E6,4.9311E2,3.6103603E-1,4.6636E6,4.7484E2,-4.6702996E-1,4.841118E-2,1.9124816E-1,4.244752E-1,-1.208964E-1,5.0283E2,2.6021883E-1,4.776E6,2.9245073E-1,8.010407E-2,1.3260804E-1,-6.459024E-2,-5.583796E-1,-3.264403E-1,-1.4714377E-1,6.115723E-3],"split_indices":[2,3,36,7,14,44,95,39,11,57,0,0,4,58,0,60,86,0,0,0,0,0,30,0,11,0,0,0,0,0,0,0,0],"split_type":[0,0,0,0,0,0,0,0,0,0,0,0,0,0,0,0,0,0,0,0,0,0,0,0,0,0,0,0,0,0,0,0,0],"sum_hessian":[1.31E2,8.3E1,4.8E1,6.2E1,2.1E1,2.8E1,2E1,5.6E1,6E0,1.6E1,5E0,4E0,2.4E1,1.4E1,6E0,1.5E1,4.1E1,3E0,3E0,4E0,1.2E1,5E0,1.9E1,3E0,1.1E1,9E0,6E0,1.4E1,2.7E1,7E0,1.2E1,6E0,5E0],"tree_param":{"num_deleted":"0","num_feature":"98","num_nodes":"33","size_leaf_vector":"1"}},{"base_weights":[4.1261497E-3,1.6239368E0,-2.6356416E0,2.920462E-1,5.1634765E0,-5.123215E0,3.5925465E0,3.3406947E0,-1.5740088E0,5.8518064E-1,7.871442E0,-6.648761E-1,-3.8090794E0,-7.7256995E-1,6.288873E0,1.6508423E0,4.188059E0,-4.3529067E0,1.5614792E0,3.6813703E0,-2.4897233E-1,4.510989E-1,1.2259865E-1,1.8600082E-1,-4.6311827E0,-1.11399844E-1,4.3799974E-2,1.0470467E-1,3.89374E-1,-2.5359346E-2,1.3240837E-1,1.1500143E-1,2.4185805E-1,-3.261625E-2,-4.3641862E-1,-3.4758113E-2,2.5166684E-1,2.2345543E-1,9.866448E-2,-2.758331E-1,1.4731674E-1],"categories":[],"categories_nodes":[],"categories_segments":[],"categories_sizes":[],"default_left":[0,0,0,0,0,0,0,0,0,0,0,0,0,0,0,0,0,0,0,0,0,0,0,0,0,0,0,0,0,0,0,0,0,0,0,0,0,0,0,0,0],"id":16,"left_children":[1,3,5,7,9,11,13,15,17,19,21,-1,23,25,27,29,31,33,35,37,-1,-1,-1,-1,39,-1,-1,-1,-1,-1,-1,-1,-1,-1,-1,-1,-1,-1,-1,-1,-1],"loss_changes":[6.0718536E2,4.133486E2,8.5503156E2,3.7503976E2,2.9294257E2,3.6829248E2,1.9317506E2,2.8884186E1,3.640382E2,1.906226E2,7.140784E1,0E0,2.3386734E2,1.874733E1,4.6555573E1,2.2865679E1,8.482788E0,3.5052518E2,1.6019374E2,5.998001E-1,0E0,0E0,0E0,0E0,2.3096533E2,0E0,0E0,0E0,0E0,0E0,0E0,0E0,0E0,0E0,0E0,0E0,0E0,0E0,0E0,0E0,0E0],"parents":[2147483647,0,0,1,1,2,2,3,3,4,4,5,5,6,6,7,7,8,8,9,9,10,10,12,12,13,13,14,14,15,15,16,16,17,17,18,18,19,19,24,24],"right_children":[2,4,6,8,10,12,14,16,18,20,22,-1,24,26,28,30,32,34,36,38,-1,-1,-1,-1,40,-1,-1,-1,-1,-1,-1,-1,-1,-1,-1,-1,-1,-1,-1,-1,-1],"split_conditions":[5.0016E2,4.9354E2,5.2141E2,4.7862E2,4.9699E2,4.9E2,5.19E2,4.0561E6,4.9057E2,4.906E2,5.2545E2,-6.648761E-1,4.9984E2,5.3016E2,5.13E2,4.7586E2,3.737E6,4.8583E2,4.872E2,4.9639E2,-2.4897233E-1,4.510989E-1,1.2259865E-1,1.8600082E-1,5.3738E2,-1.11399844E-1,4.3799974E-2,1.0470467E-1,3.89374E-1,-2.5359346E-2,1.3240837E-1,1.1500143E-1,2.4185805E-1,-3.261625E-2,-4.3641862E-1,-3.4758113E-2,2.5166684E-1,2.2345543E-1,9.866448E-2,-2.758331E-1,1.4731674E-1],"split_indices":[0,3,92,58,57,77,30,53,77,51,35,0,10,3,44,66,25,23,16,24,0,0,0,0,36,0,0,0,0,0,0,0,0,0,0,0,0,0,0,0,0],"split_type":[0,0,0,0,0,0,0,0,0,0,0,0,0,0,0,0,0,0,0,0,0,0,0,0,0,0,0,0,0,0,0,0,0,0,0,0,0,0,0,0,0],"sum_hessian":[1.4E2,8.7E1,5.3E1,6.4E1,2.3E1,3.8E1,1.5E1,2.4E1,4E1,9E0,1.4E1,4E0,3.4E1,6E0,9E0,9E0,1.5E1,2.1E1,1.9E1,6E0,3E0,1.1E1,3E0,3E0,3.1E1,3E0,3E0,3E0,6E0,3E0,6E0,5E0,1E1,1.2E1,9E0,1.2E1,7E0,3E0,3E0,2.8E1,3E0],"tree_param":{"num_deleted":"0","num_feature":"98","num_nodes":"41","size_leaf_vector":"1"}},{"base_weights":[1.4689292E-1,1.7596394E0,-2.3612468E0,4.0296724E-1,5.5172067E0,-6.056669E0,1.5504848E0,1.5241659E0,-3.790268E0,1.9120872E0,4.0716457E-1,5.9925843E-2,-6.939903E0,-3.5176015E-1,6.350067E0,4.386902E0,4.5743582E-1,8.1606036E-1,-5.034025E-1,1.9390221E-1,-1.2489243E-1,-8.512726E-2,-7.814761E0,-1.7206402E0,1.6786067E-1,1.5852928E-1,3.8118196E-1,4.0262986E-2,2.6452538E-1,1.1711587E-1,-6.3485794E-2,1.8263283E-1,-6.055069E-2,-4.4866773E-1,-2.3327771E-1,-1.3839957E-1,1.0567055E-1],"categories":[],"categories_nodes":[],"categories_segments":[],"categories_sizes":[],"default_left":[0,0,0,0,0,0,0,0,0,0,0,0,0,0,0,0,0,0,0,0,0,0,0,0,0,0,0,0,0,0,0,0,0,0,0,0,0],"id":17,"left_children":[1,3,5,7,9,11,13,15,17,19,-1,-1,21,23,25,27,29,31,-1,-1,-1,-1,33,35,-1,-1,-1,-1,-1,-1,-1,-1,-1,-1,-1,-1,-1],"loss_changes":[5.78544E2,4.412842E2,8.188988E2,3.1137122E2,2.0217834E2,1.9415027E2,2.5787317E2,1.5678912E2,4.1306146E2,1.0505395E2,0E0,0E0,1.0582556E2,1.1239649E2,8.222961E0,4.1049286E1,1.2993764E2,5.6173336E1,0E0,0E0,0E0,0E0,3.8404663E1,7.009947E1,0E0,0E0,0E0,0E0,0E0,0E0,0E0,0E0,0E0,0E0,0E0,0E0,0E0],"parents":[2147483647,0,0,1,1,2,2,3,3,4,4,5,5,6,6,7,7,8,8,9,9,12,12,13,13,14,14,15,15,16,16,17,17,22,22,23,23],"right_children":[2,4,6,8,10,12,14,16,18,20,-1,-1,22,24,26,28,30,32,-1,-1,-1,-1,34,36,-1,-1,-1,-1,-1,-1,-1,-1,-1,-1,-1,-1,-1],"split_conditions":[5.0085E2,4.9371E2,5.1575E2,4.9105E2,4.961E2,3.1722E6,6.3841E6,3.9351E6,4.9057E2,5.0085E2,4.0716457E-1,5.9925843E-2,3.2448E6,5.36E2,5.2222E2,4.7586E2,4.7862E2,4.079E6,-5.034025E-1,1.9390221E-1,-1.2489243E-1,-8.512726E-2,4.9456E6,5.3682E2,1.6786067E-1,1.5852928E-1,3.8118196E-1,4.0262986E-2,2.6452538E-1,1.1711587E-1,-6.3485794E-2,1.8263283E-1,-6.055069E-2,-4.4866773E-1,-2.3327771E-1,-1.3839957E-1,1.0567055E-1],"split_indices":[7,3,85,14,64,39,81,39,7,14,0,0,4,78,92,59,58,32,0,0,0,0,74,1,0,0,0,0,0,0,0,0,0,0,0,0,0],"split_type":[0,0,0,0,0,0,0,0,0,0,0,0,0,0,0,0,0,0,0,0,0,0,0,0,0,0,0,0,0,0,0,0,0,0,0,0,0],"sum_hessian":[1.41E2,8.6E1,5.5E1,6.4E1,2.2E1,2.8E1,2.7E1,5.1E1,1.3E1,1E1,1.2E1,3E0,2.5E1,2E1,7E0,1.3E1,3.8E1,8E0,5E0,7E0,3E0,4E0,2.1E1,1.5E1,5E0,3E0,4E0,3E0,1E1,1.8E1,2E1,3E0,5E0,1.4E1,7E0,1.2E1,3E0],"tree_param":{"num_deleted":"0","num_feature":"98","num_nodes":"37","size_leaf_vector":"1"}},{"base_weights":[1.0649828E-1,-3.9918965E-1,6.073128E0,1.1716847E0,-3.2932143E0,4.09491E-2,4.4792506E-1,-2.2083159E-1,4.720198E0,-6.256268E0,5.3214806E-1,2.6475072E0,-2.6608608E0,2.2153728E-1,3.4778413E-1,-7.920098E0,-2.8021302E0,2.761963E-1,-1.3730278E0,2.031297E-1,6.219187E-2,-3.2511902E-1,1.7666092E-2,3.5536196E-2,-7.0755007E-3,-4.4588166E-1,-1.8712433E-1,-1.7998124E-2,-1.8986751E-1,3.1864166E-2,-1.5037063E-1],"categories":[],"categories_nodes":[],"categories_segments":[],"categories_sizes":[],"default_left":[0,0,0,0,0,0,0,0,0,0,0,0,0,0,0,0,0,0,0,0,0,0,0,0,0,0,0,0,0,0,0],"id":18,"left_children":[1,3,5,7,9,-1,-1,11,13,15,17,19,21,23,-1,25,27,-1,29,-1,-1,-1,-1,-1,-1,-1,-1,-1,-1,-1,-1],"loss_changes":[4.2483975E2,5.94858E2,1.5942499E2,4.2105823E2,5.24728E2,0E0,0E0,4.4097214E2,2.3981958E2,1.2723132E2,2.0729903E2,5.254991E1,3.9598486E2,1.6989555E0,0E0,3.7470215E1,2.2938042E1,0E0,5.448652E1,0E0,0E0,0E0,0E0,0E0,0E0,0E0,0E0,0E0,0E0,0E0,0E0],"parents":[2147483647,0,0,1,1,2,2,3,3,4,4,7,7,8,8,9,9,10,10,11,11,12,12,13,13,15,15,16,16,18,18],"right_children":[2,4,6,8,10,-1,-1,12,14,16,18,20,22,24,-1,26,28,-1,30,-1,-1,-1,-1,-1,-1,-1,-1,-1,-1,-1,-1],"split_conditions":[5.36E2,5.0085E2,5.3534E2,4.9408E2,5.1433E2,4.09491E-2,4.4792506E-1,4.8617E2,4.8667E2,4.6053E6,4.9947E2,4.2129E6,4.8807E2,4.9127E2,3.4778413E-1,4.9456E6,3.0822E6,2.761963E-1,5.13E2,2.031297E-1,6.219187E-2,-3.2511902E-1,1.7666092E-2,3.5536196E-2,-7.0755007E-3,-4.4588166E-1,-1.8712433E-1,-1.7998124E-2,-1.8986751E-1,3.1864166E-2,-1.5037063E-1],"split_indices":[78,7,71,66,92,0,0,64,9,67,72,95,73,42,0,74,4,0,86,0,0,0,0,0,0,0,0,0,0,0,0],"split_type":[0,0,0,0,0,0,0,0,0,0,0,0,0,0,0,0,0,0,0,0,0,0,0,0,0,0,0,0,0,0,0],"sum_hessian":[1.39E2,1.29E2,1E1,8.4E1,4.5E1,4E0,6E0,6.1E1,2.3E1,2.5E1,2E1,2.8E1,3.3E1,8E0,1.5E1,1.6E1,9E0,5E0,1.5E1,1.3E1,1.5E1,1.4E1,1.9E1,3E0,5E0,1.2E1,4E0,3E0,6E0,7E0,8E0],"tree_param":{"num_deleted":"0","num_feature":"98","num_nodes":"31","size_leaf_vector":"1"}},{"base_weights":[3.4008318E-1,1.7372402E0,-2.1760373E0,5.0425243E-1,4.3613477E0,-5.2328696E0,2.518013E0,3.7134495E0,-9.254917E-1,7.1413904E-1,6.3479004E0,2.4130555E-2,-6.1307364E0,-2.83254E-1,5.9732566E0,4.939718E0,-3.540222E-2,1.8338659E0,-4.859814E0,1.1322937E-1,-4.7766622E-2,2.1648788E-1,3.9424795E-1,-8.554352E-2,-6.856581E0,1.9684486E-1,-2.1274042E0,3.9168903E-1,8.445778E-2,2.918353E-1,9.891998E-2,4.935841E-2,1.8077698E-1,-3.6834332E-1,6.910502E-2,-4.203693E-1,-1.8411882E-1,-5.2613325E-2,-1.6041298E-1],"categories":[],"categories_nodes":[],"categories_segments":[],"categories_sizes":[],"default_left":[0,0,0,0,0,0,0,0,0,0,0,0,0,0,0,0,0,0,0,0,0,0,0,0,0,0,0,0,0,0,0,0,0,0,0,0,0,0,0],"id":19,"left_children":[1,3,5,7,9,11,13,15,17,19,21,-1,23,25,27,29,-1,31,33,-1,-1,-1,-1,-1,35,-1,37,-1,-1,-1,-1,-1,-1,-1,-1,-1,-1,-1,-1],"loss_changes":[4.8187677E2,2.825241E2,7.162738E2,2.8332495E2,1.983371E2,1.5691101E2,1.9527313E2,1.0651431E2,4.7572894E2,3.0636158E1,2.1696045E1,0E0,7.168085E1,1.0176649E2,5.85036E1,2.8296692E1,0E0,3.565287E1,2.9186026E2,0E0,0E0,0E0,0E0,0E0,7.73374E1,0E0,7.082672E0,0E0,0E0,0E0,0E0,0E0,0E0,0E0,0E0,0E0,0E0,0E0,0E0],"parents":[2147483647,0,0,1,1,2,2,3,3,4,4,5,5,6,6,7,7,8,8,9,9,10,10,12,12,13,13,14,14,15,15,17,17,18,18,24,24,26,26],"right_children":[2,4,6,8,10,12,14,16,18,20,22,-1,24,26,28,30,-1,32,34,-1,-1,-1,-1,-1,36,-1,38,-1,-1,-1,-1,-1,-1,-1,-1,-1,-1,-1,-1],"split_conditions":[4.9808E2,4.9408E2,5.2393E2,3.8158E6,4.8657E2,4.9057E2,5.36E2,6.231E6,4.8655E2,4.9105E2,4.9298E2,2.4130555E-2,3.3306E6,4.9311E2,5.2681E2,4.8961E2,-3.540222E-2,5.2976E6,5.0014E2,1.1322937E-1,-4.7766622E-2,2.1648788E-1,3.9424795E-1,-8.554352E-2,5.1423E2,1.9684486E-1,5.5121E6,3.9168903E-1,8.445778E-2,2.918353E-1,9.891998E-2,4.935841E-2,1.8077698E-1,-3.6834332E-1,6.910502E-2,-4.203693E-1,-1.8411882E-1,-5.2613325E-2,-1.6041298E-1],"split_indices":[2,94,29,18,9,35,57,95,71,42,9,0,25,58,7,87,0,18,57,0,0,0,0,0,21,0,74,0,0,0,0,0,0,0,0,0,0,0,0],"split_type":[0,0,0,0,0,0,0,0,0,0,0,0,0,0,0,0,0,0,0,0,0,0,0,0,0,0,0,0,0,0,0,0,0,0,0,0,0,0,0],"sum_hessian":[1.35E2,8.7E1,4.8E1,6E1,2.7E1,2.9E1,1.9E1,1.8E1,4.2E1,1E1,1.7E1,4E0,2.5E1,1.1E1,8E0,1.4E1,4E0,2.5E1,1.7E1,5E0,5E0,9E0,8E0,4E0,2.1E1,3E0,8E0,5E0,3E0,1E1,4E0,1.8E1,7E0,1.2E1,5E0,1.3E1,8E0,5E0,3E0],"tree_param":{"num_deleted":"0","num_feature":"98","num_nodes":"39","size_leaf_vector":"1"}},{"base_weights":[1.121038E-1,1.5648093E0,-1.9436541E0,3.107693E-1,4.582457E0,-4.694787E0,2.4469738E0,1.3272986E0,-4.802954E0,6.311676E-1,6.9111533E0,-5.690773E-1,-3.2491307E0,3.3041203E-1,3.6188138E-1,4.1824746E0,6.8387276E-1,-4.375758E-1,4.479553E-2,3.3005023E0,-2.09898E-1,4.0102768E-1,9.275818E-2,1.4184723E0,-5.2230806E0,2.0482865E-1,-1.5802027E0,2.4990693E-1,9.566803E-2,6.700249E-2,-1.394224E-1,2.0295754E-1,8.583641E-2,1.7447816E-1,1.6176496E-3,-2.9103574E-1,-1.0134919E-1,-1.3988648E-1,-1.5543257E-2],"categories":[],"categories_nodes":[],"categories_segments":[],"categories_sizes":[],"default_left":[0,0,0,0,0,0,0,0,0,0,0,0,0,0,0,0,0,0,0,0,0,0,0,0,0,0,0,0,0,0,0,0,0,0,0,0,0,0,0],"id":20,"left_children":[1,3,5,7,9,11,13,15,17,19,21,-1,23,25,-1,27,29,-1,-1,31,-1,-1,-1,33,35,-1,37,-1,-1,-1,-1,-1,-1,-1,-1,-1,-1,-1,-1],"loss_changes":[4.1815253E2,3.0888455E2,7.120816E2,3.130717E2,2.1647034E2,3.11023E2,2.3082205E2,8.8994415E1,2.3286377E2,1.4276097E2,6.9257324E1,0E0,2.9303085E2,1.2880002E2,0E0,7.094284E0,9.9431854E1,0E0,0E0,1.4422302E0,0E0,0E0,0E0,2.859489E1,3.0223572E1,0E0,1.7675713E1,0E0,0E0,0E0,0E0,0E0,0E0,0E0,0E0,0E0,0E0,0E0,0E0],"parents":[2147483647,0,0,1,1,2,2,3,3,4,4,5,5,6,6,7,7,8,8,9,9,10,10,12,12,13,13,15,15,16,16,19,19,23,23,24,24,26,26],"right_children":[2,4,6,8,10,12,14,16,18,20,22,-1,24,26,-1,28,30,-1,-1,32,-1,-1,-1,34,36,-1,38,-1,-1,-1,-1,-1,-1,-1,-1,-1,-1,-1,-1],"split_conditions":[5.0016E2,4.9353E2,5.2141E2,4.9075E2,4.9699E2,4.8807E2,5.3329E2,3.7969E6,4.6744E6,5.0497E2,5.2545E2,-5.690773E-1,4.9808E2,4.9947E2,3.6188138E-1,4.6636E6,4.9527E2,-4.375758E-1,4.479553E-2,4.906E2,-2.09898E-1,4.0102768E-1,9.275818E-2,4.9986E2,5.0448E6,2.0482865E-1,5.2126E2,2.4990693E-1,9.566803E-2,6.700249E-2,-1.394224E-1,2.0295754E-1,8.583641E-2,1.7447816E-1,1.6176496E-3,-2.9103574E-1,-1.0134919E-1,-1.3988648E-1,-1.5543257E-2],"split_indices":[0,3,24,7,57,94,64,39,25,15,35,0,23,65,0,60,50,0,0,9,0,0,0,3,81,0,64,0,0,0,0,0,0,0,0,0,0,0,0],"split_type":[0,0,0,0,0,0,0,0,0,0,0,0,0,0,0,0,0,0,0,0,0,0,0,0,0,0,0,0,0,0,0,0,0,0,0,0,0,0,0],"sum_hessian":[1.38E2,8.1E1,5.7E1,5.8E1,2.3E1,3.5E1,2.2E1,4.9E1,9E0,9E0,1.4E1,5E0,3E1,1.6E1,6E0,8E0,4.1E1,5E0,4E0,6E0,3E0,1.1E1,3E0,9E0,2.1E1,5E0,1.1E1,5E0,3E0,3.5E1,6E0,3E0,3E0,3E0,6E0,1.7E1,4E0,5E0,6E0],"tree_param":{"num_deleted":"0","num_feature":"98","num_nodes":"39","size_leaf_vector":"1"}},{"base_weights":[1.6379026E-1,1.5280886E0,-1.885582E0,-1.8989354E-1,3.334506E0,-4.7259197E0,2.0984485E0,1.3808007E0,-4.344696E-1,-5.524708E-1,4.606191E0,-6.2907904E-1,-3.5209677E0,6.572151E-2,5.4790244E0,2.6634445E0,-7.634827E-1,1.2843628E0,-2.0440102E-1,-8.771484E-2,5.61346E0,5.037575E-1,-4.7677865E0,1.9627075E-1,-1.5479609E0,3.6029026E-1,7.595482E-2,7.753073E-2,2.0331727E-1,3.7619274E-2,-7.983276E-2,1.20456316E-1,6.383972E-3,1.445301E-1,3.210965E-1,8.023163E-2,-4.991379E-2,-2.660614E-1,-1.15641534E-1,-7.097117E-3,-1.2659912E-1],"categories":[],"categories_nodes":[],"categories_segments":[],"categories_sizes":[],"default_left":[0,0,0,0,0,0,0,0,0,0,0,0,0,0,0,0,0,0,0,0,0,0,0,0,0,0,0,0,0,0,0,0,0,0,0,0,0,0,0,0,0],"id":21,"left_children":[1,3,5,7,9,11,13,15,-1,17,19,-1,21,23,25,27,29,31,-1,-1,33,35,37,-1,39,-1,-1,-1,-1,-1,-1,-1,-1,-1,-1,-1,-1,-1,-1,-1,-1],"loss_changes":[3.9151907E2,2.6131818E2,6.436127E2,5.994034E2,2.0520822E2,2.6806866E2,1.6456284E2,1.0654687E2,0E0,7.6686874E1,2.0845605E2,0E0,1.5294489E2,1.0572951E2,5.0595062E1,3.1163239E1,2.0145996E1,1.0100366E1,0E0,0E0,4.087317E1,1.4830275E1,1.8942444E1,0E0,1.6243233E1,0E0,0E0,0E0,0E0,0E0,0E0,0E0,0E0,0E0,0E0,0E0,0E0,0E0,0E0,0E0,0E0],"parents":[2147483647,0,0,1,1,2,2,3,3,4,4,5,5,6,6,7,7,9,9,10,10,12,12,13,13,14,14,15,15,16,16,17,17,20,20,21,21,22,22,24,24],"right_children":[2,4,6,8,10,12,14,16,-1,18,20,-1,22,24,26,28,30,32,-1,-1,34,36,38,-1,40,-1,-1,-1,-1,-1,-1,-1,-1,-1,-1,-1,-1,-1,-1,-1,-1],"split_conditions":[5.0016E2,4.9225E2,5.2141E2,4.9E2,4.8911E2,4.9673E2,5.3592E2,4.8445E2,-4.344696E-1,4.9685E2,2.9767E6,-6.2907904E-1,4.9802E2,4.9311E2,5.2681E2,4.8167E2,4.7891E2,3.9332E6,-2.0440102E-1,-8.771484E-2,4.9488E2,4.9984E2,5.1619E6,1.9627075E-1,5.3023E2,3.6029026E-1,7.595482E-2,7.753073E-2,2.0331727E-1,3.7619274E-2,-7.983276E-2,1.20456316E-1,6.383972E-3,1.445301E-1,3.210965E-1,8.023163E-2,-4.991379E-2,-2.660614E-1,-1.15641534E-1,-7.097117E-3,-1.2659912E-1],"split_indices":[0,57,24,7,0,36,57,57,0,15,81,0,23,58,7,0,38,32,0,0,15,10,67,0,24,0,0,0,0,0,0,0,0,0,0,0,0,0,0,0,0],"split_type":[0,0,0,0,0,0,0,0,0,0,0,0,0,0,0,0,0,0,0,0,0,0,0,0,0,0,0,0,0,0,0,0,0,0,0,0,0,0,0,0,0],"sum_hessian":[1.38E2,8.3E1,5.5E1,4.3E1,4E1,3.2E1,2.3E1,3.7E1,6E0,1E1,3E1,3E0,2.9E1,1.5E1,8E0,2.3E1,1.4E1,7E0,3E0,4E0,2.6E1,7E0,2.2E1,4E0,1.1E1,5E0,3E0,1.4E1,9E0,5E0,9E0,3E0,4E0,7E0,1.9E1,4E0,3E0,1.7E1,5E0,5E0,6E0],"tree_param":{"num_deleted":"0","num_feature":"98","num_nodes":"41","size_leaf_vector":"1"}},{"base_weights":[-6.718996E-2,1.2211033E0,-2.1134562E0,4.194272E0,1.8223777E-1,-3.9126742E0,3.563675E0,4.994867E0,-4.2863466E-2,-3.6850543E0,1.1814942E0,-4.8319616E0,7.1320343E-1,-4.0192567E-2,5.3910704E0,8.482628E-2,5.4771314E0,6.49408E-1,-5.808484E-1,5.0162965E-1,4.1227355E0,-4.2126107E-1,-3.9806223E0,-4.789246E-2,1.3118592E-1,3.3296224E-1,9.1199875E-2,1.2642708E-1,2.9641813E-1,-6.7985535E-2,8.523516E-2,1.4512753E-1,-5.298675E-2,6.958657E-2,2.5471738E-1,-5.7510375E-3,-2.1953431E-1],"categories":[],"categories_nodes":[],"categories_segments":[],"categories_sizes":[],"default_left":[0,0,0,0,0,0,0,0,0,0,0,0,0,0,0,0,0,0,0,0,0,0,0,0,0,0,0,0,0,0,0,0,0,0,0,0,0],"id":22,"left_children":[1,3,5,7,9,11,13,15,-1,17,19,21,23,-1,25,-1,27,29,-1,31,33,-1,35,-1,-1,-1,-1,-1,-1,-1,-1,-1,-1,-1,-1,-1,-1],"loss_changes":[3.8219226E2,2.7413196E2,5.859498E2,9.729941E1,2.632698E2,1.863042E2,1.16070435E2,2.2521393E1,0E0,4.8887225E2,1.0591279E2,7.658942E1,2.805369E1,0E0,3.309027E1,0E0,7.628296E0,2.3520039E1,0E0,1.7176802E2,1.9444824E1,0E0,4.863443E1,0E0,0E0,0E0,0E0,0E0,0E0,0E0,0E0,0E0,0E0,0E0,0E0,0E0,0E0],"parents":[2147483647,0,0,1,1,2,2,3,3,4,4,5,5,6,6,7,7,9,9,10,10,11,11,12,12,14,14,16,16,17,17,19,19,20,20,22,22],"right_children":[2,4,6,8,10,12,14,16,-1,18,20,22,24,-1,26,-1,28,30,-1,32,34,-1,36,-1,-1,-1,-1,-1,-1,-1,-1,-1,-1,-1,-1,-1,-1],"split_conditions":[5.0085E2,3.7121E6,5.3329E2,4.7685E6,4.04E6,6.3843E6,5.2393E2,4.8378E2,-4.2863466E-2,4.8973E2,4.9371E2,4.9298E2,4.2543E6,-4.0192567E-2,5.3227E2,8.482628E-2,3.0822E6,4.1932E6,-5.808484E-1,4.7862E2,3.7076E6,-4.2126107E-1,4.9984E2,-4.789246E-2,1.3118592E-1,3.3296224E-1,9.1199875E-2,1.2642708E-1,2.9641813E-1,-6.7985535E-2,8.523516E-2,1.4512753E-1,-5.298675E-2,6.958657E-2,2.5471738E-1,-5.7510375E-3,-2.1953431E-1],"split_indices":[7,60,50,46,60,46,8,2,0,0,3,71,11,0,8,0,25,11,0,58,25,0,17,0,0,0,0,0,0,0,0,0,0,0,0,0,0],"split_type":[0,0,0,0,0,0,0,0,0,0,0,0,0,0,0,0,0,0,0,0,0,0,0,0,0,0,0,0,0,0,0,0,0,0,0,0,0],"sum_hessian":[1.43E2,8.8E1,5.5E1,2.2E1,6.6E1,4.2E1,1.3E1,1.9E1,3E0,1.3E1,5.3E1,3.5E1,7E0,4E0,9E0,3E0,1.6E1,9E0,4E0,4.4E1,9E0,5E0,3E1,4E0,3E0,6E0,3E0,3E0,1.3E1,3E0,6E0,1.7E1,2.7E1,3E0,6E0,3E0,2.7E1],"tree_param":{"num_deleted":"0","num_feature":"98","num_nodes":"37","size_leaf_vector":"1"}},{"base_weights":[6.116948E-2,-3.4375685E-1,5.858317E0,1.0927291E0,-2.7905922E0,7.555504E-2,3.8900375E-1,-1.0237716E-1,3.9851685E0,-3.9216259E0,2.1971326E-1,1.8886384E0,-2.2271738E0,-5.1570892E-2,5.6503887E0,-4.0370843E-1,-3.1422508E0,5.228318E-2,1.9165294E-1,-2.1443497E-1,1.4152579E-1,2.6282653E-2,-3.8010407E-2,1.9757266E-1,3.3607516E-1,1.0890852E-2,-1.8998064E-1],"categories":[],"categories_nodes":[],"categories_segments":[],"categories_sizes":[],"default_left":[0,0,0,0,0,0,0,0,0,0,0,0,0,0,0,0,0,0,0,0,0,0,0,0,0,0,0],"id":23,"left_children":[1,3,5,7,9,-1,-1,11,13,15,-1,17,19,21,23,-1,25,-1,-1,-1,-1,-1,-1,-1,-1,-1,-1],"loss_changes":[3.2361008E2,4.564643E2,6.343222E1,2.8386334E2,4.072958E2,0E0,0E0,2.5380603E2,1.6162088E2,1.1055719E2,0E0,4.6803925E1,3.1450934E2,3.6719449E0,4.3760986E0,0E0,8.255249E1,0E0,0E0,0E0,0E0,0E0,0E0,0E0,0E0,0E0,0E0],"parents":[2147483647,0,0,1,1,2,2,3,3,4,4,7,7,8,8,9,9,11,11,12,12,13,13,14,14,16,16],"right_children":[2,4,6,8,10,-1,-1,12,14,16,-1,18,20,22,24,-1,26,-1,-1,-1,-1,-1,-1,-1,-1,-1,-1],"split_conditions":[5.36E2,5.0085E2,5.3227E2,4.9408E2,5.36E2,7.555504E-2,3.8900375E-1,4.8172E2,4.8667E2,4.9E2,2.1971326E-1,4.8167E2,4.9696E2,4.8378E2,4.9035E2,-4.0370843E-1,4.9351E2,5.228318E-2,1.9165294E-1,-2.1443497E-1,1.4152579E-1,2.6282653E-2,-3.8010407E-2,1.9757266E-1,3.3607516E-1,1.0890852E-2,-1.8998064E-1],"split_indices":[71,7,85,66,29,0,0,37,9,84,0,0,0,2,9,0,23,0,0,0,0,0,0,0,0,0,0],"split_type":[0,0,0,0,0,0,0,0,0,0,0,0,0,0,0,0,0,0,0,0,0,0,0,0,0,0,0],"sum_hessian":[1.36E2,1.28E2,8E0,8.1E1,4.7E1,3E0,5E0,5.8E1,2.3E1,4.1E1,6E0,3E1,2.8E1,7E0,1.6E1,5E0,3.6E1,2.2E1,8E0,2E1,8E0,4E0,3E0,8E0,8E0,6E0,3E1],"tree_param":{"num_deleted":"0","num_feature":"98","num_nodes":"27","size_leaf_vector":"1"}},{"base_weights":[-4.3003247E-3,-4.028713E-1,5.1376953E0,8.640793E-1,-2.4219348E0,3.5579312E-1,1.9573975E-2,4.1285114E0,-1.6536713E-2,-3.0858233E0,2.0851135E-1,1.4170189E0,5.8848543E0,1.9645396E0,-1.4237084E0,-4.033928E-1,-2.2814815E0,1.4330406E-1,-1.2817383E-3,3.459872E-1,1.7330079E-1,3.9384462E-2,1.9432084E-1,-2.3188376E-1,1.01717345E-1,8.514693E-2,-1.649503E-1],"categories":[],"categories_nodes":[],"categories_segments":[],"categories_sizes":[],"default_left":[0,0,0,0,0,0,0,0,0,0,0,0,0,0,0,0,0,0,0,0,0,0,0,0,0,0,0],"id":24,"left_children":[1,3,5,7,9,-1,-1,11,13,15,-1,17,19,21,23,-1,25,-1,-1,-1,-1,-1,-1,-1,-1,-1,-1],"loss_changes":[2.8489395E2,3.320817E2,9.1102356E1,2.3004515E2,2.3169162E2,0E0,0E0,7.262033E1,1.8121068E2,1.6592719E2,0E0,1.679743E1,1.0483704E0,5.8006287E1,4.3176953E2,0E0,1.7184198E2,0E0,0E0,0E0,0E0,0E0,0E0,0E0,0E0,0E0,0E0],"parents":[2147483647,0,0,1,1,2,2,3,3,4,4,7,7,8,8,9,9,11,11,12,12,13,13,14,14,16,16],"right_children":[2,4,6,8,10,-1,-1,12,14,16,-1,18,20,22,24,-1,26,-1,-1,-1,-1,-1,-1,-1,-1,-1,-1],"split_conditions":[5.3592E2,5.0016E2,5.3262E2,3.6139E6,5.36E2,3.5579312E-1,1.9573975E-2,4.8923E2,4.8655E2,4.8933E2,2.0851135E-1,3.8158E6,4.0589E6,4.85E2,4.9378E2,-4.033928E-1,4.959E2,1.4330406E-1,-1.2817383E-3,3.459872E-1,1.7330079E-1,3.9384462E-2,1.9432084E-1,-2.3188376E-1,1.01717345E-1,8.514693E-2,-1.649503E-1],"split_indices":[85,0,84,67,36,0,0,9,71,84,0,18,74,15,87,0,16,0,0,0,0,0,0,0,0,0,0],"split_type":[0,0,0,0,0,0,0,0,0,0,0,0,0,0,0,0,0,0,0,0,0,0,0,0,0,0,0],"sum_hessian":[1.37E2,1.28E2,9E0,7.9E1,4.9E1,6E0,3E0,1.6E1,6.3E1,4.5E1,4E0,7E0,9E0,2.6E1,3.7E1,5E0,4E1,3E0,4E0,5E0,4E0,1.7E1,9E0,1.9E1,1.8E1,8E0,3.2E1],"tree_param":{"num_deleted":"0","num_feature":"98","num_nodes":"27","size_leaf_vector":"1"}},{"base_weights":[1.8186563E-1,1.3062493E0,-1.5177634E0,2.1364339E-1,3.6858826E0,-4.0680866E0,2.1584346E0,1.8690501E0,-1.3952549E0,4.7479916E0,-2.6999338E-2,8.646889E-2,-4.684918E0,3.3722642E-1,5.7586975E0,1.0161175E0,3.7463243E0,-3.3428237E0,1.9669647E0,1.08971514E-1,5.6301208E0,-1.19808964E-1,1.1744652E-1,-2.4508708E0,-6.3805523E0,-1.0554833E0,1.9454132E-1,3.3843628E-1,1.528244E-1,1.2284088E-2,1.3159768E-1,1.0891602E-1,2.2825317E-1,-5.161896E-3,-2.9920045E-1,1.5151978E-2,1.7901917E-1,1.18679814E-1,3.1232262E-1,-2.3448182E-2,-1.4536338E-1,-3.7576753E-1,-1.8428956E-1,-1.1198392E-1,6.435822E-2],"categories":[],"categories_nodes":[],"categories_segments":[],"categories_sizes":[],"default_left":[0,0,0,0,0,0,0,0,0,0,0,0,0,0,0,0,0,0,0,0,0,0,0,0,0,0,0,0,0,0,0,0,0,0,0,0,0,0,0,0,0,0,0,0,0],"id":25,"left_children":[1,3,5,7,9,11,13,15,17,19,21,-1,23,25,27,29,31,33,35,-1,37,-1,-1,39,41,43,-1,-1,-1,-1,-1,-1,-1,-1,-1,-1,-1,-1,-1,-1,-1,-1,-1,-1,-1],"loss_changes":[2.7334955E2,2.2281264E2,5.431838E2,1.6241064E2,1.06602295E2,1.2968799E2,1.5542188E2,4.4228943E1,2.0956802E2,3.531143E1,4.503149E1,0E0,1.0179401E2,8.824197E1,1.145935E0,2.674113E1,1.609909E0,1.7050912E2,3.1130299E1,0E0,1.5279938E1,0E0,0E0,1.2204636E1,2.4286194E1,3.8946804E1,0E0,0E0,0E0,0E0,0E0,0E0,0E0,0E0,0E0,0E0,0E0,0E0,0E0,0E0,0E0,0E0,0E0,0E0,0E0],"parents":[2147483647,0,0,1,1,2,2,3,3,4,4,5,5,6,6,7,7,8,8,9,9,10,10,12,12,13,13,14,14,15,15,16,16,17,17,18,18,20,20,23,23,24,24,25,25],"right_children":[2,4,6,8,10,12,14,16,18,20,22,-1,24,26,28,30,32,34,36,-1,38,-1,-1,40,42,44,-1,-1,-1,-1,-1,-1,-1,-1,-1,-1,-1,-1,-1,-1,-1,-1,-1,-1,-1],"split_conditions":[5.0085E2,4.9673E2,5.16E2,4.8668E2,5.055E2,2.9767E6,6.1293E6,4.6636E6,4.9592E2,3.2062E6,5.13E2,8.646889E-2,4.2543E6,5.36E2,5.3652E2,4.5959E6,3.737E6,4.806E2,4.8815E2,1.08971514E-1,4.915E2,-1.19808964E-1,1.1744652E-1,5.017E2,5.1575E2,5.3016E2,1.9454132E-1,3.3843628E-1,1.528244E-1,1.2284088E-2,1.3159768E-1,1.0891602E-1,2.2825317E-1,-5.161896E-3,-2.9920045E-1,1.5151978E-2,1.7901917E-1,1.18679814E-1,3.1232262E-1,-2.3448182E-2,-1.4536338E-1,-3.7576753E-1,-1.8428956E-1,-1.1198392E-1,6.435822E-2],"split_indices":[7,1,92,36,15,46,88,25,73,25,44,0,18,78,36,18,53,86,0,0,42,0,0,21,29,3,0,0,0,0,0,0,0,0,0,0,0,0,0,0,0,0,0,0,0],"split_type":[0,0,0,0,0,0,0,0,0,0,0,0,0,0,0,0,0,0,0,0,0,0,0,0,0,0,0,0,0,0,0,0,0,0,0,0,0,0,0,0,0,0,0,0,0],"sum_hessian":[1.41E2,8.5E1,5.6E1,5.9E1,2.6E1,3.3E1,2.3E1,2.9E1,3E1,2E1,6E0,3E0,3E1,1.6E1,7E0,2.1E1,8E0,1.9E1,1.1E1,6E0,1.4E1,3E0,3E0,1.4E1,1.6E1,1.2E1,4E0,4E0,3E0,1.5E1,6E0,4E0,4E0,9E0,1E1,6E0,5E0,3E0,1.1E1,3E0,1.1E1,1E1,6E0,8E0,4E0],"tree_param":{"num_deleted":"0","num_feature":"98","num_nodes":"45","size_leaf_vector":"1"}},{"base_weights":[7.415813E-2,-2.925657E-1,4.568118E0,2.315762E0,-9.359811E-1,-6.9885254E-3,3.175524E-1,7.834282E-1,4.1658936E0,-3.8537793E0,-6.679364E-2,1.178739E-1,-1.4636508E-1,2.3474291E-1,9.671249E-2,4.5934296E-1,-7.275471E0,2.0131602E0,-2.145194E0,7.901001E-3,-3.5927203E-2,1.07914224E-1,-5.3125657E-2,-4.7461852E-1,-1.8512595E-1,-1.7198372E-1,1.2540573E-1,-1.6501535E-1,1.2926331E-1],"categories":[],"categories_nodes":[],"categories_segments":[],"categories_sizes":[],"default_left":[0,0,0,0,0,0,0,0,0,0,0,0,0,0,0,0,0,0,0,0,0,0,0,0,0,0,0,0,0],"id":26,"left_children":[1,3,5,7,9,-1,-1,11,13,15,17,-1,19,-1,-1,21,23,25,27,-1,-1,-1,-1,-1,-1,-1,-1,-1,-1],"loss_changes":[2.4030258E2,2.2872966E2,9.3219864E1,7.3281845E1,2.76179E2,0E0,0E0,2.3761703E1,5.084488E0,3.7229636E2,3.7177167E2,0E0,2.0293345E0,0E0,0E0,3.331974E1,7.574658E1,1.2467999E2,2.4349341E2,0E0,0E0,0E0,0E0,0E0,0E0,0E0,0E0,0E0,0E0],"parents":[2147483647,0,0,1,1,2,2,3,3,4,4,7,7,8,8,9,9,10,10,12,12,15,15,16,16,17,17,18,18],"right_children":[2,4,6,8,10,-1,-1,12,14,16,18,-1,20,-1,-1,22,24,26,28,-1,-1,-1,-1,-1,-1,-1,-1,-1,-1],"split_conditions":[5.3592E2,4.755E2,4.2947E6,4.8343E2,4.9222E2,-6.9885254E-3,3.175524E-1,4.715E2,4.8936E6,4.8968E2,5.0114E2,1.178739E-1,4.8263E2,2.3474291E-1,9.671249E-2,4.7596E2,4.1871E6,4.8754E2,5.3592E2,7.901001E-3,-3.5927203E-2,1.07914224E-1,-5.3125657E-2,-4.7461852E-1,-1.8512595E-1,-1.7198372E-1,1.2540573E-1,-1.6501535E-1,1.2926331E-1],"split_indices":[92,93,74,2,78,0,0,44,25,15,24,0,52,0,0,29,53,87,50,0,0,0,0,0,0,0,0,0,0],"split_type":[0,0,0,0,0,0,0,0,0,0,0,0,0,0,0,0,0,0,0,0,0,0,0,0,0,0,0,0,0],"sum_hessian":[1.44E2,1.34E2,1E1,2.6E1,1.08E2,3E0,7E0,1.5E1,1.1E1,2.4E1,8.4E1,5E0,1E1,8E0,3E0,1.1E1,1.3E1,4.2E1,4.2E1,7E0,3E0,5E0,6E0,7E0,6E0,3E0,3.9E1,3.4E1,8E0],"tree_param":{"num_deleted":"0","num_feature":"98","num_nodes":"29","size_leaf_vector":"1"}},{"base_weights":[1.7953864E-1,-1.0851641E-1,3.2914227E-1,9.2309815E-1,-1.976057E0,3.1822348E0,-2.6133624E-1,-3.0631497E0,3.8423004E0,8.4300995E-1,4.4921536E0,-4.7389498E-1,5.968888E-1,-3.8412263E0,1.301473E-1,2.3250854E-1,9.3594365E-2,1.0176722E-1,-1.4971052E-2,2.5185356E-1,5.9472274E-2,6.720116E-2,-1.2229558E-1,-1.03904724E-1,-2.5155014E-1,-6.953064E-2,8.1243895E-2],"categories":[],"categories_nodes":[],"categories_segments":[],"categories_sizes":[],"default_left":[0,0,0,0,0,0,0,0,0,0,0,0,0,0,0,0,0,0,0,0,0,0,0,0,0,0,0],"id":27,"left_children":[1,3,-1,5,7,9,11,13,15,17,19,-1,21,23,25,-1,-1,-1,-1,-1,-1,-1,-1,-1,-1,-1,-1],"loss_changes":[2.5710056E2,2.5998608E2,0E0,2.3362617E2,3.1537402E2,8.8138916E1,4.644306E2,1.0236969E2,4.030113E0,1.6955345E1,2.8203064E1,0E0,1.2604995E2,5.8770264E1,2.2717718E1,0E0,0E0,0E0,0E0,0E0,0E0,0E0,0E0,0E0,0E0,0E0,0E0],"parents":[2147483647,0,0,1,1,3,3,4,4,5,5,6,6,7,7,8,8,9,9,10,10,12,12,13,13,14,14],"right_children":[2,4,-1,6,8,10,12,14,16,18,20,-1,22,24,26,-1,-1,-1,-1,-1,-1,-1,-1,-1,-1,-1,-1],"split_conditions":[5.3641E2,4.9856E2,3.2914227E-1,3.9351E6,5.3592E2,4.8913E2,4.0158E6,5.1431E2,5.3227E2,4.5041E6,4.9762E2,-4.7389498E-1,5.0186E6,4.2947E6,5.3572E2,2.3250854E-1,9.3594365E-2,1.0176722E-1,-1.4971052E-2,2.5185356E-1,5.9472274E-2,6.720116E-2,-1.2229558E-1,-1.03904724E-1,-2.5155014E-1,-6.953064E-2,8.1243895E-2],"split_indices":[92,9,0,60,43,3,60,94,8,88,16,0,81,18,1,0,0,0,0,0,0,0,0,0,0,0,0],"split_type":[0,0,0,0,0,0,0,0,0,0,0,0,0,0,0,0,0,0,0,0,0,0,0,0,0,0,0],"sum_hessian":[1.38E2,1.33E2,5E0,8.6E1,4.7E1,2.9E1,5.7E1,4E1,7E0,1.1E1,1.8E1,4E0,5.3E1,3.2E1,8E0,4E0,3E0,5E0,6E0,1.5E1,3E0,4.3E1,1E1,1.4E1,1.8E1,4E0,4E0],"tree_param":{"num_deleted":"0","num_feature":"98","num_nodes":"27","size_leaf_vector":"1"}},{"base_weights":[1.6544998E-1,-1.9391902E-1,4.9285126E0,9.496902E-1,-2.4514146E0,3.13123E-1,6.8098836E-2,3.361245E0,1.5551533E-1,-3.3144479E0,1.8553543E-1,4.042024E0,-3.563843E-2,-8.049329E-1,2.34342E0,-4.3256845E0,-1.1274588E0,6.3531496E-2,2.2411232E-1,6.880822E-2,-2.4315894E-1,7.913514E-3,1.9845466E-1,-2.8941265E-1,-1.1526807E-1,5.172984E-3,-9.1139905E-2],"categories":[],"categories_nodes":[],"categories_segments":[],"categories_sizes":[],"default_left":[0,0,0,0,0,0,0,0,0,0,0,0,0,0,0,0,0,0,0,0,0,0,0,0,0,0,0],"id":28,"left_children":[1,3,5,7,9,-1,-1,11,13,15,-1,17,-1,19,21,23,25,-1,-1,-1,-1,-1,-1,-1,-1,-1,-1],"loss_changes":[2.4401671E2,3.4569324E2,3.9046402E1,1.6992975E2,2.5161417E2,0E0,0E0,6.3898148E1,1.4477942E2,8.358554E1,0E0,1.748526E1,0E0,4.3156116E2,7.397093E1,6.6437256E1,1.217127E1,0E0,0E0,0E0,0E0,0E0,0E0,0E0,0E0,0E0,0E0],"parents":[2147483647,0,0,1,1,2,2,3,3,4,4,7,7,8,8,9,9,11,11,13,13,14,14,15,15,16,16],"right_children":[2,4,6,8,10,-1,-1,12,14,16,-1,18,-1,20,22,24,26,-1,-1,-1,-1,-1,-1,-1,-1,-1,-1],"split_conditions":[5.36E2,5.0085E2,5.3227E2,3.6139E6,5.36E2,3.13123E-1,6.8098836E-2,4.7685E6,4.9799E2,5.0799E2,1.8553543E-1,4.8378E2,-3.563843E-2,4.8172E2,4.8585E2,4.0158E6,5.1165E2,6.3531496E-2,2.2411232E-1,6.880822E-2,-2.4315894E-1,7.913514E-3,1.9845466E-1,-2.8941265E-1,-1.1526807E-1,5.172984E-3,-9.1139905E-2],"split_indices":[71,7,22,60,29,0,0,46,85,72,0,2,0,44,9,74,44,0,0,0,0,0,0,0,0,0,0],"split_type":[0,0,0,0,0,0,0,0,0,0,0,0,0,0,0,0,0,0,0,0,0,0,0,0,0,0,0],"sum_hessian":[1.41E2,1.32E2,9E0,8.8E1,4.4E1,6E0,3E0,2.1E1,6.7E1,3.9E1,5E0,1.8E1,3E0,4.7E1,2E1,2.6E1,1.3E1,3E0,1.5E1,3.1E1,1.6E1,9E0,1.1E1,1.4E1,1.2E1,5E0,8E0],"tree_param":{"num_deleted":"0","num_feature":"98","num_nodes":"27","size_leaf_vector":"1"}},{"base_weights":[2.126478E-2,-3.5665584E-1,4.4169536E0,7.9936904E-1,-2.0076225E0,2.89546E-1,2.823906E-2,3.3086395E0,-9.5100805E-2,-4.7203645E-1,-1.2081704E0,1.0740488E0,4.1896033E0,5.524049E-1,-3.609843E0,-2.1507447E0,2.6829438E0,1.1330147E-1,-1.9322205E-2,1.2773874E-1,2.5481892E-1,5.257833E-2,-2.0252655E-1,-2.192749E-2,-3.0295837E-1,7.887001E-2,-1.4946817E-1,-4.7004703E-3,1.9432482E-1],"categories":[],"categories_nodes":[],"categories_segments":[],"categories_sizes":[],"default_left":[0,0,0,0,0,0,0,0,0,0,0,0,0,0,0,0,0,0,0,0,0,0,0,0,0,0,0,0,0],"id":29,"left_children":[1,3,5,7,9,-1,-1,11,13,-1,15,17,19,21,23,25,27,-1,-1,-1,-1,-1,-1,-1,-1,-1,-1,-1,-1],"loss_changes":[2.3082387E2,2.4590031E2,5.4949707E1,1.7089413E2,3.0354184E2,0E0,0E0,3.4872055E1,1.3171559E2,0E0,1.8548587E2,1.3061849E1,7.733795E0,1.16842255E2,6.725048E1,1.2977507E2,3.3787468E1,0E0,0E0,0E0,0E0,0E0,0E0,0E0,0E0,0E0,0E0,0E0,0E0],"parents":[2147483647,0,0,1,1,2,2,3,3,4,4,7,7,8,8,10,10,11,11,12,12,13,13,14,14,15,15,16,16],"right_children":[2,4,6,8,10,-1,-1,12,14,-1,16,18,20,22,24,26,28,-1,-1,-1,-1,-1,-1,-1,-1,-1,-1,-1,-1],"split_conditions":[5.3592E2,5.0016E2,5.2569E2,3.6139E6,4.9673E2,2.89546E-1,2.823906E-2,4.8913E2,5.2976E6,-4.7203645E-1,5.3572E2,4.885E2,3.7969E6,4.9986E2,4.8968E2,4.959E2,5.3329E2,1.1330147E-1,-1.9322205E-2,1.2773874E-1,2.5481892E-1,5.257833E-2,-2.0252655E-1,-2.192749E-2,-3.0295837E-1,7.887001E-2,-1.4946817E-1,-4.7004703E-3,1.9432482E-1],"split_indices":[85,0,0,60,36,0,0,3,81,0,43,1,32,17,8,16,36,0,0,0,0,0,0,0,0,0,0,0,0],"split_type":[0,0,0,0,0,0,0,0,0,0,0,0,0,0,0,0,0,0,0,0,0,0,0,0,0,0,0,0,0],"sum_hessian":[1.37E2,1.27E2,1E1,7.5E1,5.2E1,7E0,3E0,1.9E1,5.6E1,4E0,4.8E1,6E0,1.3E1,4.8E1,8E0,3.9E1,9E0,3E0,3E0,6E0,7E0,4.4E1,4E0,4E0,4E0,7E0,3.2E1,3E0,6E0],"tree_param":{"num_deleted":"0","num_feature":"98","num_nodes":"29","size_leaf_vector":"1"}},{"base_weights":[4.467223E-2,-2.8200147E-1,4.5768433E0,8.2952523E-1,-2.022931E0,3.0122784E-1,6.305313E-2,2.8630779E0,-2.6332662E-1,-5.0132865E-1,-1.2829856E0,1.5771195E0,2.6298794E-1,-3.4772584E-1,4.541048E-1,-1.9822724E0,2.8962228E0,1.2817274E-1,-4.935913E-2,4.621763E-2,-1.8404236E-1,1.2666321E-1,-1.2084317E-1,1.8667069E-1,6.674881E-2],"categories":[],"categories_nodes":[],"categories_segments":[],"categories_sizes":[],"default_left":[0,0,0,0,0,0,0,0,0,0,0,0,0,0,0,0,0,0,0,0,0,0,0,0,0],"id":30,"left_children":[1,3,5,7,9,-1,-1,11,13,-1,15,17,-1,-1,19,21,23,-1,-1,-1,-1,-1,-1,-1,-1],"loss_changes":[1.9820264E2,2.435643E2,3.5605362E1,1.7187656E2,2.7732678E2,0E0,0E0,7.4919586E1,2.4798206E2,0E0,1.4017451E2,5.0586567E1,0E0,0E0,9.479166E1,8.461903E1,4.165409E0,0E0,0E0,0E0,0E0,0E0,0E0,0E0,0E0],"parents":[2147483647,0,0,1,1,2,2,3,3,4,4,7,7,8,8,10,10,11,11,14,14,15,15,16,16],"right_children":[2,4,6,8,10,-1,-1,12,14,-1,16,18,-1,-1,20,22,24,-1,-1,-1,-1,-1,-1,-1,-1],"split_conditions":[5.36E2,5E2,5.2411E2,3.9351E6,4.8343E2,3.0122784E-1,6.305313E-2,4.941E2,4.0158E6,-5.0132865E-1,5.36E2,4.8578E6,2.6298794E-1,-3.4772584E-1,4.9774E2,5.021E2,5.2658E2,1.2817274E-1,-4.935913E-2,4.621763E-2,-1.8404236E-1,1.2666321E-1,-1.2084317E-1,1.8667069E-1,6.674881E-2],"split_indices":[71,0,3,53,93,0,0,73,53,0,36,46,0,0,15,8,2,0,0,0,0,0,0,0,0],"split_type":[0,0,0,0,0,0,0,0,0,0,0,0,0,0,0,0,0,0,0,0,0,0,0,0,0],"sum_hessian":[1.32E2,1.24E2,8E0,7.6E1,4.8E1,5E0,3E0,2.6E1,5E1,3E0,4.5E1,1.8E1,8E0,4E0,4.6E1,3.9E1,6E0,1.3E1,5E0,4.2E1,4E0,3E0,3.6E1,3E0,3E0],"tree_param":{"num_deleted":"0","num_feature":"98","num_nodes":"25","size_leaf_vector":"1"}},{"base_weights":[5.8029067E-2,9.881915E-1,-1.3714708E0,4.8029423E-2,3.5613296E0,-4.0168816E-1,-5.607802E-1,7.6436514E-1,-3.1197891E0,-3.856415E-2,4.5140524E0,-1.3079749E0,3.0714586E0,1.3979957E0,-1.1006056E0,-6.651441E0,7.6021835E-2,8.580857E-2,2.6953563E-1,-1.8682301E0,1.8402274E0,5.949211E-2,1.90698E-1,9.339424E-2,-3.5752296E-2,-1.3271509E-1,2.8740778E-3,-4.1681442E-1,-1.6518669E-1,6.1754227E-2,-1.3167532E-1,-2.1429826E-2,1.8244973E-1],"categories":[],"categories_nodes":[],"categories_segments":[],"categories_sizes":[],"default_left":[0,0,0,0,0,0,0,0,0,0,0,0,0,0,0,0,0,0,0,0,0,0,0,0,0,0,0,0,0,0,0,0,0],"id":31,"left_children":[1,3,5,7,9,-1,11,13,15,-1,17,19,21,23,25,27,-1,-1,-1,29,31,-1,-1,-1,-1,-1,-1,-1,-1,-1,-1,-1,-1],"loss_changes":[1.8883833E2,2.0787732E2,2.9795404E2,1.4761484E2,9.842053E1,0E0,1.4243086E2,6.416887E1,2.0676506E2,0E0,3.7351624E1,7.928123E1,8.035904E0,4.1051422E1,2.5342995E1,1.1941742E1,0E0,0E0,0E0,9.112366E1,3.0290363E1,0E0,0E0,0E0,0E0,0E0,0E0,0E0,0E0,0E0,0E0,0E0,0E0],"parents":[2147483647,0,0,1,1,2,2,3,3,4,4,6,6,7,7,8,8,10,10,11,11,12,12,13,13,14,14,15,15,19,19,20,20],"right_children":[2,4,6,8,10,-1,12,14,16,-1,18,20,22,24,26,28,-1,-1,-1,30,32,-1,-1,-1,-1,-1,-1,-1,-1,-1,-1,-1,-1],"split_conditions":[5.0016E2,4.9354E2,4.8807E2,4.9105E2,2.9767E6,-4.0168816E-1,6.3843E6,4.7866E6,4.0158E6,-3.856415E-2,4.915E2,5.3572E2,5.2681E2,4.7866E6,4.0158E6,4.001E6,7.6021835E-2,8.580857E-2,2.6953563E-1,5.017E2,5.13E2,5.949211E-2,1.90698E-1,9.339424E-2,-3.5752296E-2,-1.3271509E-1,2.8740778E-3,-4.1681442E-1,-1.6518669E-1,6.1754227E-2,-1.3167532E-1,-2.1429826E-2,1.8244973E-1],"split_indices":[0,3,94,14,81,0,67,95,46,0,42,57,35,88,25,18,0,0,0,21,9,0,0,0,0,0,0,0,0,0,0,0,0],"split_type":[0,0,0,0,0,0,0,0,0,0,0,0,0,0,0,0,0,0,0,0,0,0,0,0,0,0,0,0,0,0,0,0,0],"sum_hessian":[1.4E2,8.5E1,5.5E1,6.3E1,2.2E1,5E0,5E1,5.2E1,1.1E1,4E0,1.8E1,4.2E1,8E0,3.9E1,1.3E1,6E0,5E0,5E0,1.3E1,3.6E1,6E0,3E0,5E0,3.2E1,7E0,5E0,8E0,3E0,3E0,7E0,2.9E1,3E0,3E0],"tree_param":{"num_deleted":"0","num_feature":"98","num_nodes":"33","size_leaf_vector":"1"}},{"base_weights":[1.5964694E-1,9.6184945E-1,-1.2233343E0,3.733319E0,3.7110096E-1,-2.415151E0,1.7185811E0,2.6264402E-1,1.7470932E0,7.524972E-2,2.69088E-1,-2.93882E0,7.0968024E-2,-2.8676987E-1,3.5091095E0,1.1831421E-1,2.681656E-2,1.4368101E0,-1.1411488E0,2.4678802E-2,-3.3109152E0,2.8208924E-2,-6.393814E-2,7.10022E-2,2.23927E-1,1.643804E-1,3.565253E-2,-2.3417298E-1,3.732495E-2,-2.0153132E-1,-9.7771965E-2],"categories":[],"categories_nodes":[],"categories_segments":[],"categories_sizes":[],"default_left":[0,0,0,0,0,0,0,0,0,0,0,0,0,0,0,0,0,0,0,0,0,0,0,0,0,0,0,0,0,0,0],"id":32,"left_children":[1,3,5,7,9,11,13,-1,15,17,-1,19,-1,21,23,-1,-1,25,27,-1,29,-1,-1,-1,-1,-1,-1,-1,-1,-1,-1],"loss_changes":[1.5094986E2,1.3941734E2,1.7946184E2,3.609558E1,1.0632852E2,7.645976E1,5.4865875E1,0E0,4.7284317E0,1.15917404E2,0E0,4.2503876E1,0E0,7.474529E0,9.841911E0,0E0,0E0,4.186035E1,2.5090173E2,0E0,2.0409332E1,0E0,0E0,0E0,0E0,0E0,0E0,0E0,0E0,0E0,0E0],"parents":[2147483647,0,0,1,1,2,2,3,3,4,4,5,5,6,6,8,8,9,9,11,11,13,13,14,14,17,17,18,18,20,20],"right_children":[2,4,6,8,10,12,14,-1,16,18,-1,20,-1,22,24,-1,-1,26,28,-1,30,-1,-1,-1,-1,-1,-1,-1,-1,-1,-1],"split_conditions":[4.9808E2,3.6139E6,5.1431E2,4.0654E6,5.2148E2,5.2468E2,5.3061E2,2.6264402E-1,4.9279E2,4.8275E2,2.69088E-1,3.056E6,7.0968024E-2,5.1165E2,5.2079E2,1.1831421E-1,2.681656E-2,3.7913E6,4.915E2,2.4678802E-2,4.9456E6,2.8208924E-2,-6.393814E-2,7.10022E-2,2.23927E-1,1.643804E-1,3.565253E-2,-2.3417298E-1,3.732495E-2,-2.0153132E-1,-9.7771965E-2],"split_indices":[2,67,94,39,58,72,29,0,71,72,0,4,0,44,94,0,0,39,84,0,67,0,0,0,0,0,0,0,0,0,0],"split_type":[0,0,0,0,0,0,0,0,0,0,0,0,0,0,0,0,0,0,0,0,0,0,0,0,0,0,0,0,0,0,0],"sum_hessian":[1.34E2,8.5E1,4.9E1,1.4E1,7.1E1,3.5E1,1.4E1,7E0,7E0,6.8E1,3E0,3.1E1,4E0,7E0,7E0,4E0,3E0,3.2E1,3.6E1,3E0,2.8E1,4E0,3E0,3E0,4E0,8E0,2.4E1,1.2E1,2.4E1,1.7E1,1.1E1],"tree_param":{"num_deleted":"0","num_feature":"98","num_nodes":"31","size_leaf_vector":"1"}},{"base_weights":[8.276065E-2,1.1687329E0,-1.4873985E0,2.730255E-1,3.93577E0,-3.4864888E0,9.7100586E-1,6.803866E-1,-1.7533112E-1,5.8267977E-2,4.8419623E0,-4.5949897E-1,-2.512398E0,-1.3819163E-1,1.9214849E-1,2.1686102E-1,1.9139339E-1,2.6712564E-1,1.1274796E-1,3.7667412E-1,-3.3557842E0,-1.2136719E0,9.511078E-1,3.9897226E-2,-2.0402806E-1,-6.360855E-2,9.6567534E-2,-9.811325E-2,-2.1187007E-1,-1.01332605E-1,2.3193359E-4,-1.3993072E-2,1.1190247E-1],"categories":[],"categories_nodes":[],"categories_segments":[],"categories_sizes":[],"default_left":[0,0,0,0,0,0,0,0,0,0,0,0,0,0,0,0,0,0,0,0,0,0,0,0,0,0,0,0,0,0,0,0,0],"id":33,"left_children":[1,3,5,7,9,11,13,15,-1,-1,17,-1,19,21,-1,23,-1,-1,-1,25,27,29,31,-1,-1,-1,-1,-1,-1,-1,-1,-1,-1],"loss_changes":[2.2511292E2,1.9224498E2,2.6877234E2,9.476676E1,4.2057404E1,1.4358267E2,8.017044E1,7.941148E1,0E0,0E0,6.081787E0,0E0,6.705232E1,2.3413214E1,0E0,1.2561696E2,0E0,0E0,0E0,2.0400955E1,1.748465E1,9.914024E0,1.6468199E1,0E0,0E0,0E0,0E0,0E0,0E0,0E0,0E0,0E0,0E0],"parents":[2147483647,0,0,1,1,2,2,3,3,4,4,5,5,6,6,7,7,10,10,12,12,13,13,15,15,19,19,20,20,21,21,22,22],"right_children":[2,4,6,8,10,12,14,16,-1,-1,18,-1,20,22,-1,24,-1,-1,-1,26,28,30,32,-1,-1,-1,-1,-1,-1,-1,-1,-1,-1],"split_conditions":[5.0016E2,4.933E2,5.16E2,4.9694E2,4.9057E2,4.8933E2,6.3843E6,4.9354E2,-1.7533112E-1,5.8267977E-2,4.4823E6,-4.5949897E-1,5.017E2,4.9778E6,1.9214849E-1,4.9105E2,1.9139339E-1,2.6712564E-1,1.1274796E-1,4.9187E2,3.8711E6,5.3434E6,5.5616E6,3.9897226E-2,-2.0402806E-1,-6.360855E-2,9.6567534E-2,-9.811325E-2,-2.1187007E-1,-1.01332605E-1,2.3193359E-4,-1.3993072E-2,1.1190247E-1],"split_indices":[0,0,64,21,42,70,81,10,0,0,39,0,21,60,0,7,0,0,0,77,18,32,74,0,0,0,0,0,0,0,0,0,0],"split_type":[0,0,0,0,0,0,0,0,0,0,0,0,0,0,0,0,0,0,0,0,0,0,0,0,0,0,0,0,0,0,0,0,0],"sum_hessian":[1.3E2,7.7E1,5.3E1,5.9E1,1.8E1,2.9E1,2.4E1,5.4E1,5E0,5E0,1.3E1,3E0,2.6E1,1.8E1,6E0,4.8E1,6E0,1E1,3E0,6E0,2E1,9E0,9E0,4.3E1,5E0,3E0,3E0,9E0,1.1E1,5E0,4E0,5E0,4E0],"tree_param":{"num_deleted":"0","num_feature":"98","num_nodes":"33","size_leaf_vector":"1"}}]},"name":"gbtree"},"learner_model_param":{"base_score":"[4.916717E2]","boost_from_average":"1","num_class":"0","num_feature":"98","num_target":"1"},"objective":{"name":"reg:squarederror","reg_loss_param":{"scale_pos_weight":"1"}}},"version":[3,2,0]}