{"learner":{"attributes":{"best_iteration":"0","best_score":"8.512194957939794"},"feature_names":[],"feature_types":[],"gradient_booster":{"model":{"cats":{"enc":[],"feature_segments":[],"sorted_idx":[]},"gbtree_model_param":{"num_parallel_tree":"1","num_trees":"31"},"iteration_indptr":[0,1,2,3,4,5,6,7,8,9,10,11,12,13,14,15,16,17,18,19,20,21,22,23,24,25,26,27,28,29,30,31],"tree_info":[0,0,0,0,0,0,0,0,0,0,0,0,0,0,0,0,0,0,0,0,0,0,0,0,0,0,0,0,0,0,0],"trees":[{"base_weights":[8.2061134E-2,-4.305692E0,1.9255129E1,5.8635154E0,-6.075395E0,1.2209065E1,3.0012527E1,8.521436E0,-2.7847824E-1,1.395341E0,-9.103822E0,1.5121841E-1,1.5508998E1,7.7289695E-1,1.7020966E0,1.0873526E1,1.5905228E-1,-1.8310289E0,6.3874817E0,-1.7689585E1,-4.9722943E0,4.0164682E-1,8.474261E-1,6.5388227E-1,2.1489678E-1,-1.4274246E-1,1.659633E-2,3.6032224E-1,1.4739724E-1,-5.8267367E-1,-1.0368775E0,2.95784E-1,-3.92109E-1],"categories":[],"categories_nodes":[],"categories_segments":[],"categories_sizes":[],"default_left":[0,0,0,0,0,0,0,0,0,0,0,0,0,0,0,0,0,0,0,0,0,0,0,0,0,0,0,0,0,0,0,0,0],"id":0,"left_children":[1,3,5,7,9,11,13,15,-1,17,19,-1,21,-1,-1,23,-1,25,27,29,31,-1,-1,-1,-1,-1,-1,-1,-1,-1,-1,-1,-1],"loss_changes":[1.2197149E4,2.1592075E3,1.6801025E3,5.944486E2,2.297785E3,4.986548E2,6.0246094E1,1.5382715E2,0E0,4.9489044E2,2.4660488E3,0E0,3.7592773E0,0E0,0E0,8.872705E1,0E0,4.3022675E1,1.2558075E1,1.8148682E2,1.6087539E3,0E0,0E0,0E0,0E0,0E0,0E0,0E0,0E0,0E0,0E0,0E0,0E0],"parents":[2147483647,0,0,1,1,2,2,3,3,4,4,5,5,6,6,7,7,9,9,10,10,12,12,15,15,17,17,18,18,19,19,20,20],"right_children":[2,4,6,8,10,12,14,16,-1,18,20,-1,22,-1,-1,24,-1,26,28,30,32,-1,-1,-1,-1,-1,-1,-1,-1,-1,-1,-1,-1],"split_conditions":[5.16E2,3.4415E6,5.36E2,4.9984E2,4.8655E2,4.776E6,4.2947E6,4.945E2,-2.7847824E-1,4.8E2,4.8903E2,1.5121841E-1,4.2947E6,7.7289695E-1,1.7020966E0,4.6931E6,1.5905228E-1,4.7835E2,4.8493E2,4.0158E6,3.2448E6,4.0164682E-1,8.474261E-1,6.5388227E-1,2.1489678E-1,-1.4274246E-1,1.659633E-2,3.6032224E-1,1.4739724E-1,-5.8267367E-1,-1.0368775E0,2.95784E-1,-3.92109E-1],"split_indices":[85,67,85,80,1,25,67,92,0,36,23,0,81,0,0,25,0,36,15,32,53,0,0,0,0,0,0,0,0,0,0,0,0],"split_type":[0,0,0,0,0,0,0,0,0,0,0,0,0,0,0,0,0,0,0,0,0,0,0,0,0,0,0,0,0,0,0,0,0],"sum_hessian":[1.43E2,1.17E2,2.6E1,1.7E1,1E2,1.7E1,9E0,1.4E1,3E0,2.9E1,7.1E1,5E0,1.2E1,3E0,6E0,9E0,5E0,1.8E1,1.1E1,2.2E1,4.9E1,3E0,9E0,6E0,3E0,1.2E1,6E0,8E0,3E0,9E0,1.3E1,1E1,3.9E1],"tree_param":{"num_deleted":"0","num_feature":"98","num_nodes":"33","size_leaf_vector":"1"}},{"base_weights":[-4.834402E-1,-4.616229E0,1.8478651E1,4.7628226E0,-6.2633314E0,1.190557E1,2.6490408E1,9.431755E0,-2.6844227E-1,1.4520679E0,-8.929356E0,2.3135109E-1,6.6698116E-1,4.9404868E-1,1.6098585E0,6.435246E-1,1.02171324E-1,-1.742509E0,5.676303E0,-1.8305801E1,-4.2504463E0,1.2015725E-2,-1.7537594E-1,3.4895527E-1,1.7137247E-1,-2.366703E-1,-1.0052496E0,1.4290313E-1,-3.0981594E-1],"categories":[],"categories_nodes":[],"categories_segments":[],"categories_sizes":[],"default_left":[0,0,0,0,0,0,0,0,0,0,0,0,0,0,0,0,0,0,0,0,0,0,0,0,0,0,0,0,0],"id":1,"left_children":[1,3,5,7,9,11,13,15,-1,17,19,-1,-1,-1,-1,-1,-1,21,23,25,27,-1,-1,-1,-1,-1,-1,-1,-1],"loss_changes":[1.0508022E4,1.7291399E3,9.485029E2,8.5480695E2,1.9464929E3,9.484448E1,6.297217E2,2.7857812E2,0E0,3.472571E2,2.9932002E3,0E0,0E0,0E0,0E0,0E0,0E0,5.3338444E1,8.307404E0,4.66479E2,6.816576E2,0E0,0E0,0E0,0E0,0E0,0E0,0E0,0E0],"parents":[2147483647,0,0,1,1,2,2,3,3,4,4,5,5,6,6,7,7,9,9,10,10,17,17,18,18,19,19,20,20],"right_children":[2,4,6,8,10,12,14,16,-1,18,20,-1,-1,-1,-1,-1,-1,22,24,26,28,-1,-1,-1,-1,-1,-1,-1,-1],"split_conditions":[5.16E2,3.4415E6,5.36E2,4.4823E6,4.8655E2,4.8578E6,5.3329E2,4.9264E2,-2.6844227E-1,4.75E2,4.9192E2,2.3135109E-1,6.6698116E-1,4.9404868E-1,1.6098585E0,6.435246E-1,1.02171324E-1,4.7304E2,4.8542E2,4.8172E2,3.4415E6,1.2015725E-2,-1.7537594E-1,3.4895527E-1,1.7137247E-1,-2.366703E-1,-1.0052496E0,1.4290313E-1,-3.0981594E-1],"split_indices":[85,46,85,11,1,25,78,87,0,37,78,0,0,0,0,0,0,14,56,2,74,0,0,0,0,0,0,0,0],"split_type":[0,0,0,0,0,0,0,0,0,0,0,0,0,0,0,0,0,0,0,0,0,0,0,0,0,0,0,0,0],"sum_hessian":[1.32E2,1.09E2,2.3E1,1.6E1,9.3E1,1.4E1,9E0,1.1E1,5E0,2.4E1,6.9E1,3E0,1.1E1,3E0,6E0,7E0,4E0,1.4E1,1E1,2.2E1,4.7E1,7E0,7E0,5E0,5E0,3E0,1.9E1,1E1,3.7E1],"tree_param":{"num_deleted":"0","num_feature":"98","num_nodes":"29","size_leaf_vector":"1"}},{"base_weights":[1.0510298E-1,-3.9898443E0,1.8213327E1,6.108036E0,-5.5656066E0,1.1388653E1,2.648437E1,9.250721E0,-2.816349E-1,1.5288686E0,-8.210534E0,1.22859955E-1,1.3260742E1,4.7552186E-1,1.5830395E0,6.0647005E-1,1.1094757E-1,-1.4644955E0,5.6420617E0,-1.730083E1,-3.405066E0,7.452174E-1,3.8250518E-1,-1.5164737E-1,-3.164215E-3,3.3626577E-1,1.3902222E-1,-2.277954E-1,-9.415844E-1,3.450527E-1,-2.5018093E-1],"categories":[],"categories_nodes":[],"categories_segments":[],"categories_sizes":[],"default_left":[0,0,0,0,0,0,0,0,0,0,0,0,0,0,0,0,0,0,0,0,0,0,0,0,0,0,0,0,0,0,0],"id":2,"left_children":[1,3,5,7,9,11,13,15,-1,17,19,-1,21,-1,-1,-1,-1,23,25,27,29,-1,-1,-1,-1,-1,-1,-1,-1,-1,-1],"loss_changes":[1.04539795E4,1.8638588E3,1.1660059E3,6.4246533E2,1.88899E3,2.349436E2,6.6539795E2,2.3623425E2,0E0,3.5300674E2,3.1299575E3,0E0,5.8620605E0,0E0,0E0,0E0,0E0,3.716951E1,1.8498901E1,4.019712E2,8.417992E2,0E0,0E0,0E0,0E0,0E0,0E0,0E0,0E0,0E0,0E0],"parents":[2147483647,0,0,1,1,2,2,3,3,4,4,5,5,6,6,7,7,9,9,10,10,12,12,17,17,18,18,19,19,20,20],"right_children":[2,4,6,8,10,12,14,16,-1,18,20,-1,22,-1,-1,-1,-1,24,26,28,30,-1,-1,-1,-1,-1,-1,-1,-1,-1,-1],"split_conditions":[5.21E2,3.4415E6,5.36E2,4.4823E6,4.8655E2,4.2543E6,5.3329E2,4.9264E2,-2.816349E-1,4.8E2,4.9192E2,1.22859955E-1,5.3244E2,4.7552186E-1,1.5830395E0,6.0647005E-1,1.1094757E-1,4.0561E6,4.8455E2,4.8668E2,4.8854E2,7.452174E-1,3.8250518E-1,-1.5164737E-1,-3.164215E-3,3.3626577E-1,1.3902222E-1,-2.277954E-1,-9.415844E-1,3.450527E-1,-2.5018093E-1],"split_indices":[78,53,85,18,1,53,78,94,0,36,78,0,85,0,0,0,0,46,58,8,79,0,0,0,0,0,0,0,0,0,0],"split_type":[0,0,0,0,0,0,0,0,0,0,0,0,0,0,0,0,0,0,0,0,0,0,0,0,0,0,0,0,0,0,0],"sum_hessian":[1.39E2,1.14E2,2.5E1,1.5E1,9.9E1,1.5E1,1E1,1.2E1,3E0,2.7E1,7.2E1,3E0,1.2E1,3E0,7E0,8E0,4E0,1.6E1,1.1E1,2.4E1,4.8E1,8E0,4E0,7E0,9E0,7E0,4E0,3E0,2.1E1,6E0,4.2E1],"tree_param":{"num_deleted":"0","num_feature":"98","num_nodes":"31","size_leaf_vector":"1"}},{"base_weights":[-5.6956045E-2,-3.722053E0,1.615624E1,7.0903473E0,-4.933849E0,-1.0365944E-1,1.862413E1,5.3169644E-1,8.872223E-2,1.5887091E0,-7.241612E0,1.319479E1,2.5603685E1,-1.395463E0,5.6838937E0,-1.499422E1,-2.995298E0,8.11813E-1,4.2519855E-1,1.4658378E0,6.816578E-1,-1.3950883E-1,2.6118089E-2,3.1746218E-1,1.3829422E-1,-1.24046326E-1,-8.227505E-1,6.165125E-1,-2.2809727E-1],"categories":[],"categories_nodes":[],"categories_segments":[],"categories_sizes":[],"default_left":[0,0,0,0,0,0,0,0,0,0,0,0,0,0,0,0,0,0,0,0,0,0,0,0,0,0,0,0,0],"id":3,"left_children":[1,3,5,7,9,-1,11,-1,-1,13,15,17,19,21,23,25,27,-1,-1,-1,-1,-1,-1,-1,-1,-1,-1,-1,-1],"loss_changes":[8.379346E3,1.5417612E3,1.2083052E3,2.0717871E2,1.5769673E3,0E0,5.3373584E2,0E0,0E0,3.5011227E2,2.4899287E3,7.593213E1,3.4716797E-1,4.692935E1,5.7366943E0,4.527173E2,1.2807463E3,0E0,0E0,0E0,0E0,0E0,0E0,0E0,0E0,0E0,0E0,0E0,0E0],"parents":[2147483647,0,0,1,1,2,2,3,3,4,4,6,6,9,9,10,10,11,11,12,12,13,13,14,14,15,15,16,16],"right_children":[2,4,6,8,10,-1,12,-1,-1,14,16,18,20,22,24,26,28,-1,-1,-1,-1,-1,-1,-1,-1,-1,-1,-1,-1],"split_conditions":[5.16E2,3.2448E6,3.1835E6,4.945E2,4.8608E2,-1.0365944E-1,5.36E2,5.3169644E-1,8.872223E-2,4.8E2,4.8903E2,5.19E2,5.273E2,4.5041E6,4.7466E2,4.8235E2,4.8502E2,8.11813E-1,4.2519855E-1,1.4658378E0,6.816578E-1,-1.3950883E-1,2.6118089E-2,3.1746218E-1,1.3829422E-1,-1.24046326E-1,-8.227505E-1,6.165125E-1,-2.2809727E-1],"split_indices":[92,67,32,92,8,0,85,0,0,36,23,84,8,46,2,0,91,0,0,0,0,0,0,0,0,0,0,0,0],"split_type":[0,0,0,0,0,0,0,0,0,0,0,0,0,0,0,0,0,0,0,0,0,0,0,0,0,0,0,0,0],"sum_hessian":[1.39E2,1.14E2,2.5E1,1.1E1,1.03E2,3E0,2.2E1,6E0,5E0,2.7E1,7.6E1,1.4E1,8E0,1.6E1,1.1E1,2.6E1,5E1,7E0,7E0,5E0,3E0,9E0,7E0,8E0,3E0,3E0,2.3E1,4E0,4.6E1],"tree_param":{"num_deleted":"0","num_feature":"98","num_nodes":"29","size_leaf_vector":"1"}},{"base_weights":[8.856025E-1,-3.192717E0,1.6293325E1,4.087266E0,-4.933263E0,1.0538827E1,2.4228569E1,7.755624E0,-2.8432693E0,1.7091687E0,-7.5320935E0,7.0468426E-1,6.9954E0,4.2232475E-1,1.4545517E0,7.069206E-2,9.35667E0,-3.130829E-1,2.3004761E-2,-1.5321939E0,5.3483276E0,-1.462408E1,-2.9746642E0,4.5036736E-1,6.1132815E-2,5.5236053E-1,1.8182106E-1,-1.5345593E-1,2.2158815E-2,1.1593056E-1,3.050305E-1,-1.193943E-1,-8.129199E-1,1.4267121E-1,-2.835304E-1],"categories":[],"categories_nodes":[],"categories_segments":[],"categories_sizes":[],"default_left":[0,0,0,0,0,0,0,0,0,0,0,0,0,0,0,0,0,0,0,0,0,0,0,0,0,0,0,0,0,0,0,0,0,0,0],"id":4,"left_children":[1,3,5,7,9,11,13,15,17,19,21,-1,23,-1,-1,-1,25,-1,-1,27,29,31,33,-1,-1,-1,-1,-1,-1,-1,-1,-1,-1,-1,-1],"loss_changes":[8.409424E3,1.3633047E3,1.0232334E3,5.559488E2,1.4974534E3,1.2814392E2,5.984204E2,1.2891998E2,9.321843E1,3.030905E2,1.9604148E3,0E0,1.1674609E2,0E0,0E0,0E0,6.620117E1,0E0,0E0,4.386409E1,1.3205444E1,4.411255E2,6.289564E2,0E0,0E0,0E0,0E0,0E0,0E0,0E0,0E0,0E0,0E0,0E0,0E0],"parents":[2147483647,0,0,1,1,2,2,3,3,4,4,5,5,6,6,7,7,8,8,9,9,10,10,12,12,16,16,19,19,20,20,21,21,22,22],"right_children":[2,4,6,8,10,12,14,16,18,20,22,-1,24,-1,-1,-1,26,-1,-1,28,30,32,34,-1,-1,-1,-1,-1,-1,-1,-1,-1,-1,-1,-1],"split_conditions":[5.16E2,3.5352E6,5.36E2,4.9575E2,4.8608E2,5.2008E2,5.3329E2,4.9016E2,3.9351E6,4.755E2,4.872E2,7.0468426E-1,5.3151E2,4.2232475E-1,1.4545517E0,7.069206E-2,5.0255E2,-3.130829E-1,2.3004761E-2,4.0561E6,4.1932E6,4.8235E2,4.9266E2,4.5036736E-1,6.1132815E-2,5.5236053E-1,1.8182106E-1,-1.5345593E-1,2.2158815E-2,1.1593056E-1,3.050305E-1,-1.193943E-1,-8.129199E-1,1.4267121E-1,-2.835304E-1],"split_indices":[92,60,85,91,8,77,78,45,53,35,86,0,35,0,0,0,57,0,0,53,81,0,91,0,0,0,0,0,0,0,0,0,0,0,0],"split_type":[0,0,0,0,0,0,0,0,0,0,0,0,0,0,0,0,0,0,0,0,0,0,0,0,0,0,0,0,0,0,0,0,0,0,0],"sum_hessian":[1.32E2,1.05E2,2.7E1,2E1,8.5E1,1.7E1,1E1,1.3E1,7E0,2.4E1,6.1E1,7E0,1E1,3E0,7E0,3E0,1E1,3E0,4E0,1.3E1,1.1E1,2.3E1,3.8E1,7E0,3E0,7E0,3E0,7E0,6E0,3E0,8E0,3E0,2E1,1.2E1,2.6E1],"tree_param":{"num_deleted":"0","num_feature":"98","num_nodes":"35","size_leaf_vector":"1"}},{"base_weights":[2.507501E-1,-3.5455315E0,1.4921347E1,6.314303E0,-4.85128E0,9.628754E0,2.3187757E1,4.887495E-1,1.4571882E0,1.2713481E0,-7.2678695E0,-1.1010857E-1,1.1846104E1,4.064873E-1,1.3909148E0,1.4665185E-1,-1.9147873E-2,-1.6189744E0,5.175537E0,-1.3833721E1,-2.7291267E0,7.321976E-1,3.866011E-1,-1.2247505E-1,1.803371E-3,2.9568532E-1,1.4058624E-1,-1.7617929E-1,-8.1322193E-1,3.8167694E-1,-1.9631511E-1],"categories":[],"categories_nodes":[],"categories_segments":[],"categories_sizes":[],"default_left":[0,0,0,0,0,0,0,0,0,0,0,0,0,0,0,0,0,0,0,0,0,0,0,0,0,0,0,0,0,0,0],"id":5,"left_children":[1,3,5,7,9,11,13,-1,15,17,19,-1,21,-1,-1,-1,-1,23,25,27,29,-1,-1,-1,-1,-1,-1,-1,-1,-1,-1],"loss_changes":[8.128493E3,1.5240707E3,1.0892534E3,2.2108136E2,1.5332148E3,5.5075305E2,5.408374E2,0E0,2.0133663E1,3.4691006E2,2.167499E3,0E0,8.245239E1,0E0,0E0,0E0,0E0,2.4830372E1,6.055908E0,6.94522E2,5.8823846E2,0E0,0E0,0E0,0E0,0E0,0E0,0E0,0E0,0E0,0E0],"parents":[2147483647,0,0,1,1,2,2,3,3,4,4,5,5,6,6,8,8,9,9,10,10,12,12,17,17,18,18,19,19,20,20],"right_children":[2,4,6,8,10,12,14,-1,16,18,20,-1,22,-1,-1,-1,-1,24,26,28,30,-1,-1,-1,-1,-1,-1,-1,-1,-1,-1],"split_conditions":[5.16E2,3.2448E6,5.36E2,4.945E2,4.8655E2,3.1835E6,5.3329E2,4.887495E-1,3.737E6,4.7466E2,4.9298E2,-1.1010857E-1,5.19E2,4.064873E-1,1.3909148E0,1.4665185E-1,-1.9147873E-2,4.5733E6,4.5304E6,4.7586E2,4.945E2,7.321976E-1,3.866011E-1,-1.2247505E-1,1.803371E-3,2.9568532E-1,1.4058624E-1,-1.7617929E-1,-8.1322193E-1,3.8167694E-1,-1.9631511E-1],"split_indices":[92,67,85,92,1,32,78,0,11,37,78,0,84,0,0,0,0,60,18,73,78,0,0,0,0,0,0,0,0,0,0],"split_type":[0,0,0,0,0,0,0,0,0,0,0,0,0,0,0,0,0,0,0,0,0,0,0,0,0,0,0,0,0,0,0],"sum_hessian":[1.44E2,1.15E2,2.9E1,1.3E1,1.02E2,1.9E1,1E1,7E0,6E0,2.9E1,7.3E1,3E0,1.6E1,3E0,7E0,3E0,3E0,1.7E1,1.2E1,2.9E1,4.4E1,8E0,8E0,1.1E1,6E0,8E0,4E0,6E0,2.3E1,4E0,4E1],"tree_param":{"num_deleted":"0","num_feature":"98","num_nodes":"31","size_leaf_vector":"1"}},{"base_weights":[2.8563568E-2,-3.3243172E0,1.3935752E1,-4.6090035E0,4.6718636E0,-1.0597954E-1,1.6030985E1,-8.56806E0,-1.429941E0,5.218525E-1,-9.7184247E-1,1.957237E1,4.5579043E-1,-1.2419697E0,-1.5504693E1,1.8695738E0,-7.2975707E0,1.441143E-1,-1.6896439E-1,1.2679886E0,5.6692123E-1,1.0604725E-1,-1.4763631E-1,-8.4282E-1,-2.6039582E-1,2.667646E-1,-1.1588583E-1,-4.718797E-1,-9.875074E-2],"categories":[],"categories_nodes":[],"categories_segments":[],"categories_sizes":[],"default_left":[0,0,0,0,0,0,0,0,0,0,0,0,0,0,0,0,0,0,0,0,0,0,0,0,0,0,0,0,0],"id":6,"left_children":[1,3,5,7,9,-1,11,13,15,-1,17,19,-1,21,23,25,27,-1,-1,-1,-1,-1,-1,-1,-1,-1,-1,-1,-1],"loss_changes":[6.481148E3,1.1720623E3,9.42251E2,1.2085986E3,5.307354E2,0E0,4.0932568E2,2.1659348E3,1.0784617E3,0E0,9.324751E1,4.2725732E2,0E0,1.3283139E2,2.1841406E2,5.3479663E2,2.0916858E2,0E0,0E0,0E0,0E0,0E0,0E0,0E0,0E0,0E0,0E0,0E0,0E0],"parents":[2147483647,0,0,1,1,2,2,3,3,4,4,6,6,7,7,8,8,10,10,11,11,13,13,14,14,15,15,16,16],"right_children":[2,4,6,8,10,-1,12,14,16,-1,18,20,-1,22,24,26,28,-1,-1,-1,-1,-1,-1,-1,-1,-1,-1,-1,-1],"split_conditions":[5.16E2,5.3214E6,3.1835E6,4.923E2,4.7977E2,-1.0597954E-1,5.8893E6,4.8172E2,5.012E2,5.218525E-1,3.1668E6,5.2681E2,4.5579043E-1,4.7941E2,4.9471E2,4.959E2,5.2098E2,1.441143E-1,-1.6896439E-1,1.2679886E0,5.6692123E-1,1.0604725E-1,-1.4763631E-1,-8.4282E-1,-2.6039582E-1,2.667646E-1,-1.1588583E-1,-4.718797E-1,-9.875074E-2],"split_indices":[92,95,32,71,91,0,11,2,16,0,4,7,0,92,85,91,14,0,0,0,0,0,0,0,0,0,0,0,0],"split_type":[0,0,0,0,0,0,0,0,0,0,0,0,0,0,0,0,0,0,0,0,0,0,0,0,0,0,0,0,0],"sum_hessian":[1.37E2,1.11E2,2.6E1,9.6E1,1.5E1,3E0,2.3E1,4.2E1,5.4E1,7E0,8E0,1.4E1,9E0,2.1E1,2.1E1,3.5E1,1.9E1,3E0,5E0,7E0,7E0,7E0,1.4E1,1.8E1,3E0,1.9E1,1.6E1,1.3E1,6E0],"tree_param":{"num_deleted":"0","num_feature":"98","num_nodes":"29","size_leaf_vector":"1"}},{"base_weights":[-1.5078543E-1,-3.3422801E0,1.4339491E1,4.2782416E0,-4.3265185E0,8.691969E0,2.1250477E1,6.3095183E0,-3.1997986E-2,1.1124786E0,-6.4165635E0,1.8872163E-1,1.0016612E1,3.7276268E-1,1.274589E0,1.10231936E-1,4.3393326E-1,-1.3423574E0,4.9065957E0,-1.18337145E1,-2.8222845E0,5.5390507E-1,2.5620538E-1,-1.0896677E-1,2.0189775E-2,2.821333E-1,1.3737825E-1,2.6606256E-1,-6.968453E-1,-1.8150811E-1,3.3849716E-1],"categories":[],"categories_nodes":[],"categories_segments":[],"categories_sizes":[],"default_left":[0,0,0,0,0,0,0,0,0,0,0,0,0,0,0,0,0,0,0,0,0,0,0,0,0,0,0,0,0,0,0],"id":7,"left_children":[1,3,5,7,9,11,13,15,-1,17,19,-1,21,-1,-1,-1,-1,23,25,27,29,-1,-1,-1,-1,-1,-1,-1,-1,-1,-1],"loss_changes":[6.6610527E3,9.035585E2,8.300703E2,1.43901E2,1.2007518E3,6.641675E1,4.5355908E2,7.811731E1,0E0,2.860045E2,1.4463794E3,0E0,5.5548096E0,0E0,0E0,0E0,0E0,2.864835E1,3.5667725E0,1.1565669E3,3.8879532E2,0E0,0E0,0E0,0E0,0E0,0E0,0E0,0E0,0E0,0E0],"parents":[2147483647,0,0,1,1,2,2,3,3,4,4,5,5,6,6,7,7,9,9,10,10,12,12,17,17,18,18,19,19,20,20],"right_children":[2,4,6,8,10,12,14,16,-1,18,20,-1,22,-1,-1,-1,-1,24,26,28,30,-1,-1,-1,-1,-1,-1,-1,-1,-1,-1],"split_conditions":[5.21E2,3.2448E6,5.36E2,4.4166E6,4.8655E2,4.776E6,5.3329E2,4.4166E6,-3.1997986E-2,4.7747E2,4.9298E2,1.8872163E-1,5.3151E2,3.7276268E-1,1.274589E0,1.10231936E-1,4.3393326E-1,4.7835E2,4.5304E6,3.4415E6,5.2141E2,5.5390507E-1,2.5620538E-1,-1.0896677E-1,2.0189775E-2,2.821333E-1,1.3737825E-1,2.6606256E-1,-6.968453E-1,-1.8150811E-1,3.3849716E-1],"split_indices":[85,67,85,32,1,25,78,95,0,31,78,0,91,0,0,0,0,36,18,46,71,0,0,0,0,0,0,0,0,0,0],"split_type":[0,0,0,0,0,0,0,0,0,0,0,0,0,0,0,0,0,0,0,0,0,0,0,0,0,0,0,0,0,0,0],"sum_hessian":[1.42E2,1.17E2,2.5E1,1.3E1,1.04E2,1.5E1,1E1,9E0,4E0,2.9E1,7.5E1,4E0,1.1E1,3E0,7E0,4E0,5E0,1.8E1,1.1E1,2.9E1,4.6E1,8E0,3E0,1.2E1,6E0,7E0,4E0,3E0,2.6E1,4.3E1,3E0],"tree_param":{"num_deleted":"0","num_feature":"98","num_nodes":"31","size_leaf_vector":"1"}},{"base_weights":[-1.917312E-1,-3.593694E0,1.3188113E1,-7.124644E0,-9.177815E-1,8.467105E0,2.131132E1,-4.3845087E-1,-1.09928055E1,2.5397432E0,-3.0879734E0,-1.016983E-1,1.043988E1,1.2102822E0,5.4592097E-1,2.569004E0,-2.4068832E0,4.253132E-1,-1.3385787E1,-3.385498E0,4.900911E0,3.1026306E0,-4.2378664E0,6.542774E-1,3.3171132E-1,2.7970886E-2,1.8314362E-1,-3.8306538E-2,-1.9599737E-1,-3.7769002E-1,-8.357542E-1,3.0204773E-2,-3.763058E-1,4.0711385E-1,1.1657957E-1,5.8864214E-2,2.1261597E-1,-2.793374E-1,1.6064276E-1],"categories":[],"categories_nodes":[],"categories_segments":[],"categories_sizes":[],"default_left":[0,0,0,0,0,0,0,0,0,0,0,0,0,0,0,0,0,0,0,0,0,0,0,0,0,0,0,0,0,0,0,0,0,0,0,0,0,0,0],"id":8,"left_children":[1,3,5,7,9,11,13,15,17,19,21,-1,23,-1,-1,25,27,-1,29,31,33,35,37,-1,-1,-1,-1,-1,-1,-1,-1,-1,-1,-1,-1,-1,-1,-1,-1],"loss_changes":[6.510912E3,1.0705916E3,9.316968E2,1.2624807E3,5.0307306E2,4.3555945E2,3.651709E1,1.1866276E2,1.5603516E3,3.8034473E2,3.0500836E2,0E0,8.435193E1,0E0,0E0,1.5536705E1,2.6787575E1,0E0,4.1739746E2,1.3670154E2,1.3924954E2,1.0488655E1,3.6970453E2,0E0,0E0,0E0,0E0,0E0,0E0,0E0,0E0,0E0,0E0,0E0,0E0,0E0,0E0,0E0,0E0],"parents":[2147483647,0,0,1,1,2,2,3,3,4,4,5,5,6,6,7,7,8,8,9,9,10,10,12,12,15,15,16,16,18,18,19,19,20,20,21,21,22,22],"right_children":[2,4,6,8,10,12,14,16,18,20,22,-1,24,-1,-1,26,28,-1,30,32,34,36,38,-1,-1,-1,-1,-1,-1,-1,-1,-1,-1,-1,-1,-1,-1,-1,-1],"split_conditions":[5.16E2,4.923E2,5.36E2,4.8655E2,4.9163E2,3.1835E6,5.273E2,4.7466E2,3.1722E6,4.9225E2,4.9023E2,-1.016983E-1,5.19E2,1.2102822E0,5.4592097E-1,4.1932E6,4.77E2,4.253132E-1,4.1306E6,4.7638E6,4.945E2,4.8973E2,5.1431E2,6.542774E-1,3.3171132E-1,2.7970886E-2,1.8314362E-1,-3.8306538E-2,-1.9599737E-1,-3.7769002E-1,-8.357542E-1,3.0204773E-2,-3.763058E-1,4.0711385E-1,1.1657957E-1,5.8864214E-2,2.1261597E-1,-2.793374E-1,1.6064276E-1],"split_indices":[92,78,85,8,65,32,8,86,53,64,3,0,84,0,0,88,0,0,25,60,92,42,52,0,0,0,0,0,0,0,0,0,0,0,0,0,0,0,0],"split_type":[0,0,0,0,0,0,0,0,0,0,0,0,0,0,0,0,0,0,0,0,0,0,0,0,0,0,0,0,0,0,0,0,0,0,0,0,0,0,0],"sum_hessian":[1.41E2,1.13E2,2.8E1,4.8E1,6.5E1,1.9E1,9E0,1.8E1,3E1,2.5E1,4E1,3E0,1.6E1,6E0,3E0,7E0,1.1E1,3E0,2.7E1,7E0,1.8E1,6E0,3.4E1,8E0,8E0,3E0,4E0,6E0,5E0,1.1E1,1.6E1,4E0,3E0,7E0,1.1E1,3E0,3E0,2.9E1,5E0],"tree_param":{"num_deleted":"0","num_feature":"98","num_nodes":"39","size_leaf_vector":"1"}},{"base_weights":[1.2451014E-1,-2.7548947E0,1.1226339E1,5.332682E0,-4.016158E0,7.617865E0,1.7997799E1,5.049883E-1,-1.0098648E-1,-6.9977784E0,-1.1351237E0,1.544075E-2,8.889532E0,1.1298305E0,3.300068E-1,1.780407E-1,-1.5051149E-1,8.454822E-2,-1.2448974E1,3.0476508E0,-3.6621428E0,2.5128594E-1,5.5458146E-1,-8.302107E-2,2.3618546E-1,-6.98877E-1,-1.616745E-1,2.937675E-1,-3.0224884E-1,5.3739514E-2,-2.984503E-1],"categories":[],"categories_nodes":[],"categories_segments":[],"categories_sizes":[],"default_left":[0,0,0,0,0,0,0,0,0,0,0,0,0,0,0,0,0,0,0,0,0,0,0,0,0,0,0,0,0,0,0],"id":9,"left_children":[1,3,5,7,9,11,13,-1,15,17,19,-1,21,-1,-1,-1,-1,23,25,27,29,-1,-1,-1,-1,-1,-1,-1,-1,-1,-1],"loss_changes":[4.346427E3,1.1230778E3,5.4706494E2,3.8956128E2,7.995309E2,1.8314832E2,3.2260034E2,0E0,9.5943405E1,1.7769814E3,5.2908856E2,0E0,8.8901E1,0E0,0E0,0E0,0E0,1.7784244E2,3.2105225E2,5.240295E2,3.4516656E2,0E0,0E0,0E0,0E0,0E0,0E0,0E0,0E0,0E0,0E0],"parents":[2147483647,0,0,1,1,2,2,3,3,4,4,5,5,6,6,8,8,9,9,10,10,12,12,17,17,18,18,19,19,20,20],"right_children":[2,4,6,8,10,12,14,-1,16,18,20,-1,22,-1,-1,-1,-1,24,26,28,30,-1,-1,-1,-1,-1,-1,-1,-1,-1,-1],"split_conditions":[5.16E2,3.2448E6,5.36E2,4.9264E2,4.9129E2,3.1835E6,5.275E2,5.049883E-1,4.9163E2,4.8495E2,4.9266E2,1.544075E-2,4.7264E6,1.1298305E0,3.300068E-1,1.780407E-1,-1.5051149E-1,4.8E2,4.9471E2,4.9973E6,4.9334E2,2.5128594E-1,5.5458146E-1,-8.302107E-2,2.3618546E-1,-6.98877E-1,-1.616745E-1,2.937675E-1,-3.0224884E-1,5.3739514E-2,-2.984503E-1],"split_indices":[78,53,85,94,66,39,35,0,0,0,91,0,88,0,0,0,0,36,85,53,51,0,0,0,0,0,0,0,0,0,0],"split_type":[0,0,0,0,0,0,0,0,0,0,0,0,0,0,0,0,0,0,0,0,0,0,0,0,0,0,0,0,0,0,0],"sum_hessian":[1.34E2,1.07E2,2.7E1,1.4E1,9.3E1,1.9E1,8E0,7E0,7E0,4.5E1,4.8E1,3E0,1.6E1,5E0,3E0,3E0,4E0,2E1,2.5E1,1.8E1,3E1,7E0,9E0,1.5E1,5E0,2.1E1,4E0,1.4E1,4E0,1E1,2E1],"tree_param":{"num_deleted":"0","num_feature":"98","num_nodes":"31","size_leaf_vector":"1"}},{"base_weights":[1.1356957E-1,-3.091722E0,1.1825547E1,6.326907E0,-4.0308414E0,7.324811E0,1.9644464E1,4.4593865E-1,9.756439E-2,1.397428E0,-5.9350657E0,-7.338448E-2,8.962763E0,1.1157044E0,5.030754E-1,-1.0024776E0,2.3805808E-1,-1.2706623E1,-2.2845657E0,5.880766E-1,2.9137358E-1,-6.4489193E-4,-1.3248138E-1,-3.7788987E-1,-7.565238E-1,5.6734066E-2,-2.3837046E-1],"categories":[],"categories_nodes":[],"categories_segments":[],"categories_sizes":[],"default_left":[0,0,0,0,0,0,0,0,0,0,0,0,0,0,0,0,0,0,0,0,0,0,0,0,0,0,0],"id":10,"left_children":[1,3,5,7,9,11,13,-1,-1,15,17,-1,19,-1,-1,21,-1,23,25,-1,-1,-1,-1,-1,-1,-1,-1],"loss_changes":[5.0669614E3,9.630959E2,8.766433E2,9.600708E1,1.01094824E3,3.011886E2,3.131543E1,0E0,0E0,2.1466167E2,1.75078E3,0E0,8.063428E1,0E0,0E0,2.604561E1,0E0,1.9764697E2,4.1290338E2,0E0,0E0,0E0,0E0,0E0,0E0,0E0,0E0],"parents":[2147483647,0,0,1,1,2,2,3,3,4,4,5,5,6,6,9,9,10,10,12,12,15,15,17,17,18,18],"right_children":[2,4,6,8,10,12,14,-1,-1,16,18,-1,20,-1,-1,22,-1,24,26,-1,-1,-1,-1,-1,-1,-1,-1],"split_conditions":[5.16E2,3.2062E6,5.36E2,4.9264E2,4.841E2,3.1835E6,5.273E2,4.4593865E-1,9.756439E-2,4.8E2,4.9192E2,-7.338448E-2,5.2008E2,1.1157044E0,5.030754E-1,4.772E2,2.3805808E-1,4.0158E6,3.7076E6,5.880766E-1,2.9137358E-1,-6.4489193E-4,-1.3248138E-1,-3.7788987E-1,-7.565238E-1,5.6734066E-2,-2.3837046E-1],"split_indices":[85,46,85,87,0,25,8,0,0,36,78,0,84,0,0,3,0,18,67,0,0,0,0,0,0,0,0],"split_type":[0,0,0,0,0,0,0,0,0,0,0,0,0,0,0,0,0,0,0,0,0,0,0,0,0,0,0],"sum_hessian":[1.33E2,1.05E2,2.8E1,9E0,9.6E1,1.9E1,9E0,5E0,4E0,2.5E1,7.1E1,3E0,1.6E1,6E0,3E0,1.5E1,1E1,2.4E1,4.7E1,7E0,9E0,1E1,5E0,9E0,1.5E1,2E1,2.7E1],"tree_param":{"num_deleted":"0","num_feature":"98","num_nodes":"27","size_leaf_vector":"1"}},{"base_weights":[1.908825E-1,-2.3755436E0,1.2296779E1,-4.2644734E0,1.2759705E0,7.415511E0,1.7835163E1,-8.200512E0,-8.7001145E-1,7.387802E0,-1.2112945E0,4.24151E-1,1.179554E-1,4.3217546E-1,1.0100797E0,-1.3758602E0,-1.3009747E1,3.1972437E0,-3.6523414E0,1.289805E-1,5.2268547E-1,-2.5495844E0,4.0624925E-1,6.994114E-2,-1.844686E-1,-3.6700842E-1,-7.660119E-1,5.0824445E-2,3.694669E-1,8.302994E-2,-2.4982016E-1,6.6347085E-2,-2.1258223E-1],"categories":[],"categories_nodes":[],"categories_segments":[],"categories_sizes":[],"default_left":[0,0,0,0,0,0,0,0,0,0,0,0,0,0,0,0,0,0,0,0,0,0,0,0,0,0,0,0,0,0,0,0,0],"id":11,"left_children":[1,3,5,7,9,11,13,15,17,19,21,-1,-1,-1,-1,23,25,27,29,-1,-1,31,-1,-1,-1,-1,-1,-1,-1,-1,-1,-1,-1],"loss_changes":[4.4409937E3,8.193409E2,5.4360156E2,1.0350029E3,6.3222034E2,6.095398E1,6.4653076E1,1.1636692E3,4.982846E2,1.4993115E2,3.9555475E2,0E0,0E0,0E0,0E0,1.0786896E2,1.6263672E2,1.5704358E2,1.93961E2,0E0,0E0,1.8378989E2,0E0,0E0,0E0,0E0,0E0,0E0,0E0,0E0,0E0,0E0,0E0],"parents":[2147483647,0,0,1,1,2,2,3,3,4,4,5,5,6,6,7,7,8,8,9,9,10,10,15,15,16,16,17,17,18,18,21,21],"right_children":[2,4,6,8,10,12,14,16,18,20,22,-1,-1,-1,-1,24,26,28,30,-1,-1,32,-1,-1,-1,-1,-1,-1,-1,-1,-1,-1,-1],"split_conditions":[5.21E2,4.7798E6,5.36E2,4.923E2,4.859E2,5.3023E2,4.2947E6,4.8172E2,4.9088E2,4.7949E2,5.3592E2,4.24151E-1,1.179554E-1,4.3217546E-1,1.0100797E0,4.7949E2,4.1306E6,4.959E2,3.2448E6,1.289805E-1,5.2268547E-1,4.8961E2,4.0624925E-1,6.994114E-2,-1.844686E-1,-3.6700842E-1,-7.660119E-1,5.0824445E-2,3.694669E-1,8.302994E-2,-2.4982016E-1,6.6347085E-2,-2.1258223E-1],"split_indices":[85,95,85,92,92,52,67,2,65,8,50,0,0,0,0,92,32,28,67,0,0,17,0,0,0,0,0,0,0,0,0,0,0],"split_type":[0,0,0,0,0,0,0,0,0,0,0,0,0,0,0,0,0,0,0,0,0,0,0,0,0,0,0,0,0,0,0,0,0],"sum_hessian":[1.41E2,1.17E2,2.4E1,7.7E1,4E1,1.4E1,1E1,3.5E1,4.2E1,1.1E1,2.9E1,1.1E1,3E0,3E0,7E0,1.5E1,2E1,1.7E1,2.5E1,5E0,6E0,2.6E1,3E0,7E0,8E0,7E0,1.3E1,1.2E1,5E0,5E0,2E1,8E0,1.8E1],"tree_param":{"num_deleted":"0","num_feature":"98","num_nodes":"33","size_leaf_vector":"1"}},{"base_weights":[-5.140256E-2,-2.6207838E0,1.0989325E1,4.1772046E0,-3.519338E0,7.3972473E0,1.7351562E1,4.743702E-1,1.8664773E0,1.357373E0,-5.448824E0,7.669652E-2,9.381722E0,9.9899673E-1,4.5355567E-1,3.2516556E0,-6.8524934E-2,-5.185274E-1,4.214434E0,-1.0636896E1,-2.4170163E0,2.7775684E-1,5.778635E-1,8.245011E-2,1.9417237E-1,-5.860126E-2,3.8459342E-2,2.3328553E-1,1.0727272E-1,-2.184105E-2,-5.9468526E-1,1.2861222E-1,-2.0757774E-1],"categories":[],"categories_nodes":[],"categories_segments":[],"categories_sizes":[],"default_left":[0,0,0,0,0,0,0,0,0,0,0,0,0,0,0,0,0,0,0,0,0,0,0,0,0,0,0,0,0,0,0,0,0],"id":12,"left_children":[1,3,5,7,9,11,13,-1,15,17,19,-1,21,-1,-1,23,-1,25,27,29,31,-1,-1,-1,-1,-1,-1,-1,-1,-1,-1,-1,-1],"loss_changes":[4.0570334E3,7.232706E2,4.8869507E2,1.540779E2,9.765792E2,2.0668567E2,1.4636719E1,0E0,5.3778072E1,1.6297217E2,1.1382542E3,0E0,5.23468E1,0E0,0E0,1.6965332E0,0E0,1.6890358E1,1.194107E0,3.4093237E2,4.2607382E2,0E0,0E0,0E0,0E0,0E0,0E0,0E0,0E0,0E0,0E0,0E0,0E0],"parents":[2147483647,0,0,1,1,2,2,3,3,4,4,5,5,6,6,8,8,9,9,10,10,12,12,15,15,17,17,18,18,19,19,20,20],"right_children":[2,4,6,8,10,12,14,-1,16,18,20,-1,22,-1,-1,24,-1,26,28,30,32,-1,-1,-1,-1,-1,-1,-1,-1,-1,-1,-1,-1],"split_conditions":[5.16E2,3.2448E6,5.36E2,3.1734E6,4.8172E2,4.776E6,5.273E2,4.743702E-1,4.4823E6,4.8E2,4.9298E2,7.669652E-2,5.2875E6,9.9899673E-1,4.5355567E-1,4.9597E2,-6.8524934E-2,4.6636E6,4.5304E6,3.9483E6,4.9245E2,2.7775684E-1,5.778635E-1,8.245011E-2,1.9417237E-1,-5.860126E-2,3.8459342E-2,2.3328553E-1,1.0727272E-1,-2.184105E-2,-5.9468526E-1,1.2861222E-1,-2.0757774E-1],"split_indices":[85,67,85,46,2,25,8,0,32,36,78,0,81,0,0,38,0,60,18,32,84,0,0,0,0,0,0,0,0,0,0,0,0],"split_type":[0,0,0,0,0,0,0,0,0,0,0,0,0,0,0,0,0,0,0,0,0,0,0,0,0,0,0,0,0,0,0,0,0],"sum_hessian":[1.41E2,1.15E2,2.6E1,1.3E1,1.02E2,1.8E1,8E0,3E0,1E1,2.9E1,7.3E1,5E0,1.3E1,5E0,3E0,7E0,3E0,1.8E1,1.1E1,2.6E1,4.7E1,6E0,7E0,3E0,4E0,1.2E1,6E0,8E0,3E0,3E0,2.3E1,1.2E1,3.5E1],"tree_param":{"num_deleted":"0","num_feature":"98","num_nodes":"33","size_leaf_vector":"1"}},{"base_weights":[-2.821296E-2,-2.520924E0,1.0589935E1,4.895451E0,-3.5974064E0,-8.614426E-2,1.2200825E1,4.6850738E-1,1.7210877E0,1.0317862E0,-5.3003793E0,6.3526545E0,1.4727869E1,-1.4309159E-1,4.094029E0,-1.0138209E0,3.8437474E0,-1.0702089E1,-2.1514924E0,1.6500512E-1,3.6644566E-1,4.2482853E-1,9.3151855E-1,2.5094262E-1,1.07284926E-1,-1.0115051E-1,-5.254364E-3,2.2512817E-1,1.0104462E-1,-5.734539E-1,-1.7123185E-1,6.298656E-2,-2.543182E-1],"categories":[],"categories_nodes":[],"categories_segments":[],"categories_sizes":[],"default_left":[0,0,0,0,0,0,0,0,0,0,0,0,0,0,0,0,0,0,0,0,0,0,0,0,0,0,0,0,0,0,0,0,0],"id":13,"left_children":[1,3,5,7,9,-1,11,-1,13,15,17,19,21,-1,23,25,27,29,31,-1,-1,-1,-1,-1,-1,-1,-1,-1,-1,-1,-1,-1,-1],"loss_changes":[3.7586812E3,9.357244E2,5.565547E2,1.9693784E2,8.0169104E2,0E0,2.61125E2,0E0,1.20466415E2,1.6495757E2,1.2356682E3,2.634552E0,2.3078833E2,0E0,1.8440857E0,1.5377836E1,5.311905E0,1.114292E2,4.869595E2,0E0,0E0,0E0,0E0,0E0,0E0,0E0,0E0,0E0,0E0,0E0,0E0,0E0,0E0],"parents":[2147483647,0,0,1,1,2,2,3,3,4,4,6,6,8,8,9,9,10,10,11,11,12,12,14,14,15,15,16,16,17,17,18,18],"right_children":[2,4,6,8,10,-1,12,-1,14,16,18,20,22,-1,24,26,28,30,32,-1,-1,-1,-1,-1,-1,-1,-1,-1,-1,-1,-1,-1,-1],"split_conditions":[5.16E2,3.2448E6,3.1835E6,4.938E2,4.841E2,-8.614426E-2,4.776E6,4.6850738E-1,4.9408E2,4.7747E2,4.9298E2,4.776E6,5.19E2,-1.4309159E-1,5E2,4.0561E6,4.8455E2,4.9298E2,3.8735E6,1.6500512E-1,3.6644566E-1,4.2482853E-1,9.3151855E-1,2.5094262E-1,1.07284926E-1,-1.0115051E-1,-5.254364E-3,2.2512817E-1,1.0104462E-1,-5.734539E-1,-1.7123185E-1,6.298656E-2,-2.543182E-1],"split_indices":[92,60,32,85,0,0,67,0,31,31,71,39,65,0,56,46,58,92,74,0,0,0,0,0,0,0,0,0,0,0,0,0,0],"split_type":[0,0,0,0,0,0,0,0,0,0,0,0,0,0,0,0,0,0,0,0,0,0,0,0,0,0,0,0,0,0,0,0,0],"sum_hessian":[1.4E2,1.14E2,2.6E1,1.4E1,1E2,3E0,2.3E1,5E0,9E0,2.7E1,7.3E1,8E0,1.5E1,3E0,6E0,1.6E1,1.1E1,2.6E1,4.7E1,3E0,5E0,7E0,8E0,3E0,3E0,7E0,9E0,7E0,4E0,2.3E1,3E0,2.2E1,2.5E1],"tree_param":{"num_deleted":"0","num_feature":"98","num_nodes":"33","size_leaf_vector":"1"}},{"base_weights":[7.4130917E-1,-1.6675135E0,1.0616791E1,4.95826E0,-2.6749268E0,-8.291359E-2,1.2220268E1,4.5740873E-1,1.4856339E-1,8.706455E-1,-4.3534627E0,1.4829414E1,6.2239785E0,1.8143845E-1,-1.3326569E-1,-9.768097E-1,3.6459117E0,-1.1938732E1,-1.4781911E0,9.449156E-1,4.1991138E-1,3.8733765E-1,1.7282043E-1,8.571752E-3,-1.1996341E-1,2.0942536E-1,9.700287E-2,-4.4320056E-1,-7.752075E-1,4.3194848E-1,-1.1629049E-1],"categories":[],"categories_nodes":[],"categories_segments":[],"categories_sizes":[],"default_left":[0,0,0,0,0,0,0,0,0,0,0,0,0,0,0,0,0,0,0,0,0,0,0,0,0,0,0,0,0,0,0],"id":14,"left_children":[1,3,5,7,9,-1,11,-1,13,15,17,19,21,-1,-1,23,25,27,29,-1,-1,-1,-1,-1,-1,-1,-1,-1,-1,-1,-1],"loss_changes":[3.2766985E3,7.54176E2,5.5169995E2,3.009242E2,5.8107324E2,0E0,2.8318652E2,0E0,8.801478E1,1.6763112E2,1.4217933E3,2.5997314E2,1.1153503E1,0E0,0E0,3.3077934E1,3.9066925E0,5.989917E1,4.4029172E2,0E0,0E0,0E0,0E0,0E0,0E0,0E0,0E0,0E0,0E0,0E0,0E0],"parents":[2147483647,0,0,1,1,2,2,3,3,4,4,6,6,8,8,9,9,10,10,11,11,12,12,15,15,16,16,17,17,18,18],"right_children":[2,4,6,8,10,-1,12,-1,14,16,18,20,22,-1,-1,24,26,28,30,-1,-1,-1,-1,-1,-1,-1,-1,-1,-1,-1,-1],"split_conditions":[5.16E2,3.2448E6,3.1835E6,4.9264E2,4.8172E2,-8.291359E-2,5.8893E6,4.5740873E-1,4.9163E2,4.8E2,4.9298E2,5.2411E2,5.2008E2,1.8143845E-1,-1.3326569E-1,4.74E2,4.8455E2,4.6053E6,4.8502E2,9.449156E-1,4.1991138E-1,3.8733765E-1,1.7282043E-1,8.571752E-3,-1.1996341E-1,2.0942536E-1,9.700287E-2,-4.4320056E-1,-7.752075E-1,4.3194848E-1,-1.1629049E-1],"split_indices":[92,53,32,94,2,0,11,0,0,36,64,3,77,0,0,21,58,53,91,0,0,0,0,0,0,0,0,0,0,0,0],"split_type":[0,0,0,0,0,0,0,0,0,0,0,0,0,0,0,0,0,0,0,0,0,0,0,0,0,0,0,0,0,0,0],"sum_hessian":[1.36E2,1.1E2,2.6E1,1.4E1,9.6E1,3E0,2.3E1,7E0,7E0,3.1E1,6.5E1,1.5E1,8E0,3E0,4E0,1.9E1,1.2E1,1.7E1,4.8E1,8E0,7E0,4E0,4E0,1.1E1,8E0,8E0,4E0,1.1E1,6E0,3E0,4.5E1],"tree_param":{"num_deleted":"0","num_feature":"98","num_nodes":"31","size_leaf_vector":"1"}},{"base_weights":[4.160483E-2,-2.6301582E0,9.520713E0,8.2135105E-1,-4.056692E0,6.1793447E0,1.5034168E1,-1.3831803E0,3.5590007E0,-1.0113428E1,-2.3305438E0,-5.7823945E-2,7.4662304E0,2.2232781E-1,9.224352E-1,-2.735163E0,4.2292956E-1,9.316925E-2,2.0030947E-1,-3.2507798E-1,-6.682043E-1,4.6011993E-1,-3.2845812E0,4.940737E-1,2.2729447E-1,-2.386261E-2,-1.9786094E-1,-2.4977723E-2,6.304138E-2,1.1130854E-1,-2.3108485E-1],"categories":[],"categories_nodes":[],"categories_segments":[],"categories_sizes":[],"default_left":[0,0,0,0,0,0,0,0,0,0,0,0,0,0,0,0,0,0,0,0,0,0,0,0,0,0,0,0,0,0,0],"id":15,"left_children":[1,3,5,7,9,11,13,15,17,19,21,-1,23,-1,-1,25,27,-1,-1,-1,-1,-1,29,-1,-1,-1,-1,-1,-1,-1,-1],"loss_changes":[3.5706711E3,5.449384E2,4.7819604E2,2.040855E2,7.919065E2,2.0688226E2,3.1563623E2,4.7551533E1,3.908844E0,1.1270874E2,7.124033E2,0E0,8.203998E1,0E0,0E0,2.846363E1,7.5863805E0,0E0,0E0,0E0,0E0,0E0,4.3766248E2,0E0,0E0,0E0,0E0,0E0,0E0,0E0,0E0],"parents":[2147483647,0,0,1,1,2,2,3,3,4,4,5,5,6,6,7,7,8,8,9,9,10,10,12,12,15,15,16,16,22,22],"right_children":[2,4,6,8,10,12,14,16,18,20,22,-1,24,-1,-1,26,28,-1,-1,-1,-1,-1,30,-1,-1,-1,-1,-1,-1,-1,-1],"split_conditions":[5.1591E2,4.8275E2,5.36E2,4.8E2,4.917E2,3.1835E6,5.3329E2,4.5041E6,3.9376E6,4.1306E6,4.859E2,-5.7823945E-2,5.2008E2,2.2232781E-1,9.224352E-1,4.753E2,4.7284E2,9.316925E-2,2.0030947E-1,-3.2507798E-1,-6.682043E-1,4.6011993E-1,3.4415E6,4.940737E-1,2.2729447E-1,-2.386261E-2,-1.9786094E-1,-2.4977723E-2,6.304138E-2,1.1130854E-1,-2.3108485E-1],"split_indices":[85,2,85,36,57,25,78,53,81,39,92,0,84,0,0,0,31,0,0,0,0,0,81,0,0,0,0,0,0,0,0],"split_type":[0,0,0,0,0,0,0,0,0,0,0,0,0,0,0,0,0,0,0,0,0,0,0,0,0,0,0,0,0,0,0],"sum_hessian":[1.39E2,1.09E2,3E1,3.2E1,7.7E1,2E1,1E1,1.8E1,1.4E1,1.6E1,6.1E1,3E0,1.7E1,3E0,7E0,1E1,8E0,4E0,1E1,9E0,7E0,4E0,5.7E1,8E0,9E0,4E0,6E0,4E0,4E0,1.1E1,4.6E1],"tree_param":{"num_deleted":"0","num_feature":"98","num_nodes":"31","size_leaf_vector":"1"}},{"base_weights":[-1.3224925E-1,-2.2290776E0,9.434578E0,5.1750207E0,-3.233318E0,6.793097E0,7.6282567E-1,4.324076E-1,4.664394E-1,7.918068E-1,-4.639252E0,9.076818E-2,8.441191E0,1.725155E-1,-1.3170205E-1,-9.6523476E-1,3.068545E0,-9.430211E0,-1.7478752E0,2.163498E-1,5.123038E-1,3.7546158E-3,-8.913609E-2,2.2301368E-1,1.0545248E-1,-2.5391057E-1,-5.973746E-1,3.9807168E-1,-1.2860416E-1],"categories":[],"categories_nodes":[],"categories_segments":[],"categories_sizes":[],"default_left":[0,0,0,0,0,0,0,0,0,0,0,0,0,0,0,0,0,0,0,0,0,0,0,0,0,0,0,0,0],"id":16,"left_children":[1,3,5,7,9,11,-1,-1,13,15,17,-1,19,-1,-1,21,23,25,27,-1,-1,-1,-1,-1,-1,-1,-1,-1,-1],"loss_changes":[2.7893093E3,8.64379E2,2.8082422E2,2.2491537E2,5.752384E2,1.4054785E2,0E0,0E0,7.3848274E1,1.1097061E2,1.0224524E3,0E0,5.962439E1,0E0,0E0,1.374113E1,6.6173477E0,2.4607373E2,4.04597E2,0E0,0E0,0E0,0E0,0E0,0E0,0E0,0E0,0E0,0E0],"parents":[2147483647,0,0,1,1,2,2,3,3,4,4,5,5,8,8,9,9,10,10,12,12,15,15,16,16,17,17,18,18],"right_children":[2,4,6,8,10,12,-1,-1,14,16,18,-1,20,-1,-1,22,24,26,28,-1,-1,-1,-1,-1,-1,-1,-1,-1,-1],"split_conditions":[5.16E2,3.2448E6,5.3258E2,4.9264E2,4.8655E2,4.3856E6,7.6282567E-1,4.324076E-1,4.9163E2,4.7466E2,4.923E2,9.076818E-2,4.776E6,1.725155E-1,-1.3170205E-1,4.7284E2,4.2051E6,4.1306E6,4.8502E2,2.163498E-1,5.123038E-1,3.7546158E-3,-8.913609E-2,2.2301368E-1,1.0545248E-1,-2.5391057E-1,-5.973746E-1,3.9807168E-1,-1.2860416E-1],"split_indices":[92,53,80,94,1,39,0,0,0,37,71,0,88,0,0,17,53,18,91,0,0,0,0,0,0,0,0,0,0],"split_type":[0,0,0,0,0,0,0,0,0,0,0,0,0,0,0,0,0,0,0,0,0,0,0,0,0,0,0,0,0],"sum_hessian":[1.37E2,1.13E2,2.4E1,1.3E1,1E2,1.8E1,6E0,7E0,6E0,2.6E1,7.4E1,5E0,1.3E1,3E0,3E0,1.5E1,1.1E1,2.7E1,4.7E1,5E0,8E0,7E0,8E0,3E0,8E0,1.1E1,1.6E1,3E0,4.4E1],"tree_param":{"num_deleted":"0","num_feature":"98","num_nodes":"29","size_leaf_vector":"1"}},{"base_weights":[1.8369877E-1,-1.9517922E0,8.434808E0,4.5116053E0,-2.8113627E0,5.637967E0,1.3464691E1,4.0440804E-1,1.625946E0,-4.3551702E0,1.0904073E0,-5.3574752E-2,6.815738E0,2.0374833E-1,8.453361E-1,-7.731705E-2,1.7349066E-1,-7.24014E0,-1.9847136E0,6.5177374E0,-1.1794281E0,4.5630834E-1,2.0273896E-1,-8.8905334E-2,-5.8465254E-1,1.0605641E-1,-2.1721485E-1,1.1720276E-1,4.6939364E-1,7.927815E-2,-1.8078588E-1],"categories":[],"categories_nodes":[],"categories_segments":[],"categories_sizes":[],"default_left":[0,0,0,0,0,0,0,0,0,0,0,0,0,0,0,0,0,0,0,0,0,0,0,0,0,0,0,0,0,0,0],"id":17,"left_children":[1,3,5,7,9,11,13,-1,15,17,19,-1,21,-1,-1,-1,-1,23,25,27,29,-1,-1,-1,-1,-1,-1,-1,-1,-1,-1],"loss_changes":[2.5713875E3,6.571503E2,3.4612012E2,1.3133914E2,6.2517773E2,1.7324945E2,2.5430286E2,0E0,5.8008995E1,4.9169385E2,3.772616E2,0E0,7.7817444E1,0E0,0E0,0E0,0E0,7.818329E2,4.16114E2,8.580557E1,1.5393196E2,0E0,0E0,0E0,0E0,0E0,0E0,0E0,0E0,0E0,0E0],"parents":[2147483647,0,0,1,1,2,2,3,3,4,4,5,5,6,6,8,8,9,9,10,10,12,12,17,17,18,18,19,19,20,20],"right_children":[2,4,6,8,10,12,14,-1,16,18,20,-1,22,-1,-1,-1,-1,24,26,28,30,-1,-1,-1,-1,-1,-1,-1,-1,-1,-1],"split_conditions":[5.16E2,3.2448E6,5.36E2,4.941E2,4.9283E6,3.1835E6,5.3329E2,4.0440804E-1,4.0654E6,4.9192E2,4.77E2,-5.3574752E-2,5.2008E2,2.0374833E-1,8.453361E-1,-7.731705E-2,1.7349066E-1,4.8172E2,4.9088E2,4.7835E2,5.2516E6,4.5630834E-1,2.0273896E-1,-8.8905334E-2,-5.8465254E-1,1.0605641E-1,-2.1721485E-1,1.1720276E-1,4.6939364E-1,7.927815E-2,-1.8078588E-1],"split_indices":[85,67,85,59,95,25,78,0,39,92,84,0,84,0,0,0,0,23,51,1,95,0,0,0,0,0,0,0,0,0,0],"split_type":[0,0,0,0,0,0,0,0,0,0,0,0,0,0,0,0,0,0,0,0,0,0,0,0,0,0,0,0,0,0,0],"sum_hessian":[1.44E2,1.15E2,2.9E1,1.3E1,1.02E2,2E1,9E0,5E0,8E0,7.3E1,2.9E1,3E0,1.7E1,3E0,6E0,3E0,5E0,3.2E1,4.1E1,8E0,2.1E1,8E0,9E0,1.5E1,1.7E1,1.5E1,2.6E1,4E0,4E0,1E1,1.1E1],"tree_param":{"num_deleted":"0","num_feature":"98","num_nodes":"31","size_leaf_vector":"1"}},{"base_weights":[2.6634184E-1,-1.9213071E0,8.373222E0,4.521151E0,-2.7157795E0,5.384911E0,1.33169775E1,3.3381692E-1,4.470215E-2,9.9709165E-1,-4.1842976E0,-5.156517E-2,6.5115747E0,1.9610825E-1,8.1748813E-1,-6.9304234E-1,3.260578E0,-8.743928E0,-1.8207965E0,4.360284E-1,1.9361618E-1,-6.70578E-2,2.5850788E-2,1.8597311E-1,8.912354E-2,-1.0653102E-1,-5.145362E-1,3.4280512E-1,-1.2602578E-1],"categories":[],"categories_nodes":[],"categories_segments":[],"categories_sizes":[],"default_left":[0,0,0,0,0,0,0,0,0,0,0,0,0,0,0,0,0,0,0,0,0,0,0,0,0,0,0,0,0],"id":18,"left_children":[1,3,5,7,9,11,13,-1,-1,15,17,-1,19,-1,-1,21,23,25,27,-1,-1,-1,-1,-1,-1,-1,-1,-1,-1],"loss_changes":[2.5876638E3,6.008893E2,3.862671E2,9.565329E1,5.657713E2,1.5852264E2,2.492904E2,0E0,0E0,1.1702758E2,7.815542E2,0E0,7.117273E1,0E0,0E0,1.4809994E1,2.1878204E0,2.3381055E2,3.2085046E2,0E0,0E0,0E0,0E0,0E0,0E0,0E0,0E0,0E0,0E0],"parents":[2147483647,0,0,1,1,2,2,3,3,4,4,5,5,6,6,9,9,10,10,12,12,15,15,16,16,17,17,18,18],"right_children":[2,4,6,8,10,12,14,-1,-1,16,18,-1,20,-1,-1,22,24,26,28,-1,-1,-1,-1,-1,-1,-1,-1,-1,-1],"split_conditions":[5.16E2,3.3674E6,5.36E2,4.945E2,4.8655E2,3.1835E6,5.3329E2,3.3381692E-1,4.470215E-2,4.8E2,4.917E2,-5.156517E-2,5.2008E2,1.9610825E-1,8.1748813E-1,4.7835E2,4.5304E6,4.7586E2,4.8657E2,4.360284E-1,1.9361618E-1,-6.70578E-2,2.5850788E-2,1.8597311E-1,8.912354E-2,-1.0653102E-1,-5.145362E-1,3.4280512E-1,-1.2602578E-1],"split_indices":[85,67,85,92,1,25,78,0,0,36,85,0,84,0,0,36,18,73,86,0,0,0,0,0,0,0,0,0,0],"split_type":[0,0,0,0,0,0,0,0,0,0,0,0,0,0,0,0,0,0,0,0,0,0,0,0,0,0,0,0,0],"sum_hessian":[1.44E2,1.14E2,3E1,1.2E1,1.02E2,2E1,1E1,7E0,5E0,2.9E1,7.3E1,3E0,1.7E1,3E0,7E0,1.7E1,1.2E1,2.4E1,4.9E1,8E0,9E0,1.1E1,6E0,8E0,4E0,5E0,1.9E1,3E0,4.6E1],"tree_param":{"num_deleted":"0","num_feature":"98","num_nodes":"29","size_leaf_vector":"1"}},{"base_weights":[1.6138464E-2,-1.3585765E0,8.067272E0,4.03339E0,-2.144807E0,1.9999523E-1,9.8152485E0,6.5047073E0,-1.3522248E-1,-2.559499E0,3.4548736E-1,1.6079636E-1,5.6613535E-1,4.0467128E-1,1.3309082E-1,1.0434788E0,-3.8364325E0,-2.4686657E-2,1.5671197E-1,1.3166821E-1,-2.535685E-1],"categories":[],"categories_nodes":[],"categories_segments":[],"categories_sizes":[],"default_left":[0,0,0,0,0,0,0,0,0,0,0,0,0,0,0,0,0,0,0,0,0],"id":19,"left_children":[1,3,5,7,9,-1,11,13,-1,15,-1,-1,-1,-1,-1,17,19,-1,-1,-1,-1],"loss_changes":[1.5936863E3,5.300882E2,1.1004285E2,2.840131E2,4.2320947E2,0E0,1.0286182E2,5.172003E1,0E0,4.8248273E2,0E0,0E0,0E0,0E0,0E0,9.153785E1,6.28569E2,0E0,0E0,0E0,0E0],"parents":[2147483647,0,0,1,1,2,2,3,3,4,4,6,6,7,7,9,9,15,15,16,16],"right_children":[2,4,6,8,10,-1,12,14,-1,16,-1,-1,-1,-1,-1,18,20,-1,-1,-1,-1],"split_conditions":[5.2141E2,3.2448E6,5.2141E2,4.9984E2,5.214E2,1.9999523E-1,4.9371E2,4.9264E2,-1.3522248E-1,4.8608E2,3.4548736E-1,1.6079636E-1,5.6613535E-1,4.0467128E-1,1.3309082E-1,4.8314E2,3.3674E6,-2.4686657E-2,1.5671197E-1,1.3166821E-1,-2.535685E-1],"split_indices":[92,53,38,66,70,0,3,94,0,1,0,0,0,0,0,36,67,0,0,0,0],"split_type":[0,0,0,0,0,0,0,0,0,0,0,0,0,0,0,0,0,0,0,0,0],"sum_hessian":[1.42E2,1.22E2,2E1,1.5E1,1.07E2,7E0,1.3E1,1.1E1,4E0,1.03E2,4E0,3E0,1E1,7E0,4E0,2.7E1,7.6E1,1.6E1,1.1E1,1.2E1,6.4E1],"tree_param":{"num_deleted":"0","num_feature":"98","num_nodes":"21","size_leaf_vector":"1"}},{"base_weights":[2.1099763E-2,-1.6885315E0,7.319099E0,4.5725565E0,-2.4936388E0,4.940889E0,6.534199E-1,3.3965856E-1,4.248225E-2,2.9067943E0,-3.2017248E0,-4.0122222E-2,6.0016212E0,5.524258E0,-1.854599E-1,6.7248416E-1,-4.7497835E0,3.9597338E-1,1.7084639E-1,3.694159E-1,1.2776734E-1,-5.6179266E-2,1.2774917E-1,-4.0638518E-1,-1.0782211E-1],"categories":[],"categories_nodes":[],"categories_segments":[],"categories_sizes":[],"default_left":[0,0,0,0,0,0,0,0,0,0,0,0,0,0,0,0,0,0,0,0,0,0,0,0,0],"id":20,"left_children":[1,3,5,7,9,11,-1,-1,-1,13,15,-1,17,19,-1,21,23,-1,-1,-1,-1,-1,-1,-1,-1],"loss_changes":[1.7092153E3,5.709363E2,2.9092957E2,1.0170117E2,3.8787988E2,1.2665869E2,0E0,0E0,0E0,2.2829602E2,5.309744E2,0E0,5.7209534E1,3.0928345E1,0E0,9.077933E1,5.343595E2,0E0,0E0,0E0,0E0,0E0,0E0,0E0,0E0],"parents":[2147483647,0,0,1,1,2,2,3,3,4,4,5,5,9,9,10,10,12,12,13,13,15,15,16,16],"right_children":[2,4,6,8,10,12,-1,-1,-1,14,16,-1,18,20,-1,22,24,-1,-1,-1,-1,-1,-1,-1,-1],"split_conditions":[5.16E2,3.2448E6,5.36E2,4.9925E2,3.2448E6,3.1835E6,6.534199E-1,3.3965856E-1,4.248225E-2,4.9984E2,4.8655E2,-4.0122222E-2,5.2008E2,4.9193E2,-1.854599E-1,4.7358E2,4.9129E2,3.9597338E-1,1.7084639E-1,3.694159E-1,1.2776734E-1,-5.6179266E-2,1.2774917E-1,-4.0638518E-1,-1.0782211E-1],"split_indices":[85,67,85,17,53,25,0,0,0,66,1,0,84,94,0,44,80,0,0,0,0,0,0,0,0],"split_type":[0,0,0,0,0,0,0,0,0,0,0,0,0,0,0,0,0,0,0,0,0,0,0,0,0],"sum_hessian":[1.35E2,1.1E2,2.5E1,1.2E1,9.8E1,1.9E1,6E0,7E0,5E0,1.1E1,8.7E1,3E0,1.6E1,8E0,3E0,2.5E1,6.2E1,8E0,8E0,4E0,4E0,1.3E1,1.2E1,2.6E1,3.6E1],"tree_param":{"num_deleted":"0","num_feature":"98","num_nodes":"25","size_leaf_vector":"1"}},{"base_weights":[6.957578E-2,-1.6992188E0,7.331783E0,3.4551392E0,-2.3900206E0,-6.615982E-2,8.423308E0,5.2166915E0,-1.1264572E-1,9.4768465E-1,-3.4859989E0,2.0637599E-1,1.0202061E1,3.3685172E-1,1.02243654E-1,-4.0267944E-1,1.5742676E-1,-7.043931E0,-1.4238367E0,6.6704683E0,7.147134E-1,-7.534417E-2,3.7313335E-2,-5.1100593E-2,-4.3199086E-1,1.1965158E-1,-1.4147876E-1,1.1624756E-1,4.0047094E-1],"categories":[],"categories_nodes":[],"categories_segments":[],"categories_sizes":[],"default_left":[0,0,0,0,0,0,0,0,0,0,0,0,0,0,0,0,0,0,0,0,0,0,0,0,0,0,0,0,0],"id":21,"left_children":[1,3,5,7,9,-1,11,13,-1,15,17,-1,19,-1,-1,21,-1,23,25,27,-1,-1,-1,-1,-1,-1,-1,-1,-1],"loss_changes":[1.8364983E3,4.177315E2,2.7566528E2,1.5252325E2,3.7642493E2,0E0,1.4891943E2,3.9268402E1,0E0,7.853854E1,5.549223E2,0E0,1.5033472E2,0E0,0E0,2.2691942E1,0E0,2.6025854E2,2.7504715E2,4.5381256E1,0E0,0E0,0E0,0E0,0E0,0E0,0E0,0E0,0E0],"parents":[2147483647,0,0,1,1,2,2,3,3,4,4,6,6,7,7,9,9,10,10,12,12,15,15,17,17,18,18,19,19],"right_children":[2,4,6,8,10,-1,12,14,-1,16,18,-1,20,-1,-1,22,-1,24,26,28,-1,-1,-1,-1,-1,-1,-1,-1,-1],"split_conditions":[5.16E2,3.2062E6,3.1835E6,4.9716E2,4.859E2,-6.615982E-2,5.2141E2,4.9925E2,-1.1264572E-1,4.8E2,4.9298E2,2.0637599E-1,5.3329E2,3.3685172E-1,1.02243654E-1,4.5041E6,1.5742676E-1,4.7586E2,4.9716E2,5.1821E2,7.147134E-1,-7.534417E-2,3.7313335E-2,-5.1100593E-2,-4.3199086E-1,1.1965158E-1,-1.4147876E-1,1.1624756E-1,4.0047094E-1],"split_indices":[92,67,32,92,8,0,38,17,0,36,78,0,78,0,0,46,0,73,50,10,0,0,0,0,0,0,0,0,0],"split_type":[0,0,0,0,0,0,0,0,0,0,0,0,0,0,0,0,0,0,0,0,0,0,0,0,0,0,0,0,0],"sum_hessian":[1.41E2,1.14E2,2.7E1,1.3E1,1.01E2,3E0,2.4E1,1E1,3E0,2.5E1,7.6E1,8E0,1.6E1,6E0,4E0,1.6E1,9E0,2.7E1,4.9E1,1E1,6E0,8E0,8E0,6E0,2.1E1,1.3E1,3.6E1,3E0,7E0],"tree_param":{"num_deleted":"0","num_feature":"98","num_nodes":"29","size_leaf_vector":"1"}},{"base_weights":[3.2273945E-1,-1.4116646E0,7.64819E0,4.685402E0,-2.1364439E0,4.7069283E0,1.1231098E1,3.6840248E-1,-2.719574E-2,5.708008E-1,-3.3790228E0,3.0195396E0,3.507993E-1,1.4732628E-1,6.984749E-1,-4.9895805E-1,2.395312E0,2.9104004E0,-4.3877554E0,1.6797237E-1,7.924195E-2,1.7421504E-2,-9.5975876E-2,1.3195293E-1,6.2402725E-2,2.085303E-1,-1.128006E-3,-3.521649E-1,-1.3092123E-1],"categories":[],"categories_nodes":[],"categories_segments":[],"categories_sizes":[],"default_left":[0,0,0,0,0,0,0,0,0,0,0,0,0,0,0,0,0,0,0,0,0,0,0,0,0,0,0,0,0],"id":22,"left_children":[1,3,5,7,9,11,13,-1,-1,15,17,19,-1,-1,-1,21,23,25,27,-1,-1,-1,-1,-1,-1,-1,-1,-1,-1],"loss_changes":[1.726011E3,4.9610306E2,2.211311E2,1.7234857E2,3.3496136E2,4.1155396E1,2.0838965E2,0E0,0E0,6.3652344E1,4.4418567E2,4.0153503E-2,0E0,0E0,0E0,2.5947887E1,6.199646E-2,3.7055435E1,2.5877124E2,0E0,0E0,0E0,0E0,0E0,0E0,0E0,0E0,0E0,0E0],"parents":[2147483647,0,0,1,1,2,2,3,3,4,4,5,5,6,6,9,9,10,10,11,11,15,15,16,16,17,17,18,18],"right_children":[2,4,6,8,10,12,14,-1,-1,16,18,20,-1,-1,-1,22,24,26,28,-1,-1,-1,-1,-1,-1,-1,-1,-1,-1],"split_conditions":[5.21E2,3.2062E6,5.36E2,4.903E2,4.8275E2,5.7557E6,5.3329E2,3.6840248E-1,-2.719574E-2,4.8314E2,3.2062E6,5.2873E2,3.507993E-1,1.4732628E-1,6.984749E-1,4.772E2,4.7638E6,5.0255E2,4.9129E2,1.6797237E-1,7.924195E-2,1.7421504E-2,-9.5975876E-2,1.3195293E-1,6.2402725E-2,2.085303E-1,-1.128006E-3,-3.521649E-1,-1.3092123E-1],"split_indices":[85,39,85,58,2,81,78,0,0,36,74,52,0,0,0,10,18,64,66,0,0,0,0,0,0,0,0,0,0],"split_type":[0,0,0,0,0,0,0,0,0,0,0,0,0,0,0,0,0,0,0,0,0,0,0,0,0,0,0,0,0],"sum_hessian":[1.34E2,1.09E2,2.5E1,1.1E1,9.8E1,1.5E1,1E1,7E0,4E0,3.1E1,6.7E1,1E1,5E0,3E0,7E0,2E1,1.1E1,9E0,5.8E1,7E0,3E0,1.3E1,7E0,8E0,3E0,6E0,3E0,2.2E1,3.6E1],"tree_param":{"num_deleted":"0","num_feature":"98","num_nodes":"29","size_leaf_vector":"1"}},{"base_weights":[4.2892835E-1,-1.190672E0,6.591518E0,4.050911E0,-2.1301568E0,4.4361877E0,1.0409267E1,5.80238E0,-1.3270454E-1,7.783094E-1,-3.4302697E0,3.8132936E-2,5.3649516E0,6.5378267E-1,1.9036865E-1,4.0213537E-1,2.7331412E0,-1.3108826E0,2.0117984E0,-7.221864E0,-9.453085E-1,3.4325963E-1,1.597046E-1,2.5005722E-2,2.1414414E-1,-1.3119507E-2,-1.07044734E-1,3.102744E-2,1.3278554E-1,-1.8187009E-1,-4.2419273E-1,5.0716437E-2,-1.8516026E-1],"categories":[],"categories_nodes":[],"categories_segments":[],"categories_sizes":[],"default_left":[0,0,0,0,0,0,0,0,0,0,0,0,0,0,0,0,0,0,0,0,0,0,0,0,0,0,0,0,0,0,0,0,0],"id":23,"left_children":[1,3,5,7,9,11,13,15,-1,17,19,-1,21,-1,-1,-1,23,25,27,29,31,-1,-1,-1,-1,-1,-1,-1,-1,-1,-1,-1,-1],"loss_changes":[1.2953885E3,5.15841E2,1.7599219E2,2.032977E2,3.354273E2,6.0733368E1,1.0864484E2,6.740747E1,0E0,7.47931E1,5.6791315E2,0E0,2.6924164E1,0E0,0E0,0E0,2.2082367E1,9.011126E0,1.44771805E1,7.770618E1,2.0912637E2,0E0,0E0,0E0,0E0,0E0,0E0,0E0,0E0,0E0,0E0,0E0,0E0],"parents":[2147483647,0,0,1,1,2,2,3,3,4,4,5,5,6,6,7,7,9,9,10,10,12,12,16,16,17,17,18,18,19,19,20,20],"right_children":[2,4,6,8,10,12,14,16,-1,18,20,-1,22,-1,-1,-1,24,26,28,30,32,-1,-1,-1,-1,-1,-1,-1,-1,-1,-1,-1,-1],"split_conditions":[5.16E2,3.4415E6,5.36E2,4.9163E2,4.8655E2,4.914E6,5.3013E2,3.4415E6,-1.3270454E-1,4.7835E2,4.9298E2,3.8132936E-2,5.19E2,6.5378267E-1,1.9036865E-1,4.0213537E-1,4.8973E2,4.7007E2,4.8314E2,4.001E6,4.9505E2,3.4325963E-1,1.597046E-1,2.5005722E-2,2.1414414E-1,-1.3119507E-2,-1.07044734E-1,3.102744E-2,1.3278554E-1,-1.8187009E-1,-4.2419273E-1,5.0716437E-2,-1.8516026E-1],"split_indices":[85,53,78,86,1,25,29,46,0,36,71,0,84,0,0,0,77,49,36,25,93,0,0,0,0,0,0,0,0,0,0,0,0],"split_type":[0,0,0,0,0,0,0,0,0,0,0,0,0,0,0,0,0,0,0,0,0,0,0,0,0,0,0,0,0,0,0,0,0],"sum_hessian":[1.28E2,1.02E2,2.6E1,1.5E1,8.7E1,1.8E1,8E0,1.2E1,3E0,2.7E1,6E1,4E0,1.4E1,5E0,3E0,6E0,6E0,1E1,1.7E1,2.3E1,3.7E1,7E0,7E0,3E0,3E0,5E0,5E0,6E0,1.1E1,7E0,1.6E1,2.2E1,1.5E1],"tree_param":{"num_deleted":"0","num_feature":"98","num_nodes":"33","size_leaf_vector":"1"}},{"base_weights":[1.880227E-2,-1.4599491E0,6.4654064E0,-1.3133994E-1,-4.7986646E0,4.5382285E0,9.9933815E0,4.3286276E0,-9.9474645E-1,-8.304371E0,-2.7338345E0,5.6505256E0,2.5807494E-2,6.075815E-1,2.398613E-1,6.4980435E0,-2.2102356E-2,-1.9451628E0,2.4297078E0,-1.0584374E-1,-5.1800364E-1,-4.0637794E0,-6.470108E-2,3.5716859E-1,1.5685992E-1,3.9754435E-1,1.3471337E-1,9.578476E-2,-1.500976E-1,-7.079544E-2,1.7545523E-1,-3.934334E-1,-1.15537465E-1,1.2448235E-1,-1.0476196E-1],"categories":[],"categories_nodes":[],"categories_segments":[],"categories_sizes":[],"default_left":[0,0,0,0,0,0,0,0,0,0,0,0,0,0,0,0,0,0,0,0,0,0,0,0,0,0,0,0,0,0,0,0,0,0,0],"id":24,"left_children":[1,3,5,7,9,11,13,15,17,19,21,23,-1,-1,-1,25,-1,27,29,-1,-1,31,33,-1,-1,-1,-1,-1,-1,-1,-1,-1,-1,-1,-1],"loss_changes":[1.2773182E3,4.828772E2,1.2462366E2,3.085163E2,2.0169666E2,7.761096E1,3.1422607E1,1.3741698E2,2.2278822E2,1.1798517E2,7.42829E1,3.0117981E1,0E0,0E0,0E0,2.831485E1,0E0,2.2199675E2,6.723277E1,0E0,0E0,7.519867E1,4.671002E1,0E0,0E0,0E0,0E0,0E0,0E0,0E0,0E0,0E0,0E0,0E0,0E0],"parents":[2147483647,0,0,1,1,2,2,3,3,4,4,5,5,6,6,7,7,8,8,9,9,10,10,11,11,15,15,17,17,18,18,21,21,22,22],"right_children":[2,4,6,8,10,12,14,16,18,20,22,24,-1,-1,-1,26,-1,28,30,-1,-1,32,34,-1,-1,-1,-1,-1,-1,-1,-1,-1,-1,-1,-1],"split_conditions":[5.21E2,4.8936E6,5.36E2,3.5829E6,4.8531E2,5.3023E2,5.2585E2,4.6931E6,4.5215E6,4.792E2,4.9283E6,5.5121E6,2.5807494E-2,6.075815E-1,2.398613E-1,4.906E2,-2.2102356E-2,4.7466E2,4.7787E2,-1.0584374E-1,-5.1800364E-1,4.079E6,4.4166E6,3.5716859E-1,1.5685992E-1,3.9754435E-1,1.3471337E-1,9.578476E-2,-1.500976E-1,-7.079544E-2,1.7545523E-1,-3.934334E-1,-1.15537465E-1,1.2448235E-1,-1.0476196E-1],"split_indices":[78,11,64,46,94,52,10,4,11,23,39,4,0,0,0,72,0,93,14,0,0,4,18,0,0,0,0,0,0,0,0,0,0,0,0],"split_type":[0,0,0,0,0,0,0,0,0,0,0,0,0,0,0,0,0,0,0,0,0,0,0,0,0,0,0,0,0,0,0,0,0,0,0],"sum_hessian":[1.32E2,1.08E2,2.4E1,7.8E1,3E1,1.7E1,7E0,1.2E1,6.6E1,1E1,2E1,1.3E1,4E0,4E0,3E0,8E0,4E0,5.2E1,1.4E1,3E0,7E0,1.3E1,7E0,7E0,6E0,5E0,3E0,1.1E1,4.1E1,3E0,1.1E1,3E0,1E1,3E0,4E0],"tree_param":{"num_deleted":"0","num_feature":"98","num_nodes":"35","size_leaf_vector":"1"}},{"base_weights":[2.2942577E-1,-1.0024068E0,7.3748617E0,4.0721045E0,-1.6449826E0,-1.1169434E-2,8.653647E0,6.061357E0,-1.2081833E-1,-2.8194323E0,6.235793E-1,1.9574185E-1,5.6566805E-1,4.2212144E-1,2.0565759E-1,-5.1749177E0,-8.056709E-1,-1.6319845E0,2.0073242E0,-5.7471424E-2,-4.964438E-1,1.2175168E-1,-9.835368E-2,-2.062917E-1,9.037672E-2,6.1004277E-2,2.819248E-1],"categories":[],"categories_nodes":[],"categories_segments":[],"categories_sizes":[],"default_left":[0,0,0,0,0,0,0,0,0,0,0,0,0,0,0,0,0,0,0,0,0,0,0,0,0,0,0],"id":25,"left_children":[1,3,5,7,9,-1,11,13,-1,15,17,-1,-1,-1,-1,19,21,23,25,-1,-1,-1,-1,-1,-1,-1,-1],"loss_changes":[1.257274E3,4.0451096E2,2.0598022E2,1.9534738E2,2.9216812E2,0E0,1.8257983E2,1.6301971E1,0E0,3.3735443E2,1.21878685E2,0E0,0E0,0E0,0E0,6.2010876E2,1.5534042E2,1.3612225E2,6.1726936E1,0E0,0E0,0E0,0E0,0E0,0E0,0E0,0E0],"parents":[2147483647,0,0,1,1,2,2,3,3,4,4,6,6,7,7,9,9,10,10,15,15,16,16,17,17,18,18],"right_children":[2,4,6,8,10,-1,12,14,-1,16,18,-1,-1,-1,-1,20,22,24,26,-1,-1,-1,-1,-1,-1,-1,-1],"split_conditions":[5.2388E2,3.2448E6,3.1835E6,4.9163E2,4.6931E6,-1.1169434E-2,5.19E2,4.9219E2,-1.2081833E-1,4.923E2,4.001E6,1.9574185E-1,5.6566805E-1,4.2212144E-1,2.0565759E-1,4.8505E2,4.9266E2,4.6053E6,6.3841E6,-5.7471424E-2,-4.964438E-1,1.2175168E-1,-9.835368E-2,-2.062917E-1,9.037672E-2,6.1004277E-2,2.819248E-1],"split_indices":[64,53,46,86,95,0,37,63,0,85,39,0,0,0,0,24,91,60,74,0,0,0,0,0,0,0,0],"split_type":[0,0,0,0,0,0,0,0,0,0,0,0,0,0,0,0,0,0,0,0,0,0,0,0,0,0,0],"sum_hessian":[1.41E2,1.21E2,2E1,1.3E1,1.08E2,3E0,1.7E1,1E1,3E0,7.1E1,3.7E1,7E0,1E1,3E0,7E0,3.2E1,3.9E1,1.4E1,2.3E1,1.8E1,1.4E1,1E1,2.9E1,8E0,6E0,2E1,3E0],"tree_param":{"num_deleted":"0","num_feature":"98","num_nodes":"27","size_leaf_vector":"1"}},{"base_weights":[2.41259E-1,-1.1717772E0,5.9857187E0,3.494277E0,-1.8599677E0,-2.6774598E-2,6.789684E0,5.0593057E0,-1.0371895E-1,5.3707993E-1,-2.7996123E0,1.9367592E-1,8.475559E0,3.404395E-1,1.0875117E-1,-6.1315155E-1,1.8132674E0,-5.783933E0,-9.8708445E-1,9.740003E0,1.2816696E-1,7.069E-2,-7.033094E-2,3.099884E-2,1.1142929E-1,6.43528E-2,-3.360717E-1,1.3038303E-1,-1.02902986E-1,2.0136337E-1,5.598387E-1],"categories":[],"categories_nodes":[],"categories_segments":[],"categories_sizes":[],"default_left":[0,0,0,0,0,0,0,0,0,0,0,0,0,0,0,0,0,0,0,0,0,0,0,0,0,0,0,0,0,0,0],"id":26,"left_children":[1,3,5,7,9,-1,11,13,-1,15,17,-1,19,-1,-1,21,23,25,27,29,-1,-1,-1,-1,-1,-1,-1,-1,-1,-1,-1],"loss_changes":[1.1515293E3,3.7256848E2,1.5043481E2,1.4122156E2,2.2674088E2,0E0,9.007727E1,4.5742798E1,0E0,4.368123E1,3.8375067E2,0E0,8.716809E1,0E0,0E0,2.772179E1,5.556671E0,1.8763562E2,1.8246133E2,5.4773315E1,0E0,0E0,0E0,0E0,0E0,0E0,0E0,0E0,0E0,0E0,0E0],"parents":[2147483647,0,0,1,1,2,2,3,3,4,4,6,6,7,7,9,9,10,10,12,12,15,15,16,16,17,17,18,18,19,19],"right_children":[2,4,6,8,10,-1,12,14,-1,16,18,-1,20,-1,-1,22,24,26,28,30,-1,-1,-1,-1,-1,-1,-1,-1,-1,-1,-1],"split_conditions":[5.16E2,3.2448E6,3.1835E6,4.9163E2,4.8655E2,-2.6774598E-2,5.19E2,4.9965E2,-1.0371895E-1,4.7941E2,4.9298E2,1.9367592E-1,5.293E2,3.404395E-1,1.0875117E-1,3.7913E6,3.9376E6,3.4415E6,4.9333E2,5.2008E2,1.2816696E-1,7.069E-2,-7.033094E-2,3.099884E-2,1.1142929E-1,6.43528E-2,-3.360717E-1,1.3038303E-1,-1.02902986E-1,2.0136337E-1,5.598387E-1],"split_indices":[85,60,25,93,8,0,44,8,0,36,71,0,0,0,0,74,81,39,73,63,0,0,0,0,0,0,0,0,0,0,0],"split_type":[0,0,0,0,0,0,0,0,0,0,0,0,0,0,0,0,0,0,0,0,0,0,0,0,0,0,0,0,0,0,0],"sum_hessian":[1.4E2,1.13E2,2.7E1,1.4E1,9.9E1,3E0,2.4E1,1.1E1,3E0,2.8E1,7.1E1,1E1,1.4E1,6E0,5E0,1.5E1,1.3E1,2.6E1,4.5E1,1.1E1,3E0,4E0,1.1E1,4E0,9E0,3E0,2.3E1,1E1,3.5E1,3E0,8E0],"tree_param":{"num_deleted":"0","num_feature":"98","num_nodes":"31","size_leaf_vector":"1"}},{"base_weights":[5.2628208E-2,-1.3528352E0,5.5757384E0,3.8143268E0,-2.055681E0,3.5821228E0,9.005396E0,5.691745E0,-1.1510773E-1,7.146116E-1,-3.0761204E0,3.1461132E-1,2.2592733E0,1.1628113E-1,5.7679623E-1,4.025181E-1,1.9004841E-1,-2.7908665E-1,2.2756987E0,-6.238778E0,-1.1265343E0,-3.0635452E-2,1.514164E-1,6.786286E-2,-4.2178016E-2,1.3728714E-1,3.8334277E-2,-2.181725E-1,-4.1877976E-1,1.4374542E-1,-1.290299E-1],"categories":[],"categories_nodes":[],"categories_segments":[],"categories_sizes":[],"default_left":[0,0,0,0,0,0,0,0,0,0,0,0,0,0,0,0,0,0,0,0,0,0,0,0,0,0,0,0,0,0,0],"id":27,"left_children":[1,3,5,7,9,11,13,15,-1,17,19,-1,21,-1,-1,-1,-1,23,25,27,29,-1,-1,-1,-1,-1,-1,-1,-1,-1,-1],"loss_changes":[1.1098221E3,4.2185693E2,1.6602661E2,1.73868E2,2.8771664E2,5.748532E1,1.4220538E2,1.8456604E1,0E0,4.4070107E1,4.4924646E2,0E0,3.498616E1,0E0,0E0,0E0,0E0,1.7771044E1,5.697212E0,7.5656006E1,2.8088153E2,0E0,0E0,0E0,0E0,0E0,0E0,0E0,0E0,0E0,0E0],"parents":[2147483647,0,0,1,1,2,2,3,3,4,4,5,5,6,6,7,7,9,9,10,10,12,12,17,17,18,18,19,19,20,20],"right_children":[2,4,6,8,10,12,14,16,-1,18,20,-1,22,-1,-1,-1,-1,24,26,28,30,-1,-1,-1,-1,-1,-1,-1,-1,-1,-1],"split_conditions":[5.16E2,3.2448E6,5.36E2,4.9163E2,4.8608E2,4.9947E2,5.3329E2,4.9219E2,-1.1510773E-1,4.8445E2,4.9298E2,3.1461132E-1,5.16E2,1.1628113E-1,5.7679623E-1,4.025181E-1,1.9004841E-1,3.7913E6,4.8556E2,4.6788E6,4.961E2,-3.0635452E-2,1.514164E-1,6.786286E-2,-4.2178016E-2,1.3728714E-1,3.8334277E-2,-2.181725E-1,-4.1877976E-1,1.4374542E-1,-1.290299E-1],"split_indices":[78,53,85,86,8,86,78,63,0,43,64,0,85,0,0,0,0,74,51,32,57,0,0,0,0,0,0,0,0,0,0],"split_type":[0,0,0,0,0,0,0,0,0,0,0,0,0,0,0,0,0,0,0,0,0,0,0,0,0,0,0,0,0,0,0],"sum_hessian":[1.41E2,1.13E2,2.8E1,1.3E1,1E2,1.9E1,9E0,1E1,3E0,2.7E1,7.3E1,5E0,1.4E1,3E0,6E0,3E0,7E0,1.7E1,1E1,2.7E1,4.6E1,3E0,1.1E1,4E0,1.3E1,7E0,3E0,1.6E1,1.1E1,1.2E1,3.4E1],"tree_param":{"num_deleted":"0","num_feature":"98","num_nodes":"31","size_leaf_vector":"1"}},{"base_weights":[3.3326474E-1,-1.1429873E0,5.819539E0,4.3758755E0,-1.8784271E0,-5.9346773E-2,6.6736298E0,3.3932012E-1,2.020996E0,2.1157014E0,-2.4742038E0,1.7238282E-1,8.178695E0,1.4292267E-1,2.3446275E-2,2.1710408E-1,-1.15746155E-1,7.5786424E-1,-3.6332905E0,5.063797E0,5.52499E-1,-4.178874E-2,1.144174E-1,-3.1870306E-1,-8.045732E-2,6.914597E-2,3.221878E-1],"categories":[],"categories_nodes":[],"categories_segments":[],"categories_sizes":[],"default_left":[0,0,0,0,0,0,0,0,0,0,0,0,0,0,0,0,0,0,0,0,0,0,0,0,0,0,0],"id":28,"left_children":[1,3,5,7,9,-1,11,-1,13,15,17,-1,19,-1,-1,-1,-1,21,23,25,-1,-1,-1,-1,-1,-1,-1],"loss_changes":[1.1081324E3,4.465693E2,1.8146198E2,6.0079224E1,2.3367712E2,0E0,9.8040405E1,0E0,9.057945E0,1.382869E2,3.174383E2,0E0,9.608899E1,0E0,0E0,0E0,0E0,5.8010426E1,3.3370154E2,4.1883423E1,0E0,0E0,0E0,0E0,0E0,0E0,0E0],"parents":[2147483647,0,0,1,1,2,2,3,3,4,4,6,6,8,8,9,9,10,10,12,12,17,17,18,18,19,19],"right_children":[2,4,6,8,10,-1,12,-1,14,16,18,-1,20,-1,-1,-1,-1,22,24,26,-1,-1,-1,-1,-1,-1,-1],"split_conditions":[5.16E2,3.2448E6,3.1835E6,4.9154E2,3.3674E6,-5.9346773E-2,5.13E2,3.3932012E-1,4.9505E2,4.9716E2,4.8655E2,1.7238282E-1,5.3329E2,1.4292267E-1,2.3446275E-2,2.1710408E-1,-1.15746155E-1,4.8E2,4.9129E2,5.13E2,5.52499E-1,-4.178874E-2,1.144174E-1,-3.1870306E-1,-8.045732E-2,6.914597E-2,3.221878E-1],"split_indices":[92,53,32,87,67,0,37,0,2,92,1,0,78,0,0,0,0,29,80,9,0,0,0,0,0,0,0],"split_type":[0,0,0,0,0,0,0,0,0,0,0,0,0,0,0,0,0,0,0,0,0,0,0,0,0,0,0],"sum_hessian":[1.35E2,1.07E2,2.8E1,1.2E1,9.5E1,3E0,2.5E1,5E0,7E0,1.2E1,8.3E1,9E0,1.6E1,4E0,3E0,8E0,4E0,2.2E1,6.1E1,9E0,7E0,1.1E1,1.1E1,2.5E1,3.6E1,3E0,6E0],"tree_param":{"num_deleted":"0","num_feature":"98","num_nodes":"27","size_leaf_vector":"1"}},{"base_weights":[2.8366858E-1,-9.236813E-1,5.1950307E0,3.2010365E0,-1.638756E0,3.6525512E0,8.859968E0,5.8624697E0,-1.0583017E0,-2.660783E0,1.498575E0,2.416504E-2,4.4146576E0,5.367004E-1,2.3854676E-1,3.536292E-1,1.139576E-1,5.2433014E-2,-1.4503442E-1,4.951996E-1,-3.8699603E0,2.1518784E0,-1.0712929E-1,1.1080998E-1,2.7560565E-1,-4.180839E-2,9.550919E-2,-2.9979718E-1,-5.5677395E-2,2.367325E-2,2.0753327E-1],"categories":[],"categories_nodes":[],"categories_segments":[],"categories_sizes":[],"default_left":[0,0,0,0,0,0,0,0,0,0,0,0,0,0,0,0,0,0,0,0,0,0,0,0,0,0,0,0,0,0,0],"id":29,"left_children":[1,3,5,7,9,11,13,15,17,19,21,-1,23,-1,-1,-1,-1,-1,-1,25,27,29,-1,-1,-1,-1,-1,-1,-1,-1,-1],"loss_changes":[7.815936E2,3.1789078E2,1.1461896E2,1.8757936E2,2.9577313E2,4.6172546E1,2.4298706E0,2.7242767E1,3.0214705E1,2.6523022E2,5.9322586E1,0E0,2.638739E1,0E0,0E0,0E0,0E0,0E0,0E0,3.9274506E1,2.8632758E2,6.513062E1,0E0,0E0,0E0,0E0,0E0,0E0,0E0,0E0,0E0],"parents":[2147483647,0,0,1,1,2,2,3,3,4,4,5,5,6,6,7,7,8,8,9,9,10,10,12,12,19,19,20,20,21,21],"right_children":[2,4,6,8,10,12,14,16,18,20,22,-1,24,-1,-1,-1,-1,-1,-1,26,28,30,-1,-1,-1,-1,-1,-1,-1,-1,-1],"split_conditions":[5.16E2,3.4415E6,5.36E2,4.6931E6,4.9283E6,5.2126E2,5.273E2,4.6294E6,5.0016E2,4.8655E2,4.9973E6,2.416504E-2,4.3856E6,5.367004E-1,2.3854676E-1,3.536292E-1,1.139576E-1,5.2433014E-2,-1.4503442E-1,4.7388E2,4.9928E2,4.9314E2,-1.0712929E-1,1.1080998E-1,2.7560565E-1,-4.180839E-2,9.550919E-2,-2.9979718E-1,-5.5677395E-2,2.367325E-2,2.0753327E-1],"split_indices":[78,46,64,4,95,92,8,39,0,8,18,0,88,0,0,0,0,0,0,16,36,29,0,0,0,0,0,0,0,0,0],"split_type":[0,0,0,0,0,0,0,0,0,0,0,0,0,0,0,0,0,0,0,0,0,0,0,0,0,0,0,0,0,0,0],"sum_hessian":[1.3E2,1.05E2,2.5E1,1.5E1,9E1,1.9E1,6E0,9E0,6E0,6.8E1,2.2E1,4E0,1.5E1,3E0,3E0,6E0,3E0,3E0,3E0,1.9E1,4.9E1,1.9E1,3E0,6E0,9E0,1E1,9E0,2.7E1,2.2E1,1.1E1,8E0],"tree_param":{"num_deleted":"0","num_feature":"98","num_nodes":"31","size_leaf_vector":"1"}},{"base_weights":[2.147147E-1,-1.174997E0,5.1390233E0,3.776057E0,-1.7632561E0,3.308258E0,8.166937E0,2.9640293E-1,-2.1117859E-2,-2.8044622E0,8.46706E-1,6.228071E-1,4.340918E0,5.011457E-1,1.9675903E-1,1.0486028E0,-3.6059093E0,-4.9155273E-2,2.5783357E-1,-1.9478608E-2,7.397423E-2,1.1616307E-1,2.90798E-1,1.1862244E-1,9.831068E-3,-9.559273E-3,-2.4360292E-1,1.0750122E-1,-8.29305E-2],"categories":[],"categories_nodes":[],"categories_segments":[],"categories_sizes":[],"default_left":[0,0,0,0,0,0,0,0,0,0,0,0,0,0,0,0,0,0,0,0,0,0,0,0,0,0,0,0,0],"id":30,"left_children":[1,3,5,7,9,11,13,-1,-1,15,17,19,21,-1,-1,23,25,27,-1,-1,-1,-1,-1,-1,-1,-1,-1,-1,-1],"loss_changes":[9.6411E2,3.2703345E2,1.4482703E2,1.10923706E2,2.7140787E2,5.5532776E1,4.6952576E1,0E0,0E0,2.2303119E2,1.1222627E2,6.6473436E0,3.1129913E1,0E0,0E0,1.4196126E1,2.5415796E2,9.2053055E1,0E0,0E0,0E0,0E0,0E0,0E0,0E0,0E0,0E0,0E0,0E0],"parents":[2147483647,0,0,1,1,2,2,3,3,4,4,5,5,6,6,9,9,10,10,11,11,12,12,15,15,16,16,17,17],"right_children":[2,4,6,8,10,12,14,-1,-1,16,18,20,22,-1,-1,24,26,28,-1,-1,-1,-1,-1,-1,-1,-1,-1,-1,-1],"split_conditions":[5.16E2,3.2062E6,5.36E2,4.903E2,4.9283E6,4.776E6,5.275E2,2.9640293E-1,-2.1117859E-2,3.3674E6,6.3843E6,4.914E6,5.2875E6,5.011457E-1,1.9675903E-1,3.5352E6,4.8275E2,4.9023E2,2.5783357E-1,-1.9478608E-2,7.397423E-2,1.1616307E-1,2.90798E-1,1.1862244E-1,9.831068E-3,-9.559273E-3,-2.4360292E-1,1.0750122E-1,-8.29305E-2],"split_indices":[85,39,85,58,95,25,35,0,0,88,88,4,81,0,0,53,9,3,0,0,0,0,0,0,0,0,0,0,0],"split_type":[0,0,0,0,0,0,0,0,0,0,0,0,0,0,0,0,0,0,0,0,0,0,0,0,0,0,0,0,0],"sum_hessian":[1.39E2,1.09E2,3E1,1.1E1,9.8E1,2E1,1E1,7E0,4E0,7E1,2.8E1,6E0,1.4E1,6E0,4E0,1.2E1,5.8E1,2.4E1,4E0,3E0,3E0,7E0,7E0,4E0,8E0,1.6E1,4.2E1,1E1,1.4E1],"tree_param":{"num_deleted":"0","num_feature":"98","num_nodes":"29","size_leaf_vector":"1"}}]},"name":"gbtree"},"learner_model_param":{"base_score":"[4.9369275E2]","boost_from_average":"1","num_class":"0","num_feature":"98","num_target":"1"},"objective":{"name":"reg:squarederror","reg_loss_param":{"scale_pos_weight":"1"}}},"version":[3,2,0]}