{"learner":{"attributes":{"best_iteration":"0","best_score":"9.568164607646189"},"feature_names":[],"feature_types":[],"gradient_booster":{"model":{"cats":{"enc":[],"feature_segments":[],"sorted_idx":[]},"gbtree_model_param":{"num_parallel_tree":"1","num_trees":"31"},"iteration_indptr":[0,1,2,3,4,5,6,7,8,9,10,11,12,13,14,15,16,17,18,19,20,21,22,23,24,25,26,27,28,29,30,31],"tree_info":[0,0,0,0,0,0,0,0,0,0,0,0,0,0,0,0,0,0,0,0,0,0,0,0,0,0,0,0,0,0,0],"trees":[{"base_weights":[-2.4888873E-2,5.2077107E0,-1.1768615E1,-5.416201E0,6.566369E0,-1.6126259E1,-5.5152464E0,5.4028828E-2,-5.105563E-1,3.50405E0,9.419369E0,-1.2517396E-1,-1.7794296E1,-8.392101E0,-1.7991822E0,2.0735386E-1,4.836853E0,1.0193835E1,-6.304932E-2,-4.02549E-1,-1.8853245E1,-5.51388E-1,-2.1788788E-1,-1.7288819E-1,2.7547607E-2,1.5783064E-1,-2.1255468E-1,3.5590538E-1,1.3335471E-1,5.6635296E-1,1.9100495E-1,-4.7467422E-1,-9.973264E-1],"categories":[],"categories_nodes":[],"categories_segments":[],"categories_sizes":[],"default_left":[0,0,0,0,0,0,0,0,0,0,0,0,0,0,0,0,0,0,0,0,0,0,0,0,0,0,0,0,0,0,0,0,0],"id":0,"left_children":[1,3,5,7,9,11,13,-1,-1,15,17,-1,19,21,23,25,27,29,-1,-1,31,-1,-1,-1,-1,-1,-1,-1,-1,-1,-1,-1,-1],"loss_changes":[8.971568E3,1.4934258E3,1.1373076E3,3.8485254E2,7.533054E2,5.462583E2,1.9871259E2,0E0,0E0,1.9672015E2,3.9334668E2,0E0,8.552002E1,6.890845E1,4.0883953E1,1.9750667E2,1.3940808E2,2.67313E2,0E0,0E0,1.5294922E1,0E0,0E0,0E0,0E0,0E0,0E0,0E0,0E0,0E0,0E0,0E0,0E0],"parents":[2147483647,0,0,1,1,2,2,3,3,4,4,5,5,6,6,9,9,10,10,12,12,13,13,14,14,15,15,16,16,17,17,20,20],"right_children":[2,4,6,8,10,12,14,-1,-1,16,18,-1,20,22,24,26,28,30,-1,-1,32,-1,-1,-1,-1,-1,-1,-1,-1,-1,-1,-1,-1],"split_conditions":[5.091E2,4.7304E2,5.2141E2,4.8263E2,4.9298E2,4.856E2,4.776E6,5.4028828E-2,-5.105563E-1,4.0158E6,5.091E2,-1.2517396E-1,3.4433E6,4.776E6,5.36E2,4.99E2,4.1306E6,4.9762E2,-6.304932E-2,-4.02549E-1,3.5662E6,-5.51388E-1,-2.1788788E-1,-1.7288819E-1,2.7547607E-2,1.5783064E-1,-2.1255468E-1,3.5590538E-1,1.3335471E-1,5.6635296E-1,1.9100495E-1,-4.7467422E-1,-9.973264E-1],"split_indices":[1,0,64,59,57,79,60,0,0,74,15,0,95,46,64,0,4,93,0,0,88,0,0,0,0,0,0,0,0,0,0,0,0],"split_type":[0,0,0,0,0,0,0,0,0,0,0,0,0,0,0,0,0,0,0,0,0,0,0,0,0,0,0,0,0,0,0,0,0],"sum_hessian":[1.44E2,1E2,4.4E1,1.1E1,8.9E1,2.5E1,1.9E1,5E0,6E0,4.4E1,4.5E1,3E0,2.2E1,1E1,9E0,1.3E1,3.1E1,4.2E1,3E0,3E0,1.9E1,5E0,5E0,5E0,4E0,8E0,5E0,1.4E1,1.7E1,3.5E1,7E0,3E0,1.6E1],"tree_param":{"num_deleted":"0","num_feature":"98","num_nodes":"33","size_leaf_vector":"1"}},{"base_weights":[-1.9584274E-1,5.1266737E0,-1.14412565E1,-4.8783746E0,6.528307E0,-1.5412231E1,-4.849169E0,8.228353E-2,-4.8867518E-1,3.8605776E0,9.37066E0,-1.6721586E1,-1.8515244E-1,-4.21E-1,-2.362086E0,6.247101E0,-7.0628166E-1,1.0624848E1,4.0094943E0,-9.5492107E-1,-4.790306E-1,4.367256E-2,-3.5376484E0,3.6195222E-1,1.8981934E-3,5.458721E-2,-1.9424744E-1,5.6118435E-1,1.888382E-1,-1.109314E-2,3.7194762E-1,-7.951393E-2,-2.1231435E-1],"categories":[],"categories_nodes":[],"categories_segments":[],"categories_sizes":[],"default_left":[0,0,0,0,0,0,0,0,0,0,0,0,0,0,0,0,0,0,0,0,0,0,0,0,0,0,0,0,0,0,0,0,0],"id":1,"left_children":[1,3,5,7,9,11,13,-1,-1,15,17,19,-1,-1,21,23,25,27,29,-1,-1,-1,31,-1,-1,-1,-1,-1,-1,-1,-1,-1,-1],"loss_changes":[8.198787E3,1.3360242E3,1.0770527E3,3.9931644E2,5.8559937E2,3.520293E2,1.3996841E2,0E0,0E0,4.8396454E2,2.1963208E2,2.2437549E2,0E0,0E0,4.8732887E1,1.7833936E2,9.5686584E1,8.473877E1,1.3225182E2,0E0,0E0,0E0,5.667053E0,0E0,0E0,0E0,0E0,0E0,0E0,0E0,0E0,0E0,0E0],"parents":[2147483647,0,0,1,1,2,2,3,3,4,4,5,5,6,6,9,9,10,10,11,11,14,14,15,15,16,16,17,17,18,18,22,22],"right_children":[2,4,6,8,10,12,14,-1,-1,16,18,20,-1,-1,22,24,26,28,30,-1,-1,-1,32,-1,-1,-1,-1,-1,-1,-1,-1,-1,-1],"split_conditions":[5.091E2,4.74E2,5.21E2,4.8263E2,4.9314E2,5.3094E2,4.776E6,8.228353E-2,-4.8867518E-1,4.6788E6,4.9762E2,5.2875E6,-1.8515244E-1,-4.21E-1,4.141E6,4.9084E6,4.8859E2,5.0497E2,4.9527E2,-9.5492107E-1,-4.790306E-1,4.367256E-2,4.8936E6,3.6195222E-1,1.8981934E-3,5.458721E-2,-1.9424744E-1,5.6118435E-1,1.888382E-1,-1.109314E-2,3.7194762E-1,-7.951393E-2,-2.1231435E-1],"split_indices":[1,0,92,59,57,66,60,0,0,11,93,39,0,0,81,25,38,71,1,0,0,0,46,0,0,0,0,0,0,0,0,0,0],"split_type":[0,0,0,0,0,0,0,0,0,0,0,0,0,0,0,0,0,0,0,0,0,0,0,0,0,0,0,0,0,0,0,0,0],"sum_hessian":[1.35E2,9.2E1,4.3E1,1.1E1,8.1E1,2.6E1,1.7E1,5E0,6E0,4.3E1,3.8E1,2.3E1,3E0,6E0,1.1E1,2.8E1,1.5E1,3E1,8E0,1.6E1,7E0,3E0,8E0,2.4E1,4E0,1E1,5E0,2.7E1,3E0,4E0,4E0,3E0,5E0],"tree_param":{"num_deleted":"0","num_feature":"98","num_nodes":"33","size_leaf_vector":"1"}},{"base_weights":[-1.7368862E-2,5.710257E0,-9.952692E0,2.0583503E0,8.619068E0,-1.2752309E1,-4.4226685E0,3.4139287E0,-2.9831594E-1,9.268047E0,-3.372345E-2,6.9647215E-2,-1.4822807E1,-4.0876967E-1,-1.8650233E0,4.990066E0,1.0850525E-1,1.454923E-1,1.000859E1,-1.7192652E1,-9.597351E0,5.7530977E-2,-2.998084E0,-9.10492E-3,3.0442634E-1,5.3982545E-2,-7.335144E-2,5.330121E-1,2.753357E-1,-4.906064E-1,-9.300254E-1,-2.0722198E-1,-6.060619E-1,-3.9701845E-2,-1.9838843E-1],"categories":[],"categories_nodes":[],"categories_segments":[],"categories_sizes":[],"default_left":[0,0,0,0,0,0,0,0,0,0,0,0,0,0,0,0,0,0,0,0,0,0,0,0,0,0,0,0,0,0,0,0,0,0,0],"id":2,"left_children":[1,3,5,7,9,11,13,15,-1,17,-1,-1,19,-1,21,23,25,-1,27,29,31,-1,33,-1,-1,-1,-1,-1,-1,-1,-1,-1,-1,-1,-1],"loss_changes":[7.625306E3,8.851887E2,7.022163E2,4.4461325E2,2.8972266E2,9.57855E2,1.5751923E2,1.7659183E2,0E0,1.7805151E2,0E0,0E0,1.8173486E2,0E0,4.445254E1,1.3178137E2,1.9944756E1,0E0,5.570996E1,4.522461E0,1.0115228E2,0E0,1.6084526E1,0E0,0E0,0E0,0E0,0E0,0E0,0E0,0E0,0E0,0E0,0E0,0E0],"parents":[2147483647,0,0,1,1,2,2,3,3,4,4,5,5,6,6,7,7,9,9,12,12,14,14,15,15,16,16,18,18,19,19,20,20,22,22],"right_children":[2,4,6,8,10,12,14,16,-1,18,-1,-1,20,-1,22,24,26,-1,28,30,32,-1,34,-1,-1,-1,-1,-1,-1,-1,-1,-1,-1,-1,-1],"split_conditions":[5.0311E2,4.858E2,5.21E2,4.8906E2,5.5738E6,5.035E2,4.9778E6,4.6788E6,-2.9831594E-1,4.8496E2,-3.372345E-2,6.9647215E-2,5.1025E2,-4.0876967E-1,4.07E6,4.727E2,4.7813E2,1.454923E-1,5.0446E2,5.0978E2,5.0448E6,5.7530977E-2,5.3641E2,-9.10492E-3,3.0442634E-1,5.3982545E-2,-7.335144E-2,5.330121E-1,2.753357E-1,-4.906064E-1,-9.300254E-1,-2.0722198E-1,-6.060619E-1,-3.9701845E-2,-1.9838843E-1],"split_indices":[3,16,92,93,11,22,67,4,0,70,0,0,44,0,18,64,59,0,78,8,67,0,22,0,0,0,0,0,0,0,0,0,0,0,0],"split_type":[0,0,0,0,0,0,0,0,0,0,0,0,0,0,0,0,0,0,0,0,0,0,0,0,0,0,0,0,0,0,0,0,0,0,0],"sum_hessian":[1.32E2,8.4E1,4.8E1,3.8E1,4.6E1,3.1E1,1.7E1,3.3E1,5E0,4.3E1,3E0,4E0,2.7E1,6E0,1.1E1,2.2E1,1.1E1,5E0,3.8E1,1.7E1,1E1,3E0,8E0,4E0,1.8E1,7E0,4E0,3.2E1,6E0,4E0,1.3E1,4E0,6E0,3E0,5E0],"tree_param":{"num_deleted":"0","num_feature":"98","num_nodes":"35","size_leaf_vector":"1"}},{"base_weights":[1.8477528E-1,4.965592E0,-9.796598E0,1.7929837E0,7.848532E0,-1.343562E1,-3.389474E0,3.320418E0,-4.5989433E-1,8.785603E0,-1.17111206E-1,-8.341484E-1,-8.1555805E0,-5.4138923E0,5.651681E-1,4.6684823E0,-4.5917217E-2,9.553976E0,3.1398098E0,-1.5858704E-1,-5.009103E-1,-3.2490894E-1,-8.103867E-2,8.329544E-2,-3.384323E-2,2.7857575E-1,6.388346E-3,-6.572937E-2,3.3200074E-2,1.7997834E-1,5.0577945E-1,3.2996866E-1,-5.5235293E-2],"categories":[],"categories_nodes":[],"categories_segments":[],"categories_sizes":[],"default_left":[0,0,0,0,0,0,0,0,0,0,0,0,0,0,0,0,0,0,0,0,0,0,0,0,0,0,0,0,0,0,0,0,0],"id":3,"left_children":[1,3,5,7,9,11,13,15,-1,17,-1,-1,19,21,23,25,27,29,31,-1,-1,-1,-1,-1,-1,-1,-1,-1,-1,-1,-1,-1,-1],"loss_changes":[6.7770415E3,8.6398584E2,1.0269814E3,8.1956885E2,4.9805078E2,3.611787E2,1.4716505E2,1.9081198E2,0E0,1.6955396E2,0E0,0E0,8.890411E1,3.882187E1,1.0697686E1,1.2230054E2,1.2581372E1,9.7351074E1,1.1007956E2,0E0,0E0,0E0,0E0,0E0,0E0,0E0,0E0,0E0,0E0,0E0,0E0,0E0,0E0],"parents":[2147483647,0,0,1,1,2,2,3,3,4,4,5,5,6,6,7,7,9,9,12,12,13,13,14,14,15,15,16,16,17,17,18,18],"right_children":[2,4,6,8,10,12,14,16,-1,18,-1,-1,20,22,24,26,28,30,32,-1,-1,-1,-1,-1,-1,-1,-1,-1,-1,-1,-1,-1,-1],"split_conditions":[5.091E2,4.8585E2,5.2141E2,4.9023E2,5.5738E6,5.0044E6,5.3592E2,4.6788E6,-4.5989433E-1,5.0274E2,-1.17111206E-1,-8.341484E-1,4.9856E2,5.2831E2,5.2545E2,5.0607E6,3.9515E6,4.8577E2,4.9802E2,-1.5858704E-1,-5.009103E-1,-3.2490894E-1,-8.103867E-2,8.329544E-2,-3.384323E-2,2.7857575E-1,6.388346E-3,-6.572937E-2,3.3200074E-2,1.7997834E-1,5.0577945E-1,3.2996866E-1,-5.5235293E-2],"split_indices":[1,58,78,94,53,32,71,11,0,3,0,0,79,42,21,25,32,84,9,0,0,0,0,0,0,0,0,0,0,0,0,0,0],"split_type":[0,0,0,0,0,0,0,0,0,0,0,0,0,0,0,0,0,0,0,0,0,0,0,0,0,0,0,0,0,0,0,0,0],"sum_hessian":[1.4E2,9.5E1,4.5E1,4.6E1,4.9E1,2.8E1,1.7E1,4.1E1,5E0,4.5E1,4E0,1.6E1,1.2E1,1.1E1,6E0,2.9E1,1.2E1,3.9E1,6E0,4E0,8E0,8E0,3E0,3E0,3E0,2.4E1,5E0,4E0,8E0,4E0,3.5E1,3E0,3E0],"tree_param":{"num_deleted":"0","num_feature":"98","num_nodes":"33","size_leaf_vector":"1"}},{"base_weights":[-7.5832814E-2,4.511179E0,-8.618779E0,1.2882726E0,8.063558E0,-1.2191198E1,-4.091841E0,-5.8308477E0,2.7483613E0,2.526947E0,9.01696E0,-1.599658E1,-4.8559184E0,-5.248056E-1,-2.2861817E0,-7.451569E-2,-4.5026064E-1,3.4087868E0,-2.271492E-1,1.8733338E-1,1.8527985E-2,1.0329955E1,4.3075805E0,-4.047371E-1,-8.5186493E-1,-3.8277152E-1,1.729126E-3,-4.260897E0,1.9898463E0,2.2450311E-1,7.498169E-3,3.975022E-1,6.750812E-1,3.9181773E-2,3.8373992E-1,-5.0790023E-2,-2.526789E-1,2.4321023E-1,-6.909867E-2],"categories":[],"categories_nodes":[],"categories_segments":[],"categories_sizes":[],"default_left":[0,0,0,0,0,0,0,0,0,0,0,0,0,0,0,0,0,0,0,0,0,0,0,0,0,0,0,0,0,0,0,0,0,0,0,0,0,0,0],"id":4,"left_children":[1,3,5,7,9,11,13,15,17,19,21,23,25,-1,27,-1,-1,29,-1,-1,-1,31,33,-1,-1,-1,-1,35,37,-1,-1,-1,-1,-1,-1,-1,-1,-1,-1],"loss_changes":[5.720937E3,1.0772653E3,7.7489355E2,5.4614716E2,2.1475244E2,7.039009E2,2.5353842E2,1.1058536E2,2.2254785E2,1.9653149E1,1.9047168E2,1.0112793E1,1.5086594E2,0E0,1.773573E2,0E0,0E0,1.4027417E2,0E0,0E0,0E0,1.1156201E2,1.1264467E2,0E0,0E0,0E0,0E0,3.087915E1,7.4564926E1,0E0,0E0,0E0,0E0,0E0,0E0,0E0,0E0,0E0,0E0],"parents":[2147483647,0,0,1,1,2,2,3,3,4,4,5,5,6,6,7,7,8,8,9,9,10,10,11,11,12,12,14,14,17,17,21,21,22,22,27,27,28,28],"right_children":[2,4,6,8,10,12,14,16,18,20,22,24,26,-1,28,-1,-1,30,-1,-1,-1,32,34,-1,-1,-1,-1,36,38,-1,-1,-1,-1,-1,-1,-1,-1,-1,-1],"split_conditions":[5.0311E2,4.8585E2,5.0044E6,4.7007E2,4.8344E2,5.2141E2,3.8735E6,4.2129E6,4.9984E2,4.2606E6,5.0211E2,5.0975E2,5.3175E2,-5.248056E-1,5.5616E6,-7.451569E-2,-4.5026064E-1,4.8578E6,-2.271492E-1,1.8733338E-1,1.8527985E-2,4.9685E2,4.895E2,-4.047371E-1,-8.5186493E-1,-3.8277152E-1,1.729126E-3,4.8936E6,5.2681E2,2.2450311E-1,7.498169E-3,3.975022E-1,6.750812E-1,3.9181773E-2,3.8373992E-1,-5.0790023E-2,-2.526789E-1,2.4321023E-1,-6.909867E-2],"split_indices":[3,16,32,0,79,78,60,95,94,11,78,8,70,0,81,0,0,11,0,0,0,85,2,0,0,0,0,39,42,0,0,0,0,0,0,0,0,0,0],"split_type":[0,0,0,0,0,0,0,0,0,0,0,0,0,0,0,0,0,0,0,0,0,0,0,0,0,0,0,0,0,0,0,0,0,0,0,0,0,0,0],"sum_hessian":[1.44E2,9.4E1,5E1,5E1,4.4E1,2.7E1,2.3E1,8E0,4.2E1,7E0,3.7E1,1.7E1,1E1,4E0,1.9E1,4E0,4E0,3.9E1,3E0,4E0,3E0,2.8E1,9E0,3E0,1.4E1,6E0,4E0,1.3E1,6E0,2.9E1,1E1,1.8E1,1E1,5E0,4E0,3E0,1E1,3E0,3E0],"tree_param":{"num_deleted":"0","num_feature":"98","num_nodes":"39","size_leaf_vector":"1"}},{"base_weights":[5.475102E-1,4.6881356E0,-8.420528E0,1.1816342E0,7.5526733E0,-1.2564481E1,-3.8938253E0,-4.839596E0,2.4868622E0,3.1879272E0,9.118039E0,-1.3872122E1,-1.6060333E-1,-3.983892E-1,-2.226909E0,-4.2266846E-2,-3.533542E-1,3.242956E0,-2.1863137E-1,5.437866E0,-5.466461E-2,9.950775E0,4.127629E0,-1.5115622E1,-2.715046E-1,-3.9980662E0,8.7446815E-1,2.4090143E-1,3.806065E-2,1.2328606E-1,3.1796986E-1,5.402376E-1,2.295873E-1,1.6865158E-2,3.443024E-1,-8.8929206E-1,-5.111086E-1,-2.2478084E-1,-1.0017242E-1,1.005394E-1,-2.4023438E-2],"categories":[],"categories_nodes":[],"categories_segments":[],"categories_sizes":[],"default_left":[0,0,0,0,0,0,0,0,0,0,0,0,0,0,0,0,0,0,0,0,0,0,0,0,0,0,0,0,0,0,0,0,0,0,0,0,0,0,0,0,0],"id":5,"left_children":[1,3,5,7,9,11,13,15,17,19,21,23,-1,-1,25,-1,-1,27,-1,29,-1,31,33,35,-1,37,39,-1,-1,-1,-1,-1,-1,-1,-1,-1,-1,-1,-1,-1,-1],"loss_changes":[5.0524707E3,9.252146E2,7.5768945E2,3.4997577E2,3.1938574E2,2.2449316E2,1.3165732E2,6.520325E1,2.0089125E2,1.504324E2,1.126875E2,1.1737622E2,0E0,0E0,9.687764E1,0E0,0E0,1.25326965E2,0E0,1.170874E1,0E0,9.2258545E1,7.086445E1,2.7255615E1,0E0,1.9099121E0,1.1743612E1,0E0,0E0,0E0,0E0,0E0,0E0,0E0,0E0,0E0,0E0,0E0,0E0,0E0,0E0],"parents":[2147483647,0,0,1,1,2,2,3,3,4,4,5,5,6,6,7,7,8,8,9,9,10,10,11,11,14,14,17,17,19,19,21,21,22,22,23,23,25,25,26,26],"right_children":[2,4,6,8,10,12,14,16,18,20,22,24,-1,-1,26,-1,-1,28,-1,30,-1,32,34,36,-1,38,40,-1,-1,-1,-1,-1,-1,-1,-1,-1,-1,-1,-1,-1,-1],"split_conditions":[5.091E2,4.8585E2,5.2141E2,4.7007E2,4.89E2,5.3738E2,4.2947E6,4.635E2,4.9984E2,4.906E2,4.9762E2,5.2875E6,-1.6060333E-1,-3.983892E-1,5.36E2,-4.2266846E-2,-3.533542E-1,4.5959E6,-2.1863137E-1,4.7388E2,-5.466461E-2,4.9802E2,4.9527E2,4.9778E6,-2.715046E-1,5.2389E2,5.2736E2,2.4090143E-1,3.806065E-2,1.2328606E-1,3.1796986E-1,5.402376E-1,2.295873E-1,1.6865158E-2,3.443024E-1,-8.8929206E-1,-5.111086E-1,-2.2478084E-1,-1.0017242E-1,1.005394E-1,-2.4023438E-2],"split_indices":[8,16,71,7,87,22,53,16,94,16,86,25,0,0,64,0,0,18,0,93,0,16,1,53,0,72,65,0,0,0,0,0,0,0,0,0,0,0,0,0,0],"split_type":[0,0,0,0,0,0,0,0,0,0,0,0,0,0,0,0,0,0,0,0,0,0,0,0,0,0,0,0,0,0,0,0,0,0,0,0,0,0,0,0,0],"sum_hessian":[1.34E2,9.2E1,4.2E1,4.2E1,5E1,2.1E1,2.1E1,7E0,3.5E1,1.4E1,3.6E1,1.8E1,3E0,5E0,1.6E1,3E0,4E0,3.2E1,3E0,9E0,5E0,3E1,6E0,1.5E1,3E0,1E1,6E0,1.9E1,1.3E1,3E0,6E0,2.5E1,5E0,3E0,3E0,8E0,7E0,7E0,3E0,3E0,3E0],"tree_param":{"num_deleted":"0","num_feature":"98","num_nodes":"41","size_leaf_vector":"1"}},{"base_weights":[2.3317279E-1,4.6645126E0,-8.43774E0,1.4737488E0,7.1740236E0,-1.3986644E1,-5.480602E0,3.05077E0,-5.215683E0,1.6255077E0,8.55504E0,-8.103944E-1,-3.1512877E-1,1.63426E-1,-6.8417053E0,4.4791536E0,1.778361E-1,-4.3911248E-1,-6.596466E-2,4.10495E0,-1.8698768E-1,5.7593164E0,9.73139E0,7.383957E-2,-5.9539795E-2,-8.9289465E0,-3.3734934E0,2.654235E-1,2.988922E-2,4.9835425E-2,-4.035772E-2,2.907509E-1,9.579529E-2,3.503436E-1,4.44355E-2,5.341715E-1,2.810538E-1,-2.1689485E-1,-5.102033E-1,-2.2002374E-1,-2.3807907E-2],"categories":[],"categories_nodes":[],"categories_segments":[],"categories_sizes":[],"default_left":[0,0,0,0,0,0,0,0,0,0,0,0,0,0,0,0,0,0,0,0,0,0,0,0,0,0,0,0,0,0,0,0,0,0,0,0,0,0,0,0,0],"id":6,"left_children":[1,3,5,7,9,11,13,15,17,19,21,-1,-1,23,25,27,29,-1,-1,31,-1,33,35,-1,-1,37,39,-1,-1,-1,-1,-1,-1,-1,-1,-1,-1,-1,-1,-1,-1],"loss_changes":[5.1112944E3,6.940658E2,6.6174414E2,4.3788693E2,3.615608E2,1.5387183E2,2.3926343E2,1.34624E2,9.958751E1,1.6168292E2,7.221533E1,0E0,0E0,1.42086735E1,1.5085327E2,6.764212E1,1.0483476E1,0E0,0E0,1.8806274E1,0E0,7.884189E1,4.169043E1,0E0,0E0,4.3547974E1,3.063527E1,0E0,0E0,0E0,0E0,0E0,0E0,0E0,0E0,0E0,0E0,0E0,0E0,0E0,0E0],"parents":[2147483647,0,0,1,1,2,2,3,3,4,4,5,5,6,6,7,7,8,8,9,9,10,10,13,13,14,14,15,15,16,16,19,19,21,21,22,22,25,25,26,26],"right_children":[2,4,6,8,10,12,14,16,18,20,22,-1,-1,24,26,28,30,-1,-1,32,-1,34,36,-1,-1,38,40,-1,-1,-1,-1,-1,-1,-1,-1,-1,-1,-1,-1,-1,-1],"split_conditions":[5.091E2,4.8453E2,5.1575E2,4.9408E2,4.9109E2,5.0448E6,4.9947E2,4.6788E6,4.7466E2,4.9696E2,3.5829E6,-8.103944E-1,-3.1512877E-1,5.3013E2,5.7557E6,4.5304E6,4.7484E2,-4.3911248E-1,-6.596466E-2,4.9314E2,-1.8698768E-1,4.9925E2,5.0122E2,7.383957E-2,-5.9539795E-2,4.1162E6,5.214E2,2.654235E-1,2.988922E-2,4.9835425E-2,-4.035772E-2,2.907509E-1,9.579529E-2,3.503436E-1,4.44355E-2,5.341715E-1,2.810538E-1,-2.1689485E-1,-5.102033E-1,-2.2002374E-1,-2.3807907E-2],"split_indices":[1,9,50,87,64,39,93,11,9,0,67,0,0,22,32,25,93,0,0,15,0,45,64,0,0,95,42,0,0,0,0,0,0,0,0,0,0,0,0,0,0],"split_type":[0,0,0,0,0,0,0,0,0,0,0,0,0,0,0,0,0,0,0,0,0,0,0,0,0,0,0,0,0,0,0,0,0,0,0,0,0,0,0,0,0],"sum_hessian":[1.31E2,8.7E1,4.4E1,3.9E1,4.8E1,1.4E1,3E1,3.2E1,7E0,1E1,3.8E1,1E1,4E0,6E0,2.4E1,2.1E1,1.1E1,3E0,4E0,7E0,3E0,1.3E1,2.5E1,3E0,3E0,1.4E1,1E1,1.7E1,4E0,6E0,5E0,3E0,4E0,1E1,3E0,1.9E1,6E0,4E0,1E1,7E0,3E0],"tree_param":{"num_deleted":"0","num_feature":"98","num_nodes":"41","size_leaf_vector":"1"}},{"base_weights":[-2.9267713E-1,3.7894654E0,-7.770508E0,7.211821E-1,6.983688E0,-9.533203E0,-1.6879883E0,2.2918198E0,-5.1622953E0,2.2056923E0,7.8514733E0,-2.2977948E0,-1.0859483E1,-2.4176057E-1,4.9002457E-1,4.079655E0,-3.0969238E-1,-4.6551758E-1,-4.225998E-2,1.6237457E-1,1.7601013E-2,9.489577E0,4.9254904E0,-5.4224398E-2,-1.4683266E-1,-1.25116E1,-5.430796E0,9.5220946E-2,-3.6974795E-2,1.0319214E-1,3.1461227E-1,1.5443665E-1,-8.499476E-2,5.1257E-1,2.4245484E-1,4.094569E-2,3.4484437E-1,-6.7648196E-1,-3.6861065E-1,-1.5178773E-1,-3.3698395E-1],"categories":[],"categories_nodes":[],"categories_segments":[],"categories_sizes":[],"default_left":[0,0,0,0,0,0,0,0,0,0,0,0,0,0,0,0,0,0,0,0,0,0,0,0,0,0,0,0,0,0,0,0,0,0,0,0,0,0,0,0,0],"id":7,"left_children":[1,3,5,7,9,11,13,15,17,19,21,23,25,-1,27,29,31,-1,-1,-1,-1,33,35,-1,-1,37,39,-1,-1,-1,-1,-1,-1,-1,-1,-1,-1,-1,-1,-1,-1],"loss_changes":[4.1503984E3,8.574321E2,4.9854614E2,4.3690836E2,1.6097192E2,3.3010522E2,8.462567E1,1.7335321E2,1.7120645E2,1.4306053E1,1.2580957E2,2.2411537E0,2.1008545E2,0E0,1.5320523E1,8.513748E1,8.084253E1,0E0,0E0,0E0,0E0,2.8064941E1,1.15787384E2,0E0,0E0,2.0595215E1,7.7534485E0,0E0,0E0,0E0,0E0,0E0,0E0,0E0,0E0,0E0,0E0,0E0,0E0,0E0,0E0],"parents":[2147483647,0,0,1,1,2,2,3,3,4,4,5,5,6,6,7,7,8,8,9,9,10,10,11,11,12,12,14,14,15,15,16,16,21,21,22,22,25,25,26,26],"right_children":[2,4,6,8,10,12,14,16,18,20,22,24,26,-1,28,30,32,-1,-1,-1,-1,34,36,-1,-1,38,40,-1,-1,-1,-1,-1,-1,-1,-1,-1,-1,-1,-1,-1,-1],"split_conditions":[5.0298E2,4.858E2,5.3592E2,4.8906E2,4.8577E2,4.872E2,5.3572E2,4.5041E6,4.8314E2,4.2606E6,4.9451E2,4.1162E6,5.1431E2,-2.4176057E-1,5.2736E2,4.6788E6,3.7943E6,-4.6551758E-1,-4.225998E-2,1.6237457E-1,1.7601013E-2,4.9802E2,4.9646E2,-5.4224398E-2,-1.4683266E-1,5.2875E6,5.1165E2,9.5220946E-2,-3.6974795E-2,1.0319214E-1,3.1461227E-1,1.5443665E-1,-8.499476E-2,5.1257E-1,2.4245484E-1,4.094569E-2,3.4484437E-1,-6.7648196E-1,-3.6861065E-1,-1.5178773E-1,-3.3698395E-1],"split_indices":[3,16,64,93,84,72,71,4,22,11,44,46,87,0,65,88,88,0,0,0,0,16,21,0,0,25,44,0,0,0,0,0,0,0,0,0,0,0,0,0,0],"split_type":[0,0,0,0,0,0,0,0,0,0,0,0,0,0,0,0,0,0,0,0,0,0,0,0,0,0,0,0,0,0,0,0,0,0,0,0,0,0,0,0,0],"sum_hessian":[1.34E2,8.7E1,4.7E1,4.5E1,4.2E1,3.6E1,1.1E1,3.6E1,9E0,7E0,3.5E1,6E0,3E1,4E0,7E0,2.1E1,1.5E1,4E0,5E0,4E0,3E0,2.1E1,1.4E1,3E0,3E0,2.2E1,8E0,3E0,4E0,1.2E1,9E0,4E0,1.1E1,1.7E1,4E0,5E0,9E0,1.7E1,5E0,4E0,4E0],"tree_param":{"num_deleted":"0","num_feature":"98","num_nodes":"41","size_leaf_vector":"1"}},{"base_weights":[-7.8719534E-2,3.5383272E0,-7.8042574E0,9.300439E-1,7.192828E0,-1.1570095E1,-3.5125067E0,1.9366736E0,-3.8906583E-1,9.14573E0,4.406347E0,-1.4441038E1,-7.1253357E0,-5.9803343E0,-1.3439847E0,3.614564E0,-8.4478456E-1,5.395025E-1,5.5717063E0,3.340454E-3,5.6414423E0,-8.024315E-1,-3.405899E-1,-4.4432718E-1,-9.107933E-2,-4.0044186E-1,-4.6768572E-2,4.4629924E-2,-2.853424E0,-2.7572631E-3,2.3221444E-1,2.9463742E-2,-1.79611E-1,3.2539216E-1,1.3872872E-1,1.3855642E-1,3.4640792E-1,-1.7180389E-1,-7.058754E-2],"categories":[],"categories_nodes":[],"categories_segments":[],"categories_sizes":[],"default_left":[0,0,0,0,0,0,0,0,0,0,0,0,0,0,0,0,0,0,0,0,0,0,0,0,0,0,0,0,0,0,0,0,0,0,0,0,0,0,0],"id":8,"left_children":[1,3,5,7,9,11,13,15,-1,17,19,21,23,25,27,29,31,-1,33,-1,35,-1,-1,-1,-1,-1,-1,-1,37,-1,-1,-1,-1,-1,-1,-1,-1,-1,-1],"loss_changes":[3.8558918E3,8.8931604E2,6.7048975E2,5.0614026E2,1.7192786E2,1.905979E2,1.0969638E2,2.4106958E2,0E0,6.917151E1,9.609854E1,5.0121094E1,8.6563416E1,9.484598E1,4.643479E1,1.211774E2,8.091651E1,0E0,5.51001E0,0E0,3.250708E1,0E0,0E0,0E0,0E0,0E0,0E0,0E0,1.8690872E0,0E0,0E0,0E0,0E0,0E0,0E0,0E0,0E0,0E0,0E0],"parents":[2147483647,0,0,1,1,2,2,3,3,4,4,5,5,6,6,7,7,9,9,10,10,11,11,12,12,13,13,14,14,15,15,16,16,18,18,20,20,28,28],"right_children":[2,4,6,8,10,12,14,16,-1,18,20,22,24,26,28,30,32,-1,34,-1,36,-1,-1,-1,-1,-1,-1,-1,38,-1,-1,-1,-1,-1,-1,-1,-1,-1,-1],"split_conditions":[5.091E2,4.9345E2,5.16E2,4.9496E2,4.9505E2,5.0044E6,4.9778E6,4.6788E6,-3.8906583E-1,4.9505E2,3.803E6,5.1584E2,5.2875E6,5.3592E2,5.0186E6,3.7913E6,4.8325E2,5.395025E-1,4.9181E2,3.340454E-3,4.9488E2,-8.024315E-1,-3.405899E-1,-4.4432718E-1,-9.107933E-2,-4.0044186E-1,-4.6768572E-2,4.4629924E-2,5.19E2,-2.7572631E-3,2.3221444E-1,2.9463742E-2,-1.79611E-1,3.2539216E-1,1.3872872E-1,1.3855642E-1,3.4640792E-1,-1.7180389E-1,-7.058754E-2],"split_indices":[1,57,92,94,65,46,53,11,0,9,32,22,18,57,11,74,72,0,66,0,22,0,0,0,0,0,0,0,70,0,0,0,0,0,0,0,0,0,0],"split_type":[0,0,0,0,0,0,0,0,0,0,0,0,0,0,0,0,0,0,0,0,0,0,0,0,0,0,0,0,0,0,0,0,0,0,0,0,0,0,0],"sum_hessian":[1.36E2,9.3E1,4.3E1,5.5E1,3.8E1,2.2E1,2.1E1,5E1,5E0,2.1E1,1.7E1,1.2E1,1E1,9E0,1.2E1,3.1E1,1.9E1,1.3E1,8E0,4E0,1.3E1,9E0,3E0,7E0,3E0,6E0,3E0,5E0,7E0,7E0,2.4E1,1.3E1,6E0,5E0,3E0,5E0,8E0,4E0,3E0],"tree_param":{"num_deleted":"0","num_feature":"98","num_nodes":"39","size_leaf_vector":"1"}},{"base_weights":[-1.4408135E-1,3.8479066E0,-7.2102246E0,1.0077455E0,6.3500996E0,9.2373155E-2,-8.306409E0,2.444003E0,-3.6890533E0,2.2675238E0,7.1715345E0,-1.2623911E1,-5.542607E0,3.705981E0,-1.192827E0,5.550423E-2,-5.9044104E0,1.5776469E-1,1.8449401E-2,8.547449E0,3.5927582E0,-7.4939257E-1,-3.721719E-1,-7.197057E0,-1.2502068E0,2.1950953E-1,-4.0630724E-2,1.8496197E-2,-1.6193734E-1,-4.0495607E-1,-1.11679845E-1,3.2015592E-1,6.285902E-1,5.361699E-2,2.9672268E-1,-4.295589E-1,-1.2561212E-1,-1.3808654E-1,2.5567932E-2],"categories":[],"categories_nodes":[],"categories_segments":[],"categories_sizes":[],"default_left":[0,0,0,0,0,0,0,0,0,0,0,0,0,0,0,0,0,0,0,0,0,0,0,0,0,0,0,0,0,0,0,0,0,0,0,0,0,0,0],"id":9,"left_children":[1,3,5,7,9,-1,11,13,15,17,19,21,23,25,27,-1,29,-1,-1,31,33,-1,-1,35,37,-1,-1,-1,-1,-1,-1,-1,-1,-1,-1,-1,-1,-1,-1],"loss_changes":[3.751195E3,5.976643E2,4.9193262E2,2.855944E2,1.3464893E2,0E0,4.431377E2,1.5128775E2,1.1287245E2,1.4004902E1,1.5148254E2,8.438037E1,1.8984589E2,7.776749E1,2.9973457E1,0E0,3.8304443E1,0E0,0E0,1.4386963E2,6.446088E1,0E0,0E0,1.0904089E2,2.5376072E1,0E0,0E0,0E0,0E0,0E0,0E0,0E0,0E0,0E0,0E0,0E0,0E0,0E0,0E0],"parents":[2147483647,0,0,1,1,2,2,3,3,4,4,6,6,7,7,8,8,9,9,10,10,11,11,12,12,13,13,14,14,16,16,19,19,20,20,23,23,24,24],"right_children":[2,4,6,8,10,-1,12,14,16,18,20,22,24,26,28,-1,30,-1,-1,32,34,-1,-1,36,38,-1,-1,-1,-1,-1,-1,-1,-1,-1,-1,-1,-1,-1,-1],"split_conditions":[5.0311E2,4.858E2,4.9371E2,4.9057E2,4.8344E2,9.2373155E-2,5.1591E2,5.0607E6,3.9376E6,4.2606E6,4.9961E2,5.0044E6,6.3843E6,6.368E6,4.7922E2,5.550423E-2,4.7747E2,1.5776469E-1,1.8449401E-2,4.9716E2,4.895E2,-7.4939257E-1,-3.721719E-1,5.3434E6,5.3652E2,2.1950953E-1,-4.0630724E-2,1.8496197E-2,-1.6193734E-1,-4.0495607E-1,-1.11679845E-1,3.2015592E-1,6.285902E-1,5.361699E-2,2.9672268E-1,-4.295589E-1,-1.2561212E-1,-1.3808654E-1,2.5567932E-2],"split_indices":[3,16,31,91,79,0,36,4,32,11,71,46,88,39,78,0,3,0,0,85,2,0,0,32,43,0,0,0,0,0,0,0,0,0,0,0,0,0,0],"split_type":[0,0,0,0,0,0,0,0,0,0,0,0,0,0,0,0,0,0,0,0,0,0,0,0,0,0,0,0,0,0,0,0,0,0,0,0,0,0,0],"sum_hessian":[1.31E2,8.4E1,4.7E1,4E1,4.4E1,5E0,4.2E1,3.1E1,9E0,8E0,3.6E1,1.5E1,2.7E1,2.3E1,8E0,3E0,6E0,5E0,3E0,2.5E1,1.1E1,9E0,6E0,1.9E1,8E0,2E1,3E0,5E0,3E0,3E0,3E0,1.8E1,7E0,6E0,5E0,1.4E1,5E0,4E0,4E0],"tree_param":{"num_deleted":"0","num_feature":"98","num_nodes":"39","size_leaf_vector":"1"}},{"base_weights":[1.05888866E-1,3.6261506E0,-6.09189E0,6.0891724E-1,6.0151954E0,2.022194E-1,-6.824937E0,2.1118667E0,-4.1111174E0,1.72543E0,6.810139E0,-8.255022E0,-1.3942012E0,-1.4625016E-1,2.7559955E0,-1.4185137E0,-3.8976976E-1,1.4506623E-1,1.0222473E-2,7.600028E0,1.8878174E0,-9.981172E0,-4.706264E0,3.1578828E-2,-1.593806E-1,7.1036376E-2,2.7085182E-1,3.829193E-3,-1.2794915E-1,2.9703638E-1,4.8323202E-1,-7.583237E-3,1.7276727E-1,-1.5551452E-1,-5.407309E-1,-7.284607E-2,-2.9301545E-1],"categories":[],"categories_nodes":[],"categories_segments":[],"categories_sizes":[],"default_left":[0,0,0,0,0,0,0,0,0,0,0,0,0,0,0,0,0,0,0,0,0,0,0,0,0,0,0,0,0,0,0,0,0,0,0,0,0],"id":10,"left_children":[1,3,5,7,9,-1,11,13,15,17,19,21,23,-1,25,27,-1,-1,-1,29,31,33,35,-1,-1,-1,-1,-1,-1,-1,-1,-1,-1,-1,-1,-1,-1],"loss_changes":[3.011129E3,6.3066797E2,3.9912097E2,2.9244107E2,1.5534546E2,0E0,3.5351245E2,1.0863751E2,8.814511E1,1.5503443E1,1.4506433E2,1.7967676E2,4.197679E1,0E0,9.179353E1,1.2131765E1,0E0,0E0,0E0,6.2488403E1,2.290267E1,1.0379956E2,4.396042E1,0E0,0E0,0E0,0E0,0E0,0E0,0E0,0E0,0E0,0E0,0E0,0E0,0E0,0E0],"parents":[2147483647,0,0,1,1,2,2,3,3,4,4,6,6,7,7,8,8,9,9,10,10,11,11,12,12,14,14,15,15,19,19,20,20,21,21,22,22],"right_children":[2,4,6,8,10,-1,12,14,16,18,20,22,24,-1,26,28,-1,-1,-1,30,32,34,36,-1,-1,-1,-1,-1,-1,-1,-1,-1,-1,-1,-1,-1,-1],"split_conditions":[5.0311E2,4.8453E2,4.905E2,4.9225E2,4.8344E2,2.022194E-1,5.3592E2,3.737E6,3.9376E6,4.2606E6,4.9762E2,5.0409E6,5.2148E2,-1.4625016E-1,4.8314E2,4.4166E6,-3.8976976E-1,1.4506623E-1,1.0222473E-2,4.9699E2,3.5352E6,4.9802E2,4.141E6,3.1578828E-2,-1.593806E-1,7.1036376E-2,2.7085182E-1,3.829193E-3,-1.2794915E-1,2.9703638E-1,4.8323202E-1,-7.583237E-3,1.7276727E-1,-1.5551452E-1,-5.407309E-1,-7.284607E-2,-2.9301545E-1],"split_indices":[3,9,31,85,79,0,57,74,95,11,93,18,2,0,57,39,0,0,0,85,81,37,39,0,0,0,0,0,0,0,0,0,0,0,0,0,0],"split_type":[0,0,0,0,0,0,0,0,0,0,0,0,0,0,0,0,0,0,0,0,0,0,0,0,0,0,0,0,0,0,0,0,0,0,0,0,0],"sum_hessian":[1.36E2,8.7E1,4.9E1,3.9E1,4.8E1,3E0,4.6E1,3E1,9E0,8E0,4E1,3.6E1,1E1,3E0,2.7E1,6E0,3E0,4E0,4E0,3.4E1,6E0,2.3E1,1.3E1,5E0,5E0,1.9E1,8E0,3E0,3E0,2.1E1,1.3E1,3E0,3E0,3E0,2E1,4E0,9E0],"tree_param":{"num_deleted":"0","num_feature":"98","num_nodes":"37","size_leaf_vector":"1"}},{"base_weights":[-2.2450387E-1,3.2317708E0,-6.916359E0,1.0313783E0,6.1215067E0,-6.7172104E-1,-4.6154647E0,1.9221874E0,-4.041495E-1,3.2404076E-2,6.8849077E0,3.1811014E-2,-5.455922E0,3.3429623E0,-5.7186407E-1,2.6216364E0,8.051002E0,-7.754114E0,-2.9719813E0,2.2268787E-1,-2.7307129E-2,2.512624E-2,-1.840329E-1,2.521833E-1,-8.334084E-2,5.593286E-1,2.93087E-1,-4.2966005E-1,-1.5442772E-1,-2.765344E-1,-8.796246E-2],"categories":[],"categories_nodes":[],"categories_segments":[],"categories_sizes":[],"default_left":[0,0,0,0,0,0,0,0,0,0,0,0,0,0,0,0,0,0,0,0,0,0,0,0,0,0,0,0,0,0,0],"id":11,"left_children":[1,3,5,7,9,-1,11,13,-1,-1,15,-1,17,19,21,23,25,27,29,-1,-1,-1,-1,-1,-1,-1,-1,-1,-1,-1,-1],"loss_changes":[3.2603967E3,5.8503186E2,6.578677E2,4.5397183E2,1.626748E2,0E0,1.6678247E2,1.79086E2,0E0,0E0,1.5289148E2,0E0,1.5962927E2,1.4067233E2,6.5310646E1,1.01887695E2,1.19770874E2,3.6096436E1,4.302159E1,0E0,0E0,0E0,0E0,0E0,0E0,0E0,0E0,0E0,0E0,0E0,0E0],"parents":[2147483647,0,0,1,1,2,2,3,3,4,4,6,6,7,7,10,10,12,12,13,13,14,14,15,15,16,16,17,17,18,18],"right_children":[2,4,6,8,10,-1,12,14,-1,-1,16,-1,18,20,22,24,26,28,30,-1,-1,-1,-1,-1,-1,-1,-1,-1,-1,-1,-1],"split_conditions":[5.091E2,4.9442E2,5.0978E2,4.894E2,4.8585E2,-6.7172104E-1,4.9856E2,4.6294E6,-4.041495E-1,3.2404076E-2,3.6139E6,3.1811014E-2,5.2141E2,4.7685E6,4.961E2,4.9986E2,4.939E2,5.3434E6,4.2947E6,2.2268787E-1,-2.7307129E-2,2.512624E-2,-1.840329E-1,2.521833E-1,-8.334084E-2,5.593286E-1,2.93087E-1,-4.2966005E-1,-1.5442772E-1,-2.765344E-1,-8.796246E-2],"split_indices":[8,64,71,93,23,0,93,18,0,0,11,0,92,4,22,38,70,18,67,0,0,0,0,0,0,0,0,0,0,0,0],"split_type":[0,0,0,0,0,0,0,0,0,0,0,0,0,0,0,0,0,0,0,0,0,0,0,0,0,0,0,0,0,0,0],"sum_hessian":[1.39E2,9.2E1,4.7E1,5.3E1,3.9E1,1.1E1,3.6E1,4.9E1,4E0,5E0,3.4E1,5E0,3.1E1,3.1E1,1.8E1,8E0,2.6E1,1.5E1,1.6E1,2.4E1,7E0,1.4E1,4E0,5E0,3E0,9E0,1.7E1,1.2E1,3E0,4E0,1.2E1],"tree_param":{"num_deleted":"0","num_feature":"98","num_nodes":"31","size_leaf_vector":"1"}},{"base_weights":[-1.7617425E-1,2.8652632E0,-6.593072E0,-4.7279596E0,3.617835E0,-1.266545E1,-4.496237E0,-7.3114015E-2,-3.5240236E-1,1.8140785E0,5.5973163E0,-7.2732604E-1,-2.8684732E-1,3.1154087E-1,-5.5016923E0,3.6180618E0,-1.5822484E0,8.997304E0,4.0507436E0,6.287117E-2,-3.5611343E-2,-7.278727E0,-3.3578775E0,2.1923442E-1,-1.5349834E-2,-8.028471E-4,-2.6689485E-1,2.5383785E-1,5.536222E-1,3.6333974E-2,2.968478E-1,-4.0537477E-1,-1.4863701E-1,-2.5247854E-1,-1.00353695E-1],"categories":[],"categories_nodes":[],"categories_segments":[],"categories_sizes":[],"default_left":[0,0,0,0,0,0,0,0,0,0,0,0,0,0,0,0,0,0,0,0,0,0,0,0,0,0,0,0,0,0,0,0,0,0,0],"id":12,"left_children":[1,3,5,7,9,11,13,-1,-1,15,17,-1,-1,19,21,23,25,27,29,-1,-1,31,33,-1,-1,-1,-1,-1,-1,-1,-1,-1,-1,-1,-1],"loss_changes":[2.7316973E3,5.599773E2,5.1602795E2,5.7883743E1,3.0047974E2,5.99104E1,1.7090417E2,0E0,0E0,2.9368973E2,1.7914575E2,0E0,0E0,7.674119E0,8.603833E1,9.462677E1,9.990939E1,4.1416138E1,1.8378238E2,0E0,0E0,2.9428528E1,2.4142319E1,0E0,0E0,0E0,0E0,0E0,0E0,0E0,0E0,0E0,0E0,0E0,0E0],"parents":[2147483647,0,0,1,1,2,2,3,3,4,4,5,5,6,6,9,9,10,10,13,13,14,14,15,15,16,16,17,17,18,18,21,21,22,22],"right_children":[2,4,6,8,10,12,14,-1,-1,16,18,-1,-1,20,22,24,26,28,30,-1,-1,32,34,-1,-1,-1,-1,-1,-1,-1,-1,-1,-1,-1,-1],"split_conditions":[5.091E2,4.7007E2,5.0585E2,4.2129E6,4.9442E2,4.9456E6,4.9947E2,-7.3114015E-2,-3.5240236E-1,4.6788E6,4.936E2,-7.2732604E-1,-2.8684732E-1,5.3013E2,5.2141E2,5.2976E6,4.8343E2,4.8889E2,3.5662E6,6.287117E-2,-3.5611343E-2,5.3434E6,4.776E6,2.1923442E-1,-1.5349834E-2,-8.028471E-4,-2.6689485E-1,2.5383785E-1,5.536222E-1,3.6333974E-2,2.968478E-1,-4.0537477E-1,-1.4863701E-1,-2.5247854E-1,-1.00353695E-1],"split_indices":[1,0,92,95,64,46,93,0,0,18,70,0,0,22,92,46,86,93,95,0,0,18,60,0,0,0,0,0,0,0,0,0,0,0,0],"split_type":[0,0,0,0,0,0,0,0,0,0,0,0,0,0,0,0,0,0,0,0,0,0,0,0,0,0,0,0,0,0,0,0,0,0,0],"sum_hessian":[1.38E2,9.4E1,4.4E1,8E0,8.6E1,1E1,3.4E1,4E0,4E0,4.6E1,4E1,7E0,3E0,6E0,2.8E1,3E1,1.6E1,1.1E1,2.9E1,3E0,3E0,1.4E1,1.4E1,2.5E1,5E0,1.2E1,4E0,5E0,6E0,1.1E1,1.8E1,1.1E1,3E0,5E0,9E0],"tree_param":{"num_deleted":"0","num_feature":"98","num_nodes":"35","size_leaf_vector":"1"}},{"base_weights":[-2.2211047E-2,3.0720372E0,-6.7024693E0,1.147765E0,5.6892176E0,-9.251801E0,-3.1806824E0,1.785732E0,-3.7961197E-1,8.2463E0,2.9829857E0,-1.1892303E1,-5.8996205E0,1.4951325E-2,-4.3605204E0,2.9262424E0,-8.015981E-1,2.3876698E-1,5.081164E-1,-6.498871E-2,4.067151E0,-6.9550556E-1,-3.6099216E-1,-3.573581E-1,-6.5293126E-2,-5.94339E0,-8.5123554E-2,-1.2956429E-1,1.7446487E-1,5.7359966E-3,-1.9041558E-1,2.7003372E-1,9.459267E-2,-3.6181208E-1,-1.2591325E-1],"categories":[],"categories_nodes":[],"categories_segments":[],"categories_sizes":[],"default_left":[0,0,0,0,0,0,0,0,0,0,0,0,0,0,0,0,0,0,0,0,0,0,0,0,0,0,0,0,0,0,0,0,0,0,0],"id":13,"left_children":[1,3,5,7,9,11,13,15,-1,17,19,21,23,-1,25,27,29,-1,-1,-1,31,-1,-1,-1,-1,33,-1,-1,-1,-1,-1,-1,-1,-1,-1],"loss_changes":[2.8731025E3,4.7190613E2,3.6561365E2,3.2580444E2,2.5220374E2,1.5112598E2,8.341379E1,1.5874211E2,0E0,8.448071E1,1.0279401E2,2.213684E1,6.516858E1,0E0,5.299173E1,1.2398862E2,4.727368E1,0E0,0E0,0E0,3.9096497E1,0E0,0E0,0E0,0E0,2.163086E1,0E0,0E0,0E0,0E0,0E0,0E0,0E0,0E0,0E0],"parents":[2147483647,0,0,1,1,2,2,3,3,4,4,5,5,6,6,7,7,9,9,10,10,11,11,12,12,14,14,15,15,16,16,20,20,25,25],"right_children":[2,4,6,8,10,12,14,16,-1,18,20,22,24,-1,26,28,30,-1,-1,-1,32,-1,-1,-1,-1,34,-1,-1,-1,-1,-1,-1,-1,-1,-1],"split_conditions":[5.091E2,4.9442E2,5.16E2,4.894E2,4.9961E2,5.0044E6,4.9947E2,4.6744E6,-3.7961197E-1,4.9527E2,4.768E2,5.1584E2,5.2875E6,1.4951325E-2,5.3434E6,4.7007E2,4.9113E2,2.3876698E-1,5.081164E-1,-6.498871E-2,4.07E6,-6.9550556E-1,-3.6099216E-1,-3.573581E-1,-6.5293126E-2,4.776E6,-8.5123554E-2,-1.2956429E-1,1.7446487E-1,5.7359966E-3,-1.9041558E-1,2.7003372E-1,9.459267E-2,-3.6181208E-1,-1.2591325E-1],"split_indices":[1,64,92,93,71,46,93,18,0,92,2,8,18,0,32,0,24,0,0,0,53,0,0,0,0,46,0,0,0,0,0,0,0,0,0],"split_type":[0,0,0,0,0,0,0,0,0,0,0,0,0,0,0,0,0,0,0,0,0,0,0,0,0,0,0,0,0,0,0,0,0,0,0],"sum_hessian":[1.37E2,9.4E1,4.3E1,5.5E1,3.9E1,2.4E1,1.9E1,5.2E1,3E0,1.9E1,2E1,1.2E1,1.2E1,5E0,1.4E1,3.6E1,1.6E1,8E0,1.1E1,4E0,1.6E1,7E0,5E0,9E0,3E0,8E0,6E0,3E0,3.3E1,1.3E1,3E0,9E0,7E0,5E0,3E0],"tree_param":{"num_deleted":"0","num_feature":"98","num_nodes":"35","size_leaf_vector":"1"}},{"base_weights":[-1.3721004E-1,2.768493E0,-5.885222E0,-4.4928627E0,3.397156E0,-5.498254E-1,-4.2507653E0,-4.2259216E-2,-3.2562166E-1,1.9500949E0,5.638074E0,-5.044109E0,-6.452141E-1,3.356249E0,-8.9084184E-1,5.153634E-1,6.717392E0,-6.8335743E0,-2.9393864E0,4.825348E-2,-1.24838255E-1,2.1520396E-1,-3.0882264E-2,2.6963297E-3,-1.7734894E-1,-3.6488723E-2,8.158302E-2,4.9773E-1,2.3300259E-1,-3.80823E-1,-1.2904015E-1,-2.4602814E-1,-9.344737E-2],"categories":[],"categories_nodes":[],"categories_segments":[],"categories_sizes":[],"default_left":[0,0,0,0,0,0,0,0,0,0,0,0,0,0,0,0,0,0,0,0,0,0,0,0,0,0,0,0,0,0,0,0,0],"id":14,"left_children":[1,3,5,7,9,-1,11,-1,-1,13,15,17,19,21,23,25,27,29,31,-1,-1,-1,-1,-1,-1,-1,-1,-1,-1,-1,-1,-1,-1],"loss_changes":[2.3879795E3,4.4893298E2,3.5425684E2,5.3429733E1,2.7436688E2,0E0,1.0544208E2,0E0,0E0,2.2270357E2,1.8452539E2,9.666968E1,2.6261732E1,1.4202173E2,4.787053E1,1.0920351E1,1.4009204E2,3.361432E1,2.4735397E1,0E0,0E0,0E0,0E0,0E0,0E0,0E0,0E0,0E0,0E0,0E0,0E0,0E0,0E0],"parents":[2147483647,0,0,1,1,2,2,3,3,4,4,6,6,9,9,10,10,11,11,12,12,13,13,14,14,15,15,16,16,17,17,18,18],"right_children":[2,4,6,8,10,-1,12,-1,-1,14,16,18,20,22,24,26,28,30,32,-1,-1,-1,-1,-1,-1,-1,-1,-1,-1,-1,-1,-1,-1],"split_conditions":[5.091E2,4.7007E2,5.1433E2,4.635E2,4.938E2,-5.498254E-1,6.3843E6,-4.2259216E-2,-3.2562166E-1,4.7685E6,4.8667E2,5.2141E2,5.2148E2,5.2976E6,4.8903E2,4.8257E2,4.9496E2,5.2875E6,4.2947E6,4.825348E-2,-1.24838255E-1,2.1520396E-1,-3.0882264E-2,2.6963297E-3,-1.7734894E-1,-3.6488723E-2,8.158302E-2,4.9773E-1,2.3300259E-1,-3.80823E-1,-1.2904015E-1,-2.4602814E-1,-9.344737E-2],"split_indices":[8,0,29,16,92,0,95,0,0,18,44,92,2,46,37,0,66,18,67,0,0,0,0,0,0,0,0,0,0,0,0,0,0],"split_type":[0,0,0,0,0,0,0,0,0,0,0,0,0,0,0,0,0,0,0,0,0,0,0,0,0,0,0,0,0,0,0,0,0],"sum_hessian":[1.41E2,9.4E1,4.7E1,7E0,8.7E1,1E1,3.7E1,3E0,4E0,5.4E1,3.3E1,3E1,7E0,3.6E1,1.8E1,6E0,2.7E1,1.5E1,1.5E1,4E0,3E0,2.9E1,7E0,1.4E1,4E0,3E0,3E0,9E0,1.8E1,1.2E1,3E0,4E0,1.1E1],"tree_param":{"num_deleted":"0","num_feature":"98","num_nodes":"33","size_leaf_vector":"1"}},{"base_weights":[-1.6666445E-1,2.5623972E0,-6.106251E0,-4.1933255E0,3.2094984E0,-1.0342963E1,-4.0618687E0,-6.480255E-2,-3.1259677E-1,1.260265E0,4.9660254E0,-6.060254E-1,-2.3596406E-1,3.920506E-1,-5.104775E0,1.8520828E0,-1.8631653E-1,5.4300127E0,-6.896706E-2,6.662293E-2,-3.23185E-2,-4.0698525E-1,-3.7873108E0,1.4980438E-1,-2.5589943E-3,3.0814418E-1,1.3355699E-1,-2.1769571E-1,-6.0835876E-2],"categories":[],"categories_nodes":[],"categories_segments":[],"categories_sizes":[],"default_left":[0,0,0,0,0,0,0,0,0,0,0,0,0,0,0,0,0,0,0,0,0,0,0,0,0,0,0,0,0],"id":15,"left_children":[1,3,5,7,9,11,13,-1,-1,15,17,-1,-1,19,21,23,-1,25,-1,-1,-1,-1,27,-1,-1,-1,-1,-1,-1],"loss_changes":[2.3173953E3,4.418789E2,3.4775378E2,4.5576385E1,3.0189075E2,8.274878E1,1.5064203E2,0E0,0E0,1.3675235E2,1.4586597E2,0E0,0E0,7.697033E0,7.3131165E1,8.724701E1,0E0,7.250159E1,0E0,0E0,0E0,0E0,2.3832672E1,0E0,0E0,0E0,0E0,0E0,0E0],"parents":[2147483647,0,0,1,1,2,2,3,3,4,4,5,5,6,6,9,9,10,10,13,13,14,14,15,15,17,17,22,22],"right_children":[2,4,6,8,10,12,14,-1,-1,16,18,-1,-1,20,22,24,-1,26,-1,-1,-1,-1,28,-1,-1,-1,-1,-1,-1],"split_conditions":[5.091E2,4.7007E2,5.1575E2,4.2129E6,4.8614E2,5.0044E6,4.9947E2,-6.480255E-2,-3.1259677E-1,4.8903E2,5.0643E2,-6.060254E-1,-2.3596406E-1,5.3013E2,4.3856E6,4.6294E6,-1.8631653E-1,4.9803E2,-6.896706E-2,6.662293E-2,-3.23185E-2,-4.0698525E-1,5.3151E2,1.4980438E-1,-2.5589943E-3,3.0814418E-1,1.3355699E-1,-2.1769571E-1,-6.0835876E-2],"split_indices":[1,0,36,95,58,46,93,0,0,79,14,0,0,22,11,18,0,84,0,0,0,0,91,0,0,0,0,0,0],"split_type":[0,0,0,0,0,0,0,0,0,0,0,0,0,0,0,0,0,0,0,0,0,0,0,0,0,0,0,0,0],"sum_hessian":[1.41E2,9.7E1,4.4E1,8E0,8.9E1,1.3E1,3.1E1,4E0,4E0,4.3E1,4.6E1,9E0,4E0,6E0,2.5E1,3.9E1,4E0,4.3E1,3E0,3E0,3E0,6E0,1.9E1,2.4E1,1.5E1,3.3E1,1E1,1.5E1,4E0],"tree_param":{"num_deleted":"0","num_feature":"98","num_nodes":"29","size_leaf_vector":"1"}},{"base_weights":[-2.4638897E-1,2.3937738E0,-5.2465644E0,3.720061E-1,4.5449343E0,7.2891617E-1,-6.284547E0,1.4902062E0,-3.5246859E0,1.1855583E0,5.14845E0,-8.205628E-2,1.7546196E-1,-1.01418085E1,-4.338721E0,-9.94701E-1,2.4131982E0,-3.3818328E-1,-7.076024E-1,9.862274E-2,-4.722595E-3,6.3545136E0,3.5223541E0,-5.8572716E-1,-3.177264E-1,-5.4630933E0,-7.0435715E-1,3.7301127E-2,-1.2848206E-1,1.6429298E-1,1.0290867E-2,3.7574768E-2,-9.948998E-2,2.378474E-1,4.644671E-1,-2.255249E-2,2.1735525E-1,-3.8878804E-1,-1.9327322E-1,-1.0320244E-1,2.6213378E-2],"categories":[],"categories_nodes":[],"categories_segments":[],"categories_sizes":[],"default_left":[0,0,0,0,0,0,0,0,0,0,0,0,0,0,0,0,0,0,0,0,0,0,0,0,0,0,0,0,0,0,0,0,0,0,0,0,0,0,0,0,0],"id":16,"left_children":[1,3,5,7,9,11,13,15,17,19,21,-1,-1,23,25,27,29,-1,31,-1,-1,33,35,-1,-1,37,39,-1,-1,-1,-1,-1,-1,-1,-1,-1,-1,-1,-1,-1,-1],"loss_changes":[1.8343352E3,3.940816E2,3.022981E2,2.1440204E2,8.310333E1,5.8474957E1,2.637257E2,8.955528E1,9.558327E1,8.244186E0,5.0180664E1,0E0,0E0,2.9925537E0,1.1465698E2,3.20739E1,5.326001E1,0E0,1.4591282E1,0E0,0E0,4.9582703E1,6.0948013E1,0E0,0E0,5.1228333E1,1.444652E1,0E0,0E0,0E0,0E0,0E0,0E0,0E0,0E0,0E0,0E0,0E0,0E0,0E0,0E0],"parents":[2147483647,0,0,1,1,2,2,3,3,4,4,5,5,6,6,7,7,8,8,9,9,10,10,13,13,14,14,15,15,16,16,18,18,21,21,22,22,25,25,26,26],"right_children":[2,4,6,8,10,12,14,16,18,20,22,-1,-1,24,26,28,30,-1,32,-1,-1,34,36,-1,-1,38,40,-1,-1,-1,-1,-1,-1,-1,-1,-1,-1,-1,-1,-1,-1],"split_conditions":[5.0311E2,4.8585E2,4.982E2,4.8906E2,4.8968E2,4.6053E6,5.1584E2,3.9648E6,4.8314E2,4.2606E6,4.9572E2,-8.205628E-2,1.7546196E-1,4.9456E6,6.3843E6,4.5959E6,4.5304E6,-3.3818328E-1,4.7638E6,9.862274E-2,-4.722595E-3,4.9685E2,3.063E6,-5.8572716E-1,-3.177264E-1,4.776E6,5.2718E2,3.7301127E-2,-1.2848206E-1,1.6429298E-1,1.0290867E-2,3.7574768E-2,-9.948998E-2,2.378474E-1,4.644671E-1,-2.255249E-2,2.1735525E-1,-3.8878804E-1,-1.9327322E-1,-1.0320244E-1,2.6213378E-2],"split_indices":[3,16,31,93,78,67,29,74,22,11,73,0,0,46,88,46,60,0,4,0,0,85,88,0,0,11,35,0,0,0,0,0,0,0,0,0,0,0,0,0,0],"split_type":[0,0,0,0,0,0,0,0,0,0,0,0,0,0,0,0,0,0,0,0,0,0,0,0,0,0,0,0,0,0,0,0,0,0,0,0,0,0,0,0,0],"sum_hessian":[1.37E2,9E1,4.7E1,4.7E1,4.3E1,7E0,4E1,3.7E1,1E1,7E0,3.6E1,4E0,3E0,1.2E1,2.8E1,1E1,2.7E1,4E0,6E0,4E0,3E0,1.9E1,1.7E1,7E0,5E0,2.1E1,7E0,5E0,5E0,1.9E1,8E0,3E0,3E0,1.4E1,5E0,3E0,1.4E1,7E0,1.4E1,3E0,4E0],"tree_param":{"num_deleted":"0","num_feature":"98","num_nodes":"41","size_leaf_vector":"1"}},{"base_weights":[-2.111102E-1,2.4020941E0,-4.9975867E0,-4.3668213E0,3.0409734E0,-4.742171E-1,-3.7189934E0,-7.5854115E-2,-2.886624E-1,1.7382654E0,4.9814243E0,-4.7343283E0,-3.0108947E-1,2.7925906E0,-9.079997E-1,6.2875795E0,1.916257E0,-5.761186E0,-1.6981947E0,-8.948796E-2,7.727661E-2,1.860633E-1,2.9541017E-4,1.5765551E-2,-1.1755568E-1,3.881944E-1,1.8698105E-1,-2.4297006E-2,2.4480407E-1,-3.289098E-1,-8.3385624E-2,-3.3668518E-2,-1.0491892E-1],"categories":[],"categories_nodes":[],"categories_segments":[],"categories_sizes":[],"default_left":[0,0,0,0,0,0,0,0,0,0,0,0,0,0,0,0,0,0,0,0,0,0,0,0,0,0,0,0,0,0,0,0,0],"id":17,"left_children":[1,3,5,7,9,-1,11,-1,-1,13,15,17,19,21,23,25,27,29,31,-1,-1,-1,-1,-1,-1,-1,-1,-1,-1,-1,-1,-1,-1],"loss_changes":[1.7005901E3,3.938372E2,2.4009106E2,2.33051E1,1.9609607E2,0E0,1.3391687E2,0E0,0E0,1.4203688E2,1.1606616E2,8.3746704E1,3.0256231E1,9.314325E1,2.7221981E1,5.3720642E1,8.111858E1,6.2606506E1,2.278078E0,0E0,0E0,0E0,0E0,0E0,0E0,0E0,0E0,0E0,0E0,0E0,0E0,0E0,0E0],"parents":[2147483647,0,0,1,1,2,2,3,3,4,4,6,6,9,9,10,10,11,11,12,12,13,13,14,14,15,15,16,16,17,17,18,18],"right_children":[2,4,6,8,10,-1,12,-1,-1,14,16,18,20,22,24,26,28,30,32,-1,-1,-1,-1,-1,-1,-1,-1,-1,-1,-1,-1,-1,-1],"split_conditions":[5.074E2,4.7007E2,3.8735E6,4.2129E6,4.9442E2,-4.742171E-1,5.3592E2,-7.5854115E-2,-2.886624E-1,4.7798E6,5.0211E2,5.36E2,5.0186E6,4.5959E6,4.8419E2,4.9351E2,4.2129E6,7.6204E6,5.3534E2,-8.948796E-2,7.727661E-2,1.860633E-1,2.9541017E-4,1.5765551E-2,-1.1755568E-1,3.881944E-1,1.8698105E-1,-2.4297006E-2,2.4480407E-1,-3.289098E-1,-8.3385624E-2,-3.3668518E-2,-1.0491892E-1],"split_indices":[1,0,25,95,57,0,64,0,0,11,85,15,67,4,44,2,32,11,1,0,0,0,0,0,0,0,0,0,0,0,0,0,0],"split_type":[0,0,0,0,0,0,0,0,0,0,0,0,0,0,0,0,0,0,0,0,0,0,0,0,0,0,0,0,0,0,0,0,0],"sum_hessian":[1.34E2,8.7E1,4.7E1,7E0,8E1,9E0,3.8E1,3E0,4E0,4.9E1,3.1E1,2.9E1,9E0,3.5E1,1.4E1,2.1E1,1E1,2.1E1,8E0,5E0,4E0,2.6E1,9E0,8E0,6E0,1.2E1,9E0,6E0,4E0,1.7E1,4E0,3E0,5E0],"tree_param":{"num_deleted":"0","num_feature":"98","num_nodes":"33","size_leaf_vector":"1"}},{"base_weights":[-1.2418045E-1,2.5384665E0,-5.012222E0,4.795227E-1,4.777788E0,-5.009064E-1,-3.9393775E0,-3.7490675E0,1.4189675E0,2.9179994E-2,5.192997E0,-4.8413134E0,-5.690521E-1,-6.030029E-2,-2.771158E-1,2.566236E0,-6.6422933E-1,5.9931235E0,3.131735E0,-5.501445E0,-2.2143554E-3,3.989029E-2,-1.0477356E-1,1.8726592E-1,1.5258637E-2,2.694645E-2,-8.921795E-2,3.659402E-1,2.1196811E-1,2.0945196E-1,3.0111998E-2,-3.463399E-1,-1.7397548E-1],"categories":[],"categories_nodes":[],"categories_segments":[],"categories_sizes":[],"default_left":[0,0,0,0,0,0,0,0,0,0,0,0,0,0,0,0,0,0,0,0,0,0,0,0,0,0,0,0,0,0,0,0,0],"id":18,"left_children":[1,3,5,7,9,-1,11,13,15,-1,17,19,21,-1,-1,23,25,27,29,31,-1,-1,-1,-1,-1,-1,-1,-1,-1,-1,-1,-1,-1],"loss_changes":[1.8088112E3,4.1266632E2,2.2369214E2,1.960011E2,7.185242E1,0E0,1.2491736E2,3.4359E1,9.730403E1,0E0,4.5552612E1,1.0425641E2,2.2535759E1,0E0,0E0,6.81725E1,2.1177042E1,3.1745972E1,3.2244995E1,5.947534E1,0E0,0E0,0E0,0E0,0E0,0E0,0E0,0E0,0E0,0E0,0E0,0E0,0E0],"parents":[2147483647,0,0,1,1,2,2,3,3,4,4,6,6,7,7,8,8,10,10,11,11,12,12,15,15,16,16,17,17,18,18,19,19],"right_children":[2,4,6,8,10,-1,12,14,16,-1,18,20,22,-1,-1,24,26,28,30,32,-1,-1,-1,-1,-1,-1,-1,-1,-1,-1,-1,-1,-1],"split_conditions":[5.0311E2,4.8627E2,3.6214E6,4.7007E2,4.8577E2,-5.009064E-1,5.36E2,4.2129E6,4.5959E6,2.9179994E-2,5.021E2,5.3738E2,5.2585E2,-6.030029E-2,-2.771158E-1,4.6744E6,4.792E2,4.9496E2,4.9378E2,5.0448E6,-2.2143554E-3,3.989029E-2,-1.0477356E-1,1.8726592E-1,1.5258637E-2,2.694645E-2,-8.921795E-2,3.659402E-1,2.1196811E-1,2.0945196E-1,3.0111998E-2,-3.463399E-1,-1.7397548E-1],"split_indices":[3,16,39,0,84,0,57,95,18,0,8,15,3,0,0,60,30,66,73,11,0,0,0,0,0,0,0,0,0,0,0,0,0],"split_type":[0,0,0,0,0,0,0,0,0,0,0,0,0,0,0,0,0,0,0,0,0,0,0,0,0,0,0,0,0,0,0,0,0],"sum_hessian":[1.37E2,8.9E1,4.8E1,4.7E1,4.2E1,7E0,4.1E1,8E0,3.9E1,4E0,3.8E1,3.2E1,9E0,4E0,4E0,2.5E1,1.4E1,2.6E1,1.2E1,2.8E1,4E0,5E0,4E0,1.6E1,9E0,7E0,7E0,1.3E1,1.3E1,8E0,4E0,1.5E1,1.3E1],"tree_param":{"num_deleted":"0","num_feature":"98","num_nodes":"33","size_leaf_vector":"1"}},{"base_weights":[7.280135E-2,2.1128523E0,-4.591906E0,6.266957E-1,4.008704E0,-9.155133E0,-3.069961E0,1.2774024E0,-3.067926E-1,4.9364276E0,-5.5117416E-1,-5.2386105E-1,-2.2763482E-1,-4.3219194E0,-1.7314287E-1,2.3384094E0,-7.976888E-1,7.407114E0,3.3253253E0,-1.4877167E-1,7.49234E-2,-1.7436104E0,-5.340954E0,-9.389557E-2,1.0692836E0,1.5942745E-1,-4.1155625E-2,1.652083E-2,-1.12456135E-1,1.8187357E-1,4.6542284E-1,-1.2129212E-2,2.1649443E-1,-2.6904678E-2,-1.17965095E-1,-3.1728515E-1,-9.3068235E-2,3.3794404E-3,9.018288E-2],"categories":[],"categories_nodes":[],"categories_segments":[],"categories_sizes":[],"default_left":[0,0,0,0,0,0,0,0,0,0,0,0,0,0,0,0,0,0,0,0,0,0,0,0,0,0,0,0,0,0,0,0,0,0,0,0,0,0,0],"id":19,"left_children":[1,3,5,7,9,11,13,15,-1,17,19,-1,-1,21,23,25,27,29,31,-1,-1,33,35,-1,37,-1,-1,-1,-1,-1,-1,-1,-1,-1,-1,-1,-1,-1,-1],"loss_changes":[1.313427E3,2.6797092E2,2.635833E2,2.4986191E2,1.8039368E2,1.3148621E1,1.1893265E2,1.1415133E2,0E0,1.146875E2,4.4209503E1,0E0,0E0,5.111731E1,2.5306566E1,9.400751E1,3.0215816E1,5.931671E1,8.3486755E1,0E0,0E0,4.6682873E0,4.412619E1,0E0,5.027423E0,0E0,0E0,0E0,0E0,0E0,0E0,0E0,0E0,0E0,0E0,0E0,0E0,0E0,0E0],"parents":[2147483647,0,0,1,1,2,2,3,3,4,4,5,5,6,6,7,7,9,9,10,10,13,13,14,14,15,15,16,16,17,17,18,18,21,21,22,22,24,24],"right_children":[2,4,6,8,10,12,14,16,-1,18,20,-1,-1,22,24,26,28,30,32,-1,-1,34,36,-1,38,-1,-1,-1,-1,-1,-1,-1,-1,-1,-1,-1,-1,-1,-1],"split_conditions":[5.0643E2,4.9442E2,5.1575E2,4.894E2,5.1546E6,5.0448E6,5.3592E2,4.6744E6,-3.067926E-1,4.939E2,3.9563E6,-5.2386105E-1,-2.2763482E-1,5.1215E2,5.2393E2,5.1463E6,4.8964E2,4.895E2,4.8973E2,-1.4877167E-1,7.49234E-2,5.8893E6,5.9231E6,-9.389557E-2,5.2545E2,1.5942745E-1,-4.1155625E-2,1.652083E-2,-1.12456135E-1,1.8187357E-1,4.6542284E-1,-1.2129212E-2,2.1649443E-1,-2.6904678E-2,-1.17965095E-1,-3.1728515E-1,-9.3068235E-2,3.3794404E-3,9.018288E-2],"split_indices":[7,64,36,93,46,25,64,18,0,70,95,0,0,66,78,46,0,93,0,0,0,25,11,0,7,0,0,0,0,0,0,0,0,0,0,0,0,0,0],"split_type":[0,0,0,0,0,0,0,0,0,0,0,0,0,0,0,0,0,0,0,0,0,0,0,0,0,0,0,0,0,0,0,0,0,0,0,0,0,0,0],"sum_hessian":[1.36E2,9.5E1,4.1E1,5.4E1,4.1E1,9E0,3.2E1,5E1,4E0,3.4E1,7E0,6E0,3E0,2.2E1,1E1,3.3E1,1.7E1,1.2E1,2.2E1,3E0,4E0,7E0,1.5E1,4E0,6E0,2.6E1,7E0,1E1,7E0,5E0,7E0,5E0,1.7E1,3E0,4E0,1.1E1,4E0,3E0,3E0],"tree_param":{"num_deleted":"0","num_feature":"98","num_nodes":"39","size_leaf_vector":"1"}},{"base_weights":[-2.343532E-1,2.11367E0,-4.638104E0,4.0439242E-1,3.7416084E0,-6.44145E0,-1.7011795E0,1.6003214E0,-3.5463202E0,1.0215626E0,4.984706E0,-8.541901E0,-3.0376375E0,-3.8368492E0,-2.5606126E-1,3.4757223E0,2.4889721E-1,-2.9452088E-1,-1.3653477E0,2.1828864E0,-6.388957E-2,6.353268E0,2.7713208E0,-1.0023496E1,-2.718485E-1,-4.237091E0,3.602028E-2,-8.404541E-2,-2.3971163E-1,6.9452666E-2,-1.4578896E0,2.088398E-1,2.5178527E-2,6.653455E-2,-4.7693428E-2,-3.234291E-2,-8.712502E-2,4.663195E-2,1.7483276E-1,2.2385724E-1,4.464944E-1,-1.4701843E-2,2.013434E-1,-2.5651857E-1,-5.6085604E-1,-2.865338E-1,-1.14312746E-1,-1.0048737E-1,-2.0179749E-2],"categories":[],"categories_nodes":[],"categories_segments":[],"categories_sizes":[],"default_left":[0,0,0,0,0,0,0,0,0,0,0,0,0,0,0,0,0,0,0,0,0,0,0,0,0,0,0,0,0,0,0,0,0,0,0,0,0,0,0,0,0,0,0,0,0,0,0,0,0],"id":20,"left_children":[1,3,5,7,9,11,13,15,17,19,21,23,25,27,29,31,33,-1,35,37,-1,39,41,43,-1,45,-1,-1,-1,-1,47,-1,-1,-1,-1,-1,-1,-1,-1,-1,-1,-1,-1,-1,-1,-1,-1,-1,-1],"loss_changes":[1.4574187E3,2.5448596E2,2.485603E2,2.2301477E2,1.5382812E2,1.8853894E2,6.074344E1,9.037555E1,4.819406E1,4.551398E1,7.932599E1,2.8307129E1,6.16512E1,8.453835E0,2.7727978E1,2.915216E1,2.9894484E1,0E0,7.6971054E-1,1.4806786E1,0E0,5.186676E1,5.506584E1,6.69812E0,0E0,1.6035614E1,0E0,0E0,0E0,0E0,3.843441E0,0E0,0E0,0E0,0E0,0E0,0E0,0E0,0E0,0E0,0E0,0E0,0E0,0E0,0E0,0E0,0E0,0E0,0E0],"parents":[2147483647,0,0,1,1,2,2,3,3,4,4,5,5,6,6,7,7,8,8,9,9,10,10,11,11,12,12,13,13,14,14,15,15,16,16,18,18,19,19,21,21,22,22,23,23,25,25,30,30],"right_children":[2,4,6,8,10,12,14,16,18,20,22,24,26,28,30,32,34,-1,36,38,-1,40,42,44,-1,46,-1,-1,-1,-1,48,-1,-1,-1,-1,-1,-1,-1,-1,-1,-1,-1,-1,-1,-1,-1,-1,-1,-1],"split_conditions":[5.0311E2,4.8585E2,5.2141E2,4.9699E2,4.9442E2,5.0044E6,4.776E6,4.0561E6,4.7261E2,4.5571E6,4.9572E2,4.9778E6,5.0186E6,4.9947E2,4.8589E6,4.6294E6,4.5304E6,-2.9452088E-1,4.841E2,4.001E6,-6.388957E-2,4.9163E2,3.1734E6,5.028E2,-2.718485E-1,4.5215E6,3.602028E-2,-8.404541E-2,-2.3971163E-1,6.9452666E-2,5.1821E2,2.088398E-1,2.5178527E-2,6.653455E-2,-4.7693428E-2,-3.234291E-2,-8.712502E-2,4.663195E-2,1.7483276E-1,2.2385724E-1,4.464944E-1,-1.4701843E-2,2.013434E-1,-2.5651857E-1,-5.6085604E-1,-2.865338E-1,-1.14312746E-1,-1.0048737E-1,-2.0179749E-2],"split_indices":[17,23,78,92,64,32,60,11,0,11,73,53,95,2,4,18,53,0,0,18,0,93,95,9,0,25,0,0,0,0,52,0,0,0,0,0,0,0,0,0,0,0,0,0,0,0,0,0,0],"split_type":[0,0,0,0,0,0,0,0,0,0,0,0,0,0,0,0,0,0,0,0,0,0,0,0,0,0,0,0,0,0,0,0,0,0,0,0,0,0,0,0,0,0,0,0,0,0,0,0,0],"sum_hessian":[1.39E2,9.1E1,4.8E1,4.5E1,4.6E1,2.9E1,1.9E1,3.5E1,1E1,1.5E1,3.1E1,1.7E1,1.2E1,7E0,1.2E1,1.4E1,2.1E1,4E0,6E0,1E1,5E0,1.8E1,1.3E1,1E1,7E0,9E0,3E0,3E0,4E0,5E0,7E0,1.1E1,3E0,1.1E1,1E1,3E0,3E0,6E0,4E0,1.2E1,6E0,4E0,9E0,3E0,7E0,4E0,5E0,4E0,3E0],"tree_param":{"num_deleted":"0","num_feature":"98","num_nodes":"49","size_leaf_vector":"1"}},{"base_weights":[4.7312927E-2,2.1824992E0,-4.5088024E0,7.434375E-1,3.796915E0,-9.471823E0,-3.0049412E0,1.2703627E0,-2.9486275E-1,8.0265045E-2,4.479449E0,-2.3041077E-1,-5.448955E-1,3.216858E-1,-3.6809895E0,2.8742936E0,1.5873006E-1,-5.144806E-2,7.233658E-2,1.8878326E0,5.4653726E0,5.4591753E-2,-2.6444245E-2,-5.262579E0,-1.7485616E0,1.7686597E-1,8.887635E-3,1.2494691E-1,-1.4870747E-2,1.633557E-1,-8.437538E-2,3.8754565E-1,1.9459984E-1,-2.926029E-1,-1.015564E-1,-1.6066843E-1,-3.474106E-2],"categories":[],"categories_nodes":[],"categories_segments":[],"categories_sizes":[],"default_left":[0,0,0,0,0,0,0,0,0,0,0,0,0,0,0,0,0,0,0,0,0,0,0,0,0,0,0,0,0,0,0,0,0,0,0,0,0],"id":21,"left_children":[1,3,5,7,9,11,13,15,-1,17,19,-1,-1,21,23,25,27,-1,-1,29,31,-1,-1,33,35,-1,-1,-1,-1,-1,-1,-1,-1,-1,-1,-1,-1],"loss_changes":[1.3717823E3,2.2020862E2,3.07404E2,1.8944734E2,1.137937E2,1.9139343E1,8.21467E1,8.6909874E1,0E0,1.3614394E1,8.6777466E1,0E0,0E0,5.1629195E0,8.2487274E1,3.512874E1,3.2767445E1,0E0,0E0,6.4690056E1,6.69259E1,0E0,0E0,1.8591736E1,2.0920181E1,0E0,0E0,0E0,0E0,0E0,0E0,0E0,0E0,0E0,0E0,0E0,0E0],"parents":[2147483647,0,0,1,1,2,2,3,3,4,4,5,5,6,6,7,7,9,9,10,10,13,13,14,14,15,15,16,16,19,19,20,20,23,23,24,24],"right_children":[2,4,6,8,10,12,14,16,-1,18,20,-1,-1,22,24,26,28,-1,-1,30,32,-1,-1,34,36,-1,-1,-1,-1,-1,-1,-1,-1,-1,-1,-1,-1],"split_conditions":[5.091E2,4.9298E2,5.1584E2,4.9108E2,4.8585E2,5.0025E2,4.9947E2,4.1871E6,-2.9486275E-1,4.8257E2,3.6139E6,-2.3041077E-1,-5.448955E-1,5.3013E2,5.2141E2,4.9034E2,3.656E6,-5.144806E-2,7.233658E-2,4.9986E2,4.939E2,5.4591753E-2,-2.6444245E-2,5.3258E2,5.1822E2,1.7686597E-1,8.887635E-3,1.2494691E-1,-1.4870747E-2,1.633557E-1,-8.437538E-2,3.8754565E-1,1.9459984E-1,-2.926029E-1,-1.015564E-1,-1.6066843E-1,-3.474106E-2],"split_indices":[8,64,8,70,23,51,93,11,0,7,11,0,0,22,92,38,88,0,0,38,70,0,0,3,24,0,0,0,0,0,0,0,0,0,0,0,0],"split_type":[0,0,0,0,0,0,0,0,0,0,0,0,0,0,0,0,0,0,0,0,0,0,0,0,0,0,0,0,0,0,0,0,0,0,0,0,0],"sum_hessian":[1.39E2,9.5E1,4.4E1,5.1E1,4.4E1,9E0,3.5E1,4.8E1,3E0,7E0,3.7E1,3E0,6E0,6E0,2.9E1,1.9E1,2.9E1,4E0,3E0,1.1E1,2.6E1,3E0,3E0,1.5E1,1.4E1,1.5E1,4E0,4E0,2.5E1,8E0,3E0,9E0,1.7E1,1.2E1,3E0,5E0,9E0],"tree_param":{"num_deleted":"0","num_feature":"98","num_nodes":"37","size_leaf_vector":"1"}},{"base_weights":[1.9192094E-2,1.840835E0,-4.0385394E0,-2.9792817E0,2.3617375E0,-8.810407E0,-2.5597622E0,8.1207655E-2,-2.592102E-1,1.1982428E0,3.7570624E0,-2.2580147E-1,-5.002853E-1,-3.5085402E0,-1.7074308E-1,2.1734352E0,-5.072519E-1,-2.8279766E-1,4.4782968E0,-1.0355225E0,-4.2349916E0,-8.958496E-2,1.0114746E0,1.343325E-1,-5.6762695E-2,1.2182852E-2,-9.146663E-2,-6.3136294E-2,3.8391497E-2,9.937065E-2,2.716678E-1,-1.1882019E-2,-7.8726195E-2,-2.8124577E-1,-1.3563912E-1,4.1179657E-3,8.4386066E-2],"categories":[],"categories_nodes":[],"categories_segments":[],"categories_sizes":[],"default_left":[0,0,0,0,0,0,0,0,0,0,0,0,0,0,0,0,0,0,0,0,0,0,0,0,0,0,0,0,0,0,0,0,0,0,0,0,0],"id":22,"left_children":[1,3,5,7,9,11,13,-1,-1,15,17,-1,-1,19,21,23,25,27,29,31,33,-1,35,-1,-1,-1,-1,-1,-1,-1,-1,-1,-1,-1,-1,-1,-1],"loss_changes":[1.0496693E3,2.530958E2,2.879347E2,1.0992211E2,1.3998553E2,6.1446533E0,7.873361E1,0E0,0E0,8.426175E1,1.1781384E2,0E0,0E0,4.052777E1,2.2891813E1,5.73882E1,1.9308214E1,8.176335E0,7.0085754E1,2.6362467E0,2.4940186E1,0E0,4.2591777E0,0E0,0E0,0E0,0E0,0E0,0E0,0E0,0E0,0E0,0E0,0E0,0E0,0E0,0E0],"parents":[2147483647,0,0,1,1,2,2,3,3,4,4,5,5,6,6,9,9,10,10,13,13,14,14,15,15,16,16,17,17,18,18,19,19,20,20,22,22],"right_children":[2,4,6,8,10,12,14,-1,-1,16,18,-1,-1,20,22,24,26,28,30,32,34,-1,36,-1,-1,-1,-1,-1,-1,-1,-1,-1,-1,-1,-1,-1,-1],"split_conditions":[5.091E2,4.7261E2,5.1185E2,4.8314E2,4.9442E2,5.0903E2,5.3592E2,8.1207655E-2,-2.592102E-1,4.6744E6,4.8585E2,-2.2580147E-1,-5.002853E-1,5.0264E2,4.3856E6,5.2976E6,4.9E2,4.768E2,3.6139E6,5.3641E2,4.914E6,-8.958496E-2,5.2301E2,1.343325E-1,-5.6762695E-2,1.2182852E-2,-9.146663E-2,-6.3136294E-2,3.8391497E-2,9.937065E-2,2.716678E-1,-1.1882019E-2,-7.8726195E-2,-2.8124577E-1,-1.3563912E-1,4.1179657E-3,8.4386066E-2],"split_indices":[8,0,50,64,64,7,64,0,0,18,23,0,0,58,67,46,0,9,18,22,18,0,3,0,0,0,0,0,0,0,0,0,0,0,0,0,0],"split_type":[0,0,0,0,0,0,0,0,0,0,0,0,0,0,0,0,0,0,0,0,0,0,0,0,0,0,0,0,0,0,0,0,0,0,0,0,0],"sum_hessian":[1.4E2,9.7E1,4.3E1,9E0,8.8E1,9E0,3.4E1,3E0,6E0,4.9E1,3.9E1,3E0,6E0,2.4E1,1E1,3.1E1,1.8E1,6E0,3.3E1,6E0,1.8E1,4E0,6E0,2.7E1,4E0,1.2E1,6E0,3E0,3E0,1E1,2.3E1,3E0,3E0,8E0,1E1,3E0,3E0],"tree_param":{"num_deleted":"0","num_feature":"98","num_nodes":"37","size_leaf_vector":"1"}},{"base_weights":[3.2994874E-2,1.9705377E0,-4.0534105E0,-3.3641815E0,2.42284E0,-5.962921E0,-1.4962347E0,-3.9598085E-2,-2.3745607E-1,2.6638267E0,-1.7121659E-1,-7.232822E0,-2.7605727E0,-3.4272652E0,-2.8591484E-1,1.3014457E0,3.7436478E0,-4.149768E-1,-2.430994E-1,-1.8803985E-1,-6.041168E-2,-7.325287E-2,-2.1557891E-1,-1.2015923E0,5.6762695E-2,1.2777965E-1,-2.7283523E-2,1.5715943E-1,3.1765231E-1,-8.588501E-2,-2.2258302E-2],"categories":[],"categories_nodes":[],"categories_segments":[],"categories_sizes":[],"default_left":[0,0,0,0,0,0,0,0,0,0,0,0,0,0,0,0,0,0,0,0,0,0,0,0,0,0,0,0,0,0,0],"id":23,"left_children":[1,3,5,7,9,11,13,-1,-1,15,-1,17,19,21,23,25,27,-1,-1,-1,-1,-1,-1,29,-1,-1,-1,-1,-1,-1,-1],"loss_changes":[1.1322845E3,2.4220279E2,2.1569403E2,2.4737823E1,1.3594E2,8.576648E1,4.8100548E1,0E0,0E0,1.2311597E2,0E0,5.1698E0,9.430267E0,7.5649414E0,1.9582764E1,9.405675E1,5.523944E1,0E0,0E0,0E0,0E0,0E0,0E0,2.7489176E0,0E0,0E0,0E0,0E0,0E0,0E0,0E0],"parents":[2147483647,0,0,1,1,2,2,3,3,4,4,5,5,6,6,9,9,11,11,12,12,13,13,14,14,15,15,16,16,23,23],"right_children":[2,4,6,8,10,12,14,-1,-1,16,-1,18,20,22,24,26,28,-1,-1,-1,-1,-1,-1,30,-1,-1,-1,-1,-1,-1,-1],"split_conditions":[5.091E2,4.7007E2,5.2141E2,4.635E2,5.0162E2,5.2875E6,4.776E6,-3.9598085E-2,-2.3745607E-1,4.8627E2,-1.7121659E-1,4.9778E6,5.1239E2,4.8589E6,5.36E2,4.5959E6,5.0409E6,-4.149768E-1,-2.430994E-1,-1.8803985E-1,-6.041168E-2,-7.325287E-2,-2.1557891E-1,5.1821E2,5.6762695E-2,1.2777965E-1,-2.7283523E-2,1.5715943E-1,3.1765231E-1,-8.588501E-2,-2.2258302E-2],"split_indices":[8,0,78,16,2,39,60,0,0,16,0,53,38,25,64,18,67,0,0,0,0,0,0,52,0,0,0,0,0,0,0],"split_type":[0,0,0,0,0,0,0,0,0,0,0,0,0,0,0,0,0,0,0,0,0,0,0,0,0,0,0,0,0,0,0],"sum_hessian":[1.41E2,9.6E1,4.5E1,7E0,8.9E1,2.5E1,2E1,3E0,4E0,8.6E1,3E0,1.7E1,8E0,7E0,1.3E1,3.9E1,4.7E1,1E1,7E0,4E0,4E0,3E0,4E0,8E0,5E0,2.3E1,1.6E1,4E1,7E0,4E0,4E0],"tree_param":{"num_deleted":"0","num_feature":"98","num_nodes":"31","size_leaf_vector":"1"}},{"base_weights":[-4.1812293E-2,1.796312E0,-3.9308238E0,5.127546E-1,3.494574E0,-6.988861E0,-2.2135346E0,9.823085E-1,-2.0957123E-1,4.6644797E0,7.9595715E-1,-4.400116E-1,-1.8307735E-1,-3.6955495E0,-9.500212E-1,1.822656E0,-8.648243E-1,3.099701E0,3.724813E-1,-5.939662E-2,2.1843796E0,-1.4018816E0,-2.730641E-1,-1.5972266E0,4.6135865E-2,-5.529807E-2,1.2448578E-1,-1.07040405E-2,-1.3817672E-1,1.7171402E-1,4.9322892E-2,1.1888886E-2,1.6523926E-1,1.9569397E-3,-1.24621585E-1,-1.1164665E-1,-2.4170686E-2],"categories":[],"categories_nodes":[],"categories_segments":[],"categories_sizes":[],"default_left":[0,0,0,0,0,0,0,0,0,0,0,0,0,0,0,0,0,0,0,0,0,0,0,0,0,0,0,0,0,0,0,0,0,0,0,0,0],"id":24,"left_children":[1,3,5,7,9,11,13,15,-1,17,19,-1,-1,21,23,25,27,29,-1,-1,31,33,-1,35,-1,-1,-1,-1,-1,-1,-1,-1,-1,-1,-1,-1,-1],"loss_changes":[9.578097E2,1.965715E2,2.1034595E2,1.21187164E2,1.1941522E2,5.8182617E1,5.0792984E1,7.763572E1,0E0,9.4578064E1,3.840309E1,0E0,0E0,4.4993988E1,2.2078579E1,6.917466E1,1.9177555E1,1.0046143E1,0E0,0E0,1.6662071E1,1.1098085E1,0E0,8.125324E0,0E0,0E0,0E0,0E0,0E0,0E0,0E0,0E0,0E0,0E0,0E0,0E0,0E0],"parents":[2147483647,0,0,1,1,2,2,3,3,4,4,5,5,6,6,7,7,9,9,10,10,13,13,14,14,15,15,16,16,17,17,20,20,21,21,23,23],"right_children":[2,4,6,8,10,12,14,16,-1,18,20,-1,-1,22,24,26,28,30,-1,-1,32,34,-1,36,-1,-1,-1,-1,-1,-1,-1,-1,-1,-1,-1,-1,-1],"split_conditions":[5.091E2,4.9442E2,5.1575E2,4.8925E2,5.0211E2,4.9456E6,4.9778E6,4.6744E6,-2.0957123E-1,4.9298E2,4.8854E2,-4.400116E-1,-1.8307735E-1,5.2569E2,5.36E2,4.7304E2,4.9163E2,5.0378E2,3.724813E-1,-5.939662E-2,3.9351E6,5.2545E2,-2.730641E-1,5.203E2,4.6135865E-2,-5.529807E-2,1.2448578E-1,-1.07040405E-2,-1.3817672E-1,1.7171402E-1,4.9322892E-2,1.1888886E-2,1.6523926E-1,1.9569397E-3,-1.24621585E-1,-1.1164665E-1,-2.4170686E-2],"split_indices":[1,64,43,93,85,46,32,18,0,93,2,0,0,14,64,21,23,71,0,0,32,28,0,28,0,0,0,0,0,0,0,0,0,0,0,0,0],"split_type":[0,0,0,0,0,0,0,0,0,0,0,0,0,0,0,0,0,0,0,0,0,0,0,0,0,0,0,0,0,0,0,0,0,0,0,0,0],"sum_hessian":[1.32E2,9E1,4.2E1,5.2E1,3.8E1,1.4E1,2.8E1,4.8E1,4E0,2.6E1,1.2E1,8E0,6E0,1.2E1,1.6E1,3.3E1,1.5E1,1.8E1,8E0,5E0,7E0,6E0,6E0,1.2E1,4E0,6E0,2.7E1,1.2E1,3E0,1.5E1,3E0,3E0,4E0,3E0,3E0,7E0,5E0],"tree_param":{"num_deleted":"0","num_feature":"98","num_nodes":"37","size_leaf_vector":"1"}},{"base_weights":[-3.5304178E-2,1.715325E0,-3.9199858E0,-1.8603288E-1,2.0746338E0,-4.4285184E-1,-2.6430333E0,2.3023844E0,-1.5849228E-1,-3.4518666E0,-1.2732612E-2,1.0179641E0,3.2645369E0,-2.542038E-2,-4.1284804E0,6.981125E-2,-4.749578E-2,7.6266386E-2,-1.2671143E-1,5.649022E-3,1.8614922E-1,-6.3554004E-2,-2.2670491E-1],"categories":[],"categories_nodes":[],"categories_segments":[],"categories_sizes":[],"default_left":[0,0,0,0,0,0,0,0,0,0,0,0,0,0,0,0,0,0,0,0,0,0,0],"id":25,"left_children":[1,3,5,-1,7,-1,9,11,-1,13,15,17,19,-1,21,-1,-1,-1,-1,-1,-1,-1,-1],"loss_changes":[8.976075E2,1.8545993E2,2.3507013E2,0E0,1.1001938E2,0E0,7.229025E1,9.924887E1,0E0,4.968225E1,1.3210356E1,7.05489E1,6.7486115E1,0E0,1.857608E1,0E0,0E0,0E0,0E0,0E0,0E0,0E0,0E0],"parents":[2147483647,0,0,1,1,2,2,4,4,6,6,7,7,9,9,10,10,11,11,12,12,14,14],"right_children":[2,4,6,-1,8,-1,10,12,-1,14,16,18,20,-1,22,-1,-1,-1,-1,-1,-1,-1,-1],"split_conditions":[5.0643E2,4.7007E2,5.1584E2,-1.8603288E-1,5.0162E2,-4.4285184E-1,5.3592E2,4.8627E2,-1.5849228E-1,4.9947E2,5.2545E2,4.9984E2,4.8343E2,-2.542038E-2,5.1233E2,6.981125E-2,-4.749578E-2,7.6266386E-2,-1.2671143E-1,5.649022E-3,1.8614922E-1,-6.3554004E-2,-2.2670491E-1],"split_indices":[7,0,8,0,2,0,71,16,0,72,21,94,86,0,10,0,0,0,0,0,0,0,0],"split_type":[0,0,0,0,0,0,0,0,0,0,0,0,0,0,0,0,0,0,0,0,0,0,0],"sum_hessian":[1.3E2,9E1,4E1,5E0,8.5E1,7E0,3.3E1,8.2E1,3E0,2.5E1,8E0,3.6E1,4.6E1,5E0,2E1,3E0,5E0,3.2E1,4E0,6E0,4E1,3E0,1.7E1],"tree_param":{"num_deleted":"0","num_feature":"98","num_nodes":"23","size_leaf_vector":"1"}},{"base_weights":[-1.5829355E-2,1.8034288E0,-3.4604707E0,5.200882E-1,3.2271647E0,-4.216042E0,-2.4325256E-1,1.1186378E0,-3.1455078E0,2.0588512E0,4.4093676E0,-5.2981606E0,-2.2035828E0,-6.682434E-2,3.5415903E-2,-7.748413E-2,1.4402947E0,-2.2117996E-1,-5.4051973E-2,3.42757E0,2.5410601E-1,3.660622E-2,5.0152264E0,-6.4311633E0,-2.22826E0,-2.8190887E0,-4.0523782E-2,1.03717975E-1,-1.5231185E-2,2.4471665E-2,2.130034E-1,9.645813E-2,-4.8933193E-2,2.863991E-1,6.333885E-2,-3.6863655E-1,-2.0164096E-1,-4.0457156E-2,-1.4589508E-1,-4.6698E-2,-1.746789E-1],"categories":[],"categories_nodes":[],"categories_segments":[],"categories_sizes":[],"default_left":[0,0,0,0,0,0,0,0,0,0,0,0,0,0,0,0,0,0,0,0,0,0,0,0,0,0,0,0,0,0,0,0,0,0,0,0,0,0,0,0,0],"id":26,"left_children":[1,3,5,7,9,11,13,15,17,19,21,23,25,-1,-1,-1,27,-1,-1,29,31,-1,33,35,37,39,-1,-1,-1,-1,-1,-1,-1,-1,-1,-1,-1,-1,-1,-1,-1],"loss_changes":[8.52244E2,1.6093689E2,1.13223816E2,1.0883266E2,4.893152E1,7.107843E1,1.1349555E1,3.8279922E1,1.3687965E1,5.5943382E1,4.0886047E1,6.914661E1,1.0577187E1,0E0,0E0,0E0,4.267476E1,0E0,0E0,2.9712875E1,2.4602556E1,0E0,3.816327E1,8.656555E0,5.46846E0,9.452148E0,0E0,0E0,0E0,0E0,0E0,0E0,0E0,0E0,0E0,0E0,0E0,0E0,0E0,0E0,0E0],"parents":[2147483647,0,0,1,1,2,2,3,3,4,4,5,5,6,6,7,7,8,8,9,9,10,10,11,11,12,12,16,16,19,19,20,20,22,22,23,23,24,24,25,25],"right_children":[2,4,6,8,10,12,14,16,18,20,22,24,26,-1,-1,-1,28,-1,-1,30,32,-1,34,36,38,40,-1,-1,-1,-1,-1,-1,-1,-1,-1,-1,-1,-1,-1,-1,-1],"split_conditions":[5.0311E2,4.8627E2,5.3592E2,4.9984E2,4.0589E6,5.2875E6,5.2468E2,4.6955E2,4.7261E2,4.8925E2,4.9108E2,5.2875E6,5.101E2,-6.682434E-2,3.5415903E-2,-7.748413E-2,4.7638E6,-2.2117996E-1,-5.4051973E-2,4.8777E2,3.8735E6,3.660622E-2,5.0255E2,5.101E2,5.0283E2,4.9352E2,-4.0523782E-2,1.03717975E-1,-1.5231185E-2,2.4471665E-2,2.130034E-1,9.645813E-2,-4.8933193E-2,2.863991E-1,6.333885E-2,-3.6863655E-1,-2.0164096E-1,-4.0457156E-2,-1.4589508E-1,-4.6698E-2,-1.746789E-1],"split_indices":[3,16,64,94,39,39,51,64,0,72,8,25,37,0,0,0,4,0,0,66,4,0,1,65,9,30,0,0,0,0,0,0,0,0,0,0,0,0,0,0,0],"split_type":[0,0,0,0,0,0,0,0,0,0,0,0,0,0,0,0,0,0,0,0,0,0,0,0,0,0,0,0,0,0,0,0,0,0,0,0,0,0,0,0,0],"sum_hessian":[1.34E2,8.8E1,4.6E1,4.7E1,4.1E1,3.7E1,9E0,4.1E1,6E0,2.2E1,1.9E1,2.3E1,1.4E1,4E0,5E0,4E0,3.7E1,3E0,3E0,1.2E1,1E1,3E0,1.6E1,1.6E1,7E0,9E0,5E0,2.7E1,1E1,3E0,9E0,4E0,6E0,1.3E1,3E0,1E1,6E0,3E0,4E0,3E0,6E0],"tree_param":{"num_deleted":"0","num_feature":"98","num_nodes":"41","size_leaf_vector":"1"}},{"base_weights":[-2.2135483E-1,1.4151881E0,-3.6349921E0,4.370748E-1,2.9788961E0,-7.4272738E0,-2.4806087E0,9.5571953E-1,-2.1517868E-1,4.745241E0,1.148733E0,-1.9933014E-1,-4.5283103E-1,3.9056396E-1,-3.067862E0,1.7918065E0,-5.552185E-1,3.2939265E0,3.549441E-1,-1.4253366E0,2.4464064E0,5.103607E-2,-1.6861726E-2,-3.6845226E0,-9.1147995E-1,1.2151686E-1,-3.335133E-2,4.9218754E-3,-1.04841106E-1,9.378113E-2,1.8579407E-1,-2.0885468E-2,-1.03831485E-1,2.82724E-2,1.6097802E-1,-2.1640061E-1,-7.977012E-2,-1.3704682E-2,-6.1954655E-2],"categories":[],"categories_nodes":[],"categories_segments":[],"categories_sizes":[],"default_left":[0,0,0,0,0,0,0,0,0,0,0,0,0,0,0,0,0,0,0,0,0,0,0,0,0,0,0,0,0,0,0,0,0,0,0,0,0,0,0],"id":27,"left_children":[1,3,5,7,9,11,13,15,-1,17,19,-1,-1,21,23,25,27,29,-1,31,33,-1,-1,35,37,-1,-1,-1,-1,-1,-1,-1,-1,-1,-1,-1,-1,-1,-1],"loss_changes":[7.7608997E2,1.4246948E2,1.7857452E2,1.4917705E2,1.1092618E2,1.9955322E1,6.1898026E1,6.921172E1,0E0,3.810254E1,6.695269E1,0E0,0E0,3.554616E0,3.6534332E1,5.6572525E1,2.0359976E1,8.103943E-1,0E0,3.7263966E0,1.7085022E1,0E0,0E0,2.4014618E1,1.3309016E0,0E0,0E0,0E0,0E0,0E0,0E0,0E0,0E0,0E0,0E0,0E0,0E0,0E0,0E0],"parents":[2147483647,0,0,1,1,2,2,3,3,4,4,5,5,6,6,7,7,9,9,10,10,13,13,14,14,15,15,16,16,17,17,19,19,20,20,23,23,24,24],"right_children":[2,4,6,8,10,12,14,16,-1,18,20,-1,-1,22,24,26,28,30,-1,32,34,-1,-1,36,38,-1,-1,-1,-1,-1,-1,-1,-1,-1,-1,-1,-1,-1,-1],"split_conditions":[5.091E2,4.9442E2,5.1584E2,4.8925E2,4.9572E2,5.0903E2,4.9947E2,4.6744E6,-2.1517868E-1,4.9163E2,3.2448E6,-1.9933014E-1,-4.5283103E-1,5.3013E2,5.36E2,4.7685E6,4.8627E2,3.5352E6,3.549441E-1,4.9725E2,3.9376E6,5.103607E-2,-1.6861726E-2,6.1293E6,5.275E2,1.2151686E-1,-3.335133E-2,4.9218754E-3,-1.04841106E-1,9.378113E-2,1.8579407E-1,-2.0885468E-2,-1.03831485E-1,2.82724E-2,1.6097802E-1,-2.1640061E-1,-7.977012E-2,-1.3704682E-2,-6.1954655E-2],"split_indices":[8,64,8,93,73,7,93,18,0,93,95,0,0,22,15,11,44,18,0,56,25,0,0,46,0,0,0,0,0,0,0,0,0,0,0,0,0,0,0],"split_type":[0,0,0,0,0,0,0,0,0,0,0,0,0,0,0,0,0,0,0,0,0,0,0,0,0,0,0,0,0,0,0,0,0,0,0,0,0,0,0],"sum_hessian":[1.37E2,9.3E1,4.4E1,5.8E1,3.5E1,9E0,3.5E1,5.3E1,5E0,1.7E1,1.8E1,4E0,5E0,6E0,2.9E1,3.4E1,1.9E1,1.2E1,5E0,6E0,1.2E1,3E0,3E0,2.2E1,7E0,2.7E1,7E0,1.4E1,5E0,4E0,8E0,3E0,3E0,4E0,8E0,1.6E1,6E0,3E0,4E0],"tree_param":{"num_deleted":"0","num_feature":"98","num_nodes":"39","size_leaf_vector":"1"}},{"base_weights":[6.8344004E-2,1.5394573E0,-3.142911E0,5.464906E-1,2.9159484E0,-6.134308E0,-2.0826676E0,1.0749136E0,-2.0621288E-1,3.3589742E0,-9.5551305E-2,-3.8872656E-1,-1.73585E-1,-2.241756E-1,-1.4080756E0,3.76234E-1,2.9444559E0,4.3003364E0,1.0394415E0,-2.0767045E0,2.3421901E-1,3.930871E-2,-1.0047328E-1,2.9585877E-2,1.9131897E-1,1.4640045E-1,3.283588E-1,-4.8158918E-2,1.6012955E-1,-3.2588046E-2,-1.5916581E-1,3.6836497E-2,-2.8905107E-2],"categories":[],"categories_nodes":[],"categories_segments":[],"categories_sizes":[],"default_left":[0,0,0,0,0,0,0,0,0,0,0,0,0,0,0,0,0,0,0,0,0,0,0,0,0,0,0,0,0,0,0,0,0],"id":28,"left_children":[1,3,5,7,9,11,13,15,-1,17,-1,-1,-1,-1,19,21,23,25,27,29,31,-1,-1,-1,-1,-1,-1,-1,-1,-1,-1,-1,-1],"loss_changes":[6.614911E2,1.2962022E2,1.26775055E2,1.4511668E2,9.195801E1,2.1049133E1,4.8752945E1,6.681517E1,0E0,7.632031E1,0E0,0E0,0E0,0E0,3.1232796E1,3.972155E1,2.678495E1,6.165329E1,5.506826E1,2.9462433E1,4.0997076E0,0E0,0E0,0E0,0E0,0E0,0E0,0E0,0E0,0E0,0E0,0E0,0E0],"parents":[2147483647,0,0,1,1,2,2,3,3,4,4,5,5,6,6,7,7,9,9,14,14,15,15,16,16,17,17,18,18,19,19,20,20],"right_children":[2,4,6,8,10,12,14,16,-1,18,-1,-1,-1,-1,20,22,24,26,28,30,32,-1,-1,-1,-1,-1,-1,-1,-1,-1,-1,-1,-1],"split_conditions":[5.091E2,4.9442E2,3.8735E6,4.8925E2,5.0643E2,5.1584E2,3.6261E6,4.9084E6,-2.0621288E-1,5.0211E2,-9.5551305E-2,-3.8872656E-1,-1.73585E-1,-2.241756E-1,5.36E2,5E2,3.5662E6,4.9298E2,5.0274E2,5.0283E2,5.2148E2,3.930871E-2,-1.0047328E-1,2.9585877E-2,1.9131897E-1,1.4640045E-1,3.283588E-1,-4.8158918E-2,1.6012955E-1,-3.2588046E-2,-1.5916581E-1,3.6836497E-2,-2.8905107E-2],"split_indices":[1,64,53,93,7,8,18,74,0,85,0,0,0,0,57,0,39,93,80,58,2,0,0,0,0,0,0,0,0,0,0,0,0],"split_type":[0,0,0,0,0,0,0,0,0,0,0,0,0,0,0,0,0,0,0,0,0,0,0,0,0,0,0,0,0,0,0,0,0],"sum_hessian":[1.38E2,9.5E1,4.3E1,5.6E1,3.9E1,1E1,3.3E1,5.1E1,5E0,3.6E1,3E0,5E0,5E0,6E0,2.7E1,3.8E1,1.3E1,2.5E1,1.1E1,1.9E1,8E0,3.3E1,5E0,4E0,9E0,1.7E1,8E0,6E0,5E0,9E0,1E1,5E0,3E0],"tree_param":{"num_deleted":"0","num_feature":"98","num_nodes":"33","size_leaf_vector":"1"}},{"base_weights":[-1.7845592E-1,1.3983916E0,-3.0503845E0,1.1502014E-1,2.8249865E0,-4.4454536E0,-1.1587591E0,8.1615245E-1,-2.7711244E0,2.2819488E0,5.3693366E0,2.9090578E-2,-5.2730885E0,-2.4212923E0,-1.326341E-3,2.214198E0,1.6129908E-1,-2.207297E-1,-4.6985626E-2,2.9281452E0,8.1402117E-1,3.2611772E-1,1.4369927E-1,-6.1950817E0,-2.5394669E0,-1.819753E-1,-3.9976504E-2,-6.464055E-2,9.67453E-1,1.375174E-1,1.6013717E-2,-5.4103505E-2,4.363275E-2,1.7800331E-2,1.928519E-1,-1.763794E-2,1.7637329E-1,-3.4689027E-1,-1.7766672E-1,-1.53096E-1,-6.2576674E-2,8.067047E-2,-4.092789E-3],"categories":[],"categories_nodes":[],"categories_segments":[],"categories_sizes":[],"default_left":[0,0,0,0,0,0,0,0,0,0,0,0,0,0,0,0,0,0,0,0,0,0,0,0,0,0,0,0,0,0,0,0,0,0,0,0,0,0,0,0,0,0,0],"id":29,"left_children":[1,3,5,7,9,11,13,15,17,19,21,-1,23,25,27,29,31,-1,-1,33,35,-1,-1,37,39,-1,-1,-1,41,-1,-1,-1,-1,-1,-1,-1,-1,-1,-1,-1,-1,-1,-1],"loss_changes":[6.518545E2,1.6994423E2,1.2943518E2,1.0344011E2,4.854129E1,1.2372937E2,3.360663E1,3.7178963E1,2.5950233E1,3.3662094E1,1.3951416E0,0E0,4.7277283E1,1.8822289E1,1.7515862E1,1.2319679E1,2.6594135E1,0E0,0E0,6.074713E1,4.2402252E1,0E0,0E0,1.0665344E1,1.5509834E0,0E0,0E0,0E0,5.554528E0,0E0,0E0,0E0,0E0,0E0,0E0,0E0,0E0,0E0,0E0,0E0,0E0,0E0,0E0],"parents":[2147483647,0,0,1,1,2,2,3,3,4,4,5,5,6,6,7,7,8,8,9,9,10,10,12,12,13,13,14,14,15,15,16,16,19,19,20,20,23,23,24,24,28,28],"right_children":[2,4,6,8,10,12,14,16,18,20,22,-1,24,26,28,30,32,-1,-1,34,36,-1,-1,38,40,-1,-1,-1,42,-1,-1,-1,-1,-1,-1,-1,-1,-1,-1,-1,-1,-1,-1],"split_conditions":[5.0311E2,4.8627E2,5.2141E2,4.9408E2,5.0409E6,4.9057E2,4.776E6,4.0561E6,4.8314E2,4.9451E2,4.5571E6,2.9090578E-2,5.0448E6,4.776E6,5.3329E2,4.5959E6,4.7372E2,-2.207297E-1,-4.6985626E-2,4.8343E2,4.9977E2,3.2611772E-1,1.4369927E-1,5.2875E6,5.3313E2,-1.819753E-1,-3.9976504E-2,-6.464055E-2,5.2736E2,1.375174E-1,1.6013717E-2,-5.4103505E-2,4.363275E-2,1.7800331E-2,1.928519E-1,-1.763794E-2,1.7637329E-1,-3.4689027E-1,-1.7766672E-1,-1.53096E-1,-6.2576674E-2,8.067047E-2,-4.092789E-3],"split_indices":[10,16,64,94,67,77,60,11,22,44,25,0,25,46,64,18,86,0,0,86,17,0,0,46,1,0,0,0,65,0,0,0,0,0,0,0,0,0,0,0,0,0,0],"split_type":[0,0,0,0,0,0,0,0,0,0,0,0,0,0,0,0,0,0,0,0,0,0,0,0,0,0,0,0,0,0,0,0,0,0,0,0,0,0,0,0,0,0,0],"sum_hessian":[1.42E2,9.2E1,5E1,4.9E1,4.3E1,2.8E1,2.2E1,4E1,9E0,3.7E1,6E0,4E0,2.4E1,1E1,1.2E1,1.2E1,2.8E1,4E0,5E0,2.5E1,1.2E1,3E0,3E0,1.7E1,7E0,5E0,5E0,5E0,7E0,9E0,3E0,1E1,1.8E1,7E0,1.8E1,9E0,3E0,1.2E1,5E0,4E0,3E0,4E0,3E0],"tree_param":{"num_deleted":"0","num_feature":"98","num_nodes":"43","size_leaf_vector":"1"}},{"base_weights":[-9.108308E-2,1.1725515E0,-2.9471354E0,-3.0651778E-1,2.1639752E0,-6.056563E0,-1.7861719E0,6.4995915E-1,-2.8002737E0,2.4062862E0,-8.241081E-2,-3.7848386E-1,-1.7670111E-1,-2.3852818E0,-2.2960205E-1,1.9746188E0,-4.012487E-1,-3.700358E-2,-2.1968816E-1,2.6644897E-1,2.94749E0,-2.8709219E0,-3.1396486E-3,4.60968E-2,-8.548235E-1,1.5855582E-1,2.4801636E-2,-7.6994024E-2,3.377592E-3,6.4248E-2,-4.8311107E-2,1.1798719E-1,2.6119557E-1,-1.7877115E-1,-5.7621546E-2,-2.1986771E-2,-5.281029E-2],"categories":[],"categories_nodes":[],"categories_segments":[],"categories_sizes":[],"default_left":[0,0,0,0,0,0,0,0,0,0,0,0,0,0,0,0,0,0,0,0,0,0,0,0,0,0,0,0,0,0,0,0,0,0,0,0,0],"id":30,"left_children":[1,3,5,7,9,11,13,15,17,19,-1,-1,-1,21,23,25,27,-1,-1,29,31,33,-1,-1,35,-1,-1,-1,-1,-1,-1,-1,-1,-1,-1,-1,-1],"loss_changes":[4.942806E2,1.3996983E2,1.4079913E2,9.484365E1,5.6618988E1,1.52344055E1,2.9294144E1,4.11746E1,3.286032E1,6.1751373E1,0E0,0E0,0E0,2.5761276E1,7.987756E0,2.1425648E1,9.178472E0,0E0,0E0,1.6307428E1,4.520511E1,1.8882477E1,0E0,0E0,1.2068844E-1,0E0,0E0,0E0,0E0,0E0,0E0,0E0,0E0,0E0,0E0,0E0,0E0],"parents":[2147483647,0,0,1,1,2,2,3,3,4,4,5,5,6,6,7,7,8,8,9,9,13,13,14,14,15,15,16,16,19,19,20,20,21,21,24,24],"right_children":[2,4,6,8,10,12,14,16,18,20,-1,-1,-1,22,24,26,28,-1,-1,30,32,34,-1,-1,36,-1,-1,-1,-1,-1,-1,-1,-1,-1,-1,-1,-1],"split_conditions":[5.091E2,4.8618E2,3.8735E6,4.8111E2,5.091E2,5.1433E2,6.1293E6,4.8248E2,4.2387E6,4.838E2,-8.241081E-2,-3.7848386E-1,-1.7670111E-1,5.36E2,4.141E6,4.4811E6,4.6955E2,-3.700358E-2,-2.1968816E-1,4.2606E6,4.9973E6,6.262E6,-3.1396486E-3,4.60968E-2,5.3641E2,1.5855582E-1,2.4801636E-2,-7.6994024E-2,3.377592E-3,6.4248E-2,-4.8311107E-2,1.1798719E-1,2.6119557E-1,-1.7877115E-1,-5.7621546E-2,-2.1986771E-2,-5.281029E-2],"split_indices":[1,10,46,79,15,15,60,1,95,72,0,0,0,57,4,11,64,0,0,11,67,4,0,0,29,0,0,0,0,0,0,0,0,0,0,0,0],"split_type":[0,0,0,0,0,0,0,0,0,0,0,0,0,0,0,0,0,0,0,0,0,0,0,0,0,0,0,0,0,0,0,0,0,0,0,0,0],"sum_hessian":[1.35E2,9.4E1,4.1E1,3.8E1,5.6E1,1E1,3.1E1,2.8E1,1E1,5.3E1,3E0,5E0,5E0,2.2E1,9E0,1.2E1,1.6E1,5E0,5E0,1.1E1,4.2E1,1.8E1,4E0,3E0,6E0,6E0,6E0,4E0,1.2E1,6E0,5E0,3.5E1,7E0,1.2E1,6E0,3E0,3E0],"tree_param":{"num_deleted":"0","num_feature":"98","num_nodes":"37","size_leaf_vector":"1"}}]},"name":"gbtree"},"learner_model_param":{"base_score":"[4.910313E2]","boost_from_average":"1","num_class":"0","num_feature":"98","num_target":"1"},"objective":{"name":"reg:squarederror","reg_loss_param":{"scale_pos_weight":"1"}}},"version":[3,2,0]}